-0.003508251 -0.025897484 -0.010998225 0.0035545914 -0.027251815 -0.004956601 -0.0413475 -0.041575257 -0.0065661734 -0.04165825 0.01716972 0.0009518497 -0.024998117 -0.039334994 -0.011372526 -0.044069823 -0.023446776 0.017993912 0.018937068 0.018240876 -0.035897356 -0.00049281784 -0.043827828 0.034726117 -0.01273447 0.03854503 0.009003383 -0.029722132 -0.0279795 0.042422213 -0.03644987 0.022600483 -0.000112921945 -0.005423256 0.041709874 0.037835833 0.041377988 -0.035673104 0.0061364863 0.03150496 -0.0341222 0.031449508 -0.026602438 0.0073493775 0.039743867 -0.020200858 -0.030984398 -0.013860491 0.019222176 0.017903127 -0.034807216 0.021872787 -0.011699212 -0.024180885 0.011279102 0.0015664245 -0.031327594 0.0284788 0.030722417 -0.03699991 0.029591702 -0.027002295 -0.011840282 -0.006991767 0.013058295 -0.043440245 0.023724977 0.018891493 -0.03951071 -0.01609841 0.042581867 -0.037051674 -0.01062002 -0.037060544 0.036954362 0.033821877 0.016129993 0.042431343 0.004694353 -0.043605335 0.014163417 -0.035263803 0.02575783 -0.014351254 0.029561894 -0.00974158 0.04046737 -0.042523913 -0.013542272 0.028967565 -0.00669901 0.015458921 0.038730122 0.012076489 -0.038633667 0.0039613927 0.012504264 0.014765195 -0.026907058 -0.004542413 -0.028124623 -0.009448543 -0.0019106325 -0.04084243 -0.033789966 -0.013798693 -0.029052991 -0.009887456 0.03357363 0.011287268 0.043998215 0.034289617 0.0011282922 0.034767568 0.023056617 -0.014663547 0.009119398 0.0072356495 -0.0071608494 0.0348544 0.026183955 0.043371323 0.021766212 -0.0034371333 -0.041918136 -0.013798514 -0.025938066 -0.0068589305 0.031114109 -0.0005682449 -0.029787458 0.043154504 0.0040379576 0.023427768 -0.009414841 0.018891603 0.02938612 0.0025556374 -0.032899868 -0.035242394 0.0029865152 -0.041306183 0.0028504336 -0.008122145 -0.034689844 -0.0126169855 -0.041793674 0.041195046 -0.011594614 0.018371152 -0.012583853 -0.034784 -0.035570826 0.025733916 -0.036780663 -0.027190143 0.0041758097 0.042453315 0.015398009 0.013112506 -0.021150643 -0.00045562323 -0.027776727 0.003845178 0.005583003 -0.0058178664 -0.0019210691 -0.021858346 -0.028852532 -0.01631939 0.019286862 0.03036133 0.0077979835 0.016298065 0.03628752 -0.011878478 0.017513016 0.012565514 -0.026246734 0.0012977594 0.014185686 0.0035280967 0.041588534 -0.020941652 0.009390302 0.038452502 0.009419947 0.028893624 0.014305252 -0.010664143 -0.01851237 0.040123824 0.017215922 -0.01244962 0.024661416 -0.043360345 0.0108182 -0.0019688741 -0.03803967 -0.0028771388 -0.02067797 0.005365552 0.0031360732 -0.039761227 -0.01708178 -0.00986782 0.021023875 -0.041953932 -0.0051468834 -0.026562471 -0.027888818 0.025727795 0.03695384 0.014101224 0.003854719 0.036711533 -0.002669202 -0.0052077803 0.004448863 -0.02440363 -0.009965032 0.008014113 -0.03280379 0.013176532 0.022477472 -0.011988944 -0.01951703 0.01204932 0.039186485 -0.021583233 -0.0023029828 0.025882432 -0.04085414 -0.035824645 0.02557396 0.034695122 0.010038974 0.015563124 -0.023392892 0.0145621365 -0.01605432 0.025102379 0.0044555436 -0.023371164 0.0416442 -0.007512897 0.022401402 -0.018929124 0.032621898 0.01461729 -0.029474745 0.00025262294 0.042854168 -0.006896099 -0.043041937 0.012511866 