-0.038908184 -0.032521825 -0.025507668 -0.02283411 -0.023707075 0.0013913728 -0.0036621343 -0.024407735 0.030359628 0.0061760778 0.035901465 -0.025234677 -0.018829469 0.015050576 0.035078038 0.014261445 0.030573735 7.9035875e-05 0.030794278 -0.018591037 -0.022760725 0.04352531 0.021090426 0.005648299 0.043402024 -0.01761457 -0.011120662 0.02204052 0.019226639 -0.026543137 -0.009296351 0.020112371 -0.030135438 0.025362862 -0.039741065 0.034933805 0.036431067 0.0058642807 0.009017539 0.0064743566 0.026417207 0.009025126 -0.03655715 -0.0032904886 0.00022968979 -0.041085728 0.03979286 -0.01371342 -0.04117531 0.038005162 -0.020131959 0.030264908 0.030077692 -0.032947335 -0.026331132 0.015045081 0.030992847 0.008777956 0.031876672 0.038883243 -0.011060234 -0.024702994 0.035765667 0.01663861 0.0134091405 -0.03206979 0.0033459014 0.0052592047 -0.02305039 0.019643229 -0.019282266 -0.017090583 -0.008387792 0.023126317 -0.015766367 0.011419256 0.022759197 -0.041871388 -0.04043872 -0.043798983 -0.0149920555 0.03468864 -0.011992385 -0.019886931 0.03705417 -0.028043011 -0.030260347 -0.005300003 0.029509664 0.029798212 0.007898604 -0.023585271 0.018584741 -0.028109683 0.005313174 -0.028057747 0.04164706 -0.016440948 0.023263784 0.023894202 0.00041193803 0.02513777 0.009771667 -0.018207343 0.0108236 0.03222665 0.007087567 -0.016036527 -0.016545398 0.012319655 0.02192598 -0.028773436 -0.015842926 0.00908019 -0.016223645 0.0052180802 -0.0126252305 0.03888708 -0.010093126 -0.02182848 0.030884784 0.010988058 0.033428602 0.013677389 0.03796247 0.036526065 -0.011720495 -0.043848984 -0.006601582 -0.0024169057 -0.03417291 0.037841793 -0.0035607975 -0.03600014 0.007586359 -0.010166942 -0.031713936 0.02646842 -0.041752152 0.009455577 -0.03342062 -0.034433436 -0.009354735 0.030856134 -0.028928243 0.042669263 -0.00012417515 0.030390328 0.022257218 0.0010147697 0.0258885 0.041406564 0.0020201774 -0.016263146 0.03644598 0.014619667 0.007404948 0.042337146 0.029115932 -0.04324838 0.032249946 0.018927949 0.035096686 0.0020379003 -0.011455655 0.016420854 0.035247028 0.014967241 0.006463909 0.003615857 0.003030564 -0.027196618 -0.03774272 0.0053336993 -0.0139792925 -0.00019897526 -0.042527076 -0.03878925 0.019454084 0.006505508 0.030656869 -0.024164168 0.016962789 0.040824015 -0.014503294 -0.022676928 -0.041141983 -0.029467832 -0.03429196 0.027478602 -0.03280809 -0.0037772795 -0.03277881 -0.020266054 0.025021309 -0.011985289 -0.043074857 0.04178031 -0.014610663 -0.034528032 0.003370436 -0.006826936 0.0409896 -0.009996827 0.018187003 0.03798831 0.0389525 0.00084505486 0.026556443 -0.002170826 0.0035336865 -0.00503412 -0.027979538 -0.0273542 -0.010702544 -0.0018280669 0.03325851 -0.0007370851 -0.0057575493 0.030893734 0.041813836 0.0030060872 0.019277494 -0.019560315 -0.027255772 -0.036082186 -0.04208406 -0.043690935 -0.029241772 0.04038864 -0.025275143 -0.030721022 -0.008178422 0.009977165 0.012587451 0.016268505 0.021576067 0.003365015 -0.0044932757 -0.03655915 -0.039915994 0.026598275 0.009453917 0.013411185 -0.040565666 -0.01928419 -0.022651196 -0.032517552 0.0069400896 0.013029909 -0.013720853 0.04000074 0.03623349 0.03806461 -0.009340579 -0.038709395 0.025559772 0.030314889 0.012253316 0.03790293 0.021284875 0.035022378 0.041219853 0.02320126 0.034949042 0.038406678 -0.018042238 -0.019243013 -0.005618117 -0.033975106 -0.018430242 -0.023440212 0.0050254427 -0.005274367 0.027410703 -0.021665433 0.02972319 -0.015352558 0.020241946 -0.0176555 -0.04359318 0.037072737 0.015638914 0.02214033 0.0046493504 -0.018963674 0.0039312155 -0.028159315 0.022852622 -0.032320984 -0.0076822904 -0.011458906 0.010360317 -0.003840426 -0.01711812 -0.0019531008 -0.028382162 -0.043438226 -0.01717306 -0.0043808697 -0.041944515 -0.027331013 0.01238856 0.037281025 -0.028209787 -0.03822814 0.018738836 -0.017259972 0.006137893 0.0067951307 -0.027827103 0.040104166 -0.01513261 0.017443812 -0.014315952 0.032140695 0.0045788386 -0.04136226 -0.02969578 -0.021352636 -0.016756676 0.030185446 -0.044034537 -0.041410774 0.0027992725 -0.033536844 -0.002747495 0.04270818 -0.01751425 -0.039857067 0.0039871023 -0.025464099 0.017072793 0.008301396 0.005594262 0.011603016 -0.024026096 -0.012872485 -0.03839055 0.017482601 -0.02544676 0.024842147 0.015709374 0.0056724967 -0.0030678532 -0.0047630835 -0.0034585597 -0.012197524 0.027768482 -0.0305443 -0.015111642 0.013112316 0.043871585 0.026980104 -0.024380097 -0.0012747683 0.04208051 -0.040317096 0.0011676152 0.0335522 0.026897555 -0.00079871964 -0.02673847 -0.037986845 -0.0024803472 -0.016045721 0.029243853 0.016998135 -0.04414986 -0.032578424 0.03318474 -0.016363308 0.03137141 -0.004219453 -0.037223957 0.032623034 -0.038420577 -0.0036709693 -0.025725134 -0.04212408 -0.025808658 0.034602247 -0.011047274 0.011821943 -0.001817488 0.04058749 0.020863727 -0.016778903 -0.008803123 0.00742 0.008393166 0.00020995979 -0.0008143719 -0.024649553 -0.017979434 -0.0051881503 -0.032737587 0.0060403333 0.0020906944 0.037442632 -0.0014773998 0.0026674161 0.03322312 -0.00052177795 0.02460418 0.033706155 -0.022162309 -0.009385023 -0.0030017511 0.00949018 0.036014132 -0.019304683 -0.035554036 0.021962954 0.019891474 0.029357066 0.021170577 -0.03233561 0.03029645 0.036789842 0.041092016 0.029321978 0.022687785 -0.019486157 0.0037414548 0.04410534 -0.022058917 -0.005205241 -0.02651132 -0.029466705 -0.028432885 0.010408233 0.04099209 0.024708884 -0.02947458 0.010074161 -0.025844067 -0.0057249013 0.03991075 0.030917294 0.016565582 -0.03579269 -0.027838614 -0.0069980943 -0.0023502188 -0.016658789 0.019469868 0.030189449 0.02949233 0.036985766 -0.041153338 0.037997168 0.019296598 -0.027877584 0.013671569 -0.043524813 0.00865778 0.007383269 0.040081352 0.040393725 -0.00018704245 0.0113167865 0.012375669 0.01527034 0.010155225 -0.043542963 -0.0036446117 0.042298738 -0.0037066888 -0.025894307 -0.04118495 -0.04384476 -0.0069116456 -0.012130827 -0.010622729 -0.01639683 -0.017194023 -0.01245078 0.010733121 -0.031830132 -0.00983572 -0.034220174 -0.028223163 -0.022776784 0.015276536 -0.031980827 -0.027379267 -0.019243492 -0.036715694 -0.00035060383 0.035555042 -0.0031725038 0.03378217 -0.03261026 0.0373278 0.028102053 0.020659775 0.021940758 0.037218306 -0.0154593745 -0.039168287 0.043063316 -0.02567557 0.013182275 -0.02214024 0.028189234 -0.04330626 -0.008583416 0.02734848 0.0107599 -0.037360493 -0.014229413 