0.01760742 -0.031222496 -0.04066624 -0.029334065 -0.010541254 -0.030050345 -0.008685638 -0.02489864 0.033134766 -0.017625796 -0.022984583 -0.026019366 0.005473474 0.009837064 0.040830113 0.03410965 0.030227514 -0.038335547 0.036082912 -0.042083386 -0.015972918 0.030886153 -0.018197645 0.005610973 0.025624977 0.039721467 -0.026644662 0.012545278 0.023612788 -0.014958385 0.006730567 -0.017736547 -0.016350469 -0.03841807 -0.029015502 -0.032699343 -0.03472723 -0.008344196 -0.011161286 0.014802863 0.030890806 0.03393407 -0.034640573 0.005448502 0.032965437 -0.02036717 -0.0016365357 0.0072674337 0.021604026 -0.025583826 -0.0275293 -0.032612424 0.04242035 -0.01442076 0.006679738 -0.010241663 -0.02733889 -0.0052781184 -0.0095739355 0.007307937 0.042211022 -0.04269245 -0.003615599 -0.028130624 -0.015991293 -0.000794526 -0.031816997 0.041463617 0.023284083 0.01658232 0.018941488 0.029802399 -0.017362546 -0.013258281 -0.0006705563 -0.03604553 0.012671202 0.018654248 0.0011085412 0.030326676 -0.011262581 -0.038867164 0.008225932 -0.023362666 0.041365325 -0.00043652017 -0.017455323 -0.023546606 0.0035944413 -0.03655735 -0.03804992 0.010105133 0.018720308 0.005234417 -0.03560177 0.024227057 -0.012498964 0.04317957 0.012134193 0.017107964 0.037658587 0.012411673 0.01629965 -0.015631765 -0.012034252 0.026947262 0.02556829 0.034989584 -0.004000057 0.008312807 -0.03273664 -0.011430747 0.027289974 0.021650577 0.015953619 -0.04088904 -0.0266878 0.0057364125 0.03798924 -0.00293115 0.026202854 0.0022532863 0.030153656 0.023925459 -0.015302214 -0.03074503 0.02243973 -0.0058420957 