-0.021349976 0.017156892 -0.03822074 -0.011304823 0.010449948 0.041564774 -0.03866779 0.005088863 -0.015246791 -0.033584554 0.035729736 -0.032091293 0.01823469 -0.04252756 0.030770939 0.041056804 -0.023114922 0.019518742 -0.01971639 0.010461954 0.037937548 0.016125094 -0.04131206 -0.005495285 -0.0056269728 0.023978896 0.014422719 0.0048370725 0.038333613 -0.034905422 -0.009472151 0.007344283 -0.005271085 -0.002778963 0.009298195 0.020239554 0.037071712 0.015942056 -0.04125255 -0.007564353 0.035446968 -0.023312997 0.02312488 -0.019449659 -0.009700192 -0.017004753 0.0034391407 0.042968526 -0.043385502 -0.039937805 0.014836854 -0.020442221 0.039651126 0.016946774 0.037890695 -0.0332641 -0.0021276993 0.01378037 0.025668569 -0.011975832 -0.039416406 0.005880481 -0.008152829 0.024284698 0.022873932 -0.0070491023 -0.0075174277 -0.010193373 -0.012261002 -0.017469583 0.014663905 0.04289364 0.007941894 0.027196776 -0.0030308852 0.02661764 0.039466787 -0.029256124 0.024579873 0.031733885 -0.02258225 -0.0019411679 -0.0017581347 -0.003095844 0.037593134 0.04337473 -0.03882677 0.040799167 -0.02314542 0.018630667 0.012280427 -0.0022933523 -0.024458148 0.016476847 0.00505553 -0.017611023 0.0076232217 0.04229266 -0.008841677 -0.039522257 0.015940344 -0.021285681 -0.009383985 -0.0007261691 -0.017685734 0.009885575 0.02507296 -0.028723724 0.019341921 0.013564152 -0.0109438505 0.0059482004 -0.01096338 0.021059178 -0.03837854 -0.011941988 -0.042577256 -0.004888576 0.027547976 -0.040658932 -0.032632187 0.043706387 0.03478696 -0.03792161 0.034828737 -0.00213164 -0.0038642285 -0.041114267 -0.0064645573 0.042950474 0.03708733 0.0054887733 -0.008559956 -0.0012120643 -0.020931067 0.03644438 -0.021544214 -0.043418825 -0.04241607 -0.0038322022 0.01038 0.01587108 -0.043514054 0.02820592 -0.023190213 0.02705521 0.013488319 0.028159663 -0.010139699 0.035306558 -0.0390092 -0.006537998 0.0014846438 0.031617053 -0.021805914 0.014372317 -0.0015880511 0.008379436 -0.012703429 0.022147141 -0.013419082 0.035545535 0.00792033 -0.00017090546 0.008305895 0.035973426 0.0055982023 0.019700896 0.010900212 0.021817707 -0.003981128 0.03800927 -0.002319752 -0.028536072 0.008459541 0.0025120575 -0.004660182 -0.041333046 0.030832995 0.005349241 0.035977878 -0.00011509777 0.0015996151 -0.037329916 -0.028417176 -0.026340272 0.036034547 -0.027820634 0.007678508 0.022406412 0.003197908 -0.039763764 0.028779885 0.020143058 -0.0013817002 -0.036171865 0.019899122 0.038532507 -0.009260026 0.0048946873 -0.03540754 0.025457107 0.021211518 0.042101365 0.023759821 -0.0337855 0.033459213 -0.026951287 -0.0028207041 -0.01824636 0.009737097 -0.033515967 0.010958433 -0.012013459 -0.030526277 0.032086648 -0.009623463 -0.016810192 -0.014832846 0.014892752 0.0044475934 0.031019079 -0.0029772164 -0.010734391 0.043481212 0.035218727 -0.04414372 0.011565785 -0.02617913 -0.01152984 0.026514603 -0.01897133 0.030635811 0.00031789788 -0.0094706705 -0.020392379 -0.0020745047 -0.0054767933 -0.030800648 -0.0040361034 -0.043654766 -0.022150697 0.015394747 -0.0030814088 0.031301025 -0.02355081 0.026706398 -0.037182283 -0.027982436 -0.039655995 -0.041449677 -0.013388968 -0.034244355 -0.03992201 -0.036917597 0.043922536 0.029566055 0.022953179 -0.027914574 0.03667637 0.041018113 0.042922873 0.009015548 -0.004528226 0.013506748 0.02921269 -0.01824361 0.02612385 0.00819703 -0.042733762 0.0123117 0.03236124 -0.023481894 0.027489355 -0.0051177284 0.01759457 0.040618204 0.014004196 0.031650197 -0.010500392 0.016686374 0.001922618 0.0014343099 -0.0050955326 0.040786207 -0.028874975 0.029168505 -0.027232727 -0.01260069 0.028190741 0.012907383 0.008908495 -0.005984178 -0.024743471 -0.021570578 -0.005005665 0.0023386232 0.005591227 0.031899896 0.014660781 0.03390669 0.018691663 -0.042198226 -0.022336634 0.00554446 -0.03860653 -0.009416465 -0.032428242 -0.002989913 -0.035626326 0.03755819 -0.03918728 0.027668199 0.022372358 -0.0025715793 0.02870283 0.014446027 -0.038661625 -0.0060458914 0.016993029 0.037090413 -0.003974137 0.011158473 -0.003309555 0.013503623 0.010942476 -0.033121802 0.037276518 0.037416555 -0.016751697 0.005130636 -0.018852612 0.03616426 0.003347998 -0.012127176 -0.021908654 0.041131895 0.0073351213 0.027126448 0.04394604 -0.03876815 0.041118424 0.037407193 0.016680716 0.034799572 -0.035456717 -0.031471603 0.041115187 -0.0238446 -0.0120030325 -0.036112767 -0.008314377 -0.039956696 -0.031163296 0.03798054 -0.0060381736 -0.013248935 -0.04276461 0.020153906 0.022596357 -0.030967275 -0.030949142 -0.04306767 0.029021634 -0.007562957 0.018756617 -0.010260782 -0.02251189 -0.0014973616 0.028997894 0.026738646 -0.008829075 -0.00047213427 0.02369293 -0.030767173 0.0140974885 -0.03433482 -0.024133032 0.030748343 0.0026305323 0.02377334 0.005136231 0.032703914 0.030936608 -0.00209522 0.024177566 -0.0028491796 -0.041052505 0.040918577 0.040975712 -0.010598636 0.02998891 -0.002612541 0.025411783 -0.021008339 0.036350712 -0.004645942 -0.021737995 0.029428173 -0.01826735 0.037584074 -0.020406034 0.030041061 0.029749943 -0.00737279 -0.010899275 -0.017023727 0.013338018 -0.0033857669 -0.039937675 0.030202005 -0.003290536 -0.00068326364 0.015403498 0.022501286 0.021926591 0.015325832 0.03203487 0.012077427 -0.024722809 -0.03805243 0.002825235 0.013582391 0.04067048 0.0381453 0.023453878 -0.016208028 -0.040350612 -0.0030788167 -0.023434605 0.03564507 -0.027185792 -0.0030873409 0.005180485 0.017961264 -0.03818392 -0.009686784 -0.012174517 -0.013402698 0.021148361 0.031140236 0.0067844307 -0.040950768 0.022408662 -0.029244334 0.024121806 -0.03955111 -0.02337393 -0.04035683 -0.04117962 -0.014377649 -0.03850171 -0.017263291 -0.03291718 -0.025561357 -0.005426665 0.041005585 0.024540044 -0.028028239 -0.033220146 -0.021529917 -0.038485825 0.041482244 -0.0074229133 -0.022992697 -0.038644303 0.035274424 0.01107588 0.006038558 -0.018495385 -0.0030304794 0.02834139 -0.0417216 -0.012691117 0.031388864 -0.038136084 0.041592985 -0.013729794 0.034916595 0.01965886 0.022443717 0.016245939 -0.010942607 -0.03343418 0.005563542 0.017644262 -0.009702826 0.027875705 -0.023389973 -0.032834016 0.02137146 0.008737558 -0.016222322 0.039643746 0.008127777 -0.015461687 0.020040277 -0.008600291 0.012260512 -0.035892345 0.0029097341 -0.0078003174 -0.021029059 0.01379272 0.009858269 0.007861594 0.017704515 -0.033572566 -0.042878594 -0.0343516 -0.034518912 0.019551123 -0.019937044 -0.028255088 -0.01667342 0.03999321 -0.0410501 0.031443793 -0.023872217 0.007815653 -0.03442239 -0.008664191 -0.034212988 0.007588129 -0.0074821822 -0.03586768 0.02914151 -0.0051446497 0.043309357 -0.008055722 0.03554616 0.010105797 -0.025228444 0.025411414 0.035286114 0.04084179 -0.017285524 -0.031578664 -0.03670506 0.024186997 0.040137514 0.026470438 0.0059909164 0.030667316 0.03680876 -0.03454629 -0.03298153 0.0015265272 -0.010050247 0.0414653 0.006973275 -0.04225035 0.007782231 -0.019713761 0.040075984 0.043135397 -0.020780688 -0.029898273 0.0016350554 0.03701779 -0.011354571 0.027738737 0.00017414024 -0.029048191 -0.031356823 -0.023992551 -0.03064324 -0.015951887 0.038161393 0.030717075 -0.013790301 0.030008372 -0.021872649 0.019531328 0.03472776 0.019487549 0.03047068 -0.031627204 0.005854745 0.025366629 0.017634895 0.0031437492 -0.040921632 -0.038645223 0.011308557 0.00062743487 -0.018557964 0.011701846 0.011884753 0.03412383 -0.0021828327 -0.0026954226 -0.0062792376 -0.03946287 -0.035967644 -0.016740406 -0.039085895 -0.002682415 -0.0014406004 0.0021246383 0.03603723 0.031487357 0.018965965 0.03485508 7.669673e-05 0.03472917 0.026646076 -0.018428113 -0.01177053 0.025864424 0.031513177 0.039855834 -0.022390377 -0.025743496 -0.027993357 -0.03096952 -0.009453964 -0.010004808 -0.02868457 0.020072058 0.040906128 0.016986566 0.03889712 -0.0364545 -0.04092102 -0.017647833 -0.02016136 0.01630033 -0.025569139 -0.019164557 -0.035506237 0.038827848 0.02453722 0.0010452629 0.024923513 -0.024907196 0.002615412 0.021403924 -0.03790761 -0.0075656646 0.030611297 -0.041737705 -0.010336673 0.022740848 -0.0033734443 0.033787884 0.03034357 -0.04009719 0.0062958803 0.0045753564 -0.0031332283 0.027647357 0.006778472 -0.023761349 0.03244722 0.01259106 -0.0005194283 0.01679526 0.00506534 0.02501631 0.02700781 0.04049015 -0.032812912 -0.018754072 0.007921643 0.0007922238 0.033644643 0.012017552 -0.013941524 0.010469393 -0.005053402 0.0014704403 0.0032825388 -0.022389801 0.029600222 -0.01139234 0.022083899 -0.001151573 -0.009947041 -0.029541906 0.0035654441 -0.043179456 0.0043838676 -0.025687039 0.0061326246 0.015474094 0.032459833 0.037426975 -0.0093656145 0.029933535 -0.04082241 -0.014030006 -0.04226724 0.039015546 -0.0015203316 -0.03769054 0.03005596 0.029189141 -0.0301603 -0.035571013 0.021933667 -0.033448532 0.018834531 -0.004577859 0.034011714 0.003333626 -0.008265033 -0.0011525898 -0.020419542 -0.03521903 -0.0004442225 0.025021851 0.019993942 -0.022079516 0.017116858 0.035323326 0.016078511 -0.01142393 0.0061287996 0.043437317 -0.008174391 -0.0119723175 -0.040993847 0.017193384 0.006466454 -0.009575837 0.027150657 -0.032550924 -0.02926988 -0.032214776 -0.008539284 -0.010375321 -0.03108575 0.010085298 0.0072106617 -0.030831398 -0.02840972 0.016775299 0.032329608 0.014298776 -0.00050551456 0.02093914 -0.032953084 -0.016488422 -0.018659495 0.038378656 -0.01909669 0.009714606 -0.041459158 1.8660518e-05 0.034223203 0.03979543 0.032232024 -0.0015299622 -0.024102075 -0.012282055 -0.008506536 -0.009135561 -0.035149492 0.023152607 0.021174282 0.004410541 -0.0024793094 0.014698471 0.042800143 -0.007033118 -0.035026856 -0.01159767 0.008926471 -0.019238804 -0.038467597 -0.043203104 -0.027953159 -0.012139789 -0.025510155 0.012404445 -0.0008831819 0.0011968019 0.035103694 0.026988566 -0.040722344 -0.008045512 -0.022228327 0.023362514 -0.010105866 -0.03895042 -0.03928228 -0.035326425 -0.027227402 -0.005454724 0.01153398 -0.03125571 0.024979757 0.006030013 -0.0041765473 0.030726554 0.004249593 0.0056607537 0.009012619 0.014624129 0.003512413 -0.017522799 0.012263795 -0.01191808 0.027189063 -0.041225206 0.00408158 0.027068682 0.04033709 0.0038487448 0.021095445 0.034394577 0.00486834 -0.043996822 -0.03248731 0.0040053623 0.0275777 0.01764738 0.020711055 -0.043146145 0.0034220342 0.032147978 0.041064654 0.032430496 -0.030905293 -0.005814263 -0.009333382 0.004697825 -0.039829277 -0.040499453 0.02955397 0.029402005 0.011721728 -0.03291171 -0.03746344 0.037679665 -0.007559016 0.00725509 -0.012574928 0.037096318 0.01314527 0.020706609 -0.016903773 -0.0066308584 0.007962614 -0.014968921 0.033461962 -0.0367786 0.03359964 0.03888711 -0.035558958 0.00399235 -0.024693834 -0.016949903 0.03846798 0.009623279 -0.027856685 -0.04007811 0.014267177 -0.023010725 0.019813897 0.010151 0.021217393 -0.013358738 0.025211355 0.005783275 0.0056619863 0.01791299 0.02612291 0.02600547 -0.0107311355 0.026840625 -0.013459227 -0.01633161 -0.034821205 0.022597317 0.004292414 -0.015596568 0.028089847 0.043661572 -0.018086502 0.01604933 0.026685208 0.017116794 0.043520473 0.0009910883 0.0024823176 -0.019725483 0.034790907 0.008277852 -0.02754853 -0.03591916 -0.036122497 -0.012621269 0.008641595 0.034012686 0.0192506 0.010262605 0.0051345923 0.034821037 -0.039341133 0.02838049 0.0029488937 0.01835089 0.019881874 0.043899637 -0.034289405 -0.017471539 0.03918501 0.02662467 -0.020318495 -0.044135604 -0.0074950373 -0.020693222 0.023594126 9.480934e-05 0.026866466 0.033329774 0.020651909 0.031646747 -0.029238291 -0.018966187 -0.0325472 -0.0019327491 -0.028086169 0.017433701 0.010370353 -0.0147817 0.016099 -0.04134495 0.0392477 -0.014173237 -0.019175382 0.01679788 -0.004082075 0.04336149 0.017261263 -0.013944869 -0.036467817 0.019419929 -0.023260498 -0.041574508 -0.0042488235 0.008007543 0.021945443 0.0014222137 0.039876446 0.012097383 0.022027744 0.041932967 0.03686541 -0.020445906 0.025753742 -0.040173963 0.014318006 0.037891366 -0.04171243 -0.0038883418 0.0036447067 -0.001456653 0.005945914 -0.023295622 -0.04162345 -0.024380771 0.040662393 0.020054445 0.035882197 0.02374193 0.017378114 -0.00085703505 0.038404554 -0.04027935 -0.0148722 0.039465662 0.03441526 -0.040527962 -0.028809978 -0.043186557 0.039553594 -0.014217892 0.043099876 0.000111947294 -0.036963154 -0.027288556 0.04387775 0.010366197 0.023220016 0.036580667 -0.013986468 0.0029732862 0.025180576 0.024694419 -0.03462499 -0.0138881765 -0.037002746 0.00017302335 -0.005953932 0.016358035 -0.026581254 -0.0016591949 