0.018906575 -0.02601571 -0.0011771667 0.040845502 -0.026127717 -0.0010010983 0.02947031 -0.020908214 -0.043937977 -0.012535378 -0.041620653 -0.009923359 -0.0121385185 -0.011110078 0.001570223 0.010266309 0.017039675 -0.012635203 -0.030797035 0.0067013064 -0.042257015 0.01911525 0.015129427 0.017113544 0.03548784 -0.03010491 0.03525151 -0.020407593 0.03877335 0.02181131 0.022761447 0.008736736 -0.0022544402 -0.03997711 0.007335006 -0.040732324 0.0052632564 0.016666882 -0.04068294 0.03237614 -0.033335675 0.0035914436 -0.002046082 -0.0059087775 -0.043181393 -0.0045751086 -0.027067507 -0.04398958 0.0010211654 0.043214247 -0.026586263 0.03709336 0.027641341 -0.03689428 -0.043823253 0.0055872863 0.003265564 0.008026282 0.04006587 0.03611228 0.038351364 -0.005230793 -0.003954976 0.01689833 0.0104057565 0.044065766 0.017867098 0.015301992 0.027722647 -0.040129047 -0.0003006914 0.02992629 0.008022879 0.007692458 0.014156315 -0.0056555644 0.021066017 -0.0041032117 -0.015191447 0.0030556307 -0.034943108 -0.025522012 -0.017572975 -0.03733465 -0.036603216 -0.011699765 -0.022446658 -0.023033379 -0.011132136 0.031114731 -0.025656156 -0.01221158 -0.0070634903 0.0011394558 0.015592421 -0.021657431 0.02690454 -0.02045259 0.027867943 0.008524932 0.015871745 -0.042407684 0.01251254 0.015596831 0.01906844 -0.017923452 0.037171133 -0.00082644174 0.021984939 -0.033331294 -0.037202984 0.040982783 -0.035329696 0.025990564 0.0066008233 -0.005169432 -0.022008568 -0.026597006 -0.0037712052 -0.037696593 0.04216848 0.011785644 0.03358429 -0.030437652 0.0018510737 0.016405793 0.033711355 0.03935579 0.011445994 -0.033767007 -0.03693742 0.0013732812 0.01411991 -0.030673854 -0.011087671 -0.030435488 -0.016378919 -0.024362795 0.029634375 -0.040443413 0.007118587 0.03926851 0.025177848 -0.011140065 0.026544232 0.018400066 0.039425656 0.042612154 0.013885759 -0.007927954 -0.012486183 -0.018252103 0.01641321 -0.02996081 -0.030237066 0.00066795904 0.004225585 0.025122313 0.010974933 -0.020609535 0.0422358 0.0025299015 -0.004477676 -0.028109966 0.039044388 -0.03967571 -0.039002124 0.007112802 -0.011260521 0.025180444 -0.0375724 -0.02644859 -0.017557565 -0.00089330773 0.024234744 0.022501042 0.032606963 -0.039859727 -0.023862893 0.033770002 -0.0043089357 0.010092131 0.029789008 0.03468085 -0.033748724 -0.044133022 0.010276624 -0.021984212 0.034838807 -0.034292337 -0.026778996 -0.02984363 -0.002107764 0.020568805 0.00013921104 0.02062506 0.017001932 0.012601602 -0.043953747 0.024448728 -0.0041910615 -0.032919187 0.0068800463 -0.005157183 0.024053764 0.019447668 0.034869574 0.03986448 0.020058764 -0.029086968 -0.018134978 0.032545954 -0.0243784 0.029768456 -0.0029238216 0.03991332 0.028638905 0.017262828 -0.031517033 -0.024817623 0.014477379 0.024477724 -0.025591746 0.020640628 0.031397194 0.015427917 0.0293228 0.006944109 -0.021803634 0.005965307 -0.030623136 0.0043585426 0.0276539 -0.00021210402 -0.03714441 0.006202636 -0.029780572 0.009899088 0.03764438 0.015998326 -0.035048075 -0.017842405 0.017828759 -0.0066846586 -0.013250774 0.042203814 0.04076652 0.03037017 0.042975914 0.016364282 0.026447764 -0.0029513382 0.01464015 -0.007841885 -0.027981604 -0.038694583 -0.00011903323 -0.031600844 -0.0036630405 0.02402511 0.0057526496 -0.024950529 0.010880272 -0.039983414 -0.04025417 0.029886957 -0.0010273083 0.03648207 -0.0013921999 -0.015773678 0.03068417 -0.0056924745 0.03057707 0.03717013 -0.032631893 -0.043134924 0.027407499 -0.029319776 0.019946428 0.029454662 -0.022324512 0.014513194 0.014436112 -0.024603207 -0.041684564 -0.039391257 -0.015188396 0.025112804 -0.010808322 0.043881197 0.010353084 0.011758744 -0.029343905 -0.034660757 0.03773911 0.008558782 -0.024907576 0.021950547 -0.021611702 0.013870475 0.033403832 -0.004291018 -0.03844519 -0.009181048 0.01649134 0.03094958 -0.011677938 -0.003633053 0.017935017 0.010711721 -0.030630264 0.020076213 0.016478201 -0.035819057 0.016050525 -6.544352e-05 0.008276329 0.011794589 -0.03858037 0.03530805 -0.006274765 -0.004052883 -0.04343288 0.037236225 0.008275576 0.036003854 -0.035648264 -0.036883898 0.015484578 -0.02207919 0.022655549 -0.021811247 -0.015997251 -0.043648127 -0.017448053 -0.03218545 0.02778092 -0.04065292 0.031766143 -0.015894393 0.02726362 0.0182957 -0.029993637 -0.009906364 0.022318553 -0.007955771 0.029204162 -0.014045395 -0.013798984 0.016843924 0.035456773 -0.026582666 0.009259958 -0.020663656 0.008520597 -0.018468706 0.019514976 0.011645048 -0.017836425 0.011445335 0.015251358 -0.010700142 0.033141762 -0.015177817 -0.003770083 -0.0023729308 -0.0151540255 -0.027588379 -0.0326335 0.008542608 -0.032705322 0.037325617 -0.024846857 0.0021045185 0.031501383 -0.01664613 0.03041856 0.009404321 0.009135799 0.008234177 0.007134397 0.0027372586 0.007901143 -0.029016677 0.043223422 0.043661818 -0.036347628 0.037447754 -0.027967926 0.007958584 -0.016872153 0.022723552 -0.03568592 -0.030961221 -0.023958197 0.011042301 0.010833304 -0.040001664 -0.04213962 -0.043127716 -0.028767483 0.010693625 -0.017851265 0.015145665 0.029036734 0.02958903 0.031871635 0.04295321 -0.026586285 0.038340654 0.038049337 0.034604464 -0.02323847 -0.02823498 -0.038396433 0.009819093 0.038598567 0.029564533 -0.024763713 0.005461963 -0.04379603 -0.03087804 -0.002312587 -0.03285116 0.034286834 0.01577753 -0.0005327098 -0.017682046 -0.04177034 0.031264964 0.0017291219 -0.026397608 -0.029930199 0.041956898 0.03908316 0.017489778 -0.029962605 0.028668448 -0.01191896 -0.03295624 -0.011697647 0.019609716 -0.011700539 0.02892409 -0.039368846 0.0017225575 -0.0012453867 0.009036764 0.018598925 0.027232379 0.03265086 0.013461297 0.027624682 -0.019531291 0.038844716 0.038524844 -0.042412907 -0.0283895 -0.023468887 0.020611605 -0.0064522927 -0.00041133215 -0.0047454084 0.025175102 -0.0023692113 0.0020993082 0.04052041 -0.002211951 -0.037992816 0.027153354 -0.021599412 -0.040444683 -0.02552823 -0.02349731 -0.026546929 -0.039806407 0.029706959 -0.009221362 0.020178072 -0.00047209737 -0.02808923 0.020884985 -0.011380439 -0.039551307 0.025431981 0.0055276277 -0.044183567 -0.0052454807 -0.023245715 -0.011650943 -0.027540015 -0.022498503 -0.006837473 0.027911065 -0.027059315 -0.014734939 -0.017718123 -0.0040666177 -0.016433325 -0.026505373 -0.02088536 0.035224177 -0.016887726 0.025997836 0.007203813 0.029333152 -0.0077352845 0.03904982 -0.013487945 0.0044168634 0.013190177 -0.038549315 0.025796188 -0.020291526 -0.01887487 0.04219454 0.010552812 -0.007683776 0.0025403644 0.023666762 -0.0012139082 -0.0317789 -0.020588188 -0.018943021 0.031449962 0.025270296 0.030758237 -0.0013141388 0.028911004 -0.004287188 -0.022054171 0.02047525 -0.00036885342 -0.029690316 0.042798422 0.023631863 -0.014510975 0.042089276 0.04099279 -0.024633273 0.025461264 0.042287193 0.02553656 0.0036590365 -0.021469867 0.033145197 -0.026457647 -0.024715269 0.025189733 -0.013474642 0.04279741 0.004386407 -0.021330705 -0.0120572755 0.033315726 0.027334502 0.012654607 -0.04331598 0.014006667 0.009163515 -0.04244598 0.01395588 -1.6611126e-05 0.031333074 -0.04304671 0.03155679 0.0061838697 0.03994185 0.0039031669 0.034517847 0.040463235 0.010677941 -0.029221436 -0.0072013317 -0.024809953 -0.025395578 0.013215602 0.03875904 0.004028343 -0.015699796 0.040550563 -0.005577245 -0.028487539 0.028128317 -0.023409992 0.014353062 0.025944082 -0.017345151 0.0369609 0.028319437 -0.027313232 0.019731542 -0.023574855 -0.03859389 -0.027560787 -0.0058464897 -0.011197432 -0.016199894 -0.028986089 -0.006371202 -0.0015980715 0.020438055 -0.024860103 -0.013350019 -0.016136006 -0.013518606 0.034209527 -0.0068034814 0.022823762 0.0036957886 -0.036634535 -0.001450842 0.020478053 0.003532285 -0.021909611 -0.027863255 -0.01785341 -0.02882683 -0.010421388 0.026588729 -0.034526583 0.017978745 0.034951255 -0.019676546 -0.03651124 0.01378714 -0.013868046 -0.028938532 0.0059231967 -0.017840846 -0.006706775 -0.009990452 -0.0330262 0.020402314 -0.034913164 -0.0015790949 0.00085579173 -0.02693968 0.0060946345 0.027434442 0.041183006 -0.037238635 -0.01904793 -0.018942496 -0.008735055 -0.012958048 0.032819882 -0.016383797 0.015105178 0.037449487 0.043481205 -0.036975477 -0.031675305 0.0011728994 0.005669894 0.0046618627 -0.0060172263 -0.013224511 0.02195934 -0.02454624 0.029542807 -0.041623723 -0.026391456 -0.03684092 0.032147754 0.009772553 -0.004181473 0.003410623 0.024344916 0.029552037 -0.035875686 0.011216146 -0.008879145 -0.035742424 -0.041360542 0.023787571 0.008586388 -0.020293022 -0.004856792 0.033048224 0.014619203 0.015399199 -0.026856646 -0.0073393467 0.0319536 -0.03841806 -0.042584326 0.001964175 0.01591032 0.043517385 -0.022651022 -0.009114261 0.043835387 -0.03822005 0.018538339 -0.028503118 -0.029022858 -0.036975417 0.02137392 -0.018672744 -0.010969402 -0.041580614 0.016491566 0.019206587 -0.03905313 0.028965706 0.020348746 0.026413629 -0.025886668 -0.009014973 -0.01745638 -0.022200346 -0.008739713 0.0039044735 0.010477848 0.02294367 0.040743057 0.0061103185 0.0018533128 -0.032796063 0.02112685 0.042832244 0.009734025 -0.0077335937 0.0025570546 0.009221372 -0.006171384 0.0046790536 0.008442814 -0.036115985 0.041836374 -0.04367125 -0.0037531347 -0.03523418 -0.0006025366 0.014617001 0.03327966 -0.04284945 -0.042917043 0.002360824 0.0045252806 0.008490493 -0.040707838 -0.0023585693 -0.0070686797 -0.03539427 0.0298821 -0.0427549 0.020687442 -0.01863124 0.031206438 -0.030548805 0.031704072 -0.03462845 -0.021508707 -0.00011524529 -0.035625625 -0.02687459 0.039865676 -0.011234948 -0.010052987 -0.031140193 -0.042255238 0.009727008 0.037590314 -0.031064028 0.023764452 -0.019738765 -0.016591376 0.0002909239 -0.033859346 -0.025648786 -0.0033072948 0.0064409813 -0.02607871 -0.0003005755 0.02311123 0.031784378 0.0069520595 0.042509183 -0.033517223 -0.007540661 -0.0021739714 0.0013461651 -0.02213946 0.015044855 0.029025465 -0.03680691 0.034425735 0.014975687 0.0275201 -0.0023410204 -0.004785569 -0.025373487 -0.044036854 -0.041434225 0.025953555 -0.0040516187 0.037591744 0.02383244 -0.040113185 0.03078124 -0.030007744 0.024811333 -0.012022267 -0.041141104 0.0035275805 0.0033967935 0.007949091 -0.041151457 -0.006650662 0.019258117 0.028331032 0.013574088 0.008674395 0.007879869 0.038899574 -0.014193863 0.041794874 -0.0004673822 -0.02642471 -0.022481292 0.032399267 0.027762234 -0.022932585 -0.040219594 -0.023214916 0.035069045 0.028382208 -0.033169135 0.029047301 0.023357678 0.0059289658 -0.0016557917 0.0038097957 -0.008227523 -0.02852446 -0.01802302 0.0023466733 0.010286771 -0.016968653 0.03345116 -0.016021576 -0.013818403 -0.036538977 0.0030562787 0.013050656 -0.025279341 0.01744321 -0.0063510346 -0.014929631 -0.028501716 0.01231189 0.03389579 -0.013734852 0.02618295 0.009814968 0.042369336 -0.020962784 -0.026440741 -0.013747032 0.032158334 -0.034595244 -0.018330308 -0.0040224423 0.008036287 0.019076223 0.010291712 0.015403482 -0.03046145 -0.00032783925 0.015570932 -0.030241538 -0.019436583 0.007846621 0.017332848 -0.027331008 -0.037426982 -0.030558977 -0.022629227 0.0055097467 -0.03470558 -0.040932283 -0.0322102 0.027784698 0.017978417 -0.026328167 -0.017557833 -0.032587517 -0.00046163442 0.023356082 0.03960238 0.026571717 -0.0023033675 -0.020174684 0.019724408 -0.00035755805 0.027844789 0.029123977 0.0038485078 0.01163646 -0.0053943647 -0.043914143 -0.009668761 0.008423558 0.016978014 -0.017023718 -0.009556508 -0.026448306 -0.026838839 -0.0151202185 -0.008398823 -0.026954273 -0.03215738 0.04203183 -0.0377369 0.029902793 -0.026245052 0.024964947 -0.030166758 0.008867118 0.019391764 0.042915422 0.004109776 0.03431648 0.0013713583 0.011948911 0.015556117 -0.0056390637 -0.0025273464 0.018531568 -0.034578953 0.0073018833 0.0016017962 0.04346547 -0.032709625 -0.014413843 0.021206386 0.0066607664 -0.0046156277 0.032308605 -0.010786737 -0.020145461 0.026577638 0.012063403 -0.007912954 -0.014531649 0.04355646 0.0070978664 0.022447031 0.018321281 0.03745296 0.002772562 0.026434055 -0.033310197 -0.022203492 -0.0045057773 0.010064936 -0.019906705 -0.0133938575 -0.03240689 0.02353343 -0.02371317 0.0376288 -0.006602936 0.036321774 -0.039143607 -0.02150811 -0.037230976 -0.01033173 0.03382391 0.013183213 -0.014260376 0.017681777 0.02135877 0.0125896055 -0.022227151 0.040866125 -0.018286247 0.0036911787 -0.013348845 0.03143303 -0.024990764 0.041698944 0.028641054 0.012524753 0.02577974 0.010437809 0.033543352 0.021697335 -0.033926606 -0.014664121 -0.003978884 -0.0020450493 0.016683899 0.038327068 0.02823656 0.01395773 0.03687861 0.022396777 0.023340987 -0.036653303 0.029976144 0.026438607 0.04306842 0.022794949 -0.0028275845 -0.0004312044 0.02410973 0.03760249 -0.043811474 0.027884265 -0.03867705 0.03206495 0.0031469893 -0.029144656 -0.026558936 0.036769763 0.015563804 0.037535936 0.0076452116 0.0034875674 0.033942737 0.026032222 0.038099997 0.032616597 0.036708962 -0.011387736 -0.039586052 0.010562458 -0.02320598 0.019340023 -0.028719062 0.013406933 -0.0035028826 -0.02862113 -0.033556767 -0.005941752 -0.016749026 -0.020431407 0.015099267 -0.0026854603 -0.04155658 -0.0045148125 0.042833734 0.041861303 -0.026092097 -0.03025198 0.0057713995 -0.037462752 -0.012717601 -0.0048889765 0.041264903 -0.014530184 -0.02725722 0.016262425 -0.03653713 0.026322234 0.042833403 -0.043602306 -0.021170756 -0.015671516 0.02591468 -0.015481992 -0.038357504 0.0017903928 -0.039764646 0.0058998265 0.039074074 0.038209263 -0.022248467 -0.012703808 0.022579674 -0.013363396 -0.025429532 -0.04318846 0.026057757 -0.015518975 -0.0134831555 -0.009295935 -0.02635444 0.038685217 0.027499517 0.00045759886 -0.026102554 -0.03034673 0.042088985 0.022602143 0.037437603 -0.03867181 -0.026624806 0.0012047202 0.028821843 0.0048630983 0.03310198 0.02895183 0.025561774 0.031954814 -0.012486293 -0.016047517 0.012953891 -0.0044961204 0.014111034 -0.017887676 0.01824204 0.0028428838 0.008785663 0.017099576 -0.0073567796 0.0124659045 0.03129875 -0.043023318 0.042225268 -0.03428462 0.03659467 -0.0415585 0.036206163 0.019951396 0.041406896 0.033095174 0.043675613 0.036565714 -0.027111955 0.038400453 -0.0071037565 -0.022013951 -0.00877902 -0.034418166 0.00043061434 -0.04149363 -0.03599814 0.012206828 0.016349362 -0.03084076 -0.005782953 0.020774866 -0.0088665215 -0.039112918 0.04164471 0.013151471 -0.031001393 -0.030919481 -0.021856476 -0.028152635 0.041609433 -0.008836998 -0.015160174 -0.024336148 -0.0119974585 -0.02634553 -0.016863039 -0.019053025 0.024087787 0.025155503 -0.01024593 0.0395228 -0.015656026 0.021284569 0.032474805 -0.0017584244 -0.0430901 -0.027502172 0.031865858 -0.037550356 0.043557238 -0.020992722 0.011797688 -0.03607118 -0.042621244 -0.038805123 -0.035500776 -0.0033989167 0.010218487 -0.011898788 -0.04076187 -0.033511527 0.023783946 -0.02883521 0.01216133 -0.035262186 0.041831575 -0.04156185 0.041806947 -0.012794339 -0.028826974 -0.0008279116 0.005303638 -0.015274149 -0.034021605 0.033599943 -0.031909075 0.019457845 -0.03215578 0.03863178 0.010074978 0.027156873 0.007696188 -0.032684963 -0.038795087 -0.01221884 0.044101235 -0.0018555571 0.04380315 0.03142014 0.020577803 -0.03361513 -0.023936259 0.03524304 0.009459185 -0.043580405 0.010360506 0.0036709905 0.0364547 -0.027987689 -0.021092748 0.02099412 0.0030800654 0.012674806 0.040257916 -0.018371647 0.031160487 -0.0071946355 -0.005481914 -0.017519603 -0.022081582 0.028142942 -0.016607782 -0.019861327 3.890154e-05 0.021523489 0.033859972 0.005309349 -0.030093798 0.004067824 -0.04176907 0.021396847 0.036594782 -0.041091986 0.019927593 0.0030251532 -0.007817729 0.031151462 0.025119932 -0.039737295 -0.006247285 -0.026981553 -0.017532356 0.014724544 -0.0018216816 0.0097765615 0.009215925 0.011183397 0.015859917 -0.018082704 0.013159052 0.020013437 -0.00050288567 -0.0029070945 -0.007651265 0.040602207 -0.008874751 -0.0046195686 0.020416724 0.0042780633 -0.006077565 -0.02934617 0.017023854 -0.027946025 0.020804316 0.0016575828 -0.029871505 0.041324917 0.0021144494 -0.017461408 0.026213795 -0.012371844 0.021554979 0.0032967844 -0.021694342 -0.013199313 -0.007843286 0.034132466 0.024275282 -0.032517005 0.03397196 0.012758736 -0.035712905 0.006940174 0.02403738 -0.010222391 0.015304374 0.0054764505 -0.04109061 0.03174297 -0.013951307 -0.03091241 0.01455416 0.009520525 -0.0009439735 -0.007977434 0.0028059685 -0.036471527 0.03910716 0.03754611 -0.010533925 0.03965776 0.01762392 -0.0010301901 0.011274076 0.025657404 0.025023159 -0.006669238 0.0034324604 -0.035996776 -0.030829618 -0.026785022 -0.003331545 0.023894234 0.01349138 -0.02181711 -0.0017317191 -0.042534705 -0.01156842 -0.03892867 0.01848548 -0.037267264 -0.012011008 -0.038227767 0.041676015 -0.0138986185 -0.024679545 0.041843582 -0.029670265 -0.012375431 -0.016093915 0.04104006 0.036347933 0.01017927 0.039025437 0.024587834 0.017935075 0.036042698 0.0022655248 -0.004786707 0.008699062 -0.018819047 -0.00529562 0.018005386 -0.01469393 -0.024304675 -0.02388502 0.04223827 -0.011083193 0.038111176 0.011928453 -0.02237359 0.011442574 0.003033946 0.030432506 0.040288344 0.021458926 -0.024117649 -0.038243882 -0.034934405 0.0323437 0.030194044 0.0042042905 0.028705629 -0.009974041 -0.037273668 0.021547519 0.027651181 -0.04009281 -0.0009376093 0.030794326 0.005048265 0.007760863 -0.02824745 -0.022588583 -0.016968174 -0.02376018 0.0144870095 0.023906076 0.043436125 0.0023417894 0.007105442 -0.0058696177 0.012719108 0.03485065 -0.018896429 0.03761731 -0.03222195 -0.02427366 -0.018000055 -0.013067156 0.025112577 -0.031661443 0.04247423 0.04037721 -0.021702997 0.03889967 -0.020658214 0.017163867 -0.0031624835 0.043121725 -0.008786401 -0.039636828 -0.030139359 0.04401564 -0.03544321 -0.042434216 -0.014526428 -0.009857052 -0.027790377 -0.025115227 -0.001355548 0.014830116 -0.030070543 0.004101747 0.039409578 0.026658256 0.0011739741 0.009645428 -0.02596866 0.005716393 0.015615481 -0.020854019 -0.014116723 0.034374528 0.004999385 0.012312142 0.025590012 0.01916099 -0.0056774965 -0.024347143 0.04107362 -0.014731177 -0.043957014 0.020404458 0.032734536 0.042411424 -0.032361824 -0.010407316 0.043461196 -0.018373491 -0.02996818 -0.043186627 -0.042620193 0.0046235775 -0.003389992 0.004125486 0.02422106 0.039057784 0.042099174 0.00025258606 -0.010214779 0.019324487 -0.037848175 0.022433281 -0.012875282 -0.0036526776 0.026530145 0.026547788 0.019516483 0.025369046 -0.027676566 -0.0010178464 0.03167719 -0.013643487 0.04298259 0.002359839 0.021912389 0.012268083 0.040028773 -0.006829628 -0.006141786 0.017890362 0.024912285 -0.022559706 0.01572561 -0.025947753 0.010450153 0.0039382596 -0.042866472 0.0022709565 -0.037401892 0.03944748 0.014960935 -0.02648824 0.0015012022 -0.040728137 0.0065443832 -0.00717657 -0.0036383898 -0.013565738 0.03660913 -0.03394767 0.0012034769 0.010331346 0.010126207 -0.023352768 -0.0241224 0.0041053873 0.024098888 -0.0296418 0.02047046 0.038799714 -0.023142464 -0.041527938 0.025034552 0.013711777 0.04376644 -0.017533047 0.022113835 0.032714568 0.027876463 -0.043638777 -0.026660763 0.009480317 -0.043911982 0.038230877 0.012795804 -0.01267922 0.014124773 -0.005209066 -0.014063834 0.03531298 0.003941294 0.041951675 0.019754523 -0.023578001 0.036200553 0.036756303 0.017196577 0.007013093 0.010444989 0.00067814806 0.035053056 0.010895223 -0.005697558 -0.030897696 -0.026927121 0.0048264936 0.010923868 -0.016475355 -0.028742997 0.008320014 0.022414748 0.042756185 -0.033230186 -0.006818928 -0.03162944 0.016695816 -0.02899513 -0.016486282 -0.033919413 -0.033113617 0.02743036 0.021762583 0.0015487333 -0.02249272 0.004945748 -0.018129835 0.01755046 0.023416135 -0.03796638 -0.018465862 0.03422119 0.027049268 -0.016706256 0.008431978 0.031142248 0.004315632 -0.022450019 -0.032341216 0.014017567 -0.01812519 0.0047206893 -0.019127678 0.007693059 -0.035926737 -0.012263737 -0.024052573 0.03337277 0.0255248 -0.0050044903 -0.032143883 0.033174388 0.0015684844 0.041088086 0.041454274 -0.022124056 0.038860712 0.016806377 0.03939473 -0.04299783 0.0022195952 -0.0007538649 0.013924681 0.037019163 0.030439518 -0.04036892 -0.02406732 0.015533511 0.032984417 -0.038808253 0.01892957 -0.03812472 0.0060936282 0.009236972 -0.04363577 -0.0032786138 0.037546404 0.012000304 -0.02067767 0.01063454 0.005810433 -0.027953075 -0.01176309 0.036115285 -0.010897204 -0.031000845 -0.028257396 -0.020275531 0.039030384 0.014884059 0.01613464 -0.023867976 -0.011160844 -0.027274495 0.0039224597 -0.030357547 0.03778579 -0.035965133 -0.04035843 -0.0032667494 0.018691953 -0.017284928 -0.014647173 -0.014269548 0.023730488 -0.024399664 -0.041925844 0.03881738 -0.040654965 0.027649691 0.014622485 0.035986893 -0.017811574 -0.040000815 0.03190764 -0.024355974 -0.010530074 0.044165183 -0.03859546 0.03381612 -0.0070496295 0.020274172 0.028222883 0.029321404 0.021442367 0.023766719 -0.03525154 -0.042029507 -0.042249713 0.010812743 -0.008636158 -0.0072535514 -0.025433436 0.044002198 -0.017940518 0.013462325 0.012833873 0.023465862 0.030841826 0.040306583 -0.01015678 0.03286671 -0.0011848322 -0.0384421 -0.042915937 -0.036250688 0.040226776 -0.02773704 -0.014687176 -0.02586209 0.02730445 -0.02078378 0.034714367 0.0067651537 -0.02155926 -0.02475572 -0.02816489 -0.017810652 -0.019660257 0.000903718 -0.037570033 0.0035695483 0.011822955 0.01295523 0.035723098 0.003125763 -0.033544797 -0.037220187 0.024417192 -0.029493373 -0.039003816 0.0035310155 0.008116624 -0.028802728 0.019758131 -0.00082883885 -0.026477588 0.01828081 -0.024757233 -0.029724186 0.019462144 0.033338964 0.02933135 -0.015780928 0.030460475 -0.023573602 -0.010761618 -0.025310399 0.016473964 0.042126656 -0.043430284 0.030675877 0.027253965 -0.025102684 -0.009048417 -0.0386447 -0.0078806495 -0.031337526 -0.020262133 -0.03826308 0.008612672 0.037277933 -0.0054890052 -0.019632049 -0.0043047527 -0.03564977 -0.029489808 -0.0076587093 -0.012074145 0.02374007 0.033782784 -0.016299672 -0.040632147 -0.006203784 0.025548428 0.01662652 -0.004079609 -0.039257176 0.03545534 0.011054276 0.0052313246 0.020009158 -0.036076277 0.008164108 -0.035857193 -0.04303004 -0.041940875 -0.0065647773 -0.029061468 -0.0025841917 0.012812942 -0.03302485 -0.0024225535 -0.041768264 -0.026738629 0.016321324 -0.039405446 -0.0055421893 0.007282601 0.009655543 0.03431962 0.011392509 -0.032352604 0.023639856 0.03568524 0.027285337 -0.021828843 0.037021328 -0.032106373 0.025630256 -0.027887916 0.030971954 -0.014230335 0.014797532 -0.010844779 -0.043630138 0.022992002 -0.026164964 0.005017888 0.028610965 -0.03629762 -0.04066471 -0.030890469 -0.03439069 -0.005645665 0.023149066 0.018306857 0.029453535 0.020803189 0.01568278 0.017369075 0.0038425229 -0.036385614 -0.04074087 0.012836086 0.019935168 -0.0039399085 -0.00930084 0.017404115 0.03484059 0.042849783 0.028111437 0.038425155 0.0045441785 0.0049772793 0.028790649 -0.043048956 -0.0013248018 0.018684914 -0.0022195585 -0.012471874 0.024095817 0.016777754 -0.040240582 0.012408417 0.040471476 -0.037808556 -0.008773098 -0.041797884 0.033851195 -0.044168938 0.008208115 -0.024016317 -0.037569027 -0.0033994068 -0.0412207 -0.03020419 -0.012651641 0.025246052 -0.0073223985 0.010957354 0.012092863 -0.029679231 0.013145617 -0.03005663 -0.030057387 -0.026887381 -0.040424585 0.019918922 0.016240245 0.015930487 -0.016223807 0.03972451 0.02526749 0.0088719325 -0.002332412 0.03927551 -0.0039326274 -0.036649086 0.020956947 -0.011424751 -0.013206725 -0.013983339 0.009681758 -0.030311754 -0.03554443 0.003067105 -0.021374378 -0.042350363 0.008521339 -0.018306958 0.0011593386 -0.043301407 0.037187766 -0.01732973 0.0095724445 -0.02494102 -0.015775496 -0.027603451 -0.044096515 0.013705059 -0.029441522 0.012625768 -0.014308296 -0.024547968 -0.023674106 0.0042291675 -0.008594717 -0.019219395 -0.012580839 -0.018943032 -0.03726758 0.025753137 -0.032335326 0.014102946 0.00301606 0.0067426213 0.03980615 0.029008273 0.009722503 -0.026357217 0.043202303 -0.008537345 0.028471734 0.04277344 -0.027309066 -0.0011932879 -0.037610814 0.020733094 0.026208254 -0.013123601 -0.043846373 -0.02908016 -0.0016423889 -0.026647797 0.042086188 0.003459055 -0.027348664 -0.021790516 0.028523853 0.042159297 -0.021287277 -0.0054402784 0.027701605 -0.0054672207 -0.032868724 0.011083641 0.0006364069 -0.025901118 0.004741863 0.014377275 -0.023507383 -0.03533454 -0.0049979524 -0.007555539 -0.0033843024 -0.01076224 -0.04412784 0.042770162 -0.033655275 0.027715761 -0.027028205 -0.011765214 0.002382082 0.032730743 0.03107831 0.03797607 0.027208682 -0.007519951 0.016938824 -0.0203502 -0.010057033 -0.027217476 -0.012086177 -0.022471983 0.013020347 -0.038751204 0.003940372 -0.001888242 0.0066557145 -0.023600886 -0.039121516 -0.009387673 0.017396217 -0.028690929 0.03669532 -0.024827207 0.0029600312 0.027299626 0.011706809 0.012695595 0.025817161 -0.011568841 0.019773431 0.009021112 0.0064837076 0.033402763 0.013158393 -0.01722983 -0.027101962 -0.0060000834 -0.031722132 -0.009006613 0.042311825 0.0021182743 -0.007464902 -0.038303573 0.011843333 0.030455012 -0.008751398 0.0027299146 0.006867518 -0.04297856 -0.016755221 -0.03959406 -0.010389872 0.029653441 -0.03196909 0.020191237 -0.010635868 0.035270017 -0.038252115 0.032053918 0.01460777 -0.013025215 -0.040271994 -0.025520943 -0.043672368 0.013029808 0.026055587 -0.0054768566 0.041706312 -0.012987983 0.033933043 0.0042859763 0.037671648 -0.03937334 -0.009469401 -0.04025788 0.03851131 -0.03238203 -0.0048987493 -0.027283145 -0.007580701 -0.041556455 -0.041848093 -0.034280717 -0.020568468 0.030459521 0.021143788 0.02049137 0.032083936 0.040162966 0.009856947 0.025376886 -0.004811874 -0.03154416 0.0028625086 -0.018229729 -0.041204184 0.042385984 -0.0363398 0.0038687803 -0.0029340792 0.042196665 -0.016748684 -0.04056613 -0.020937316 0.025851095 0.03146259 -0.018753462 0.018355269 0.018894168 -0.018305866 -0.009242798 -0.014153407 0.034458835 0.019704584 -0.040370036 -0.035615068 -0.0368381 -0.032274567 -0.002849169 0.015688721 0.041860145 0.025930759 -0.0009714269 -0.037686583 -0.014252762 -0.0049876054 -0.013329399 0.022416333 -0.015982253 0.009149554 -0.017253561 -0.028005721 -0.033752155 -0.028127236 0.014258047 0.0070240935 0.033892002 -0.018289499 -0.032938078 -0.040144913 -0.014639602 -0.026975494 -0.00076778384 -0.0009164147 0.008815134 -0.039896302 -0.03412678 0.0019034307 -0.008710326 0.01621639 -0.0095152045 0.03443795 0.025972042 -0.025815507 -0.01143631 0.030716248 0.0024060213 0.015595519 -0.024147836 -0.029107423 -0.0057285153 -0.04054226 -0.02434019 0.02579993 0.019363768 -0.01595295 -0.008186366 -0.014268784 -0.02408634 0.016432377 -0.008051075 -0.026247382 0.03724092 -0.029573664 0.008914427 -0.03399332 0.009747634 0.01771757 -0.013481285 -0.015519328 -0.012867027 -0.013422686 0.0076728654 0.0074573737 -0.043051668 -0.041287653 0.03188313 0.0015475216 0.008728312 0.043195277 0.010520185 0.030830877 -0.040627398 -0.0054763085 -0.008618488 -0.0053990637 0.014838256 0.03897824 0.03456453 0.010878033 0.02785344 0.018144391 -0.0093359165 -0.024544049 0.0037869627 0.00014290416 0.040293902 0.01187391 0.04017893 -0.019851634 0.031781036 -0.0069709253 0.023851892 0.036770053 -0.01984146 -0.041195456 -0.028932815 -0.02300296 -0.008819665 0.019206123 0.034597725 -0.018595885 0.00048534203 0.029081969 0.015795749 -0.005234159 -0.017479146 0.042718645 0.028100347 -0.0051880083 -0.03611701 -0.031260848 -0.008501462 0.003864513 0.03351614 0.01675334 -0.037011087 0.031225983 0.0047214217 0.026845789 -0.022385744 -0.03383989 0.0207995 0.024751974 -0.030906515 -0.017653454 0.026873825 0.014446143 -0.040480323 -0.017749265 -0.019527236 0.03456433 0.01749348 0.034924153 0.014925047 -0.024303716 0.013532778 0.035103567 -0.04006318 0.025446797 -0.032467227 -0.008782296 0.018130852 -0.009172846 0.041652583 0.043830555 0.01913893 0.028096132 0.042984158 -0.04201338 0.0014311753 -0.030159757 -0.015295744 -0.018284693 0.028207099 -0.022037275 0.018497156 0.020819725 -0.0125640435 -0.011456272 0.040279996 0.017551491 0.02431489 -0.017090142 -0.011646696 -0.03895335 0.028602669 -0.0423319 0.014108115 -0.0150265265 -0.0003218702 -0.022215476 -0.023646353 -0.039065696 0.012410466 -0.04327967 0.020330323 -0.0014906761 0.0357932 -0.035808004 0.038728807 0.0383037 -0.027403848 -0.02659541 -0.030682342 0.016000476 -0.023998225 0.030252121 0.02380496 -0.040079217 -0.03763097 0.0134545015 -0.043334153 -0.0106909005 0.038002763 0.03605951 -0.011188987 0.03177553 0.035667233 0.025462681 0.031085745 -0.025621217 0.034175962 -0.026561765 -0.040953275 -0.043723024 0.023855707 0.0018965449 -0.02791282 -0.020195268 0.02633932 -0.02731013 -0.021480827 -0.022501301 -0.011647176 -0.015547356 0.043668184 0.017169492 -0.026186064 -0.021966662 -0.0020750738 0.0310675 -0.028463911 -0.010841212 0.01975083 -0.005581781 -0.037726182 0.042178817 0.023065837 0.042319003 -0.038075313 0.020160744 -0.02890816 -0.00020807372 -0.019646795 -0.019631669 0.013126394 -0.024355888 0.031304 -0.017703509 -0.011417297 0.016022515 0.016486445 -0.0407378 -0.011435135 0.02180484 0.0019664613 -0.011434941 -0.003957041 -0.0018113714 -0.01187765 -0.02101566 0.022339795 0.035888784 -0.033681285 -0.042403474 0.03426531 0.021036671 0.02078829 -0.01617478 -0.008554319 0.012742457 -0.038357813 0.0027732784 -0.003407936 -0.0015533273 0.009717583 -0.012849415 -0.0026996848 0.03587801 0.0008747789 -0.035609934 -0.028028686 -0.010499502 0.036554184 0.023251921 0.012342314 0.033165608 0.036197506 -0.009693896 -0.02092397 0.010623798 -0.04416296 0.004489893 0.02720011 -0.021424148 -0.0042746966 -0.021437163 -0.0005851774 0.0011126136 -0.0005582087 0.024638468 0.04327542 0.036405414 0.017756972 -0.017789641 -0.028337264 0.031754684 0.029229155 -0.020061383 -0.03446431 0.019554546 0.01113044 0.019757388 -0.021236928 -0.035745505 0.0298712 0.0011623416 -0.011522701 -0.029274099 0.01163587 0.029336935 0.009419657 -0.018925989 0.040527683 0.038276687 0.040395092 0.016450178 -0.041896734 -0.032496836 -0.021027142 -0.033164095 0.017886063 -0.032519408 -0.037780203 0.012818653 0.020523565 -0.038056616 -0.043382052 -0.038000785 0.0070344456 0.024197007 -0.022260774 -0.011983955 -0.036545064 0.040063556 -0.018215593 0.015600487 -0.040612277 0.017308503 -0.043137442 0.02804416 0.003725755 -0.026801908 0.03508741 -0.027383255 0.016370052 -0.021310026 -0.0143871 0.013095294 0.0024083657 0.039149407 -0.022126831 0.026025752 0.0058889366 0.013272722 0.02941929 -0.03032894 0.033195954 -0.015075643 -0.023608541 -0.002420878 0.037758872 -0.030431595 0.03298183 0.0006178728 -0.020374613 -0.022471188 -0.03663971 -0.017153736 -0.016484233 0.041818097 -0.035420157 0.042575374 0.034367282 0.024120357 0.031546675 0.016773043 0.03852789 -0.018865457 0.0034500356 -0.031095628 -0.025583047 0.040138043 0.02548031 -0.043267343 -0.020366868 -0.03847271 0.02314805 0.019847978 0.04148655 -0.0021326041 0.0026627851 -0.033728343 0.008507579 -0.042399608 -0.043701023 -0.009564263 -0.008337821 -0.0018970243 -0.012164044 0.008308128 0.001421513 -0.027826687 0.02777372 0.0029788127 0.00041220672 -0.019662179 -0.029232154 -0.014107919 -0.006183385 -0.036669612 0.039932907 -0.031591076 0.03832092 0.01975754 -0.0098817395 -0.031961676 -0.017838422 -0.023293883 0.034374636 0.010655155 -0.035757687 -0.03040863 -0.020360315 -0.025482142 -0.040399075 -0.043061256 0.0066500087 -0.007806044 0.024462394 -0.018058602 -0.027233576 0.013966027 -0.007636203 0.033751853 0.043291926 0.011730953 -0.027799254 0.010458261 0.00798629 0.018529413 -0.03828483 0.014210184 -0.024734009 -0.022275832 0.020984346 -0.013990641 -0.017873088 -0.0386129 -0.028962456 0.009916837 0.016570872 0.0034337195 -0.02728285 -0.018666686 0.036717165 0.008873339 -0.032464452 0.039506905 0.015706033 -0.0044837925 -0.03607807 0.02261574 -0.02865767 0.033188708 0.03689672 -0.006160942 0.036912277 -0.021235447 0.021793855 0.0013799352 -0.026635611 -0.0013568387 -0.03439176 0.031528227 -0.0027811124 0.018994557 0.0108077 0.0078113386 0.038284842 -0.014507957 0.030479863 -0.015620654 0.0057085743 0.008013354 -0.014315946 -0.026864795 -0.031131022 0.022233527 0.028853184 0.036171332 0.006700738 -0.021874214 -0.020300766 -0.009785439 -0.026002651 0.009102291 -0.03451043 -0.032704674 0.030879779 0.03345097 0.005274736 -0.026407145 -0.0071707014 -0.04096561 0.03988823 0.03053167 -0.004503949 -0.026122496 0.02194276 -0.025675017 0.017118284 0.018472051 0.013446415 0.015778046 -0.029841311 -0.03479365 0.038841445 -0.037161227 0.02949201 0.031125516 -0.035641655 0.0031814864 -0.012766106 -0.028717708 -0.038556516 -0.00674152 0.02073801 -0.03009101 -0.024399469 0.021430392 0.008072617 0.04040986 0.02447978 -0.0012600169 0.029467158 -0.036337394 -0.0035117648 -0.008028453 -0.038055938 -0.007034493 0.0017945601 -0.008965525 -0.004194254 -0.0063873706 -0.01514263 0.016135473 -0.003911712 -0.018423578 0.03166163 0.030096833 -0.012126649 0.017066138 0.01690175 0.01166041 -0.0061038276 -0.00997648 0.00991374 0.012818879 0.040650155 0.031280868 -0.031526368 -0.016122475 -0.024048897 -0.04391203 -0.026241254 -0.006419634 0.037308242 -0.041487493 -0.026267529 0.043278433 0.03848599 0.020604044 0.014597092 -0.004042668 0.00515369 0.017140934 -0.0128790075 -0.035045777 0.041267544 0.018978084 -0.0045500896 0.032781925 -0.015372072 0.03564192 -0.037608497 0.043422326 -0.012540674 -0.03678988 -0.024880892 -0.016810887 0.004053257 -0.037830643 -0.0027689214 0.03937399 0.024374418 0.003607454 0.01275764 0.03946163 0.003813231 -0.025884012 0.0016147089 -0.009233563 -0.036218163 0.0009775277 0.015535454 0.03649155 -0.011488235 0.021497637 -0.024685772 -0.0037753198 -0.0053172307 0.04202455 -0.015056561 0.030310074 0.007323257 0.013427201 0.026889393 -0.016483 -0.0022851916 0.011129639 0.013449501 -0.040775828 -0.022287264 -0.0130099105 -0.033102266 -0.026925877 -0.0034614627 -0.017185288 -0.004248413 -0.01384202 -0.02904501 0.017385606 0.027521128 -0.039556146 -0.019312302 -0.02199239 0.024733288 0.038683474 -0.00805255 0.025586387 0.030566918 -0.0035550075 -0.035642236 -0.023498964 -0.021481942 -0.026718847 0.009496891 -0.018230392 0.008855284 -0.023794293 -0.019653803 -0.014569254 -0.04330787 -0.014922966 -0.0074556195 -0.039195668 -0.010671587 -0.008036966 -0.022575796 -0.018399559 0.03960711 -0.04040805 0.014072347 -0.032370977 -0.0173356 0.0361063 -0.012363999 -0.019485814 0.038616028 0.014761312 -0.002856966 -0.020833567 0.010122761 -0.00061258336 -0.013729035 -0.017575815 0.00809839 -0.004009577 0.02440418 -0.038800534 0.038699355 0.016097266 -0.034211636 -0.025998304 0.027903441 0.026119433 -0.004294137 -0.007899826 0.03377801 0.033978853 -0.021656899 -0.04294569 0.015609217 0.024231419 0.025905613 0.026156971 -0.010497157 0.023815287 0.03925766 -0.012712469 0.010509101 0.0027498396 0.02636937 0.03439956 0.04139194 0.043706134 0.0052543054 -0.028619528 -0.032363042 -0.019283079 -0.0154624935 -0.034100313 0.00042527224 -0.020873353 0.027369447 0.020345226 0.023766875 -0.01465497 0.036698304 0.02304243 0.038350265 0.018384892 -0.012541727 0.042706512 -0.041456375 -0.022345632 0.007710945 -0.04114268 0.026166754 0.02968146 0.044186782 0.012783708 -0.028687537 0.02822733 -0.023734229 0.0040925434 -0.030660367 0.009840446 0.029538224 -0.038052857 0.03276345 -0.0016358983 -0.003972941 -0.032546934 0.007542389 0.0424698 0.010929163 -0.03226738 0.036623076 -0.019671177 -0.034537464 0.02369205 -0.007098746 0.015153335 -0.036050063 0.008692824 0.012507772 0.020296542 0.016717643 -0.017446503 0.037528943 0.035902854 -0.001990996 -0.014400044 -0.04092421 0.02608578 -0.0001734975 0.028380718 0.03407547 -0.013662743 -0.039328873 -0.018324744 -0.0040070536 -0.012153976 -0.028569061 0.014026339 -0.021841193 0.0011997258 -0.03845241 0.015322071 -0.02195186 -0.03133173 -0.032303248 -0.025821267 -0.0065547777 0.029473376 0.041494913 -0.0051455083 -0.0428649 0.015135681 0.011116447 -0.016904822 -0.04224834 -0.0030419435 -0.0064465078 -0.032648165 -0.017298372 -0.040705353 0.005851558 -0.033569284 0.010814449 0.0279186 0.0320571 -0.035673104 0.02357429 -0.031650197 -0.014491166 -0.042211797 0.021435855 -0.039799765 0.03659597 -0.0054230876 0.0011308842 0.014688419 -0.03332869 -0.024539934 -0.029516833 0.020563858 -0.0039018076 -0.027761713 0.043076012 0.028525556 0.01753822 -0.044179186 0.026272459 0.015954494 0.027343474 -0.009719506 -0.03010514 -0.0015255947 -0.028775934 -0.033840574 -0.022999361 -0.034273505 0.019249476 -0.01993097 -0.001230651 -0.013558525 0.009144054 -0.013836931 0.039028835 0.044032987 0.003020106 -0.041019376 -0.024850018 -0.04124421 -0.0071115587 0.0329079 -0.038172867 0.029558854 0.02439931 -0.038158502 -0.013204049 0.007262729 -0.03561068 0.040757284 0.00859213 0.021764148 0.0095220795 0.023651568 -0.004914275 -0.010861369 0.021603288 0.007375667 -0.002763453 -0.0440501 0.03779977 0.03580149 -0.031113984 -0.040695954 -0.027716773 0.01728955 0.0019111594 -0.01138488 -0.025654376 -0.042428166 -0.041525718 0.0031698223 0.02860487 0.038964123 0.04251923 -0.041952904 -0.026494125 -0.022605292 0.00448119 0.038909163 -0.01825666 -0.023136655 -0.005634096 -0.03293836 0.03923205 0.002125102 0.011915836 0.015269471 0.002199997 -0.04045285 -0.023978617 0.024546213 0.007700819 -0.02290965 -0.017794142 -0.020661527 0.015617514 0.018720966 0.018000724 -0.04224847 -0.04357143 -0.0077785063 0.03756524 -0.042715557 -0.0063333595 0.021290718 -0.0035567568 0.028460102 -0.015368901 0.020992722 0.028788203 -0.040131647 -0.033221237 -0.017446745 0.010091668 0.039236855 -0.023857672 0.017361304 0.03969301 -0.022007551 -0.0017347485 0.02492866 -0.041321147 -0.016368788 -0.030266142 -0.01154782 -0.005256228 -0.028300896 -0.04292037 -0.029430775 0.014823231 0.023034606 0.027239408 0.042657647 -0.018622711 0.043683626 0.008482927 -0.0016829184 0.023805877 0.034738403 -0.030591061 0.0018691389 0.0024777711 -0.035346728 -0.034137413 0.010857133 0.008006183 -0.023955347 0.008159787 0.044108074 0.019463409 0.018826392 0.015792018 -0.008399525 -0.006278147 -0.034664895 -0.014956852 0.026397245 0.026300728 -0.017991435 -0.008531259 0.03419734 -0.04411839 -0.018377058 -0.030055938 0.01953992 0.02048214 -0.041108612 -0.01655395 -0.0070051644 0.0014377133 -0.029912665 -0.012649059 0.018937523 -0.006204037 0.011227352 -0.023786906 0.028043985 -0.004020272 0.0040414664 -0.02564595 0.016778523 -0.00999169 0.03612577 0.04294934 0.03416983 -0.03681962 -0.0002205808 -0.010998578 0.00058468216 0.023203451 0.03887521 0.037109174 -0.0009474664 0.008649929 0.0045102397 0.017517842 -0.014798817 -0.01392211 0.041461714 -0.026815025 -0.0067214267 0.029207097 -0.02390979 -0.016290184 -0.042781934 -0.029683292 -0.010004424 -0.0067227487 -0.03379995 -0.0068568494 -0.006749312 -0.039514676 0.016459856 0.009939138 0.0069448994 -0.022062194 0.0037520335 -0.0406577 -0.0070768613 0.020305915 0.013093682 0.035617042 0.039062858 0.0121609885 0.0005215831 -0.03588994 0.027757397 -0.005481487 0.022223564 -0.042108763 0.009627425 0.038549576 -0.0021940805 0.029561494 -0.016768524 -0.010025297 -0.024372205 -0.030653724 0.0396666 -0.019191777 0.002483013 -0.03633064 -0.042996325 -0.033424582 -0.039374296 -0.034453984 -0.03116013 0.014250803 -0.0171076 -0.022249421 0.03930285 0.015369054 0.034305964 -0.022935756 -0.025282009 0.0261376 -0.027738273 0.018186249 0.017418522 0.002581779 -0.0059367996 0.028513843 -0.019102748 0.016175244 -0.037214253 -0.026027313 0.019283678 0.0054723467 0.016259832 -0.038578574 -0.028462563 0.022201732 -0.019625926 0.019116156 -0.01916915 -0.016121333 -0.006862455 -0.0355737 -0.04046167 0.015515993 -0.0151880905 0.009009195 -0.02803777 -0.0085772155 0.0066197366 -0.0006878313 0.010782666 -0.010365059 0.022648346 -0.04004798 -0.018597545 -0.005428619 0.0053673377 0.035616457 -0.011653946 0.0010005714 0.012541943 0.021345144 0.028614981 0.038543787 0.011111637 0.0072195656 -0.0077689337 0.0073937266 0.033741068 0.02545502 0.011383774 -0.02390251 -0.0075396863 -0.033445332 -0.034831658 0.0014908183 -0.0014541401 0.035627443 0.012355923 0.037814748 -0.0039097522 -0.009053307 0.017561639 -0.03160891 0.032984965 0.007522949 0.027680038 -0.011194055 0.024508355 0.0012365517 0.02903011 0.032646716 0.022217553 0.033907864 -0.02725513 -0.012035212 0.008673352 -0.0033901185 -0.043833055 -0.022203933 0.031389143 0.02419985 0.02947856 0.032115944 -0.022049751 0.035397854 0.043769974 0.032064606 0.041757125 -0.02108972 -0.042298492 0.040831577 0.032236613 0.015232028 0.03502863 0.0024538473 -0.026117275 0.009797324 -0.017925624 -0.021523353 0.011958173 0.010091009 -0.028114302 -0.0324266 -0.03685093 -0.02486724 -0.024371272 -0.015609654 0.0053334306 -0.027316531 -0.036555737 -0.033282097 0.035718378 0.03521053 0.02893946 -0.019071806 0.00053008617 -0.0020102623 -0.01419323 0.02663458 -0.030580478 0.0003872347 -0.027596138 0.014470757 0.037774086 -0.004419945 -0.020113818 -0.027596708 0.008277341 -0.0070928247 -0.03749394 -0.037392545 -0.0007124872 0.016539002 -0.019853862 0.028195573 0.014980491 0.022495322 0.0058870614 0.040401753 0.0020830974 0.017819218 0.029901361 -0.0403041 -0.017848006 -0.015976831 0.012007706 0.039381366 -0.027517766 0.02153978 0.034839626 -0.0013672595 0.037333194 0.019314105 0.026442401 -0.0032042563 0.024513038 0.021709252 0.0073603676 0.039516266 0.012321616 0.015719874 0.015767073 -0.009597786 0.02103035 0.031676903 0.030452047 0.027143639 -0.007919493 -0.00721318 0.027934099 -0.023774205 0.040975656 0.041489463 0.026377125 0.013576279 0.018444767 -0.0075511187 -0.016786983 -0.012262299 0.0019231238 -0.028933905 -0.03438745 0.041178085 -0.02137214 0.039257713 -0.043647297 -0.0069792336 -0.0033498104 0.00854256 0.026385797 0.01550434 0.020106243 -0.03749503 -0.032674976 -0.028428344 -0.00079635944 0.021587247 -0.024435626 -0.002263939 -0.038415957 0.032668144 0.016238017 0.026421996 0.011250126 -0.009824651 0.022311367 -0.029300978 0.017189607 0.00085670315 0.013546972 0.011704422 0.03272494 0.04077466 -0.024424689 0.018433904 0.033149924 0.0022405053 0.0012982389 0.0012875757 -0.037651576 0.025546031 -0.02350527 0.007955302 0.0061483295 -0.03730329 0.026192095 -0.027133228 -0.015068805 0.027255017 0.005560497 0.0377196 0.017710438 0.015164741 -0.011180152 -0.03570184 0.035107527 0.00838365 -0.029888073 -0.01251577 0.008128157 -0.015235833 -0.012162954 -0.014840469 -0.02648568 0.0328557 -0.032232266 0.039132494 -0.026965573 0.025952507 -0.024122374 0.019885663 0.012249033 0.0013044555 -0.026734082 0.019748975 -0.0025971783 0.035575517 -0.029428925 -0.0028743306 -0.007843876 0.034503486 -0.013592801 -0.012034347 -0.035581376 0.022409795 -0.044080913 0.017867193 0.013355799 0.040621135 0.031475566 -0.01889674 0.0055489065 0.030568134 -0.041229416 -0.039267786 0.023641985 -0.01104495 0.043884024 -0.0048879753 0.007181096 -0.035546202 0.015187611 -0.022615625 -0.011590583 -0.03303621 0.042864393 0.006940648 0.0029128424 0.03699462 -0.04335366 -0.031639576 -0.028356947 -0.043752458 -0.007845852 -0.02026884 0.028625607 -0.0011331233 0.005365889 0.008897068 -0.035124015 0.014066452 0.010181577 0.017957535 0.020722952 -0.02920756 0.00487187 0.010825913 0.014602797 0.039510615 0.021114016 0.009033055 -0.034833096 0.029579574 -0.041910015 0.005598998 -0.03796626 0.037668828 -0.020209067 -0.015353833 0.0070240726 -0.024891343 0.028952999 0.03586174 0.042322997 -0.0021343585 -0.038054083 -0.00046853596 -0.039724678 -0.0033401535 -0.03175587 0.002546165 -0.0022789484 0.012860731 0.038775437 -0.011007761 -0.028169625 -0.044058513 -0.018174997 0.031497 0.021197041 -0.017333081 -0.031519227 0.018734917 -0.03654881 -0.025795551 0.0023227234 -0.0056055044 0.009904789 0.035434898 0.024982134 -0.023634788 0.034569196 0.032724857 -0.010945468 -0.02800401 -0.023354685 0.00088781805 -0.040467236 -0.026997622 0.030488309 0.0055947253 0.0005519393 0.0011456093 0.01746843 -0.033888143 0.013506294 -0.030618446 0.038101017 0.03690636 -0.011957129 -0.022122411 0.013761963 -0.00504345 0.019345734 -0.021339739 -0.037181716 -0.022502577 -0.0070053064 -0.015628763 0.04128833 -0.040221885 -0.006252364 0.03727985 -0.0057599936 -0.011162629 0.021719588 0.019514455 -0.029862728 -0.03786996 -0.016927876 -0.032937087 0.0069816518 0.042557538 0.018743815 -0.0022915504 0.03483777 -0.011517464 -0.03061076 -0.017314157 0.02844908 -0.020683823 0.022912538 -0.016583463 0.0430379 -0.042271707 -0.026093472 -0.038600396 -0.018951925 -0.0046703815 0.026636787 -0.02585302 0.024105784 0.033366654 0.026878389 -0.0012386063 -0.018191824 0.037984293 -0.009798183 -0.0038855548 -0.03751425 0.0085557625 -0.014203583 0.025661081 -0.0038226559 0.043866333 0.01140686 0.020531105 0.029019965 -0.025206944 -0.028037358 0.03441597 -0.001118003 -0.0025532455 0.026198195 -0.01053274 -0.018794786 -0.038079504 0.0020918797 -0.011251944 0.0024274162 0.012185412 0.03233769 0.020029224 -0.0061784224 -0.03300961 -0.021998173 0.03773812 -0.004030134 -0.02109614 0.0095720235 -0.03893966 0.010415419 -0.008366265 -0.04352471 0.031143196 0.03189655 0.018572051 0.018128876 -0.010296944 0.041556403 0.0073964926 -0.035883646 0.022926694 0.00653745 -0.02122332 0.03192068 0.012978916 -0.0139712375 -0.015941802 0.009705655 0.00056491 -0.03906948 -0.004713298 -0.037548512 0.026484242 0.028389268 0.018172888 0.023191983 0.04048851 0.021790827 0.016450414 -0.043103587 -0.024986237 -0.013125266 0.0271313 -0.0020301926 0.040162902 0.0032851624 -0.03198498 0.026024936 0.021455005 0.016825112 0.0076279524 0.004111183 0.016809728 -0.024589451 -0.029729186 -0.009953068 0.011209038 0.021975508 0.0026252111 -0.015035066 -0.035030305 -0.013316702 0.018357776 -0.01320544 -0.03107321 0.029434068 0.026055234 0.019937925 0.030336801 -0.029911928 -0.015446335 -0.032589808 -0.023910617 -0.03362354 0.037481055 0.026013045 -0.027479224 0.042657774 0.008440439 -0.033023458 -0.0064682555 -0.011310154 -0.012291075 -0.025256146 0.029871447 0.0015664614 -0.011417239 0.0029596833 0.030679522 0.037729032 0.009962909 0.00019010335 0.024427775 0.01455868 0.02487863 0.021205876 -0.04170307 0.006910418 0.031857595 0.009308068 -0.018388364 0.0023213536 -0.0031592066 0.03151168 0.010372666 -0.02241294 0.032143205 0.018263968 -0.01696212 0.014938007 -0.025787437 0.039943848 -0.0024903307 -0.004678195 -0.02241509 0.025995143 -0.014525532 0.013584213 0.022918308 -0.012408554 -0.01053853 -0.03540924 -0.0028596267 0.023472723 0.033271205 -0.036828205 0.017375417 -0.005634317 -0.042561483 0.016478902 -0.009946899 0.041520488 -0.02924604 -0.028200414 0.015062978 0.016261308 0.012746181 0.024532573 0.020592835 0.022793842 -0.017979583 0.020069402 -0.03895499 0.014242721 0.020216383 0.0243137 0.025349637 -0.018608265 0.015163998 0.038313787 -0.026757132 -0.032510135 0.023198316 -0.011401771 0.011361568 0.0033481666 -0.005396298 0.022147989 0.02731866 0.036272187 0.002827927 -0.005262508 -0.0026967924 0.005210836 0.042883597 -0.04180379 0.016323326 -0.002589102 0.00014274084 0.025874255 0.017781418 -0.03978998 -0.027990622 0.02278831 -0.03793915 -0.0076264087 0.0148669 -0.009347038 0.027433595 0.036706958 -0.022341216 0.030411532 -0.023594981 0.030623114 0.0023271434 0.017446514 0.04338144 -0.016082415 -0.006646995 0.025910728 -0.008926149 -0.033055115 -0.0046591023 0.014420254 -0.040771447 0.017851876 -0.015845776 0.032634232 -0.0051105213 -0.00054031203 0.018487003 0.03287918 -0.032488007 0.0135828545 0.04314454 -0.008637838 0.00886226 -0.01739136 -0.042639516 -0.023054225 -0.022405444 0.043143004 -0.024771951 0.021288488 0.025668731 0.026803814 0.04214541 -0.018323796 -0.008738701 -0.033165164 -0.016001025 0.013818961 -0.028288774 -0.022655096 0.03295506 0.040550373 -0.009515879 -0.029252663 -0.016607454 -0.020300524 0.039785318 0.018796815 0.016275726 -0.025438225 -0.02948789 0.027330782 -0.025202192 0.04032446 0.043891244 0.036332652 0.032967426 -0.031542655 -0.041884616 0.03315873 0.03404451 -0.035202205 0.021891326 -0.024086354 0.03256512 -0.032896873 -0.01858391 0.003004496 0.025705421 0.03208414 0.030244736 0.0003633427 -0.002927794 -0.017126309 -0.043520402 0.038301054 0.03632346 7.012182e-06 -0.040274918 -0.0015811917 0.0024720286 0.036465306 -0.021900661 0.0009851878 0.00642181 0.010508078 0.04384181 0.0056952033 -0.028321385 -0.01647105 0.0075635677 0.01863351 -0.021049185 0.03239104 0.03356441 0.02660181 -0.04072339 0.0048768646 0.015961902 0.001588873 -0.027711825 -0.0033211347 0.029710362 -0.03577589 0.025346603 -0.041113608 0.014127597 -0.007223074 0.013750836 0.013760825 0.026511643 -0.027835712 0.03366911 -0.007302147 -0.01161947 -0.031710725 -0.01825271 0.03355476 0.015116114 0.040383518 -0.03906764 0.02843702 -0.028658018 -0.030625738 -0.018198365 0.0024544005 -0.04396387 -0.027725128 0.035519782 -0.039393656 -0.030541323 0.0045637502 -0.016546357 0.020428065 -0.02904393 0.03714375 -0.044053376 0.030993469 -0.021294516 -0.020438086 -0.014373271 0.039657865 0.043182764 0.013761773 -0.0017058041 -0.017553471 -0.01599024 -0.013759945 -0.030928843 0.024160312 0.023012869 0.034262083 -0.03304002 -0.0251896 -0.0219882 -0.017608963 -0.025061622 -0.038181283 -0.013533316 0.025172653 -0.033730928 0.028656617 -0.02207764 0.009065139 -0.009276532 0.021501847 0.042548366 -0.018029673 0.030942883 -0.042667784 0.04045105 0.044027314 -0.008299478 -0.018208608 -0.027125895 0.00040339274 0.037026785 0.01762351 0.021084972 -0.016375689 -0.007939207 -0.032763477 0.038651567 0.0367772 -0.029470166 -0.03628563 -0.0031407778 0.040631827 0.039513256 0.003248737 0.043074727 -0.010830017 -0.022379417 -0.0080233 -0.020899253 0.0048813005 0.014673562 0.03795009 -0.01446375 0.017932799 -0.005864344 0.01641282 -0.038898144 -0.035206016 0.033329748 0.0014923672 0.027832119 -0.011791682 0.020691926 0.04203868 0.0010955493 0.021475436 -0.0019394925 -0.017324962 0.0034738749 -0.03245716 0.018503224 0.015771825 0.004039312 0.04276119 -0.013721912 -0.010343616 -0.011362548 0.008253738 -0.02020375 0.019589053 -0.028031647 0.0148150595 -0.027423864 0.015899777 0.03720393 -0.012806467 -0.03602648 0.019004367 -0.012318322 0.0389018 -0.02254695 0.020954622 0.007587481 -0.0045111827 -0.03125519 0.026107728 0.025997309 -0.043231476 -0.0123372255 0.035586428 0.02000655 0.028287452 -0.03230503 0.015358122 -0.01672488 -0.019663617 0.008558312 0.019983929 -0.036129378 0.020342698 -0.0228694 -6.893644e-05 -0.03312888 0.026927283 -0.027500575 -0.0329812 0.037382968 -0.042367645 0.021860769 0.04004227 0.0196032 -0.021359148 -0.034961596 -0.029738873 0.033074975 -0.019801712 -0.03895159 0.0147472555 0.0398591 -0.034083027 -0.03310164 0.0228043 -0.036555562 -0.027542032 0.028652644 0.03897282 0.014895733 0.033395454 -0.016572999 0.041050747 0.0317341 0.025418442 0.043931328 -0.01664979 -0.042937376 -0.010642659 -0.03498892 -0.014390631 -0.03545554 0.010686829 0.033841547 0.034987595 0.041500926 0.00675998 0.025566068 0.016769562 -0.030604782 -0.024398299 -0.004327707 -0.032782592 -0.00087742886 -0.0045549995 0.024386903 -0.011581206 -0.013662433 -0.0041359016 0.0063091726 -0.018746054 0.026541825 0.032145113 0.003963089 0.040764965 -0.0438508 0.020486075 0.008875963 -0.040976167 -0.028514603 -0.03808303 -0.042492922 -0.033545244 0.03832983 0.0044329315 -0.013035794 -0.03359413 0.04120738 -0.0036014745 0.027906392 0.040687762 0.037174214 0.029652331 0.0028818382 -0.03892575 0.018331386 0.040587567 0.021620864 0.038549893 -0.042473048 0.019868003 -0.0022756506 -0.005474217 0.00942728 -0.009213917 -0.018743942 0.013690508 -0.022925915 0.015177975 -0.019753153 0.010116245 0.021687793 0.04106993 -0.017203126 0.04195753 0.03211304 0.027027873 0.014501266 -0.027112203 0.009735816 0.032519635 0.0050380025 0.017728006 0.037537765 0.0022960864 0.01888476 0.009155307 0.03505103 -0.0436481 -0.013472856 -0.026297405 -0.022677433 -0.029084897 -0.008532181 -0.008858888 -0.0030652613 0.0430954 -0.015654845 -0.030576931 -0.02604358 -0.0233376 0.033143334 -0.031166304 0.003190237 0.0097596245 0.017731937 0.0045591877 0.020597897 0.042473286 0.0051570986 -0.03568688 0.012833283 0.012490635 0.023649387 0.02054537 0.033042744 -0.0118276905 0.03630177 -0.026745826 0.0100979945 -0.0054174503 0.005042038 0.02830078 0.03223364 0.03538692 -0.020297421 0.008974039 -0.032148562 0.023397507 0.03598856 0.005025174 -0.026601484 0.032200266 -0.03483297 -0.024365203 -0.041414794 0.0262226 0.030868562 0.0362529 -0.00010337568 0.005510142 0.020309407 -0.02382947 0.0027108062 -0.0033147968 0.02498148 -0.037144877 0.038066994 -0.043408338 -0.03481515 -0.017672295 0.0038181199 -0.014714924 0.03731623 -0.0039070337 0.03192438 -0.030563593 0.027877305 -0.015300407 0.039635986 -0.023109458 -0.021281729 -0.036989745 -0.0375856 0.011257338 0.043472245 -0.034092594 0.009156471 0.02851369 0.0017254181 -0.00393846 -0.005000197 -0.014893047 -0.008355834 0.037941113 -0.006334613 0.008125306 0.007875966 -0.01159307 0.035349943 0.023567991 0.016372185 -0.010845111 -0.034841713 0.009565812 0.032943524 -0.007018978 0.036250535 0.042653333 -0.004935865 0.021920707 0.013827449 0.006239477 0.011651233 0.018397879 -0.025538856 0.03994227 0.025133114 0.0008852945 -0.016450815 0.0063140932 -0.005552294 -0.011115172 0.0055077975 0.010041423 0.04048171 0.017822575 0.03493929 0.031813886 -0.021370918 0.025140462 -0.025127776 0.03621731 -0.007911812 0.041422192 -0.012894996 0.031271566 -0.03639379 -0.029312754 0.006578902 -0.017581748 -0.01733111 0.022826143 -0.030600803 -0.032526113 0.020234818 -0.022287438 0.016323833 0.01573973 0.037223067 -0.038349047 1.7243328e-05 -0.033690915 0.024038639 -0.02819494 0.017211761 -0.02109846 -0.0028614444 -0.0033882589 -0.009268903 0.043746747 -0.02006937 0.01849516 0.0021035913 0.020606484 -0.01646818 -0.03195038 -0.0151395695 -0.013946023 0.010554498 -0.020776542 0.032980766 -0.028619127 -0.034670975 -0.031344686 0.022576666 0.010031282 0.034671184 -0.0220999 -0.0145115815 0.03600479 -0.017245805 -0.018070683 -0.031173415 0.041064173 -0.042022835 0.013803035 0.0017134801 0.03603875 0.0112165725 0.028725268 -0.026779126 0.028151054 -0.02755594 -0.021604247 0.0042087473 -0.028567012 -0.004704326 -0.024136798 0.0006576173 -0.02051923 0.00996764 0.03761169 0.015032569 0.019143457 -0.03010276 -0.016379815 0.011747875 -0.017834717 -0.033341914 0.029640429 -0.015698232 0.010225036 -0.039862353 0.03832384 0.040196978 0.026538812 0.0045033325 -0.03448876 0.015634684 -0.03507899 0.0047450922 -0.02859444 -0.00688012 -0.026423851 -0.025750028 -0.03525429 -0.01560948 0.0072420193 0.022392558 -0.02666936 -0.039823998 0.0393572 0.015314663 -0.016675195 0.008829317 0.0225865 0.039334398 -0.039168753 -0.0019769296 -0.017586099 0.024041442 0.023484798 -0.030899793 0.043334473 -0.0062669204 0.034415767 0.0007764714 0.013972897 -0.03220771 -0.017600266 0.040176753 -0.033906486 0.028270535 -0.032439332 -0.019972295 0.036864895 0.0353596 0.02614859 -0.0037117621 -0.03820233 0.021804081 -0.0037135587 0.035693355 -0.03591098 0.0036091926 -0.037911866 -0.004510603 0.017274497 0.043780163 -0.025803518 -0.012543877 0.036164183 -0.010920438 0.024291737 -0.014339337 -0.03257003 -0.039507974 0.012280011 -0.034468655 -0.020210609 -0.021888508 -0.023424532 0.035283543 0.03101921 0.029231278 0.030942457 0.04160607 -0.00091694156 0.03602508 0.034491684 -0.0077559575 0.020900253 -0.027174938 -0.0047329227 -0.004701918 0.012466648 -0.006919127 0.03133903 0.028717915 -0.002088524 -0.038169876 0.017072361 0.002845476 -0.035607025 -0.039085217 -0.03814726 0.010300305 0.023502495 0.038448434 0.03126848 -0.026885416 -0.00626888 -0.018557841 -0.043142073 0.042149477 0.026019888 -0.015421116 0.014462548 -0.00085412693 0.03830005 -0.030084742 -0.015610845 0.038963858 0.020024594 -0.009066498 -0.030341757 0.021500003 -0.00767708 0.035423867 -0.0411736 0.007542716 0.036897473 -0.03587314 -0.037141908 0.040086858 -0.0009713742 -0.034863234 0.037789263 0.021241842 0.012736382 0.0070824563 -0.040322397 -0.03078744 0.0008370522 -0.036618214 0.03560815 0.022657044 -0.011719126 0.022805864 -0.021785332 -0.04301199 0.04381716 -0.00900559 -0.001230219 -0.0034718518 -0.017114691 0.0015252997 0.021274017 -0.026882745 -0.042238943 -0.030141693 0.030436514 0.006245715 -0.0043555554 -0.032635957 -0.015527162 -0.00986899 -0.043573286 -0.029857533 0.033581857 -0.00016751791 -0.022718532 -0.0042565893 -0.028922725 0.027707722 -0.016951108 -0.035831116 0.0077756667 0.008539357 0.012713038 -0.027262725 -0.007949249 0.007128344 -0.021941107 -0.039690617 -0.036197763 0.03861906 0.008165973 0.009744273 -0.013292157 -0.033502277 -0.03399239 -0.012791826 0.031239085 0.0301703 0.016486235 0.039071925 0.012683483 -0.015659388 0.014762934 0.026545912 0.01026506 0.02267805 -0.043933477 -0.033380166 -0.0024438323 0.031683054 -0.02429546 0.02663391 -0.03337111 -0.03795747 -0.015565442 -0.014684077 -0.024946708 -0.0058377967 -0.0048471247 0.019556459 0.016436322 0.023871932 -0.04389744 -0.037038475 0.022866473 0.0019862386 -0.02916595 -0.028265346 -0.026957335 0.037369654 0.034051634 -0.01423141 -0.02031016 -0.030230159 -0.011703416 0.03422989 0.009447347 -0.03771831 0.017974382 -0.018379988 0.036288638 -0.030565478 0.015659956 -0.019352304 0.03238497 -0.0004815488 0.025486367 0.0010397522 0.0050863028 0.009907923 -0.043269154 -0.0070278817 0.009340479 0.023620041 -0.036485255 -0.0031588536 0.034528986 0.017528662 -0.039465174 -0.0048007523 -0.012483106 0.039913286 -0.033783197 -0.023126392 0.040432416 -0.032746825 -0.026539253 -0.025681945 0.017901879 -0.006946733 -0.026506174 0.02724485 0.027060615 -0.024019552 0.008052735 -0.029478718 -0.0293128 -0.022535782 -0.016840827 -0.027570281 -0.004685855 0.02573671 0.02097892 0.009698521 -0.010944461 -0.0071575777 0.015451013 0.041003395 0.035877462 -0.028694723 0.03847723 0.038038872 -0.011141335 -0.0018822572 -0.013405837 0.016249359 -0.035646435 0.029228091 -0.011550776 0.041301224 -0.001139872 0.024453506 0.02826217 0.017584018 0.016268194 0.006185482 -0.0059925653 -0.04099305 0.028775671 0.016369687 -0.001016208 -0.04046183 -0.025608815 -0.037724555 0.0019864915 0.032976143 -0.0321059 0.014115754 0.012896172 0.034242228 -0.038052022 0.0062003965 -0.009480022 0.0026208858 0.02525612 -0.018261213 0.03402093 -0.041651443 0.030143974 -0.02484916 -0.027924025 0.0230665 0.010263574 -0.0019278812 -0.0035442759 -0.0027186982 -0.0021907564 -0.0031897156 0.01652726 0.034926075 -0.034380563 0.043922976 -0.01279348 0.01737635 0.040313665 -0.038597405 -0.022940429 0.008366882 0.020359298 0.012326389 0.013532768 -0.035932183 -0.0015394557 -0.014288034 0.0070508886 0.041788362 0.0057729646 0.008659549 -0.021591214 -0.0059175175 -0.04268912 -0.028280303 -0.025159214 0.04109662 0.023812305 -0.03965298 -0.00054286193 0.039873194 -0.012036123 0.021465737 -0.018406572 -0.030346889 -0.037950855 0.03500819 -0.012416077 0.015400543 0.020175232 -0.017426204 -0.008061481 0.011173097 -0.024544122 0.017366963 0.02845593 0.02736205 0.03403741 0.011185562 0.027844558 -0.014872653 0.038605336 0.022959532 0.011968888 -0.041043796 0.041302532 -0.023723044 0.020924019 -0.013834271 -0.006798102 0.031627715 -0.044095844 -0.03237106 -0.0024599957 0.029277645 0.008714077 0.01152504 -0.03943037 -0.0069745765 0.03906399 -0.02920519 -0.025456354 -0.021969518 -0.009325333 0.024991658 0.020852823 -0.04345636 -0.03636886 -0.011104319 0.013523074 -0.03461904 -0.023309551 -0.007577724 -0.018391842 -0.023361787 0.018600605 -0.015553346 0.032675624 0.028213812 0.029195953 0.0009945445 0.020483552 0.015777789 -0.023439031 -0.031688187 0.0006544826 -0.0047141775 -0.03785369 0.0011445872 0.023632249 -0.032372747 0.042881135 0.0062498404 -0.00064299756 0.018430838 -0.03911372 0.030377077 -0.033272285 -0.0015536329 0.0031831618 0.005560755 -0.042038757 -0.01522558 0.041401174 0.00468438 0.03709081 0.028026838 -0.0023632264 -0.022804506 0.030277368 0.027484817 -0.016709492 -0.0019512305 0.02558499 0.004354317 0.012503252 -0.020932928 -0.013838496 0.015264413 0.013182069 -0.0023131033 0.012979775 -0.020663219 -0.043675277 0.034429718 -0.01861702 0.020959575 -0.033606667 0.01661721 0.019121967 0.04345065 -0.0017990014 -0.031996828 -0.035069518 -0.00013620281 -0.007422592 0.002521414 0.004894371 -0.012740908 0.030110093 -0.038218044 -0.03799107 0.03460818 0.031632952 -0.00044353236 -0.038005214 0.016712917 -0.0024143558 -0.01605287 -0.043118086 -0.007806713 0.040423907 0.043610103 -0.02248598 0.030985951 -0.033591133 -0.013376783 0.018774945 -0.005553395 0.017892981 0.020471014 0.0092028165 -0.021923373 0.018664168 0.033446725 0.027750881 -0.0073139584 0.028558524 0.020663368 0.012322094 0.028142236 0.019516546 -0.024520958 -0.007436095 0.016358266 -0.004223167 0.010129605 0.034153193 -0.030261794 -0.036904875 -0.024096485 -0.0051180236 -0.029601248 -0.020372273 0.012521628 -0.012899812 0.03536214 -0.017322348 0.026243798 0.04340583 0.04245296 0.008513384 0.036288336 0.014614019 -0.02681127 -0.02185364 -0.013917089 0.016306674 -0.04066517 0.009978319 -0.0073127258 0.020644743 0.038728617 -0.016629713 0.016793253 -0.007446289 0.0028897459 -0.041777782 0.0077076573 0.004494898 0.027836792 0.038447186 0.016243143 0.0021954926 -0.02311949 0.016484443 0.015354113 -0.0059509766 -0.006095667 0.04214799 -0.0030036373 -0.0060344436 -0.009733256 -0.014292054 0.011915683 0.014970734 -0.013685461 -0.039806448 0.03892161 0.037309702 0.00032863478 -0.033407666 -0.0021674542 0.0045355908 -0.025843842 -0.026642708 -0.013453859 -0.0032068747 -0.00039763443 0.0009025115 0.038364258 -0.004429681 0.0061140326 0.035017677 -0.00391511 0.008890166 -0.029733326 0.025895808 -0.021098047 -0.016087567 0.03660579 -0.039423756 -0.00239667 -0.009493061 -0.043103777 0.02240058 -0.032669596 -0.0013093445 -0.0039450927 -0.030010326 0.0201974 -0.018692728 -0.007788553 -0.024860814 -0.038116112 0.02827818 0.019321743 0.03722043 -0.03710248 -0.039210737 -0.02409903 -0.03600628 -0.03269844 -0.027267061 0.0057592243 -0.010701327 0.014877706 0.01744967 -0.029060131 0.025450837 0.019111488 0.015621002 -0.0017419029 -0.024197748 0.028753754 0.042660832 0.044009507 0.012859651 -0.010113178 -0.035412367 0.04374897 0.041552503 0.0065000765 0.021194797 -0.014472106 0.024061935 -0.00070513255 -0.012070894 -0.0035567146 0.015880711 -0.034366086 0.017378151 0.028840419 0.003908135 0.03039834 -0.01887555 0.024837943 -0.017829122 0.012309598 -0.035349157 0.022086386 -0.017382255 -0.039690338 -0.03857886 0.04101747 -0.034076568 0.012718912 0.012358552 -0.0140493885 -0.033270795 -0.037607748 -0.042177547 0.039734904 -0.026767273 -0.019187447 -0.029269995 0.029805308 -0.036643527 -0.020220641 -0.017670898 -0.04323757 -0.033467006 -0.017798988 -0.016469022 -0.041586336 -0.022682544 0.020633548 0.03984386 -0.04238937 -0.017695133 0.031599864 -0.041325204 0.042670313 0.016753115 -0.013352553 -0.0009777226 0.043849792 -0.013301529 0.014508994 -0.0019879404 0.028001448 -0.014804597 0.008993642 -0.020004537 0.013127263 -0.034875773 0.04211545 0.01748876 -0.018297775 0.02826287 0.019508937 -0.006531376 0.00019319062 -0.027215041 0.02267435 0.043467283 0.021726258 -0.029036755 -0.03650771 -0.013638177 0.017475659 -0.013636012 -0.03590244 -0.026585467 -0.0077565424 0.022474458 0.006835834 -0.041921556 -0.023511693 0.01689312 0.03444441 0.009067636 0.029196307 -0.031139566 0.003941141 0.010114211 0.023741294 -0.010770243 0.043568578 0.012933087 0.034744892 0.019242417 -0.030862287 0.018228458 -0.0034089845 -0.0021028642 0.01181051 0.016790383 0.01677474 -0.034871407 0.0020971007 -0.00025071052 -0.034186866 0.0019932087 0.038349617 0.031678386 -0.03605465 0.013074626 -0.005432597 -0.026015237 -0.025530212 0.036038905 -0.01112691 -0.03186255 -0.034958873 -0.042996533 -0.001256819 -0.011268266 -0.007547573 -0.004110745 -0.0046882783 0.040114608 -0.017999223 -0.0059657968 -0.014220826 0.01666175 -0.037474122 0.034765463 -0.007080328 0.040033672 0.008624262 0.031825274 -0.030064596 -0.013320353 -0.004163703 0.035814364 0.030871987 0.0005881856 -0.04399744 -0.0043274383 0.009357148 0.020342765 0.0027425007 -0.006267721 0.02053229 -0.025235642 -0.019389277 0.035979785 -0.024242345 -0.0149832675 0.02995789 0.03618602 -0.0072290692 -0.03774707 0.013774174 0.0045960187 -0.016821798 -0.03544204 0.009825194 0.03850494 0.036674637 0.031078527 -0.0054821144 0.029993067 0.013041737 0.015345003 0.030587796 -0.014431734 0.03320941 0.023407638 0.030622989 0.02475444 0.034364164 0.04279542 -0.030399531 -0.03946319 0.014388212 -0.006467987 0.02418186 0.0196038 0.024321107 -0.03234634 0.005863754 0.009645333 -0.013551392 -0.009127353 0.040334366 0.028021242 -0.04191471 -0.00958472 0.0065078475 0.02361803 -0.043054007 -0.015355719 0.020034056 -0.039851516 -0.042374067 0.038488492 -0.026578356 -0.040703688 -0.02654956 0.02505647 -0.037544064 0.002096595 0.007993092 0.005182355 0.034199756 0.016629782 0.0029818946 -0.032930523 0.029522328 -0.0026694601 -0.0037169463 -0.0023942834 -0.044107027 -0.032986064 0.027910218 0.034755155 -0.018161636 -0.014739026 0.012711337 0.02166611 0.023096683 0.03135967 -0.019807307 -0.001837355 0.00058240094 0.03143894 -0.024865065 -0.040516667 0.016298302 -0.028374327 -0.016088786 0.018789265 -0.019229062 0.012775511 -0.034612644 0.01819893 -0.0029874477 0.034807652 0.006868872 -0.02499918 -0.022985306 0.021235047 0.039598327 -0.015728697 0.015727343 0.03568458 0.0014373076 -0.044065595 -0.042231288 -0.014284114 0.0021251494 -0.0033501738 -0.0014241842 0.015533426 -0.029075645 0.04100574 0.023705283 -0.0054598344 -0.016246736 0.0062408363 -0.035027727 0.019733965 0.0011470529 0.003528845 -0.0021463651 -0.030461302 -0.042500846 0.0112443315 0.033231135 -0.02202981 -0.026464669 0.037456237 -0.0077303955 -0.033641998 0.042901684 0.022977198 0.03295874 0.021348331 -0.035292447 -0.03597592 -0.009827665 0.01024838 0.011539064 0.030372731 0.040349763 0.031364452 0.0061275037 0.038124483 -0.00251505 -0.003388143 -0.026997752 -0.01768703 0.0062611722 -0.009332319 0.025402332 0.032214742 -0.012264607 0.035620615 -0.031818636 -0.035749663 -0.004397428 0.03925026 0.02833423 0.0060712746 0.016687538 0.03588808 0.037325107 -0.023909416 -0.04399484 0.03560043 0.0028279482 0.037576124 -0.00932714 0.033261422 -0.024229644 0.0033605366 0.04234109 0.040258296 0.008064936 0.03772514 -0.011121141 -0.012852397 -0.0121949585 -0.027033167 0.030843563 -0.030378299 -0.04210093 0.011423797 -0.043023255 -0.028484562 0.014464329 0.039478146 -0.029163048 0.008144889 0.027614567 0.024948163 -0.036393233 0.035116557 0.019415278 -0.025339065 -0.039310977 -0.033626284 -0.035494365 -0.037284404 0.039843377 -0.02396475 -0.015555226 0.00028965948 -0.041583154 0.034295037 0.0144269345 0.029107703 -0.0074639698 0.022393942 0.025953164 -0.03907437 0.005991654 0.015301102 -0.0177529 0.0047855745 -0.0111189075 0.028394448 -0.027786478 0.0051944675 -0.032077525 0.03561131 0.016715107 -0.010305784 -0.014166056 -0.00823305 -0.036403567 -0.0053433618 0.037869416 0.03989512 -0.014254275 -0.03668202 0.04263716 -0.028514272 -0.032122925 0.015288627 0.0078973025 -0.03556385 0.014276797 -0.008585924 0.008546316 -0.026318993 -0.040903963 -0.024816448 0.012348963 -0.01252696 -0.0201318 0.0068583405 -0.013353465 -0.039977096 0.03987927 -0.029603245 -0.03836118 0.040354934 0.015969466 0.017679928 0.0007453196 0.03896951 0.0034489187 -0.031815756 -0.037852325 -0.0015204002 0.029140864 -0.017364353 0.027899116 0.0115586575 -0.02917497 0.0149526745 -0.020787558 0.019611934 0.028068963 -0.0054988414 0.03307153 -0.03682061 -0.02132462 0.031897083 -0.026494632 -0.021153782 0.03770497 -0.0027605183 0.00895974 0.043436974 0.044022292 0.038592126 0.02095867 -0.03757666 -0.008443931 0.011958062 -0.009497223 -0.0101497825 -0.03163981 0.03377836 -0.012464262 0.03261298 -0.00010703192 0.012599131 -0.037499078 0.0058683744 -0.038420465 -0.02611089 0.023972278 0.03407781 0.040746607 -0.03556704 0.009378875 0.024095384 -0.025723064 0.030072292 -0.01998103 -0.027042413 0.011045593 0.004735704 -0.030075464 0.015160806 -0.029703397 -0.023674026 -0.0014499306 -0.031087652 -0.010561246 -0.011428903 0.0143473195 -0.01759957 0.03472115 -0.0041520493 -0.016098853 0.040130425 0.018826775 -0.012459029 -0.04353331 -0.02686646 -0.03690931 0.038704604 -0.01781647 -0.03567999 0.017841714 0.0027296352 0.039397325 0.035141453 -0.031567704 -0.0005443634 -0.025269086 0.015469099 0.02385852 0.015673611 0.010270929 0.030612305 -0.006051808 0.0023786363 -0.03451938 -0.043910746 -0.0131197395 0.033526365 -0.03171412 0.03397457 0.02020161 0.0052176584 0.015452762 9.530456e-06 0.004688073 -0.02570355 -0.018237753 0.011812017 0.0018346575 -0.03613935 -0.010144367 -0.011355751 0.003556098 -0.019114064 0.019393709 0.0035791525 0.036713947 -0.016054524 -0.020108825 0.0438 -0.04190236 0.03978673 0.022061983 -0.034264456 0.0045435303 0.0011903376 0.018408958 -0.03637841 -0.015533721 0.008367019 0.026237525 -0.016682412 -0.042753585 0.03945318 -0.038230687 -0.005458575 0.04097744 -0.03161188 0.011544948 -0.012472321 0.022433134 -0.012813901 0.037251927 -0.03353747 0.0032455232 -0.024367753 -0.019423516 0.019246474 0.022319864 -0.022996027 -0.038750887 -0.025433425 -0.038544316 -0.0044303923 -0.033783533 -0.026507586 0.012497367 -0.021608979 -0.04240948 0.02909782 0.018937495 0.041724395 -0.013683153 0.034393303 -0.034605242 -0.020222152 -0.0011299727 -0.00079814537 0.007187376 -0.040932976 -0.039412696 -0.0067036776 -0.0006850285 0.007225814 -0.01627744 -0.01842305 0.038988847 -0.00015055908 -0.015171969 0.02151625 -0.01780847 0.032464854 -0.0358099 -0.00505513 0.007355821 -0.037361205 0.030650236 0.035960365 0.038667716 0.016671117 0.040755745 0.016702164 -0.04385024 0.0062055597 0.022323838 -0.010598494 -0.038631026 0.002573929 -0.03896111 -0.01644256 0.03523701 -0.014007537 -0.009432701 -0.04347724 -0.016480714 0.0070365267 -0.02014878 -0.028685708 -0.025776966 0.014226779 0.004938578 0.0014565529 0.015413381 -0.0013933643 0.022453343 -0.021214146 0.033412047 -0.043265782 0.009379475 -0.04235368 0.031053012 -0.026627071 0.036038633 0.025393598 0.002458631 -0.017924918 -0.01592555 -0.0002985103 -0.008947244 -0.0041228943 0.016240455 0.041808758 0.020307615 -0.031404916 -0.0022341518 0.003323537 -0.0038234778 0.029696558 -0.0050810343 0.025490904 0.024464697 -0.033320915 -0.027624344 0.0013972207 -0.008190429 0.039448652 -0.034395974 0.03136337 0.004384268 -0.0125388345 -0.034698084 -0.0030095535 0.023552481 -0.012427905 -0.017925022 0.0012222007 0.040600073 -0.04097612 0.03561624 -0.03767274 0.039434 -0.041529212 -0.0038832156 -0.012165714 -0.0064932066 0.038208667 -0.004134632 -0.0030383135 0.034552403 -0.033778023 0.003886187 -0.040251534 0.031702075 0.022584662 -0.030987421 0.0075240238 -0.036624867 0.003252509 0.01912172 0.007303722 -0.00851075 -0.035456102 -0.041645095 0.015683526 0.0049119517 -0.03862061 0.020445514 0.022736927 0.039696667 0.03361017 -0.008656646 -0.0370251 0.02646893 -0.031726062 0.042868335 0.024073077 0.027302139 0.02925977 0.033744875 -0.031993873 0.00091342226 0.0037684182 0.012602018 -0.017337596 0.003267271 -0.023686845 0.01853071 -0.0017842868 0.0024282169 0.026853153 -0.011048417 0.033259436 -0.0047673564 0.034961473 0.04125531 0.007250438 0.018911427 0.020225398 -0.0051889406 0.04339301 0.033723883 0.03363618 0.004212593 0.019765612 0.019819902 -0.0073283147 0.012922935 0.027784145 -0.011624259 -0.035771996 0.022975706 -0.034776032 -0.013249231 -0.042047318 -0.03836921 -0.008745892 -0.024672717 0.010816846 0.015130349 0.034706566 -0.019104924 0.028570035 -0.041049946 0.002914054 0.037836805 -0.009517575 0.013677948 -0.029718142 -0.03648988 -0.0075860904 -0.014801541 -0.0077969246 -0.014234971 0.013913849 0.015458942 0.028821431 0.011967719 0.042020228 -0.021139573 -0.021495983 0.019234193 -0.019964362 0.013070233 0.04214476 7.6090866e-05 -0.009477261 0.016495338 0.004541307 -0.033776503 0.028336637 -0.013828865 0.021619743 0.0043822764 0.028629664 0.015325922 -0.03570175 -0.04064771 -0.036229845 0.03665318 0.03226897 0.0036507864 0.0045729806 -0.0299892 -0.01553221 -0.037255894 -0.011846863 0.01826772 -0.0031127292 0.003885539 -0.032231387 0.039770592 -0.033310197 -0.017283501 -0.041978557 0.032784894 -0.021570588 0.030963866 0.010580919 -0.030905457 0.017393673 -0.023089087 -0.04371519 0.01566572 0.026761953 0.0010797865 -0.016706947 0.010267178 0.003689377 -0.037105247 0.040517647 0.03798553 -0.021586642 -0.024533518 0.03178984 -0.01813084 0.006193258 0.00555545 -0.032522313 -0.0317489 -0.0038242997 0.032199454 0.009190468 -0.002228757 -0.036286857 0.011936561 -0.011158789 0.0004261257 0.015856698 0.040600296 -0.009524998 -0.013192785 -0.010234356 0.02871068 -0.033402015 -0.02240402 0.013127457 -0.03857253 -0.043843254 0.016481057 0.0404986 0.018269641 0.04140132 0.023425365 -0.018395718 -0.00095704955 0.023505535 0.025727453 -0.011910868 0.007018462 -0.01826164 -0.012901777 -0.009099188 0.0186493 0.0016310462 0.017649151 -0.0365099 0.02579916 0.014141711 0.009007682 0.009252165 0.02840627 -0.020478258 0.029133983 -0.0148815885 0.0030737221 0.0020149986 -0.039026164 -0.0024819751 0.0067061535 -0.018810797 0.043247316 -0.008838532 -0.027893348 -0.027582599 0.03216474 -0.007353371 0.0074207904 -0.003188388 0.01593676 -0.006664386 -0.03350478 0.01851088 -0.008373057 -0.025503632 0.031164112 0.04179684 -0.021029992 0.006638566 -0.014959544 -0.034869473 -0.025500603 0.017199164 -0.003196064 -0.006690754 0.006034217 -0.028764158 0.0397456 0.0060634403 -0.025579492 -0.00617465 -0.043338235 -2.8759956e-05 -0.038432956 0.021571226 -0.040640518 0.026013546 -0.0027729992 -0.0021402012 0.037098236 -0.033216506 0.02220857 -0.019808872 0.014093031 0.030154388 0.026343139 0.024365762 -0.0282986 -0.034805164 -0.029424828 0.03661018 0.035954002 -0.037606373 0.031349864 0.025335861 -0.020181824 -0.019050222 0.013770903 0.02452142 0.03799671 0.027149271 0.022591718 -0.027616426 0.03858629 0.01770302 -0.04389837 0.015774038 -0.04217429 -0.019289844 -0.020041063 -0.0050560148 -0.010294626 0.007762538 -0.007591385 0.012372296 0.01375307 0.00051454455 0.035455737 -0.038582236 0.013782863 -0.0037745873 0.0023290296 0.0023451454 -0.029454488 -0.019294143 -0.03489409 -0.037357666 0.0037087277 0.0018577751 0.0028878546 0.0046140524 0.038723096 0.014492241 -0.00058276975 -0.01762579 0.0031755648 -0.007455335 0.035859134 0.0040399753 -0.017835287 0.026634121 -0.036422685 0.01982034 -0.037718546 -0.032691386 0.026031485 -0.037390318 -0.009555707 0.003668667 -0.007802251 0.030254303 -0.041875165 0.007384486 -0.02019341 0.034464806 0.020351633 -0.029510517 -0.016399402 -0.03374826 -0.022484468 -0.04306105 -0.03643088 0.02865906 0.03676935 -0.037180923 0.039805457 0.04286633 -0.024583135 -0.042571556 -0.024311328 0.0011619834 0.024709543 0.035481684 -0.027648542 0.028082423 -0.040878564 -0.001764346 0.021317944 -0.007474633 -0.022684665 -0.00043977075 0.033368375 -0.025160946 0.025574902 0.033875324 0.022914747 0.009909814 0.020537611 -0.041755885 -0.036232203 -0.038490064 0.027650323 -0.03000208 -0.04038382 -0.011112332 -0.015347548 -0.02481705 -0.021536913 0.008356661 0.025167178 -0.020990405 -0.036963787 0.027840732 -0.0323397 0.014226584 -0.03921607 -0.0002199644 -0.022092313 -0.0087361885 -0.041064415 -0.005787268 -0.032932308 0.009202358 0.030265698 -0.029464098 -0.018319333 0.026536772 0.0068475986 0.043767516 0.0019273069 -0.025984986 -0.014867706 -0.012207229 -0.019739255 0.04203946 -0.0055905688 -0.007255891 -0.020026674 -0.010136528 0.024260357 -0.04355501 -0.007344067 0.005876967 -0.02767031 -0.010491094 0.033334512 0.021291524 0.02340297 0.026320301 0.008600133 -0.014641103 0.033238586 -0.027968295 0.032737564 -0.019522488 -0.013042036 -0.039532226 0.028422 0.018316725 0.004986989 -0.027187856 -0.034630813 0.029771691 0.033374425 -0.01534563 0.023976056 -0.019752989 0.030842336 -0.041279055 -0.016259449 -0.021511197 -0.031448133 0.008994648 -0.04385739 -0.033185374 -0.013947098 0.0041826214 0.012803258 -0.020132048 -0.015717618 -0.006344007 -0.022589594 -0.011350573 0.03590169 0.022436822 0.02626925 -0.03098103 0.0042683166 -0.008910197 -0.019328777 -0.04361329 0.018859686 -0.006271635 0.04149764 -0.03317021 -0.009352813 -0.011687152 0.005116406 -0.006302513 0.02510656 -0.02558871 0.011489831 0.03514015 -0.023663659 -0.029534493 0.010381121 -0.04357255 0.015756046 -0.0077606677 0.028474558 -0.04139392 -0.021401538 0.039854646 0.0126016755 -0.016869122 -0.023031708 0.039445747 -0.029953612 0.02596071 0.04284538 0.038281016 -0.032257073 0.029590912 0.03738744 -0.015985213 0.04316248 -0.04404473 -0.042552773 0.021830445 0.032332227 -0.009896544 -0.02866728 -0.008046481 -0.005143206 0.033899654 0.012553433 0.0060933963 0.018038277 -0.020214971 0.030262517 0.013091933 0.014424748 -0.009832702 -0.015879415 -0.023375249 -0.02909026 0.009829367 0.0016374578 0.039105147 -0.036928993 0.034109045 -0.033209514 0.0051791994 0.011949058 -0.03732057 0.0054786266 0.035334673 0.03327457 0.009587523 0.013971295 -0.010932387 -0.020919899 0.005990205 -0.022433829 0.013244436 -0.043953937 0.01641752 0.041910958 -0.005061194 -0.019937666 0.020655695 0.02557817 -0.036212824 -0.035410076 0.010692692 -0.030626124 0.019770702 -0.0011639589 -0.00426642 0.020183435 0.027823089 0.00036100883 0.0022420543 -0.0025220304 0.011869811 0.009078342 0.008208551 0.025488358 0.016284067 0.02243169 -0.03938427 0.03450074 -0.04104453 -0.026978835 0.04154641 0.041611746 0.03824651 -0.019952903 -0.0028928174 0.04359619 -0.03771663 -0.010157622 -0.028882213 -0.007699581 -0.040738843 -0.010289989 0.031672344 0.031877775 0.003792505 -0.037488356 0.017798383 -0.041422065 -0.027480861 0.027432598 0.0026312065 0.0013929638 0.014704218 -0.003974353 -0.01691686 0.00842801 0.017192258 -0.019871322 0.0076686507 0.01846162 0.029373845 -0.031991392 -0.041629713 0.027907515 0.03264721 -0.040530305 0.028681377 0.022277307 -0.001999162 0.026374238 0.0027684895 0.042188067 -0.019666294 -0.0006487664 -0.04314022 0.02552745 -0.024348319 0.012077116 0.011301914 0.03558332 0.026020858 0.01096131 -0.014947943 -0.008787755 -0.031413082 0.025279447 -0.03445265 -0.025032025 -0.0039855745 0.0113112815 -0.0068112994 -0.015385602 -0.00989285 -0.007860751 0.03237516 0.019256694 0.036408458 -0.0030586494 0.017172933 0.019739091 -0.030678064 -0.039549623 0.03511029 0.019032942 0.021755729 0.020938043 -0.021033442 0.017077502 -0.011752438 0.032762952 -0.0396766 -0.00059754745 0.04132819 -0.039460734 0.0070490497 -0.028748339 0.03252938 -0.042496536 -0.0021135432 -0.037284423 -4.1351326e-05 0.002939769 0.042526793 -0.006276514 0.034687813 -0.020754077 0.0073793703 0.036827814 0.008384709 0.022480965 -0.018169506 0.008982241 -0.029108483 0.025095124 -0.0006820677 -0.018648615 0.008527529 0.018099321 0.021779068 0.029019095 0.004138104 -0.008334908 -0.043870717 0.039161853 0.016604183 -0.038843255 -0.02501527 -0.02853713 0.032286465 0.008801606 0.021525955 0.032366034 -0.014568605 0.013788594 0.007941899 0.0060054674 0.037136104 -0.022070013 0.021443214 0.029733125 -0.007582792 0.009261243 -0.027334327 -0.038131766 -0.010707681 0.025342936 0.008104838 0.0010377713 0.0021941597 -0.029880276 -0.01586431 0.016260518 -0.017918669 0.0047314735 -0.03125765 0.03875577 0.034791455 -0.0043370686 -0.0043381383 -0.042482637 0.011903539 -0.014470224 -0.0095350975 0.035233084 -0.023193885 0.032814372 0.032241028 -0.028423881 0.00019442868 0.042994447 -0.016309349 0.020497687 0.040199805 -0.03329877 -0.0387452 0.004554051 0.036312345 0.0094249835 0.0060728183 0.017718045 -0.039060615 0.0014624114 0.036741816 0.014038372 0.0034059868 -0.020159349 -0.026575258 -0.031067427 0.022314938 0.037338078 0.0038126935 0.004456434 0.02261083 -0.04265084 -0.039056573 -0.02013171 0.019495077 0.020246508 -0.032232866 -0.034993775 0.02621733 -0.030561259 -0.024532527 -0.018392168 -0.012628002 -0.021969276 0.010955799 0.014895723 0.01926692 -0.008901525 0.0057393205 -0.004100151 0.025613783 -0.04121718 0.022110805 0.0041607735 0.037601285 0.03246191 -0.03279901 -0.020454671 -0.012914637 0.038800336 -0.019237118 0.011003473 -0.0027386758 0.02258728 -0.04011814 -0.010797148 -0.017148757 -0.008742695 0.013301993 -0.022904156 -0.011925461 0.035231914 -0.002748928 0.0041405223 -0.037973493 0.030152172 -0.021974597 0.027196765 -0.015611587 0.015713478 0.042907197 0.015977686 -0.026736263 -0.035506126 0.019965868 -0.03984811 -0.025264159 0.02999168 0.0093998425 0.030734487 0.016125647 0.01985428 0.044129316 -0.018497156 -0.030351415 -0.042538155 0.040972807 -0.043525834 -0.00073773845 0.011126389 -0.0053139483 0.016042428 -0.024449866 -0.012253675 0.019856581 0.01823091 0.03666422 0.027388819 0.010094724 0.022391092 0.0028282641 -0.03288535 -0.017679786 -0.038767487 0.026992349 -0.0006919775 0.0041202074 0.030191537 0.040775206 -0.0017668854 -0.003914062 0.010236658 -0.013704801 -0.008296939 -0.043516383 -0.020596849 -0.009489115 -0.01600507 0.010645741 0.005366495 -0.029805899 -0.025601197 -0.010408644 0.03531222 0.017329171 -0.010025534 -0.013595688 -0.034851894 0.009140461 -0.03974828 0.008324493 -0.025056016 0.000995066 0.0052728658 -0.037367232 0.00765029 0.024952894 0.021857925 0.042530715 -0.007087119 0.028512906 0.02306484 -0.04030109 0.026233278 -0.038410544 0.036643922 0.03769464 0.024954522 0.002789742 -0.004784473 -0.005042038 0.022662533 0.028270066 0.026886033 0.024374735 0.03185628 0.027755264 -0.018722136 0.020566514 -0.0006685017 0.0041702306 0.03369833 0.010012916 -0.02497324 0.027489876 0.0055142725 0.01530656 0.034659192 -0.021805335 -0.028327456 0.03570778 0.019310374 0.0063283704 0.024956908 -0.0063312626 0.029079065 0.025396436 -0.03320654 0.030696467 -0.03266404 -0.032693267 0.021275971 -0.021031883 0.01806435 0.041104123 0.019250082 0.00459545 0.042048708 0.031190718 0.017729841 0.022362374 0.011769612 -0.022655506 0.021001933 -0.0012339491 0.025313698 -0.0071078762 0.009368391 -0.024859438 0.03672279 0.005584268 -0.025737226 -0.012101672 -0.010403702 -0.013111226 -0.039440442 0.026208637 -0.01848774 0.04182349 0.013019177 -0.00051269005 0.020063054 0.005662719 0.020216636 -0.0073080054 0.03287562 0.03568426 -0.024411112 0.014192251 -0.022131763 -0.03888348 0.028732091 0.03281556 -0.026929608 -0.044032834 0.0031782305 -0.032991536 0.038512755 0.019606235 -0.010785979 0.03908345 -0.029009717 -0.003930657 -0.0406079 -0.024504341 -0.0179387 0.017081406 0.04286866 -0.01680437 0.027343167 -0.033376828 0.04334227 -0.040618088 0.009344609 0.0012127124 -0.036123253 -0.015154742 0.0325818 -0.019150216 -0.012104327 -0.042010102 0.02298158 -0.0067711174 -0.0031848475 -0.028910952 -0.043511104 -0.038048353 -0.026288332 0.017755914 0.022668445 0.022843165 0.04235706 -0.026344536 0.040787622 -0.0016384271 0.03203881 0.014013827 0.0069001922 -0.039883725 -0.035210572 0.030012824 -0.035540882 -0.03746398 -0.0057879896 -0.0152877625 -0.036804304 -0.026603106 0.009932748 0.043796718 0.021840464 0.037275653 -0.028503925 0.022847148 0.01151198 -0.027812742 0.02433193 0.00033678493 0.012247647 -0.038121287 0.014497947 -0.016806498 0.041808978 -0.036464434 -0.010764979 -0.03390027 0.009631793 -0.02299295 -0.018663298 -0.0043326905 0.0005461599 0.03603575 0.0090999 0.040285468 -0.016344568 0.002936139 -0.024112506 0.013809399 -0.029119521 -0.008349212 -0.013237008 -0.02398213 -0.00798432 0.0429135 0.015361146 0.04083936 -0.022621347 -0.04070214 -0.023340883 -0.021740276 0.0012298767 -0.016871061 -0.019215543 -0.03151979 -0.028661706 0.016720677 0.02520537 -0.0026748497 0.010029706 -0.02234896 -0.030690312 0.034069743 0.0021825114 0.013894915 0.023192424 0.009543727 -0.016119305 -0.012381516 -0.015808003 -0.016896587 0.0243341 0.01840919 0.032905884 0.0038652085 -0.02593056 -0.020958615 -0.043164026 0.03829967 -0.0014408691 -0.008802596 -0.002043453 -0.008674258 -0.033322066 -0.0010362751 0.030759944 0.015321369 0.011845804 -0.013277648 0.02930887 0.039395496 -0.008092385 0.013989998 0.012602002 -0.015491986 -0.033876777 0.025764378 0.021361366 0.040593807 -0.040803898 -0.0012373577 0.042079583 0.008352514 -0.028597558 0.010417916 0.039469305 0.00206332 -0.020981513 0.0032286856 -0.0190918 0.023978338 -0.014419675 -0.038494553 0.00065808615 0.0024994502 0.009624549 0.015817938 0.020276237 0.0069385725 -0.03218198 0.018181255 0.009112781 -0.025797853 0.020467874 0.0037627388 0.036100283 0.014837734 0.023947513 0.041234493 -0.021851912 -0.0280206 -0.016920162 -0.031150915 -0.017661078 0.037673455 0.03721514 -0.030569036 -0.011658792 -0.0093999645 -0.012630225 -3.655712e-05 0.008927082 0.002655204 -0.033649642 -0.021377413 0.01395303 -0.016540436 0.026717287 -0.02061561 0.015618394 -0.0374821 0.015613526 -0.0076302285 -0.008580234 0.04186628 -0.042475846 0.01692502 0.014113578 -0.04023199 0.0062000174 -0.041279446 0.016059952 -0.015409746 0.0038902014 0.012996338 0.00072055304 -0.007520552 0.011262365 -0.04142273 0.0094794165 0.0025303545 -0.031967163 0.022645064 -0.033892747 0.012803638 0.0026276663 0.0124189695 -0.0397922 -0.040306427 0.012552327 0.018330807 -0.004996393 -0.027726194 0.021273732 -0.019898102 -0.03105991 0.012712011 0.0025833226 0.010114295 -0.022311278 -0.015947424 0.028832236 0.032871976 0.03640112 0.010193125 0.03654883 0.04241402 -0.035922743 -0.03586515 0.031761743 0.024949374 0.0013517179 0.011023408 0.04393627 0.035523828 0.034756772 -0.020410549 0.040824205 0.03861039 0.038144555 0.020127418 0.034570653 -0.030052947 -0.0015733787 -0.03395042 -0.03940337 0.03222921 0.025094844 0.008870526 -0.00056007894 0.0003933407 -0.041006718 0.03779552 -0.02486282 0.029976182 -0.005602417 0.026879847 0.024826474 -0.021653306 0.0002904234 -0.006400494 -0.03380841 0.024511116 0.0093101915 0.0058890316 0.028712982 -0.0057126363 0.03605992 -0.007988614 -0.02496352 0.030643856 0.012806236 -0.011236792 -0.038686685 0.0016717283 0.021706054 0.041723214 -0.003792426 0.004933615 -0.021599337 0.03657494 -0.034763753 0.031633385 -0.038046237 0.015336469 -0.028278928 -0.009200768 -0.030759012 -0.032934062 -0.022900986 -0.0007737371 0.03586477 0.015226007 -0.014333321 0.013618964 0.028308515 -0.025885466 -0.035847813 0.012277693 0.020851774 0.015331511 -0.0343982 -0.015334087 -0.026848232 -0.024011407 0.03758222 -0.027962973 -0.005917797 -0.007839472 -0.009000127 -0.0006374711 0.009543938 -0.02367449 0.011090748 0.03861163 0.00630373 0.004561527 0.012400899 -0.027283113 -0.030087935 0.020879343 0.042316332 -0.032309964 0.03599523 -0.03105298 -0.035538424 -0.0062740217 -0.020639153 -0.015481459 0.005525162 -0.018287996 0.01680143 0.031525005 -0.0058237724 -0.0045901975 0.04007251 0.028928865 0.03393813 -0.007995083 0.040540427 -0.043781165 0.037021138 -0.02984815 -0.04070118 0.03539907 -0.0067769024 0.01965308 0.01768075 0.001700836 0.025254987 0.039961193 -0.042775225 -0.00705926 -0.0019974918 0.00032624294 0.019137593 -0.027743252 -0.016290274 0.011873926 -0.017592464 0.004872655 0.010295448 -0.0298182 0.024761857 -0.02737325 -0.020674245 0.042326115 0.00887159 -0.018820796 0.018515537 -0.0058690067 -0.000450887 -0.010736398 -0.014705288 0.038339507 0.03761225 0.022927443 -0.026602147 0.02511534 -0.020038761 -0.034037303 -0.021155098 0.03144929 0.0042366115 0.0016968847 0.034685165 -0.0314225 0.038780637 -0.015800754 0.02440597 0.03963062 -0.034889176 0.034738533 0.001119257 0.015748138 0.038627848 -0.028803108 -0.035480417 0.036681596 -0.017597731 0.0086353095 0.037637867 0.026772521 0.042045027 0.0062058493 0.03130782 0.002250115 -0.014011778 -0.03364043 -0.03766637 0.039859317 0.009864122 0.0033095758 0.031996842 -0.0010186156 0.00084976474 -0.019589728 0.018120585 0.004223067 0.03415646 -0.017656768 0.020880913 -0.00021711948 -0.0018738541 -0.034856007 0.009251481 -0.03803788 0.035921507 -0.020876624 -0.03715434 -0.012115195 -0.024138043 -0.016820153 -0.017174056 0.013430435 0.01697585 0.008156638 0.025081009 -0.042129736 0.0152176935 -0.0072571025 -0.008312707 0.024871824 0.043245036 0.032021772 -0.035755996 0.019391576 -0.0052099354 -0.026109504 -0.040943455 -0.02860194 -0.0056099035 -0.042951483 0.025445765 -0.017967513 -0.03866127 0.040788878 0.01944421 -0.008047124 0.017721437 0.012091957 -0.040335372 0.021394778 0.043642275 -0.024593502 -0.03272337 -0.030657196 0.000309616 0.0066544553 -0.014875267 -0.0006894908 0.040181816 -0.0017322617 -0.032771043 0.007224196 0.03281565 0.013167381 -0.00079438905 0.008922003 0.026332192 -0.03667387 0.026808029 -0.016951984 0.033076752 -0.006000252 0.036878478 0.019377492 0.041810364 -0.018317431 -0.036237955 0.016403612 -0.019034307 0.005071272 -0.024317836 0.037503786 -0.026418576 -0.002244699 -0.026972482 0.0039366316 0.042997044 -0.04039556 -0.022081366 0.009719279 0.0013158404 -0.015187343 -0.038956486 -0.0110094 -0.009092666 -0.02466894 0.023052525 -0.02759116 0.032142434 -0.022273693 0.004868451 -0.033807825 0.01746645 0.04072989 -0.039395813 -0.015160484 -0.020787578 0.008305211 -0.03853813 0.034421135 0.03410044 0.03670982 0.014576445 -0.0029132902 0.038974795 -0.03426964 -0.00491722 0.008870779 0.032877922 0.043775406 -0.026622025 -0.027081193 -0.03881024 0.0154129965 -0.03831141 0.034259006 0.015645178 0.02172652 -0.027419534 -0.0120443255 0.025843257 -0.02921404 -0.011556982 0.008513637 -0.026268817 0.007962277 0.023492422 -0.03066119 0.0089847855 -0.021256099 -0.042274788 0.031101918 0.006467018 0.0033545203 -0.042985287 0.02339344 0.02572641 -0.0040179747 -0.039196927 0.042157773 -0.028141793 0.024930993 -0.019466685 -0.031913616 -0.037939448 0.017368801 0.019459 0.012686971 -0.040775426 -0.010097748 -0.038121223 0.01600074 -0.025287662 0.0044310614 -0.02848851 0.04290768 0.018566119 -0.002264471 0.022770567 0.04381968 0.042293217 -0.023940431 0.042774916 0.025236627 -0.024216361 0.02363768 -0.021699969 -0.0028157677 0.0016743204 0.034885857 0.015222082 0.001583415 -0.034371696 -0.013638251 0.03282721 -0.030862894 0.021358605 0.04022717 -0.038363073 0.0072416505 0.008678811 0.014350991 -0.04280869 0.03782354 0.018223358 -0.040816408 -0.021060737 0.006923199 -0.031512324 -0.0002942535 -0.041756716 -0.022378864 -0.038547486 0.013556607 0.034571517 -0.0022276505 -0.02530297 -0.043045033 0.0249965 -0.010735867 0.039153572 2.77537e-05 0.006109881 -0.040509943 0.015134043 0.0348483 0.0107519245 0.009249795 -0.025202055 -0.037509516 0.040536985 0.027414665 -0.043128885 0.026362669 -0.04151247 0.011134249 -0.04019657 -0.02370326 -0.026750425 0.019679248 0.04395892 0.00916892 -0.024796396 -0.005690931 -0.00043046157 -0.040149424 -0.004371018 0.040693514 0.0030733324 0.0038494295 -0.015808245 -0.025691597 -0.0074692275 0.012904163 0.020025332 -0.032797664 0.018463891 0.021291291 0.006149078 -0.0250019 -0.016100897 -0.038521808 0.041441556 0.013868162 0.041552298 0.03390879 0.010424838 -0.026812239 -0.012508194 -0.001077363 0.03063303 -0.007215161 0.03612234 0.019255614 -0.035646334 -0.012590259 -0.020027334 -0.023889644 0.023342822 0.038916666 0.03488294 0.03864864 0.023610527 -0.010873234 -0.02648196 0.013424061 0.0057911295 -0.025029818 -0.010885177 -0.03039982 -0.0070238984 0.009318288 -0.03628154 -0.042036727 0.03553054 -0.033724528 -3.4207435e-05 0.042409513 -0.03615363 -0.024825273 -0.0040417775 0.04242647 0.028643968 0.012481468 0.0058233617 -0.025511878 -0.01672879 0.006949457 -0.023528967 -0.004696666 0.0033498262 -0.028488098 -0.040026113 0.040327374 -0.031458545 -0.037356272 -0.00089967187 -0.012484655 0.022090564 0.039027285 0.005049382 -0.010233876 0.0020554597 -0.014980486 0.02052874 -0.039474364 0.0061531975 0.042960882 0.030469494 -0.009084321 -0.01999918 0.03834803 0.01818324 0.043269057 0.01175659 -0.03246636 -0.026320543 0.014026091 -0.02054788 0.0018368545 -0.021583565 -0.019530023 0.034085196 0.038670454 0.041848253 -0.03044143 0.021090858 4.249983e-05 -0.023956247 0.029096672 -3.9243983e-05 -0.014996196 0.0057792338 0.021582205 0.025700737 0.0100625595 -0.03902894 0.040016513 -0.025538102 -0.011171554 -0.01911169 0.010961152 -0.042249065 0.042001937 0.012688203 -0.039647292 0.017784322 -0.020197297 0.022508793 0.03305105 0.009408267 0.021475147 -0.03030589 -0.034879442 -0.0043555554 -0.013522848 -0.008883628 -0.029231446 -0.03150724 -0.039057095 0.021812543 -0.0089983735 -0.042717546 -0.020512722 0.0007483805 0.01753528 0.0017415024 0.009164173 0.022211837 0.0074040843 -0.0027670406 -0.02682639 0.0031731308 0.036824893 -0.0055695954 -0.042591196 0.008458393 0.02012305 0.026168577 0.03885848 0.035059977 -0.013677242 0.030241396 0.009448349 -0.016092684 0.03882866 -0.042115413 0.005034931 0.03963287 0.008313892 0.013129059 -0.025489202 0.037852284 0.04027617 -0.037940703 -0.029546479 0.020051252 -0.034436826 -0.03460224 -0.035471134 -0.027366618 -0.018295757 -0.021727653 0.043846287 0.044073734 -0.016744226 -0.02129704 -0.041554164 -0.039807424 -0.014168332 -0.036763627 -0.010243507 0.03401319 0.031183705 0.030077334 0.0068818373 -0.0057944222 0.013415557 -0.026360804 -0.0057346 0.035504658 0.0032279165 -0.001857401 -0.02578578 -0.012529989 0.021035155 0.02880518 0.03773846 -0.003936268 0.00865524 -0.03915743 0.030657848 -0.01840193 0.043708757 -0.0057968087 0.02054399 0.036598682 0.032921076 0.042527635 0.04279613 -0.0073364177 -0.042472508 0.0032244446 0.039709486 0.022559058 0.012480962 -0.038671646 -0.011212494 0.0065685282 -0.04204717 0.020724406 -0.009643542 -0.038859036 -0.008739744 0.029987851 -0.03667083 0.005913382 -0.038113136 0.034283325 -0.01404087 0.014365642 0.040429868 0.03622463 -0.0144890435 -0.014235092 0.040906828 -0.023732116 -0.0064143185 0.04260911 -0.033372823 -0.027633276 0.01556215 -0.023575509 0.00031515304 -0.04138423 -0.006837025 -0.009413562 0.0028397914 0.013534096 0.019039253 0.028953657 -0.0043509877 0.024298169 -0.04087075 0.042207778 -0.042452935 0.013232988 -0.038660023 -0.04171946 0.025568226 0.031128787 0.020551315 -0.01796108 -0.030994892 0.01466321 0.027373735 0.03432166 -0.039904207 -0.01867207 -0.042979866 0.010337505 -0.0072928537 -0.0192828 -0.0051910165 0.035384506 0.008549778 0.04395197 0.021640878 0.036723286 0.008012969 0.022833355 -0.011929834 0.028897049 -0.000129944 -0.032666795 0.01963414 -0.023230389 -0.0333603 0.023452587 0.04262178 0.0277492 0.02641776 0.012998551 0.006608984 -0.022601837 -0.031820986 -0.033914864 -0.0008243133 -0.019522632 0.034715295 0.017166743 0.00076975423 0.012833241 -0.041821286 0.011631576 0.0031430696 0.010394403 0.03895593 0.021753505 0.034296997 0.003984821 -0.029480873 0.009506238 -0.032399125 -0.033754855 0.036073234 0.0029294905 0.020509994 -0.0253111 -0.009558205 0.040622316 -0.028909001 -0.019887844 -0.022509357 0.037023112 -0.031161645 -0.021678785 -0.043431293 0.021823 0.0096715 0.043496143 0.023038378 -0.016917607 -0.033309538 -0.030308357 -0.03650781 0.01933858 0.02175918 -0.012173569 0.04220353 0.013307862 -0.02026626 -0.03683299 0.01931875 0.0025493049 0.02747377 0.014423088 0.032942824 0.028487919 0.0004682778 0.032312978 -0.013805163 0.0017338844 0.014620336 0.0077962503 -0.024962166 0.012131697 -0.042082306 -0.026834123 -0.027646024 0.007493014 -0.0011400775 -0.010051349 -0.005059587 0.026306493 -0.028472587 -0.00040681192 0.021792123 -0.01069599 0.00843654 -0.025261862 0.015690496 -0.042852342 0.0034228193 0.024502091 0.030275956 -0.032029327 -0.010232591 0.021551674 0.001229139 -0.039168168 -0.03129847 0.0054356526 0.026476577 -0.025603905 0.00014741387 -0.034503195 0.017752264 0.040404644 0.020065567 -0.039409943 -0.0057174624 0.037173018 -0.03215693 -0.008268717 0.0314971 0.01181539 -0.037473917 -0.033653013 -0.014422061 0.0063805585 -0.038735207 -0.03912278 0.021409413 -0.012942664 -0.018552406 -0.03723915 0.04007184 0.031542495 -0.020779066 0.03313821 -0.014816166 0.006271193 -0.030762995 -0.0053073205 0.025287881 0.027830416 -5.2446485e-05 0.011587359 0.031683065 -0.02197026 -0.0055359304 0.03814108 0.03884744 -0.0332776 0.018247636 -0.017559715 0.03724303 0.043891326 0.028060907 -0.034607284 -0.036094334 -0.034019846 0.00822726 -0.04193614 0.013421653 -0.015956938 -0.022501122 0.012995917 -0.029752687 -0.017413877 -0.0384222 0.019433016 -0.03396529 0.037557703 0.039057504 -0.02985111 0.0064791664 0.03692239 -0.024245001 0.039125614 -0.0017114255 -0.01870759 -0.019666467 -0.007582044 -0.016246708 0.022064645 0.038575307 -0.013778421 -0.031453025 -0.037422486 0.034203395 0.00061382144 -0.03003159 0.028631665 0.011331644 -0.010589812 -0.02256939 -0.01572373 0.025857782 -0.00027503978 -0.026254404 -0.0032137025 0.036082163 0.015175041 -0.038871963 -0.011755277 0.0015796534 0.026044318 -0.017772278 -0.040003847 0.033367015 -0.03842996 0.015333729 -0.027092246 0.006260809 0.003120758 -0.028478267 -0.016467538 -0.013837548 -0.037745863 0.006059884 -0.016923103 -0.022031063 -0.032091964 0.022542184 0.015341832 -0.007134376 0.017899534 0.010452861 0.024522563 0.009844002 -0.029501846 0.0138351405 -0.01966113 -0.0104470765 0.007547278 0.0037282996 0.0152765205 -0.025338506 0.009327598 0.010555904 -0.011076893 -0.010170097 0.027981829 -0.025146043 2.4655906e-06 -0.0060265833 -0.023973096 0.029908193 -0.0051158057 0.01971218 -0.004679017 -0.0029955609 -0.036301285 -0.032925993 -0.022711018 -0.008562885 0.040747788 -0.005496502 0.028449433 0.036529377 0.030674797 -0.023487648 -0.042194333 -0.0070874295 -0.009117991 0.010210632 -0.008727116 -0.016814036 0.009520267 0.03142416 0.03482144 -0.013910936 -0.024451405 -0.04003698 0.021040192 0.0027453983 -0.033379596 0.03190625 0.010884355 0.034475848 0.01845552 -0.028432047 -0.030830272 0.0354984 0.0177897 0.039110452 0.010686112 -0.04063317 -0.02548838 -0.030012175 -0.0005636667 -0.021004613 -0.010817078 -0.028617583 -0.040568423 0.0005630819 -0.006491531 -0.009992643 -0.0159286 -0.02268041 0.015133369 0.042179115 0.016171446 0.0013708841 -0.01695888 -0.021281803 0.027001973 -0.03964713 -0.042641036 0.02692848 -0.028663538 0.020693554 0.020450424 0.008332395 0.013452126 -0.03327376 -0.023532787 0.0098703075 0.0423767 -0.00965078 -0.0016292232 -0.015341553 -0.004677736 0.008451412 0.041059934 0.026375866 0.028262481 -0.0039228285 0.042569324 -0.041756205 0.028582295 0.04352858 -0.03361123 -0.03886082 -0.035488058 0.011016743 -0.004017353 0.016657952 0.018751338 -0.013735241 0.01557944 0.027921487 0.014281517 0.0018718943 0.00089947693 -0.001815249 0.007955744 -0.041366477 -0.04397519 0.039058786 -0.043392494 -0.028499626 -0.02472902 0.013397451 -0.024284923 0.02281559 0.0036535838 -0.04285276 -0.01711672 0.0145055335 0.010217497 -0.025445864 0.017110813 -0.023744391 -0.034136727 -0.030867234 -0.0042695864 -0.023974681 -0.041466396 -0.04398936 -0.00592797 0.03846657 -0.022675658 0.01097721 0.016701495 0.027636388 0.026742728 -0.019156976 -0.011809568 -0.007554617 0.020963721 -0.00956744 0.033442356 0.02771031 0.030363189 -0.040512376 0.015404267 -0.008741235 0.023102194 0.020310946 0.0060569867 -0.026103245 0.014281364 0.018310303 -0.018112544 0.033734612 -0.030513791 0.003630382 0.011873246 -0.015463278 0.00090160535 0.0068836287 -0.030446403 -0.04047217 0.0136734545 -0.01672361 -0.022741502 -0.014379946 0.040302996 -0.00023684948 0.018824706 -0.0005311557 0.04113559 -0.016273456 0.035049025 0.027812537 0.001604009 -0.023143334 -3.3664794e-05 0.0006177358 -0.012988194 -0.011997116 -0.013235127 0.016390977 -0.0060145976 -0.0017675229 0.015987206 0.034762684 -0.036017317 -0.040828936 -0.0014915875 0.032950047 -0.033520907 -0.020914778 0.04027464 0.03396278 0.009994572 0.03842704 0.00052218366 -0.007458717 0.019700227 0.019479146 -0.023946078 -0.023505034 -0.034057997 -0.017469157 -0.008328265 -0.0136955185 -0.0035804538 0.023317887 0.014436286 0.016578179 0.0010671634 -0.043954868 -0.04318491 0.015851013 -0.03846708 0.013872851 0.028255884 -0.010406294 0.02712922 0.008149789 0.0032058104 -0.009754029 0.026175953 -0.013244162 0.0044448907 0.02883622 0.029866552 -0.018584652 -0.024797566 -0.0055017387 0.024892213 -0.028001338 -0.041497644 0.03434071 -0.04213482 0.03973611 0.019757316 -0.0051336125 0.0019286766 -0.012429563 0.036319334 -0.041311186 0.023691107 0.02125522 0.0070199263 -0.009310423 0.035291843 0.034821395 0.015094098 0.026137836 -0.0155038815 -0.008528231 0.006949926 -0.012759931 0.030026352 -0.0003412841 0.018952163 0.02018039 -0.038419012 -0.029967137 0.038963545 -0.011931483 -0.02971975 -0.010166494 -0.02150298 0.0239194 -0.02417942 0.0274183 0.03467229 -0.017300265 0.008188643 -0.012072332 0.0031137248 -0.020845825 0.027244112 -0.037311967 -0.015044644 0.0039531635 -0.035119284 -0.042042952 0.026465276 0.021455538 -0.038622007 0.019009024 -0.011056999 0.037670843 0.010269232 0.038686182 -0.042098165 0.008022911 0.010462486 -0.0031354146 0.029259706 0.016590621 0.043818712 