-0.024742503 -0.039005555 0.0017798351 0.010295585 -0.0066562253 -0.005775077 0.037668057 0.0014923883 -0.029469967 0.037591644 0.0103775915 0.039849855 0.028165806 0.006596414 -0.010421624 0.003362191 -0.01030482 -0.015198005 0.007008494 -0.011784617 0.007972297 -0.027619973 -0.019697472 0.0019194148 0.023184074 0.03445041 -0.039091446 -0.026526477 -0.022543222 0.041275457 -0.006781623 -0.024784148 -0.018348103 -0.0111557385 -0.008056207 -0.0417577 0.00871385 0.0266938 -0.04219256 -0.008249971 0.006619115 -0.025463777 -0.015780048 -0.003735296 0.018621147 0.018051626 0.007390023 0.0171929 -0.029782401 0.0062066764 0.00241797 -0.019243103 -0.009844819 -0.04275221 0.02009696 0.043527346 -0.016299672 -0.023979286 0.034532372 0.035071887 -0.033485748 -0.030133616 0.02019609 0.021144774 -0.002972201 -0.034154776 -0.03657127 -0.008840781 -0.0222441 0.020507134 -0.02361218 -0.017434018 -0.025957316 -0.038031712 0.002579387 -0.004507553 0.011975573 0.043279834 -0.037944358 -0.027105123 0.041765872 0.040756702 -0.022367511 -0.0072043976 0.0071170325 0.017874774 0.036456086 -0.033531904 -0.027559508 -0.026898054 -0.013329383 -0.025195502 -0.022144929 -0.04170826 -0.013497833 -0.027445922 -0.03014173 0.0054542236 0.0248792 0.030699922 0.025592905 0.019084299 -0.00048128012 -0.043719195 0.02512934 0.018176408 -0.024045635 0.035225593 -0.028457062 -0.0021264034 0.00051338546 0.013552298 -0.014119721 -0.032052692 -0.03989623 -0.03183414 0.03917593 0.04274316 -0.0014471173 0.022402873 -0.033206515 -0.002532467 0.018785655 -0.0063031665 0.015128148 0.024481481 0.027276512 -0.015414577 0.013258713 0.0079980865 -0.023755591 -0.021769859 -0.028935434 -0.022767106 -0.0031135825 -0.019777477 -0.019978955 -0.007558995 0.009124308 -0.0040185438 0.04134482 0.022112248 -0.0131101245 -0.00775296 -0.03365033 0.03535389 0.0066924454 0.03727197 -0.0018607412 -0.013510883 0.018157715 -0.029844472 0.003056658 0.017216455 0.03938559 0.01826755 0.0028472515 0.03536356 0.0111804 0.040920105 -0.0051344447 0.038657527 -0.009088383 -0.0022129728 -0.024035372 0.0044338116 -0.012282925 -0.007287938 0.03661594 -0.04249435 -0.04213738 0.041064523 0.01017654 0.016297797 0.0019239878 -0.008556821 -0.030114496 -0.021324435 -0.00873604 -0.036081936 -0.019001717 -0.041789636 -0.024870133 0.036758795 0.025674168 0.025132962 0.00039551128 0.006944968 0.021146964 -0.023552801 -0.007125599 0.039536458 -0.021448547 -0.036610104 0.02455361 -0.027692128 -0.0071066697 0.019823754 0.016124783 0.035928585 0.0046028676 -0.044136286 0.019872244 -0.017931182 0.033428676 0.009179937 0.003469613 0.01789325 0.025583379 0.027343495 0.034526926 0.0053756568 0.011006745 0.036330495 0.039171364 -0.008503159 -0.030265125 0.04297874 -0.0041098706 0.010332263 -0.029081741 0.029117286 0.014860947 0.018612249 0.030373985 0.0029961825 0.025107909 0.035744306 -0.02451336 0.03275119 0.0014424548 -0.038144168 0.019124664 0.010118642 0.034792308 0.00061781483 -0.018478649 0.0017425772 -0.0018639812 0.0028059739 0.028838517 0.0048159305 -0.01865832 -0.016830131 -0.039778527 0.019955162 0.0046310537 0.008630578 -0.016072 0.0076519395 -0.0023761338 -0.032877907 -0.019306274 -0.013547208 -0.03144977 -0.015558045 -0.012251799 0.035900183 -0.022360463 -0.0030179303 0.00035031934 -0.023561653 0.028791381 -0.043840826 0.008905087 -0.025967963 -0.010939167 0.025963228 0.002864616 -0.02787072 -0.023459774 -0.028529624 -0.030483304 0.008764047 0.007917818 0.03004615 0.012604616 -0.018061636 0.022003641 0.042320188 0.040177688 -0.008485709 0.02710704 -0.041306775 0.04301608 0.016982978 -0.039176192 -0.033857815 -0.04113967 0.0111692725 -0.02863008 -0.04159755 0.0147934435 -0.034840412 0.04249698 -0.03070882 0.017086264 0.029714007 0.010407042 0.03834711 0.02657833 0.014332984 0.039054934 0.023332253 0.039920926 -0.007894078 -0.031496577 0.035077967 0.0048758 -0.025295053 -0.010351213 0.03202907 -0.035278525 -0.038350493 0.016560966 0.043292172 -0.031552073 -0.035269164 0.008409265 -0.012964228 -0.024086844 0.01509541 0.00889239 0.027166214 0.04362085 0.0011917548 -0.0038057603 -0.0193851 -0.020014849 -0.040462017 0.026446704 -0.02540644 -0.027402373 0.010507167 0.011245079 0.0020222901 0.024075354 -0.009953273 0.015804721 -0.03066432 0.012633623 0.008752836 -0.032816578 -0.02515944 -0.03711851 0.008812479 0.020068295 -0.03514493 0.009838439 0.020809315 0.020372273 0.034043193 -0.041619074 0.04293458 -0.00901 -0.0022631593 0.017504096 -0.042014424 0.037181776 0.036596466 -0.01565778 0.031831395 0.02213652 0.012389382 0.037190158 -0.031683013 -0.030433696 -0.00080639566 0.03640201 0.015949095 -0.03130887 -0.030867187 0.023550868 -0.003260696 0.025026914 0.025053699 -0.0095611755 0.031207453 -0.03712419 -0.03546946 -0.022904709 0.021953208 -0.036596417 0.014351328 0.0059198253 0.026592849 0.028756848 -0.0036812532 -0.012971672 -0.03480537 0.010687261 0.016592687 0.03177596 -0.03722893 0.00023952054 0.027262483 0.04009266 -0.008908805 0.017213643 -0.04003703 0.022006592 0.028274857 0.009048981 0.023401959 -0.027511366 -0.0005011787 0.027699646 -0.01563068 0.0026194844 -0.03563102 0.023712158 -0.013083599 0.013475021 -0.021017432 0.024622489 0.04115409 0.004435571 0.042556867 -0.041955512 -0.031028962 -0.019119712 0.023758657 -0.011559042 -0.005496829 0.016470736 -0.027702902 0.0069325455 -0.03259633 0.024499515 0.043324605 0.0002083424 0.02207702 0.028931735 0.0148399 0.030743064 -0.008843168 -0.008993732 -0.005970849 0.008458277 0.041879375 0.011613938 -0.03077046 0.0025786548 0.010652721 -0.021518605 0.015950732 -0.025628228 0.0061892066 -0.04280701 0.011133395 0.028838564 -0.036201768 0.0046923878 -0.019086126 0.03307197 -0.004219553 0.0030099645 -0.010486462 -0.011818835 -0.035709646 -0.036750697 0.032221682 0.014057128 0.041082647 0.028184835 0.004499655 -0.01122664 -0.01228254 -0.023667356 0.017590957 -0.025978569 0.018845147 -0.013087192 0.03047725 -0.022655442 -0.005876224 -0.022836879 0.042649943 -0.044006225 0.0013322881 0.0132937 0.043323647 -0.031325575 0.012300199 -0.038077824 0.033981316 0.03160548 0.0046359003 0.004568413 0.013670609 -0.023532439 0.018573068 0.040072948 0.039500915 -0.022628458 -0.038781095 -0.03736751 -0.044073153 -0.02741514 0.0101314485 -0.0126781035 0.012573369 -0.028880412 -0.043528285 0.025396885 -0.043277062 -0.0022026575 0.038792796 -0.011510183 -0.033266213 -0.037950713 0.033118613 0.04008867 0.031222753 -0.011908524 -0.04081245 0.009309875 -0.017535364 -0.04327645 -0.009891054 -0.008390194 -0.026391586 -0.010683167 0.013882476 -0.0061675324 0.042115513 0.028782498 0.03277791 0.019740915 -0.016289983 0.03733612 0.006968734 -0.019617487 -0.023634646 -0.030343771 0.03252334 -0.015344466 -0.002430635 0.033365257 0.043037478 -0.028346458 -0.03145 -0.015944352 -0.0098363785 0.031607408 0.012035027 -0.025720252 0.013255199 0.020241681 -0.008087137 -0.035678096 0.018779239 0.0029274041 -0.015527015 -0.0028420251 -0.008453556 0.028733555 -0.01711336 0.030572912 -0.035207026 0.035209633 0.04345608 -0.013986131 0.016929794 0.01658429 0.0027591223 0.012124499 -0.020364165 -0.0081257485 -0.043816168 -0.026863847 -0.0052915155 -0.006473603 -0.008857982 -0.0141300205 0.019626327 0.020298934 0.037970163 -0.030496616 0.00086894684 -0.013044702 -0.025248732 -0.024152124 -0.036875058 -0.014001293 0.04183097 0.031005729 -0.0017514281 0.036005408 0.033534385 0.041472744 0.035235908 0.007445757 0.0072730393 0.021523563 0.0027112118 0.0398271 -0.023557685 -0.0073090275 0.027960002 -0.017722312 0.020474654 -0.03407692 -0.013018571 -0.0056815795 -0.025112504 -0.023764826 -0.032331727 -0.0034294259 -0.024651138 -0.02521923 0.033199284 -0.0057768314 -0.024687916 0.00476065 -0.03276459 0.002904176 0.004853299 -0.027607718 -0.008800504 -0.03941893 0.031398274 -0.03932844 -0.013338803 0.0022321234 0.0032546534 -0.003190685 -0.016259016 0.024036927 -0.0353054 -0.006787044 0.005403426 0.030542098 -0.014125284 0.03173106 -0.023260925 -0.034505162 0.032191936 0.001633833 -0.037233915 0.027921464 0.0011730521 -0.03174432 0.011881634 -0.02450069 -0.04295301 -0.0032008318 -0.035746254 -0.025882026 0.02678163 0.020720918 0.011413398 -0.04136689 -0.043333404 -0.034770153 0.008578312 0.014182351 -0.028203987 0.0021602209 -0.036188785 -0.0020042353 0.0029076848 -0.023896582 0.03436007 -0.005890928 0.0053420602 -0.03295606 0.0052972953 0.042953033 -0.02278535 -0.009719369 -0.012354769 0.025549704 0.038642876 0.017409177 0.030934095 0.041058473 -0.02947907 -0.028385982 0.036538124 -0.0019545443 -0.04094604 -0.035944737 -0.006241474 0.038271904 -0.041884847 0.026992986 0.040155705 -0.016751012 0.038902603 0.041885268 -0.01728056 -0.014230941 0.021524506 0.018672466 -0.03253101 0.0113407 0.03619167 -0.0011548025 0.0423867 -0.027406882 -0.030024929 0.029084533 -0.00751414 0.0050964337 -0.034238514 0.019185904 -0.023004882 -0.025443325 0.03434917 -0.004921113 0.0055738417 -0.0058843214 0.00090239564 -0.020103788 0.008522298 -0.04147016 0.0129886 -0.03720393 -0.0055677304 0.028859928 0.00478598 0.04083345 0.043384906 0.019973982 -0.034673955 -0.02714569 -0.0015965858 0.016532127 0.034178708 -0.040464867 0.020058949 0.0014115716 -0.0019028933 -0.022983314 0.023086848 0.008778108 0.0074978136 0.042091258 0.04414925 -0.013175553 0.03449175 -0.029782776 -0.025608135 -0.0021601208 -0.009901264 0.017028274 -0.010414333 -0.0193808 0.03762969 0.010548171 -0.014622928 0.005821117 0.03857365 -0.021887 -0.001224603 0.037122644 -0.041540064 0.03077771 0.03786915 -0.0071767443 0.014109142 0.011214749 0.0036003839 0.028925244 -0.011584135 -0.0010033321 0.032477587 -0.009338087 -0.011826822 0.012052982 0.005535746 -0.013219116 -0.04108648 -0.008589133 -0.04180848 0.03489561 0.0062900586 0.012713201 -0.037015073 -0.0043220697 0.0149149895 0.020359362 -0.033647023 -0.036517225 -0.030758226 -0.04395976 0.0020666127 -0.008188648 -0.015166443 0.015045434 -0.03438543 0.018723046 0.014769973 0.007247746 -0.043530367 -0.018732872 0.040834602 -0.0065587293 -0.0053117727 -0.025904717 0.0031059065 0.011237909 0.041555073 0.021113364 0.014745791 -0.039329257 -0.038012173 0.02908386 0.0334672 -0.022696726 -0.043635253 -0.0039689057 0.012281412 0.034256563 0.04296911 -0.03602477 -0.015016168 -0.019151928 0.024796497 0.017099872 0.024716128 0.017113084 -0.037117828 0.013489098 0.02791461 0.013925672 -0.016646994 0.036880877 -0.034445755 -0.0036836292 -0.035737623 -0.018998202 0.018417455 -0.016169418 0.0024916953 0.028016828 0.035695598 0.01948768 0.02194961 -0.032919914 0.04339746 0.007934966 -0.021529295 -0.034822006 -0.012542654 -0.0020841141 0.010046997 0.032686725 -0.03225254 0.022022756 -0.007471751 0.03699857 4.6730318e-05 0.019238845 -0.024736928 0.014150324 -0.022778148 -0.0008594111 0.003928845 0.029536052 -0.035932817 -0.025125027 0.0418057 -0.0064606746 -0.019268991 0.00020474412 -0.041010264 -0.029161958 -0.033568442 -0.023205938 -0.03810583 0.00085552834 -0.026846541 0.0047658444 0.019161701 0.043296117 0.006110197 -0.04243909 0.006179745 0.028342618 -0.015363938 0.03470285 0.018921047 0.016453022 0.04091106 -0.0010062191 -0.015992252 -0.0004923805 0.01684021 -0.025381753 -0.013797956 0.041556753 0.030453874 0.035170205 -0.03342088 -0.010114948 -0.02650757 -0.02944863 -0.0013727703 0.022097219 -0.00428939 -0.031366415 0.015401422 -0.0100053875 -0.029215416 0.02129127 -0.043584414 -0.044164617 -0.014528645 0.028279724 -0.018673351 0.04333646 0.0054939683 -0.010302375 -0.0023149683 -0.023932498 -0.026778063 -0.014341756 0.029257009 -0.028860781 -0.0012681143 0.035044797 -0.040001456 -0.0045449897 -0.0324762 0.034825306 0.02796752 -0.012080851 0.0027957426 -0.007653399 0.019437842 -0.011335316 0.029489502 -0.00790991 0.019613694 0.025798023 0.009338409 0.01825471 -0.011802445 0.0054231193 0.029327009 0.0094232345 -0.026667822 0.035240978 -0.005714823 -0.01972582 0.031706322 -0.028218506 -0.0223184 -0.011609607 -0.008646689 -0.02510191 0.0117470585 -0.036333613 0.040193275 0.027911033 -0.0066871243 -0.014286585 0.02708674 0.022764655 -0.02040774 0.034848683 -0.011086491 0.04113791 0.017402655 0.007752312 -0.035660468 -0.03411823 0.038990334 -0.015388773 -0.043718614 0.041687984 0.0117977355 0.010539567 0.013100215 0.0021381835 -0.02459936 0.0074239722 -0.0017388683 -0.0030197953 0.0122785885 0.041374452 -0.004563234 -0.013062799 0.011109672 -0.02949056 -0.038803026 0.044190664 -0.018348541 -0.0028803472 -0.023387818 0.01820896 0.041494492 -0.019338954 0.028610092 -0.025373846 -0.008433943 0.02346736 -0.00952504 -0.014574016 -0.04333492 0.037385285 0.026936866 -0.004583164 -0.044187486 0.030050792 0.0064519183 -0.037988562 -0.02909593 0.0062889103 0.0093602985 0.022958806 -0.036309797 -0.020613201 0.0045151445 -0.022289034 -0.00071170746 -0.038372383 0.023208046 -0.04312763 -0.012286022 0.014816888 -0.03993566 -0.01986804 0.009483905 0.0052955407 0.036390174 0.0075993612 0.028734377 0.02310145 -0.04161534 0.018104495 -0.011151745 0.02571289 0.016490687 -0.01713548 0.028477883 0.00019526634 0.0041257604 -0.0011971496 -0.04114202 -0.02573057 0.012792875 0.03695897 -0.022239057 0.03543987 0.022020532 0.039470743 0.028965726 0.010599642 0.010293493 -0.011441046 -0.042717826 0.017177444 0.023145014 0.03538329 -0.026612837 -0.031951543 -0.010040359 -0.029072506 -0.031344257 0.030254899 0.026472524 0.02522618 -0.0016797363 0.018456932 0.036450755 -0.010161668 -0.033642747 -0.039835073 -0.035801847 0.023308598 0.010761744 0.035086215 0.017822742 -0.040683653 -0.019599006 0.025622528 0.035615068 -0.0066726045 0.028018897 0.00057586294 -0.02450138 -0.007825374 0.0034583437 0.025915286 0.035827786 -0.00035650964 0.007734916 -0.04189942 0.04374579 0.0063145882 0.023053136 -0.020593008 0.011234542 -0.033636093 0.035591908 0.005719264 0.020627858 -0.004046129 -0.0061723795 0.030934153 0.036105923 0.025625262 -0.033333752 -0.019719588 0.038147848 0.018268978 -0.011961702 -0.025537087 0.03936353 -0.035440885 0.018715998 -0.042697154 0.008559925 0.043829992 -0.028408198 -0.0093241995 -0.023888675 0.019978633 0.009130193 -0.032598123 -0.031219292 0.009639737 0.035728946 -0.026633557 -0.039967135 0.011805828 0.038083106 0.009999476 0.022616867 -0.012531569 0.041107338 0.0024817435 -0.010201107 -0.043752406 0.010108922 -0.02826651 0.016702875 -0.021001974 -0.036863636 0.018323453 -0.032514244 0.024465181 -0.014698913 0.02776685 -0.01865438 -0.00998904 0.022173805 0.03881724 0.036082253 -0.032623295 -0.026874779 -0.033033498 -0.024514087 0.030155301 0.016829321 -0.017143479 -0.010119838 -0.013121973 -0.023755923 -0.028729858 0.02451069 0.02057706 -0.005729379 0.04194928 0.022535525 -0.00867194 -0.010262157 -0.040145494 0.022606911 -0.03767096 -0.020557215 0.0354456 -0.014586366 0.03713324 0.039921116 0.026710227 0.041643046 0.021501794 0.028190773 0.015912617 -0.0067251353 0.027496498 0.024053795 0.034333453 0.023878412 0.0040177484 -0.01259645 -0.037483767 -0.021312628 0.042804986 -0.028176 0.0009981954 -0.01846094 -0.006457498 -0.021453967 -0.007072947 -0.008715852 -0.029118462 0.021795157 0.032665424 0.03325262 -0.009913713 -0.021429328 -0.020099374 -0.04014156 0.041592415 -0.012692355 0.008951769 0.012616559 -0.037134808 -0.018320382 -0.00990935 0.033071853 -0.015446799 -0.029136479 -0.032149516 0.010302359 -0.04102089 0.038826805 -0.015554827 0.01744036 -0.029258357 0.004340746 0.013814788 -0.028046953 0.0035147837 0.03359534 -0.0032698999 0.03720283 -0.019057555 0.0059325006 0.032749977 0.028523158 -0.0047658496 -0.0026114662 0.034901377 -0.0019568254 -0.039910078 -0.00908439 0.033700872 -0.004214116 -0.041355547 0.028994946 0.00096204923 -0.0071239816 -0.040814143 0.0022800285 -0.014923867 -0.0070678103 -0.0023696327 -0.043414976 0.013684902 -0.023680745 0.031259764 -0.021343006 -0.019916534 -0.02110289 0.023515698 -0.004687583 -0.041206066 0.0019177448 -0.040410616 -0.014795309 0.020450119 0.032537673 0.011136214 0.023918167 0.033884265 -0.03348576 0.02185713 -0.022680499 -0.043626644 -0.020342592 -0.018859403 0.03838149 0.02541975 0.033326373 0.021607371 -0.008444958 -0.034358177 -0.006385263 0.024445504 -0.01908691 0.016614055 -0.020749489 -0.019893564 -0.034856297 0.02623988 -0.019202894 0.029731344 -0.012317158 -0.0055202204 -0.030136613 -0.022051947 -0.013324737 0.043742802 0.021013971 0.009231319 0.006391327 -0.021001669 -0.024160748 -0.033184342 -0.041352943 -0.004839896 0.007826163 -0.027720883 -0.0053604203 0.040207807 0.0037103924 0.017606303 0.022699434 -0.030507084 0.034392107 0.020268204 0.028385865 -0.034846947 -0.036122344 -0.012083433 0.020758197 -0.01584279 0.04251528 0.008793956 0.027559534 -0.022516854 -0.027536765 -0.042230368 -0.02625352 0.0073214183 -0.02561099 0.013791592 -0.029812109 0.009227684 0.0075220377 0.026030658 0.00046252477 0.0123882545 -0.025581656 -0.026347527 0.0047210054 0.014511407 -0.029793017 -0.020856705 -0.026406206 0.03530446 -0.03859173 0.027330155 0.015309637 0.041467994 0.01553105 -0.0005861099 -0.013622388 -0.03441247 0.02180462 -0.0154038295 0.018571908 -0.02822456 -0.02953128 0.038175188 0.0016192872 0.039721023 -0.02388986 -0.022210805 -0.0036658908 -0.002290381 0.03863661 -0.03059005 0.03730193 0.01587805 0.031446233 -0.031962868 0.013383943 0.028251665 0.012315245 -0.02702379 0.03282918 -0.018723115 -0.012721889 -0.013621824 0.04361004 0.010258532 -0.033249043 -0.026925545 -0.033571366 0.0016699582 -0.010362251 0.004369037 0.01493835 -0.019257637 0.04291064 0.0018496355 0.02738452 -0.0020621188 -0.016688792 -0.020759514 0.023500156 -0.033883475 0.028980915 -0.029385662 -0.035758972 0.0058276607 -0.006480515 0.029424747 0.0026326342 -0.039320666 0.015514249 -0.026309596 0.035602342 0.0036463502 -0.030173065 0.014080588 -0.009023061 -0.016369551 0.027920416 -0.03578249 0.033175685 -0.029781422 0.03760027 -0.036283925 0.021774594 -0.037550166 0.036604542 -0.019829955 -0.034617703 0.006957101 -0.028658813 0.009555001 0.028666552 -0.018352034 -0.042038456 -0.007830436 0.015670963 0.026463289 0.038575947 0.042284638 0.023175234 -0.03625729 0.04265203 0.014199009 0.0077434243 -0.0044933124 0.030640194 -0.034090914 -0.0242754 0.04022495 0.023754248 0.04016895 0.004473171 -0.014285558 -0.030828692 -0.017490605 -0.035749257 -0.03489331 -0.03353475 -0.032739993 -0.04124901 -0.018103167 -0.036373295 0.02672037 -0.040382665 0.016883606 -0.008098838 0.01348491 -0.04002222 0.019966125 -0.025724465 0.027049694 -0.03731468 0.013623342 0.025884455 -0.014928366 -0.004915155 -0.027736746 -0.03041907 0.013928242 0.03471966 -0.025619473 -0.0062575163 0.021176377 0.030960921 0.0046457155 0.0010324608 -0.006884224 -0.030788762 -0.033203617 -0.019535005 -0.03849763 -0.04075974 -0.035717778 -0.037868526 -0.025285564 0.010561099 -0.021785364 0.009531241 -0.038648598 0.03197007 -0.04417081 -0.0072187064 -0.019925766 -0.041686747 -0.026463127 0.00025589459 0.025992172 -0.036098655 0.013667264 -0.0008051892 0.013740226 -0.028780527 -0.034078002 -0.022210756 0.035239127 -0.04264153 -0.0015103902 0.022608845 0.023758579 0.03846653 -0.0044461815 0.034059215 0.0065115034 0.012910955 0.004529527 -0.027557379 0.030068256 0.024450129 0.028419066 0.011193549 0.033155497 0.0028782662 0.006277594 -0.0054601505 0.013656169 -0.0045281784 0.02398878 -0.006971979 -0.019172184 -0.011529497 -0.022845304 -0.007867294 -0.018999994 -0.021353817 -0.021720551 -0.024146646 0.0023070024 -0.037026845 -0.023311306 -0.005345332 0.04109834 -0.039954584 0.042498916 0.0053952495 -0.03191516 -0.010214094 -0.019513201 -0.030337827 -0.008077664 0.022262491 -0.033833493 -0.034591578 -0.0029731388 0.023106482 -0.011361642 -0.013368237 0.009646323 0.0057787756 -0.038757984 0.010752746 -0.04189098 0.00233846 -0.031359617 0.036534235 0.03227666 -0.01275841 0.041495338 -0.039802264 0.010167696 -0.0063428953 -0.023489881 0.0050493926 0.0096599255 0.04416918 0.03509305 -0.0392551 0.038821988 -0.0017718588 0.026878547 -0.0007146894 0.014858365 0.02354877 0.03336887 0.025125874 0.0341242 0.0112028485 -0.0390763 -0.019649213 0.030270677 0.022464033 -0.032979034 0.0057684546 0.041195616 -0.0020594373 0.040960435 0.019193243 0.022131179 0.032620616 -0.005022018 0.002090905 0.033128727 0.007818493 -0.027514325 0.0365237 0.030314188 0.027081383 0.023859842 0.03388441 0.026037974 0.028399643 -0.01513487 -0.020720376 0.036752593 0.03561426 0.028786877 0.041680444 -0.009439055 -0.026495442 -0.039746005 -0.0038333137 0.0064643254 -0.021357046 0.03254059 -0.04216622 -0.001628433 -0.03319674 0.03777219 0.038684957 -0.012038725 0.006879098 0.029363766 -0.03294369 -0.036180567 -0.016562948 0.03828484 0.034541618 -0.008837731 0.03025168 -0.010339807 0.009891928 0.008614031 -0.040251136 -0.032498967 0.024209708 0.02230969 -0.019146813 -0.008447461 -0.0049702884 -0.013896153 0.042581696 0.02287578 0.040967353 -0.038360354 -0.03360524 -0.01591359 0.028848553 -0.027315762 -0.0041740923 0.019091474 -0.04204701 0.030478766 -0.02732996 -0.012230235 0.0031940725 -0.026751336 -0.0107513135 -0.023236027 -0.0047866334 0.011020547 -0.013153541 -0.031818137 0.013648662 -0.0066609406 -0.031789843 -0.020274762 0.0015610034 -0.016736219 -0.00405694 -0.025819218 0.025878033 0.04398182 0.04355461 0.015028185 0.0052718595 -0.01731157 0.029515628 0.035838034 -0.0344606 -0.0051425053 -0.03866512 0.016093425 -0.024659947 0.008765253 0.0022406213 -0.03799828 -0.018654032 0.02993984 -0.02933536 0.022634339 -0.032853685 0.034569763 0.03233469 0.010612308 0.030973835 0.026753882 -0.03374419 0.0009183429 0.030720057 0.0068414975 0.014441533 -0.018599104 -0.01545291 -0.043455712 -0.024371931 0.025042845 0.030891854 0.014135263 0.029832298 0.02772016 -0.0007039367 -0.011340226 -0.0045674485 0.013614227 -0.030272448 -0.03394941 -0.037476502 -0.007070034 -0.018980512 0.010142033 0.019706544 -0.039960396 -0.027618771 -0.018155156 0.019706745 -0.019429434 -0.028055424 0.043002557 0.028799132 -0.024890248 0.031340744 0.0065349583 0.0057617114 0.034467146 0.039096795 0.010320514 -0.022275904 -0.0007323805 0.042031612 -0.021627413 0.018534467 -0.041551776 -0.02885076 0.03825093 0.039765213 -0.011688069 0.021495303 0.028879942 -0.014735945 0.028575694 0.023098549 0.0035094733 -0.031909272 0.04417132 -0.021797555 0.007394248 -0.025481367 0.034169313 0.018503336 0.02504626 -0.0084557375 -0.04008383 -0.025426276 0.010802932 0.0062140627 0.007179937 -0.038813964 -0.044061683 -0.007611352 0.031012699 -0.0130083505 -0.03601864 0.0032051413 0.0036455917 0.0034688646 0.042661436 0.019324847 0.0033275043 -0.025010873 -0.016441707 -0.029769504 -0.0051349928 0.014307227 0.009803251 -0.011565396 -0.023016693 0.030949125 0.025435306 0.031893298 -0.0040402706 -0.028079515 -0.027276503 -0.029783033 -0.042968027 0.019857034 0.0039070863 -0.043441985 -0.020856105 -0.0028426943 -0.0003688745 -0.008799966 0.029696606 0.043827944 0.00030516952 0.0059620617 0.0073474497 0.028575795 -0.032347515 -0.0020986022 -0.021485541 0.026232034 -0.008968612 0.0072973 -0.0073013776 0.018870119 0.010828284 0.013137857 -0.009432828 0.031680442 0.0048018643 0.0055448655 -0.013704632 0.028449144 -0.0027541385 6.7276906e-06 -0.010060901 0.021418221 0.03788295 0.011827069 0.034732234 -0.02730672 -0.0025178422 0.03367074 -0.039281506 -0.037801392 0.03724788 0.0012100412 -0.011867515 -0.019915055 0.034111932 -0.008554446 -0.013536071 4.1872892e-05 0.0013940491 0.030692456 -0.011738724 0.024261322 -0.028359713 -0.038731642 -0.03062507 -0.038143523 -0.033672746 -0.043514445 -0.01185674 0.017991425 -0.008705531 -0.034005363 -0.012065689 -0.03939342 -0.042413663 -0.022346485 -0.014070951 -0.027747672 0.0058541023 0.022320397 -0.03510558 0.03264805 0.004773178 -0.030682568 0.0051898626 -0.030590972 0.0018680115 0.04313671 0.010876395 -0.016330587 -0.023958491 0.01654887 -0.043661088 -0.0124368975 -0.007583224 0.036188748 -0.031158743 -0.002217709 -0.011542267 -0.011011096 -0.013143647 0.038329773 0.03236575 0.01677778 0.042180624 0.03356707 0.029013595 -0.03549958 0.03230595 0.041847754 0.043372605 0.036864005 -0.018404543 0.023546949 -0.030137967 0.011417913 0.03118335 -0.0020383112 -0.008355001 0.03621271 0.035456073 0.044128463 -0.02754411 0.015142625 0.0043995935 -0.0105357375 -0.0071429107 -0.016397852 -0.031712644 0.007755536 -0.023153491 -0.007217221 0.043197755 0.012550551 -0.039932985 0.018539071 -0.025355028 -0.028286466 0.03808857 0.029513378 0.008747731 0.039803058 -0.018612022 -0.011662444 0.022380235 -0.018744046 -0.038968265 0.039848365 -0.009541414 -0.0013672964 0.024632994 0.0048774756 0.043442205 0.00095211837 0.009536752 0.02592104 0.042852007 0.0008543956 0.029569738 -0.015580704 -0.0016352872 0.00021243065 -3.9870916e-05 -0.018544892 0.039598595 0.042353492 -0.0062240516 0.02148907 -0.013626513 -0.0333075 0.035696566 0.0038165762 0.037257228 0.0353026 -0.018240528 0.036902092 0.018143645 -0.035405416 0.037269905 0.0029919257 -0.041044377 -0.0061075 0.041490704 -0.0012192767 0.041756995 -0.0003519736 -0.0071754744 -0.02407457 0.01601676 -0.021552159 -0.027639206 -0.0066301837 0.0344949 -0.018917907 -0.014179459 0.017172322 0.0048663276 -0.010830292 -0.0014104758 0.025954809 -0.033383165 -0.013628088 0.038201544 -0.012141227 0.013437764 -0.0010190317 -0.027386416 0.012013358 0.025888564 -0.018576276 0.01430386 -0.011147472 0.034017164 -0.018075503 0.010437071 -0.01836296 0.021438658 0.042067494 0.0413577 0.04169226 -0.014644502 -0.029300652 -0.042306717 -0.014411188 0.039844148 0.006092601 0.029915333 -0.010069356 -0.0438551 -0.00064163835 -0.012552617 -0.023108969 -0.034569144 0.010001931 -0.013238614 -0.012262979 0.039261706 -0.03809576 -0.008956932 -0.04056495 0.022067072 -0.010857587 0.013003183 0.040100414 -0.0054602823 0.02900211 -0.041911166 0.032611873 -0.008304915 0.027965814 -0.005650259 -0.016800024 -0.027528841 -0.026183186 0.016686453 0.04313432 0.022845373 0.027288303 -0.044018336 0.025108384 0.014767086 0.024058132 -0.033566855 -0.01783723 0.02431932 0.0045863725 -0.019297604 -0.033291575 0.011392177 -0.020896059 -0.02971378 -0.043651465 -0.03531324 -0.038806967 -0.021935955 0.039835073 0.040015835 -0.037479885 -0.005247841 -0.03511462 -0.0011783522 0.038866084 0.003222843 0.002747495 -0.03994504 -0.016907182 -0.03284739 0.034862712 -0.023113474 0.042554654 -0.0019240194 0.043165985 -0.005307484 -0.031500712 0.028864348 -0.015323645 0.033325218 -0.04053192 -0.03244667 0.014553138 -0.0047673825 0.02499298 -0.0017244435 -0.03978253 -0.033241183 -0.02179631 -0.038124174 0.03754268 -0.038322616 -0.0052183224 0.011821791 0.0003227342 0.02339141 -0.011920408 -0.009056436 -0.023451997 0.040980514 0.00018839641 -0.041777484 -0.017289016 -0.0016030185 -0.018861257 -0.014575718 -0.017943183 -0.023698183 0.03295757 0.008401605 -0.0053520175 -0.026412033 -0.013205134 0.02138765 -0.043675188 0.017918248 -0.029121302 -0.010510354 -0.024898376 -0.0049421447 -0.030700054 0.00067413354 -0.03945029 0.031430125 -0.016720366 0.03413714 -0.020229433 -0.008532092 0.014643411 0.011453906 0.027521364 0.01217664 0.044185452 -0.010463408 0.011746901 0.012384824 -0.039126694 -0.02501663 -0.026534274 0.010848509 0.0001520711 0.019171622 0.034725204 -0.003143707 0.016482104 -0.011458742 -0.014161615 0.026294285 -0.011235333 0.022628933 0.003162473 0.043896385 0.020737624 0.036916994 0.0026083156 -0.040225398 -0.0014463692 -0.020947 0.0066403993 0.0037590405 0.039998755 -0.020899827 0.026920546 -0.021148466 0.0013975684 0.0030116295 -0.011249505 -0.0073572802 -0.013625476 0.0015557561 0.00453508 0.035577666 -0.03997208 0.006858019 0.02495968 0.038799245 -0.024944063 -0.025482722 0.008028632 0.00803674 -0.00056389323 0.006557512 -0.0013158878 0.018490259 -0.04304367 -0.015337891 -0.016992018 -0.0323592 0.0055637 -0.027671471 -0.026449597 -0.00023336183 -0.015357179 -0.030096242 0.038533237 0.020804675 -0.030459723 -0.0035230392 -0.01656625 -0.0039480217 0.02114098 0.038125813 -0.042330127 -0.037006184 -0.043252397 -0.0101671945 -0.0003127191 0.04251717 -0.015388773 0.008047208 -0.0022431975 0.008328907 -0.01948453 0.013996399 0.0058383765 -0.021570561 -0.0038920138 0.025424559 -0.031046774 0.028846936 -0.011174019 -0.024818908 -0.0044061737 0.043184776 -0.018693745 -0.025071796 0.02067169 -0.042965867 0.042525716 0.03813443 -0.012683641 -0.023979364 0.010827367 -0.018794648 0.038602803 0.0370264 -0.009870413 -5.425353e-05 0.024687242 -0.012091535 0.04076665 0.0007885517 -0.022626277 0.038350344 0.0037870365 -0.0052487315 -0.030535417 -0.021549245 0.038371354 0.032169703 -0.0138957 -0.021604043 -0.014063792 -0.009350157 0.031423893 0.034736443 0.009185574 -0.011449607 0.003731271 -0.014799902 0.0271042 -0.0050132517 -0.04073476 -0.018426744 -0.027690921 0.018959032 -0.0036166157 -0.03921144 0.037594263 -0.020093646 -0.0068264776 -0.037838638 0.007787921 -0.035310276 -0.022218945 0.026127959 0.03568838 0.026295302 -0.028687773 0.039955545 0.039503954 -0.007272844 -0.0134252515 0.019820193 0.040524878 0.038362093 0.035323653 -0.022452643 -0.027877085 -0.0053742602 0.027689599 0.0195611 0.014125479 0.04412455 -0.008134241 -0.021684542 0.009209018 0.016676206 -0.017878303 0.035283454 -0.0042603244 -0.00092907983 -0.043789256 0.039325792 0.013283443 0.032761157 0.01354468 -0.041618817 0.029362012 0.023248896 -0.042341802 0.011939196 0.03182798 -0.028036173 0.01685179 0.011640549 -0.0020203197 -0.009444524 -1.1753702e-05 -0.010043763 0.014121813 0.019940311 0.004408355 0.023667388 -0.007090106 0.010807316 0.018611947 -0.035163816 -0.016389672 -0.036658674 -0.00053363707 -0.040342588 0.034761798 0.031773314 -0.0303465 0.026118664 -0.0028909892 -0.027235556 -0.04140273 0.00537043 0.020358829 0.0064858412 -0.020094458 0.028614596 -0.037498407 -0.006288958 0.022030262 -0.00746044 -0.026059939 -0.0020410612 0.018221652 -0.044087324 0.017450139 0.012044115 -0.03640732 0.0072468817 0.024522664 0.04034756 0.025358826 -0.03214667 -0.033026792 -0.041445952 -0.024193512 -0.009114288 0.02853849 0.027783334 -0.034730792 0.022399068 0.0019855276 0.038129225 -0.039843623 0.0108430665 0.0011923923 0.030398589 0.0007013815 0.0124931475 -0.022812977 0.004055538 0.01062098 -0.019787781 -0.026109824 0.02331984 -0.040323816 0.014734033 0.0362886 0.011478109 -0.027655756 0.032261495 0.04199452 0.03654949 0.0034558203 -0.0100726485 -0.01741001 -0.016739264 0.020072525 0.0027929822 -0.016001642 -0.038728274 0.009008641 0.026898535 0.031680822 -0.01511955 0.0026834318 -0.019805746 0.016409444 -0.042984754 -0.03187754 0.033533555 -0.025241321 0.031191343 -0.0105891 -0.014817346 0.0059818286 0.035024337 0.034569617 -0.0013256659 0.025357604 -0.018350048 -0.040502295 -0.009507876 0.008152396 0.034857936 0.043169226 -0.039575737 -0.031494543 0.03394762 0.027062338 0.024158636 -0.018790144 -0.029405171 0.03074662 -0.028715648 -0.0051571936 0.02969513 0.02910509 -0.040496297 -0.027578294 0.030038238 0.024998002 0.033332862 -0.018874275 -0.00642839 0.0025706522 0.0013577712 -0.012388518 0.03756009 0.00938663 0.02029966 -0.016789218 0.043987386 -0.033070203 0.018430606 -0.040196486 -0.0010891905 -0.04059961 -0.03367612 0.019235836 -0.040296502 0.03953254 -0.039527383 -0.024534186 0.018568816 0.0065551465 -0.029617706 0.010321752 -0.020725902 -0.010536675 0.03785312 0.017061086 0.030458579 0.012162563 -0.03353961 0.022584125 -0.027793918 -0.008191224 0.023703692 0.03959741 -0.03980578 -0.031138882 -0.017158156 0.009724858 0.008599748 -0.00599864 0.031959448 -0.0060202978 0.011389474 -0.041933484 -0.009176059 -0.020809801 -0.024200678 0.023596592 -0.015992984 0.041144427 -0.013619011 0.011807555 0.002842726 -0.00081165344 -0.039040737 0.03838844 -0.019377777 0.034999628 -0.006500493 0.034093812 0.042532418 0.014802853 0.009513966 -0.00061872625 0.0037368133 -0.003204056 0.018774176 0.02801 -0.014613772 0.021972695 0.038920406 -0.021184992 0.021433232 0.033899404 -0.023186376 0.00074117864 -0.04034793 -0.036179777 -0.011898366 0.021341689 -0.037248705 0.0032708482 0.013029324 0.040833768 -0.044100896 0.0119919265 -0.026196958 -0.030908559 0.007895664 -0.018186307 0.02622193 0.041309375 -0.014674031 0.002713451 0.023229014 -0.009245385 -0.035627577 -0.034802217 -0.020026786 0.035351582 -0.004409509 0.03175108 -0.037385534 -0.020843197 -0.043937273 -0.012325076 0.0030792172 0.018874638 -0.031067442 -0.029055135 0.0138051 0.006319883 0.040956736 -0.041521348 0.0020104258 -0.016983915 0.005825063 0.017629463 0.023360692 0.026061967 -0.009604655 -0.041945174 -0.0019043632 0.01954352 0.009273571 0.023525633 -0.011467536 0.039979216 -0.042338394 -0.04016134 -0.0168353 0.016497446 -0.03647903 -0.029568458 -0.015640685 0.010229603 0.025243359 0.019882612 -0.024052842 0.018762866 -0.036354028 -0.025717553 0.02658766 0.011373496 0.038868524 -0.026022496 0.0063436856 -0.009306846 0.03368192 0.0067247353 -0.013512163 -0.03227792 0.030020177 -0.037740957 -0.01385938 0.034359053 0.041520003 -0.008412232 0.009810364 0.03277448 -0.008173907 -0.02239922 -0.040732164 0.022009226 0.008523294 -0.007454776 -0.028977344 0.033700652 0.037139334 0.02886812 0.004048695 -0.03357157 -0.0077497936 -0.014451632 -0.025388207 -0.040426027 -0.016433535 -0.025330992 -0.011377579 0.026755314 0.021358969 0.01888221 0.029505428 0.011154073 -0.03728555 -0.04007607 -0.03463978 -0.018822767 -0.016757723 -0.0035846105 0.03312984 0.02646615 -0.012731994 0.0014344206 0.006816225 0.025094217 -0.04025677 0.002258718 -0.02362432 0.0045179366 0.008788297 -0.041651547 -0.0082960855 -0.037879173 0.036945686 0.03896022 -0.04413841 0.04083922 -0.018970855 0.018771943 -0.03762778 -0.043678537 -0.011173135 -0.026938353 -0.022989066 0.009757907 0.0003445294 -0.011268502 -0.030692635 -0.023383103 0.025843171 0.04399014 0.021119937 0.022048365 -0.01333305 0.025018863 0.011182702 0.040559333 0.005377885 0.011943921 0.017402438 -0.0301495 0.01563018 0.019413639 -0.042008612 0.02257608 -0.04188318 -0.021629805 -0.011106663 0.014297606 0.0017049664 0.03206158 0.0105586285 -0.038735826 -0.025145067 -0.031324998 0.04342816 -0.029715039 -0.0050203325 0.0042612306 0.0060485573 -0.028001139 -0.00043489752 0.018265806 0.0068102456 -0.036375158 -0.043154184 -0.04269551 -0.020692412 0.021195507 -0.021034975 -0.01845641 0.00087609596 -0.026347522 -0.038902853 -0.043019384 -0.039569553 0.025293782 -0.038467355 -0.004357236 0.033698153 -0.028225433 -0.0037680073 0.033144698 0.022728004 -0.020260153 0.0062161386 0.01750867 -0.007700693 -0.042548012 -0.03993254 -0.0002475653 -0.026107755 0.037173882 0.01595548 0.008625073 -0.0116668325 0.0072584935 0.012322721 -0.0010579649 0.022393178 -0.03024953 0.011182349 -0.034763746 -0.033469383 0.0036042298 0.024552478 0.020791413 0.026359808 -0.0032229114 0.03463331 -0.037598155 -0.017699406 -0.02346158 -0.008006326 0.007287306 -0.037562203 0.038211133 -0.00531958 0.020591706 -0.016909184 -0.038999658 -0.029526379 0.025208483 -0.014459076 -0.031334892 -0.011388542 -0.035494454 -0.043535188 -0.0432802 0.026862066 -0.0072532566 -0.005436648 0.012270575 -0.0013891337 -0.01782287 -0.010689705 -0.001044931 -0.03198716 -0.02832424 0.027679073 0.013478346 -0.009079527 0.01682038 0.01215582 0.018102888 0.03448989 0.014013327 -0.04089006 -0.0033035015 -0.0038081836 -0.005338641 -0.017978575 -0.037757505 0.04267992 0.037689928 -0.016150404 0.0146842515 -0.043588042 -0.0051758806 -0.00022471645 0.019231696 -0.021922925 0.025428021 0.023818564 -0.0403614 0.014681775 -0.021274896 -0.024706451 -0.028686652 -0.025258258 -0.021692898 -0.006151949 -0.009865408 -0.030002555 0.002689401 0.0021510117 0.031662926 0.042040683 -0.039045736 -0.0044687195 0.013244579 0.030194534 0.031972334 0.0023222282 0.02336066 -0.010657446 0.021600096 -0.011916363 -0.0047350507 -0.0048033865 0.025410272 0.0024234806 -0.02386079 0.042629845 0.022367654 0.036591668 -0.021333408 0.038078293 -0.015951259 0.030698784 0.028392546 -0.006855006 0.017496632 -0.026975742 0.028191488 0.0013789501 -0.03038619 0.016344821 0.027761701 0.028953293 0.036707427 0.01624548 -0.020459656 0.023905477 0.020130588 0.014495992 0.021679575 0.028191067 -0.006217408 0.004888555 0.043337807 -0.012894011 -0.008956458 -0.008106577 -0.030899772 -0.013027006 -0.0097563155 0.007703975 0.03504487 -0.009413825 0.034367 0.009475239 0.010616754 0.042952094 0.01647679 -0.0057297745 -0.0042434605 -0.036058374 -0.0009343324 0.037285827 -0.0319146 0.03155657 0.03411437 0.02450649 -0.029762961 -0.0254302 -0.006650114 -0.0139309345 -0.002047873 -0.024337497 -0.01719535 0.04095577 0.04399301 0.021513158 0.015307893 -0.033158083 0.01236863 -0.041467562 0.03426564 0.023450917 0.03680338 0.01881861 -0.0406028 0.030581169 0.03542851 0.019331373 -0.004707229 -0.016576834 -0.027182551 0.0012862586 0.0008688731 -0.004899134 0.0016395387 0.023789482 0.018389408 -0.004999301 0.017421504 5.492788e-05 -0.0007120552 -0.0031790999 -0.006591514 -0.029937701 -0.008037014 0.00751669 0.0007325649 0.03717694 0.041767377 0.0003689061 -0.019322654 0.0082498025 -0.014600548 0.024800655 -0.0045539616 0.026771277 0.021149388 -0.037846267 0.0017460333 0.03307566 -0.0076715746 0.023123372 0.032568846 0.021719709 -0.03972353 -0.031896755 -0.024317551 0.042260982 -0.04182199 0.02255144 -0.01175797 0.03789279 -0.0056853304 -0.007289055 0.01686533 0.03266209 0.039253246 0.039902076 -0.028919939 -0.024919719 0.008578833 -0.026059106 -0.040404595 -0.008460258 0.022127027 -0.044027705 0.026071513 0.011959558 0.02197906 -0.041323468 -0.0038719203 -0.024548015 0.011762269 -0.04080722 -0.037635542 -0.032478973 0.008396226 -0.015580225 0.03569815 0.007655195 0.008170441 0.0120064095 -0.008749749 0.013681341 0.042598616 -0.037666257 0.006682762 -0.019683084 0.012994042 -0.014996228 -0.020190353 -0.0021658791 -0.028685698 -0.020543016 -0.035292927 -0.042343717 0.027418295 -0.0113748545 0.014448192 0.03275945 -0.006150005 -0.0057438565 0.015186478 0.042045128 -0.015111004 0.024971386 0.022754403 -0.026083842 -0.015737196 -0.0044916477 -0.02832392 -0.033507947 0.01161976 -0.038670845 0.025941823 -0.016371163 0.037485395 0.04247143 -0.01584545 -0.024953952 0.009058027 -0.008028448 -0.015963983 0.030424844 -0.010881705 -0.031464882 0.036095314 -0.017721128 0.019839233 0.014351534 -0.031961955 -0.018952668 -0.012372929 0.034651812 0.013364913 -0.02516445 -0.0109939 0.030028343 -0.008209231 0.038360737 -0.016121922 -0.010285438 -0.008109538 -0.031643976 0.011415558 0.04084562 0.008204258 -0.014701358 -0.0047522415 -0.01240524 0.003977967 0.026394594 0.03642494 -0.0039403983 -0.034014013 -0.038141105 -0.03705673 0.019715315 0.011134365 0.039559048 -0.024877988 0.0318601 0.03333059 0.03102772 0.002577464 0.038509127 -0.020077432 -0.031066788 -0.018703675 0.009399364 -0.011615782 -0.025409192 -0.042527802 -0.020538133 0.008823422 -0.020298228 0.00648572 -0.019291872 0.0019479693 -0.023967642 0.009334352 -0.013035467 -0.039611936 0.009669003 -0.023902832 0.028670171 -0.0019441551 0.02576119 -0.042221706 -0.0001450273 0.037602853 0.019840881 0.03561709 0.029386632 -0.029699404 -0.024402125 0.020322967 -0.035795297 0.036229216 0.0056501697 -0.027156478 0.0146237705 -0.03330994 -0.026387025 0.029843867 -0.010927144 0.014581408 -0.0420079 -0.02866397 -0.0155148655 -0.004616613 -0.013427032 -0.0003678577 -0.028961295 0.012808564 -0.022786014 0.008267473 -0.041135557 0.0047114277 -0.031496327 -0.037603896 -0.032944214 0.028170526 0.02582165 0.039328203 -0.034430645 -0.031801563 0.037496053 -0.010614541 0.021335624 -0.004248534 0.02880138 -0.0260033 -0.035265785 -0.020301236 0.021452703 0.0047961003 -0.02424961 0.041340403 -0.015186004 -0.009489221 -0.011529586 0.01618124 -0.028597362 -0.031636424 0.02904941 -0.029114652 0.004056002 0.03831754 -0.035422307 0.042325992 -0.0014039273 -0.011993133 -0.032380033 -0.016749773 0.024775324 0.042746477 0.004028464 0.020077294 -0.008082928 0.039849177 0.032355662 -0.02749852 -0.02810363 -0.0076900823 -0.0030739065 -0.02178509 0.036340844 0.024277132 -0.038690533 0.009942804 0.016803222 0.02191193 -0.015967544 -0.010308914 0.014443593 -0.019030966 -0.011355646 0.02085737 0.026500374 -0.038998216 0.006712038 -0.043478597 -0.015309131 -0.04116268 0.038095012 -0.025923936 0.0022489137 -0.014778639 0.036700197 0.037725527 0.021301523 0.031095086 -0.0063434327 0.00056504173 0.014183536 0.036761783 -0.01282253 0.007265895 0.0342487 -0.03915371 0.032120477 0.034898434 -0.03310484 0.017752878 -0.03320708 -0.0002849812 -0.0093740225 -0.014185528 0.016212001 0.042539302 -0.0135893235 0.03045568 -0.030655373 -0.0371645 0.029259311 -0.03293952 0.009495142 0.01397737 -0.04385276 -0.00823709 0.0043142936 0.015976217 0.04233973 -0.021661578 -0.011850145 -0.0019461781 -0.0147058675 -0.0009005675 0.0192194 0.037076045 -0.0134475315 0.020524314 -0.029484455 -0.04009296 -0.021824582 0.007898546 0.030088218 0.02032635 0.006215559 -0.019181894 0.038167708 -0.042264745 -0.0090968385 -0.016520143 -0.0052156197 0.037791435 -0.0033908878 0.038961556 0.021635674 -0.012484697 0.034055162 -0.013151956 0.005216937 0.03609152 -0.0017290323 0.023265054 0.0067614187 -0.036400076 0.0024599165 0.020247199 0.006869515 -0.044106096 -0.0016957205 0.017990518 -0.036209516 -0.025311215 -0.019369796 -0.02547731 0.035944235 0.02355611 0.03345612 0.010722448 0.002972891 -0.01958486 0.012161805 0.01642283 0.042932883 -0.028284686 0.035295174 -0.0029616063 -0.0061898865 0.021551775 0.014580528 0.011154179 -0.0011091576 0.030571658 0.026341753 0.033786677 0.04382424 0.0126718655 -0.007574642 0.036499016 0.042508803 -0.0012985128 -0.01751327 0.013182491 0.023831192 0.028052015 -0.012365195 0.006488381 -0.030698026 -0.022959486 0.0042149588 -0.025700973 -0.026513007 -0.039722677 0.010967041 0.015053015 0.0052216784 -0.008343674 0.017420352 0.02152968 -0.0066896584 0.01910023 0.037736993 0.02334381 -0.018009374 0.026647203 -0.031193582 0.022559565 -0.009268266 -0.011200699 0.041778963 -0.01978441 0.018620567 -0.044172306 -0.032777093 -0.035171762 0.039288174 0.03463162 0.038519327 0.02356954 0.0127521185 0.028996326 0.016063223 -0.0073252064 0.011309648 0.03598035 -0.023549473 -0.029316088 -0.034068655 -0.011724937 -0.021253591 -0.0053035435 0.0050552194 0.016245028 -0.014093901 -0.007314575 0.034949735 -0.03386044 0.005224397 0.03354505 0.034923457 -0.012424691 -0.029593289 -0.038504437 -0.008679448 -0.03611222 -0.009100084 0.03323239 0.00808111 0.008586967 0.022411397 -0.041286755 -0.042629365 -0.009990826 -0.034057982 -0.03889534 -0.037204813 -0.0023287293 0.042258035 0.0032477886 0.025381258 0.040373124 0.021187179 -0.0296847 0.036696896 0.023598794 -0.018773317 -0.018014958 -0.02202345 0.034621477 0.0228106 0.029154992 -0.0046901857 -0.016493093 -0.04101198 -0.030874183 -0.044056274 0.03802811 -0.023169117 0.025751846 0.04048023 0.025883976 0.01562988 -0.02713296 0.039411347 0.024427043 0.029147021 0.040925495 -0.0018877046 0.019620137 -0.035942562 -0.020166613 -0.02514838 0.04009504 0.0037684918 0.00015077509 -0.035609256 -0.031583305 -0.028068056 0.028810516 0.024371577 -0.01839479 0.022022745 0.017290339 0.04385959 -0.026620513 0.026354413 0.0005856726 0.028227672 -0.004899371 -0.0021959087 -0.01576263 -0.015996873 -0.024621146 0.0022532283 -0.0008190871 0.015865386 0.0024690572 -0.004320895 0.011709886 -0.01421257 0.009971249 0.03643801 -0.026162792 0.01878192 0.024835546 -0.01571089 -0.020829173 0.011045313 0.041179553 0.020319322 -0.035330966 -0.025275785 0.027392412 0.0102497395 0.037825532 -0.023434311 -0.033089813 0.036853526 0.000963419 0.03837893 -0.0024018276 -0.0045129736 -0.03899613 -0.019057661 0.003956825 0.03858117 0.019117858 0.0021484883 0.025640747 0.032852445 0.0057678013 -0.003497709 -0.03931637 -0.034526978 -0.031546403 -0.03732931 0.042437762 -0.001252225 -0.015781987 -0.0016043619 0.041875537 -0.032474503 0.0027850426 -0.003684941 0.03904462 -0.028090078 0.0104153715 -0.03517166 0.0361411 0.032298964 -0.0239987 0.04316609 -0.031330466 -0.029140225 0.014918894 -0.04016614 -0.008280533 0.019978391 -0.031806704 -0.012834337 0.011870739 -0.03981083 0.001549571 0.029131006 0.0064544682 0.0022223769 0.03637695 -0.029107856 0.00867281 0.030845797 0.025957 -0.022221273 -0.018959723 -0.0071770917 0.023576878 0.037097108 -0.039028175 0.027363898 0.0030226507 -0.034331188 -0.019698652 -0.021802928 -0.019276941 0.017274186 -0.042917296 -0.04044495 -0.04026497 -0.025712 0.023735777 0.029667513 0.03173908 -0.038200922 0.014402868 -0.011693311 0.020083299 -0.02620848 0.034143608 0.013468805 0.026244452 0.024432328 -0.006028954 0.0031599125 0.040517766 -0.04255407 -0.024431558 0.025347615 0.018678365 -0.0070137572 -0.015472234 0.030323824 0.010773251 0.006637238 -0.004384542 -0.0127717275 -0.00035058803 0.04180922 0.023101931 -0.017637024 -0.040815156 -0.030607758 0.034188703 -0.039311223 -0.01576652 0.03380507 0.033055924 0.0053967247 0.01682822 -0.005806276 0.029224508 0.036924995 0.020564448 -0.04108886 -0.035372037 0.027343627 0.0020799206 -0.04001916 -0.019431483 0.00044887973 0.00080493104 0.011636918 -0.026514692 -0.029153418 0.026452178 0.01765787 -0.01616015 -0.020125695 0.041315507 0.00084074534 0.006946417 -0.0038769778 -0.022284187 0.023181746 -0.006942471 0.033981595 -0.007638647 0.004136629 0.04339175 0.020619571 -0.0073245848 0.035564 0.016393248 0.006353316 -0.029693797 0.010250783 0.042957727 0.0053185266 0.021213625 0.009516216 -0.019505039 -0.019999344 -0.021468135 0.02887637 0.029758135 -0.04272932 0.033095058 0.012942038 0.027828379 0.009408109 -0.010662467 0.018135514 -0.003214751 0.01927969 -0.0065380773 0.0021395637 -0.034676705 -0.02110682 -0.007900991 0.04405849 0.035729606 -0.012741745 0.004782034 0.042360026 -0.0036940763 -0.031984795 0.007281479 -0.040310513 0.005028219 -0.040690225 0.0019084251 0.0007135777 0.034520946 0.034943674 0.035320137 -0.0071216896 0.009248778 0.020633094 0.00683281 -0.02958754 0.036836144 0.036381036 -0.03382793 0.01251616 0.031354204 -0.038473234 0.0020659014 -0.024642598 0.016187103 0.008790357 0.0372362 0.012980713 -0.022856425 0.042288203 -0.0009188329 0.026461493 0.044073787 0.017084604 0.021539204 0.023021251 -0.00040753896 0.020105721 -0.003485007 -0.030758154 -0.01730814 0.014155967 -0.038522102 -0.021829037 0.041077513 0.014177278 0.020578967 -0.0019517995 0.013016095 -0.031099416 0.0374159 0.016724017 -0.003980759 0.0020596005 0.013212094 0.033540312 -0.009896886 0.039614897 -0.026500769 -0.021459183 0.009625055 -0.04165716 0.035098556 0.038003482 -0.0326297 0.031619467 0.02909006 0.015118675 -0.041377943 -0.01620032 0.003951225 0.037365302 -0.02887077 0.040406063 0.0025805566 0.0011836258 0.034660276 0.012658911 0.0046605617 0.028783541 -0.004211134 -0.02861242 0.009139513 0.029553186 0.02764368 -0.0019794898 -0.023520328 0.01860905 0.016011177 -0.027923003 0.0060285586 -0.02299769 -0.023627449 -0.020814605 0.020998582 -0.013486496 -0.014395598 -0.040846802 0.020748166 -0.004637887 -0.037171695 0.009539496 -0.009055788 -0.0058975555 0.021703709 0.03142509 -0.024927864 -0.014529488 -0.02836229 -0.03164636 -0.0053898864 0.0008158839 0.0030603458 0.010799566 -0.011154685 -0.0006074098 0.010706058 -0.010511966 0.03954672 0.00086600706 -0.03312005 -0.041141357 0.028770255 0.035514668 0.03711457 0.013510156 0.018948296 0.02982458 0.022623612 -0.043178756 0.031814665 0.01802695 0.0031007277 0.023281755 0.008658532 0.029274963 0.028240722 -0.03908335 0.033682115 -0.0069245324 -0.0018268288 0.025527328 -0.00058331236 -0.014963095 -0.020613039 0.011398941 -0.028648166 0.037302136 -0.04317569 -0.03016816 -0.003614598 -0.0217326 0.026582543 0.01349051 -0.029163616 0.0085784905 0.003942068 -0.028022911 -0.036998536 -0.012500839 -0.040417146 -0.032010335 -0.029206643 0.022237204 -0.016355257 -0.008632997 0.02832284 -0.033887118 -0.0059409407 0.0339457 -0.037381224 0.0042922823 -0.013326022 0.028022917 -0.01310454 0.022284966 0.028017923 0.022290757 0.032916114 -0.017243002 -0.026345035 0.035450593 -0.015061813 -0.026043918 0.01783347 0.004980825 -0.004395342 0.021726172 -0.008213952 -0.02172603 0.028700544 -0.04224754 0.015878562 -0.043023232 -0.005713927 -0.02359667 -0.0053519015 -0.041437894 0.011224127 0.021220168 0.03601592 -0.032260895 -0.018826038 0.03830435 -0.015659366 0.031049684 -0.021181973 0.029154466 0.024650063 -0.022892814 0.034841873 0.03579165 0.022193186 -0.023906957 0.00218396 0.03435152 -0.041799426 -0.026541235 0.025480477 -0.01587203 0.034355793 -0.002927362 0.023068614 -0.0008178596 0.020979874 0.034976304 0.023598189 -0.03280749 0.017509628 0.007106617 -0.012964107 -0.035303798 0.011353897 0.01182963 0.036908828 -0.018378329 0.03101127 0.0044666016 0.022581201 -0.014820402 -0.0022670527 -0.008281671 0.028789116 -0.013729594 -0.031044425 -0.016184779 0.03573995 -0.0241055 0.0222082 -0.024310144 0.01966651 -0.016048687 -0.015520719 -0.0022665204 0.019063931 0.00491065 0.03932339 0.029669842 -0.04342629 0.020438028 0.013703179 -0.03566774 -0.012660259 0.009611863 -0.019420108 0.004633519 0.03204165 -0.0349952 0.0158643 0.03642786 -0.011193807 0.035276685 0.012305278 0.040867105 0.0138207525 0.042857055 -0.0334237 -0.03351918 0.016779024 -0.0015856487 0.037352532 -0.0275528 -0.025069704 0.033601478 0.009435304 0.017657906 0.010593068 -0.03354439 0.016931117 0.012884449 0.04250224 -0.03769954 -0.016862797 0.04375846 0.0052661747 0.02363471 0.03783234 -0.016267624 0.016596481 0.004833527 -0.006825745 -0.034708403 -0.012290157 0.029571714 -0.017798593 -0.00017832332 -0.016688714 -0.031740464 0.04110325 -0.0015244883 -0.013664266 0.041474707 -0.044014912 0.033479843 0.016730623 0.015310728 0.031018963 0.029627996 -0.017734967 0.013687421 -0.030908497 -0.015491459 -0.035677005 -0.04368402 -0.028694369 0.007386003 0.00963399 -0.020422861 -0.017244335 -0.009517632 0.017014852 0.019854847 0.032469153 0.02587168 -0.022765525 -0.01533365 0.015761308 -0.01606592 0.016836407 0.041419677 0.040580053 0.02862793 -0.019539949 0.03297543 -0.00020675136 0.043441556 -0.024300244 0.044117145 0.01361938 0.023727754 0.03208777 -0.013380955 -0.024458343 0.024383264 -0.00067505025 -0.005886308 -0.0020579041 0.019104376 0.03155556 0.03927166 -0.030976048 0.022525135 0.036451977 -0.008845137 0.034779947 -0.03673864 0.04276913 0.03957684 -0.01946091 0.01386685 0.042157736 -0.03522319 0.015546618 0.022920493 0.008757357 -0.02791313 0.023266135 0.03759691 0.037626207 0.03996695 0.010186082 -0.026144832 0.013580225 -0.034829997 -0.0057603833 0.016204968 0.013352375 0.018333826 -0.025385773 -0.0100994175 -0.015516172 -0.042330034 -0.03654114 -0.01519946 -0.017794594 -0.020294113 0.03239988 0.022614028 0.018605536 -0.009355162 -0.036728326 -0.012315836 -0.04280103 -0.033486757 -0.026804341 -0.008563355 -0.042968515 -0.030697677 -0.015940223 0.0062647867 -0.031295933 0.0054751546 -0.025832398 0.04186358 -0.026732739 -0.0065046707 0.003429668 0.013274819 -0.03915863 -0.012023953 -0.010976857 -0.034658343 0.0070279287 -0.009741449 0.007854197 0.008165762 0.012981066 -0.015728535 -0.02268955 0.024158131 0.03170397 0.035602797 0.0020537474 0.011535803 -0.043770164 -0.02049832 0.0023399035 -0.034098092 0.020320049 0.02326162 -0.010525764 -0.017529543 0.000495236 -0.00563379 -0.022359451 0.036211085 0.030112222 0.017972095 -0.01502453 -0.031548966 -0.042966258 -0.03100663 -0.0012925648 -0.0015998522 0.03266438 0.028936993 0.043379094 0.008516108 0.020281611 -0.0072090444 -0.0056304657 -0.044190343 -0.040284842 0.014571988 0.014511697 0.038202856 -0.021821873 0.016759316 0.018211769 0.042187102 -0.035466146 -0.0058493293 -0.0010945167 0.038290568 -0.02956704 -0.011929286 0.01048091 -0.03639746 0.042187955 -0.03696421 -0.011803193 -0.026543505 -0.04078261 0.03719989 -0.027398301 -0.043505035 -0.027885525 0.019952549 0.0056799147 0.028587332 0.02057349 0.026381968 0.008143977 0.0018178989 -0.031371806 0.018063376 0.025052408 0.022346301 0.010567753 -0.028281547 -0.024485786 0.011395917 -0.025379842 0.019019535 0.003667155 0.0003080513 -0.005937627 -0.009262923 0.027676065 0.018841136 -0.009871097 0.019722117 0.035392843 -0.023809087 -0.01885435 -0.0007623206 0.03517149 0.004261199 0.0014335092 -0.029667014 -0.006608173 0.042028546 -0.025454683 -0.017224684 -0.009664857 0.03364229 0.03997044 0.018056152 0.031700667 0.0043253256 0.02994769 0.015904823 -0.037637193 0.01839507 0.020044792 -0.040944792 -0.042930398 -0.03819315 0.009489368 -0.026329467 0.02272282 0.039086275 -0.040755875 0.012515727 0.03235461 0.04148209 0.02547172 0.022818446 -0.036894135 -0.011374281 0.01619814 -0.00078278285 -0.005183667 0.0029400378 0.042872395 0.034583677 0.0018870671 0.0037943858 -0.016704198 0.038205307 0.016739579 -0.00073667424 -0.006829354 -0.015928606 -0.037517954 -0.023616618 -0.01881742 -0.01820157 0.029163154 -0.015715227 0.0053367075 -0.03515094 0.007158094 -0.00347466 -0.037362818 0.007863353 -0.022764534 -0.03535961 0.00015851956 -0.013490843 0.04164535 -0.009766647 -0.013574572 -0.038683873 -0.003725718 0.017218472 0.034442917 -0.0054716724 0.027852217 0.03437597 0.01980357 -0.004104297 0.009620403 -0.039665174 -0.02966726 0.0085781375 -0.021517547 -0.020264752 -0.032062605 0.043264218 -0.037746206 0.036868792 -0.015190888 -0.017748602 0.031481802 -0.019907352 -0.041708495 0.00833367 0.016183937 0.023644365 0.02534582 0.033536024 0.0045235315 -0.040396616 -0.018301163 -0.028207067 -0.020341871 -0.027869282 -0.019840118 0.016391125 0.016282108 -0.03773049 0.024349146 0.0019793846 -0.0027087622 0.038983747 0.022126073 0.03700127 0.01091674 -0.026506653 0.0066331234 0.041728035 0.028908923 -0.01457399 -0.03722975 0.012665143 -0.03940698 -0.020867668 0.0037158558 -0.0075720605 -0.0060701733 -0.043207277 -0.029769257 -0.03209101 -0.014168164 -0.023837298 -0.021184854 0.0064537255 0.011712125 0.015925456 0.028909497 0.03190197 0.025325757 0.00906762 0.021329112 -0.03177762 -0.04409897 0.012309024 -0.009542363 0.04041741 0.04158422 -0.013939849 0.03401873 -0.031881716 -0.03056627 0.031962104 0.015873292 0.025556594 -0.015759286 -0.016575307 0.017485704 -0.034694232 -0.009476139 0.0075087245 0.038765028 -0.034017768 0.01740835 -0.015105198 -0.017830456 -0.027912356 0.0076993597 -0.027267667 -0.026426658 0.032431137 -0.042071674 -0.023398982 0.028459333 0.00025616854 -0.00031467364 0.006311875 -0.002234531 -0.007147299 -0.0074170916 -0.0057125785 -0.009884357 -0.03324009 0.021396026 0.0027968807 0.024562689 0.034155346 -0.022843612 -0.028559167 -0.037468705 0.03413288 -0.019814393 -0.03091171 0.029169438 -0.029806636 0.044107337 -0.028007934 -0.005903172 -0.004020941 0.032382265 -0.016078591 0.009382204 0.0034695708 0.014364773 -0.017034613 -0.013018755 -0.016375268 0.032277975 0.030103754 0.036184438 -0.022222437 -0.019722212 0.022146787 0.015409019 -0.024084743 -0.03340368 -0.00030626007 0.008569839 0.0061092013 -0.0399605 -0.0045779957 0.019265493 -0.0011775144 -0.039064426 -0.042439878 -0.039075803 -0.00052965945 0.017827796 0.035826564 0.02589261 0.004495014 -0.035497792 -0.027223403 -0.0017439101 -0.027942864 0.0043352195 -0.0026087898 0.027894743 -0.04296718 -0.02843878 -0.043656223 0.03534873 -0.019681988 0.024483915 0.011556518 -0.0424241 -0.03755359 0.020582734 -0.0022640445 0.030951455 0.043147612 -0.004412638 0.03363622 0.0016604278 0.0077421074 -0.008021662 0.003654137 -0.02254651 -0.0005044029 0.004105403 0.03514162 -0.0023196572 -0.026972992 0.0048930594 -0.020865582 0.03484233 -0.041541446 0.028823808 -0.032427132 -0.02390319 -0.027939014 0.008361745 0.017594196 -0.04269021 0.03744206 -0.0048564603 -0.010865753 -0.033275433 -0.029969474 -0.036572237 -0.022477452 -0.012071479 -0.009797588 0.0045625176 0.020927643 0.00020192028 -0.0038690437 -0.035959363 -0.014720851 -0.030127252 0.029842498 -0.024906622 0.035105415 0.00622402 0.021481495 -0.03875543 -0.00640503 0.01884151 0.018945703 0.02960806 0.023051202 -0.04346875 -0.025908057 0.010396237 -0.00024502596 -0.036867876 0.027504554 0.0077688387 -0.004919733 0.028211104 0.035915278 -0.043091517 -0.02369255 0.012136827 0.013362416 0.013580378 0.0406645 0.04335561 -0.008788993 -0.02422323 0.032147713 -0.018506186 0.022996379 0.020006455 0.028803973 -0.031933382 -0.036700822 -0.029513493 -0.024941513 0.028262539 -0.041610006 0.03918444 0.013785375 -0.010760465 -0.019188391 -0.008755681 0.0052028494 0.022293227 -0.020830916 0.015410821 -0.00056610064 0.005830068 0.027728053 -0.0059789885 0.039611593 0.042065863 0.034446355 -0.013168382 -0.026011823 -0.009519361 -0.0114207575 0.023633482 0.014947954 -0.0020854208 -0.04305893 0.036069892 0.0007519893 -0.02656637 0.03211785 0.013087523 0.019050928 -0.016533772 -0.03856213 0.00061160343 -0.03663631 0.0026241418 0.009426464 0.036828697 0.037662957 -0.0001952242 -0.043535978 -0.014140963 0.014395013 -0.005766969 0.022323152 -0.0130656175 -0.02492003 -0.022059487 0.040044468 -0.019948341 0.012777038 0.017345589 -0.044074375 0.008879983 0.019110892 0.04061173 0.04268562 0.034601465 0.009014315 -0.008966947 0.04293963 0.0247401 0.0439423 -0.022565959 0.042512804 0.04325272 0.013506563 -0.003947653 -0.031097345 0.01812089 0.011341464 -0.0016682143 -0.006200876 -0.037148573 0.011710317 0.0028903624 -0.009219796 0.02690679 -0.043843884 -0.032208048 0.03274223 0.0075449813 0.03284266 0.03486365 -0.009476377 0.030268164 -0.009474791 -0.030520756 0.015256126 -0.004357157 0.028882988 -0.019012101 0.00819968 0.020863412 -0.00844519 -0.009550929 -0.0107350815 0.015936166 -0.009150913 0.022537822 0.011188508 -0.028026469 0.005091497 -0.016664574 -0.034247328 0.0035016022 -0.005853354 0.02054103 -0.031860147 0.016402083 -0.0063992455 0.040909994 0.012565703 -0.019166363 0.009974557 0.008556601 -0.0013671436 0.0026961023 0.032173034 -0.021772567 0.0024160787 0.039333623 -0.03433612 0.015804393 0.043566886 -0.013962677 -0.033124972 0.02684554 -0.012850353 0.03757846 -0.010041449 0.006862629 0.03987859 -0.03639774 -0.014193167 -0.010593915 0.030274997 -0.029252741 0.024372632 -0.031140067 -0.033651587 0.029655622 -0.006325525 0.03590893 -0.026021712 -0.014203988 -0.014505633 0.020087156 -0.03689915 0.014404091 -0.016914126 0.03158838 -0.026582185 -0.0016886662 -0.027928477 0.03208329 0.0286293 -0.006708635 -0.022124218 0.035898853 -0.0057591298 0.017786149 -0.027851727 0.0048837187 0.03805142 -0.021086778 0.030361809 0.008913516 -0.0074053486 -0.02310141 0.010271066 0.030505456 -0.018733794 -0.0033265506 -0.022716608 0.038074974 -0.038042415 -0.027760053 -0.028358644 -0.02065076 0.02626671 -0.008066101 -0.027778788 0.042020783 0.0007462521 -0.011984262 0.0111759845 0.026051704 -0.016577352 -0.0098404195 -0.032673206 -0.025241705 -0.0018537027 -0.01679877 0.034355745 0.028115287 -0.031388313 0.042316794 0.025824996 0.017917922 -0.012105597 0.0024781767 0.027343743 0.011551613 -0.010543471 -0.026847748 -0.039850187 0.007207369 -0.044054676 -0.016973242 0.024949474 0.024457473 0.010326995 -0.025766518 0.009150244 0.003690025 0.012501293 -0.0108701885 0.025530979 0.043746646 -0.010306164 0.020546209 -0.042465035 0.041693375 0.033865623 0.042993158 0.019387413 0.03184453 0.031488396 0.043604005 -0.03222383 0.037661716 0.04162967 -0.0054695494 0.03179447 -0.039459642 0.00021346325 0.035036832 -0.03350744 0.009107945 -0.017455723 0.016712295 -0.030330488 -0.026692178 -0.022182798 0.009289892 -0.034760013 0.017406337 -0.015839275 0.011378664 -0.026779896 0.04152088 -0.0049909614 -0.006191667 -0.0011065496 -0.036899403 0.014477864 -0.01679046 0.0021975578 0.0072839186 -0.03773471 -0.017856829 -0.010920475 -0.037424102 0.016043255 0.010833653 0.035662107 -0.027297324 -0.0057023684 0.020585032 -0.027507156 -0.020626115 -0.033772998 0.02625187 0.008338675 0.04208943 0.04027393 0.03420094 -0.03497864 0.027923524 0.015255004 0.037200935 -0.00090369163 -0.018927554 0.029330328 0.036608826 -0.0373088 0.024135519 -0.043027848 0.018503288 -0.016446132 0.023088075 0.008015029 -0.0013338055 -0.024732402 -0.02947894 0.0029157454 0.0033013888 0.034313936 -0.028908022 0.007898235 -0.02566038 0.025172053 -0.013286093 0.03113669 -0.0048058364 -0.03652381 -0.036209695 0.002487565 -0.01425085 -0.002606461 -0.025212187 0.041678924 -0.0074454723 0.00069932686 0.02637439 -0.0009355599 -0.008594248 -0.013929344 0.0024234438 -0.01457918 -0.042051263 -0.023742536 0.023237681 -0.014126406 0.04258393 -0.008064168 -0.03821658 0.042111844 -0.035809916 -0.029320156 -0.025948945 -0.018418541 -0.014255739 0.039599314 -0.025854152 -0.0012219477 -0.027893538 -0.016891893 0.02274736 -0.0019383704 -0.03493273 0.013078667 0.016890902 -0.00082599395 -0.0023990776 0.037253644 0.016962437 0.0007794111 -0.022838186 0.040250205 0.043078102 0.007238105 -0.00425876 -0.021538567 0.039159406 -0.005380672 -0.008895335 0.040753227 0.009677733 0.026921263 -0.0002380612 -0.02634629 0.0032340647 0.0047314367 -0.00722368 0.022828229 -0.037443142 -0.037393633 -0.007269978 -0.034936126 0.014617354 0.04294538 -0.025680838 0.0033029483 -0.0077893906 -0.024980262 0.04159969 -0.01795559 0.026019214 0.035465825 0.041149344 -0.03370137 0.0007997259 0.030461397 0.024745421 -0.011236307 -0.040635873 0.027200717 0.032502864 -0.0038546822 0.024927221 -0.02378679 -0.026475128 0.0128716 0.006900129 0.0261428 -0.019824166 -0.0004442383 -0.012563433 0.043707367 0.004072592 -0.024989024 -0.019761493 -0.028644994 0.022211557 0.04235776 0.03302801 0.0002646506 -0.02860338 0.026049681 0.0147282155 0.0091803 0.035795316 -0.02810052 -0.012981176 -0.022347923 0.024768174 0.016772475 -0.037122127 0.0016410244 -0.013673586 0.036374662 0.019891795 0.03690355 0.031035485 -0.03698163 0.031136695 0.029251888 0.005578947 -0.01159847 0.012969001 -0.0057710255 0.0075711966 -0.022680199 0.019279227 -0.026283374 0.038265783 -0.01440025 -0.024318868 -0.019802902 -0.008360596 0.025878496 -0.013020484 0.020319965 0.034833148 0.01137888 -0.022357607 0.035337377 3.374909e-05 -0.01731923 0.002265509 -0.03947744 -0.026403109 0.00719688 -0.027933039 -0.009511901 -0.022612447 0.020774545 0.01925171 -0.012318053 -0.03015029 0.0022831159 -0.029762587 0.023686701 0.041797623 0.0054731737 0.0066759028 0.003340206 0.02261996 0.0036705006 -0.0062529957 0.0025686712 -0.0058312113 -0.036548983 0.028239373 0.02812286 -0.011730632 0.027485114 -0.040225364 -0.04031548 0.018505674 0.02411925 0.039842863 0.026576638 0.027255302 0.034968223 0.00777062 -0.013143737 -0.013941361 -0.013460133 0.041467205 -0.040933546 -0.04380697 0.007905984 -0.007436353 0.030361814 0.043188184 -0.027425628 0.0051829033 -0.008757014 -0.03189371 -0.011942046 -0.018277919 0.035417307 0.016829189 -0.007383643 -0.034988992 -0.015605434 -0.036310736 0.007333246 0.04381287 -0.035516847 -0.015618594 0.021146253 0.027266672 0.0004975225 -0.04301466 0.031246055 0.030079458 -0.0023860806 -0.022915326 0.03638307 0.02663496 -0.02765232 0.037623238 -0.013645206 0.012592583 -0.0066442713 -0.016593868 0.012522013 0.017827341 0.02797489 -0.0014153807 -0.011006718 0.0014938265 -0.005628411 -0.03366541 -0.0045744292 -0.042022545 -0.002924812 -0.0053859088 -0.04055212 0.020350136 -0.03675585 0.003806951 0.0002276404 -0.023196366 0.02388228 0.021524863 0.022714274 -0.021889191 -0.007258209 8.7949935e-05 -1.1463942e-05 -0.014841259 0.0028083604 -0.0018951225 -0.031643227 -0.007818567 0.019993126 -0.014996623 0.0024688358 -0.027715482 0.01748404 -0.001285363 0.01975017 -0.010121371 -0.010449595 0.015951887 -0.03798277 -0.021218335 -0.02504007 -0.01244108 0.0009668539 -0.0106878085 -0.0019405199 0.02972092 0.034546718 -0.0074225185 -0.024316603 -0.03414527 -0.005635002 -0.03645579 -0.04386703 0.01828255 -0.009474337 -0.009148416 0.0056428094 -0.0020761327 -0.023813639 -0.0154906735 -0.02962206 -0.0012119958 -0.021299815 0.022221314 -0.021806495 -0.042757913 -0.0050074724 0.0335215 0.0025790867 0.005871114 0.011092076 -0.018665269 -0.035060324 0.010176662 0.028633315 0.027603472 -0.017830597 -0.012325582 -0.00043811122 -0.02369718 0.039132264 -0.028291762 -0.026223712 0.014343542 0.029447692 -0.008871754 -0.010607825 -0.025677767 -0.020147247 0.01198984 -0.009674936 0.014653332 -0.017020661 -0.03231802 0.029787943 -0.011450656 0.03395416 0.023792828 -0.0042559938 -0.009596073 -0.03835566 -0.010734412 0.02140718 -0.014676112 0.033106286 0.019721448 0.015346447 -0.040898383 -0.024445668 -0.012641736 0.0054673892 -0.012288055 -0.02142888 0.014527719 -0.017384216 -0.01817026 -0.038490046 0.0042241993 -0.0024203986 0.021073945 -0.040410496 -0.0040550483 -0.04254913 -0.0102849845 -0.043086164 0.031609684 -0.022997607 0.028543958 0.0012406663 -0.033011228 0.027952211 -0.009043107 -0.0057886536 0.008595907 -0.017638661 0.030548625 -0.017763168 0.02003518 0.022737982 0.0025213824 -0.032371555 0.010432483 0.008634814 0.0026974666 -0.04176692 -0.005431512 0.006315273 -0.017039107 0.028197564 -0.0056778756 -0.037876952 0.027219856 0.024880217 0.030980779 0.019479135 0.0076630977 0.021557655 -0.02662026 -0.015973575 -0.040308334 -0.031266924 0.026308611 0.041491643 -0.019225521 0.015866213 0.023171425 -0.044157393 -0.020340342 -0.028704084 0.0136244325 -0.008920059 -0.0047982186 -0.025317565 0.037883688 0.0055998145 -0.03754583 -0.004116962 -0.032717023 0.0077999644 0.024117323 -0.017570062 -0.030264603 -0.02099206 0.041654617 0.036892522 -0.0201042 0.002210797 -0.0017410862 -0.028122796 -0.008137729 -0.032671224 -0.01770254 -0.030342048 0.032243583 0.017229594 0.019610206 0.00048288697 -0.025204547 0.03579263 0.026673429 -0.03780071 -0.010838626 0.016737109 0.00088938803 0.025938855 0.0020763697 0.018285843 0.019857055 -0.018906148 0.012327036 -0.044070803 -0.041564163 0.01433341 -0.012365 -0.0005374355 -0.022051446 -0.03112973 0.02505195 -0.019752584 -0.025709393 -0.037329383 -0.030458769 -0.014356929 -0.03995262 0.04040228 -0.018216537 0.027675569 -0.010693872 0.037678417 0.03318019 -0.023758026 0.033951376 -0.008124074 0.010986245 0.018858502 -0.0045785964 0.029859208 0.0067057055 0.030691698 0.041634552 -0.04172581 0.0062884097 -0.0114729935 -0.008375032 -0.03944584 -0.0337933 0.002897912 0.01677561 0.02549368 -0.018142221 0.010404761 0.02324819 -0.0063044047 0.042241868 0.016264327 0.009552841 -0.022032829 -0.008596666 -0.03804175 -0.0036386796 -0.012153033 0.010625727 0.0046380656 0.033370722 0.02294091 0.011420674 0.018663583 0.01772951 -0.017781533 -0.0307565 0.014716636 0.012789988 0.021350123 0.0384962 -0.038552508 -0.0155178 0.03383531 -0.013512617 -0.040262826 0.014895887 -0.027690057 -0.011738603 -0.02192893 -0.010426845 0.041157518 0.020577956 -0.0036934388 0.014201818 0.009722403 0.022681737 -0.0063351244 0.027130606 0.039001655 0.027835516 0.006978259 -0.04247194 -0.03614008 -0.03635142 -0.035527617 0.03262853 0.02130413 0.0029454324 -0.0139175 -0.012377228 0.024081392 -0.032390215 0.017700111 -0.009024858 0.03339381 -0.038127974 -0.016240455 -0.007676 0.034869295 -0.012681928 -0.04347726 -0.03831745 -0.039342802 -0.025029449 -0.014265855 0.033629637 0.022947699 0.03913181 0.0035810438 -0.01606346 -0.04068901 -0.012549519 0.0022780371 -0.0317249 -0.0105735855 0.022972709 0.01622219 -0.03952659 -0.022181923 0.034218542 -0.019405916 0.004976152 -0.03678292 0.014163659 -0.032933258 0.018519599 0.026530435 0.03661221 0.021891726 -0.040773135 0.038367365 -0.014444178 0.02268091 -0.032449815 0.00074524054 -0.016082205 -0.013903892 -0.009110911 0.03630292 -0.042797312 -0.0030981305 0.03218401 0.02368733 -0.020988766 0.0016542532 -0.005197665 -0.038036566 0.023261366 0.02614656 -0.011776314 -0.010094186 0.03481671 0.010913089 0.03985888 0.021685349 0.036135644 0.016855868 -0.0028058 -0.008733391 0.03755025 0.0028279903 -0.036308162 -0.03393718 -0.008713492 -0.03674448 -0.028496485 -0.038970064 -0.010383076 -0.030420383 0.02872146 0.019933168 0.017752573 0.03859522 0.0048242654 0.027727552 -0.014688076 -0.005172477 0.04273914 -0.034222573 -0.0005223153 -0.022760257 0.03260244 0.0073808506 0.011187475 -0.035588805 -0.037804984 -0.034457233 0.028420683 0.032767035 0.00055883033 0.037549626 0.030792966 -0.043846905 0.024552535 -0.038749296 0.039816428 0.005129756 0.035457462 0.0012738305 0.03086675 -0.0078029567 -0.00232688 0.033312716 -0.0015665193 0.011863547 0.008480863 0.01429345 0.0014372286 0.011269503 0.002152013 -0.019516798 0.03158344 0.0019695433 -0.035762202 -0.03429684 -0.029165898 0.00029074476 -0.0265551 -0.035303902 0.020892035 -0.0011859017 0.0023364737 0.042895637 0.012290316 0.0042823516 0.012602224 -0.0040837927 0.013486738 -0.020851737 0.0064844666 0.01857036 -0.029373081 -0.026971053 0.021779126 0.039622463 -0.031068966 -0.019659145 0.037834805 0.020537848 0.04046367 0.013871908 -0.025057644 0.026572729 0.03085193 -0.03309979 -0.0013819267 0.014298692 -0.0033500844 0.031402245 -0.016607892 -0.017240906 -0.00038567526 0.020981202 0.009011027 0.02680146 0.010283852 0.037481457 0.0066063814 -0.015914865 -0.015876038 0.007920736 -0.033452913 0.026085759 0.03350853 0.04341201 0.029827835 -0.033114716 0.004460633 -0.0032866164 -0.023148688 0.040588293 0.0013397482 0.022869311 -0.033910293 0.0025094496 0.019342063 0.034701716 0.0098417 -0.04144889 0.041858286 -0.035512097 0.004859974 0.023960937 0.025728354 0.036618613 0.00062433706 -0.038072266 -0.03558455 0.03399454 0.027705546 0.010762266 -0.009103213 -0.038225494 -0.00555388 0.026438007 -0.020908898 -0.02248055 -0.001917887 0.01782639 0.0059073074 -0.04094041 0.013873225 0.043075707 0.016632942 0.013223752 0.034988236 -0.017909445 -0.02086249 0.0085989265 -0.029336492 0.0422313 -0.031787753 -0.019517705 -0.012393586 0.021635441 -0.015370281 -0.007954217 0.02517908 0.030180156 -0.01747047 -0.03978396 -0.0017750935 0.037309945 -0.0049153077 -0.00081128994 0.005896212 0.043469373 -0.00939222 0.0066666566 -0.033187054 0.029091546 -0.010243196 -0.010347052 -0.043455422 0.029386315 0.0033051716 0.020789238 0.0042854757 0.005357349 0.025180006 -0.01909957 0.00365979 -0.011955649 0.015996879 -0.036907095 -0.031841565 -0.03935644 0.0036310405 -0.03879161 0.020185348 0.008559076 -0.040925276 -0.023416193 -0.020808436 0.025563002 0.03846088 0.02192791 0.010863829 -0.024820121 -0.027217712 -0.037784476 -0.016711047 -0.036217086 0.043529738 -0.033779994 -0.005851505 -0.009853422 0.035467215 -0.031074528 -0.04402062 0.03116729 -0.029674875 0.029420543 -0.015980557 0.0016049519 0.03839472 -0.008715969 0.038147718 -0.03853951 0.009586822 -0.008386717 -0.0056055994 0.03365982 0.038264003 -0.01364009 -0.0069405846 0.01810402 -0.039675288 -0.031952206 -0.010404861 -0.022272743 -0.038564645 -0.030718504 -0.021040838 -0.036302634 -0.029950978 0.03658456 -0.016768435 -0.015690712 0.019575292 -0.03333989 0.027658047 0.003933818 -0.030928278 0.029295247 -0.031272814 -0.034790616 0.011657065 0.011132616 -0.0008835086 -0.040212978 0.031459138 -0.025325408 0.04409243 -0.011742543 0.03716616 0.042395946 0.021935558 0.0050416165 0.004188949 -0.037329573 0.025784846 0.003549481 0.036381792 0.029487336 0.036476936 0.033516128 0.029410092 0.026189072 -0.04195874 -0.0014931944 0.0388465 0.022928376 0.03250177 0.018638026 -0.0046832366 0.019738575 -0.042419262 0.03892857 -0.008865042 -0.033330105 0.0011088361 -0.044130974 0.033950396 -0.04106074 -0.031580996 0.011539591 -0.03079322 -0.0057650567 0.026500484 -0.023646725 -0.014844151 0.0010542402 -0.0441879 -0.025887337 -0.029820133 -0.010461164 0.030608432 -0.0016655485 0.016211512 -0.0002841119 -0.012695121 -0.0189417 0.043659035 0.03998975 0.030862773 0.005685004 0.022523033 -0.026576048 -0.019269576 0.00020507076 0.007748329 0.020273114 0.035867464 -0.0057355114 -0.037171043 -0.041110024 0.042476706 0.025818363 0.021998504 0.00033386625 0.040286753 -0.00012187288 -0.0003870503 0.01860088 0.017974924 -0.0066927667 0.033493005 0.008215274 0.03323743 -0.029420886 -0.023711758 0.025292777 0.03548725 0.040999193 0.01239946 -0.017272195 -0.0058136256 0.017801575 -0.021511404 0.027869234 -0.021403324 0.02647635 -0.029109174 0.02123363 0.026831111 0.00509243 0.030641844 0.008926597 -0.025319813 0.00448748 0.017069189 0.024152758 -0.028917452 -0.008799177 -0.018868411 -0.01302767 0.00089779106 -0.0418587 -0.00028638783 0.0021859778 -0.03376066 0.008603204 -0.033700798 0.008238208 0.034336414 -0.0070585855 -0.031234728 0.041315127 -0.030111441 -0.02965931 0.041576136 -0.0016712964 0.022084327 0.016070055 -0.04273438 -0.008724703 -0.007995631 -0.021213008 -0.023586078 -0.004434017 -0.014195965 0.019367762 0.002361572 0.036708783 0.008630299 0.025184475 0.012590702 -0.02067138 -0.0032205882 0.040197313 0.02460769 -0.0033558954 0.013800722 0.0017314504 -0.03925888 -0.010251863 0.024118908 0.0077946326 -0.017886864 -0.0019181874 -0.012729102 0.006496647 0.01970875 -2.9218303e-05 -0.028261747 0.042730924 -0.030936545 0.030955132 -0.034397326 0.0005709581 -0.017353786 0.0104660215 -0.01376809 -0.023715546 -0.04097445 0.00553121 0.035300203 -0.002978897 -0.026763543 0.012820476 0.02562579 -0.022545472 0.015438596 0.040768325 0.013799068 -0.018717298 -0.0418176 0.04250949 0.009254973 0.03351523 0.009441632 -0.004029228 0.0072323726 -0.033950865 0.035366863 0.036356855 0.0111079225 0.034881283 -0.0047767553 -0.037626702 -0.023283152 -7.428382e-06 -0.02530215 0.017856697 -0.026657443 -0.029917128 0.036039338 0.0012921117 0.00775875 0.028187275 0.018349184 0.013449929 0.0035366947 0.028890183 0.0027216326 0.0058712615 -0.00066418166 -0.043428898 0.009449871 0.040476024 -0.025888037 -0.0035262583 -0.03894598 -0.035262868 0.0022361537 0.025412537 -0.037201583 0.0061213397 0.027436823 0.0049997014 -0.036317296 -0.00074875983 -0.0223873 0.041305955 0.016931321 0.03942948 -0.031630233 -0.04055845 -0.008043647 -0.042926706 0.02112027 -0.03441778 -0.04334021 0.010153202 0.03657758 0.012820771 0.020795844 0.03717392 0.028657038 -0.010141333 -0.009247313 0.013218083 0.01708346 -0.030776693 0.025902651 -0.012965603 -0.019466344 0.035723247 -0.02695469 -0.006599101 0.0402472 -0.014736419 0.010197656 0.0034080995 -0.00014488505 -0.0024006844 -0.020865124 0.0088382205 -0.03501905 -0.015232013 -0.0089992685 -0.015213789 -0.011648862 -0.042839132 0.033865616 -0.004954209 -0.025435427 0.0018311804 -0.0020111105 -2.9724064e-05 0.014088127 0.019120619 -0.038464736 0.002278643 0.034877103 0.036045242 -0.0024899673 0.00940076 -0.040459745 0.039374243 0.018908856 0.009166739 0.036494404 0.0062714983 0.028571717 -0.023212545 0.043522127 -0.044037044 0.01942929 0.03830401 0.02354159 0.020991543 0.028333677 -0.00059355405 0.030312713 -0.034229625 -0.0110458825 0.034044374 -0.037032243 0.040449906 0.019289248 0.0055828714 -0.014891319 0.0070353416 -0.036683995 0.033386547 0.02470074 -0.03818773 0.015601846 -0.0015915282 0.016052132 -0.04314158 0.015869543 -0.01596648 -0.036163207 0.02253474 -0.03903444 -0.0014203909 -0.035915937 -0.012144287 0.02257579 0.010329955 -0.02118025 -0.026975531 0.025935026 0.018857585 -0.04065537 0.031944435 0.021458736 0.008810936 -0.040013548 -0.03854661 -0.041313745 -0.031699568 -0.02221604 -0.014565724 0.040369958 0.03557653 -0.023973607 0.014260164 -0.03457424 -0.0402548 0.0023645647 0.02430781 -0.038207803 0.039342143 -0.004658133 0.031564705 -0.029618565 -0.00049576286 -0.033524297 0.03697475 0.038526196 -0.015498512 0.008507947 -0.030044824 -0.010964992 -0.02540613 0.041820314 -0.029189464 0.035364874 0.036056954 -0.013615038 -0.0047852057 0.03983656 -0.015283106 -0.033360135 0.008432662 0.03228935 0.012678494 -0.026595624 -0.022444887 0.043821767 -0.0055057216 0.010078254 -0.03160316 0.022483042 0.031245038 0.037041336 0.044124376 0.018398885 0.04022055 0.042393874 -0.0048768274 0.041541602 0.033494554 0.033731025 -0.026201352 0.023802036 -0.019089514 -0.030879572 -0.029437914 -0.023617724 0.04084178 -0.012073302 -0.038707353 -0.041605707 -0.013340826 0.029776553 0.0053115617 0.011573867 -0.00051735784 -0.036283616 0.038195804 -0.01617428 0.017659998 0.026485668 -0.000620665 -0.021488607 -0.039828025 -0.013377857 -0.017839065 -0.04100047 0.03245313 0.034195956 -0.010953476 -0.0414553 0.043919265 -0.0006860611 0.042190928 -0.008698298 -0.0374646 0.04261456 0.027691532 0.04362695 0.010986309 -0.011199024 -0.037724715 0.020300087 -0.032306727 0.020895943 0.0340219 0.0341405 0.0077352216 0.037750375 0.042521033 -0.00630314 -0.015744898 0.038099524 -0.01131468 -0.021724535 0.027534636 -0.014735086 0.027716879 0.016982371 0.016224328 -0.0048289592 0.0047387807 0.03869746 0.019999722 0.035998162 0.039078504 -0.030556453 0.00035293243 0.003601638 0.012055969 -0.039774843 0.028560927 -0.015732206 0.016600164 -0.02842406 -0.008575419 0.03766334 0.020549044 -0.034416948 -0.033151817 -0.012058782 0.031817824 0.03324777 -0.041795116 -0.008884181 -0.007329911 -0.014107351 0.043028586 0.037831333 -0.025223102 0.03420809 -0.034095168 -0.0006505629 0.011432258 0.027390294 -0.032176383 -0.018634934 -0.04330156 0.010127361 0.03771019 -0.034291703 -0.040144887 -0.026044313 -0.038563758 -0.024792999 0.012480124 -0.020537795 0.013283391 -0.02798911 -0.013958747 -0.008492527 0.01942644 -0.008959888 0.012657889 0.011346948 -0.040303893 -0.0069950176 -0.003384297 0.03498936 -0.010309329 0.028141666 -0.02887294 0.010324687 0.017292488 0.02258463 -0.034337133 0.025314314 0.02407929 -0.038005453 0.028206166 0.038129415 -0.0028642893 0.021912752 0.0071675614 -0.016868291 -0.011395602 -0.0041439678 0.020279609 0.011126631 -0.025069362 -0.03103768 0.0072061312 0.0067206994 0.04255507 0.030463036 0.004285228 -0.0046090474 0.006851265 -0.0036135232 0.0105140945 0.042279236 -0.025897684 -0.041069854 -0.009330495 -0.013020842 -0.015198764 0.014996238 -0.0310347 0.023821963 -0.028723251 0.03914303 0.019317655 0.030582175 -0.0033825375 0.013334045 -0.0008765649 -0.030313814 -0.0072233113 0.0060669174 -0.030593565 -0.00077130314 -0.035925083 0.013772346 0.019006094 0.0150608495 0.00054614415 -0.0076257084 -0.0052778707 -0.02619572 -0.0023843315 0.028990125 0.017663518 -0.022778828 -0.010212566 0.02975683 0.009163736 -0.004889951 0.043034915 -0.042321008 0.040888406 -0.0069196746 -0.032415725 -0.002312608 0.02600293 0.034677733 -0.0006610101 0.033731166 0.010085894 -0.00858163 0.01886988 0.04030046 -0.037676737 -0.020230524 -0.03021264 -0.024891838 0.0014809981 -0.0061929733 0.014101393 -0.00051206315 -0.043811664 0.024598317 0.009533153 0.015034818 -0.024481297 -0.03709216 -0.012307517 0.012899986 -0.04058304 0.021994902 0.030025145 -0.015081338 0.022139033 0.029380279 0.011620418 0.004826304 0.03944027 0.022283744 0.019988548 0.0049050977 -0.006871738 0.012027641 0.00051105686 -0.0090219015 0.023825228 -0.009945138 -0.0011231187 0.022843892 0.030390548 0.033354748 0.034159184 -0.029589336 -0.010942117 0.008054357 0.012042019 -0.04197602 -0.0361815 0.034447514 -0.03430959 0.023782602 -0.005718806 -0.04259903 -0.02114363 0.016673725 -2.8533415e-05 0.0051984186 0.028888777 0.016583273 -0.010685285 0.019546386 -0.02290345 -0.0069931946 -0.035938263 1.6126438e-05 -0.007416433 0.033357155 0.036802385 0.032954726 0.023935743 -0.031159401 0.017184766 -0.0035829034 -0.018375035 -0.015588196 -0.0071259257 -0.015356868 0.022782873 -0.011871766 0.004016626 -0.023071473 -0.025883801 -0.023832642 0.012034084 0.026850345 0.03456941 -0.018932901 0.009869707 -0.014599452 0.025828257 -0.016515769 -0.004054121 0.029599415 -0.01341944 -0.040962122 -0.04224263 -0.024682874 0.03711949 -0.017793966 -0.022512112 -0.028506896 0.038390145 -0.018046921 -0.0039746007 0.033564523 0.020637188 0.017512336 -0.028567102 -0.0044705267 -0.009829799 -0.016197992 0.009378222 0.035526 0.023796095 -0.038593665 -0.033302005 0.022731228 0.010294899 -0.03588698 -0.013063663 0.023877934 0.021429254 -0.0093258545 -0.033118356 -0.0032995767 -0.0320688 0.015048833 0.024251854 0.027749289 -0.03768516 -0.0025751987 -0.022419736 -0.033150334 0.0022985416 -0.005427213 -0.0326614 0.00520149 0.032503944 -0.0018432555 0.039860904 0.025124969 -0.04071051 0.043993503 -0.026789922 0.029456327 -0.033779435 0.015258292 -0.041507017 0.024066435 0.016275942 -0.035807382 -0.03703087 0.003049103 -0.021674786 0.043175627 0.044145342 0.016359357 0.01191337 0.03335036 0.025219299 -0.0021375194 -0.006735256 -0.0035563668 0.016487451 0.005701373 0.01727055 0.010333802 0.00093896856 0.0005403331 -0.02740237 0.004369095 0.03580508 0.013014061 0.016212543 0.012423041 -0.03903484 -0.030995088 0.030801896 -0.03758096 -0.03665051 0.014725508 0.02128212 -0.012270633 0.021478029 0.03454439 0.01628445 -0.026514156 0.021182736 0.033509493 0.0145425275 0.023569308 -0.00030736643 -0.0040880074 0.0058171395 -0.007751464 -0.041619185 0.041824378 -0.005589752 -0.032242317 -0.00036985966 -0.020949444 -0.004262901 -0.009989403 0.023829216 0.033804685 7.312478e-06 -0.01042095 0.006814039 -0.010181219 -0.011267359 0.0058266646 -0.005963368 -0.020799674 -0.030792482 0.005790097 -0.041476037 0.006843352 -0.018490428 -0.0037293427 0.037275024 0.042398047 0.04005452 0.017892038 0.041676946 0.0036264465 0.03686595 0.03659733 -0.017617771 -0.037031144 0.03823894 0.0018982413 0.01369556 0.036280476 0.042735875 0.003066241 -0.04235092 -0.02325484 -0.03240455 0.0010227038 -0.022412514 0.034528255 0.008991898 0.0010928309 0.034775753 0.031476773 0.011333461 0.028123396 -0.025217049 0.015010136 0.02038153 -0.010447508 -0.042021994 0.013126983 -0.03827725 0.019557275 0.022929007 0.014416556 -0.03200107 -0.03788629 0.024458505 0.035072338 -0.0064307344 -0.027277155 -0.033570804 -0.04384645 -0.006941997 -0.006710268 0.041460443 -0.0028509023 -0.025056206 0.03766685 0.01362359 0.0022086108 -0.009466873 0.0059520886 0.026630944 0.009662465 0.01012509 0.030308114 0.005621668 -0.009426058 -0.023752445 -0.027015686 0.0010949856 -0.005152384 -0.038354415 0.0092199445 -0.01364009 0.023580888 0.029162388 0.029044509 0.030987358 -0.007933517 0.02892229 0.018989194 -0.03078206 -0.0042992947 0.035113003 -0.03249298 -0.041122578 0.022696462 0.0076520764 -0.0026584282 -0.015311755 0.027799798 0.03000767 -0.0060520293 -0.040235035 0.0057866727 0.022730606 0.04161714 0.009777921 -0.010867891 0.040248457 -0.018473616 -0.024972724 -0.028674845 -0.029372739 0.0074043004 -0.0012506234 -0.04302225 0.03075535 -0.011186643 -0.044113845 0.018307162 -0.020983798 0.011526873 -0.009735595 0.02799627 0.010304804 -0.02807175 -0.0014962921 -0.008971336 -0.01912446 0.029207513 0.027170682 -0.041059323 0.03319218 -0.04105964 0.009862694 0.042844046 -0.029435305 -0.005504568 -0.02740761 -0.017843606 0.0036329424 0.012521091 0.0020154992 0.040823072 0.031113008 0.02773105 0.017231317 0.032847025 -0.0046107336 0.015584224 0.037922423 -0.004176468 0.031717528 -0.034900073 0.041709296 -0.0010060453 -0.024656912 -0.003143528 0.008708113 0.044003673 -0.03900478 -0.03619741 0.031305168 0.04214335 0.036450975 -0.00035510826 0.0076286164 -0.036710035 0.036538992 0.028332302 -0.03928689 0.018020317 0.023963075 -0.009942705 0.042895503 0.030986479 -0.029654259 0.039330274 -0.035507135 0.031586885 0.039883036 -0.021308081 -0.029244285 -0.012418432 0.01344377 -0.014309107 -0.0029411071 0.01022002 -0.0072969575 0.040859573 -0.001259174 0.033082057 0.008890604 -0.012334702 0.026021685 0.02268365 0.00068701996 -0.03867634 -0.043547157 -0.024925087 0.03134366 0.012742747 0.025082985 -0.00827047 0.03997089 0.0030975563 -0.0022128834 0.016663304 0.03779909 -0.03383503 0.024863794 0.01892571 -0.0395517 0.035104293 0.038041644 0.02309134 -0.011736148 -0.023471316 0.034123823 -0.015049154 0.0034243367 0.009280672 0.020008711 -0.019216502 0.01700158 -0.018694244 -0.04366786 0.013650685 0.0012326636 -0.037844907 -0.03280162 -0.03642173 0.016813857 0.034750327 -0.023251094 0.00840102 -0.012184143 -0.014755627 -0.020496503 -0.022569416 0.041060574 -0.021916356 0.043666642 0.032046646 0.009047501 -0.0036922062 0.043824725 0.013345161 0.011971627 0.043419052 -0.02668308 0.020002725 0.03472293 0.040348828 -0.04127441 -0.021392018 0.044046264 -0.016483152 0.033299223 -0.007344394 0.037559107 0.0094704125 0.0039784936 -0.0105432235 0.017924964 -0.005014627 0.024685862 0.0039664875 0.0070802174 0.018536342 -0.0061609577 0.0062656347 0.004737016 0.024806613 0.025964087 0.038257353 0.011470138 0.037054054 -0.032413993 -0.037110493 -0.015966821 -0.013244478 0.02275315 -0.023616275 -0.0012450917 -0.02424959 -0.007337192 0.033052154 0.033616338 -0.012375548 0.007858069 -0.02752243 0.013828633 0.016860852 0.028452858 -0.023386633 0.022293549 -0.035061177 0.03751461 0.015196457 -0.034752954 0.035324864 0.022513334 -0.008330098 -0.0019591541 0.01994482 0.04335874 -0.043885563 0.021189954 0.012300073 -0.02394558 0.030790174 0.03924332 -0.014961109 -0.0069204704 0.011660505 -0.022025974 -0.032119352 -0.018865734 0.016338488 -0.020779513 -0.0084421085 0.013277563 -0.020416891 0.027261987 0.00382097 0.038595192 0.033196613 0.0041102343 0.041611977 -0.043629277 0.0005901718 -0.016100591 0.018089907 -0.030079594 0.010763172 -0.0070698806 -0.0020391224 0.002857825 -0.031791136 0.035658244 -0.0008205728 0.028720068 -0.014104954 -0.014467506 -0.04207936 0.028768336 -0.00923813 0.015629848 -0.023225842 -0.01851039 -0.017042842 0.039257504 0.0097727 0.031170554 -0.03380774 0.009863637 -0.006186525 0.005604493 0.039738867 0.03260323 -0.041831717 0.0073200436 0.02923316 -0.03129699 0.03595761 -0.0070347833 -0.014547311 0.00045975888 0.035144154 0.036530178 -0.024762148 0.02718753 -0.0144535815 -0.03220548 -0.0064534303 0.040529158 -0.00048189124 -0.014519157 0.04177133 0.01447317 0.02101279 -0.011793689 0.001055062 0.02061063 -0.010676486 -0.0003618307 0.040882356 -0.015611777 0.009517279 0.008728907 -0.012658226 0.013097497 -0.029235404 -0.018050542 0.008030744 0.0009485306 0.029460695 -0.02347748 -0.03552281 0.01727191 0.015922789 0.005164032 0.033285424 0.023554778 0.011339657 -0.042320356 -0.033053048 -0.025721457 -0.0060951663 -0.012069334 0.020743873 0.040113095 -0.032066286 -0.015006975 0.013124554 0.03168001 0.026545266 -0.037154395 0.030041462 -0.042872444 -0.03279984 0.029948123 0.015012813 0.01154958 -0.013701271 0.02675267 -0.018540135 0.037254415 0.034963235 0.012096588 0.041646544 0.015901316 -0.004458288 -0.021119922 0.032242764 0.00312973 0.030406749 0.016877705 -0.002913169 0.024963435 0.04075498 -0.04390283 -0.025572179 -0.030280566 -0.016297163 -0.012638227 0.013317756 -0.02406273 0.018042907 -0.035302706 0.038397387 0.008029818 0.0062765614 0.008440728 0.010042029 -0.0031486752 -0.021998432 0.031683818 -0.013815252 0.014847012 -0.036941208 -0.041080885 -0.005299792 0.03655286 -0.02817602 -0.028778216 0.033215795 -0.028891217 0.037812907 -0.03292863 -0.021676514 0.038727026 -0.03311289 0.021398097 0.036377255 0.014967537 0.033613976 0.008202946 -0.00062842004 -0.04213311 0.039615575 -0.04396681 0.0007839735 0.025896424 0.008483998 0.026687374 0.013114592 0.027590228 0.032167807 0.026705887 0.025557928 0.027059635 -0.008016114 -0.008885019 -0.04360191 0.01888172 0.0036898195 0.0241581 -0.011799289 0.031017441 0.0030024045 0.036281604 0.00027572468 0.030398736 0.043123547 -0.03202195 0.010310489 -0.0028849149 -0.0062553403 0.034911457 0.03128052 -0.020831311 -0.031874087 -0.043302342 0.026497617 -0.008391011 0.0104861725 -0.033603676 -0.001957505 0.022193044 0.019025862 -0.033895493 0.03690037 -0.01280023 -0.009471693 0.033764534 -0.043358743 -0.04350478 0.0413988 0.0023963382 0.0016515664 -0.020610789 0.039425127 0.028351037 -0.038768176 -0.015410289 -0.0052145557 -0.01665019 -0.02025871 0.034564868 0.0378193 -0.013763274 -0.013612852 -0.042333264 0.026350942 -0.03924615 0.022416877 0.026609745 0.032595415 0.024860797 -0.039814226 0.035447624 -0.010729992 -0.01276166 0.013923001 -0.020828735 -0.033656105 0.042887937 0.035192754 -0.0144687705 -0.035515066 0.03927807 -0.034459773 0.009381482 -0.04204293 -0.034459535 0.0045239213 -0.010383097 -0.005167135 -0.03943629 0.018494548 0.027697623 0.014435691 -0.040975433 0.015761683 0.043529384 -0.039796293 -0.03835179 0.009483536 -0.035558216 -0.021067044 -0.018843371 -0.034604006 0.02399107 -0.015204349 0.036445305 -0.02844907 -0.03321407 -0.01369526 -0.024756094 0.008313914 0.020742893 0.02722161 -0.0059022657 0.02932101 -0.042716548 0.017385485 0.034408133 0.036429707 -0.032866966 -0.002119428 -0.012486736 0.035425812 -0.009032227 -0.010563443 -0.007655522 0.028765593 0.013005664 -0.0016950988 -0.03225877 0.0012331483 -0.019977095 -0.01939041 0.019808881 -0.0025845817 -0.039982475 0.03794279 0.027681096 -0.037101544 0.042295143 0.020857917 0.037412994 -0.018106628 0.03088355 -0.026854292 -0.04259341 -0.042450015 0.021282373 -0.039711792 0.031650245 0.035583552 -0.008194717 -0.027190207 0.008601139 0.0323527 -0.020450499 0.005993993 -0.036479015 0.0430639 -0.01002085 -0.042436264 0.020317763 -0.023159092 -0.015340826 -0.02599771 0.03873753 -0.011787209 0.007921948 0.01046256 -0.041554525 0.02091205 0.016402578 0.038030706 -0.03941721 0.004387629 -0.021476217 0.03588915 0.012615494 -0.0036486369 0.0064689354 0.026564378 -0.043917425 -0.018833688 0.008076347 0.0015575947 0.026362784 -0.029165845 -0.0012097252 -0.013879837 -0.043171775 -0.0076284846 -0.017214168 -0.026487302 0.035311457 0.013512659 -0.0033384466 0.014934208 0.004756509 -0.0314369 0.026267601 0.025441956 0.043671124 0.03474459 0.026837848 -0.00936034 0.01100824 -0.0028205672 -0.042227447 0.026684966 0.027236331 -0.018354673 -0.01830868 -0.00029721958 -0.0038922403 0.010028447 -0.0344023 0.009940771 0.024620645 -0.0336248 -0.035417277 0.011693664 0.042669885 0.029644085 0.03735949 -0.019946132 0.021665802 -0.0418023 0.0002214448 0.013238283 -0.035266712 -0.02458355 0.01745948 0.011781203 -0.024033265 0.0045933058 0.024914356 0.02239773 -0.040294945 -0.040565003 -0.035622474 0.042693444 0.013955648 0.028816754 -0.019272774 -0.0071642105 0.041298874 0.02597701 0.03426516 -0.013996457 -0.00090841734 0.037330184 0.014236747 0.011154137 -0.03712921 0.028900495 0.017708825 0.0027394292 0.000860607 0.01203607 -0.036885403 -0.013179741 -0.041893836 -0.017468136 0.027989537 -0.021542033 0.042056136 -0.009981965 -0.023245703 0.023656663 -0.01032407 0.03984609 0.019294048 -0.0071692104 -0.040410392 -0.013450529 0.031051053 -0.0050390824 0.017173292 -0.014199384 -0.014556051 0.037987042 0.041835282 0.0041992012 -0.024805438 -0.0013017581 0.03129925 0.0074129193 0.011856219 0.0076271147 0.0242818 0.004613942 -0.015643429 -0.015761925 -0.036342528 -0.018596306 -0.024735289 -0.03401297 -0.003179595 -0.034513026 0.020845462 -0.002814045 0.01635803 -0.023295237 0.041855387 0.02610923 -0.009041927 -0.01376367 0.040161926 0.035601713 -0.009906237 -0.018396968 0.01382946 -0.005956045 -0.031821735 -0.034661826 0.0054093422 0.019107642 -0.0043999623 -0.0150041515 0.011660932 -0.008997072 -0.00017923473 0.00074600446 0.03658703 0.025463535 -0.025634293 0.025737384 -0.01013294 0.026006443 0.0146410195 -0.007712789 0.026918117 -0.04388201 0.019400163 -0.0395423 -0.014413953 0.032475386 -0.010011404 0.02559626 0.039559375 0.036281876 0.017220126 -0.03136789 0.026544396 0.031890813 0.004760924 -0.0042264173 -0.026233252 0.041755155 0.0015291509 -0.011853959 0.041393653 0.037752476 -0.025730478 0.020139528 0.03861638 0.009201773 0.008494381 0.021194817 -0.012738795 0.03932 -0.042059146 -0.019353554 0.025236731 -0.011669292 0.015700001 0.01041789 -0.036762916 0.033671044 -0.003683408 -0.019256879 0.029130705 -0.034155436 0.03843992 0.043324083 0.027232721 -0.0108093545 -0.031595122 -0.02319723 0.009826495 0.038311694 0.023383498 -0.033283886 -0.022311846 -0.029988093 0.017033765 0.037804436 -0.026081566 0.041787382 0.00810761 0.015349898 -0.04395679 -0.020871466 -0.021350835 0.023989838 0.030116983 -0.0041119624 -0.0044958834 0.017283015 -0.025814185 -0.04270672 0.002553119 -0.008550974 -0.029961504 -0.030795548 0.031368896 -0.039096165 -0.009364603 0.0145170335 -0.0065576755 0.020648105 0.0053599887 0.0021314188 -0.021972606 -0.016841738 0.0356656 0.0061893384 0.038801137 0.018398069 -0.022732688 0.00997255 -0.014645345 0.033960912 0.030032748 0.04389207 -0.038982358 -0.0015780886 0.010718122 0.021507304 -0.01943671 0.026552366 -0.016827587 -0.016550045 -0.023915697 0.007436411 0.017393772 -0.03183517 -0.030199882 0.039085664 0.017997436 0.0035026348 0.031825755 -0.03860056 0.005718121 -0.023632517 -0.0025063572 -0.008732132 -0.022901643 -0.015271009 -0.032550562 -0.029381659 -0.041220233 -0.017841114 0.005810591 -0.031358335 -0.014296348 -0.008240526 -0.026680946 -0.0003422166 0.018329354 0.002089077 0.04119378 0.03746209 0.014369641 0.032491043 -0.003226531 -0.0014533286 -0.021647032 0.025615146 -0.022735085 -0.023247268 0.02204698 -0.01543535 -0.01886025 0.013368469 0.044022344 -0.028275773 0.0369047 -0.01467628 -0.0073658098 -0.011697768 0.042626835 0.009735142 -0.015466576 -0.020191528 -0.0036753053 -0.008846576 -0.030611409 -0.029272677 0.0050476645 0.024600515 -0.03729985 -0.024594588 -0.0057690237 0.019247917 0.033350985 0.013195382 0.034738194 0.04035387 -0.03184152 -0.030415667 -0.0064274366 -0.0426237 -0.0029285157 0.023128688 -0.03829579 0.015205371 -0.009420342 0.026247999 0.031115638 0.040204346 -0.03274066 0.010142961 -0.031032981 0.03643571 0.0062131197 0.029601738 0.016047396 -0.009506575 -0.0077268025 -0.021895066 -0.03220554 -0.036514632 -0.0055794893 0.040406622 0.039425872 0.0019113438 -0.009580626 -0.0024116796 0.02882012 0.03000875 0.0024726817 0.024308648 0.04214473 -0.032604642 -0.016327215 0.022095969 0.011634216 -0.034773234 -0.041858472 0.022555191 -0.0003117023 0.031868316 -0.035196602 -0.043290425 -0.0012846992 0.04294326 -0.03261933 0.020573262 0.004464347 -0.02087605 -0.024720222 -0.02147333 -0.023815757 0.013199461 0.0424332 0.014149929 0.0159814 -0.025467033 -0.028511342 -0.013926683 0.007377795 0.03120414 0.013392751 -0.029204994 -0.006514533 -0.011352838 -0.017492723 -0.037496105 0.0062833363 -0.04247728 0.0123221 0.037003774 0.042982694 -0.023631353 0.039900426 -0.015783226 -0.008261394 0.016554117 -0.027203146 0.0367467 0.009052479 -0.015385222 0.0103588365 0.0070440657 -0.038309682 0.0071947514 -0.040990964 -0.028500173 -0.041552644 0.007175717 -0.015625337 0.027804218 -0.025502888 0.042311482 0.04290437 0.028828818 -0.027447771 0.0038226717 -0.000113733266 -0.025578722 0.023793349 0.02220041 -0.011418608 0.026767753 -0.02282068 0.041327894 0.02381748 -0.010024191 -0.03502351 -0.007638658 0.0071817595 0.021310931 0.006640115 0.01018104 0.0063095726 0.031464633 -0.01750054 0.0306548 -0.009281021 0.022253556 -0.01879055 -0.036279153 -0.028684149 0.033063695 0.036965605 -0.01815622 0.013356942 -0.010819301 -0.0139458915 -0.0052835657 0.01094668 0.042972833 0.030760033 0.011184852 -0.005682101 0.027564533 0.038286574 -0.033684336 -0.0041786702 0.033264514 0.033339452 0.013424256 0.03156415 -0.025424348 -0.014959428 -0.02974163 0.027249364 0.025432736 0.03357742 0.014027245 0.029001066 0.028864495 -0.041181643 -0.035357956 -0.0047021606 0.024481993 -0.013981474 -0.005110669 0.021135174 -0.0044092503 0.042957857 0.005738536 0.011365235 -0.036193136 -0.020858133 -0.0003722357 0.028232541 -0.03469107 0.024766168 -0.02557564 0.013427907 0.03006195 0.0037224465 0.036220215 0.035602085 0.002336321 0.015682505 0.039759673 -0.02124571 0.039770324 -0.019208847 0.0014311436 0.036355328 -0.03837779 0.028506089 -0.03511286 0.030940965 0.01965542 -0.022165934 0.042124636 0.014331177 -0.025922757 -0.02409139 0.041281335 0.031181818 -0.013022992 -0.0274069 0.0044569555 0.013994719 0.029390335 0.02079749 -0.030717239 0.010483412 0.029762128 0.04164663 -0.043442246 0.03534237 -0.04123654 0.005350563 0.020419253 0.03351417 0.023637848 -0.024151571 -0.02161793 0.039449785 -0.008656741 0.03360866 0.022601984 -0.015283427 0.0051649855 -0.012395062 -0.02548433 0.029387312 0.00658702 0.038304135 -0.02911991 -0.027140725 -0.008899866 0.0027270329 -0.02812426 0.014314171 0.001126306 0.016519636 -0.014831681 0.012192704 0.006081379 0.037316132 -0.03335835 -0.034686077 0.016093152 -0.03658001 0.036341015 0.029777711 -0.004813623 0.038779013 0.008540406 0.00032996768 0.0023319377 0.009569036 0.022926362 0.020124203 0.029398438 0.017291972 -0.0016528624 0.023146238 -0.024773901 0.026513396 -0.005989636 -0.019828685 0.024530634 -0.014614599 0.024014398 -0.019285955 0.035709012 0.0063596694 0.013235965 -0.03932638 -0.0060751047 0.01804529 -0.024342945 -0.020642767 0.04010286 -0.033619136 -0.010549609 -0.020535966 0.021034205 0.03832532 -0.0039179027 -0.0022765936 0.03681785 -0.038758866 0.030606762 0.011837848 0.02451973 0.0053234315 -0.016976628 -0.010391263 0.03905678 -0.033850603 0.042137817 0.02072745 -0.030448733 -0.006784515 0.003410739 -0.028246254 -0.03600469 0.03820539 0.008743127 -0.01843667 0.033023413 -0.0034566948 -0.023930017 -0.0134026185 -0.040787168 0.0030930676 0.03247426 -0.0047994354 -0.021543376 0.00763968 -0.032170262 -0.0382346 -0.036557842 -0.022955444 -0.04039968 0.042826675 0.03234058 0.029405145 -0.01469089 0.0427258 0.004816884 0.020891001 0.03170346 0.013656643 -0.020659832 0.017139832 -0.01266772 -0.01183679 -0.031318057 0.0267938 0.03761407 -0.011193228 0.016610136 0.017922662 0.037102904 -0.036623884 0.02188403 0.025184464 -0.008729176 0.03885035 0.012079118 0.004255425 0.029346682 0.008743748 -0.022605684 -0.0029461016 -0.0012379214 0.013763427 -0.01793548 0.01602335 -0.019519353 -0.03125872 0.00535069 0.03572639 -0.018604456 -0.03486166 -0.028264882 0.0055491226 -0.027674148 0.03399398 0.022336954 0.016547132 -0.030076433 -0.0345847 0.027537966 -0.010225221 -0.0145144 -0.00022168188 0.020342877 -0.010033184 -0.040860835 0.015633577 -0.0182055 0.021485867 0.038658686 0.024309833 0.00616826 0.039653946 -0.024131326 0.035902 0.013770376 0.038642727 -0.003283466 0.018823262 -0.02114834 -0.037208892 -0.000107911736 0.036368158 -0.034170445 -0.0031172915 -0.037208427 0.010739175 0.006587916 -0.016839562 0.018571218 0.019893654 -0.03014615 0.031024052 0.024103109 -0.030465627 -0.025082417 0.0065962505 0.019202014 0.0070018508 0.015934417 -0.010361075 -0.038469914 -0.017681256 -0.030194396 0.026952593 0.04366888 -0.036855094 -0.021157475 -0.033633232 -0.0061216345 0.008905634 -0.040974323 -0.0385911 -0.005359862 -0.018289246 -0.030437548 -0.0092274835 0.019773437 -0.036359973 0.035774354 0.028839413 -0.027791379 0.010087875 -0.041900024 -0.04151863 -0.0020249137 -0.005672365 0.043037515 -0.018308364 -0.007874164 0.03630263 0.008828052 0.0148938475 0.04034407 -0.013239663 0.016127797 0.03601268 -0.0187235 -0.031066278 0.041290708 -0.022944016 0.030244414 0.027737157 0.014450194 -0.009080075 -0.007465118 0.0046911705 0.026201036 -0.008014686 0.005915289 0.029230656 0.034792535 -0.016556183 -0.01621914 0.03420974 -0.014764721 -0.035129324 0.035728004 0.039067294 -0.023945779 -0.03402412 -0.015783768 -0.041243523 0.031282466 0.04309153 0.04301734 0.03651409 0.012746792 0.005328979 0.010470394 0.010092305 0.001984163 -0.023837794 -0.029555677 -0.012443588 -0.04150139 0.0071173753 0.000539801 0.029959349 0.009492988 -0.013138173 0.03920012 -0.011204966 -0.011278723 -0.025043072 0.0062668147 0.028365266 0.024042958 0.007608454 0.043621693 -0.014702074 0.029814295 -0.0035936984 -0.014198557 0.024239274 0.04299437 -0.019983532 -0.0042333454 0.013667564 -0.02252392 -0.043266755 -0.027222838 -0.025113046 0.0025062095 0.023674885 0.021918241 0.03060997 -0.032703336 0.0030867613 0.013198543 0.013180921 -0.035483077 -0.024119308 0.030928932 0.042361867 0.03508954 -0.010696333 0.0014319286 0.021977521 -0.01517129 0.02914858 0.02815756 0.019512484 -0.033889502 0.020787537 0.03430183 -0.0141243255 -0.040244922 -0.0075977384 -0.01326237 -0.0059931395 0.0024043513 0.0065063774 0.014694124 -0.038405035 0.006816847 0.0417665 0.025546795 0.00035084615 -0.02855067 0.025867965 0.010378192 0.018367175 0.029732995 -0.016077958 0.025255587 -0.011990262 -0.030039692 -0.017376708 -0.0227885 0.037957534 -0.026472287 -0.031058835 0.0025202655 0.026674135 -0.012725999 -0.02568758 0.014168912 0.0071097678 0.010677682 0.0075252247 0.043407243 -0.009280315 0.0012829659 -0.0037938117 -0.017912284 -0.017831083 -0.03839022 -0.034912266 0.015089836 -0.027169222 0.004506541 0.004293415 -0.0192135 0.025424639 0.0077460636 -0.0017372773 0.0291639 -0.019378604 0.034148235 0.02459054 0.0025346694 -0.034688015 0.0064140866 0.037031088 -0.0010885741 0.04019871 -0.035395987 -0.03708186 0.038586266 -0.033800393 -0.026332255 0.011779354 -0.024188334 -0.042002022 0.025442287 -0.03177903 -0.028391197 0.041950084 -0.016113725 -0.023650661 0.01191435 -0.0071630045 -0.006626438 -0.019743396 -0.015595271 0.025021214 -0.0022441826 -0.016116822 0.04035621 -0.023982773 -0.020725286 -0.018333526 0.014298139 -0.00841082 0.010704751 0.010335614 0.017859085 0.019410525 -0.034154445 -0.002172633 0.022481445 -0.026904467 -0.014769141 -0.010251404 0.0148019465 -0.006701586 -0.022893183 0.041970253 0.029455272 0.004248618 