-0.017576097 -0.001775369 0.0056145163 0.012440435 0.0022099048 0.017775685 -0.015628863 0.0056800544 0.004359457 0.016417611 -0.011726573 0.011494005 -0.024399936 -0.018787295 -0.019806182 0.0062793824 -0.012380594 0.006985241 -0.0019022704 -0.0029850274 -0.016574278 0.019680364 -0.021511957 -0.0006028325 0.022677852 -0.012438402 0.008074856 -0.0075388104 -0.0033095868 0.010858864 -0.0041630864 -0.011741275 -0.013245798 0.0052898824 0.01547839 -0.018434888 -0.0038588406 -0.0017719448 0.00839656 -0.007078409 0.001190436 9.8806624e-05 0.008305514 0.0032271266 0.0006747455 -0.0140503915 0.023211021 -0.023557788 0.0018935651 0.011106098 0.01861844 -0.00065420865 0.021833835 0.016607866 -0.015818179 -0.005485347 -0.024306405 0.0054075005 0.017330274 0.01628193 0.015406487 0.023253685 -0.01637623 0.007421896 0.00095656514 -0.017972395 -0.013926956 -0.012184423 -0.015711421 -0.0058877203 -0.00555532 -0.002409029 -0.007714665 -0.024640253 -0.01576888 -0.021139327 0.009944806 -0.022960363 -0.0169193 0.017636335 0.0057492317 0.0022171647 0.023414066 0.0012581199 -0.011117694 -0.024657384 -0.017553711 -0.0018821091 0.01265077 0.011780742 -0.015568641 0.005550915 -0.024162246 -0.006915307 -0.018003238 0.007604906 0.02108997 0.012022734 -0.007580033 -0.020025095 0.008734465 -0.019299695 -0.0035645366 -0.014061132 0.0027441562 -0.013270507 0.002742672 -0.016889697 0.0006284386 0.0037120997 -0.012468851 0.016763657 -0.0002373308 -0.018873319 -0.00012488365 -0.011395645 0.017403385 0.017854942 -0.023334105 0.015136394 0.009398234 0.007210529 0.0050458284 -0.01796486 0.011299294 -0.014582521 0.024198247 -0.0032907426 