0.014156401 -0.029547056 0.023018554 -0.024450755 -0.022543147 0.024516623 0.0052697016 -0.03314553 -0.013649195 -0.030725166 0.041208714 -0.039890405 -0.0028438817 0.025108427 0.019709071 0.023561966 0.04058215 -0.007940954 -0.009355351 0.005917485 -0.011044443 -0.008563787 -0.024145152 6.478529e-05 0.00979581 -0.024859836 -0.040567197 -0.022899311 -0.010688797 -0.007851815 0.0350231 -0.009860913 0.02066578 0.041324016 -0.026785135 -0.025030568 -0.020610308 -0.015971756 -0.0047066114 -0.017399928 -0.01627488 -0.017516118 -0.028774261 -0.011721666 -0.0016554743 -0.0073572746 -0.005493745 0.036636755 0.011338234 -0.040936854 -0.029841026 -0.008353949 -0.019120147 -0.03608508 0.01629531 -0.0048172227 0.018854653 0.005481775 0.006242767 -0.026031112 -0.018941417 -0.016833529 0.026405513 -0.040041603 -0.037602127 0.021627828 0.035668425 -0.0039628996 -0.0023462425 -0.0033458918 0.026138028 -0.026841989 0.0049838126 0.04124632 -0.023189744 0.014563685 0.014993912 0.037745234 0.02475357 -0.011922291 -0.02644299 0.03650353 -0.0040282807 0.030304909 -0.03874083 0.03317076 0.006412412 -0.013634002 0.028945208 0.004700209 -0.0036884747 0.020481896 0.022106221 -0.028739577 0.007877275 -0.0039772443 0.0110669285 -0.0007568101 -0.02219845 0.025328856 -0.021526348 -0.0389716 0.011046529 0.025540423 -0.011702578 0.005914157 -0.038005985 -0.031675056 -0.033213235 -0.033984482 0.00921311 0.009008691 0.037226252 0.003392905 -0.008082206 0.011979818 -0.010520076 -0.028129961 -0.02795135 -0.018255671 -0.01672868 0.0088044405 -0.030579647 0.03607949 0.0031708977 0.012802492 0.028786665 -0.028688734 -0.008763085 -0.011558643 -0.012430996 -0.0031204473 0.031023866 -0.00635091 -0.040689543 -0.009088919 0.032681104 -0.03740138 -0.022128712 -0.04108992 0.00838761 0.025610184 0.012351985 -0.030812025 -0.012085672 -0.036433704 0.00016406178 -0.004983321 0.005164375 -0.03840407 0.014339348 0.014941628 0.0021994114 0.035464987 -0.01577284 0.030879479 0.039591238 -0.019613057 -0.012873879 -0.009135704 -0.018519696 0.010738015 -0.0037061772 -0.011661599 0.015801033 -0.035648666 0.007126848 -0.02057096 -0.010601401 0.028032776 0.02286177 -0.0033563427 -0.017393883 0.0334381 -0.038390484 0.0403364 0.024348494 -0.041569583 0.040006556 0.008047154 -0.040027183 -0.0061015687 -0.0068407906 0.015919518 -0.01550681 -0.03631952 -0.00027436516 0.038441494 -0.015919548 -0.030654516 -0.010092229 0.00018393001 -0.024351394 0.012197837 -0.029181963 -0.011071876 -0.0011304419 0.018542375 0.01852779 -0.036095038 -0.028121512 -0.031647578 0.0066569895 -0.01715359 -0.006992534 0.034799382 -0.021237155 0.024862811 -0.037073817 -0.026514 -0.014295539 -0.010126571 0.040491648 -0.04030788 0.03473423 -0.021892115 -0.028515851 -0.0024404577 0.032557096 0.0052040815 -0.036151838 -0.02272681 -0.03410057 -0.0028915952 -0.01303413 -0.028468078 -0.00023091337 -0.009363046 -0.0021238178 0.029197967 0.025058612 0.0026221774 -0.027721822 0.041527838 -0.03277795 -0.026693514 0.03171388 0.03261996 -0.032021534 -0.03661762 0.009277116 -0.0024576238 -0.0009167145 -0.013798788 0.020946007 -0.02650651 -0.026209027 -0.028806325 -0.04079021 0.018897116 0.02236545 -0.0006656746 -0.02423661 0.009657155 -0.02770265 0.022476878 -0.018568695 -0.028812071 0.020537239 -0.026966423 -0.016450584 0.028305467 0.018428385 -0.03434722 0.0018950602 -0.040799722 0.014235055 -0.02930386 -0.019386604 0.004998684 0.03921744 -0.018047785 -0.013483634 -0.033299696 -0.019075766 -0.021814257 0.033910483 0.034043726 0.03169708 0.037144274 -0.034726277 0.010032928 -0.0048822016 -0.02240014 0.00037429234 -0.0023806642 0.028692221 -0.0034608743 0.03088586 0.016093384 -0.027381167 -0.022983622 -0.01901044 0.03535252 -0.0133199245 0.02628391 0.020408303 0.026566248 0.029432233 -0.0353819 0.034992825 -0.034477778 -0.032029845 -0.0049850745 0.009226128 -0.016127076 -0.031148996 -0.008385142 0.020527309 -0.015669689 0.02196085 -0.012070125 0.034993466 0.027696606 -0.029280063 -0.03342995 0.04038026 0.013173049 -0.031497102 0.009956902 -0.01786597 -0.01220577 -0.026445325 -0.015231967 -0.03660614 -0.020457253 -0.026840623 -0.022461161 -0.029809684 0.022078853 0.005904585 0.03411425 -0.027128637 -0.022853624 0.038011335 -0.041525014 0.008995667 -0.0074583096 0.014615829 0.030698305 -0.033175863 0.039897166 -0.032302305 -0.0026325088 -0.0024662465 0.0049444935 0.004354045 -0.0011916261 -0.03071411 0.041096002 0.00087914866 -0.018524256 0.025776759 0.024436489 -0.008369019 0.020131707 -0.02739438 0.02909857 0.023973053 -0.039299484 0.0017109762 -0.028770547 0.0077653183 -0.01313218 0.010387848 -0.0033895425 -0.023836797 0.016508337 -0.013706541 -0.032680288 -0.011878148 0.0059107346 -0.036678687 -0.0040174923 -0.025169864 -0.00017584364 -0.036160924 0.016080976 -0.032268688 -0.022654697 -0.013661708 0.009478077 0.033823475 0.0070940806 -0.03180086 0.004315108 -0.010761395 0.03719845 0.027549874 -0.033905104 -0.027015686 -0.027430981 -0.009858991 -0.011294435 0.008243258 -0.027130842 0.03317229 0.024023663 0.019161418 0.011943346 0.040155333 -0.029352402 -0.0045536757 -0.033084136 0.015106505 0.038835436 0.019745346 -0.041515928 0.024208551 0.039995737 -0.010504574 -0.005763407 -0.03924495 -0.032812532 0.011271691 0.011934276 -0.00067181885 -0.03985604 -0.012789607 0.023699652 -0.023583582 -0.004671832 0.01678056 -0.012046139 0.020952296 0.03165182 0.0066711954 0.009326369 -0.024981067 0.028549736 0.010267517 0.026033595 0.032787792 0.016471332 -0.018428793 0.021620851 -0.018138781 -0.031772725 -0.0005270144 0.0070413454 0.0055792085 -0.013796484 0.025266122 -0.0148866875 0.004579599 -0.032575175 -0.009701367 0.039635476 -0.00571541 0.0072561353 0.011097109 -0.032344006 0.0036550364 0.00749742 0.027047431 -0.00014321506 -0.03728413 0.0135764135 0.0041375062 -0.006809076 -0.02079758 0.035015345 -0.0005941441 -0.024916396 0.026134696 0.011226028 0.01913946 0.032569133 0.028889533 -0.009143725 -0.009964134 -0.021178301 0.008465221 0.0067546717 0.010440911 0.015243441 0.016444772 0.038203105 -0.040777814 0.0074349297 -0.013546377 -0.027916327 0.021693975 -0.02304469 -0.018549707 0.0047373027 0.014807081 0.0061543635 -0.0026940256 0.022449752 -0.034466937 0.006679292 0.0027762852 0.023942983 0.032304168 0.00046522915 -0.0052431626 -0.021802038 -0.038588353 -0.028056866 -0.039446026 0.012259225 -0.015641537 -0.023762416 0.018236687 0.0044097505 0.03472939 -0.033941742 -0.015088087 -0.040658694 -0.039606445 -0.01222464 0.038034253 -0.014279589 0.035690065 -0.0060198708 -0.012338857 -0.02277945 -0.03202812 0.016188448 -0.01066336 -0.030113246 0.0021177232 0.0018950701 -0.023806965 -0.0028253696 -0.015568833 -0.0411496 -0.040988322 0.012409493 -0.009315491 -0.040125303 0.035343654 0.037355 0.022152584 -0.02746154 0.013435796 -0.021079183 -0.017644515 0.008590242 0.031057075 0.0044700457 -0.0117370095 -0.03335252 0.020347636 0.013393919 0.0026096255 0.012794843 -0.016507333 -0.0045143864 0.017093867 -0.0045517734 -0.029067662 0.029160103 0.0295554 -0.008485138 -0.013128514 -0.0019313296 -0.027710393 -0.02059876 0.025394311 -0.014982562 0.01576769 -0.032491162 0.02285727 -0.023186391 -0.030029302 0.0033919364 0.039394703 0.02263265 0.015134349 0.016236251 0.019607648 0.0016186337 -0.021135326 0.034537878 -0.012688622 -0.0140475035 0.027754128 0.0034555644 0.001920566 0.025433457 0.026553746 0.01931278 -0.036963265 0.029260114 0.0040734364 -0.003872355 -0.018377379 0.008903052 0.033484317 -0.002880305 0.0046067587 0.017915353 0.028558573 0.018994957 -0.015042394 0.0069043143 -0.022096574 -0.026480958 0.009926578 0.01809309 0.029759636 0.013396546 0.014448663 0.012643328 -0.0058385334 0.034218054 0.039085045 0.02387702 0.024975067 -0.011023706 0.02032156 -0.037415244 -0.012674635 -0.013315311 -0.00474526 -0.0308091 -0.0021978866 0.038982816 -0.029532721 0.010795708 0.0148259355 0.03172804 -0.0055475337 -0.021302715 -0.030920204 0.004110093 0.0038370788 0.038039222 0.028434446 0.0210359 0.0042502186 -0.018041214 -0.021699756 -0.03617078 -0.035865396 0.022354936 -0.038506344 -0.011105016 0.03291771 0.028013911 0.015374815 0.004830003 -0.017150909 -0.0399552 0.03951791 -0.039483078 -0.034568407 -0.04096764 -0.02251197 -0.033965044 0.022939082 -0.03451836 -0.0247132 0.032581653 0.0074269027 0.028915253 0.026303902 0.037033245 -0.015455237 -0.03495049 0.009762531 0.02382442 -0.01185977 0.039097816 0.026131522 0.026679631 0.010171086 -0.01885448 -0.03087008 -0.001713857 0.03496422 0.038555145 -0.002309566 -0.038463205 0.035671454 0.0022374492 -0.035173368 0.03827196 -0.024637973 -0.020199459 0.026820645 0.015163402 -0.022646269 0.022683367 0.022437107 -0.022421524 0.012092402 -0.035437003 -0.016905379 0.02656605 -0.00038172802 -0.000101978585 0.025063088 -0.032515608 0.037408315 0.012997866 0.020466547 -0.029012874 0.01922753 -0.039207898 0.01912418 0.009736603 0.025264865 -0.035022214 0.015910834 0.0021080724 0.04095901 0.016017666 -0.02514705 -0.009730334 0.008128917 -0.03600391 -0.0005646199 -0.0033349942 -0.027488705 -0.033558726 -0.007840152 -0.022665396 -0.009905806 0.027077025 0.012098074 -0.008779655 0.02218699 0.035656303 -0.0019551665 0.035250694 -0.013859108 0.0018813859 -0.0042712046 -0.013346732 0.0019666057 0.038854346 0.014713923 -0.00014591715 0.037046537 0.012736028 -0.04109524 0.010723567 -0.00038080913 0.031074017 -0.019034272 -0.03197463 0.012786637 -0.025185075 -0.029000059 0.013801585 -0.022561809 0.009709751 0.035953876 0.041202154 0.03322085 0.034337595 0.034397654 -0.025127282 -0.008538937 0.040597435 -0.009036998 -0.009646833 0.0014952868 0.027959868 -0.0069612763 -0.02446505 0.041168313 0.033360057 0.010005757 0.013451621 -0.007282461 -0.020633772 -0.040336803 0.034015473 -0.007676835 0.0017603785 0.031926326 -0.021544745 0.0401475 0.04156704 0.023241278 -0.0375133 -0.025472652 0.021544442 -0.003041948 0.03746503 -0.040386386 -0.03269033 0.041659072 0.012543654 0.027375966 0.029190516 -0.0054329736 -0.032980204 -0.037672948 -0.027716517 -0.00083411735 -0.03944693 -0.0002159079 -0.030667191 -0.019447029 0.029810484 -0.009448022 0.027398523 0.013340464 -0.00011743109 -0.03251011 -0.00027650595 -0.032286897 0.030800503 -0.036283784 0.03296157 -0.038304903 0.035503536 -0.027955174 0.024612373 -0.011380032 0.035946336 0.041479286 -0.039347842 -0.04002164 -0.007904823 0.004043281 0.03687252 -0.034271654 0.013500338 0.027470743 -0.0083574755 -0.023591131 -0.01600945 -0.030430278 -0.03239895 0.0016180178 0.0031790636 -0.0240805 -0.009399846 0.024036821 -0.016370188 0.033689022 -0.018547809 -0.01957277 0.030633643 -0.04126689 0.004741803 0.03620422 0.009695491 -0.005455668 0.025262117 -0.007247056 0.030656647 -0.035522692 -0.037735924 -0.024319734 -0.010584056 -0.009639691 0.00078963244 -0.008021712 -0.0045167706 0.00705419 -0.005651792 -0.017161816 0.010185659 0.01721209 -0.027905872 0.0030767024 -0.019115727 -0.01729115 0.037788674 -0.017717248 -0.037851423 -0.014840951 0.0154457195 -0.021651646 0.011511977 0.00189056 0.00021424393 -0.033767663 0.023131808 -0.014180129 -0.008508623 0.021162068 -0.012518888 0.013877591 0.0011725824 -0.0060019842 0.030779108 0.040017735 -0.004878546 0.0029486567 0.02578957 -0.004477322 -0.011413664 0.014366448 -0.004427185 -0.012340834 -0.01323847 -0.03875386 0.021219444 -0.019205645 -0.03042844 -0.017076608 -0.02384251 -0.022779431 -0.025302982 0.019415244 0.038850754 -0.0006727576 0.027835852 0.0008814335 -0.02768698 -0.029163217 -0.026241124 -0.009385745 0.020774856 0.027871426 -0.006868621 -0.026204523 -0.02703908 -0.005405615 0.029537644 -0.013396591 0.014894089 -0.029743602 0.01329955 0.03692868 0.016545143 -0.014398545 0.021469926 0.017197415 -0.036584787 0.007902762 -0.014441535 0.0069506867 -0.0045637987 -0.038414747 -0.03054978 -0.039712086 -0.041569527 -0.021374062 0.010367379 0.027680919 0.011426315 0.0007196019 -0.037678447 0.026928967 0.02565531 -0.0312919 -0.041030273 -0.024052497 0.027311202 0.016403383 -0.0101101305 -0.0060251057 0.004227852 -0.032385446 -0.010597627 -0.0012564908 0.014876868 -0.028191816 0.006171947 -0.034519084 0.02299438 -0.03351154 0.0314808 0.03828346 -0.040226012 -0.03561635 -0.03714616 0.021173745 0.0366916 -0.02322267 -0.0010729383 0.008342108 -0.041056123 -0.020800322 0.02971757 0.029641032 0.029631417 0.027995374 -0.024846405 -0.010120293 0.03221704 -0.009799401 -0.008605565 0.00889953 -0.029034197 0.035824187 0.0032929878 -0.041505497 0.028458899 0.020273766 0.020451387 -0.023403903 0.036104858 0.005736679 0.038189225 -0.0033976685 0.019207597 -0.017373135 -0.02119117 -0.0026041567 0.024132773 -0.005423536 0.02615866 0.0193504 -0.021545839 0.031454034 0.0174683 -0.036167257 0.013077533 -0.030878585 0.0071273944 0.004684235 -0.030276915 -0.02577592 -0.03487213 -0.03319501 -0.02649587 -0.0031935275 -0.021767175 0.039888963 -0.0035622865 -0.0118487235 -0.033965662 0.029771915 -0.0005336106 0.019602131 0.03247912 -0.023192277 0.025740063 0.024756696 -0.010092477 0.027611306 0.00615263 -0.0057004243 -0.031683445 -0.029253453 0.0018206041 0.00029327473 -0.039521985 -0.010378888 0.02486167 -0.015422016 0.013051803 0.013660337 -0.02837738 -0.021410277 0.023843577 -0.03578314 -0.022457015 0.0163865 -0.014218658 -0.017973602 0.0072460724 0.008387849 0.013633614 -0.040400863 0.006362076 -0.017754203 -0.0003459851 -0.017711502 0.034295753 0.023741543 0.021358466 -0.0071620895 0.034187384 -0.008719753 0.00056641304 -0.03920363 -0.0011700939 0.007497256 0.039180465 -0.007833814 -0.033703085 -0.03101427 -0.013702577 -0.020937612 -0.021870013 -0.040301636 0.017887026 -0.010702824 0.03476016 -0.033955455 0.014353852 -0.041099556 -0.012628749 -0.019791692 0.029197033 -0.008436541 -0.0065861046 -0.021172887 -0.019858187 0.0015717795 0.0024058125 -0.0021957308 0.020006135 -0.014805133 -0.039165836 0.014012784 0.023881858 0.036761742 0.007310301 -0.01103732 0.021562561 -0.023014084 -0.02402544 0.009719755 -0.01720227 -0.0019643507 0.03407564 0.0022945057 -0.037524723 -0.03187772 -0.009391825 0.015576556 -0.024322461 0.028376326 0.023054436 0.0042977333 -0.0039015065 -0.01834472 -0.021310827 -0.016227528 0.009080763 0.029025849 -0.040476203 -0.010862997 -0.019904038 -0.0018536797 0.040017903 -0.038130373 0.037890937 0.03725227 -0.023140267 -0.019275874 0.031270962 -0.04048681 -0.021727681 0.034398235 -0.028937649 -0.010096451 -0.04144105 0.03280374 0.021968942 0.039148763 -0.016562864 -0.036190376 0.041102827 -0.011554435 0.00090373063 -0.019678548 0.024298817 0.03634587 0.022401646 0.0036817393 0.0061953664 0.026506301 -0.03460982 -0.020704981 -0.0003791402 0.040113658 0.033928297 0.023790902 0.0151539 -0.022506222 0.02339462 -0.0021575093 0.017114997 0.01673465 0.019415852 -0.036241766 0.005625407 0.039652325 0.020365914 0.037404805 0.0075131357 0.01651316 0.033440094 0.039915554 -0.011527876 0.0062213046 -0.0411636 -0.03781199 0.0074057234 -0.018151125 0.025610548 0.009699419 -0.02729958 0.015047073 0.03196658 -0.01611824 -0.028310329 0.021501666 -0.026511893 0.0062882556 -0.03971289 -0.030710205 0.018047672 -0.002828007 0.026938578 0.016107436 -0.0045953593 0.03894137 -0.037851375 -0.0076841665 -0.03832511 0.040424556 -0.01053753 -0.012872527 0.011895756 0.0134812 0.0219677 -0.0265304 -0.013709908 -0.03641069 -0.023647469 0.008927038 -0.017455187 -0.014591421 0.04012791 -0.026186964 0.026874095 -0.005197987 0.0037907413 -0.037328627 0.03966619 -0.007356271 0.018744301 -0.013950597 -0.005336702 0.035196256 -0.006728108 0.006401395 -0.036439568 -0.011653657 0.0067124865 0.0142508745 -0.0012137344 0.03062677 0.0053091897 0.03336244 0.0014345398 -0.040576708 0.0005275905 0.030400937 0.012867376 0.016514804 0.016750937 0.031092873 -0.018977504 -0.013369203 0.040054783 0.020345792 -0.007132858 0.023855856 -0.034403436 0.020851707 -0.030294746 -0.022368222 0.029288968 -0.0278171 0.014585754 0.008743803 0.025187355 -0.014280623 0.016887467 0.03470073 0.002831807 -0.008757889 0.037388917 0.012211333 0.02453737 -0.018669471 -0.021181574 0.03938739 -0.026527962 0.02841044 -0.03260387 -0.010388633 0.033239327 0.034540057 -0.014996564 0.0048944256 -0.023139074 -0.0012079775 -0.022002136 -0.006583497 0.036349174 -0.016882768 -0.035042226 -0.022196328 0.03692135 0.040524326 0.017135989 0.01949061 -0.02957895 0.025417304 0.022495788 0.009013544 0.0261399 0.010331422 -0.033401303 -0.008656169 -0.0158777 -0.024423396 -0.021661138 -0.039100632 0.017646288 -0.01067329 0.03788113 0.040414527 -0.028613862 -0.012045538 -0.01235044 0.034375697 0.03459485 -0.02953656 0.03920749 -0.03684163 0.03430561 -0.011031395 -0.022445247 0.037431598 -0.018106326 -0.03670677 -0.027081817 0.024277057 -0.022174727 -0.03927244 -0.015914768 0.041335013 -0.039762937 -0.021812648 -0.0058609946 0.03180399 0.0028919429 -0.009644136 -0.013248658 -0.04140375 0.0067331344 0.033399697 0.020943448 -0.01507844 -0.0008225342 0.016378036 0.022939315 0.020737078 0.018585538 0.04124893 -0.019261267 -0.019355591 -0.029179176 0.028440129 -0.0003920148 -0.031084066 0.04120452 -0.019676358 -0.029386878 0.020328235 -0.016703954 -0.0340586 -0.041040134 -0.034815162 -0.02617335 0.018562078 -0.03671264 0.023956534 -0.024490302 -0.012815143 0.02822344 0.01318198 0.026816126 -0.026064029 0.039154656 -0.03476817 0.017187104 -0.027031794 0.0060329093 -0.04128676 -0.03101176 0.010650541 0.018486869 0.040805772 0.026619276 -0.032479554 -0.032496065 0.017824095 0.03429725 -0.025945112 -0.015110061 -0.021441266 0.004309456 0.029065058 -0.011963194 -0.029679 -0.032934643 0.02945168 -0.0021200627 0.0038759063 -0.018659469 -0.033917036 0.01604411 -0.0041175783 0.0136543615 0.039873563 -0.028002292 0.0010201335 0.039099123 -0.025036763 -0.0046764463 0.019705743 -0.032503605 -0.009085348 0.01903533 0.024625551 0.0054305843 0.018338954 -0.013180013 -0.005210345 -0.010696119 0.008924967 -0.002223894 -0.011036461 0.00081807876 0.03978753 0.016109034 0.021419581 -0.0026929926 0.036418926 -0.019899756 -0.014934823 -0.025445506 0.018112123 0.012376612 0.010822873 0.0037855706 -0.0048281997 -0.01887843 -0.008604288 -0.0033413172 -0.0050168885 0.028476944 -0.025731977 -0.036835846 -0.010884027 -0.011019513 0.021756899 0.017761936 -0.018086469 0.037179105 -0.0035874895 0.030910125 0.0153176095 -0.0070591224 -0.03571474 0.024210464 -0.02982076 -0.041585755 0.031611912 0.036720604 -0.039223727 -0.027431807 0.0036219805 0.013707301 0.006888037 -0.026805004 -0.0041065766 0.025281157 -0.031316668 -0.009669563 0.018407088 -0.0082517415 -0.012749225 -0.0011077076 0.008779496 0.009590383 0.020727228 0.0072588525 0.039907433 0.013900007 0.0204487 0.011795282 -0.008109277 0.033643767 0.017751431 -0.030546611 0.027982837 -0.01777335 -0.03825561 -0.0070270896 0.009067982 0.03329867 0.014804567 0.0054286025 0.03994087 -0.036609158 0.03164811 -0.01953119 -0.035272084 0.0046224943 -0.019054374 0.0045184446 -0.025579628 0.04138991 -0.030960774 -0.013930242 -0.033188295 0.014110804 -0.016517987 0.03747892 0.041311473 -0.02767029 -0.008729896 -0.017758718 -0.0025212418 -0.0068836957 0.03854459 0.008020526 0.029916987 0.024889868 0.0062488317 0.0021548867 -0.00010873377 0.0007856488 -0.007079785 -0.038600273 -0.0061989278 0.00079808634 0.01758261 -0.03631903 0.012152573 -0.016920459 -0.032698706 0.009151807 -0.0027827173 -0.014671167 -0.039334074 0.04095316 0.022716027 0.0091616465 -0.007048627 0.03270104 -0.0150234755 0.030104369 -0.008131161 0.037143335 0.04063053 0.005441904 0.03604959 0.012055497 -0.015280103 0.03127558 0.007907337 -0.003424277 0.038978085 0.0038724344 -0.022509595 0.03113997 -0.03317076 -0.030214261 0.027651181 0.015480007 0.0030736725 -0.036506824 -0.04151329 -0.037090406 -0.028512027 -0.032417 -0.006195595 -0.03851883 -0.022058299 0.007169351 0.03262662 -0.0063263727 -0.0042205453 0.03241259 -0.025137376 0.011326755 0.033663563 0.038943574 -0.020483669 -0.040789783 0.011302948 0.019914886 -0.001433904 0.034894004 -0.003517469 -0.04160641 -0.015499145 -0.0034792374 -0.022596573 0.0060721687 -0.035004124 0.022591248 0.038090266 0.03824311 -0.02843227 0.039484482 0.03229585 -0.039944258 0.030842816 -0.016121682 -0.008234854 -0.04159903 -0.0311497 -0.031828105 0.029607138 0.01954417 0.0042200536 0.022212189 0.017670762 0.008344978 0.031125834 -0.029007938 -0.0042559505 0.022065695 -0.019535642 0.0104029775 0.004203613 0.006644875 -0.019619873 -0.02774105 -0.030068364 -0.00742501 -0.018168896 -0.038285658 -0.009026354 0.038275294 -0.02753143 -0.031977843 0.038405746 -0.04057383 0.032206964 -0.04085427 -0.017804936 0.004842396 0.029176747 0.038805287 0.020467734 -0.015642729 -0.01499646 -0.038328152 -0.010831237 0.0061581186 -0.019041449 0.017905802 0.03262944 0.035341006 -0.014744213 -0.02539964 -0.022739252 0.025558462 0.04103699 0.028182253 0.03797191 0.023122858 0.016452532 -0.02643317 -0.01629546 0.028683588 0.02824619 0.038947158 -0.008382037 0.012266597 -0.040353548 -0.033608656 -0.03642718 -0.018490627 0.022023242 -0.02852739 0.033872843 0.017061364 0.029450908 0.031333815 0.03339441 0.0034993044 -0.014935926 -0.0049169464 -0.015649509 -0.03549504 0.03631164 0.016781226 0.011072651 -0.003150652 0.030741861 -0.012404214 -0.010316039 -0.019904774 0.015785044 0.031194255 0.010760775 0.038626354 0.026194807 0.0022555194 -0.01224204 0.018483799 -0.024492448 0.031527594 -0.039956503 -0.013455193 0.014841169 -0.021049371 0.0072484612 0.04090455 -0.02632247 -0.0038748286 -0.03764253 -0.020505732 -0.016905924 -0.024880167 0.019162139 0.0125881685 0.00080312294 -0.0030653626 0.014204105 -0.011801481 -0.015052701 0.03996276 -0.040673614 -0.038324952 -0.027266448 -0.023778573 0.004459267 -0.027538836 -0.009486075 -0.032945067 -0.01944024 0.0034126192 -0.037149407 -0.03124322 -0.019396644 0.02266739 -0.016241565 -0.001843974 0.040972248 -0.038741365 -0.0017779022 0.0045303954 0.02762289 -0.022617802 0.029003587 -0.0048418194 0.0064274273 0.034438513 0.0326474 -0.0013229102 -0.040336873 0.0334716 0.0015681237 -0.014688959 0.011182259 -0.025782978 0.006357814 0.041413605 -0.008352673 0.026148558 -0.00175336 -0.02020296 0.01384912 -0.039219465 -0.011716942 -0.041446716 -0.028213367 0.011608656 -0.024453774 0.016839549 -0.017853355 0.014400607 0.0345951 -0.021287229 0.034885656 -0.030537114 0.0028815966 0.031654503 -0.008813247 -0.03439883 0.013662383 -0.0043583116 -0.038407005 0.019718751 -0.02843538 0.024228469 0.034232598 -0.005245954 0.021916613 0.020338353 -0.008311356 0.028970495 0.019304153 0.035086997 0.03754152 -0.025200289 -0.013022637 0.015938431 -0.0026156704 0.0010166119 0.010270482 -0.021087393 0.018530872 0.034634065 0.016726261 -0.02992717 -0.039111696 0.016371137 0.0052552475 -0.023887202 0.006605099 -0.040047985 -0.022313159 -0.003909941 -0.020298835 0.03493888 0.027367856 -0.014885361 -0.039914913 0.0022359788 0.029852306 0.028489357 -0.015127301 0.032320112 0.002984787 0.0030183992 0.009275223 -0.02870149 -0.007993123 -0.041412648 0.032727927 0.0027662914 0.00678356 0.007879759 -0.023828914 -0.035478637 -0.008164222 0.032923203 0.017489582 -0.0049738837 0.0003965348 -0.04125861 -0.032256782 0.011903599 0.0048812977 0.0074244193 -0.024076274 0.0014677793 0.020537 0.031797245 0.003983438 -0.015142749 0.03339486 0.017223373 -0.033287406 -0.030192733 0.030382752 0.015951555 -0.033680186 -0.037606776 0.027657088 0.01132681 -0.03199836 -0.017220154 0.00019549331 -0.02724753 -0.0141815245 0.023790296 0.021671101 -0.008340071 0.023725837 -0.009985631 -0.0034014038 -0.033178866 0.03850191 0.009871046 -0.03422032 -0.018886125 -0.014125536 0.022887861 0.017551392 -0.020561349 -0.030851152 0.03785824 -0.02882972 -0.020036956 0.02380607 -0.03810346 -0.04089236 0.022011753 0.021452567 0.01944608 0.019849673 0.0127624925 -0.00174508 0.01156573 0.01692078 0.01014113 -0.0001932631 0.00092942023 -0.041077044 0.03534861 0.036186382 0.016739976 -0.001877442 0.024756145 0.034503855 0.037965775 -0.008870354 -0.0216202 -0.0038722456 -0.008226162 0.033020776 -0.02631041 -0.04120493 -0.00075607 -0.00059591734 0.013185313 -0.030394241 -0.02564167 0.022420388 0.025262471 0.014363959 0.010638386 -0.0059699267 -0.03746528 -0.00524275 -0.012755866 -0.0038682919 -0.003779938 -0.035816696 0.0022062163 0.03391027 -0.010478502 -0.014991969 -0.028271046 -0.01742196 -0.014339189 0.016992137 0.017698374 -0.0052603832 -0.016042382 0.02586339 -0.034703642 0.015162185 0.024344292 -0.036338508 0.021649018 0.032839596 -0.012730852 -0.03508372 0.012559449 0.005082374 -0.02641809 0.01843673 0.018223396 -0.027238086 0.032150082 -0.039951064 0.005891199 0.0015745759 -0.022228196 0.023464277 0.015177434 -0.008986826 -0.0067603737 0.00801154 0.03880032 -0.005051638 -0.006524086 0.00044498345 -0.017604068 0.025593719 -0.029829185 0.014983391 0.011135603 0.0058293543 -0.038694613 0.033365123 0.0065143607 0.015657932 -0.0126977265 -0.02206277 -0.020230806 -0.007185772 -0.032237917 -0.018842852 0.008452515 0.005020703 0.029202204 0.027287077 0.041608945 0.00288034 -0.017397817 0.021113953 0.0122317225 -0.008395797 -0.028189197 0.0068067065 -0.002572318 -0.025406942 0.0074262125 -0.00922369 -0.00053570175 -0.034078848 -0.0315046 0.0015416841 -0.004995679 0.0103024095 -0.01783071 0.022454541 -0.024220135 0.024618974 0.015439048 -0.005234222 -0.040087204 -0.008149962 -0.019794852 -0.0018176734 0.018695261 -0.003731504 -0.018836752 -0.0138014555 0.004900684 0.008384749 -0.039734043 -0.02599832 -0.004559368 0.015346235 -0.017306045 -0.031466275 -0.025172021 -0.040042475 0.02951175 0.0059998436 -0.005519788 -0.02050606 0.025735747 0.032446496 -0.018967327 0.0028235863 0.006483972 0.0018724253 -0.022064433 0.026858564 0.0056484095 0.018081194 -0.0054375282 0.041343942 0.026724353 -0.032175925 0.001635477 -0.01471003 -0.036155965 0.0001386702 0.019753288 -0.011767536 0.020246169 -0.0004829566 0.032809846 0.02986911 0.024957296 -0.034807354 0.008698961 0.017109206 -0.02770096 -0.016516984 -0.01657262 -0.038619444 0.016610932 0.0353249 -0.01687571 -0.03986382 0.0034638296 0.01575197 0.03805682 0.040801227 0.03638854 0.009899383 -0.027583053 -0.03506159 0.009043048 0.03905366 0.025187772 -0.0021399509 -0.021267097 -0.029645246 0.020920854 0.03934192 0.01706407 -0.014616212 -0.0147578865 0.041239604 0.031232059 -0.0039214296 0.026115056 -0.020777738 0.031583153 0.03308864 -0.01645578 0.04037116 -0.035235904 0.02776825 -0.014078434 0.012492925 0.0054440945 0.031624116 0.027329868 0.011456942 0.025070786 -0.027411457 0.015399228 0.00044368207 -0.037330683 -0.018870842 0.023792317 -0.021976858 0.018579146 -0.0001491209 0.015574729 0.012240663 0.01505596 0.011654615 0.0162854 -0.02422316 -0.008619532 -0.0125796 -0.025125057 -0.02289413 -0.016964277 -0.02158923 -0.00024448833 0.039053492 0.0357308 0.038142428 -0.002594307 -0.032428633 -0.022162845 0.033847906 -0.019563869 -0.02396363 0.013259366 0.0050443364 0.024637666 0.006417965 0.011482328 0.007582476 0.008424699 0.010546222 -0.013532475 -0.000983124 0.022484284 0.015653074 -0.00697283 0.012830044 0.023695355 0.0012285262 -0.011170849 0.0073216213 0.013236622 -0.025544545 0.039067548 0.013844709 -0.0017356377 -0.01377144 -0.016285097 -0.010801077 0.019384976 0.017609572 0.01616938 0.03511569 -0.021596014 -0.021470463 0.024154535 -0.041621804 -0.0037156593 0.019063324 -0.031667247 0.015470138 -0.023440173 -0.01671504 -0.014517358 -0.023405155 0.038781118 0.03787307 0.035046726 -0.0045754216 0.018419236 0.00975434 -0.0091921 -0.03700859 -0.023811605 -0.004690697 -0.02583014 0.0016378611 0.027736604 -0.017739102 -0.036252927 -0.028275173 -0.005119577 -0.004829218 2.9310584e-05 -0.01597037 0.032561477 -0.015030837 -0.020751363 0.03864765 0.00050622225 0.02965274 0.041381866 -0.020392638 -0.027275776 -0.0034995675 0.027223637 0.03955617 0.025402498 0.036521435 0.00091611844 -0.0350959 -0.0073019965 0.033823065 0.037879072 0.02022488 -0.025720578 0.0059039346 -0.011825904 0.01768232 -0.010677969 -0.005620703 0.03028371 -0.015651982 0.0017572939 -0.0038247854 -0.025554096 0.037225522 -0.032658175 -0.036142297 -0.016520461 -0.009636383 0.006940718 0.020902798 -0.004761249 -0.041255277 0.03123421 -0.0027946085 -0.02532494 0.017294899 -0.02267845 0.00072303915 -0.021134987 -0.0023899078 -0.025089934 -0.037887633 0.021430805 -0.00052933895 -0.02289316 0.034837402 -0.03889219 0.008732557 -0.03681801 0.025096267 -0.0016594182 -0.03880337 -0.04030005 -0.026833773 -0.03254631 -0.020653114 -0.013534283 -0.0103948815 0.025411155 0.026797622 0.012858759 -0.022670612 -0.041237902 0.03703032 0.010291095 0.022813147 0.02121633 -0.0036153696 -0.0032254409 -0.013807824 0.0040935827 0.0007644395 0.013843447 0.029917276 -0.0026765715 0.029206883 -0.040756308 -0.0051881326 0.0046278834 -0.009192571 -0.017480716 0.038088974 0.02929613 -0.010112366 0.025690883 0.0039104177 0.025725394 0.041310754 0.028623497 0.0010062208 -0.03790447 0.019814184 0.023818608 -0.0008545965 -0.02406769 0.008100515 -0.009620458 -0.031587895 0.040529307 0.004360969 0.0022191158 0.016222268 -0.0028776727 -0.006171748 -0.041300215 0.007345339 0.034208797 -0.032349907 -0.014780666 -0.03217186 0.0018896759 0.023262685 -0.026303884 0.029860955 -0.03435598 -0.012004867 0.019221028 -0.029775213 0.0030936252 0.016134545 0.011721368 0.027746856 -0.012207812 0.009575998 0.031949442 0.029151773 -0.04045725 0.03495666 0.019523894 -0.033780456 -0.012858644 -0.02852261 -0.01224581 0.04109151 0.030554172 -0.020554498 -0.024780482 -0.03988686 -0.021136355 -0.020606762 0.009934625 -0.013740515 0.0021829556 -0.007779514 0.034479365 0.041282512 -0.023032805 -0.031586867 -0.037026435 -0.012763893 -0.0368244 0.018415129 0.023761287 -0.038639553 -0.014429058 0.035751842 -0.031795304 0.016370779 -0.01285554 0.03974604 0.017366787 -0.021167492 0.037348505 -0.026443701 0.03516672 0.016417202 0.0216699 0.033697143 0.04089202 -0.009550801 0.019602176 0.0149754435 0.018965572 -0.026602548 -0.023473646 0.033088252 -0.0019717466 0.00055051845 0.007684082 0.0386866 -0.0070133954 0.009573733 0.016453173 -0.022097876 0.014573023 -0.035722908 0.009200588 -0.012675042 -0.006218861 -0.021460852 -0.004512921 0.035970785 0.020240873 0.0044549755 -0.0050388975 -0.030532008 -0.01728881 -0.0320011 0.017554125 -0.0021794438 0.01135319 -0.028111279 0.016381245 -0.007761374 0.03918869 -0.0045430316 0.01195253 -0.034122687 0.038293034 -0.022324126 -0.027175512 -0.00204285 0.03730261 0.0032789807 0.014747242 0.011782398 -0.038902685 -0.022819173 -0.002982403 -0.03584446 -0.022821432 0.0017041117 -0.00810049 -0.038039483 0.016931634 -0.007812649 0.026610952 -0.022411495 -0.022506326 0.038723625 0.005614549 0.03224256 -0.037033033 -0.017509267 -0.024704412 -0.020105338 -0.007294203 -0.014466077 0.014332469 0.031054687 -0.021744099 0.028321203 -0.0383968 0.030918088 -0.011547993 -0.01972269 0.001513059 0.031463295 -0.0051246583 -0.0034930161 0.032735087 -0.029664516 -0.0161767 0.029452404 -0.02676422 0.0019238045 -0.030050566 0.0032848518 -0.007931963 -0.016004056 0.034941792 -0.032410022 -0.027269613 0.0416397 0.031061571 0.0065757036 -0.021291858 -0.026229352 -0.040500365 0.012469253 0.028940182 -0.019992337 -0.014978772 0.029461792 -0.01925492 -0.019429699 0.03826353 -0.022685602 0.024821764 0.036656998 -0.0037271879 0.030274048 -0.024337178 0.006805837 -0.03284633 -0.03667627 0.035235576 -0.0402175 0.01710489 0.011631797 -0.027788695 0.0026212733 0.021453336 -0.027224448 0.0013794055 0.030463075 -0.037886 0.0069194734 -0.016710237 0.02984118 -0.0041690073 -0.020547807 -0.041013353 0.014800459 0.00096474093 0.03889933 -0.03860096 -0.032680914 -0.003328244 -0.029866373 0.03720535 0.0011315247 0.028832491 0.014428298 0.02950583 -0.014542635 -0.009731105 -0.008654764 0.03292369 0.006358574 0.016550165 0.012827372 -0.0016851028 -0.035906296 0.03264242 -0.009726873 0.018994566 -0.034393515 -0.040998377 0.00604105 -0.027167693 0.03605893 -0.005304873 -0.022973564 -0.0019818197 -0.0052481145 0.011436349 -0.033725142 -0.0032691013 0.037676554 -0.023140714 0.024612144 -0.039423443 0.013128246 -0.011642183 0.009264211 -0.016666502 -0.04156468 0.0053263707 -0.017649855 -0.014338618 0.016247844 -0.022214299 0.01125288 -0.0014504492 -0.009201433 0.04026349 -0.015279899 0.0110125495 -0.017244339 0.00750274 -0.031940013 -0.040491275 -0.03508782 0.016621422 0.027211633 0.024265151 -0.036123723 0.010396789 -0.036430985 0.034528106 0.03997497 0.018233841 -0.005103926 0.039844804 -0.025988251 -0.019939547 -0.0057495534 8.0818936e-05 -0.03636057 -0.013135662 -0.02793461 0.026527097 0.0340178 0.0008440068 -0.011372398 -0.029590165 0.034769952 -0.018733924 -0.004522766 -0.036250334 0.02445973 -0.03379768 -0.018161407 0.038891118 -0.012129074 0.009661958 -0.03875903 -0.034273684 -0.034155883 -0.03571793 0.017368704 -0.011223778 0.002328823 -0.021363115 0.031254735 0.01188845 0.022547653 -0.011896725 0.029658776 -0.021728411 -0.013375094 0.031855673 0.014520561 0.015892815 -0.03244745 -0.009671236 0.020870209 -0.005929371 -0.033218216 -0.039852127 0.012079488 -0.0006799847 0.0010275146 0.032895267 0.030511256 -0.021436041 -0.029917752 0.012436768 -0.012403375 -0.0022409908 0.023921376 0.035916053 0.009518957 -0.036023807 -0.024467066 0.00037181377 -0.027190214 -0.020916402 -0.023433667 0.0004289051 -0.012293836 0.00615639 0.038943343 0.010455772 0.035185978 -0.015546551 -0.0063631586 0.0011432271 -0.03872239 -0.023944657 0.010502885 0.013954992 -0.040389534 0.033321105 0.006456266 0.03855051 0.015755406 0.005849749 -0.011125788 0.02036967 -0.04152847 -0.014311458 0.0028147798 0.035966467 0.029567163 -0.001299575 -0.018021807 0.041633304 -0.02557993 -0.021136608 -0.014891431 -0.03353296 -0.005847802 -0.023063209 0.03354348 -6.7576766e-05 0.0015660723 0.040829327 0.03611978 -0.0112054795 -0.029415842 -0.0007055452 0.0009466211 -0.03166677 -0.020461302 -0.0063533983 0.031175848 0.012567967 0.012710999 -0.005111009 0.04040648 0.03230094 0.023199504 0.03663926 -0.031553775 0.016953563 -0.030914169 -0.0054575554 -0.023615256 0.00044256946 0.03710059 -0.004100169 0.029512074 0.004224579 0.03837096 0.02086873 -0.0003928294 0.033022728 0.039686482 -0.036204204 -0.026928714 0.014667019 -0.019522285 -0.02196525 0.004996111 -0.020934712 -0.003099377 0.017051484 -0.032053825 0.004005487 -0.04144552 -0.023580447 0.025981313 0.021901648 -0.03407588 0.011031261 -0.021435767 0.029210826 0.0023904394 -0.027466472 0.033886116 -0.014294143 -0.04068669 0.0324054 -0.039379135 0.025270682 0.008048719 0.039349295 -0.030880338 0.017462134 -0.026439464 0.034878492 -0.0067580594 0.030015558 0.04036049 0.027681267 0.04037921 0.0027814757 -0.0049677542 -0.02354852 0.03315806 -0.0068401843 -0.006817952 -0.020653805 0.0077581457 0.013068165 0.013438588 -0.015554324 0.028359985 0.0056307516 0.03454268 0.024887016 0.022469437 -0.016915396 0.0080522355 0.008684402 0.003537923 -0.01599878 0.019984012 0.03887291 -0.0022823415 0.004903143 0.035963595 0.0021110724 0.0033794641 -0.03460633 -0.034188718 0.026120907 -0.007154867 -0.021829545 -0.014688611 0.0037837825 -0.028220227 0.003647084 -0.01694799 -0.010785699 -0.017479833 0.031780496 -0.0076395227 -0.01609782 -0.0133400215 0.033270624 -0.040611472 -0.011132067 -0.037027046 -0.0029800734 -0.03273914 0.018318301 -0.017855829 0.033746213 0.017417591 0.019189086 -0.036769718 0.002202357 -0.007536456 -0.017121613 -0.03411928 -0.029216748 0.01038074 -0.039594106 -0.023789227 -0.033283006 0.026657715 -0.024405077 0.03712453 -0.019285828 0.03962452 0.0080550965 -0.014869328 0.02676193 -0.029116234 0.03803817 0.029766709 0.0019161254 0.0052749813 -0.037018027 -0.011067679 0.031098938 0.03006125 0.025633752 0.019870143 -0.002668038 -0.00848729 -0.029959312 -0.01412722 -0.014060652 -0.032655507 0.018055405 0.01933026 -0.025550386 -0.030599743 0.033157475 0.036361493 0.027051937 0.02355164 -0.021684533 -0.015406191 0.031753924 -0.03098179 -0.034086026 0.025254961 0.019668251 -0.020782202 0.004747346 0.019446503 0.018690407 0.027144298 -0.0076173646 0.002005006 0.009984439 -0.016063174 -0.018161893 0.0206642 -0.016660076 0.0058304123 -0.039358463 -0.029947113 0.004195586 -0.005371283 -0.012267336 -0.006615594 0.011978681 0.03507586 -0.016282033 -0.026635727 0.037891712 -0.035981305 -0.0025189072 0.00905559 -0.010317102 0.03181018 0.007756631 0.036614113 0.0017970403 -0.0028290055 0.010237014 0.037298255 0.031374224 -0.013377498 0.031191628 -0.018386727 -0.034612443 0.0118253585 -0.019152492 0.014435431 0.02167823 -0.007986183 -0.03465724 0.007791554 0.018647116 0.018490162 -0.02256455 0.02959787 0.018653851 -0.026500985 0.021856975 0.014545217 -0.0028041303 -0.021673953 -0.030861348 -0.04062403 0.024529329 0.041279167 0.017911008 -0.007430976 -0.039399922 0.0074799014 0.038058974 -0.030076992 0.010274148 -0.028029736 -0.013006857 -0.03525629 0.018085262 -0.0039105616 0.010108869 -0.040912967 0.008246541 0.030303568 0.016357169 0.025223464 0.015226802 0.03953606 -0.038363826 0.0164823 0.0350976 -0.03903393 -0.012709072 -0.025436834 -0.028498992 0.010019089 -0.010184869 0.015983894 0.019064298 -0.029187784 -0.0035216063 -0.0069433106 0.028993404 0.011854018 -0.015021494 -0.025873384 -0.011053677 -0.01421015 -0.018211257 -0.037842855 -0.040338825 -0.005599037 -0.01707023 0.0039055895 0.03715688 0.025010705 0.025959458 0.030614248 -0.023968985 -0.008865818 0.022552943 0.0012215327 0.023820674 0.0019380947 -0.026821544 -0.0043806434 -0.03024139 -0.032128565 0.0012477189 0.027794873 0.021266863 -0.002759134 0.024881572 -0.02502425 0.014585709 -0.014522031 0.039442435 -0.017321503 -0.005878707 -0.017981514 0.019181957 -0.037737608 -0.017516738 0.032008737 -0.012852247 -0.025345182 0.039602935 0.026386252 0.036296126 0.014785266 -0.0006609311 -0.023976725 -0.040403172 -0.031074744 -0.0023069382 -0.023778558 -0.01445289 0.025762638 0.032403044 -0.029059147 -0.017662635 0.011981363 -0.005333687 0.037586555 0.033419084 0.0141046 -0.024105435 -0.005802547 -0.0406955 0.017001715 0.0344686 0.026626587 0.009490798 -0.020326778 0.03033353 -0.025465216 -0.008846085 -0.01627877 -0.020372486 0.031481814 0.016152358 0.037775945 -0.008285359 0.003699566 -0.033009753 0.011575143 0.017442396 -0.018815175 -0.020620823 -0.038809285 -0.004882629 -0.04099206 -0.03384866 -0.025627956 -0.018547883 0.03691663 0.026323333 0.029264232 0.0302672 0.020299187 -0.030561324 0.014472897 0.021964809 0.014224137 0.026757255 0.002356281 -0.027532395 0.01583251 -0.034252636 0.028421065 -0.013514077 0.027935188 0.019206917 -0.020388883 0.008258915 0.031367496 0.0016603222 0.037809458 -0.034954533 0.017234256 -0.025136616 -0.023691049 0.03139863 0.023356061 0.038003694 -0.021720013 0.011050751 -0.032836005 0.029459804 0.012105366 -0.027149847 -0.022932341 0.016655564 0.022406137 -0.014082576 -0.033114314 0.018741608 0.007437895 -0.022631805 0.036528565 -0.016010895 -0.029454704 0.009067869 -0.009472693 0.011568606 0.040686473 -0.0003350079 0.004109308 0.030821543 -0.006560435 0.006315425 -0.008554037 0.02584306 0.020399805 -0.034453087 -0.010408874 0.029858133 0.0043871803 0.040630788 -0.028988328 0.025374364 -0.033027988 -0.032809924 0.029438686 0.032833062 -0.0058306903 0.03969776 0.025852263 -0.017606184 -0.014404386 0.021293333 0.027563637 -0.03961366 0.039968997 0.0064043254 -0.023609724 -0.012234747 0.02185307 -0.013085356 0.040116027 0.036508303 -0.015366351 -0.018030029 -0.02008387 -0.0060614794 0.0042637093 -0.023080196 0.023046082 -0.03835485 -0.022204112 0.0021278611 -0.026663523 0.008042341 0.004945477 0.02055717 -0.038581297 0.03495675 0.026532238 -0.04009774 -0.027510336 -0.027062714 0.0005851835 0.02958715 -0.028341558 0.038703304 0.008682206 0.01356574 -0.013548389 0.0007701864 -0.008473873 0.031694084 -0.033638008 -0.0040671676 0.039304912 -0.021617677 -0.002074654 0.021682382 0.030518338 0.041378133 0.026353985 0.008316408 0.020289969 0.0023419014 -0.0065314425 0.014194539 0.023900088 -0.02404227 -0.02955757 0.03040344 -0.0028668593 0.023695584 0.04077762 -0.0133840395 0.0020115674 -0.03886477 -4.4822693e-05 -0.010305922 0.029358845 0.029550826 -0.038813457 0.014108896 -0.018177977 0.0006468495 0.02619805 -0.02965255 -0.020053 0.012248914 0.0039764494 0.007831867 0.02947773 -0.038996994 0.022044297 -0.021355864 -0.015368333 -0.021194216 0.013911417 -0.03780678 0.004632592 0.012885382 0.037648033 -0.031492002 -0.017498916 0.026985263 0.037131667 0.022393491 0.0016365945 0.012357578 -0.03796306 0.033844184 0.011010811 0.039735597 -0.023590064 -0.040068522 -0.015633192 -0.036151797 0.023230415 0.0013675988 -0.023855638 0.0030764292 0.010367885 0.004572332 -0.038563624 0.03540372 0.011930436 0.039090738 -0.034200266 -0.026489362 -0.03802606 -0.009248024 -0.010645459 -0.027467292 -0.017374655 -0.03499394 -0.019298106 0.012934457 0.03366556 0.015019476 0.0010317862 0.037284434 -0.003229479 0.022205865 0.012842631 0.03682629 0.039959636 0.04046332 0.019336786 -0.019571707 -0.013947631 -0.0015964459 -0.0044788322 -0.00041901073 0.031473137 -0.021287318 -0.010203551 -0.002833113 0.010220557 -0.0015016248 0.03151428 0.024390575 0.032126874 0.0018451065 0.0042342944 0.023813924 0.019465178 0.03675487 -0.010788242 0.0041591227 8.664032e-05 0.014710745 -0.02838929 -0.025323197 0.0008823375 0.0019175659 0.0010372599 0.012131751 0.0031657666 -0.013298398 -0.019167563 0.0036443523 -0.017021414 0.01849937 0.03495998 0.035053886 -0.017576084 -0.012282561 0.0332195 0.019989997 0.010753786 -0.014811705 0.0044070682 0.031470444 -0.015314619 0.017381918 -0.040808953 -0.0066631837 0.032394588 0.0013165127 -0.025437634 0.020005837 0.009573321 -0.031415217 0.0017927985 -0.037834655 0.029627493 -0.007618924 0.015846025 -0.018706754 0.019541716 -0.01655521 -0.03946949 0.008489068 -0.004150813 -0.017031437 0.025395155 0.0015965303 0.00026146075 0.03697106 0.025216177 0.040787093 0.004207363 -0.03762079 0.017607745 -0.009317055 -0.008644815 0.037516914 -0.030441597 -0.035389062 0.017999878 0.013207669 -0.02895638 0.026265636 0.031160474 -0.034545995 0.021336501 -0.007038211 0.0025132499 0.014834359 -0.040799543 0.0068029165 0.0038263104 -0.0029437493 0.039566748 0.004133786 -0.012992054 0.028196504 -0.019278696 0.04078282 -0.031053528 -0.00285242 -0.008569336 -0.00068434083 0.0124166515 -0.022948518 -0.033664428 0.03556378 -0.016029164 0.025463384 0.030332005 -0.014044195 -0.028896675 0.020225044 -0.0018653771 -0.029857527 -0.0032918404 0.040747248 0.01401941 -0.0154791325 -0.035709437 -0.040257223 0.0012364736 -0.0018226306 0.03163334 0.03136982 0.0058044544 -0.0043449155 -0.025265064 -0.0069578043 0.017509636 -0.034528114 -0.02263399 0.037397705 0.03504554 0.023056611 -0.0023799092 -0.029393371 0.004934495 0.022978052 0.006655395 -0.0133792665 0.013699303 -0.015056998 0.010463446 0.022689562 0.02198572 -0.0065414906 0.011806255 -0.017308926 0.019791182 -0.016684016 -0.015381038 0.020181209 -0.01104489 0.041471712 0.02075025 -0.03460085 0.02327615 -0.00542147 -0.009733364 0.013283795 -0.008980503 0.017219454 -0.031064536 0.038922887 -0.022285894 0.02810587 0.0010231634 -0.014175117 0.0012025386 0.0018677365 -0.041542865 0.02794693 -0.0129884835 0.007830307 -0.010843769 -0.010813957 -0.025315046 -0.028686455 -0.0049679577 -0.014014955 -0.011589031 -0.005754466 -0.018619766 -0.028225493 0.035106655 0.013110335 -0.019126654 -0.039846074 0.013817221 -0.021800667 -0.028923526 -0.03832073 0.017809635 0.02733095 0.011857688 0.01820152 -2.149741e-05 0.015148978 -0.020917803 0.0042572073 -0.0036497265 0.024613604 -0.030044228 0.038102277 0.019510608 -0.025267255 0.010205001 0.006879057 -0.0315749 0.011190946 0.037564944 0.001825278 0.016732436 -0.021651259 0.0037388802 -0.024945091 -0.021080311 -0.029511636 0.032796666 -0.017877784 0.017229632 -0.035967827 0.01627488 -0.009068862 0.030893048 -0.031413794 0.024647802 -0.03824967 0.039866664 0.003128032 0.036007326 0.038647648 0.000803118 -0.020012066 -0.033098396 -0.0329865 0.010787806 0.036146924 -0.032666646 0.03495696 0.029088562 -0.012596071 0.033734582 -0.040919967 0.029793367 -0.0061076484 -0.017904317 0.028586432 -0.031064352 -0.036986053 0.034341693 0.00723667 0.020892521 0.035089657 0.014029071 -0.0036063492 -0.001585876 -0.03379882 -0.03334502 -0.030089598 -0.03205222 -0.00027826926 0.0064232303 -0.015323093 0.041385114 -0.033437572 0.03641311 -0.04028742 -0.007402023 -0.0078647835 0.036325336 -0.007832289 0.02236664 0.030483153 0.020602569 0.032558482 0.040550362 0.03416718 0.034313127 0.034182757 -0.0062777004 -0.024970978 0.03400953 -0.02349034 0.040159848 0.006146252 -0.018110206 0.030571034 -0.0010645589 0.0016005089 -0.0025968652 0.032547727 0.03425832 -0.04059697 -0.0036066673 0.03497406 0.035387345 -0.0015747498 0.023113316 0.036033 0.025984436 0.026720982 0.03343355 0.032150052 -0.039897244 -0.0028308085 0.016497876 0.01265123 0.028321838 -0.008898025 0.035107113 -0.014809206 -0.029593578 -0.012534782 0.021049123 0.0101584345 -0.007757311 0.037704907 -0.029862564 0.022453522 0.021947086 -0.03183819 -0.019641694 0.02122519 0.015800085 -0.004804229 0.018931553 -0.02814041 0.017160188 -0.021486681 0.017001286 0.03849563 -0.028155794 -0.038230684 -0.019274956 0.02878509 0.008824761 -0.032787196 0.019566715 0.036768205 -0.04076878 0.037780102 0.034468144 0.014956674 0.015832976 -0.021971067 0.033241883 -0.026427653 0.015111233 0.04157401 -0.03247043 0.030203965 -0.02192837 0.013019855 0.010486295 -0.0085969865 -0.029382413 -0.023922727 -0.034993373 0.02825145 0.02996118 -0.00765421 -0.015864309 0.026049312 0.007338857 0.0027298778 -0.0326982 0.0075781494 0.004980579 0.004456093 -0.009377426 -0.009901574 -0.01180023 0.005050878 -0.007849242 -0.03140424 0.023642978 0.0009444406 -0.033760943 -0.034731098 -0.023976605 -0.017275488 0.030785691 -0.027720725 -0.013919185 -0.021500817 -0.020054605 0.017429676 0.025737494 -0.019663459 -0.009912923 -0.02249382 -0.014187436 0.009266983 0.024048727 -0.028003097 0.0016607245 -0.025877506 -0.0053253574 0.015750557 -0.022922209 -0.01790443 -0.015370905 -0.032424398 -0.027041152 0.04104362 0.0047563612 -0.03179158 -0.034589957 0.023825934 -0.029801637 0.040732123 0.01659534 -0.03059653 0.015913501 0.040856194 -0.015651327 0.0015472174 0.0040308638 0.006558647 0.018038437 0.032826044 -0.01741692 -0.022293072 -0.0342022 -0.008523747 0.030933362 -0.0050803027 -0.025332566 -0.0341932 -0.01762472 0.033025324 0.024907604 -0.027910432 0.021009535 0.022891885 0.011783953 0.011052529 0.008923432 0.025200233 -0.032021787 -0.03621214 0.035354882 -0.009312744 0.020246064 -0.00016108155 0.007096976 -0.022090044 0.023792844 0.025503075 -0.01678212 -0.012965038 0.023046136 0.038749333 -0.0032588593 0.039975956 -0.0054913014 -0.023788428 0.010905589 0.012350341 0.04140323 -0.026780527 -0.03249546 0.0016844671 0.035375558 0.0007715623 -0.024583634 0.009120366 0.008320372 -0.0020597032 -0.032450538 0.040547173 -0.03464442 -0.040000975 0.02075096 0.033232078 0.010867278 0.020143729 -0.016890448 -0.008556019 -0.026966235 -0.026645035 -0.018454354 0.004794841 0.00046706697 -0.007872771 -0.027319789 0.024508059 -0.024880728 0.028779805 0.007034689 -0.031965822 -0.013174415 0.0090645505 -0.00534453 -0.004645343 -0.030998608 -0.027258188 0.027220875 -0.04145757 -0.0050437106 0.022428652 -0.022761047 0.040334266 -0.010972287 0.0063405833 0.037005693 -0.008905759 -0.039590534 0.027970105 0.03915827 -0.028778603 -0.008937935 -0.0016891559 0.013185581 0.0047460548 0.018647235 0.02727221 0.017155617 0.005977 -0.030499384 -2.259016e-05 -0.019693762 -0.00792101 0.022469144 0.025723075 -0.03245762 -0.018150195 0.031212714 0.016922569 0.009082705 -0.03034231 -0.03628835 -0.035621762 -0.006281098 -0.03386604 -0.012975141 -0.016600907 -0.041418254 0.03898304 0.04158757 -0.029822886 -0.040342644 0.023814976 0.008234705 0.033249453 0.027936196 0.035600208 -0.018390259 0.00421532 -0.019264843 0.014927005 0.019578924 -0.033759095 0.020160645 0.014491379 0.03055292 0.02721031 0.02141757 0.02414471 0.033299588 0.023364723 -0.02560099 -0.0034867227 0.028157284 0.0035906783 0.00020250678 -0.00053572655 0.011772236 0.016656086 -0.020915186 0.019583425 -0.040081434 0.038324744 0.018696478 -0.03153743 -0.016303232 0.028684437 0.0053571314 0.005915036 -0.0032472163 0.009663249 0.023859233 -0.005038962 0.0002622257 -0.02625822 -0.009867355 -0.012664279 0.016500514 0.013662964 -0.020348132 -0.0003555119 0.026017418 -0.010686378 0.010674536 -0.000988861 0.025849666 0.029549941 0.022767514 -0.0052060834 -0.02326051 -0.00094259286 -0.0011378229 0.027389511 0.04012987 -0.0007765591 -0.017995259 0.022068148 -0.01791912 0.005959685 -0.041244544 0.027846362 -0.012704994 -0.0010153602 -0.027694479 -0.01791214 -0.00043765706 -0.0019708276 -0.004383753 -0.003724759 0.038772695 -0.025459152 -0.014030929 -0.030100068 -0.02765064 -0.004410153 0.03911332 -0.016837701 -0.028590616 -0.02894262 -0.021733066 0.002672106 -0.03592708 -0.03206224 0.029375037 -0.040332552 -0.016913658 0.039915003 0.011381393 0.03104197 0.035420008 -0.026275894 -0.008835296 0.016146928 -0.007692501 -0.02554017 0.03599153 -0.011577785 0.013339972 -0.007444526 -0.014941618 -0.032860413 0.030514028 0.00087854266 -0.023331594 -0.026909947 0.023323849 0.037929773 -0.0010539442 -0.037764877 0.032338575 -0.015836667 0.013557097 0.016435405 -0.0035630963 0.009644201 -0.0027911812 0.009384707 0.027188163 0.0129243685 -0.026921561 -0.03390416 -0.03963436 -0.023851266 -0.021913186 -0.00645041 0.026427185 -0.026484951 -0.03923334 0.03583672 0.030560216 -0.024945166 -0.03729192 0.014663617 -0.013480629 -0.0068661324 -0.03291633 -0.013744986 -0.017634785 -0.03867808 0.032377295 0.0127354665 -0.010657261 0.026500434 0.014488931 -0.040510513 0.04138136 -0.032745045 0.020024773 0.017107373 0.01757136 0.012409365 0.0068144104 -0.017615652 0.0060585937 -0.018526336 -0.008704573 0.022975584 -0.0020566336 -0.02125006 0.04083921 -0.0141109135 0.0022024512 0.041029003 -0.0021919112 0.038083553 0.023571894 -0.033445053 0.014390945 -0.024960443 -0.018343356 -0.039742813 0.03259345 -0.028420186 0.029956302 0.03950709 -0.0014088601 -0.021449 -0.0281917 0.0053241057 0.041286528 0.005616094 -0.009679481 -0.026560664 0.0052858493 -0.027255889 0.0068850517 0.035197154 0.007005791 -0.0008662989 -0.028459724 -0.041585073 -0.013677826 0.01359947 0.0012812119 0.03189678 -0.023525398 -0.03888456 0.030304518 0.015172402 -0.032237306 -0.004143601 -0.01706021 -0.00711598 0.011015207 0.0034276396 0.022139892 -0.008496205 -0.028856453 -0.034442842 -0.017251369 0.0073329112 -0.0056920797 0.015198584 0.013453677 0.018065497 0.013157105 0.028231239 0.022233646 0.033149462 0.0055056415 0.022239983 -0.024637034 -0.010546302 -0.035903618 0.030619845 -0.015386552 0.020959064 -0.022035992 -0.008300632 -0.03764285 -0.007852003 0.011017859 -0.041519485 0.024867058 0.007000973 0.00053959095 0.019177716 0.026127493 0.018834358 0.024316927 0.038238525 -0.013059656 0.010559465 0.017108709 -0.012621582 -0.037766673 0.033634797 0.014768124 -0.023720955 0.020601904 -0.014294217 -0.022072878 -0.025230244 -0.03808067 -0.007345706 -0.021776637 0.0055110557 -0.01698361 -0.011652201 -0.038616113 0.0386244 -0.021077827 -0.009518961 0.027938277 -0.006689345 0.016253293 -0.020944815 0.03176826 -0.027582705 0.03024472 -0.041574907 0.023584723 -0.014743174 0.033078097 0.01698273 -0.038500264 -0.04140026 0.0020377438 -0.023395177 0.012307202 -0.034150418 0.037468757 -0.0016431212 -0.03440393 -0.028987374 0.020075232 0.012664403 0.009525299 0.0061538867 -0.032014504 -0.00953349 -0.01586858 0.027615204 0.025272142 0.039554976 -0.018887198 0.02956666 -0.0047213687 0.0048733456 0.023979172 -0.018559303 0.02730759 0.03208167 -0.0043591857 -0.004341215 0.026295554 -0.0005128334 0.030216053 -0.01146403 -0.021524217 -0.03340202 0.013483743 0.0354761 0.0026607416 -0.012247836 -0.023450335 0.036814585 0.031971112 0.008682003 -0.0049469424 0.022745416 -0.01104192 -0.009168114 0.025148675 0.038354807 0.03094408 0.033757385 0.03713765 0.0010530403 0.015249099 -0.007674217 -0.03765532 -0.03995481 0.020307984 0.038137607 0.027929723 0.022405839 0.004972299 -0.011931211 -0.01982896 -0.03256337 0.021612208 -0.0186524 0.010600234 -0.012102341 -0.032142323 0.0054572225 0.024667582 0.03609041 0.034237444 0.0070298663 -0.029702451 0.020029794 -0.005470167 -0.009224102 -0.032984227 0.0408626 0.025491636 0.008421357 0.021289647 0.0030831497 -0.032371104 -0.025647169 0.026593983 -0.029893737 0.0233666 -0.026039934 0.012698948 -0.008483341 0.0025812387 -0.013728112 -0.032919537 0.011737312 -0.0025437872 -0.03633868 0.022369718 0.017255675 -0.0049632145 0.02133375 0.009646366 -0.02524754 -0.03921017 -0.031511523 -0.0047544143 0.009983024 -0.02852365 -0.021345373 -0.031218683 -0.031922124 0.0021623424 0.029782504 -0.0008344352 0.01409027 -0.033292755 0.010253425 0.017533636 -0.02169922 0.004823963 -0.0070599914 -0.03834627 0.035332374 -0.025171395 -0.0063292533 -0.02393727 0.012891224 -0.02629666 -0.03769689 -0.03346067 -0.02317292 -0.030254226 -0.029290687 -0.0035638362 0.011621734 0.040017307 0.031616814 0.02748929 0.003572484 0.021697944 -0.017123874 0.0075368336 -0.03515376 0.028200373 0.0032620332 0.00938797 0.017393779 0.015225172 -0.023780894 -0.028282946 -0.02835096 -0.036091097 -0.041336574 -0.0042758635 -0.027345207 -0.023258269 0.035739265 -0.033489764 -0.014556825 0.018982625 0.033618268 -0.03131115 0.026418766 -0.008981626 -1.3714036e-05 -0.02112493 -0.02423127 -0.015159736 0.022443518 0.020099139 -0.022637766 0.011762719 0.034115843 -0.024900949 0.030336767 0.012562394 0.028798413 -0.03008756 -0.02025423 0.032628544 0.03488498 -0.005728066 -0.023510288 -0.011436969 -0.027817562 -0.013025811 0.041089974 -0.019949194 -0.017595034 0.00968124 0.017001104 0.036247995 0.036001485 -0.0016392668 0.0004498909 -0.015788034 -0.033636235 -0.03909903 0.023626259 0.03216336 -0.004472047 -0.025007522 0.026484117 -0.021497196 0.02845726 0.03796351 -0.012275249 0.039260738 0.009681409 0.010412003 -0.01836884 -0.023239305 -0.0005350312 -0.00419723 0.021214753 -0.03721366 0.021409437 -0.008799067 0.031303763 -0.0027556024 -1.4940898e-05 -0.008986091 -0.01809154 0.0032116126 -0.036239456 0.022617778 0.03189717 0.035341244 -0.022717834 0.041535985 0.040928185 -0.02727665 0.01883034 -0.023135891 -0.035762455 -0.0035149208 -0.010360594 0.019200355 0.035565794 -0.019564748 0.040054172 0.031065306 -0.015480092 -0.02667301 0.010506591 0.0039551063 -0.028796282 -0.023758387 0.02474166 0.019648831 0.021132365 0.033356037 0.018194359 0.013199325 0.0012890548 -0.03421105 -0.041067686 0.0070624603 -0.041149434 0.033708513 -0.040068023 0.039350957 0.00330472 0.03141975 0.041558065 0.032442518 0.040031895 -0.024373695 0.041544676 -0.03434963 -0.0316725 -0.019883122 -0.032384053 0.016347945 0.013190906 0.027845329 0.027868476 0.0050898693 -0.01040104 -0.041177776 -0.0005559027 0.011211619 -0.032774456 -0.008947402 0.035627283 -0.014858991 0.015479873 0.010858203 -0.04104638 0.018797155 0.033657864 -0.01474088 0.008195272 0.030886551 -0.013980354 0.031829786 0.008711085 0.03957033 -0.0004127125 -0.0014727017 0.02024607 0.028769111 0.035352394 -0.0010819435 0.016338598 -0.03348431 -0.004094099 -0.005189245 0.036869433 -0.009645611 -0.023829442 -0.017330145 0.037990402 0.035821896 -0.028757866 0.036305085 -0.004812792 0.004407108 -0.018850913 -0.03391362 -0.026762739 0.0053679943 -0.0011673322 0.00672096 0.014491975 0.022446712 -0.03356452 -0.014365072 -0.01611371 -0.018508574 0.007954022 0.030881634 -0.01683031 -0.041608494 0.031470455 -0.021271598 0.0052338294 -0.025351128 -0.024990624 -0.011368911 -0.015944105 0.020567145 0.014907713 0.004266113 -0.014327909 0.024224132 -0.018589964 0.011787723 -0.014216657 -0.015554036 -0.01674318 0.021855112 0.010375172 -0.030515885 -0.020655837 0.031066343 0.012644088 0.027275529 -0.021127364 -0.0103826625 0.023735514 0.037245423 -0.037583485 0.020208683 -0.039946243 -0.039118033 -0.035844855 0.032060184 -0.012119055 0.033201456 -0.019352566 -0.022881439 0.024538895 0.0064369394 -0.031055009 -0.026574966 0.034488674 -0.009844607 -0.0002478361 0.0080196215 0.009277433 0.020896902 -0.0016780397 0.014316013 0.0054191947 -0.020505816 -0.019972667 0.0029927096 0.025017178 0.010726929 -0.011085953 0.029049784 0.0059052757 0.011702101 0.0071115545 -0.020051837 -0.033710625 -0.015683651 0.027159264 0.022418987 0.03807288 -0.026527217 0.032396685 -0.0122391535 0.010213679 -0.036213677 -0.0060674697 0.015425414 0.0044724448 0.01705048 -0.036730926 -0.0047075204 0.011092748 -0.02255049 0.025595099 -0.0049284548 -0.04142063 0.0006233206 -0.014474332 0.0077544204 -0.038031872 0.0010787796 0.016315645 0.0086528715 -0.0063148937 0.007890905 -0.017467633 0.035138857 -0.025223222 -0.019924164 -0.022331174 0.014480139 0.014394656 0.016218543 0.03704047 0.033403642 -0.04142469 -0.0015134315 -0.027837988 -0.005692105 0.021890527 -0.025138985 0.034576602 0.040624674 -0.04031874 0.0044281585 -0.008265476 0.021960434 -0.012034893 -0.03234359 0.016762167 0.031859994 -0.03993787 0.026490718 -0.008398011 0.001363049 -0.0037712108 -0.023126042 0.025670668 0.029247817 0.012781367 -0.008975377 -0.038772315 0.034414917 0.015453046 -0.025578028 0.019692883 -0.026980579 0.019797107 -0.027209938 0.002362331 -0.023149794 -0.034200232 0.007906467 -0.03952731 -0.028468192 0.035996225 0.03711515 -0.023911929 -0.005574887 0.036454096 -0.03185902 0.026834121 0.009356226 6.274879e-05 0.03889262 0.026347946 -0.024961114 -0.02849489 0.013505533 0.03651502 -0.037510075 0.017843172 0.012503391 0.007920086 0.04036809 0.01518332 -0.001129816 0.001438275 -0.020936599 0.03029479 -0.0053782566 -0.02794627 -0.0022975306 -0.01773731 -0.02649892 -0.0050516725 0.034119304 0.011535406 0.03240795 -0.0017665427 0.031407483 -0.0064094067 -0.0144568635 0.04083086 -0.01914535 -0.0084939 -0.027344257 -0.008502528 0.012528008 0.024393301 0.03357111 -0.0358997 0.030999824 -0.012850359 0.019587805 0.01450108 -0.0017660807 -0.020321902 0.019312164 -0.038195502 -0.005953769 0.039111413 0.039199483 0.019753546 -0.024923285 0.016931519 -0.0015646368 0.041102663 0.040108453 -0.010046324 0.025977483 -0.005875662 -0.00969263 0.035826445 0.004486546 -0.032121405 -0.008578698 0.0051095886 -0.028459266 0.035306897 0.017668515 0.03909026 -0.029198926 -0.035064872 -0.00825874 -0.024174273 0.035929002 0.016681608 0.0022752832 -0.004637773 0.040777456 -0.00029234588 0.031398147 0.026979899 0.022689667 -0.037272926 -0.02821914 0.03762519 -0.037495762 -0.0021942954 -0.036316227 -0.022407051 0.014155164 0.02250813 -0.03363184 -0.040514745 0.04018357 -0.015988847 0.016862288 -0.032796152 0.031572126 0.03467568 -0.041449588 -0.018212631 -0.017961469 -0.0068951747 0.0019618175 0.035223983 -5.8626138e-05 -0.00827378 -0.031701766 -0.039541285 0.013633396 0.019533878 -0.032686062 0.03760515 -0.019745708 -0.017961463 -0.005869682 0.024723506 0.015588766 0.04052783 0.03921979 -0.014347395 -0.011814451 -0.017557403 -0.025618386 -0.018627316 0.0036201626 -0.014742866 -0.010818943 -0.014195229 -0.023371488 -0.017524173 0.0030017 0.006074831 -0.02120474 0.01196827 -0.038663983 0.03615752 -0.016301682 0.015630972 -0.0060951067 -0.010939504 -0.00278611 -0.033166595 -0.03979501 0.03725263 0.015051718 -0.037579417 0.036523394 -0.032197677 -0.038404487 -0.0058513386 -0.0117030945 -0.02019116 -0.02982006 0.009546837 -0.02576409 0.0031302671 -0.024484962 -0.028739205 -0.002143547 0.015051043 -0.025538191 -0.015428102 -0.0101711955 -0.02921342 -0.005034104 -0.036315277 0.0154126985 -0.012435099 0.026361983 0.02219301 -0.037153836 0.03149026 0.023012972 -0.008766368 0.02488349 0.0030712485 0.033235874 -0.018248519 0.028521921 0.022679538 0.023694422 0.016640013 -0.033904858 0.0135619445 -0.0020411513 0.013518299 0.011672705 -0.012558073 -0.036972385 -0.016946092 0.01610831 0.003902351 0.037600514 -0.016804691 -0.04003277 -0.03518769 -0.0079273535 -0.032517612 0.03430114 -0.018133592 0.0129416585 -0.03488698 -0.029398005 -0.027162895 -0.01290984 -0.02542606 0.03803153 -0.039982866 -0.0072554797 -0.027124133 0.010141447 0.037814036 -0.014051309 -0.040499996 0.02210096 0.010589525 -0.03738372 0.0025523405 -0.027683144 -0.038465016 0.016810756 -0.03165143 -0.039540924 0.021287948 0.036754437 -0.034462076 -0.03694859 -0.03247635 -0.030991158 0.032779463 -0.011495586 0.019372156 -0.03500324 -0.007999882 0.029268768 -0.020916587 0.011681482 -0.0033397428 0.018884014 0.017668884 0.033003997 0.032777756 0.016074419 -0.030163333 0.017446559 0.029244265 0.003770585 0.015969422 0.009432605 0.0071961135 0.041101933 0.029031774 0.013916895 0.021550786 0.013767501 0.03319245 -0.015935158 -0.004610434 0.013070191 0.033871494 0.0026565841 -0.021458026 0.015973937 -0.03317591 0.008963913 0.025380269 0.040341552 -0.024500847 -0.0232935 0.040205132 0.020826187 0.006293282 0.029218063 -0.00822189 -0.021150675 -0.03903132 -0.04138606 -0.0068014665 -0.01906014 0.010861486 0.02409493 0.011575704 0.01717648 0.028898954 0.031545073 0.040635403 0.013175478 -0.02708463 0.012263149 -0.033595867 0.0055412604 -0.019925576 -0.013058032 0.029893365 -0.009503296 -0.0056173652 0.017656088 0.0034818302 0.019454952 0.020571535 0.03878161 -0.030767446 0.03187424 0.035624422 0.028999731 0.011998385 0.0130454 -0.03761017 -0.016575586 -0.010988146 0.007278358 -0.03722842 0.0072846017 -0.012198841 -0.019180804 0.034465075 0.021092266 -0.006282131 -0.00854754 0.019352883 0.008346434 -0.028203797 0.03790824 -0.02381225 0.03497439 -0.024014017 -0.033898648 -0.032123804 -0.014110367 -0.023737889 0.03486079 0.010179922 0.039280757 -0.004325196 0.022560995 -0.0016064148 -0.0044385493 -0.036804207 -0.031968966 0.037684232 0.005047242 0.021639964 0.040119432 -0.017163977 -0.0024208776 0.013699582 0.023151021 -0.0077598495 -0.020781701 0.01922834 0.016236376 0.031305052 -0.019764772 0.008775255 0.016675686 -0.011568159 -0.03268952 -0.028635537 -0.007891606 0.0110176755 -0.0073153228 -0.012844771 0.019684678 0.00025602183 0.027483165 -0.016379839 -0.024608841 0.018822169 0.012675549 0.031525694 -0.005976215 0.010670438 0.028177008 -0.012877589 -0.024273625 0.027704552 0.03511717 0.039638385 0.019272283 -0.03682536 0.030290052 -0.040764682 -0.0027349344 0.017020782 -0.018063134 0.03211759 0.023986056 -0.032997996 -0.004134233 -0.037238702 0.028295955 -0.035234895 -0.01773958 -0.005964627 0.009744143 0.015524696 -0.016426828 -0.010242796 0.0014781456 -0.03513251 -0.010934999 0.02895023 0.02764761 0.015171076 0.029559603 -0.024942651 -0.008848211 -0.037508555 0.035745293 0.03446988 0.029439807 0.004987409 -0.041639097 0.02905808 0.019318348 0.038623452 0.013173208 0.03138808 -0.03912587 0.016943797 0.031296805 -0.0009306471 0.03631764 -0.023994055 0.0316298 0.0015536249 -0.016024893 -0.0042201234 -0.028023317 0.014804041 0.026810905 0.040624335 0.033597063 -0.0068391217 0.020694336 0.037161063 0.012881185 0.0073110363 -0.00858066 0.003869926 0.017057553 -0.026310235 0.013492848 0.0052671283 -0.041561827 -0.010329708 0.03810949 0.033480704 -0.04151104 -0.010032843 -0.0198352 -0.004763648 -0.029690158 0.029928084 0.01755271 0.012798876 -0.037003126 0.020486897 0.037604224 -0.020461908 -0.038399007 -0.025924295 0.007365396 -0.011760558 0.027693441 0.015398125 -0.025144955 -0.0072674006 -0.013307681 -0.020675104 0.0034496784 -0.03566166 0.032145962 0.0179868 0.038664743 0.0068891793 0.041459545 -0.027906384 -0.02407157 -0.037094302 0.0033571273 -0.019276625 0.01205878 -0.039568033 0.01789624 -0.034102336 -0.009286722 -0.0039033345 -0.012480339 -0.023509562 -0.020213222 -0.03980091 0.015157064 0.026911035 0.019893348 -0.019872075 0.005770584 0.026501656 0.022147011 0.040006697 -0.022280302 0.010789549 -0.0024483404 0.009765799 -0.025983363 0.024555301 -0.012720953 0.013955246 0.040591385 0.0027555476 0.038910057 -0.018521398 -0.014793595 -0.016708657 -0.0063249916 0.032796733 0.03249196 -0.0039170585 0.00053269666 0.031696938 0.023774069 0.007398953 0.010234347 0.030186709 -0.0038000247 -0.029076856 -0.0058479756 0.014733131 0.009851143 -0.034286402 0.0003262063 -0.038240727 0.024336388 -0.024456223 0.0037280421 -0.030868188 0.029510638 0.018105304 -0.04018005 -0.031976677 0.03210584 -0.036469042 0.03642816 0.03260225 -0.041588854 0.0034139655 -0.0037433556 -0.031003347 0.037962615 -0.03661889 0.03260847 -0.017777305 -0.0136142075 0.025598925 -0.018334946 0.027892789 -0.031572368 -0.020725429 -0.004028435 0.040196918 0.0118412925 0.039780926 0.018257882 -0.01992925 0.021296969 0.031399243 -0.023689454 0.0017090788 -0.028695881 -0.016161293 -0.028963685 0.011467621 0.0016189814 -0.022803754 -0.017773917 -0.015340383 -0.01231656 0.03331642 -0.041547827 -0.023551967 -0.03217966 0.03721238 -0.03999838 -0.0029974729 0.015122841 0.024227818 -0.010820657 0.013861736 -0.00045009953 -0.015258337 -0.029468402 -0.0028663676 -0.008630654 0.013077399 -0.009580165 -0.020767242 -0.017789423 -0.04039478 0.0253153 0.014643203 0.037935413 0.038878646 -0.0038483492 0.01320229 -0.020305067 -0.0043750703 0.0040804595 0.008343945 -0.018524393 0.036196552 -0.027982429 -0.022301327 0.007441893 -0.040800523 -0.024504751 0.03470024 -0.030124363 -0.018777188 -0.0033604354 0.012692735 -0.006330992 0.009499734 0.02812714 0.0363363 -0.017929068 -0.027412623 -0.012162482 -0.03851918 0.008101022 -0.03727249 -0.008050999 0.0070745996 0.005573392 0.017575692 0.038247757 -0.00023253262 0.028804537 -0.019307232 0.030218959 0.0015721917 0.011873692 0.0074684573 -0.033929944 0.016181529 0.024204299 0.035755377 0.02198269 0.034905173 -0.027908683 -0.029346824 -0.020684367 0.03840293 0.033510074 0.03818319 0.035659723 -0.022649463 0.035422843 0.0053598387 0.030182999 -0.024676021 0.04048547 0.010190502 -0.02257364 0.04010515 -0.025800264 0.017087594 0.005143588 0.01053378 0.0049330792 -0.015383701 -0.00985696 -0.004314085 0.002965962 -0.014854397 -0.04071746 -0.011774227 0.011335239 -0.028506985 0.033857286 -0.017670006 -0.026877806 -0.03818534 -0.034643006 0.010505766 -0.0314409 0.021911075 -0.0106628295 0.023388427 0.0005083581 -0.03186677 -5.0370894e-05 -0.0031558177 0.0011090587 0.0071852207 -0.015331566 0.012533153 0.025573075 -0.028597772 -0.023218682 0.012753537 0.01211538 0.032171454 -0.028881371 0.015114188 -0.01598907 -0.0021763742 0.016191449 -0.024894953 0.034640074 -0.018860092 -0.0016741406 -0.010680462 -0.0029785088 0.0019369076 0.038382366 -0.012234703 -0.006484449 0.037545614 0.015729755 0.039169997 -1.5512109e-05 -0.030146763 0.00028537711 0.008127391 -0.015730908 -0.01285997 0.041161355 -0.007909557 -0.023840424 -0.025351679 -0.027531058 0.009832 -0.009709328 0.024034863 -0.004264628 -0.012134587 0.033891797 -0.021386227 -0.03813596 0.026984235 0.008463646 -0.027332406 0.023555314 -0.037664928 -0.023974147 -0.011198804 0.009252518 0.0011262646 -0.0215321 -0.03667593 -0.030755147 0.040632024 -0.027662298 -0.03739386 -0.0010421475 -0.039734226 0.014809897 0.022633146 0.033965863 0.026343858 -0.022092205 0.027594 0.016582381 -0.02728354 -0.026023224 0.026980933 0.037853383 0.013476144 -0.015487954 -0.015379583 -0.024118748 0.030593013 0.007646367 -0.031857755 -0.0050111813 -0.016399026 0.017076936 0.0411628 0.01998062 -0.033777475 0.004163444 0.027573174 0.008592328 0.021656131 0.04123352 0.04055103 0.007944152 -0.036526125 -0.002134661 -0.010558149 -0.033702776 -0.029833272 -0.0066060624 -0.008352106 -0.02687043 0.01792733 -0.002982696 -0.02137438 -0.028831393 0.027999684 -0.03770618 -0.027639017 -0.016263332 0.023092806 -0.024688026 0.02772455 0.015742507 -0.02850543 0.022580683 0.009990573 -0.015084043 0.027501699 0.018400168 -0.02075569 0.02483916 0.02518357 0.0062263906 0.032478586 -0.028308615 0.030711537 0.03912976 0.005881121 0.030526519 0.017427927 -0.035906926 0.03803712 -0.025616547 -0.0033226758 0.018582365 0.02395778 0.031855695 -0.018101087 -0.0013932288 0.024506748 0.0073467596 -0.021327287 -0.028162356 -0.024998203 0.02108207 0.00029083592 -0.038487207 -0.032791924 -0.01697008 -0.015893644 0.041338157 0.030810302 0.0015401989 -0.028234389 0.017670926 -0.013228988 -0.009912173 0.036858447 0.024000457 -0.024656057 -0.015850555 0.0047881305 0.02947466 0.037116315 -0.027975272 -0.0041332 -0.03684745 -0.025399279 0.015397008 -0.0044218553 -0.011922668 -0.040049907 0.031386822 0.022731543 -0.021074703 -0.0011100124 -0.009492989 0.020401176 -0.025355976 -0.006508147 -0.020297885 -0.040106185 0.0021935552 -0.0052208407 -0.0042505963 -0.04086956 -0.0050573004 0.02787527 0.00012078881 0.024990305 0.028608507 -0.009501591 0.011487842 -0.03994263 0.03517009 -0.015590301 0.023302361 0.0080783125 0.022487622 0.01976422 -0.018154755 0.013180023 -0.027905017 0.029231524 -0.0129949 -0.013028553 0.0074700764 0.037439458 -0.002404516 0.02366577 -0.01956163 -0.0004766832 -0.0062330365 -0.039872058 0.023298448 0.033429645 0.037751906 -0.02084755 0.03527456 0.040035702 0.026552793 0.041607585 -0.021668583 -0.037885085 0.022410765 0.040738355 -0.040848173 0.005625864 -0.028365245 -0.033335757 0.02525416 -0.019109234 -0.01455313 0.011239837 0.029478103 -0.0028779707 0.03576074 0.026933983 -0.0008159628 -0.023641488 -0.005531361 0.009265995 -0.039140426 -0.022713732 0.04109613 -0.0035454682 0.029332202 -0.0060791327 0.0048935167 0.008733198 -0.0071218363 -0.004360969 -0.00066868466 -0.039721202 -0.041151255 -0.026516378 0.03232297 -0.012729104 0.02481704 -0.0068262815 0.023130413 -0.027599644 0.022475645 0.02143848 -0.03160377 0.020192534 -0.008380627 -0.0416651 0.026398093 0.041143008 -0.0032272935 -0.031074926 0.028830364 0.026746243 -0.013429269 -0.028880483 -0.014990976 -0.009921005 -0.02040202 0.019716915 0.012791689 0.040476706 0.0027313232 -0.040172778 -0.004847502 -0.039044328 0.034045853 -0.03753686 -0.03334512 0.010581708 -0.0090211285 -0.017952975 -0.03805715 -0.0033679854 -0.0004224231 0.033724546 -0.00520437 -0.0020116768 0.02051185 0.006432563 0.014775346 0.0068830354 0.032913513 0.026766902 -0.015840441 -0.025269002 -0.03942124 0.0029412012 -0.029377794 0.020298805 0.014492105 0.011022384 -0.0028199903 -0.033612885 -0.040038377 0.03259828 0.03470049 0.031456977 -0.0032826315 0.026745543 -0.011043763 -0.0009557506 -0.000458017 0.029245064 0.029079303 -0.0068153343 0.03991206 -0.027952721 0.015455812 0.02220814 0.041461922 0.0054112626 0.04100202 0.0379952 -0.034082826 0.030387606 -0.018709322 0.038512822 -0.022553584 -0.029402366 0.02419 -0.025549814 -0.021603864 -0.01339979 0.016170686 0.0013969839 0.021969512 -0.026693493 -0.04075867 0.003944864 -0.036169656 -0.011443466 0.0029239058 -0.031550005 -0.030017188 -0.015254607 0.0016253691 0.024976522 -0.03999745 0.021495542 0.010421361 -0.02341339 0.023443624 0.03750609 0.038839143 0.00938352 0.021887805 -0.02295137 0.0414247 -0.04103565 0.014092376 -0.0010010998 0.035333864 0.0382818 -0.00543498 0.008088833 0.008299768 0.036322355 0.0037878752 0.022909164 -0.019474726 -0.0061927093 0.014606292 0.033185 0.03538467 -0.010550375 0.010780036 0.029282808 -0.013509944 -0.009622326 -0.02872034 -0.039156303 -0.01932027 0.0010403246 0.008862848 -0.025927186 0.021323308 0.01572012 0.0056615127 -0.00825344 0.023439866 0.021144759 -0.03362278 0.020558283 -0.023336574 -0.02677255 0.03630355 -0.020172145 0.005067791 -0.0016696851 -0.037538983 -0.03568263 0.032045446 0.0021732002 -0.014898896 -0.03192804 0.018866992 0.011226947 -0.0049918294 0.016760644 0.033700198 0.030174186 0.030552244 -0.0021184138 0.02517718 -0.03136199 0.030821782 -0.011457136 -0.023880452 -0.02349855 -0.016975736 0.01638344 -0.023970302 -0.019611623 0.016073382 -0.0015321871 -0.030723855 -0.017469376 -0.004663731 0.013318598 -0.008183673 -0.018898156 0.03637479 -0.007906681 -0.021676918 -0.0036240718 0.0317613 0.035749387 -0.024787819 0.009091904 -0.026366215 0.0043854965 -0.02206121 0.026743606 0.014960736 0.015209819 0.03806603 -0.0011519194 -0.013032407 0.0405121 0.0301873 -0.035090845 0.031166261 -0.030736595 -0.01260903 -0.007813975 0.0069265766 -0.0048958063 0.022509163 -0.025537422 0.023165619 -0.015216897 -0.022935674 0.016222805 -0.036982335 0.024606466 -0.009404029 -0.025460195 0.01031069 0.012256971 0.023575535 -0.003968492 -0.037869513 0.031005815 0.010597408 -0.014494767 0.032045662 -0.0020660858 0.00025036436 0.03569099 0.0015159895 0.012575915 -0.03536711 0.027860552 -0.035971906 0.005905132 0.031422235 0.025664072 0.0062923236 -0.01676264 -0.024075996 -0.028867792 0.011766325 0.022636056 -0.0012102127 0.006383951 0.033695724 -0.0053414754 -0.027014678 0.005053456 -0.019992556 -0.033468522 0.015551394 -0.031509455 -0.027987733 -0.030675467 0.0014511248 0.029553678 -0.027110249 0.034656666 -0.012334129 -0.002918169 0.034956064 -0.04010974 0.01961641 -0.011334425 0.014964899 0.03394261 0.037930008 -0.018470585 -0.040182084 -0.01111958 0.007363682 0.024837509 -0.016990673 -0.025498983 0.03578901 0.022546556 0.00774011 0.0021100044 0.0029281378 0.007993793 -0.030407146 -0.038148116 0.031786337 0.03489408 -0.0013046067 0.004833619 -0.039194897 0.041493595 0.03553858 -0.028509414 0.015111218 0.025739288 0.015798401 -0.0028752736 -0.034698285 0.0055656433 -0.020110618 0.037764683 0.0048670424 0.040784203 -0.0038687836 -0.017228007 0.0010331273 0.040783726 -0.03560054 -0.0014657527 0.02890962 -0.039668612 0.03920538 0.01408508 -0.0074643297 0.026194882 -0.04033898 -0.01498968 -0.005897532 -0.0031165383 -0.010304883 -0.020139914 0.0050322562 -0.018113798 -0.0087384535 0.03913405 -0.038382098 0.01854462 -0.012342697 -0.041228525 -0.024783587 0.001729111 0.0078052185 0.04038502 -0.038298577 -0.0063805385 -0.040277746 0.032007378 0.013754184 0.008226564 -0.0054198056 -0.005687888 0.025138076 -0.023138657 0.026749626 -0.02780748 0.022757169 0.022038758 0.031830132 -0.0015966296 0.034887373 0.0015694797 -0.033773094 0.015427749 0.03178952 -0.038791966 -0.009669229 0.014039597 -0.038261987 0.017272439 0.030919652 0.026679507 0.038098034 -0.024978891 0.03698299 0.02859239 0.03416058 0.017255044 -0.024851736 0.03656466 -0.020414378 0.038628466 -0.0155541 -0.033012625 0.0076084137 0.026139727 -0.012048379 -0.0032826862 0.027191505 -0.037597694 -0.009947027 0.03599186 0.009138083 0.017491158 0.01816166 0.012008211 0.034037217 -0.030723995 0.0013091167 -0.014144575 0.005208423 -0.024836263 2.1134814e-05 -0.011737591 0.0013310115 -0.007943904 0.020916432 0.02699191 0.018662155 -0.016214516 0.00078270835 -0.039818384 -0.026578492 0.031468615 -0.0013548981 -0.021575004 0.014387171 -0.010406221 0.021750495 0.0065683974 -0.03670629 0.03803692 0.005428955 0.033243537 0.019210007 0.015257935 0.032885294 0.027805721 -0.03853777 0.021958735 -0.004302129 -0.0062597943 -0.038226694 0.025742656 0.016686877 -0.041281916 0.035029747 0.010587345 -0.0065531284 0.009036884 0.0044057667 0.015724093 -0.03193005 -0.0047523878 -0.011076048 -0.02990976 0.023087075 0.013936753 0.028219393 0.001551941 -0.011599566 0.032890525 -0.0063978485 -0.0068516037 -0.012951717 -0.0101308925 -0.00044108927 0.026281362 -0.0035694689 0.0126322955 0.016589751 0.00036388636 -0.03535267 -0.03275734 0.02424644 -0.0060791275 -0.008020347 0.017483708 0.020322662 -0.0071469 -0.013384054 0.019114226 -0.0051118634 0.0216962 0.0413683 -0.023043007 -0.03531351 -0.041232757 0.010200545 0.03244896 -0.014743408 0.00414671 -0.013050929 0.034542814 -0.004476607 0.023502385 -0.03696797 0.03513631 0.0116421785 0.012175083 0.007569378 0.009358427 0.012847871 -0.0055886954 -0.029898977 0.03153479 -0.02336295 -0.03185838 -0.0014352947 -0.009598265 0.04077968 -0.0062992377 0.019067582 0.007868161 0.015231794 0.0009582142 0.016317725 -0.005091737 0.02561323 -0.027889928 -0.031469777 0.019141337 0.03375238 0.033551153 0.0073990924 -0.015004481 0.041226786 -0.015338009 -0.038495965 -0.017692497 0.04122483 -0.023133278 -0.022908624 -0.033275858 -0.010071373 0.019926151 0.016188612 -0.038330108 0.03112046 -0.00929687 0.009705901 0.018499509 -0.023703188 -0.012381986 0.04160022 0.00062279904 0.030739024 -0.0109217465 -0.022619065 -0.02938289 0.03031451 -0.037097663 -0.02904306 0.021077475 -0.029107174 0.0059774867 0.025216382 0.021014076 0.02639847 -0.0051784217 0.03752634 -0.003755495 0.015063321 0.012389725 -0.030748576 0.021092217 0.009282301 -0.03516051 0.03240031 -0.006937345 -0.032570478 0.008280749 -0.024195611 0.015823837 0.010993144 0.005169799 -0.041410103 -0.013718819 0.034114383 -0.0077433786 0.0021947722 0.0325528 0.012043044 0.03892128 -0.027909607 0.04062309 -0.02571024 -0.0014598122 0.020349136 -0.028411021 0.03220705 0.014704963 -0.03756129 -0.019267436 0.026889658 -0.0014793277 -0.017639672 0.0007432749 -0.015234689 0.033490457 -0.01861256 0.033244547 -0.040959924 0.018350607 -0.009583985 -0.031030785 0.005864471 -0.0107529415 0.0015973698 -0.0073507978 -0.011425734 -0.0036117136 0.015976414 -0.012580812 0.0067135147 0.026757058 -0.036036383 0.036169417 -0.019908592 -0.035368077 -0.031003248 -0.027646339 -0.008165206 0.009707233 0.02937096 0.031418435 0.039342042 0.022382906 -0.0067031384 0.03934393 -0.006521593 0.009632409 0.03471981 0.0027828217 -0.02718865 -0.002439782 -0.009207964 0.03526145 -0.010725508 0.024205282 0.01812557 -0.010382156 0.009675076 -0.04160481 -0.03415459 0.020306483 0.03786723 -0.015398622 -0.0037300389 -0.016314005 0.01834632 0.029852595 0.0035319775 -0.029509395 -0.008225809 -0.0037759494 0.025121193 0.025689667 0.024466684 0.030120995 0.017319253 0.031872503 0.024427604 0.007818118 -0.027872374 -0.02594699 -0.016667774 0.023865845 0.03881722 0.014991974 -0.009391199 0.041143462 -0.013375918 0.020405244 -0.025721794 0.018470198 -0.0063026203 0.036049943 0.032754034 0.004510234 0.015369853 0.0027208924 0.03874498 0.02241851 0.0063159466 -0.02303595 -0.02520619 -0.02930749 -0.026217237 0.032702826 -0.024016514 0.030924018 0.014790192 -0.009405534 0.030881112 -0.020847391 -0.037240453 0.014655734 0.029262146 0.028071668 -0.0025190017 0.013265809 0.023546338 -0.035812464 -0.0054426393 -0.011917452 -0.002977272 0.010496652 0.01930738 0.034740694 -0.032613926 0.0027077547 -0.03277894 -0.0025675993 -0.0036754112 0.021439373 -0.020803303 0.02681975 0.035559207 -0.01942521 0.04043802 0.028120235 -0.0010922452 0.030192997 -0.022999745 0.026268046 -0.0006601463 0.021004176 -0.017245695 0.041510783 0.036046814 -0.02507272 0.027420368 -0.030107638 0.029523268 -0.035936803 -0.017105695 0.041031644 0.01512074 0.040983856 0.0319333 -0.0317816 0.039739408 -0.011410644 0.01591376 -0.022543266 0.00010433793 -0.021161115 -0.018631727 -0.028828671 -0.013056412 0.04163366 0.026995292 0.03172931 0.037188347 -0.013692096 0.0033494732 -0.035767566 0.026264396 0.007759427 -0.022528341 -0.01706339 -0.032148343 0.016884258 -0.017272975 -0.008949777 -0.017991196 -0.015601745 -0.025627326 0.030399125 0.016547665 0.009155671 -0.027204346 0.027379528 -0.024399256 -0.034202144 0.02852672 0.028505128 -0.020414125 -0.008937096 0.040299475 -0.019084802 -0.031236818 0.010565649 0.017593866 0.03499958 -0.0013087591 -0.022759086 -0.011407008 0.019543862 0.014886146 0.028988313 0.014404292 -0.033557244 0.03842265 -0.040071577 -0.03480871 -0.010684943 -0.03334976 0.0020730048 -0.0038443457 0.031383943 0.008075228 0.01858909 0.03536261 0.040028572 0.00811487 -0.013248265 0.039842527 0.0049902997 -0.0025375388 0.017367821 -0.00799883 -4.8746668e-05 0.04031565 0.03384335 0.0149662 0.031169813 -0.014764915 0.0086234715 -0.017738378 -0.04067731 0.036020093 -0.040310696 0.0002700637 -0.016300231 0.0070927693 -0.012370706 -0.026354536 -0.014732247 0.021081354 0.021601677 -0.01538918 0.016067252 -0.039784662 -0.020696089 -0.0067334822 -0.02911151 -0.0013070505 -0.003925219 0.0290693 -0.015717044 -0.026934272 -0.010867934 0.0047035962 0.008323764 0.002112811 -0.021953538 0.034348153 0.02194333 0.03035992 -0.03961399 0.023505842 -0.028903734 -0.03527753 -0.00076948607 0.0036906998 0.0226061 -0.032595858 -0.03318037 -0.03548814 0.03872545 0.017888537 0.031028708 -0.015519252 -0.03434999 -0.005101204 0.024382323 0.018072372 -0.006186088 0.023743566 0.034119494 -0.029353505 0.01585719 -0.0052697314 -0.039254285 -0.01014412 -0.02915895 -0.016439592 0.037471693 0.02338872 0.030152148 -0.00060842437 0.011254048 -0.0023387275 -0.024703085 -0.026442265 -0.03548887 0.016675463 -0.029353485 -0.033604167 -0.0029791247 -0.022022452 -0.0033694457 0.020514175 -0.04134291 -0.0021039993 -0.011557683 0.005990833 -0.027805349 -0.024951642 0.005085682 -0.033174604 -0.013987104 -0.018007051 -0.039131925 -0.008578122 0.019960087 0.030466106 -0.0072767786 -0.007775004 -0.028751414 -0.00075065595 0.0054676784 -0.02297166 -0.006440173 0.012052715 -0.011690731 0.0067563504 0.019390306 0.021155488 -0.024451237 0.03180344 0.01983796 -0.004609093 -0.017514031 0.010173148 0.032981183 0.00839905 -0.009353946 -0.0058089695 0.0074473172 0.023594704 -0.008121809 -0.035254925 0.00085602206 -0.03953261 -0.017412156 0.028599422 0.015458643 -0.036077213 -0.008060972 0.0129267275 0.0018963864 0.024968088 0.024717625 0.025325736 0.014239356 0.011816139 0.007744129 -0.02058365 -0.03560666 0.010540481 -0.040797025 -0.026411321 -0.019070482 -0.017390555 0.018132865 0.009548208 -0.027241638 -0.017638465 -0.0002775987 0.033509664 -0.0029128492 0.030032888 -0.0060756803 0.035141096 0.031121865 0.020297816 0.02591845 -0.014027512 0.003154859 -0.0014442554 0.006536752 -0.011428267 -0.017999884 0.036398705 -0.0020916662 -0.033392094 0.015396938 0.004707997 -0.03079554 -0.034589283 -0.004488468 0.04037304 0.010260239 -0.009899005 -0.021849137 -0.006016071 0.0014678687 0.032737296 -0.041258916 -0.028282732 -0.013790831 -0.005171503 0.017020192 0.030405303 0.017661279 -0.028639173 -0.015528093 0.025354743 -0.008292204 -0.0040886207 -0.015361851 -0.0027786642 -0.012031089 0.02254437 -0.011125888 0.020082166 0.004617314 0.012385215 0.009669836 -0.011651998 -0.028307434 0.040344656 0.012419651 -0.0038033228 0.0309418 -0.0067001237 0.028445762 -0.035256922 0.017594239 0.036894992 -0.008918236 0.0069160117 -0.0034803401 0.009841537 -0.037999973 -0.036001783 -0.028776538 -0.014348006 0.0197055 0.02871646 -0.034524508 0.038422104 0.032888293 0.013393819 0.020180931 0.010658747 -0.0043211877 0.012832051 -0.0027916334 0.037955135 -0.007722974 0.03440866 0.029219508 -0.0024240962 0.035894573 0.013879776 -0.006930302 0.032881968 -0.018909544 -0.040703185 0.02347317 -0.016538605 -0.0057545453 -0.039093524 0.030899972 0.027939733 0.00538074 -0.030510759 0.017219719 -0.029714227 0.0017394375 -0.0029144536 -0.0059279054 -0.009062107 -0.03204578 0.028743517 0.03943733 0.034733575 -0.013161659 -0.03326387 -0.019041067 0.0062167346 -0.034604307 0.013206705 -0.04135049 0.03784761 -0.01021949 0.038705513 -0.036415275 0.021703055 -0.03588102 -0.029858828 -0.022475457 -0.027921584 0.0027303249 0.020147234 -0.0194139 -0.03400822 0.006387835 -0.017125722 -0.011304349 0.011979094 0.009540385 -0.036767796 -0.012045106 0.02963924 0.027895188 -0.028017065 0.03743262 -0.037195437 -0.027805319 -0.018248266 -0.022509318 -0.002205208 0.013376445 -0.01689974 -0.016258037 0.034670427 0.037749432 0.0205311 -0.037997134 -0.006038343 -0.023624152 -0.008099924 -0.03772559 -0.028618202 -0.011706094 0.023329224 0.03547989 -0.018930113 0.004398947 0.02329058 0.010416737 -0.026500389 0.0071951947 0.028698083 0.027691415 0.013080766 0.0113012595 0.030513536 -0.036480978 0.03376035 0.0052266372 0.012259385 -0.014334932 -0.039337635 0.00333412 -0.0057174964 -0.03243684 -0.04073864 0.021442782 0.040844083 -0.008954113 -0.03137439 -0.004909729 0.027199116 0.020837348 0.033959836 0.04070729 -0.0014080505 -0.020333614 -0.032022294 -0.009516965 0.011110455 -0.0020873796 0.010202497 0.03792655 -0.008313676 0.012553737 0.011623278 0.004226958 -0.04044081 -0.040478565 0.021198755 0.029762115 0.03119804 0.0328077 0.016437268 -0.021370312 0.0050373226 0.031029072 0.006665334 0.0137964785 -0.014275422 0.036482837 -0.023650598 -0.024437275 0.031902082 0.018061131 0.0030412823 0.024639612 -0.00988853 -0.007457341 0.024812322 -0.037102133 0.003538847 0.00871935 -0.035340633 -0.023209393 0.017709091 -0.02363282 -0.04148002 -0.027127912 -0.011725242 -0.034245085 0.03833204 0.022475507 0.005666246 -0.020175204 -0.03725575 0.035434 0.0046439767 0.03746755 -0.00016121566 -0.028093662 -0.025007438 0.0075149043 0.0111112995 -0.022533488 -0.03761257 0.029434934 0.017324492 0.027929977 -0.022305872 0.036758613 0.03018044 -0.0059078834 -0.037999507 -0.0034940294 -0.02468587 0.022598764 -0.0355467 -0.010263245 0.02327047 -0.016761422 0.014930218 -0.0055433465 0.037341543 -0.038644366 0.015590678 -0.023288166 0.014680649 -0.004132703 -0.015997684 -0.0056621833 -0.033948116 -0.038836148 0.018029004 -0.032451537 0.034840085 0.012758439 -0.027739352 -0.040147316 0.025254842 -0.0125104785 0.010101005 0.014712036 0.025197666 0.033621278 0.00506108 -0.03988309 -0.026602795 -0.021191036 0.0071814954 0.022086427 0.0133483065 -0.016936725 -0.0046271784 -0.011666497 -0.03365962 -0.036689755 0.012072399 0.030334514 -0.02484776 -0.024275025 -0.023090824 -0.029804861 0.021010106 -0.0066361926 -0.026077554 0.005068491 0.041227497 0.011094163 -0.03734688 0.01651226 -0.013432702 0.013284381 0.03203412 0.0066758646 0.022732135 -0.022000358 -0.0066999793 -0.021034863 0.03138227 0.012442401 -0.021064818 0.019042134 0.0024247817 -0.0018226206 -0.03885507 -0.029722204 -0.039155878 0.030710345 0.011133259 0.020605272 0.017617073 0.0031274508 -0.0045704595 -0.037574686 0.02278985 -0.03688421 -0.03894904 0.026995342 0.03021824 0.0044874153 0.010312061 0.023964684 -0.01820308 -0.015381029 0.04154284 -0.02704899 -0.012938455 -0.00018236041 -0.0070033274 0.0062862635 -0.027618682 0.028596213 -0.0036530148 -0.03224519 0.034421172 -0.036505412 0.022313904 -0.006144966 0.013960719 -0.008704683 0.018027708 -0.03168431 -0.022083238 0.036239296 0.020765066 -0.0016335796 -0.00961422 -0.025055766 0.031456497 0.012271519 0.013173561 0.033307083 0.036217373 0.004791215 -0.03127965 0.03845158 0.0073577664 -0.03371019 -0.011072993 0.011950558 0.014178644 0.023833465 2.8481087e-05 0.03467787 -0.03614771 -0.0009186268 -0.013544406 0.017383208 -0.0059773824 0.03574326 -0.008535042 0.0019803494 -0.038471844 -0.028013345 0.012061259 -0.034001734 -0.009313921 -0.016391998 -0.025300121 0.0390131 -0.011208713 0.017082721 -0.040306367 0.00962474 0.012143716 -0.038391113 -0.023390468 0.027763885 0.026256606 -0.018144127 0.030905455 0.009309545 0.004121865 -0.004321496 -0.016320553 0.018709183 0.04019756 0.035182826 -0.019005632 0.034861304 0.010356451 -0.036634035 0.038429495 -0.007250359 0.014434661 0.014280528 0.033131897 0.028156102 0.021341344 -0.028376773 0.037470095 -0.035759937 -0.02350451 -0.019444194 -0.038731657 0.028510746 0.002426406 0.028745145 -0.030889422 0.01567429 0.028315991 -0.006383916 -0.0192963 0.041498385 -0.030014247 -0.0030195366 -0.010173356 -0.012494177 0.013124198 -0.008339912 0.026628222 -0.027247459 -0.0022618473 -0.023930471 -0.036116865 -0.041548714 0.020073172 -0.02356494 -0.030008655 -0.024994617 -0.005241166 -0.0028929613 0.036843702 -0.031211695 -0.019295901 -1.5348196e-06 -0.012110621 0.027203983 -0.03984066 -0.035230674 0.0059149815 0.0246505 0.03611643 0.039727863 -0.034711294 0.023459053 0.031533733 0.011023293 -0.011124423 0.008914451 -0.003985594 -0.02285567 0.018575337 0.012567878 0.010029152 -0.026848113 -0.03845437 0.00509724 0.0020200561 -0.02285938 -0.013612121 -0.03319433 -0.00513345 -0.006586517 0.03206925 0.00062026083 0.02072977 -0.023481404 0.0357631 -0.010004416 -0.01110287 -0.02434799 0.03195345 -0.036750432 -0.012775898 -0.032566305 -0.025808956 0.022662442 0.024117187 -0.038865745 0.040819906 0.0008600106 0.028027352 -0.04011938 0.029887801 0.04123996 0.03794796 0.00061457854 0.028447684 0.013480395 -0.020842224 -0.02089799 -0.02022422 0.03783868 -0.037986957 -0.009712458 0.018547669 0.03680344 0.005655085 -0.00050673884 0.021855563 -0.016673764 0.0049425317 -0.024676066 0.03471928 -0.03360071 -0.023849085 -0.031138733 0.0012203455 -0.028201636 0.0017203292 -0.028770447 -0.013525039 -0.015178433 -0.00062178075 -0.037237518 0.030325439 -0.02840525 0.01632679 0.008414413 0.036284015 0.022543997 -0.02266573 -0.026033452 -0.022145024 -0.0186228 -0.0002458493 0.0068169637 0.019006476 0.03361046 -0.009140095 0.023929706 0.0048167408 -0.038826138 0.027125567 -0.027285492 -0.028580204 -0.007229393 0.016298648 0.037666164 -0.0026604086 -0.033352338 0.031906098 0.020412281 0.024719518 0.03569953 -0.027543616 -0.026882004 -0.014968082 -0.039400116 0.028706547 -0.0044970415 0.03327754 -0.0061988337 0.012062475 0.03359976 0.037069824 0.015858889 0.014573867 0.033721678 -0.027046934 0.033416763 -0.004943346 0.018602803 -0.041522514 -0.02586393 -0.039607532 0.0016035836 0.0004133433 -0.017564088 -0.013425609 -0.023822263 -0.00062247616 0.01166908 0.006674881 -0.012010148 0.009991671 0.01981189 -0.024139062 0.015346751 0.029777702 -0.026660886 0.009376666 0.0341665 0.017478928 -0.024021253 0.014637521 -0.016740194 -0.008610725 -0.0010459622 -0.003363093 0.003839016 -0.011899918 -0.022381227 -0.013776675 0.008257255 0.029173687 -0.021197826 -0.031193525 -0.031608164 0.03333999 -0.014663896 -0.009442553 0.039518304 0.02991873 -0.009946987 -0.030740997 0.009577319 0.013868174 0.037540015 -0.03380567 0.011277258 -0.015321543 0.0016994278 0.019562175 -0.029862862 -0.035276096 0.010351568 -0.0073762736 0.007271141 -0.034962323 -0.031556424 0.038219534 -0.022306 0.0072522014 -0.017178562 0.03293713 -0.0069280667 -0.0074566854 0.0051033003 0.04110696 0.03933554 0.03942027 -0.0002546857 0.03639041 -0.011155765 0.036554318 0.023608094 -0.03623141 0.036902897 -0.011441678 0.032070406 0.0088824835 0.0286819 0.0043129376 0.011141345 0.015431127 -0.008754209 0.026146393 0.01413777 -0.020167258 -0.0073916167 -0.031872746 0.000959461 -0.012019619 0.019505635 0.017716076 -0.040650994 -0.02895838 -0.013807774 -0.014525428 0.021117216 -0.025600156 0.010244122 -0.030200517 -0.011780391 0.031631164 -0.03885987 0.013516824 0.012256235 0.0273139 -0.0004131198 0.023440182 -0.0019302716 0.012853871 0.037121803 -0.017892053 0.00011612972 -0.025073614 0.020313408 0.039681487 0.040057875 -0.016798507 -0.037225515 0.014196962 -0.02357763 0.013281366 0.038540952 0.0016133239 0.00016360979 -0.02057296 -0.02002713 -0.010170068 0.036142673 -0.010684813 -0.017977681 0.025238615 -0.012530729 0.038019903 0.025146654 -0.02426511 -0.015475234 0.030988028 0.007240554 0.025287619 -0.037087403 0.0074743778 0.041173704 -0.033184603 -0.020060133 -1.9207597e-05 -0.015440509 0.0025618474 -0.025305053 0.020904258 0.032709442 -0.0051896824 -0.019552901 -0.03472477 -0.016074106 -0.0016061714 0.025047898 -0.035244457 0.04135012 -0.010053928 -0.008697073 0.01658997 0.02136772 0.03707482 0.028226158 -0.0016637495 -0.023066994 -0.003251637 0.03079034 0.02750814 -0.013514131 0.034758355 0.018179253 -0.023187142 -0.02385895 -0.040126674 -0.022326887 -0.019147307 -0.0023360401 0.021819383 0.021437492 -0.03995397 0.037706405 -0.013810183 -0.018013418 -0.030794298 0.01944387 0.003678178 -0.025563344 -0.030209273 -0.011595011 -0.023143396 0.009081468 -0.026196962 -0.012837619 0.02580322 0.015324424 -0.024657479 -0.03446669 0.020790657 -0.01239354 -0.015278405 0.041161083 0.010739575 -0.020732522 -0.008903682 -0.02545328 -0.0032785586 -0.009655382 0.035385564 -0.021995127 -0.031781964 -0.010727341 0.0013127377 -0.038775068 -0.036175422 -0.034221895 -0.011474168 0.018700665 -0.027049413 -0.022995051 -0.032380503 0.0050387583 -0.028663512 -0.038961273 0.013112327 -0.015999611 0.018174034 -0.0022442988 0.019556224 -0.024452021 0.019820547 -0.032307114 -0.032695375 0.0025116205 -0.0031025908 -0.0019060671 0.0043090135 -0.001234303 0.038224332 0.023891643 -0.03841528 0.016320705 -0.0371831 0.013549924 0.030270174 -0.023258543 0.00027365983 0.0026257187 0.035069257 0.011181256 -0.03210175 -0.020539701 0.01293098 0.023027163 0.0024789772 -0.029295843 -0.015822437 0.040331073 0.032968115 0.008910259 -0.0078685535 -0.011274075 0.016845277 -0.020437455 0.025687939 0.02539697 0.039246257 -0.0009755294 0.016542649 -0.02029716 0.034309324 -0.02517046 -0.007450079 0.003605058 -0.027356237 0.019224029 -0.027861387 0.012239735 0.015275693 0.0042946986 0.03624779 -0.012705123 -0.010618418 0.021166202 -0.03206917 0.0393431 0.0042227805 -0.025248587 -0.035857227 -0.036603495 -0.029910058 0.0038178614 -0.02139411 -0.016522055 0.032638233 0.0082886815 0.011033337 -0.033732247 -0.0030458472 0.0017707249 -8.275112e-06 0.0073595694 0.015662208 0.01436854 -0.02317745 0.021141391 -0.017220503 -0.028091302 -0.000900502 -0.011366452 0.039373245 -0.041076764 0.016929727 -0.028106239 0.040721595 0.03540113 -0.0043947846 -0.03810452 0.0035595696 -0.01216046 -0.036231093 -0.03772747 0.00083999336 -0.03858183 0.012018358 -0.034699537 0.03178475 0.02759501 0.0034193944 -0.018651243 -0.038735874 -0.0076333336 0.015767083 -0.032107707 -0.009650966 -0.007957782 -0.023809224 -0.0010291934 -0.009213681 0.020969164 0.03463596 -0.009090474 -0.017204788 -0.041338608 -0.03806267 0.024443772 -0.028816741 0.032789245 -0.012425507 0.021997746 -0.036170878 -0.0062073125 -0.03375361 0.034088355 -0.016045457 0.01912513 -0.0034549385 -0.029437661 -0.03850206 -0.01570808 0.0153884245 -0.030545175 0.006007448 -0.008042137 0.037192777 -0.023996547 0.008305997 0.015418947 -0.019946044 -0.0022703707 0.0026192914 0.010260126 -0.0026782553 -0.008185948 -0.0279884 0.01951243 -0.023113286 -0.020868337 0.036037587 0.03864921 -0.004446949 0.040269785 -0.0022830963 -0.03477607 -0.012039423 0.022247856 0.036813848 -0.016119942 -0.0065050423 0.0126076 -0.033191975 -0.0024779043 0.02934575 -0.032102667 0.028619941 -0.030073509 0.031893156 -0.012383452 0.038242154 0.0011111449 0.04008865 0.00036135814 0.02981395 -0.0008325627 0.030057764 -0.03755219 0.006853973 -0.008711274 0.005348782 -0.020421725 0.027399197 0.01573278 -0.0039911866 0.020957332 -0.026722744 0.0034106623 -0.012234415 -0.036758225 0.02513161 -0.024964213 0.0005910794 0.012137666 -0.0040183766 -0.022971421 -0.03129272 -0.029774 -0.0072805337 -0.031247284 -0.011671658 -0.03742669 0.039379194 0.008163517 0.027071526 -0.030454129 0.004524579 -0.02285276 -0.00577199 0.03763474 0.019665793 0.01679784 -0.0243664 -0.033640053 0.017203297 -0.0199021 -0.010366177 -0.040705375 -0.009579524 -0.021279097 -0.026491305 -0.036656603 0.012302801 0.0005187293 0.020460367 -0.01708897 0.0024816245 0.02995276 -0.0010811638 -0.037943967 -0.015128091 0.0033904116 -0.01255168 -0.030233845 0.04119408 0.029956063 0.01003254 -0.024608126 -0.020043602 0.001243959 -0.019081047 0.040841542 -0.032751724 0.014884735 0.027233293 -0.028940564 0.015911266 -0.026053473 -0.019286728 0.041430034 -0.019050777 -0.036129244 -0.0034813534 -0.017729834 0.028073534 -0.037825696 0.018898886 0.021328118 -0.01275976 -0.003500834 0.019480642 -0.015648475 0.041185893 0.018981487 0.03796765 -0.017777264 -0.040584773 0.0078017665 -0.00810879 -0.00026531518 0.0002889683 0.021669175 0.038652472 -0.003051892 -0.018421993 0.0039134724 0.016602993 0.009825066 0.019334337 -0.033929743 0.021844234 0.039756455 -0.024196133 0.02146861 -0.0221019 -0.015526335 0.03830944 0.002402256 -0.031679563 0.036645487 -0.025290113 -0.02865991 -0.013708438 0.0021520108 -0.022222832 -0.015085235 0.017812982 0.00033311546 0.017184675 -0.039819174 0.040905967 -0.033704847 0.022170499 0.035149954 0.011082446 0.02010129 -0.011491726 0.0016803195 -0.028005421 0.03778453 -0.037170794 0.0006237378 0.02652458 0.028081577 0.03985811 0.007972355 -0.03184494 -0.03333808 -0.025512125 0.018741861 0.0115882065 0.027014967 0.027673777 0.029524982 -0.024886087 0.008629794 0.03307351 0.004064118 -0.040465273 0.00670221 0.019221064 -0.00810872 0.017746478 0.017367568 -0.033896714 0.012796129 0.037590276 -0.030599257 -0.036961205 -0.035917383 0.041504644 0.0048767133 -0.0139353275 -0.022334184 0.037707403 -0.039217666 0.007060051 0.006404872 -0.018666357 -0.02570812 -0.0012700856 -0.030572549 -0.032745183 -0.011641438 0.023822423 -0.031372648 -0.003980294 0.0010757148 0.027733779 0.016035762 -0.008478726 0.03474482 0.028216347 0.025001641 -0.0046080947 0.034052595 -0.022285199 -0.008355151 0.015530711 0.013702433 -0.007882735 0.041215256 -0.022661641 0.0025945157 -0.030253371 -0.03432072 0.014026523 -0.02945052 0.02776435 -0.024596762 0.018125206 0.032877564 -0.035563327 -0.037128486 -0.040796332 -0.023294762 -0.022393625 0.0020934343 -0.02860023 0.023150608 -0.008730303 -0.011757667 0.03657245 -0.02319388 -0.0014155309 0.0018985769 -0.03949351 0.0005049656 -0.035715427 -0.003844897 0.020498093 0.030250153 0.0054507656 -0.005318011 -0.04018509 -0.022737876 -0.01801458 -0.025130153 0.03313143 0.008927718 0.012394428 -0.0012210062 -0.012869125 -0.016046565 -0.000112980604 -0.024802983 -0.033454772 -0.0046082437 -0.015980925 0.0020335666 0.004283195 0.036331277 -0.0071638376 0.015842145 -0.036370628 -0.0367456 0.018157348 0.011646658 0.032662906 0.029452022 -0.03431399 -0.038391944 -0.029675156 -0.029804623 -0.0018966248 0.039096788 0.030613612 -0.034855958 0.004888495 -0.008842707 -0.0009040783 -0.0028170298 -0.023221955 0.017098382 -0.035273176 -0.01315023 0.03160216 -0.013804327 0.0024023156 0.037963897 0.029940506 -0.0069146454 -0.023853239 -0.00953879 0.025530607 0.018718645 -0.012665948 -0.00096302235 -0.015286243 -0.005793984 -0.016964823 0.0363703 -0.03518161 -0.03920817 -0.020742431 0.0059574745 0.016935524 0.013446391 -0.02005681 -0.036130246 -0.0022725414 -0.017174508 -0.021914259 0.009406368 0.024514552 -0.019338187 0.032702368 -0.02106608 -0.039220747 0.0013087293 -0.016184162 0.01120243 0.027308514 -0.02317217 -0.024928596 0.018255115 -0.030829549 0.0016870599 -0.019006437 -0.008737778 0.035009243 0.039485775 -0.030122742 0.008182451 -0.040224537 -0.015126482 0.038881894 0.015683573 -0.0039612604 -0.014563273 0.011870667 -0.012247667 0.023343753 0.0067469478 -0.0368054 0.015283461 -0.01320385 -0.025970321 -0.017234754 0.0324267 0.013467918 0.008840656 -0.019721821 0.02025427 0.009335756 -0.03239457 -0.001964609 -0.0056384406 -0.03453013 -0.020016273 0.02845573 -0.020426368 0.029365709 -0.028189898 0.015501266 -0.03016765 -0.032189906 -0.02824318 -0.02055971 -0.020376628 -0.0056131533 0.02381151 0.040781803 -0.03800173 -0.0027618161 -0.023088217 -6.829202e-05 0.028643042 0.023628494 0.0054274104 -0.039658763 -0.023385188 0.014136608 0.014088517 -0.020809665 0.027659025 -0.023387399 -0.03093136 -0.007532522 0.02458929 -0.017901521 0.037953388 0.024474239 0.037130326 -0.037527367 -0.035965513 0.0059301704 0.0016589066 -0.024603054 -0.039894875 -0.013888761 0.025108 0.031524077 0.0097708255 -0.014590442 -0.03114385 -0.030022463 -0.030665766 -0.015777882 -0.032776445 0.026484555 -0.04122145 -0.018833315 -0.027783528 0.028359285 -0.012177835 0.004126718 -0.021546777 -0.01606381 0.0124209225 -0.01848578 0.004779528 -0.0066389493 0.0068941265 0.032714527 0.02614828 -0.039385617 -0.0023715745 -0.019819483 0.014636746 -0.023990061 0.0036108694 0.017998636 0.0073821945 -0.0066727055 0.03258773 0.011486724 -0.013621271 0.021148503 -0.029716626 -0.0070016733 -0.001476407 0.023506304 -0.009172256 -0.007699033 0.03457225 -0.005347287 0.038351446 0.005818854 0.03608544 0.022427153 0.036571365 -0.025047805 0.011902362 -0.004206255 -0.009325406 -0.008959278 -0.01060998 -0.031464487 0.035455383 0.025871238 0.0007466575 -0.022924175 -0.026885763 -0.019615998 0.038205385 0.03661355 0.035191875 -0.030858979 -0.011116555 0.020866647 0.040713277 0.020702943 0.030569848 -0.010040572 0.031839095 0.036896028 -0.022803124 -0.01255102 0.01291063 -0.034341224 -0.00032327574 0.037863992 0.023278516 0.0038148663 -0.031681396 0.0055869026 -0.022133138 -0.027277693 0.004124835 0.0025657217 -0.033953276 -0.025617456 0.015519306 0.015239075 0.006444469 -0.026501581 0.014977833 -0.04105953 0.01614677 0.0128916055 -0.034972176 0.00766855 -0.00463069 -0.01836232 0.029989725 -0.010358433 0.016644102 0.00020013253 -0.035107642 0.004839048 -0.040538862 -0.02503246 -0.030697694 0.032570787 0.020155942 -0.03568923 0.031759955 -0.004883697 -0.020389285 0.023212498 0.0041116527 -0.02195257 -0.03751778 0.024154067 -0.030573756 0.027659953 -0.026247367 -0.007230252 -0.010522997 -0.029488465 -0.025557678 -0.039320864 -0.0016211818 -0.028441772 0.03631904 0.036386367 0.036428563 0.030363774 -0.02555128 0.03516447 -0.00013321638 -0.0012361854 0.017642867 0.018378984 0.0010045867 -0.004201596 -0.031262226 -0.03479831 -0.010774469 0.01631112 0.013619403 0.007498359 -0.03610423 -0.0034362227 0.009070978 -0.027560934 -0.022318989 -0.025696635 0.005781477 0.01884165 0.00021328032 0.016547218 -0.023688829 -0.040578227 -0.012331839 0.025966853 -0.0018683772 0.019515257 0.027184134 