0.022689585 0.009234724 -0.0089997295 0.009287953 -0.010972562 -0.0044537573 -0.00877851 -0.001794672 0.010973376 -0.0071497234 0.012228319 0.012611789 -0.018362034 -0.009471125 -0.008907527 0.022481767 0.016090719 -0.017745612 -0.0084275305 -0.0035062253 -0.020707054 0.009853333 -0.006289041 -0.011766965 -0.024603656 -0.006224066 -0.024073107 0.011358991 -0.021864796 -0.00054236053 -0.013809106 0.021787127 0.0029762895 -0.012578688 0.012523782 0.01643585 0.00250642 0.022415254 0.00298284 -0.01630236 -0.014907322 -0.0049171536 -0.0043767244 0.008653623 -0.010946733 0.0014485151 -0.007629666 -0.02495577 0.0030910224 0.014976585 0.009828246 0.004791683 -0.00030848684 -0.004027599 -0.004713792 -0.015780507 -0.015383107 0.013012114 0.023847995 0.007160944 0.00921647 0.012833655 -0.011092353 -0.023226285 -0.017176468 -0.016179249 0.017062292 0.018413419 0.0064303516 0.009954539 0.020825088 -0.023103913 0.0042547435 -0.01725829 -0.018685594 -0.0032857775 0.012616522 -0.02330175 -0.016970841 -0.021218577 0.01139035 -0.014962494 -0.0032999606 -0.0007946074 0.00328314 0.023983777 -0.0011982709 0.01251798 -0.016772522 0.020430872 -0.00044638812 0.023631467 -0.008204254 -0.023741487 -0.0018066078 -0.008336383 -0.0096241 -0.022400973 0.012112853 0.00062285963 -0.0023826242 -0.02288038 -0.0072603645 0.021268314 -0.0069177686 -0.0061733215 -0.016965408 0.023189459 0.012317628 -0.017523607 0.013619441 0.014489064 0.022213945 0.023704514 -0.016602663 -0.011095804 0.023973634 0.022385165 0.018267248 -0.023322633 -0.014932138 0.011776573 -0.01049256 -0.023343915 0.0089980485 0.017849758 -0.006544632 -0.0048935683 -0.01204463 -0.0011051595 0.010480187 0.0062840316 -0.00019136071 0.015562937 -0.017236708 0.010539958 0.010672224 -0.020533089 0.020385504 0.009498424 -0.0153947985 0.021029357 0.012267107 -0.0024272741 -9.861588e-06 -0.00715023 -0.021399865 -0.012707091 -0.02357163 0.017088044 -0.019986037 0.016443435 0.0124541735 0.021845667 -0.0048253774 0.01768688 0.010619754 0.00043636264 0.0033674508 0.0026060939 -0.008979142 -0.020978183 -0.0020824939 -0.018207053 -0.008055386 0.005442479 0.018247453 0.022769568 -0.00077692274 -0.009003791 -0.0065196604 -0.015869973 0.013890973 -0.024943871 -0.014403484 -0.017753461 0.007634926 0.014115858 -0.018485611 0.012030527 0.010219815 -0.0074574887 0.009309697 0.021946922 0.014086145 -0.014887422 -0.0017269731 0.008858941 0.004501128 -0.022485498 -0.0063894424 0.008558041 -0.017516647 0.019492438 0.010290334 -0.00029082596 0.020757422 0.022742534 -0.023862122 -0.021871975 0.009766412 0.017427737 -0.02131677 0.013349983 -0.012426115 0.023391584 0.0038058131 -0.0013106465 -0.006586641 0.0047537806 -0.013036531 0.019966755 -0.012970191 -0.017057205 0.011208231 -0.020517081 -0.022400377 -0.011759669 -0.015620345 0.0051546157 0.01347847 -0.009236357 0.024910156 -0.0006171167 0.020095995 0.020838356 0.022366378 0.00559001 0.0096743135 -0.0018045753 0.010208407 0.0115300445 0.016714796 0.011154056 0.02107968 6.1598425e-05 -0.020700578 -0.016736507 0.017503975 0.005901152 0.009838796 0.01971135 -0.014005745 0.004875487 0.0100110145 -0.010608739 0.023725256 -0.0045388374 0.016872311 0.015313253 -0.019933222 -0.0010453969 -0.00024911165 0.0010039568 0.015439302 0.023230437 0.0207403 -0.020899743 -0.023553893 -0.01536631 0.021701882 -0.004590237 -0.018469933 -0.012854007 -0.010636741 -0.007176805 -0.012982795 -0.023682615 -0.010017926 0.02224935 -0.012275952 -0.006052011 -0.0011341184 -0.0061228275 0.019440731 -0.010523033 0.0046669184 0.013308919 0.012093511 -0.021173973 -0.0072354227 0.022880567 0.011710728 0.0068997326 -0.023734907 0.024901291 0.022118658 -0.007858527 -0.0040825903 -0.020809 0.011559355 0.007301864 -0.012147901 0.0056779804 -0.0038671494 0.024088833 0.006287581 -0.0055922717 -0.020672886 0.005720127 0.008947494 -0.0050708177 0.021589065 0.01606234 -0.021850834 0.0033808171 0.0015761137 -0.011727646 0.008338371 0.022289192 -0.01617004 -0.019792536 0.00643588 -0.024712387 0.012724978 0.004283452 0.006471476 -0.0023035319 0.0004745543 -0.017959332 -0.022440253 0.0244389 -0.020646205 0.023163915 0.021321332 0.024294585 0.012602416 -0.017381955 0.011955169 0.0049838456 -0.0075242072 -0.018477846 0.018185532 0.017354324 0.007705584 0.0056196274 -0.015473819 -0.0082944725 0.02136162 0.022964776 -0.012518979 -0.011839199 0.013576284 -0.00397085 0.01285803 -0.02054426 0.024019932 0.011995206 0.014910141 0.023826262 -0.0059217573 -0.009537461 0.0057141036 -0.017133055 0.00902105 0.0030481666 0.020867107 -0.0240578 0.022975499 -0.008581928 -0.02319864 0.013050109 -0.017111788 0.007209331 -0.02382037 -0.013509336 -3.5694244e-05 0.023027623 0.011834196 -0.0023610413 0.020347102 9.142458e-05 -0.002420822 0.0138846515 -0.0043664724 -0.022432307 0.008335886 -0.0017903447 0.01461632 -0.02446918 0.0008070976 -0.023491591 0.01760993 0.020445734 -0.018601427 -0.0068165543 -0.022530884 -0.014074636 -0.021880617 -0.019938631 -0.0035833865 0.0072246525 -0.0052725016 -0.0152769415 0.0019605875 -0.008799285 0.018821854 0.019396344 0.0060306727 0.02364718 0.007141 -0.000113967064 0.013034734 -0.0025871338 -0.011384758 -0.0219569 -0.010080576 0.024897654 0.0034748078 0.0059419097 0.022336302 0.01051589 0.002703497 0.00091579556 0.017642496 -0.0244609 0.024458334 0.018661765 -0.013916418 -0.01340757 0.021123767 0.020327393 0.020577341 -0.014425734 0.007790619 0.014241737 0.012729841 -0.019876499 -0.0061949133 -0.02439565 -0.010747248 -0.00550465 -0.013981611 -0.023678143 -0.006169391 -0.0030145198 0.0060496214 -0.018039389 -0.022862365 0.0005357057 -0.0019984662 -0.022056699 0.010046119 -0.014820638 0.022260267 0.0060418546 0.02460286 -0.0031945854 -0.0046206773 0.0011751027 -0.018743346 0.0098859845 -0.019034347 -0.004390246 -0.010420111 0.008115229 0.005035424 -0.01540069 0.02164324 0.023056552 0.012423727 -0.004673937 0.0070824623 -0.005480704 0.0009261042 0.014452112 -0.023076952 -0.014197091 0.011876616 0.01836728 0.010173008 -0.014076591 0.006075823 -0.004948175 0.00041368604 0.006170684 0.0025316596 -0.010047299 0.023495153 0.021469487 -0.008690092 0.020646116 -0.017972002 -0.007831315 0.016049767 -0.012228838 0.021836538 0.0079513965 -0.014024354 0.023378173 -0.010180214 0.0066793235 -0.023659905 0.013162637 0.0035421492 -0.014356977 0.022199972 0.0040138336 0.0033767284 -0.0168643 -0.01731548 0.0042718085 0.016382217 -0.020852892 0.016568998 0.009063658 -0.0060162097 -0.019831194 -0.02297919 0.011110467 -0.018937856 -0.018078266 -0.0031651706 -0.0088761 -0.018485883 0.0039273025 -0.018427739 -0.013334281 -0.0033741624 -0.018474791 0.0011552483 -0.0036774129 0.0103829205 0.0052408813 0.023769705 -0.01906083 0.010347137 0.0026809366 -0.02271381 0.014360222 -0.019582048 0.012641492 0.0033656568 -0.01663418 0.008932242 0.022626905 0.02272009 0.012311346 -0.018044969 -0.006433314 0.01074965 0.016410545 -0.0058973255 0.0058251857 -0.016505787 0.005623159 0.011527166 -0.011614508 0.0024912774 0.022848321 -0.020081434 -0.018675422 0.01883153 0.012811765 -0.021183988 -0.010215178 0.0055472613 -0.00029209853 -0.0025162995 -0.022094492 -0.0043913634 -0.015828816 0.021510953 -0.006719938 -0.015147716 0.007042757 -0.0023640187 -0.010787091 0.011692608 0.015631957 -0.013455192 -0.0022079647 -0.010303095 0.020177877 0.012778655 0.004136813 -0.009082451 0.0050923885 -0.0138655575 -0.009596047 -0.021039551 -0.010420558 -0.005146939 0.017829323 0.0026812733 -0.016641814 0.019260516 0.0048391162 -0.00077972113 0.017041296 -0.022917861 0.012779281 -0.0072670104 0.0068510114 0.023124536 -0.010859251 0.01093182 -0.0068492326 0.016454726 -0.0019524843 -0.022154927 -0.010200793 0.013820318 0.009085971 0.017498171 0.022990271 0.004707113 -0.0039553046 0.0007425636 0.008294961 -0.02340819 0.00605118 -0.00037037136 0.019142022 -0.01415998 -0.017034119 -0.013517082 -0.010174612 0.0032294483 0.01305857 -0.0071486025 -0.0014021546 0.01265468 -0.022543257 0.009666217 -0.020951394 -0.010718581 0.019717067 -0.011054344 0.024088994 -0.008823395 0.0069555524 -0.012506718 -0.014991823 -0.0035935044 -0.017660802 0.0031480193 0.009815991 -0.0016057909 0.015520818 0.010481092 -0.016743356 0.0020318597 0.0068117115 0.013963684 0.01572822 0.021464694 -0.019203609 0.010315537 0.0031342001 0.0029891133 0.00019607545 0.016428499 -0.017870868 0.024577115 0.023323735 0.019735036 -0.013619313 2.708137e-05 -0.008066184 0.006176284 0.004712853 0.011410448 0.0014346421 -0.014421403 0.0036784112 0.024425289 0.004086852 -0.004123315 -0.004976645 -0.012563813 0.00062497857 0.005496836 0.009494856 -0.017951477 -0.02334102 0.0066210926 -0.009809461 -0.011783016 0.016348619 0.004377216 -0.021693388 0.008453778 -0.005588174 0.016653443 0.017395291 0.008479488 0.00023202598 -0.0143254725 -0.021719819 -0.021640634 -0.010519597 -0.014331213 0.0074156164 0.023223186 -0.014749455 -0.01980309 0.012808758 0.022403141 -0.020824471 0.021099498 0.011433447 -0.010819516 0.013734075 -0.010706499 -0.02325595 -0.00164527 0.019532526 0.015131838 -0.020943914 0.009829304 -0.018445665 0.0093510365 -0.012836096 -0.023238236 0.008747712 0.008935392 0.0030858428 -0.0025601983 -0.012443411 -0.024155436 -0.0041641146 0.014700276 -0.008985534 0.008284643 0.011949191 0.023952335 -0.024369348 -0.02110889 0.014669842 0.0055897445 0.009948674 0.0030296922 0.024717579 -0.0032238334 -0.021438483 0.019241272 -0.018523661 -0.0009156138 0.024703858 -0.005099443 -0.0035656213 0.0068802447 -0.011345196 0.01814963 0.005896136 -0.018613422 0.0039696544 -0.009356761 -0.021204898 -0.011858023 -0.001943776 -0.014036536 0.00947127 -0.019058606 0.001516235 -0.013466987 -0.012902311 0.017275674 -0.005126539 -0.002668804 -0.017901598 0.022185886 -0.024610773 0.009869791 -0.0045487317 -0.024866296 0.0055208593 0.0030440153 0.02330107 -0.005124852 -0.00097251835 -0.010706812 -0.014075232 -0.017854888 0.023162393 -0.007074854 0.00755375 -0.016523937 -0.0037288608 0.023662988 -0.010859606 0.0186543 0.012380326 -0.015310836 0.0020170927 0.0138017 0.0153721515 -0.014368135 0.016925542 0.012831166 -0.0098621575 -0.01302951 0.0016949534 -0.012540313 0.01307632 0.0049926164 -0.023589795 0.011523113 -0.013877633 -0.009163571 0.0003844619 -0.003954366 0.0007445812 0.004754999 -0.024726663 0.0041286647 0.012734011 0.008246273 -0.001516673 0.012329429 -0.005653134 0.0042547914 -0.0012407423 0.014666754 -0.010914511 0.0060682567 0.001342249 -0.009353057 0.003499812 -0.011425114 0.024018431 0.008688497 -0.010913247 0.002551213 -0.024022356 -0.0020549656 0.010324055 0.00962016 0.012511298 -0.0031642378 0.02156437 -0.0020984502 -0.020259112 -0.0061020763 -0.01659461 0.021137187 -0.003466508 -0.003283605 -0.019819153 -0.013930309 -0.0057192654 0.0162559 0.023069331 -0.0061237724 -0.020158444 0.016005693 -0.014535913 0.023128975 0.015638668 -0.018734684 0.022071991 0.009832582 -0.0146214785 -0.009289456 -0.00636856 0.01924901 0.0088961 0.014648977 0.017026162 0.02106829 0.010381335 0.014806303 0.017193211 -0.016654063 0.005508244 -0.015910426 -0.013537759 -0.023565888 0.02000526 -0.014262313 -0.021247948 -0.022195254 0.0046028616 0.00026631355 -0.010571653 0.014226141 0.0130329225 -0.0034072876 -0.024104727 0.0152171645 0.017189903 0.00017466843 -0.0200005 -0.0067916424 -0.0050934525 0.020712662 -0.016732795 0.024073211 -0.010614097 -0.014543763 0.000565809 -0.01972695 0.0028185814 0.015136749 0.0035271496 -0.008692018 -0.014441636 0.017610703 0.0035208077 0.013981432 -0.02366781 -0.0029023737 -0.022237116 -0.012788862 0.01723598 -0.012007427 0.0149112195 0.017760469 -0.021580536 0.013136021 0.019461868 -0.014978245 -0.024866072 -0.014480499 -0.015223431 0.021826256 -0.008444103 0.0046992064 -0.02097705 -0.023105962 -0.021263232 -0.021249518 -0.02116177 -0.0039984765 0.017627327 0.0021478476 -0.010059866 0.012404874 0.01665513 -0.021245599 0.020145878 0.015716378 0.021324197 -0.0006510645 -0.00017808974 -0.011016545 0.007585606 0.014078028 -0.016198236 0.017932786 0.010871485 -0.021326894 -0.012179801 -0.0030054003 0.0096566025 0.003893742 -0.017226178 -0.012683431 -0.021875156 0.0156733 -0.018699585 0.008608255 -0.010177568 0.0051165908 0.010304645 0.023469964 -0.006188339 -0.0031069578 0.0055799545 -0.0031834901 0.010641557 0.0181319 0.0059187026 0.0071659624 0.0076355906 0.00794088 0.020312855 0.0018591821 -0.021235978 -0.013249958 0.021875132 0.024394557 -0.015892042 0.005304429 -0.01773032 0.018321037 0.007406402 -0.016420359 -0.010977971 -0.0009872944 -0.023348397 -0.010895672 -0.002606523 0.0067536025 -0.013806293 0.012527305 -0.016532276 -0.017161643 0.020657465 -0.005200726 -0.017521014 -0.018100774 -0.011564347 0.017839164 0.017711226 -0.023053376 -0.008162776 0.01902914 -0.023097364 -0.016248448 -0.0013545692 0.0019574107 -0.016440472 0.022841293 -0.021766106 -0.0181538 -0.011322903 0.010103583 -0.0066892863 -0.013760331 0.0038344176 -0.023921689 0.013050533 -0.011324245 0.02252774 -0.0074129286 -0.00027214587 -0.01879155 -0.023503799 -0.007110563 -0.008883662 -0.0008241922 -0.019877447 -0.02172716 0.009369752 -0.00087180734 -0.004978159 0.007688019 -0.023924336 0.024416534 0.017877182 -0.003983635 0.010299134 0.01505276 0.016740426 0.013318357 0.024516305 0.014593405 0.017018018 0.022911001 -0.0187251 0.020722827 -0.020597784 0.011425522 -0.015804693 -0.0036457868 0.02343784 -0.021138942 -0.016162777 -0.00476535 0.003910628 0.023213977 0.015204826 0.015128306 -0.014560262 -0.022729019 0.01281586 0.008285052 0.018040901 -0.008615324 -0.011923501 0.017264858 0.0047043683 0.008219588 0.020087225 -0.00858613 -0.01585404 -0.019886618 0.00825156 0.012581835 0.023023939 0.0094430065 0.017171962 0.001121825 0.008460469 -0.007375136 0.008958253 0.009454519 -0.01985648 0.013090816 0.0014286668 -0.0016393185 0.009238407 -0.01426133 0.0118429335 0.015575433 0.00090276 0.0056484314 9.647012e-05 -0.017617567 0.020774016 0.004935694 0.011119494 0.010993696 0.0072111874 0.022221092 -0.02310965 -0.0031613917 -0.014322529 -0.01810276 0.0012191952 -0.005389458 -0.011394021 -0.017798005 0.013611868 0.016680053 0.0069800853 0.008097976 0.021128548 -0.0052894624 0.011356405 -0.023735378 0.012751201 -0.0029677122 0.01504454 0.008527115 0.013797948 -0.0023187192 -0.01584321 -0.01543414 -0.01136567 0.02164655 -0.0041362974 0.019423828 -0.020040369 0.0125171095 -0.022839958 -0.012117243 -0.02480239 -0.01041266 0.010278779 0.009404078 -0.010411421 -0.008873969 -0.016164888 -0.004238993 0.010820967 0.006907201 0.0032507211 -0.02279372 0.002226928 -0.015416977 -0.020270696 -0.014466378 0.011384494 -0.02300453 -0.02474831 -0.023352465 -0.022253333 0.0061653885 0.018916568 0.0013114393 0.0012074917 0.0076182755 0.004555887 -0.01608218 -0.012046799 0.007487941 -0.022259636 0.008939144 0.022776699 0.018057263 0.0036718696 -0.006628877 0.0064640166 0.008438507 -0.02257526 -0.003249061 0.024190614 0.00624809 0.0034667165 0.021576842 -0.012208456 0.0077716173 0.02429004 0.0064484063 0.021593088 0.00706307 -0.018457869 0.00016393662 -0.0043856087 -0.01390704 -0.010242561 -0.00534882 -0.019088998 -0.015820121 -0.022424668 0.015375862 -0.023155916 -0.0064311745 0.004882327 0.003259796 0.007481098 0.0009296119 -0.018977666 -0.012070409 0.012578356 -0.022822514 -0.020811444 -0.0049037817 0.00760271 0.015495173 0.001796326 0.01977892 -0.006595075 0.01620389 0.010370153 0.0015129865 0.008555258 -0.022719562 0.013768322 0.007984352 0.016221149 0.0065228613 -0.011441869 0.017134726 0.014301009 -0.0057750377 -0.014620468 0.017527116 -0.006593728 -0.01648413 0.023596793 -0.0123554235 -0.01601817 0.022166455 -0.021834303 0.021419495 0.0031900913 -0.009540907 -0.011948029 -0.0052197785 -0.021373067 0.008751044 0.019332329 0.00784176 0.020476177 -0.022352893 -0.007322982 0.01984455 -0.0058705597 -0.02417509 -0.01217022 -0.0026750714 0.0009268135 0.008214724 0.0021463216 0.003779179 -0.014561973 0.00675087 0.02252224 -0.01790594 -0.012075988 0.011098984 0.0046141776 -0.009509551 -0.018073678 0.009136277 -0.016497975 0.015553194 0.0027687133 -0.024969226 0.01743791 -0.008191234 -0.01334216 0.024334965 0.0231975 0.0036735327 -0.008887139 0.005709967 0.022136142 0.0052667856 0.015277502 0.0072695613 -0.00023531615 -0.02420175 -0.021601727 -0.022869525 -0.0112776905 0.0051973495 0.024547538 0.01444869 0.0095126955 -0.019749949 0.02449604 0.022341887 0.022136081 0.019143192 0.0021817088 -0.006066212 0.016011572 0.00901674 -0.023462772 0.019977758 -0.020524863 0.013505927 0.020037428 0.010680661 -0.024206638 0.024501717 -0.022812704 -0.021299168 -0.00062735676 0.018951792 -0.023346199 -0.015273723 0.0071490468 -0.006771958 -0.009952006 0.007282648 0.0056860237 0.014954686 0.012940267 0.020349119 0.012709803 0.013259935 -0.0077197733 -0.0076358677 0.0005999923 0.0077534798 0.011203221 0.021589164 -0.012110556 0.0037890614 0.01070385 0.011109605 -0.018603373 -0.012650341 -0.017749047 -0.023999352 0.021935308 0.020761142 0.021389613 0.01558911 0.014782548 -0.021013949 -0.00877961 0.0077098045 -0.017975107 0.015671 -2.3740531e-05 -0.0066502662 -0.014713049 0.013995418 -0.022683859 -0.0009907067 0.00084235374 -0.02145115 -0.021921298 0.016448665 -0.0043468266 -0.012128568 -0.022331193 -0.012042129 -0.0052834186 0.01822167 0.011664989 -0.0047140154 0.007962975 0.00776608 0.024952918 -0.0066509335 0.0077940165 0.013183731 -0.020591473 -0.01904406 -0.020465259 -0.0019145191 0.005819169 0.002972272 -0.022009684 0.010281691 0.008821449 0.0036276043 0.02017416 -0.013355279 -0.0069518955 -0.016419059 -0.004908377 0.010432131 -0.007719898 0.01376918 0.02033609 -0.008483365 0.013792134 -0.0012888104 -0.008236805 0.022783745 0.022680802 0.008433989 0.001645869 -0.019023031 -0.023347259 -0.006276545 0.018234942 0.02288347 -0.0025877028 -9.763241e-06 -0.021686807 0.019626005 -0.014603364 -0.012175289 0.010122547 0.011054749 -0.01512622 -0.018460145 -0.013848078 0.017070988 0.0097774565 0.0058168173 -0.021403257 0.018945396 -0.009330064 -0.008550072 0.018454013 0.001513198 -0.015318013 -0.004883361 0.008128869 0.024903795 -0.0056484463 0.011921766 -0.0078948615 -0.024294848 -0.016866108 -0.011052552 0.017160533 0.0020563304 -0.0030878962 -0.008170125 -0.013805184 0.00021163226 -0.013931322 -0.0024619014 -0.016246034 0.02049228 0.022968514 0.021095825 0.010066009 -0.018052628 -0.005050376 -0.008980015 0.012770585 0.024459708 0.020221848 -0.013897947 -0.0038520396 0.011536208 -0.019334469 -4.7767164e-05 0.024609907 0.0032431425 -0.012228188 0.012609067 -0.0025060743 0.0056619793 0.008078525 -0.023374742 -0.023062859 -0.010594613 -0.0077388138 -0.021879438 0.014398617 -0.0028874637 -0.020368015 -0.0031565817 -0.0245778 -0.021886084 0.003198579 -0.0017240852 0.011589125 -0.012863151 0.018363297 0.0024813325 0.00029020608 -0.0066333446 0.0042704316 -0.0047373027 -0.009914989 -0.004763624 0.0024101466 -0.009572113 -0.005358496 -0.02156782 -0.0067550363 0.0010749102 0.004928884 -0.012943012 -0.01267353 0.017035846 -0.00591152 0.0021553696 -0.017307071 0.023309126 -0.0048548165 0.0040568113 0.012799943 0.015102115 0.0061763227 -0.007168022 0.019962791 -0.0054614902 0.0068154335 0.022525404 0.021265805 -0.0031284958 0.009858332 0.016957402 -0.0010210008 0.007255593 0.00411261 0.0049123527 -0.020237848 0.01729672 -0.0021954149 0.015891327 -0.02336053 -0.007377708 -0.0022390098 0.022466628 0.007842488 -0.016590625 -0.012016338 0.018323168 0.0015188874 -0.015992248 -0.0017894 0.020217905 -0.01515534 0.0031882585 0.022506336 -0.008081431 0.014175368 -0.021393348 0.00050465466 -0.023985762 0.013255939 -0.015005851 -0.004604286 0.023738045 -0.008731228 0.007997096 -0.0069455593 0.0053136707 -0.008818129 0.011337868 0.008758488 0.003976652 -0.022999177 0.005296445 0.0054197162 -0.014860413 -0.019551534 0.006890872 -0.00060791074 0.00026379526 0.0101248985 -0.011575964 0.01653852 -0.010361495 0.0038941086 0.01376237 -0.015322479 -0.018754587 -0.0036931038 0.010011098 -0.017335532 0.023859382 -0.0069129616 0.024639323 -0.0032976419 0.023928171 0.020567054 -0.016955895 0.024700744 0.0064400584 0.006216732 0.00886586 -0.011255524 0.023909658 0.011745757 0.0106076365 0.016368315 -0.023362283 0.022899358 -0.0075780037 -0.013676685 0.016246397 -0.010788492 0.021299062 0.0011134386 0.0060391277 0.024570769 0.017854203 0.00241884 -0.0004048884 0.016580949 -0.013105434 0.008342928 -0.0039652525 -0.020162174 -0.0031083494 0.01082328 -0.0011265337 -0.0230387 -0.00042716265 -0.0022372336 0.008619866 0.020389164 0.007423675 -0.02311168 -0.022856845 -0.013126942 0.0014136762 0.017092047 -0.008911612 0.01924182 0.0041549685 -0.013280231 -0.011764598 0.0060265544 -0.0032062442 -0.007435519 -0.0069083483 0.012473756 -0.012202737 -0.0049734116 -0.003588903 0.01822186 -0.02485439 0.021044234 0.018901184 -0.021894932 -0.008894632 -0.007910497 -0.008720261 -0.0066442164 0.004224524 -0.009563157 -0.010846776 0.01462355 0.00086963474 0.006098011 0.023348315 -0.012265811 -0.011082736 -0.015214932 -0.021050101 0.00020920932 0.004308969 -0.024015343 0.008979878 -0.00085125864 -0.015352082 0.0076979906 -0.012749738 -0.0006969422 0.0053152055 0.00611642 0.01900804 -0.019754011 0.007015601 -0.013960877 0.010934303 -0.015901122 -0.0067247152 -0.018674264 0.010529763 -0.021009684 0.007012743 0.017480243 0.0033721149 0.021793379 0.0046982737 -0.019086812 -0.020053107 0.021276224 0.0023243905 -0.022362059 -0.024986923 -0.012509591 0.011671126 -0.023060134 0.008655995 -0.014472923 0.011623085 0.017569223 0.014712858 0.011359594 -0.0033939152 0.01983589 0.007863096 -0.003879133 -0.011691675 0.004085326 -0.020579068 0.017792094 -0.0113603 -0.022215446 -0.015505758 0.0019106836 0.010962936 -0.021687264 0.02212807 -0.0013864011 0.006338519 0.021205088 0.004248896 -0.012340585 -0.015677158 0.020089477 0.024055034 -0.0059057386 -0.0020215244 0.0007431358 -0.010926241 -0.0020026357 -0.023488218 0.01691117 0.018797785 0.00671466 -0.005017847 0.014984078 -0.0075078458 0.0016567678 0.011839173 0.018721728 0.0075639873 -0.024196723 0.017081216 -0.02410574 -0.0065597952 -0.015875602 -0.02037841 -0.00852134 0.011312294 0.0046571316 -0.01229646 0.012282801 -0.020252043 -0.02276479 -0.02057348 -0.02455763 -0.009662727 -0.005269152 0.0038385422 0.013043106 -0.0038530917 -0.0012130588 0.014636832 -0.011075124 0.01823025 0.002586508 0.019065306 0.0038873851 0.0068454267 -0.004467759 -0.023310317 0.018603072 -0.011335525 0.024287516 0.023747534 0.022767613 0.014858297 -0.016149176 -0.009245053 -0.00045294763 0.006082043 0.017215634 0.017157843 0.024991963 -0.023970068 0.0067972066 0.005278194 0.00972681 -0.023386855 0.019928826 -0.015252051 0.023805395 0.012470272 -0.0018728853 -0.001540497 -0.007667652 0.015408781 0.024089122 -0.007572451 0.022251835 -0.010498363 0.0224498 -0.006234607 0.022027636 -0.017765298 0.023975281 0.012585953 -0.017771307 0.008222053 0.02035669 -0.006291613 0.017472437 0.00919129 0.023100505 -0.018783817 -0.005693683 0.0091333985 -0.006850645 0.017741704 0.004599741 0.0011234016 -0.004994118 0.013892764 0.024895698 -0.015401012 -0.016494801 0.008136782 0.012713799 -0.022623388 -0.0031298846 0.018668989 0.022312379 0.010255975 0.018192185 0.017411092 -0.0074675293 -0.011881924 0.0015859008 0.017125428 0.0041868 0.02233108 -0.0023229332 -0.014872975 0.016085768 0.0018468291 0.01220991 0.015328571 -0.020716926 -0.006019318 0.024553908 -0.010835806 -0.0040473104 -0.0006546557 0.012507317 -0.003926781 0.024822963 -0.015848044 -0.01131273 -0.0041451934 0.015172491 0.004779008 0.009119338 -0.0009540051 0.0028637291 0.023577645 -0.004670313 -0.020729039 -0.0054786922 -0.010596854 0.014283657 0.004780537 0.008813605 0.00044809282 -0.007425174 0.02347155 0.01652193 0.010641641 -0.0034204454 -0.008586389 0.0019935877 0.024489736 0.011710978 0.022581933 0.020927876 -0.009441489 -0.018027762 -0.021734122 -0.015900424 -0.009753093 -0.021267438 -0.0024927855 0.018883212 -0.00031918287 0.020288264 0.010180289 -0.01040681 0.0053391694 -0.005467001 0.0052392366 -0.012953833 -0.019510303 -0.0017813742 0.0187935 -0.009047056 -0.0044763624 -0.017179051 0.021865403 -0.017528033 0.020687474 0.01805695 0.004188919 -0.019419169 0.00948138 0.012523896 0.020182377 -0.0149137145 -0.013802627 -0.020865327 -0.012690675 -0.007778749 -0.00043682754 0.019803375 0.0150035 -0.009051937 0.01191802 0.0076090964 0.006202647 -0.00951981 0.011813948 0.01783638 -0.015354154 -0.008570477 -0.02113363 -0.0031307072 0.0033673288 0.0022768737 0.01917688 0.014139163 -0.012590254 -0.024322784 -0.006873426 0.00953342 -0.022743646 0.00046511888 0.009875849 0.0047875317 -0.005660549 -0.014460206 0.005374399 0.019760495 0.013486675 0.012001902 -0.007310501 0.005797607 0.0221211 -0.017043889 -0.009312913 -0.018563945 0.02089108 -0.006551537 -0.009428841 0.02259632 0.022946611 0.023220768 0.0069326996 -0.00044563116 0.0043760836 0.021957591 -0.004917911 0.016850933 0.010393671 -0.008401039 -0.013466582 -0.006797767 -0.01362254 0.012275499 -0.02400806 0.007793394 0.003901258 -0.014439449 -0.003286156 0.010578999 -0.01734905 0.023832032 0.0005961627 -0.0020687848 -0.008044249 -0.00023437441 -0.003899175 -0.0021959336 -0.013805595 0.010717014 -0.021577824 -0.019686002 0.017885674 -0.0021309496 -0.024668679 0.022566766 -0.012420791 0.022140263 0.02383074 -0.0027988732 0.0067713084 -0.02465551 0.008128357 -0.008767098 -0.016824767 0.002298224 0.0021094084 -0.004027683 -0.022120167 0.0245153 0.0038125813 0.0003341794 -0.011652163 -0.015709925 -0.024828842 0.0006418616 -0.014452818 0.021571472 -0.01845908 0.015207506 -0.024792928 -0.020097956 0.016691668 -0.01112026 0.0006306946 0.013365671 -0.013418409 -0.023501 0.01136182 0.0028462112 -0.02263459 0.0019919605 0.02069332 -0.023866534 -0.0028371364 -0.018640691 0.018274805 0.020597184 -0.02314188 0.023288745 -0.024173388 -0.007381752 -0.011570716 -0.0034150989 0.015993414 -0.011717639 0.004199648 -0.006329146 -0.02199161 -0.008860928 -0.01985391 0.012214678 0.01897991 0.016756086 0.016501829 0.01596613 -0.0030723184 0.023926774 -0.02466398 0.007917583 0.016007552 0.00013183057 0.01352129 0.019995151 -0.006564787 -0.021000216 -0.022429729 -0.0020726323 0.007518697 -0.018775327 0.007194382 -0.00938082 -0.009593594 0.009711966 -0.020286946 0.0023370087 -0.018713633 -0.0020380497 0.015337559 -0.003126508 0.021013314 0.0005399108 -0.01512869 -0.015423122 0.0024083972 -0.0197974 0.009585413 0.012475237 -0.015765036 -0.00063972175 0.0011250436 0.005543906 -0.021556063 0.024577057 -0.013951242 -0.023230622 -0.006859085 0.005923364 -0.0065778256 -0.010948903 0.012033782 0.019160721 -0.02365067 0.018693209 0.010756934 0.020949993 -0.02486842 0.019297529 0.0038172961 -0.010892785 0.009199992 -0.01739563 0.008203441 0.02142035 0.015950164 -0.017787984 0.011868286 -0.011413979 0.015949506 0.013438016 0.00010418594 0.0003130019 0.01164321 0.012540138 -0.007868543 0.020090917 0.010210827 0.003932047 -0.024970075 0.0034780235 0.01411984 0.019532314 -0.009742645 0.019257262 -0.019710237 -0.019186482 0.0155787235 0.005603826 -0.007165304 -0.010728813 0.0028263957 -0.011459309 0.02488552 -0.011895227 0.019874468 -0.009691852 0.011657521 0.018807262 -0.0026762635 -0.0046042562 0.0052595916 -0.009582418 0.023017118 0.012515226 0.010216072 0.010189745 -0.015115643 0.021961203 0.014650032 -0.0067930105 0.008605081 -0.0057946653 0.021058246 -0.014968703 -0.0031347245 0.011064097 0.0025381416 -0.024578994 0.011700082 -0.007729477 0.008405876 0.019990018 -0.019585256 0.016554473 0.006411284 0.019578476 -0.00472489 0.019020915 0.015097183 -0.010141149 -0.017141372 0.014484853 0.015833497 -0.0034345717 -0.017818866 -0.0020863952 0.015469867 0.001802513 0.017992282 0.00820019 -0.015804335 0.015357179 0.015717303 0.021064878 -0.0055492907 -0.009877703 0.01753271 0.022458727 -0.023855105 0.0004120946 0.0013399154 0.01162082 -0.020948438 -0.016428268 0.007284707 0.007939014 -0.003133002 0.006687847 -0.020721285 0.01913551 -0.01037738 0.023403449 -0.0065455916 -0.01898469 -0.0162032 -0.01094577 -0.023217706 0.0036188543 0.014140973 0.0052511217 -0.002450484 -0.024061842 0.012665045 0.0013260454 0.009025923 -0.017259274 -0.016522182 0.007642263 -0.018156964 0.00023413301 -0.0031100125 0.0010157973 0.021517796 -0.012719333 0.008511282 -0.008260652 0.013074505 -0.019763852 0.00813843 0.0014034242 -0.01828434 -0.0060895714 -0.022659097 -0.008293688 -0.003988892 0.024735272 -0.022385722 0.007126847 -0.015664522 0.0066102357 -0.010502547 -0.0029341578 0.014923123 0.0072234212 -0.017975096 0.002389437 0.008209881 0.009307495 -0.0009969681 -0.009523419 -0.022899702 0.0033851892 -0.010278589 -0.012865272 0.01314103 -0.006692007 -0.019774592 -0.014527196 0.006261483 -0.017436206 0.015080181 0.023910468 0.004621291 0.009307009 -0.0028645277 0.024713233 0.021499127 -0.020212442 0.0036495866 -0.015010938 0.022368122 0.001635006 -0.009673941 -0.008202664 -0.004827106 -0.00408541 0.02135495 0.024145752 0.021253755 0.016266892 0.007921213 0.0047717663 0.024879968 0.02180419 0.020260671 -0.009928653 -0.016990125 0.0051932484 -0.014522225 -0.013509634 0.012394259 0.011008456 0.0013496012 0.0025244087 0.013107479 0.016833758 -0.0119628105 -0.017915 0.016526312 -0.023902614 0.010922027 0.0023415447 0.0026985377 0.0073512704 0.010991365 0.0052764327 -0.0052594873 -0.012297845 -0.014294601 0.007896033 -0.005299777 0.001442796 0.023456851 0.017473742 0.016009111 -0.010129044 -0.005810243 -0.017450063 0.001449585 0.024426078 -0.005109054 -0.019709527 -0.019748388 0.015953446 -0.015902197 0.01751024 0.007961387 0.019171247 -0.003467229 0.0025099665 0.008062574 -0.023274375 -0.010331976 0.008720092 -0.0096769575 0.006882477 -0.01948987 -0.012711874 0.006690404 -0.014405253 -0.018053224 0.011450655 0.023068337 0.0046473653 0.0076608094 0.013531891 0.019764272 0.0042445064 0.00690375 -0.014760599 0.014865044 -0.006047112 -0.008792422 -0.012656671 0.0060105207 0.024496889 0.0071130334 0.009035731 -0.0030706495 0.015456489 -0.0011253477 0.015873134 -0.003995094 -0.014425823 -0.017761204 0.004395527 -0.024846537 -0.024340479 0.0005394787 0.0064320117 -0.023441998 -0.010821521 0.02365899 0.020664914 0.012620422 0.018257523 0.01917108 -0.018363649 0.020657355 0.005026478 0.020424558 0.011866611 0.015688881 -0.02409473 0.014710468 0.014554635 0.012539628 -0.01305269 -0.016727006 0.018646944 -0.019634858 0.019225812 -0.0020629615 0.00025219025 -0.016265253 -0.012356499 -0.0128983855 -0.021155676 -0.02257259 0.02487999 -0.018043933 -0.014547193 0.015305472 -0.00069085363 -0.019923205 -0.007870606 0.0064494433 0.009825334 0.016111953 0.020689702 0.008343676 -0.0042761625 0.024999192 0.0138026355 0.0058887424 0.021323323 0.003583476 -0.004111034 0.02273998 0.016131748 0.008339164 -0.005216509 0.0048208744 -0.0072499993 0.0117605 -0.01141912 0.016039906 -0.0010465801 0.010831404 -0.005470678 0.019901736 -0.022069221 0.015550069 0.012451842 -0.010995365 0.011588774 -0.014834139 0.004207668 0.0038518996 -0.0014050901 -0.0012751193 0.004807982 -0.0101386905 0.007972074 -0.01800372 0.0022073686 -0.010799077 0.021394426 -0.024951234 0.0022712678 -0.0044133216 -0.014024264 0.01613689 -0.017547889 -0.011110795 -0.02102586 -4.4548513e-05 0.019533565 0.022788515 -0.014022318 -0.0029326768 0.014365608 -0.022345489 -0.013007635 0.0041483464 -0.020962566 0.0054230005 0.023755101 0.008104431 -0.017847255 0.01959694 0.0029435337 0.018792912 0.018962309 -0.016854325 0.013651493 0.018025963 0.0044064014 0.011953339 -0.004093978 0.001826638 0.0051245033 -0.018978221 0.007753259 0.017688194 0.0056399466 0.014793458 -0.005804816 0.010287932 0.017965466 -0.017714893 -0.00962019 -0.0038345517 -0.0067142993 -0.008550636 -0.021736352 -0.010132707 0.0001473099 0.005808255 0.0055104466 0.024448937 0.017551187 0.014686934 -0.013708028 -0.019703938 -0.0050846697 -0.003251475 -0.019545376 0.014814111 0.0129812425 -0.00022294224 -0.02036575 0.008652234 -0.008130488 0.0024884671 0.00617933 0.000520435 -0.014041317 -0.019635413 0.009969226 0.022196775 0.006105089 0.008404684 0.0162075 0.0012199789 0.012625095 0.0038785518 -0.024434222 -0.009658942 -0.011653352 0.014889011 -0.001959616 0.006048891 -0.016993824 0.00051048695 -0.018193116 -0.010519877 0.002895394 -0.019819317 0.012159133 0.014879203 -0.012102735 -0.005964351 -0.014348186 0.014435214 -0.0072189453 0.0165158 -0.014912138 0.005896908 -0.0009025574 0.020098561 -0.0026286186 0.012156064 0.0064559816 0.0015942425 -0.013595057 0.002523613 0.02170381 0.0036683232 0.019760583 0.0012143672 0.008327559 -0.011537269 -0.015634114 0.019698817 0.016377226 -0.011059785 0.008077115 -0.0035834194 0.0009166837 -0.006871802 0.006254849 0.019168003 0.0031855018 -0.009866205 0.012514916 0.00964959 0.012514832 0.0018557638 -0.01978047 0.011962083 0.020061795 0.0061271936 0.020282982 0.016778568 0.01791128 -0.024160877 -0.00018596649 0.0011418551 -0.014365143 -0.01617289 0.014132845 -0.024839258 0.010267085 -0.006993234 0.0011262418 -0.0039855274 0.013465494 -0.013318583 -0.008943403 0.010161606 0.017826876 0.0025504173 0.021993587 -0.017760798 0.017972548 -0.024002884 0.016224897 -0.013517752 0.008234036 0.0073979557 0.013626424 -0.012503207 0.021208007 0.0047032833 0.011218393 -0.022747451 -0.01125207 -0.011117116 -0.01168511 -0.017192645 -0.0116351815 -0.0032803684 0.008471674 -0.002649787 0.019648505 -0.015428769 -0.010000023 -0.009873402 -0.017375186 0.020200405 -0.021343598 -0.0123155415 -0.004332313 0.01618119 0.023801515 -0.009612769 -0.01813422 -0.003633368 -0.022926146 -0.008109564 0.017145464 -0.019255597 0.015501437 -0.0184979 0.0066971215 0.016747309 0.023796353 0.0019209236 0.020754257 0.013179401 -0.015877148 0.015699778 0.021742553 -0.004634121 -0.022834053 0.014203069 -0.0020262839 0.00033814312 -0.015172732 -0.023947796 0.010949141 -0.0006843597 0.0192757 0.01861676 -0.0034046024 -0.024497047 -0.004180929 0.022051483 -0.006286904 0.0065738293 0.02188914 -0.020770183 0.023283813 -0.003562215 0.015862554 0.0017888517 -0.0077310237 -0.017317323 0.0065600933 -0.01347624 0.009761549 -0.015251013 -0.008143419 -0.007968396 0.004133973 0.005452633 -0.0077032954 -0.023761377 -0.0094279675 -0.022516275 -0.011565754 0.0012158155 0.02103579 0.005533883 -0.0078047845 0.019371334 0.021329377 -0.018805329 0.023079205 0.005145079 -0.0037597062 0.0091282725 0.019569794 -0.007037312 0.024057973 -0.0027794063 -0.005342743 0.020957882 0.016102586 0.018982118 -0.016970864 0.0156064695 -0.018425358 -0.0014745176 -0.021567166 0.02331813 0.022918789 0.009989008 0.008099794 0.003013593 0.002870235 0.01569864 0.014702842 -0.0066753416 0.020191217 -0.021065632 0.022075554 -0.013545531 -0.00038724244 0.0049603493 0.008546129 0.020216016 0.01281018 -0.02315099 -0.0020372153 0.0053079785 -0.0151947355 -0.0065383376 0.020162702 -0.015393573 0.008004934 -0.02059823 -0.015440262 0.015798643 -0.016693706 0.0149176065 0.017896418 -0.007098055 -0.015355843 0.01811917 -0.020899752 -0.016735364 0.00031035245 0.02361597 -0.02391765 -0.012491703 0.0047615916 -0.004575512 0.02045916 0.007874993 -0.011620185 -0.007751754 0.009826193 -0.018279389 -0.012915862 0.015524692 -0.017027348 -0.009771744 -0.00908789 0.015370709 -0.0145996725 0.0027615817 0.0002132982 0.007313886 -0.006352195 0.017108873 0.000120291115 -0.015901444 0.018267034 -0.0038615048 0.011180344 -0.018250285 -0.012706995 0.0065789702 0.0119024245 0.013152621 0.009932282 -0.023835573 -0.015315271 -0.001665473 0.011918432 0.019972602 -0.0012320519 0.024459986 -0.02301673 -0.00053253176 0.022634348 0.015245098 -0.024199301 0.014785769 0.012557504 0.01249491 -0.00986957 0.0022552728 -0.003492573 0.010668049 0.021110985 0.0031193346 -0.014617691 0.014497655 -0.01510458 0.0027658045 -0.00016282499 0.021738648 0.015964542 0.016167248 0.008872203 -0.01413365 -0.015019751 -0.00021528603 0.0034209134 -0.0050836713 -0.020198852 -0.010369668 0.012576118 0.021134881 0.021181623 0.022813594 -0.020596368 0.023058945 0.018129975 0.022962218 -0.0010897517 -0.024774704 0.02272285 -0.01931386 0.0031820685 -0.011460689 -0.006872851 -0.011012859 -0.0010159165 -0.013701019 -0.0191731 0.0011680782 -0.02446389 0.009607983 0.0031189919 -2.5364758e-05 -0.013816297 0.01859498 -0.011806405 0.023425728 -0.00076699856 -0.024191806 0.0023779094 -0.01640265 0.016102066 -0.022580845 -0.0024852753 -0.022396043 0.02364899 0.013101625 -0.004320553 0.002137664 0.02018486 0.009203705 -0.015380952 0.004321283 0.01954329 -0.0053982767 -0.0013443291 0.0037931264 0.024128584 0.007790527 0.005627909 0.02144725 0.021154596 0.0090716155 0.0072555393 0.0013525457 0.00091979204 -0.012710616 -0.004436982 0.0044330955 -0.00051687064 0.0186524 -0.022430265 0.0030683787 0.010534531 -0.0044639856 0.02027741 -0.00067949295 0.01506792 -0.0012962312 -0.017039506 -0.022266526 0.008799642 -0.02294699 0.01092799 0.003826332 -0.0070816907 -0.007996825 0.019905254 0.0064481706 0.010008103 0.00038258435 -0.0016840876 -0.008361769 -0.008965331 0.020605123 -0.01826711 0.010935539 -0.006994662 0.022982214 0.00062653125 -0.020649647 0.021533031 -0.021623889 0.024473866 0.01586595 -0.023743689 -0.022992853 -0.024553686 0.018268311 0.024555659 0.0116341505 0.019003123 0.02006281 -0.019904539 -0.008713278 -0.0116658155 0.018782739 -0.022583589 0.022831133 -0.0060947896 0.007712373 -0.012165764 0.012695658 0.0012316287 -0.0080894 -0.024255384 -0.015157858 0.009639183 -0.013136655 0.016499529 0.018134568 0.014961767 0.023131624 -0.02359422 -0.010553709 -0.007891349 -0.010586294 0.021158678 0.010016936 0.013587055 0.024625558 -0.010112378 -0.010905287 0.0020106495 -0.012492645 -0.024465153 0.004825336 0.016884217 0.021454576 -0.012607726 -0.019341309 -0.0019260049 0.020203551 0.024745477 0.024693523 0.02097078 0.0072143585 -0.011722538 0.00862777 -0.00967657 0.002896455 -0.010992184 0.0009309679 0.0050421 0.0010303379 0.014203787 0.004349342 0.008321959 0.023291526 0.0030769885 0.016668603 -0.015043119 -0.009377748 -0.016934156 0.023039564 -0.01660404 -0.0054271254 -0.024453377 -0.0039556953 0.012505004 0.0028082014 -0.005086294 -0.016234238 0.0033374042 -0.011058343 0.012574079 -0.017543942 -8.595586e-05 0.016234893 -0.021449065 0.0021685006 -0.01540888 0.0012779832 -0.009531072 0.024616947 -0.011310247 -0.022946483 -0.002431056 -0.008231926 -0.012918807 0.020261629 0.022360167 0.022240648 -0.013788277 -0.0070649832 0.007145962 -0.012302882 0.015305695 0.02359885 -0.011146724 0.022339875 -0.0054943087 -0.023062099 0.0016769916 -0.006404063 -0.017151302 0.021287436 -0.024947077 0.019559035 -0.017813519 -0.00027657748 -0.02207839 -0.021827504 0.006797281 0.019647492 0.01392251 -0.018600682 0.008091429 -0.0037373246 0.0033450276 0.01621363 -0.007868138 -0.004061058 0.0125026945 0.0028713257 -0.015265286 0.023074297 -0.004074049 -0.0064278664 -0.0005114466 0.008889812 -0.0043905945 0.00047408044 -0.00015627444 0.018275803 0.0074647847 -0.0024448992 0.0198364 -0.008371181 0.008498782 -0.0037107647 -0.024624292 0.012459747 -0.018578371 0.02056933 0.021914503 0.021901045 -0.024041703 -0.018793738 0.013990439 0.017118989 0.023447389 0.015570745 0.005136609 0.011340258 -0.0008738786 -0.018995497 0.011720824 -0.020168392 -0.013172001 -0.0049535185 -0.016666232 -0.012888438 -0.003599608 0.020343816 -0.013069788 -0.016748253 -0.017375065 -0.007816428 0.0032606751 -0.002368015 -0.008713225 0.008906648 -0.023271227 0.023304982 0.015260706 -0.00533295 0.0038312287 -0.021913031 0.0013878793 -0.023277542 0.0089613795 -0.017039118 -0.023903737 -0.024667352 -0.0070993276 0.008501959 0.01989817 -0.0053752214 0.009736031 0.0036909522 0.012175301 0.0048431456 0.0086698355 0.0026929379 0.010193321 0.018161887 0.02092881 -0.021295493 0.0121552525 0.015088553 0.013056404 0.01601215 -0.0060910406 -0.013287294 -0.0070315986 0.008310432 -0.0069854646 -0.0030116232 -0.000879401 -0.00022591352 -0.02109681 -0.0050094277 -0.00159446 -0.024907855 0.004851967 -0.0075261532 -0.019465793 0.02411962 -0.015791584 0.014451605 -0.016972182 -0.020419661 -0.01652678 0.0007933289 -0.018063188 -0.0035646202 0.019883329 -0.023134097 -0.02418572 -0.019917248 -0.0038367063 0.0010581106 -0.007616237 -0.02494714 0.008679638 -0.0030139 0.0068930835 0.02312508 -0.010855558 0.009225058 0.0048017027 0.013227701 0.011418986 -0.0138586825 0.016964883 0.012302751 0.020568097 0.009379503 -0.024186019 -0.004529837 -0.016880183 -0.015553737 -0.005090383 0.0061213407 -0.0057952343 -0.01124953 0.024795312 0.021690894 -0.024037827 -0.01429669 -0.001204449 -0.006511143 -0.013450938 -0.016062466 -0.024646485 0.013753322 -0.013074771 0.021927798 0.024912694 -0.014672465 -0.011201784 0.007112786 -0.0041089267 -0.017498896 0.0189273 0.0018875509 -0.024806058 0.010177922 -0.012969265 -0.020840598 -0.0017070204 -0.011895088 0.020263568 -0.0047352104 -0.0040239156 0.024313664 0.022771636 -0.014140949 -0.012120447 0.00021757782 0.0070598335 -0.0022919716 0.024454897 0.0075027435 -0.018093837 0.015904222 0.018050969 -0.022405675 -0.010495332 -0.02325773 -0.011622259 0.0068161427 -0.014583317 0.0032022984 -0.0014593989 0.0038775147 -0.015041718 0.01849514 0.014335078 0.0067921667 -0.0057464363 0.013052317 0.006722659 -0.0076306015 -0.013257042 0.012015211 -0.022699818 0.02271511 0.0148954755 0.016826505 0.00833689 -0.010728321 -0.0011654705 -0.015508729 -0.020488024 0.010883075 -0.0007688135 -0.009251845 -0.0065401495 0.019394875 -0.0033977062 0.015390763 -0.010110107 -0.0033266605 0.008935076 -0.024089048 0.004826826 0.003751099 0.0056563555 0.015404591 -0.02013199 -0.023253981 -0.0076781334 0.016217506 -0.018771807 -0.01692518 0.008435464 -0.017061302 -0.0043047755 0.0041772663 0.01169737 0.0031772018 0.0049008727 0.024239529 0.020213276 -0.00069817604 0.0034967244 0.0013466001 -0.013378751 0.00648939 -0.0067323386 -0.01167123 -0.016495187 0.0014382094 -0.010172549 0.022553954 -0.00387097 0.019658614 -0.009329865 0.00017141402 0.020431781 -0.011092884 0.009769142 0.008887038 -0.00025438666 0.018080562 0.0020078332 0.0050576567 0.018671274 -0.0007528484 0.023165165 0.020633379 -0.022336511 -0.018865079 -0.021223957 0.00065926614 -0.022761643 0.008467555 0.024774252 -0.0075100395 -0.020723516 -0.006862548 0.017806625 -0.00054025353 -0.011081696 -0.011527401 -0.015156671 0.010562494 0.012418652 0.014023009 -0.002886361 -0.002026701 0.0017549455 -0.018716937 -0.0028155537 0.00012793542 0.00563547 0.0017147064 -0.010627801 0.0028176338 -0.023154596 -0.0057005943 -0.019272406 -0.02395752 0.014304466 -0.013781997 -0.00722003 -0.008306471 -0.008712098 -0.0075454237 -0.016537055 0.022176737 -0.019626355 -0.0054026963 -0.016660338 -0.021382451 0.022058351 -0.007838747 -0.0128056975 -0.006085074 0.015491712 -0.00086517335 0.02171795 -0.005963278 0.024073845 -0.023221185 -0.0238514 0.018061874 0.016558988 0.023452861 0.016542569 -0.019562596 -0.017272681 -0.017310882 0.0035291226 0.016589036 0.019773623 -0.011196965 -0.0089479955 -0.010117719 -0.014762736 0.005298525 -0.002737263 -0.001161167 -0.007008958 0.015218496 -0.0128137795 -0.011816153 -0.022088397 0.014706028 0.023819117 0.019323686 -0.021915188 0.011959314 0.01353364 0.0074693384 0.021434883 0.022085836 0.02322271 -0.020539826 0.01584929 -0.015755257 0.015957087 -0.0021748096 0.017686 0.020130128 0.014783624 -0.017323313 -0.016379198 -0.019160038 -0.010099852 -0.013638842 0.024817968 0.0041498514 -0.007641879 -0.015410748 -0.0234263 -0.017625446 -0.024031917 0.024501566 -0.02236024 -0.01378757 0.0014662683 -0.016844569 -0.02296461 0.008346734 -0.020411149 -0.0066738846 0.0098283235 -0.010857984 -0.01906468 -0.008413985 -0.016715279 0.015531877 0.015540547 0.005750862 -0.0033482045 -0.0005545408 0.010503587 -0.017143885 0.016443545 -0.0040627006 -0.02481615 0.024677342 0.016069833 0.021739556 -0.017747212 -0.0048670233 -0.023661558 -0.010764045 0.024152786 0.019066473 0.020541465 -0.00879887 0.023566136 -0.023179596 0.0032573224 -0.022797896 -0.01892063 0.02216863 0.0007615656 0.016713772 0.014545808 -0.0029387444 -0.017303294 0.02448468 0.018458277 0.023943579 0.0012389154 -0.014988425 -0.0053050104 -0.01629358 -0.0065645874 -0.019524572 0.008078453 0.0009058088 -0.0005484402 -0.023479033 -0.008645928 -0.011382595 -0.024077788 0.01298587 -0.007775304 0.0068508326 0.013319713 -0.0030297549 0.022797976 0.024984285 -0.017760227 -0.00035903454 -0.007012719 -0.019961635 0.021360835 -0.019632602 0.0038869858 0.016644208 0.0057967543 -0.0149003565 -0.014909163 -0.006975341 -0.00062848924 0.0004633665 -0.008083734 -0.02250894 -0.012831032 -0.00013272464 -0.023292914 0.0040320694 0.020245764 0.017386025 -0.0240228 0.017669177 0.007241768 0.020294253 0.00808056 -0.018443191 0.0033791214 -0.012088633 -0.021338243 0.018929211 0.02093404 0.014828572 -0.0043678135 0.0046835723 0.0092366105 0.0041571707 -0.010995272 -0.007904708 -0.018200427 0.00030486286 0.004726735 -0.005858964 -0.011169595 -0.008704028 -0.014066661 -0.021237006 -0.006331131 -0.020552445 0.024939513 0.024270495 -0.021410748 -0.0042003305 -0.0220263 0.024404496 -0.0072701722 0.00726634 -0.01872836 -0.015197135 -0.007266545 0.0119535625 -0.006681919 0.02237863 0.020182416 0.005791226 0.010368037 -0.010519281 -0.010552528 0.0045344653 -0.012801162 -0.009740374 -0.004465276 0.024133822 -0.022778777 -0.0017432243 0.024713391 -0.0017902612 0.007494572 0.003602022 0.009520749 0.023028493 0.00804036 0.022702843 0.017045027 -0.009929406 -0.0147908 -0.014467564 0.015987104 0.024062946 -0.014826166 0.02141215 0.02191085 0.006730667 -0.00041282477 0.008357087 0.012143895 0.023437047 0.014054296 0.024284089 0.0060502025 -0.0080013815 0.021437425 0.010283661 -0.014718554 0.010829315 -0.007343668 0.023521129 -0.022286952 -0.023172623 -0.0028057934 -0.012505076 -0.00071640016 0.011970562 0.018264478 -0.01621877 0.009706095 0.020283952 0.01171642 -0.017258942 -0.008211303 -0.014321178 0.023709903 -0.012923169 -0.0110921655 -0.00015633107 -0.0069268197 -0.0022862465 0.020533532 -0.023695627 -0.022981236 0.011429983 -0.005179328 -0.01050011 0.0067330482 -0.021197632 -0.0031539649 0.021099374 0.003872502 -0.022802565 0.018173296 0.021103134 -0.0021550686 -0.009551957 0.021078592 0.006495708 0.01900279 -0.022557726 -0.017850658 0.0015245676 -0.021943277 0.017240852 0.0037047386 -0.02126084 -0.019294059 0.0038908303 0.008888954 0.005842197 0.0014721871 -0.01490666 -0.011074227 0.01261619 0.0113725215 0.012199268 0.0017445683 -0.02393803 0.005104822 0.005766359 -0.013843778 -0.023735091 0.009700549 0.023336062 -0.012205044 -0.022013068 -0.0020483762 0.01479944 -0.0024244816 0.013269806 0.013418898 -0.011317092 0.0019488275 -0.014536074 -0.011804747 -0.015085635 0.024475992 -0.01048989 -0.005390558 -0.006120998 0.014147192 -0.0036396296 -0.024211142 -0.015374929 0.017029477 -0.001829198 -0.0028667958 -0.011416564 0.0057964 0.009289873 -0.013478646 -0.01874716 0.014159429 -0.004384935 -0.02054785 -0.004364875 0.024271745 -0.024596943 0.024772136 -0.013800866 -0.010073743 -0.0032714605 0.00034955144 -0.01552687 0.016871879 -0.011399883 0.010609949 0.01117445 0.019070173 0.016059166 -0.02443462 0.009152043 0.0015503407 0.015862107 -0.0132922325 -0.003000784 0.0013461292 -0.020541478 -0.0075610667 0.024111617 -0.009249446 0.016884765 -0.014619467 -0.001305154 0.024624536 0.02346271 0.01100626 -0.01206674 -0.0026830554 0.023787618 -0.005469614 -0.01727556 0.013813457 -0.008148498 0.004211068 -0.017676128 -0.0181379 -0.02051862 -0.010924771 -0.011713609 -0.016323462 -0.0008856505 0.019515594 0.007626474 -0.022091651 -0.012527222 -0.016618768 -0.018900428 0.008364538 -0.005198318 -0.008254409 -0.009533889 0.0074908286 0.0018196314 -0.003924042 -0.005652878 -0.010829157 -0.011445656 -0.0074932664 -0.008808962 0.023024982 -0.018257676 -0.02267752 0.014152653 0.006255466 -0.021589069 0.023899067 -0.0051009594 0.01803766 -0.0027403296 0.010823542 0.015038028 -0.0026897253 -0.002928132 0.020301193 -0.018872479 -0.0016258747 0.023308158 -0.008843663 -0.012833673 0.012536344 -0.0074095936 -0.02031515 0.014005345 -0.009766939 0.019252399 -0.020274675 -0.011093035 0.0047595054 -0.01776793 0.017486433 0.0033620954 -0.014845097 0.006933719 -0.013163107 -0.006346786 -0.007676831 0.01197263 -0.011680168 -0.016174614 -0.0060297223 0.004739201 0.006773669 -0.0021508546 0.024424164 -0.011463905 -0.016211096 0.014859947 0.012582555 0.021098543 -0.0116599975 0.011818796 -0.021506472 -0.02171204 -0.018246451 0.00057853165 -0.013620421 0.017292766 -0.0053367764 0.0036957532 -0.0020371021 0.020729711 0.01992847 -0.022506213 -0.01235694 0.016246885 -0.019357746 -0.016571594 0.006594819 0.0006590366 0.006112814 -0.01588854 0.00453375 -0.008880404 0.021876812 0.024445424 -0.0058008255 0.024385968 0.018560806 0.008338869 -0.0054896562 -0.008671335 -0.019710293 -0.022947703 0.02475865 -0.0025415749 0.020292366 -0.003945017 0.01627404 -0.0045779794 -0.021271199 -0.006323463 0.019520668 -0.023350267 0.0083996 -0.002012536 0.0061799856 -0.018013585 0.012243027 -0.018570572 0.012248069 0.01555948 -0.006767288 0.019318212 0.021380136 -0.019790119 -0.011393103 0.007470727 -0.016322792 -0.01984398 0.017405177 -0.024630362 -0.013366195 0.014453036 -0.020326788 -0.019702181 -0.015906427 -0.022352038 -0.012073494 -0.019484326 0.006067467 0.0075814608 0.0044025243 -0.010442457 -0.022833405 -0.019977842 -0.010916245 -0.022119805 0.0178073 -0.024925312 -0.010405282 -0.01546933 -0.02286253 -0.02335926 -0.01609918 0.010980189 0.0071305665 0.009326929 -0.0019883425 -0.0145358415 0.016803488 0.01391382 -0.012220365 -0.004515958 0.0043249815 0.010518426 0.019746471 0.007933664 0.0030008645 -0.015131232 -0.015502793 0.018499872 -0.0014730602 0.014954898 0.00042504966 0.019593878 0.0050497027 0.006497517 -0.017980015 0.016271928 -0.009912759 0.004494661 -0.010829195 -0.011214248 -0.010860461 0.014795894 -0.009390366 -0.008895627 -0.015165362 0.02010654 0.022704452 -0.011359203 -0.018839289 -0.021157721 0.0109306965 -0.009907007 0.024456058 -0.015389777 0.0033453822 -0.013672269 0.016722104 -0.008511135 -0.012870607 0.019625237 0.011098466 -0.015062863 -0.024782134 0.007332814 0.021905703 0.0062135938 0.009199179 0.015977466 -0.022456763 -0.017520199 -0.023123875 -0.0037418248 -0.022105044 -0.01598118 0.008630037 -0.01677442 0.0071617127 0.009075368 -0.0084896535 -0.00052067044 -0.012684906 0.014753202 -0.008729669 0.007007712 -0.01621974 0.02401482 0.024074843 -0.006417781 0.020378936 0.015955279 -0.011508069 0.006569195 -0.02203024 0.008775986 -0.004784712 0.020571006 -0.020715764 0.013682991 -0.0021318377 0.014818731 0.021854494 -0.014843702 0.016759634 -0.0014583737 -0.0031200708 -0.0033887834 0.024877865 -0.008779786 -0.023661423 0.007361281 -0.023393644 -0.0014131994 0.011083168 0.016520593 0.019873857 -0.01602509 -0.006101376 -0.024260243 0.017714402 -0.012097046 -0.019874388 -0.020744506 -0.010178104 -0.01082719 -0.019016046 -0.011070234 0.007739559 -0.013557396 0.016885225 0.015559062 -0.010526053 0.017934892 -0.016853346 -0.009040842 -0.0011365116 0.0015933812 0.0026794167 -0.0027516843 -0.0059087635 -0.0032093227 0.016542947 0.004370129 -0.0016934008 -0.004197991 -0.008010245 -0.015316612 0.0020963282 0.023786439 0.018328695 -0.02435312 -0.00362072 -0.014679724 0.014192978 -0.020867607 -0.008666254 0.00020047724 -0.0196776 0.0035040528 0.013571516 0.008329612 0.0022806078 -0.013796843 0.0067911 -0.017942606 0.019535711 -0.0060648113 -0.004152575 -0.02393422 -0.02296114 -0.0062988997 -0.0094919 -0.01861203 -0.006825966 -0.019432072 0.020929474 -0.0215509 -0.0063850256 0.002585435 0.024676142 0.0041486444 -0.00035843553 0.019034637 0.009666691 -0.010736224 0.008658615 -0.0025574774 0.018844778 -0.02376813 -0.005756113 -0.010803002 0.0057878047 -0.024265666 -0.010043812 0.022642924 0.020342445 0.018024817 0.00260939 0.01999018 -0.0111873625 -0.0048064054 0.012543228 -0.021004934 0.009771428 0.0033740283 0.01796694 0.008963615 0.01518102 -0.01544747 -0.012457097 0.008927074 0.00060106517 -0.023424191 -0.009798417 0.0073687704 0.011149058 0.010554495 0.0029013157 0.017548282 0.008768178 0.0024211556 0.01205039 0.016458703 -0.006922853 0.0154313715 0.008016077 0.022333434 0.018771458 0.0036440343 0.015245616 -0.0067753615 0.016208515 -0.0042265565 -0.004291618 -0.010251448 0.009539845 -0.0034611316 0.021602353 0.01820503 -0.0049470575 -0.018327305 -0.0065779597 -0.013962621 -0.010271991 0.02404247 0.0015289128 -0.0026732504 0.010216466 -0.007312 0.020203618 0.013833979 0.010549811 -0.014840642 0.022575784 0.021292169 -0.0045835585 -0.0011744738 0.005075374 -0.0036763519 -0.0027052523 -0.0014451325 0.0019627304 -0.0066179843 -0.018425817 -0.012773461 0.022877106 0.0017760575 0.013598219 -0.009209231 -0.0042315098 -0.017841995 -0.009352297 -0.0028264911 0.020932445 0.024944974 -0.023266418 -0.009250337 -0.024905244 -0.023761198 0.0059184614 0.0035890758 -0.012728048 0.004630846 -0.003386596 0.021929923 0.022049526 -0.010902071 -0.013615984 -0.012986774 -0.014494411 -0.016867945 0.009707877 0.0055072843 -0.002200082 0.021235963 -0.0052185743 0.0046102405 0.00015917122 -0.010122609 0.022291822 -0.024366012 0.008468655 -0.012573066 -0.0005764991 0.004512507 -0.0031749846 0.017623425 -0.021642212 0.019877097 0.015944878 0.00672175 0.008468151 0.015594852 0.011073611 -0.00041188896 -0.0007756919 -0.004463655 0.011677525 -0.01455971 0.01793697 -0.01719658 -0.018065128 -0.008277438 -0.009616918 0.01882132 0.010107088 0.024549473 -0.009416083 -0.014691255 0.02329875 0.015045026 0.013006568 -0.024394352 -0.016554413 0.010430309 -0.01568677 0.0070849746 -0.0127314925 0.007779658 -0.0076000183 -0.0025649488 -0.008425045 -0.004947266 0.016134946 0.0012311488 -0.011949956 -0.012852616 -0.024781888 0.018771276 -0.00837563 0.0049137147 -0.0027790219 -0.021620063 0.0068544387 -0.0038998218 -0.011910654 0.004129216 0.003805086 -0.024360556 0.009073669 -0.0038452775 0.005734974 -0.019794231 0.024251034 -0.009913999 0.010241816 -0.022196341 -0.018718624 -0.017298624 -0.0040720673 0.0052875965 -0.016941879 -0.014736774 -0.013507989 -0.0021947713 -0.0056194663 0.008606508 -0.01550389 0.015399548 0.006422743 0.02016451 0.013821534 0.01645439 0.020032195 -0.0040466697 0.014371464 -0.016477494 -0.017160712 0.014392394 0.00085696875 0.020567158 0.020527542 0.0059012505 0.015370789 0.022947222 0.024432708 -0.022419829 -0.021208376 -0.021146044 -0.024606688 -0.0070539387 0.0023425163 0.0045915516 0.0014340878 0.012090373 0.023956824 0.012315676 0.0030647248 0.008985487 -0.020058362 -0.014587596 0.009147984 0.016756741 -0.013608426 -0.010883078 -0.0177764 0.023391902 -0.018760925 -0.013097349 0.015120885 -0.016539741 -0.0028163225 -0.0024196059 -0.017412169 -0.008532253 -0.020936266 0.0042858245 0.018103344 0.020892937 -0.018926425 0.023269316 -0.013904706 0.017744442 -0.012499362 0.00068266987 -0.01307559 0.0070075304 -0.022971144 -0.016840834 -0.022516623 0.0012823463 -0.0038977682 0.0039162994 0.020717535 -0.017568452 -0.022780208 0.017650569 -0.008908591 0.014962998 0.021031251 0.002188918 0.022493307 0.015022433 0.007775718 0.017700016 -0.015978768 0.02418965 0.017686164 0.016780064 -4.2644144e-05 0.022534465 0.014379007 -0.020889372 -0.0012943953 -0.018381406 0.003883034 -0.0075036916 -0.009899107 -0.0029059292 -0.01742864 0.011657772 -0.012016502 -0.022086307 -0.022301821 0.01520473 -0.010332483 -0.016222496 0.008520064 0.005256382 0.0041210563 0.01601614 0.0058173807 -0.0037129761 0.004434991 0.017849902 0.023851559 -0.0084039215 0.0040639313 -0.024333645 -0.017635524 -0.022648195 0.011412731 0.0034637898 -0.004395649 -0.0021175295 -0.008812266 -0.0046315044 0.021533607 0.009254864 0.0035327345 0.015573415 -0.0011275947 0.008273196 -0.021770686 -0.02179206 0.015023261 -0.015378976 -0.006822416 0.019510642 -0.0049885125 0.023096843 -0.011209625 -0.019883255 -0.014112747 0.01116047 0.0018678844 0.016084203 0.015396056 -0.006491062 -0.019372275 -0.0009971469 -0.021694282 0.008722764 0.002568844 -0.021593431 -0.024798993 0.009819838 0.020041928 0.00430595 -0.017415775 0.022870084 -0.007877916 -0.0030536563 0.021089021 -0.020326719 0.010611636 -0.005624765 -0.022523943 0.02320852 0.0028273792 0.00820938 0.015239111 0.013549811 0.02053395 -0.01699287 -0.021181842 0.017584661 -0.002748084 0.013047001 -9.409786e-05 -0.023580099 0.004862815 0.014510564 0.022422556 -0.015349614 -0.017659044 0.0045025945 0.023415998 0.01035308 0.017024605 0.021391025 -0.020273075 0.022667957 -0.0082153 -0.005738038 -0.02265183 -0.009747738 0.009958011 -0.005337018 -0.014991927 -0.004651451 -0.021339271 0.018389499 0.023156453 0.014850709 0.0058413926 0.010742801 -0.01814211 -0.0016565978 0.0045731696 -0.015097893 0.0097202035 -0.0019305528 0.016629744 -0.01347025 0.007853401 0.013790232 -0.018011246 -0.017414961 -0.009702322 0.00648973 -0.0072266012 0.016384369 0.0032717348 -0.0044546695 -0.01350975 0.0101481 -0.01252805 0.01332286 -0.00828954 -0.011840886 -0.018800164 0.021265795 -0.004240066 0.016678682 -0.0068609207 -0.0130892545 0.0008531064 0.0027394444 -0.024280328 0.0143519435 0.0044403644 0.011473993 -0.0053153606 0.0128114885 0.007895586 0.020067772 -0.016155679 -0.011263671 -0.007572219 -0.009458569 -0.014172888 0.014351231 -0.0017934263 0.015157563 -0.0014388353 -0.005265832 -0.018471895 0.022847075 -0.023189638 -0.023695199 0.014274356 -0.0187254 0.012901112 -0.0034503103 0.006988102 -0.0077384682 -0.0057729455 -0.006985822 0.019418824 -0.01792354 -0.0061419248 -0.0044915974 -0.01367374 0.0033197047 -0.020790944 -0.020770667 -0.021231284 -0.020999258 -0.0011619389 0.01697429 0.005698112 0.0028280914 0.014308703 -0.0029809058 -0.0054699928 0.024589032 0.008721719 -0.01489181 -0.019183336 -0.0023561479 0.008732736 -0.004622108 -0.004937026 0.005401117 -0.0084436005 -0.0062620374 0.014312712 -0.008408246 0.0025342763 -0.010144892 0.006562439 0.012818557 0.008143119 0.0035458088 0.012418488 0.0030755966 -0.015394956 -0.022336537 0.011252001 -0.019267175 0.012520042 0.013962495 0.008124003 0.0012047052 0.0037970007 -0.012216103 0.006354147 -0.012175867 -0.0242476 -0.006157717 -0.0049209716 -0.0002560705 -0.00071816146 0.015214738 0.012477162 0.005092874 0.004696095 0.019834537 0.00016868114 -0.007865295 0.015923468 0.02147813 -0.010211459 0.019947855 -0.01302701 -0.014472762 0.016622264 -0.020540973 0.01336351 0.010140726 0.019692678 0.012609121 -0.0047026756 0.0006106913 -0.012196458 0.0005944699 -0.018574078 -0.022408942 -0.018012343 -0.019623471 0.016389329 -0.013059134 -0.011901173 -0.014212769 0.0027110279 0.016005704 -0.010402632 0.011353633 0.020094058 -0.00163517 0.0006098896 0.021399219 0.021607546 -0.02100042 -0.014345363 -0.023515595 0.017562225 -0.013302279 0.0157282 -0.012008041 -0.023039404 -0.010719267 0.02017427 0.020378469 -0.020507455 0.002509278 -0.0020183444 -0.017792642 0.023476709 0.015199182 0.019466862 -0.007034242 -0.0042749406 0.018709067 -0.008652878 -0.0030213983 -0.012083939 -0.00863857 0.0061890515 -0.024970254 0.011666945 0.0038326413 0.02120252 -0.011121285 0.0032053918 -0.022600109 -0.0006969303 0.015986135 -0.019084072 0.007896406 0.005510828 0.009458536 -0.00030584037 0.011209652 -0.01808739 -0.006916258 0.008482969 0.0078917025 -0.019958356 0.007960496 -0.010513893 0.0144171715 -0.009354291 0.015041876 -0.0073827207 -0.01100485 -0.005621597 0.0155789405 -0.017872725 0.01807038 0.012835941 0.013415816 -0.019383643 0.0061792433 -0.020653391 0.0033435195 0.019834394 0.020344177 0.0009327382 -0.0145619605 -0.0016940683 0.01561929 -0.021571308 0.017074717 0.0090403855 -0.017315486 0.024257725 -0.012717525 -0.008304316 0.013499799 0.020368872 0.010272938 0.020977724 0.011403084 -0.0029981614 -0.014911872 -0.004754582 -0.006142235 0.021830155 0.021695748 0.017298672 -0.024563173 0.01353279 0.013219783 0.008385322 0.020689799 0.007951993 0.0068256767 -0.020234931 0.021590728 -0.007788253 0.013599065 -0.015369407 0.0141864 -0.021098558 -0.004621425 -0.023245553 0.024758393 0.012951893 -0.001651907 -0.014539266 0.010111085 -0.008938826 0.008425358 0.0013099433 0.0013945788 0.024779467 -0.014711812 -0.021321287 -0.023256108 0.023179272 0.013807485 -0.001992786 -0.023651153 -0.007811916 0.020035207 -0.008715359 -0.016453743 0.023904381 -0.013160787 0.012193403 -0.00026727916 0.020539014 -0.0046007605 0.0138169 0.008590296 0.017700657 -0.009883553 -0.022982983 -0.0085141305 0.017875908 -0.010482281 -0.0075591835 0.019325888 0.019653797 -0.013807282 -0.018786514 -0.0015869112 -0.010573375 -0.0067033293 -0.020148057 0.014348614 0.023070602 -0.007609782 -0.004583046 -0.0036282302 0.016314048 -0.01728569 0.008774576 0.0041237324 0.014483303 -0.013791827 0.024768947 -0.013285509 0.012290934 0.015386745 -0.007178688 0.010776684 -0.01289202 -0.0067011924 0.0048685283 -9.5406176e-05 0.0006240964 -0.008430967 0.004658544 -0.024606718 -0.007934704 0.0017383576 0.0037969828 -0.016050303 0.005768931 0.018589983 -0.0164475 -0.017659489 -0.015883207 0.023462623 -0.01534572 0.02346097 0.00061201456 0.00861446 -0.021020148 -0.024118012 0.01720195 0.005098617 -0.01196605 -0.023771306 0.02287609 0.0005669445 -0.0046814354 0.009873274 0.017572382 0.020665979 0.02464878 0.023301333 -0.022332475 0.006733081 -0.008298851 -0.017220363 -0.010686889 0.0019425452 0.0065928283 0.023535669 0.008778989 0.007331884 0.012251607 0.01192126 -0.021517172 0.00017514527 -0.024681246 -0.0022489696 -0.021069372 -0.014658982 0.017745892 -0.01749943 -0.0040393085 0.0031090707 0.023658985 -0.008783362 -0.0031928928 -0.020408243 0.022888694 -0.0061269524 -0.009809825 -0.0037605346 0.007716635 -0.01672403 -0.017282 0.008208516 -0.0049773008 -0.013629827 0.019464066 0.0054713576 0.0013241231 -0.024280159 0.02152507 -0.014814729 -0.023729926 -0.0066652982 0.016626054 -0.002271703 -0.014792866 0.005370936 0.013541862 0.0070644766 0.01501103 -0.014226315 0.003916058 0.0043823184 0.022892749 0.015359918 0.020194784 -0.0012611508 0.0152489515 0.010007865 -0.015652576 0.0037930578 0.009755495 0.011594824 0.002690938 -0.017668132 0.021321787 -0.014294666 -0.008980164 0.014909724 -0.006911701 0.02169393 -0.01349048 -0.017587846 0.020981604 -0.018468518 -0.022074288 0.017366756 0.020835979 -0.0025123865 0.007481623 0.0058800103 0.0149850575 0.022652104 0.020763857 -0.0074455203 -0.0145004485 -0.010190639 0.012126741 0.0026728779 -0.012919247 -0.002500552 0.006913704 0.024342159 0.006643567 -0.00692274 -0.004194817 0.0019926191 -0.009702811 -0.021738315 -0.0077968063 0.024799392 -0.021463195 0.005735555 0.014175904 -0.0006230444 0.0017373294 -0.020212397 0.015965957 -0.01730364 0.0035648197 -0.017626151 -0.020693148 -0.022585308 0.02089502 -0.019101491 -0.013559982 0.005003476 0.022601789 0.0054572704 -0.0027229667 0.016550794 -0.0041905553 0.010578505 -0.024143979 -0.021522611 0.022253195 0.012092185 0.0066422434 -0.017217165 -0.017444039 0.0024719 -0.014099923 -0.019376298 -0.021654949 -0.004916525 0.0026796998 -0.023018038 -0.0019120098 -0.022076 0.007423976 -0.02248441 -0.016329026 0.018906254 0.0035497427 -0.0032906593 -0.022751817 0.020026902 -0.023400424 -0.015139299 0.016754165 -0.022667635 -0.021042457 -0.017692784 0.016673505 -0.00029734077 -0.010303843 -0.024323663 0.012730494 0.0018682302 0.011356229 -0.017163968 -0.009305576 0.021474466 0.021868616 0.0033485293 0.019211853 0.0055623353 -0.0055270493 -0.020506052 0.0036439865 0.011307853 0.01971879 -0.0019543022 0.021953702 -0.018065928 0.014253154 0.014291021 0.017283544 -0.00563677 -0.020738924 0.012829375 -0.0060664266 0.006880918 -0.003150165 0.0021542937 0.011772046 -0.0015151829 0.011936483 -0.0022437812 -0.016459083 0.019308006 -0.021026997 0.018860927 -0.012410337 0.022545738 -0.022585843 0.010897309 0.0044548544 -0.016464507 0.0066142264 -0.017365003 -0.015543378 -0.0035999685 0.01657115 -0.003235355 -0.00045499206 0.0091312295 -0.022091893 -0.011950234 0.0011525542 -0.02229979 -0.0033230304 -0.011800125 -0.018798266 0.021635449 -0.009979725 0.02398019 -0.015778998 0.004989594 -0.0042683394 0.01978131 -0.023968054 -0.0035092533 -0.02270695 -0.009371111 -0.009062794 0.022672331 0.020589307 0.022263056 0.0040739565 -0.015971784 0.01163227 0.0028597773 0.017403979 -0.012755838 -0.015619174 0.006550768 -0.017729629 -0.0064896406 -0.013240308 -0.0003415227 0.02356683 0.006138906 -0.0052249134 0.010533527 0.021295706 0.0072377413 0.008630252 0.009194416 -0.013972232 0.004293999 0.020130247 -0.00245834 -0.01207926 -0.0015281022 0.0025610626 -0.018214265 0.015638947 -0.019953473 0.007635185 -0.017083282 -0.0079968935 -0.023622667 0.0016482056 0.01679925 -0.009230218 -0.014480111 -0.018200343 0.008918357 -0.024045294 -0.015033889 -0.011267239 0.000538674 -0.019938055 0.020732662 -0.024534946 0.005877429 0.023104072 0.012432605 -0.024050018 -0.020899234 -0.015749127 -0.024340406 0.0014234454 0.010905064 0.0010429919 -0.017052917 0.013115319 0.023262152 -0.02096792 -0.020003695 0.016627535 -0.019551292 0.0068242163 0.014267362 -0.007899508 -0.014592037 0.023015607 -0.023205865 -0.023485456 0.016425917 -0.019433005 -0.010062155 0.012873706 0.015039138 0.0061897757 -0.0096951965 -0.018613575 0.01719798 -0.018243372 -0.020371119 -0.02131841 -0.022696538 -0.009663424 0.0074071973 -0.013992262 0.012716156 0.0055064084 0.022931946 -0.019579688 -0.021427011 -0.012679363 -0.007313785 -0.00020828545 0.01806941 -0.019076694 -0.014327315 -0.02407726 -0.014365333 -0.013391129 0.01843882 0.005679238 -0.014097831 0.0033148767 0.008848208 -0.009316671 -0.022093793 -0.01911672 -0.022649217 0.015932346 0.018257936 0.024682386 0.020787805 0.020497635 -0.014885503 -0.0048960536 -0.016563196 -0.010974819 -0.009428737 0.0024494291 0.0041943104 0.013157964 -0.014129612 -0.0005979836 -0.023443064 -0.015962467 -0.00964883 -0.017821854 0.022635356 0.0015452713 -0.024645567 -0.020200381 0.0040148557 0.013905025 0.007522169 -0.017472718 0.004725969 0.024370654 -0.007585624 -0.023774073 0.0154162375 0.008528763 0.01048798 -0.004840139 -0.016083777 -0.016664898 0.020377118 -0.017329598 -0.021126363 -0.0051600966 -0.018822385 -0.015021304 0.022747485 0.0027124824 0.020830771 0.0027752996 -0.009721306 -0.01557962 0.0057102353 0.018139133 0.014856202 -0.0014282555 0.0036249906 -0.005768028 -0.008546782 0.01109508 0.008847738 0.008923456 -0.005775121 0.022943137 0.023243433 0.009026847 -0.011881254 -0.007116783 -0.023624245 -0.011185941 -0.024093095 -0.02450375 -0.008226079 0.005651224 0.020521065 0.023821313 -0.00034809113 -0.002937025 0.022332052 -0.020996878 0.001632148 0.023816887 0.016213814 -0.021778235 0.020190079 0.023274085 0.018104402 0.011959559 -0.02292695 -0.011875245 -0.010881863 -0.0038629205 -0.013543836 -0.01239253 0.016651124 0.012030792 0.015334586 0.020345444 -0.017258573 -0.011367249 0.002638823 0.017211994 0.022392605 0.0019493491 0.014727819 -0.0046985867 0.021430716 0.01248582 0.018593574 -0.020881465 -0.00858537 0.020295206 -0.019204412 0.011395901 -0.017655319 -0.00012217462 -0.006330654 -0.004522562 0.007548255 0.0046565174 -0.005727771 0.019931832 0.016072145 0.00950067 -0.016281923 -0.0065979036 0.014345405 0.019644354 -0.022247804 -0.010346631 0.0036765726 -0.018005533 -5.6883695e-05 -0.012592691 0.023235843 -0.018972864 0.018474061 -0.013816652 -0.019452844 -0.012727633 -0.021717763 -0.018018369 0.019227048 0.0083807735 0.0022404313 -0.02005199 -0.01340799 -0.01895966 0.013698253 0.009486589 0.0019358695 -0.015078834 0.018181859 0.003129658 0.015431151 0.008593959 -0.016745036 0.020034334 0.015006438 0.00860121 -0.008524385 -0.0005408764 0.003485769 -0.01921681 -0.020994443 -0.0007928461 -0.020816311 0.013366247 -0.020765861 -0.022188274 0.010340062 -0.020610005 0.020034758 -0.0040195766 0.002663988 -0.022485673 -0.012242458 -0.012516159 0.0077457814 -0.014202473 0.014180315 0.017903602 0.01212005 0.015394471 0.014671129 0.009432363 0.011145845 0.009997308 -0.011906499 0.017016117 -0.017903438 0.016909603 -0.020540312 -0.020273993 0.01925157 0.023612037 -0.0041585895 0.017399976 0.011204508 -0.012509736 0.018241862 0.014812556 -0.009572304 0.0043821186 -0.0077352645 0.021564588 0.020325795 0.003009972 -0.007154647 -0.020162005 0.014139342 -0.0012218774 -0.011911342 -0.016454672 -0.0029972256 -0.019818151 0.0085812425 0.006780249 -0.0017376215 -0.020785226 -0.015333727 0.019102393 -0.0056338846 -0.018112848 -0.016055638 -0.004830736 -0.024262032 0.013637945 0.019936046 0.00018259585 -0.02301968 -0.013886878 -0.011858574 0.02106735 0.0048359125 -0.009496856 0.007589376 -0.0039496333 0.0182837 -0.009264002 0.023273204 0.007361436 -0.014655965 0.006454587 0.0030777156 0.009590275 -0.014381123 0.010355768 -0.00071308913 -0.0065956265 -0.012255922 0.01354295 -0.009084898 -0.015186295 0.007897831 -0.018149396 -0.008848068 0.00035866798 0.01219447 0.01700081 0.023654727 -0.013406942 -0.014704642 0.020149995 -0.005527127 -0.0022302808 -0.01023595 -0.021895094 -0.009410778 0.014183357 0.017031206 0.007624245 0.01127916 0.005051142 -0.015441984 -0.011649561 -0.022628112 0.015036494 -0.013775739 0.009299365 0.01980095 -0.021870617 0.013889399 0.0039492995 -0.024775652 0.015973603 -0.0101983575 -0.021734485 5.4842236e-05 0.02240999 -0.00034153461 -0.019082591 -0.01769335 -0.004096025 0.021674996 0.022509662 0.014753625 0.013978893 0.016261403 0.0019034535 0.0036452294 -0.023409784 -0.0014984042 -0.014819518 0.022220168 -0.023854965 0.020629331 0.018219018 -0.01783046 -0.010124788 -0.02100291 -0.016049592 -0.0013681203 -0.0029606402 0.022736812 0.0011018784 -0.014705551 -0.008730355 -0.01877336 -0.020636905 -0.01497548 0.0058638006 -0.0042995694 -0.024612868 -0.0027018578 0.018035242 -0.022711381 0.015034536 -0.013674495 -0.012783212 -0.013662464 -0.015738165 0.00013999343 -0.021643538 -0.019600222 -0.018059839 -0.003018597 0.013791067 -0.009536526 0.0032300323 -0.0057168007 0.0020309896 -0.02296348 0.0002120465 0.0011027306 0.012189934 0.0012501955 -0.00046524405 -0.021546287 -0.0010350228 -0.014023867 -0.010395616 0.014036245 -0.017041394 0.019447966 -0.017237013 -0.010578883 -0.009986964 0.0031172007 0.010355777 -0.008558929 -0.023388062 -0.014929068 0.02175643 0.023345312 -0.0046606897 -0.00905236 0.0032047392 -0.006913632 -0.024864266 -0.004233885 -0.018173922 0.0033528449 -0.008586657 0.024018278 -0.0007031709 0.016764099 -0.012211695 5.6314468e-05 -0.0018587888 0.0072803944 -0.004225576 0.016862748 0.0019079208 -0.021299003 0.021960298 0.0096515715 0.0017032058 -0.015724352 -0.01627526 -0.013833768 0.013540811 -0.024720788 -0.0068207323 -0.0014369547 -0.009231776 -0.020791618 0.011114708 -0.02434663 -0.015652394 0.014335063 -0.015242413 -0.0041511594 -0.008086339 -0.019049708 0.00074683427 -0.02413306 -0.015809834 0.016920373 -0.0022363395 -0.010651591 0.009953174 -0.00055137277 -0.013512236 0.0013731777 -0.012563998 0.014872262 -0.023106897 0.0073281615 0.01452567 0.000539431 0.02110807 0.0040069968 0.011584076 0.017548019 -0.0048692436 -0.011817458 -0.023753596 -0.02219354 -0.0024409771 0.022964394 -0.004040256 -0.015917743 0.012005282 -0.006781286 0.011320004 0.01748992 -0.016120424 0.01156602 0.002453509 0.019248625 0.012197343 0.014476249 0.002065766 -0.0060106157 -0.02034463 -0.0056167245 0.0178043 0.010154921 0.003483242 -0.007963965 -0.008752069 -0.014209926 -0.0006138921 -0.022902412 0.004631263 -0.023875067 0.012739557 0.020829825 -0.006551835 -0.020090027 0.011554894 0.024284502 0.023596501 0.011037341 -0.012739807 0.019123888 -0.023518948 -0.021273285 0.02031217 -0.003481683 0.008489156 -0.00821619 -0.003883186 0.013541651 0.024097716 0.0035062225 -0.013077754 -0.018521214 -0.0148716895 -0.009904429 -0.021425767 -0.00887725 -0.0034731121 0.015671616 0.021980612 -0.009143251 -0.004398835 -0.022384679 -0.021908361 0.02184 -0.0043685227 0.01578237 0.021575838 -0.018703694 0.0030606508 -0.017401038 0.0026469678 0.018720156 0.018952964 0.024919841 0.006808165 -0.014842734 0.0062494995 -0.0020122917 -0.004002473 -0.018681595 -0.0070883217 0.0099663315 0.02303865 0.017024765 0.0020117133 0.011589358 -0.023772905 -0.022728948 -0.017101055 -0.018342216 -0.008150065 0.023120135 0.018259792 0.008223722 0.020848205 -0.01882193 -0.02044983 0.024233121 -0.009814969 -0.02411045 0.023469789 -0.0128910635 0.00023857951 0.016965562 -0.019911459 0.0046167136 -0.0031611205 0.018209605 0.02455153 -0.01885355 0.010592458 -0.021338327 -0.02290689 0.01802547 -0.0063333544 -0.0007995218 -0.0059489845 0.011790723 -0.015801508 -0.01924851 0.0021729022 0.009612599 -0.006457824 -0.0016611994 0.008045378 0.021788342 0.012076804 -0.023763493 -0.016568959 -0.0021227957 -0.022429705 0.02166508 0.015765274 0.006907943 0.015142185 -0.006968841 -0.015416599 -0.018466735 -0.022655053 -0.018234864 0.014318451 0.007220477 -0.008591974 -0.01210692 0.01712869 0.009943619 -0.01845868 -0.0032086193 -0.018929904 -0.016170952 -0.024974901 -0.0010030986 -0.0064327777 0.008169854 0.016720895 0.00548898 -0.0029278218 -0.014539123 -0.008679611 -0.017157286 -0.0051021813 -0.014841551 0.022841925 -0.0066486984 -0.008782223 -0.009949115 -0.0240973 -0.022564366 -0.0068260017 -0.020481376 0.0114299385 -0.015125304 0.007945687 -0.018295472 0.01514963 0.008003342 0.020823184 -0.0040637376 -0.0025707365 -0.0041541965 0.00059164764 0.0040719747 -0.019736815 0.00089879934 -0.02184662 0.006368795 0.023497406 -0.017172843 0.020066699 0.012113139 0.011571613 -0.0055272165 0.007750747 0.008673144 0.002102414 -0.0092529 0.012758071 -0.010580206 0.0154188275 -0.0011823118 -0.01770769 -0.008902073 -0.01434466 -0.0072165015 0.017200155 -0.012899718 -0.016443176 0.021423385 0.0052750977 -0.005000904 0.011222697 0.024896657 0.018823057 -0.013840667 0.0059078666 -0.0053759995 0.017595267 -0.011797694 0.02066355 -0.001192382 -0.020009864 0.009686477 -0.021165123 0.016627112 0.011404959 0.017999051 0.017721811 0.019401917 -0.024863353 -0.0065383227 0.005427101 0.007957908 0.010220513 0.012827552 0.0045252144 -0.0050266325 0.0027179301 -0.02127838 0.00499447 0.015874103 0.0059241387 0.020337833 -0.020261338 0.016627327 0.005308342 -0.024300942 -0.011072042 0.0074738027 0.007949054 0.015821854 -0.022094185 -0.024510035 0.022469172 -0.022307632 -0.022684216 -0.006123719 -0.022525063 0.0025075288 -0.013781193 -0.010788366 -0.020240128 0.016856194 -0.0008148015 -0.017416148 0.02331768 -0.016535366 -0.012962443 -9.798706e-05 -0.010704285 -0.005425653 0.0070850016 0.0131115345 0.0067320676 0.012222079 0.006370419 -0.0054343077 -0.0042315065 -0.02460756 0.024027655 -0.021475673 -0.0010174603 -0.019173218 -0.0005285561 -0.016452843 -0.024345806 0.020879824 0.0046720654 -0.011555034 0.0056905686 -0.022822548 -0.00571467 0.02101548 -0.0067374646 0.0099169435 -0.016724154 0.012335921 -0.0089457035 -0.00791052 -0.0045250715 -0.011174127 0.01737628 -0.022774307 -0.001339224 -0.0040900977 0.018548463 -0.01612669 0.003077504 0.011876739 0.012569684 -0.021209849 0.0003273338 -0.008247862 0.021495497 0.023859916 -0.014364654 0.02418316 0.017257651 0.0031649799 -0.022890663 0.0035693168 -0.0017677367 0.020378744 -0.00033045412 0.010185847 0.0022794157 0.013168913 0.023068646 0.0050731986 0.016220381 -0.014005688 -0.008654445 0.008688522 0.01802068 0.0013839096 0.0022270351 -0.004358587 -0.023850707 0.024889264 0.011609512 0.007032013 -0.0040994436 -0.015076101 0.008870742 -0.008541626 0.009916536 -0.022654459 -0.0059187682 0.022667143 0.021599222 0.012813002 0.011189139 0.023791665 -0.0068762004 0.0028208883 0.008016762 -0.0112479655 -0.020798057 0.020870728 0.01765359 -0.014391649 -0.0045946958 -0.019449452 0.016211674 0.018648813 0.007045746 0.0013236314 0.022432158 -0.015184022 -0.0044641676 -0.012356929 -0.014931935 -0.018159231 0.007864413 -0.022569863 -0.015807712 -0.017260462 0.009008998 -0.014508158 -0.019463157 -0.017823188 -0.00058300793 -0.023950119 0.007137749 -0.018622953 0.017615551 0.0016055703 0.01288023 0.003825757 -0.002105418 0.0077676447 0.013530008 0.018523503 0.012154907 -0.0031001777 0.009448916 -0.020091226 0.0048013777 -0.014386157 -0.0036694915 0.0033551038 0.02000696 0.0060408236 0.00033818782 -0.016222164 -0.011782968 -0.008890918 -0.00690209 0.009784833 -0.018877143 -0.009934127 0.019844223 0.01699186 -0.006023321 -0.008431 0.013362363 0.022248695 0.023656422 -0.015626678 0.011443359 -0.022225043 -0.014406976 0.024424735 0.014106221 -0.0049542906 -0.0029392869 -0.018408665 -0.013658071 -0.006618178 0.00033779442 -0.013330418 -0.017004142 0.009002635 0.020741543 -0.019232363 -0.003203711 0.007204053 0.01909779 0.019489069 0.0038972169 0.0021359206 0.020228118 0.007884145 -0.0059176087 -0.010620752 0.022350138 0.017229898 -0.014246223 -0.011640641 -0.010340664 -0.02175515 -0.0067584813 -0.014530904 -0.010885394 -0.017060285 -0.0037057549 0.014601314 0.016524885 -0.0017032952 0.0022114576 0.01913839 0.018951267 -0.012203107 0.004777065 0.0062546167 -0.022145553 -0.0148836225 0.005591947 -0.006332472 -0.018031431 0.019874437 0.0065813246 -0.01539833 -0.01608258 -0.023982624 0.020604525 -0.017177084 -0.024925316 -0.009274113 -0.0015907557 0.0021752864 -0.005438674 0.020181987 0.014051184 0.00090591016 -0.015851969 0.01698315 0.012281725 0.017091027 0.02087991 0.02387832 -0.008107061 -0.020516982 0.020779928 0.012483007 -0.017006552 0.02322865 -0.0242152 -0.001378724 -0.0011233896 -0.0028723478 -0.016510895 0.014852822 -0.016099522 -0.0049967915 0.014469594 -0.019049237 -0.018221835 -0.00928872 0.008289146 -0.023192162 0.017369557 -0.005889419 0.01859563 0.01511345 -0.008907697 0.0039291144 -0.0068799495 0.0145447645 -0.01767842 -0.006562698 -0.00075069367 0.013972792 0.013635114 -0.009677011 -0.018958012 -0.0115658315 -0.006347218 0.0069348933 -0.019483253 0.007244998 -0.012795771 -0.009359747 -0.0051881494 -0.024754 -0.010815105 0.018153569 -0.022587541 -0.006221354 -0.0071196794 0.024594663 0.016747758 0.022879487 0.007663727 0.021951502 0.02297273 0.017307505 0.01145865 0.012948471 -0.009887866 -0.023912871 0.001835233 -0.0069549056 -0.02170994 0.01281859 -0.010807502 0.022712959 -0.019537693 0.011526221 -0.019184101 -0.01421541 -0.019564226 0.018690413 -0.0010215521 0.021861592 0.021156315 0.005566615 0.019651879 0.013906199 0.020252634 -0.021261275 0.01652344 0.008740944 -0.01911799 -0.016695866 0.0035876452 0.0024032712 0.01710662 -0.0029474497 0.022428814 -0.007365388 -0.021388829 -0.0048535825 -0.011027509 0.002594453 -0.0027463704 -0.019899825 -0.020126918 0.019621506 0.004167271 -0.008631865 0.019286111 0.014194599 -0.011982865 -0.0017830282 0.013194886 0.0010684043 -0.00946039 -0.001757604 0.0029487968 -0.0019847215 0.005087686 -0.0035437883 0.0059073004 0.024111751 0.0065024584 -0.020941922 -0.024757707 0.016925368 0.005768931 -0.02236241 0.0029415607 -0.000858742 0.021362005 0.0030789883 0.006481701 -0.0189784 0.008408481 0.019132286 -0.022161199 0.019694287 0.0106330365 -0.02385662 0.022216016 -0.015634377 -0.0018914938 0.013620374 0.023470132 -0.008637396 -0.0026275278 -0.021844393 -0.013048676 0.00944286 -0.013683465 -0.0020069242 0.0025595308 0.0102113215 0.024024446 -0.005708385 -0.015903419 0.01931617 0.023144618 -0.016579105 0.017687624 0.014672155 0.0079429215 -0.016036263 -0.013448516 -0.021441052 -0.011214474 0.0070626857 0.020383423 0.020254945 -0.02287218 0.0034499795 -0.00874607 0.018380463 0.007734436 0.020754954 -0.009677509 0.024376763 -0.01826621 -0.0021285713 0.019956956 0.0029685944 -0.021803001 -0.00045781434 -0.0056417705 0.019205589 0.0042933375 0.016701654 -0.01813049 0.02025934 0.00011463166 -0.014260354 -0.0034014732 0.021099279 -0.0011828274 0.0018324613 -0.018421873 -0.01300993 0.008673671 0.0013483524 -0.016188009 -0.023185888 0.0024437427 0.004220292 0.018322447 -0.0029091686 -0.01761855 0.013409111 0.013698033 -0.019428318 -0.019173158 0.014308956 0.00013700426 -0.018386323 -0.016820813 -0.011836961 -0.019314965 0.008303287 0.016591346 0.011986643 0.004260686 -0.0147214085 0.021087373 -0.01791124 -0.012851745 0.010698524 -0.018848909 0.014339307 -0.022629652 -0.01288906 -0.015448841 -0.019954486 0.022863248 0.014642671 0.00890063 -0.0029969127 0.021550829 -0.004145214 0.013376406 -0.016366158 0.014816639 -0.003393835 -0.020688215 -0.0042374283 0.020072136 0.010169697 -0.018863896 0.0133126555 0.021170197 0.0017189443 0.0028290867 -0.021410337 0.002217543 0.004942751 -0.01757322 -0.006792769 -0.016068805 -0.01083096 0.009949714 -0.0029189407 -0.008240774 0.015468922 0.004121408 0.0009554267 0.0103738075 -0.009806985 -0.012876329 -0.020052368 0.0066896616 0.013748712 0.018050317 0.010373259 -0.011136064 0.013183698 0.01744163 -0.006457329 -0.012934968 0.013837099 -0.023085922 -0.009863433 0.0116881225 0.013906717 -0.0018055231 0.016362745 0.022125175 0.014739677 -0.013244367 -0.007924384 0.014215345 0.013000342 -0.013230982 -0.010638637 0.01219787 -0.009110674 0.0014655173 -0.0018327385 -0.00829188 0.017469203 0.020391075 -0.020560041 -0.006559497 -0.01746037 -0.010926018 0.005173579 0.011586189 0.013610959 -0.0031904548 0.018957708 -0.0036823691 0.018510833 0.014602122 0.0053118826 0.011366367 -0.015540386 -0.00043593944 -0.009483186 -0.017532153 0.01048592 0.021518955 -0.012706506 0.004840863 -0.014662737 -0.020717863 -0.022872115 0.015325231 -0.004120398 -0.024959354 -0.0058338316 0.010150248 0.0155023215 0.020832116 0.004550436 -0.020050837 0.0077601406 -0.0027775825 -0.0018384367 0.012080738 -0.008633214 0.012029007 0.019951219 -0.024509603 0.014848155 -0.008422479 0.016164402 -0.018487025 -0.0043627354 -0.019784788 0.004760602 -0.016605904 0.006838736 0.02059269 0.011477581 -0.0029638708 -0.0133461 -0.017617512 -0.0031459183 -0.015978172 -0.005291775 0.024322841 0.00231587 -0.023018721 0.014008439 0.020800134 -0.007865513 -0.02262398 0.0072466074 -0.01130324 0.014674604 0.0022726746 0.0077605965 0.02402234 -0.005354485 -0.013870004 -0.008959085 -0.007108313 -0.024534112 0.021898035 -0.01160464 -0.0123956865 -0.00379166 -0.001876986 -0.016156945 -0.0011367798 0.0014588982 -0.021106834 -0.010876462 0.003428638 -0.021067291 0.0043023974 0.005071321 0.015904391 0.0037700266 0.00073441863 0.019161144 -0.008056971 -0.024180958 0.02482715 0.0052063167 -0.00317598 -0.002362782 0.0015527189 0.01358746 0.008590925 -0.009827939 -0.016280333 -0.024456352 -0.019046789 0.024334017 0.023070095 -0.013281599 0.024774257 -0.012878797 -0.017789815 -0.013935617 -0.00829975 0.0023407848 0.01771737 -0.016618395 -0.024559883 0.0029662938 -0.005419603 -0.021333784 -0.008061863 0.0005812645 -0.016428975 -0.004102865 0.021547375 0.01967224 0.012893373 -0.0024286925 0.015188423 -0.022440253 0.013021374 -0.01568819 0.022661922 0.0001516223 -0.02105358 -0.018309189 0.001828459 -0.022662787 0.007258612 0.0033852698 0.023197753 0.0050836834 0.010992536 -0.017560408 0.022374922 -0.0032647103 -0.02161873 0.02486895 0.0043245675 0.0025384396 0.0054953904 0.0044822693 0.0013626128 0.024736373 -0.012001038 0.014100599 0.0070884856 0.009791377 -0.017064158 -0.0017696529 0.021479664 -0.004090038 -0.011779261 -0.0032693953 -0.014823548 0.010866982 0.0075579137 -0.009184981 -0.012060652 -0.0206627 -0.013690749 0.008252457 -0.0046168896 -0.009261087 0.019270128 -0.0003953606 -0.009124661 -0.011722112 -0.00021823646 0.010278619 0.0128971515 -0.0113537405 0.0024211823 0.022564918 -0.02472656 0.0031789094 -0.0049028783 -0.022673547 0.007329428 0.0030985684 -0.013836995 -0.015332103 0.005175865 0.022902448 -0.009255237 0.0038831264 -0.0076399567 -0.021274904 0.021239102 0.0042016893 0.013450331 0.0008307874 0.011551174 0.02258308 0.006997475 -0.013458684 -0.007227254 0.01832105 0.0080413995 -0.023058403 0.023404378 -0.0098119825 0.02488407 -0.021518284 0.0018856019 -0.010517383 0.0020682632 0.021595096 0.00097134116 -0.01347253 -0.020751027 -0.009896389 -0.02196825 0.009633324 -0.022954518 0.0057060453 0.0068682316 0.005131957 0.017859107 -0.00060134236 -0.0003957361 -0.016629016 -0.00030750633 -0.0027507932 -0.0031895638 -0.021467954 -0.0016534239 -0.0147373 0.005139983 -0.0065570683 -0.010556596 -0.0047125816 -0.0006881684 -0.008079437 -0.003038612 0.01059649 0.015227306 0.0017116994 0.014742169 0.01068976 -0.0088032335 -0.02115421 0.0053699673 0.018395329 0.017900491 0.011465862 -0.010186729 0.018646702 -0.0028754415 -0.00096460286 -0.0030670555 -0.006446216 0.015729148 0.01768764 0.019219518 0.018868415 0.0025995583 -0.017573878 -0.004829085 0.01556696 -0.014146638 -0.009848279 -0.014026016 -0.009065059 -0.016414134 -0.011761299 -0.014045328 -0.01711349 0.0061451825 0.01227913 -0.0055488856 -0.019073559 0.020698741 0.02272785 -0.0065306127 -0.024726147 0.01804844 -0.021111524 -0.021169007 -0.01586529 0.024910977 -0.021317443 -0.01248678 -0.013462678 -0.024257977 0.016670678 0.015117344 -0.0072004944 0.019289777 -0.010224032 -0.024602637 -0.003964809 -0.021431163 -0.0019799024 0.020549808 0.001462549 0.0005989045 0.01767495 0.0016003906 -0.022329895 0.011406324 0.008951187 -0.00438171 -0.002510497 0.0060253204 -0.012413591 -0.021610716 0.021912262 -0.0011922539 0.022265345 -0.022039672 0.013530335 -0.00273934 0.018871335 0.014281273 0.015521291 -0.024973327 -0.009830895 -0.017228832 -0.0030000599 0.02284112 -0.008304584 -0.016451826 0.0037654073 -0.024552003 0.012061399 0.020117879 -0.001609838 0.006131065 0.01546312 0.0072939517 0.0022485703 -0.011721769 0.01680391 -0.009977708 -0.016883595 -0.0009779185 -0.002324784 0.0015205384 0.00049321057 -0.019373143 0.0017830282 -0.011233053 -0.01057674 0.0018121332 0.0021442145 0.0028959364 -0.024905441 0.013458294 -0.01643212 -0.020134836 0.019377623 0.011403048 -0.020943472 0.02369682 -0.019571165 -0.0050841602 -0.013719446 -0.017079724 0.016254772 -0.0018927812 0.003440553 0.012870843 -0.003142789 0.010709966 0.00024971666 0.0019133687 0.015504792 0.020393262 -0.016804535 0.016608179 -0.016272908 0.022637492 0.014056334 -0.0040653916 -0.017883886 0.013634033 0.018019263 0.024493793 0.011889011 0.0063392073 0.011859506 0.024125082 -0.0050806883 -0.018225884 -0.0015983939 -0.0038668185 -0.004840216 -0.015139073 -0.011020834 -0.024374334 0.010393456 -0.0061321794 0.019725302 0.004729149 0.0051731765 0.0006170273 -0.012582275 -0.011664412 -0.0176917 -0.01854051 -0.023583937 -0.003949139 0.015717572 0.011837989 -0.008132517 0.0068528503 0.019568468 0.0060176016 0.007867828 0.014670039 0.008165473 0.024330614 -0.021560103 -0.024188345 -0.004490137 -0.0103688715 -0.01821581 -0.0048674108 -0.010869685 0.023297105 0.018919498 0.021627247 -0.02117692 0.0051876903 0.017199183 -0.0024348318 0.019422257 0.0021385194 0.024057943 0.005438146 -0.024274522 -0.0010051876 -0.018109111 -0.0066494527 0.011535016 -0.022413794 0.009497446 0.008379224 0.005871183 -0.014241102 -0.008494541 -0.023155397 -0.023847152 0.005020392 0.010304788 -0.010067684 0.011507073 0.004505846 -0.0021297901 0.0061831297 -0.00076158345 0.012315637 -0.007001704 0.0063906075 0.0015637785 0.0052187773 -0.011817167 -0.016406639 -0.004958406 0.019118492 -0.00961355 0.0064819935 -0.005014953 0.0020590245 -0.02350455 -0.0206408 -0.0034580976 0.0096834125 0.021903932 0.0051263957 0.0025944114 -0.0023849488 -0.024695626 -0.010938547 -0.0098115355 -0.009637979 0.00045431854 0.0012572289 -0.021860419 0.01072754 -0.0071739377 0.0023021162 0.01254403 0.000118136406 -0.0004092902 0.0108695775 0.007048044 0.019080305 -0.015959177 -0.022621242 -0.014573658 -0.023189237 0.017504591 -0.013919455 0.0021671325 -0.021689499 0.011461032 -0.0030299425 -0.0016437203 0.013624764 -0.0127440635 0.013416842 0.014103758 -0.0024802953 0.014661858 -0.021581773 -0.009306657 -0.009524116 -0.009677785 0.021189302 0.00819566 0.019085689 -0.0021291375 -0.0073695215 0.024838587 0.01825948 0.009011797 -0.004158843 -0.011467583 -0.002597189 0.0055401386 0.009851286 0.002949062 0.0054750503 -0.005276382 -0.0022240789 -0.00637154 -0.01773035 -0.01442002 -0.023156358 0.024379853 0.008316117 -0.016891653 0.022284994 -0.0052286386 -0.02201481 0.01621483 -0.0022629292 0.00013526976 -0.021789465 0.02008273 -0.012389803 0.02379312 -0.0048516723 -0.0222259 -0.02194337 0.0059210393 -0.012883499 0.016321829 -0.007461271 -0.009663862 -0.021599388 -0.018911121 -0.011137867 0.009750351 -0.01689042 -0.020053452 -0.021946564 -0.0136535885 -0.021657376 0.023960242 -0.005515948 0.02490533 0.021905277 -0.008965353 0.014443052 0.016911423 -5.0485137e-06 0.014433968 0.0040444373 0.021826325 0.0082898615 0.006758076 -0.0006794423 -0.01664868 -0.023722583 0.02379894 0.021544984 0.007732621 0.010711342 -0.004693878 -0.011808211 0.024535486 0.009725869 0.011108202 -0.024099533 -0.024137229 0.016139586 -0.011819285 -0.015253836 -0.0075014713 -0.0025932223 0.021740153 -0.0027169704 -0.020718057 0.0173389 -0.017520443 -0.007052836 -0.018965332 -0.0113200275 0.022180319 0.008369002 -0.023207605 -0.009661481 0.017428303 0.01777246 0.023487702 -0.020396162 -0.009650362 -0.014492348 0.0031580837 -0.004513183 -0.020828063 0.019545484 -0.024081087 -0.0143138915 -0.003544429 -0.015851272 0.013731822 -0.004593247 -0.011540827 -0.014042693 0.0045472207 0.012260327 -0.0024153055 0.0033020915 -0.009440321 -0.024497574 -0.015415281 -0.022162518 0.009213037 -0.019291708 -0.011689908 0.0057266206 -0.002985534 -0.006770429 0.0108970795 0.021731613 0.016407354 -0.020185119 0.018984005 0.012468896 0.005298218 0.0003229797 -0.016023818 0.012439966 -0.017221062 -0.02172845 0.013423837 -0.024224479 -0.0032234818 -0.02162211 -0.00034160615 -0.015058986 0.006629178 -0.019299457 -0.015332067 -0.013556424 0.020925963 0.007910455 0.024821362 0.006938383 0.016368777 0.023095919 0.001476118 0.013895327 0.009536269 -0.015151746 0.019416953 0.0076248734 0.0062930137 0.017233087 -0.023734732 0.011075056 0.017095927 0.018980343 -0.0050969035 0.022098308 -0.0016057432 -0.013754144 0.01155287 0.009238273 0.00067716837 0.007055572 -0.019053344 0.002512175 -0.017379751 0.02278927 0.015014419 0.023045504 -0.021939639 -0.012433315 -0.0012163759 0.008842242 0.017334754 0.006676057 0.017439319 0.023948804 -0.02121974 0.0068968832 -0.019752411 -0.0052827983 -0.003139636 0.019992575 0.0054562925 0.01052759 0.010970905 0.012195453 0.0075528803 0.0015360296 -0.0144608645 -0.004562521 0.011866763 0.0013979018 0.017164413 -0.0059678825 -0.02238522 0.008037442 0.011757574 -0.012314931 0.0015335083 0.020138351 -0.013537079 -0.013382348 0.003482172 -0.012352133 0.009861034 -0.0031158538 0.0005799502 0.0023298503 0.009551832 -0.013406301 0.0030366362 -0.014732063 0.016079416 0.022027243 0.009974184 -0.0009079456 -0.011926261 -0.022571182 0.01319266 0.010338551 0.007866681 -0.00569205 0.023713041 -0.015603909 0.0072540194 0.011467511 -0.016156424 -0.023801923 0.00566394 0.0011829258 -0.005673787 -0.0122796 0.021807883 -0.01963971 -0.0154632805 -0.015816975 -0.0032105835 -0.00015930831 -0.016598985 -0.018727927 -0.012474284 0.009970046 -0.018563548 -0.017252538 -0.02443936 -0.010797131 0.009701711 0.009051668 -0.010678452 0.024252215 -0.0037737668 0.005558282 -0.021916835 -0.02020354 -0.019710068 0.015640909 0.002477637 -0.022613456 0.01740439 -0.013838542 -0.02427282 0.0054258406 -0.0040580514 0.024218692 0.011146039 -0.012283662 -0.0023467422 0.02116626 -0.01926584 -0.0172699 -0.0031931102 0.022121867 -0.014262492 -0.0030156374 0.021312563 -0.020559756 -0.011574963 0.024549505 -0.022503108 0.019391967 -0.01825354 0.014512256 -0.0060932934 0.0116883395 0.020385632 -0.015026012 -0.018241523 0.011638052 0.009244791 0.016803864 0.0050914586 -0.014243743 0.0108841425 0.0050604763 -0.013207758 0.013241634 -0.015351019 -0.0035173655 -0.024990503 -0.00040231348 0.013104063 0.014426491 0.018775184 0.014434225 0.0035156698 0.008000645 0.024595434 0.010957303 -0.015832433 -0.018804783 -0.016378034 0.015858395 0.008710853 0.015630001 0.006553996 -0.0037297667 0.00544076 0.018759796 -0.024341946 0.00840605 0.019437343 0.0018816025 -0.022433583 -0.01396516 0.012169585 -0.014071631 -0.0072947233 0.019748291 0.0113828955 0.009556624 0.010975826 0.024999604 0.0148920035 -0.005154243 0.013667405 0.013514417 -0.014582357 0.00093775097 -0.010361105 0.0010094971 -1.2111664e-05 -0.018232599 -0.015765935 0.02418097 0.0014817447 -0.009549478 0.020877196 0.01678018 -0.009293935 0.013320446 0.024347661 0.016429296 0.008918959 0.0040272176 0.021274319 0.005481103 -0.004640785 0.022765372 0.012168676 -0.021242345 0.0022874295 -0.01444149 0.010576508 -0.0194527 0.0005529136 0.008491761 -0.014333523 -0.0015027851 -0.007873925 0.0055056545 -0.01991574 0.017822852 -0.022397552 0.0062118173 -0.022849722 0.016284123 -0.02291861 -0.017562715 -0.023335919 -0.02414215 -0.0003977001 -0.00063352287 0.017641336 0.016165389 -0.00012964905 -0.017928569 -0.0070375353 -0.015944267 -0.022265315 -0.0026819946 -0.022054574 -0.022621483 -0.01950487 0.0093227355 0.009248525 0.0059743077 0.019669099 -0.0019386023 0.024376336 -0.005495438 -0.008030662 0.021452546 0.022806302 0.009032003 0.016192166 -0.008083234 -0.01596482 0.018778462 0.019873623 -0.01592279 0.018292233 -0.013528121 -0.0021872043 -0.0016969115 0.007264707 -0.024950102 0.0046393992 0.0019752383 -0.0005007029 0.01038104 -0.023395602 -0.017984975 -0.013844303 -0.009849361 0.0014943928 0.023280537 -0.017359508 0.0028365075 -0.015085787 0.014381051 0.0041370243 0.016665125 -0.012925521 -0.007935151 0.024464581 -0.015000603 -0.012379753 -0.016053945 0.02169705 0.023075959 0.0010647923 0.000596568 0.013150669 0.016342385 -0.004479623 0.0102206115 0.021184627 -0.01948304 -0.010542735 -0.023950413 -0.013591543 0.0057096216 0.00036092103 0.0035263211 -0.01810945 0.0100020645 -0.009384796 0.019050015 -0.021140695 0.0023814172 0.0037194937 -0.015133244 -0.023464981 -0.010789654 0.0065716594 -0.019748801 0.011329946 0.020367501 -0.0020671338 0.00027987064 -0.009155417 0.0016409546 -0.0059094788 -0.015269763 -0.0046565384 0.01800944 0.02261502 0.024811393 0.007840255 -0.008340389 0.01477215 -0.0009712726 0.0065241246 0.005332488 -0.020581722 -0.005236644 0.009370595 -0.024779586 -0.005883172 -0.014507807 -0.019105827 -0.00014511347 0.011233148 -0.02105993 -0.021566665 -0.0055653127 -0.010625944 -0.01428054 -0.002453974 -0.004363665 0.013560185 0.017752005 -0.008828468 -0.011586172 0.00830965 0.012152634 -0.002116403 -0.009159121 0.021731785 0.013635802 -0.017507404 0.004722524 0.014203441 0.01912698 0.020253181 0.015932938 0.009139726 -0.014137334 -0.0134193925 -0.015615272 0.009571525 -0.019226087 0.019974649 0.008066887 0.0158784 0.009240374 0.0039099366 -0.020387862 0.024337133 0.0006247074 -0.02489051 0.021700222 0.00286026 0.00019162595 0.005666283 0.0029185207 0.0049547884 0.0027240396 -0.0058330684 -0.01115329 -0.017912915 -0.020603588 -0.012026617 0.0048766644 -0.008371896 -0.0027404875 -0.016445873 0.01653182 -0.024602694 -0.013159081 -0.0026120364 -0.022247091 0.015107 -0.0035250129 0.009069524 0.00885489 -0.011945876 0.011395064 -0.007964769 -0.022465995 0.008146009 0.0007047355 -0.021773657 0.0033575953 -0.009497607 -0.018052 0.011906785 0.021428853 -0.01790971 0.015867952 0.023702059 0.009406844 0.014357663 -0.023091221 0.016786812 -0.00021597743 -0.0003247261 0.0036723197 -0.023286024 -0.014845631 0.013659889 -0.004679698 -0.0045281113 -0.01033578 0.0032517493 -0.01136041 -0.0062893718 0.0050756424 0.022113502 -0.008679402 -0.023442525 -0.023472896 -0.0178605 -0.0030521364 0.022284886 -0.0031323105 -0.015277919 -0.014342296 0.018720767 0.01944515 -0.009177116 -0.020943124 0.008067104 -0.02297314 -0.004314575 -0.00076672435 0.020209882 -0.010954893 0.011677521 -0.00378626 -0.02040625 0.0033728988 0.010840642 -0.00732078 -0.024318008 -0.004269171 0.01603554 -0.021078939 0.023812095 -0.011404941 0.0030780346 -0.012181229 -0.021819038 0.015145916 0.000929302 0.014893121 -0.0135342125 0.014524246 -0.013149607 -0.0061801285 0.02014167 -0.007042372 0.0058588474 -0.014746997 0.019499326 0.017751096 0.014886374 -0.009912455 0.019630248 0.0035636604 -0.010332632 0.0032440543 0.0019577653 0.015858999 -0.01596272 0.013238305 -0.0129916435 -0.009375545 -0.02287752 0.024288038 0.010009971 -0.019361386 -0.00089432 0.021398226 0.0074666175 -0.014244151 0.006555402 0.011496896 -0.010050255 0.023502827 0.005472836 0.0029678375 -0.008481559 -0.018818354 0.00033551455 -0.023533119 -0.0063120546 0.013971484 -0.01287587 -0.004128477 -0.02170155 -0.024359182 0.0013685137 -0.009155563 -0.008432398 0.019182483 0.016902545 -0.004883683 -0.015603277 -0.0033546896 -0.024624947 -0.01874885 0.023801079 -0.0228963 0.0040593506 0.021506136 -0.008512569 -0.010372624 -0.013934294 0.020622242 0.0058945804 0.020974983 -0.011878747 0.0028225721 0.017655078 -0.017212724 0.006942627 -0.024266994 0.013586017 0.0129470555 -0.024169838 0.011674139 0.0008817017 0.009847492 0.0069638165 0.0058920323 -0.0037379563 0.0144007625 -0.0109970635 -0.0056866915 -0.0004370153 -0.010799184 0.023700943 -0.0075790584 0.020136042 0.020282716 -0.0063489974 -0.02226285 0.00059089664 0.005728775 -0.017993951 0.004181761 -0.004983917 0.02003087 0.012769008 -0.021986568 0.016745493 0.02123168 0.009003428 -0.022792831 0.003254986 0.019204605 0.015575838 0.009441003 0.011247453 -0.009996414 0.005987078 -0.007752848 -0.001449746 -0.012144956 -0.004994163 0.024304394 -0.023213474 -0.011248365 0.0062969807 0.0042959214 -0.012600169 -0.00053002837 0.020633627 -0.01539816 0.020303637 0.023575166 0.00567441 -0.0035152317 -0.0062587857 -0.0037184327 -0.0048534097 -0.017988687 -0.00017633439 0.009448791 0.0030811757 -0.011301982 0.0070762634 -0.021895716 -0.0069629103 -0.0033176362 -0.0012772114 0.022042243 0.019918948 -0.013188615 0.005260387 -0.015453822 -0.007317889 0.013489122 -0.011112374 0.013072455 0.006180695 0.003419751 -0.012977219 0.010948369 -0.005079809 0.008277172 -0.0014611811 -0.0136819845 0.014062258 -0.0011227131 -0.0045811 0.021781726 -0.0192866 0.013391877 -0.011755711 -0.008625957 -0.02490311 -0.01014618 0.022753105 0.015042791 -0.015280306 0.02055854 -0.016231174 -0.00593715 0.007722494 -0.011559752 -0.022555998 -0.023102403 -0.020268345 -0.014551446 0.016473085 0.022028698 -0.0125787025 -0.005648476 0.014895484 -0.0056886794 -0.014771464 -0.011969981 -0.020793332 -0.014579773 0.00032171607 -0.01336779 -0.0011758239 0.022561694 -0.01876759 0.0054091127 0.0020555288 0.0009071827 -0.011956284 -0.01105125 -0.010173181 0.013667876 0.0028694868 -0.016293729 -0.016735408 0.024276031 -0.023655703 -0.018425727 -0.006671697 -0.0072447956 -0.01664863 0.013643819 0.023413954 -0.0010319054 -0.017778505 0.010697278 -0.006400913 0.022010172 -0.018168611 -0.011009932 0.018771091 -5.28872e-05 0.0023255765 -0.008575163 -0.000106123094 -0.011564332 0.004707852 -0.019233927 0.00440318 -0.008156848 -0.011665925 0.021940732 0.0007215679 0.007765329 -0.0010002464 0.0043107034 0.010553139 0.024489785 0.0050717085 -0.016287694 -0.014788002 0.013369462 -0.0014781713 -0.012544575 0.021655643 -0.023217237 0.015639622 0.005074614 -0.016953638 -0.02201343 -0.023602188 0.007926128 0.0067325234 0.015181181 0.014259145 -0.0125462655 -0.010152918 0.003074926 -0.005884472 -0.021721289 0.02261251 0.013435892 -0.0048297974 -0.007967255 -0.0014799119 0.01953215 -0.0029059113 -3.1486154e-05 0.01944829 0.02209553 0.01483427 0.011838535 -0.004423803 -0.0043476224 -0.017486218 0.017817913 0.0074383765 0.02102887 0.017645082 0.017336432 -0.0029202849 -0.00460428 -0.0008986771 0.016985029 -0.0011387498 -0.015273801 0.0061961086 -0.019439925 0.017989343 -0.0034554482 0.0068409503 -0.0023366392 0.024848584 0.016753217 -0.0115196705 -0.014414409 -0.013024765 0.0034373612 -0.008619562 -0.0050477656 -0.015002805 -0.01885343 0.01279774 -0.009632245 0.011025146 0.014451158 -0.020991165 -0.015604726 0.014426685 -0.0021781654 -0.0017953425 -0.013629875 0.019647514 -0.0034700574 -0.003076151 0.006708089 0.0008113086 0.020135736 -0.022920743 0.0003867507 0.011442751 0.017171977 0.0061647356 -0.012834877 0.01689296 -0.02399532 -0.01973097 -0.007800281 0.012036485 -0.0064513865 0.024269193 0.01981599 -0.009035281 -0.003380987 0.018669466 -0.023362208 0.022664865 0.024685875 -0.023215994 -0.011722055 -0.020839661 -0.007601333 -0.004898235 0.00044119358 0.015881306 0.01232355 0.019523589 0.024742628 -0.01507172 -0.014228788 -0.017454594 0.01650459 -0.003496486 0.0022354275 -0.0027058662 -0.01866064 0.020556116 0.005876431 -0.017991377 0.02460829 -0.0057895035 0.006553599 0.006286931 0.0025858344 -0.011393243 -0.0026739927 0.008831161 -0.012378747 -0.0002618611 -0.018030664 -0.015171028 -0.01551947 0.012610361 -0.0073182047 -0.023437923 0.0062070074 -0.021508638 -0.0136087835 0.013559309 -0.0011947424 0.020136416 0.0002854973 -0.003549841 0.021942725 0.019642992 -0.013023147 0.01641026 0.009937644 -9.331107e-05 0.017319947 0.0069347206 -0.021475643 0.015339419 0.0052601667 0.02352034 -0.011303025 -0.003991687 -0.020524284 -0.010577357 0.015471849 0.017202506 