0.04295377 0.077899694 0.027925095 -0.07836755 0.07300937 -0.17927842 0.28866416 0.286371 0.107434794 -0.012675643 0.18327837 -0.091349885 0.25087172 0.02342542 -0.06794628 -0.079788886 0.30295366 -0.122822486 -0.18935573 -0.22329836 0.1321412 -0.23384118 -0.33300835 -0.19634847 -0.102849886 0.2676928 -0.24632475 -0.17513716 0.25941628 -0.20216183 -0.20825589 0.15616763 -0.16606331 -0.053316236 0.29057664 -0.2805371 0.105533205 -0.32313392 0.013923287 0.11111455 -0.1265165 -0.034628235 -0.16879854 -0.19340682 0.25163406 -0.2854802 0.0044989586 0.060890794 0.14938661 0.04289226 0.18748164 0.29490098 -0.3279465 -0.033230823 0.02674695 0.20354979 -0.18599173 -0.04209292 0.09108631 -0.05450332 -0.06439146 -0.13744104 0.0964342 -0.2820863 -0.2723781 0.23687074 -0.11082324 -0.14397947 -0.19011232 -0.20197937 -0.04366362 -0.12737887 -0.21375918 -0.2433424 -0.04577756 -0.12791741 -0.27547556 0.021601638 0.29839334 -0.28556526 -0.084502265 0.2899108 -0.12320483 -0.019467633 0.124376655 -0.31628847 -0.046521228 -0.023857793 -0.13178584 0.05493061 0.25358093 -0.15334372 -0.23803031 0.21699814 0.16538131 -0.027607879 -0.30369544 -0.03378586 -0.15750849 -0.19786462 -0.2880507 0.2195282 0.05222237 0.22296259 0.17947432 -0.11422881 0.2753099 -0.2305644 -0.24470012 -0.11943281 0.102306925 -0.1949755 0.04513971 0.08470317 0.1534348 -0.23926847 -0.26965272 0.023177346 -0.109637104 0.18803525 -0.14010231 0.026298285 0.28977257 -0.14473602 -0.28608665 -0.09813857 -0.26259908 -0.13008487 0.1269335 -0.12010229 0.018368285 -0.1286184 -0.3212186 -0.267358 0.06519616 -0.23686907 -0.09779712 0.055004917 -0.08822477 0.10995178 0.102982685 -0.013690829 -0.15230076 -0.15205932 -0.039387904 -0.14781973 0.14060569 0.06835564 0.3056156 0.17141227 -0.16948812 -0.3233666 0.33206603 0.3134408 0.040154777 -0.0150363445 -0.06594901 0.03481269 0.18468015 0.3045908 0.30543083 0.30044863 -0.044650674 0.04430171 -0.08436191 0.19168472 0.08238427 -0.015580734 0.0982763 0.09843922 0.19641575 0.25694877 0.12152537 0.1403846 0.32706147 -0.33118945 0.16302042 0.2233619 0.20001003 -0.2602321 -0.33128655 -0.18854293 -0.119823776 -0.2714922 0.24535951 -0.29538178 -0.034424983 0.022153974 -0.02431818 -0.23120634 -0.0980684 -0.11607333 0.05485336 -0.030786594 -0.14329824 0.3208326 0.14256474 -0.26966643 -0.17677681 -0.29758602 -0.14291537 0.3209321 0.29147208 -0.05106493 -0.12401056 -0.24258904 0.13566685 0.20417468 -0.2067635 -0.031934142 -0.29000458 -0.20724654 -0.011406541 0.23477773 -0.15054369 0.14658289 -0.2963211 -0.14151995 0.24716544 -0.17551422 -0.28781852 0.15202257 -0.05039283 -0.10104676 0.13408852 -0.0445598 0.2786008 0.004709562 -0.029084802 -0.29305297 0.16754207 -0.2502337 0.27113754 0.07933776 -0.08708926 0.3132804 0.2027143 0.1334945 -0.2195153 -0.28631443 0.085522935 0.22910735 0.2819334 -0.07336231 -0.18300793 0.07185304 0.10650949 0.19654033 0.2570189 -0.06925814 0.1400455 0.05797144 -0.07403545 -0.04553628 0.09913107 -0.298055 -0.038387977 -0.16675028 -0.28924987 0.0653954 -0.19371943 -0.25439084 0.18806002 -0.18130235 0.075418234 0.004933119 0.3311317 -0.32370484 0.24247846 -0.3317191 -0.1693829 0.07283183 0.13251936 -0.06899822 -0.13915917 0.06340754 -0.08940717 -0.050846934 -0.19746368 0.07681601 -0.2710386 0.3278312 0.3042923 -0.30521876 -0.10183518 0.29918832 -0.24321544 0.049288552 0.12946403 -0.21618657 -0.18034038 -0.16687489 -0.14910087 0.32267606 0.32799226 -0.03082208 0.25296646 -0.066491924 -0.18222615 -0.19996437 0.2834395 -0.30023617 -0.1368578 0.20155017 0.3229047 0.25756335 0.3095209 0.31432602 -0.28109002 0.023870151 -0.063893996 0.27612835 0.31573933 0.30259883 0.16138344 -0.22583291 -0.06128466 0.27301973 -0.0731351 0.024645647 -0.1506908 -0.2854194 0.14664309 -0.29012617 -0.27494013 -0.2026881 -0.124985896 0.06186974 0.29102045 0.15418443 -0.04136332 -0.00017007193 -0.13945127 0.30788106 0.23747735 -0.18011034 -0.22515409 0.084147334 -0.10946759 -0.23377602 0.20548622 -0.16015646 -0.012027105 0.3228988 -0.1129092 -0.031419 0.24421573 0.102781855 -0.19578533 -0.32164642 0.044237535 0.17672595 0.18940365 -0.21485882 0.030340075 -0.29709277 0.1655374 -0.22334497 0.10282664 0.12013122 -0.114790365 -0.21221916 0.10885831 -0.12119087 0.18227546 -0.21389699 0.029248238 -0.037452977 -0.020661434 -0.09011388 0.28267702 -0.11883335 -0.08027204 0.26605412 -0.20277712 0.2185969 -0.008016388 -0.021709483 -0.06792104 -0.14762053 -0.27446792 0.039644122 0.18545628 0.02481258 -0.256943 0.27154076 -0.15971987 -0.038305163 -0.07162905 -0.257734 0.03192123 -0.12105906 -0.11877012 0.25912842 0.14559305 -0.062279385 -0.1095589 0.18187086 0.21414714 0.13385496 0.18560135 0.28314874 0.01927936 -0.19870424 -0.045712274 0.12073998 -0.24851272 -0.23584644 -0.19133148 -0.224282 0.1953017 -0.2890497 0.2847907 0.26922962 -0.026227713 0.28145665 -0.23999795 -0.3134757 -0.24915266 -0.20859694 0.04838761 -0.17668268 -0.08942346 0.21831596 0.259271 0.051061273 0.19674346 0.2711011 -0.072843514 -0.02347231 -0.14945146 -0.013283094 -0.22958092 -0.24100809 0.17885193 -0.004782955 -0.014712652 0.08959329 -0.09599539 0.12097164 0.07677456 0.31552407 0.0025398731 0.28956532 -0.2711712 0.31314164 0.06800394 -0.14628749 -0.18353157 0.12445482 0.18497095 0.17171542 -0.2566447 -0.108350836 -0.32176983 0.2043544 0.17725381 -0.31515062 -0.0018721422 -0.23471932 0.22587697 -0.1347948 -0.15599108 -0.31836173 0.09385316 -0.07570116 0.094755135 0.05559385 0.30381832 0.03306111 0.30362076 -0.18876188 -0.3302517 -0.14008324 0.12982564 0.1383146 0.12352066 0.1792481 -0.12015998 0.18756084 0.27013552 0.0053191585 0.22096579 -0.3121146 -0.18245845 -0.02748859 0.14545183 -0.06511152 0.127353 0.0076319776 -0.16210572 -0.227549 -0.0030056238 -0.24830167 -0.17811453 0.021307787 -0.28118336 -0.19691758 0.24061155 -0.09593376 -0.087004304 0.17399244 -0.09603175 -0.10617217 -0.12389159 -0.2580478 0.06202237 0.19351181 -0.32176566 0.2833526 0.3089356 -0.087114654 -0.08809137 -0.21228647 0.14228496 -0.023036283 0.07990484 0.32274705 0.15550172 0.19679408 0.12876233 0.29660434 0.28547317 0.09546789 0.28864545 0.036823392 -0.082616925 0.11321124 -0.2735885 0.2477158 0.089824915 -0.036090177 0.10055228 -0.28308088 -0.036019724 0.078549586 -0.27373284 0.116698466 -0.15148883 0.010051092 -0.0041011176 0.19362828 0.008505623 -0.2104268 0.32662624 0.31979328 -0.2703001 -0.1382905 -0.041394554 -0.21014223 -0.29463097 0.19800715 -0.013962865 -0.0834465 0.041689835 -0.28344756 -0.025356254 -0.19145243 0.0013834636 -0.32893765 0.10923147 0.17168972 -0.14541706 -0.12953138 -0.26992947 0.057721853 0.14152412 -0.15029764 0.33200502 -0.31409454 0.25493523 -0.11511179 0.15810832 0.22079003 -0.28157946 0.28428766 