0.010656289 0.007558358 -0.020905918 0.0066150934 0.02206617 -0.011663878 -0.013404727 0.0015887708 -0.021794919 0.007945645 0.008000481 0.010187045 0.014211941 0.015198809 0.00890734 -0.004319969 0.0024179488 0.012776575 -0.008097283 0.021256575 -0.013301644 0.024413062 0.023163078 0.010776392 -0.021178348 -0.0028419793 -0.0029613345 -0.020531962 0.020604482 -0.009605104 -0.0111862635 -0.019393673 0.013506469 0.0085505545 -0.00075516105 0.0071205767 -0.005089098 0.015116105 0.009240133 0.016583119 0.0053810957 0.008602 -0.008993543 0.01568435 -0.020758187 -0.0009931207 -0.0098978225 -0.005722785 -0.01941581 0.0069440543 0.00054536463 -0.0030694546 -0.018696148 0.013369212 0.0015909582 0.019294668 0.0071244747 -0.00048142672 -0.0039098263 0.01449953 -0.023989096 0.0077770087 0.0150987385 0.0025724948 -0.0054739923 0.02396867 0.011584878 0.021036638 0.010574156 -0.008077539 0.013528088 0.02184322 -0.0062891725 -0.00786376 0.008144701 -0.0036276819 0.024191022 -0.003947371 0.00328649 0.024999052 0.020072535 -0.014860898 0.021074379 -0.008839306 0.018963028 0.022062449 0.006547445 0.014622859 0.0043727756 -0.005789757 0.017343095 0.012732381 -0.00072620215 -0.0146147525 -0.011697197 -0.020784173 -0.018505072 -0.006766561 -0.0043869168 0.017280582 -0.015884465 -0.014774722 -0.018330425 0.007835421 0.004107896 -0.014712334 -0.006919462 -0.0028839677 0.013810567 -0.0027373761 -0.02234587 -0.0058890465 0.020604236 -0.022425482 0.014741925 0.0030510665 0.0043179453 -0.006218502 -0.013807371 0.0030893416 -0.010969663 0.024379576 -0.0107473945 0.020266697 -0.013816455 0.004500419 0.013583645 0.002488047 0.0035015463 0.0033253343 0.014949533 0.0035778761 0.024615804 0.019823855 0.022980958 -0.02361508 -0.023166066 -0.02051051 0.02247346 -0.014372415 -0.018942654 0.018427879 0.011562401 -0.0077845934 0.023788825 0.018008253 0.024566451 -0.01852628 -0.011874676 -0.0066019744 0.021896556 0.015557385 -0.0016602904 -0.024805699 0.024278155 0.011906311 -0.024631524 -0.019537956 -0.0065570623 0.02217926 0.018397892 0.0043575526 0.002507964 0.002789414 0.005030221 -0.0072491853 0.023246143 0.0088814795 -0.020659743 0.016478881 -0.021357134 0.023725245 0.013586578 0.012179351 -0.01680368 0.015555578 0.021663783 0.016566051 0.023284245 0.0010909617 -0.009838379 0.007911748 0.018097613 -0.0030898394 -0.008278313 0.0018281132 -0.018054426 -0.0030442774 -0.0011392742 -0.015892476 0.009742734 -0.009030059 0.00079339446 -0.008133719 -0.012194506 -0.00011375845 0.014628768 -0.019975055 0.0077453107 -0.014639753 -0.0068175676 0.024394039 -0.0012790918 0.012660772 -0.005231485 -0.014647493 -0.020049607 0.022529272 0.0114517985 -0.021872995 0.0069229486 0.008797563 0.021884521 -0.018912032 0.02398999 -0.021180717 0.014669487 0.024585957 0.0010867239 0.004859388 0.011000655 0.0060376166 0.0030274421 -0.023240482 -0.0016360701 0.0073635043 -0.010428655 0.0003583938 0.0054968866 -0.003995803 0.019445276 -0.012679547 -0.023102855 0.019729627 0.008672133 -0.013391703 -0.017247466 0.010909587 0.0204676 0.0011786282 0.0060311197 0.0043257955 0.014936975 0.01994131 0.012101722 -0.006646806 0.0056742462 0.023644907 -0.012476474 -0.018302405 0.0011644214 -0.01019328 0.023955742 0.010139692 0.000451836 -0.0073352098 0.005912134 -0.014782617 0.021213172 -0.009989885 0.00586285 -0.00057053566 0.01991119 -0.021204352 0.0053943577 0.01119228 0.023984987 -0.022509923 -0.004225126 0.002526635 0.02236238 0.024086341 0.0194654 0.018867178 0.0007035077 0.019626012 0.0048202574 -0.002120468 -0.0033230602 -0.0050476193 -0.007491675 -0.007876838 -0.009184501 0.0056502013 -0.01000635 0.007976085 -0.0064547807 0.014911217 0.0036203712 -0.012949655 0.0034558387 -0.01655787 0.021013686 0.022722164 -0.0054323645 -0.017531944 0.006785801 0.012312293 -0.014606026 -0.02262944 -0.023234356 -0.0045019328 -0.0029466033 -0.019506982 0.00030055942 0.019435255 -0.006141475 -0.0071837637 0.024573548 -0.020600153 0.018758101 -0.0052805184 -0.017184708 0.018922357 0.00268386 -0.02042054 0.009332073 -0.0027980178 -0.001899305 -0.023900395 0.01799024 0.0005032778 0.022503568 0.020194575 -0.02226301 0.01035603 -0.018832063 0.020286737 0.016172206 0.022676004 -0.022103999 0.008346698 0.023071736 0.015236581 0.019475741 0.002241692 -0.024156919 0.009123432 -0.017462036 0.020495353 -0.0018275827 -0.013295165 0.0067465487 -0.0023944916 0.015780091 -0.016199673 -0.023596236 0.005632815 0.01600867 -0.0024749339 -0.008520958 -0.013845244 0.0020551651 0.013984591 0.00044419765 0.0069251657 0.009475419 -0.013896546 -0.013032171 3.130138e-05 0.0028386028 -0.022239296 0.0071763694 -0.016003063 0.0108747035 -0.023267364 -0.014874423 0.008786052 0.01011076 0.017714286 0.010242513 0.021311639 -0.020223523 0.013813103 0.00650495 -0.007085553 0.0025145977 0.0029708415 -0.019124389 -0.011814016 -0.01845244 0.0056597353 -0.017598001 -0.014025775 -0.0036199212 0.007697576 0.014863533 -0.022637455 -0.015756086 0.0049977484 0.0244272 -0.0020344555 -0.002962947 0.016100237 0.0131457895 0.007974264 0.003077665 0.02387011 -0.0030027598 -0.01694788 -0.005185187 -0.014633486 0.02489443 -0.003709683 0.014825645 0.0016932369 0.015997022 -0.014463904 0.011866793 -0.022377685 -0.022212802 -0.007827071 -0.01453369 0.023266247 0.005064625 0.0068118395 -0.016240029 0.01930112 -0.024533162 -0.011415181 -0.022421136 0.006249893 -0.019734481 0.0047566416 -0.011912805 0.009627163 -0.0014800489 0.021851629 0.012197631 0.007513127 0.0009000987 0.0030768812 -0.013483623 -0.015903044 0.011767849 -0.011810279 0.020823035 0.005417028 -0.009815213 0.013683364 0.021313919 -0.007685769 -0.0050913813 -0.021862254 0.02456252 0.010646707 0.009160072 0.021244803 0.01504522 -0.0127732335 -0.005278036 -0.0027574243 0.019500146 -0.0057824375 -0.019073982 -0.020204855 -0.010802559 0.0047768834 -0.008095103 -0.007860655 -0.004276109 0.016396372 -0.007254079 -0.024712084 -0.003573042 0.017566264 -0.021835951 0.00879429 -0.0024220527 0.014845327 0.0066716406 0.0035659166 -0.016590303 0.008021626 -0.009006694 0.007759705 0.0061516673 -0.0018411846 0.015424124 -0.003640613 0.02037539 -0.013688621 0.0120626455 0.023810899 0.004622397 0.019844336 -0.016428208 0.021144971 -0.008879477 -0.022625873 0.004534191 0.017683212 -0.008332309 -0.007709405 0.021219527 0.012223047 -0.004174447 -0.0044830623 0.021118382 0.0017285406 -0.021104846 0.0013559252 0.024411846 -0.015734328 0.00032908918 0.008356142 -0.022222895 -0.0051955464 0.0010197193 0.021927958 0.02001739 0.018553568 -0.017679477 -0.0013247967 0.013235241 0.021883076 -0.017985014 -0.000101137164 -0.01874339 -0.010992927 -0.009583756 0.011080108 -0.011302563 -0.008433846 0.02206768 0.004965842 0.01940377 -0.008307695 0.02295263 -0.016912753 -0.015606636 0.010715532 0.01929967 -0.016846085 -0.01242584 0.005352327 0.018031457 0.023883179 -0.00469127 0.0050589144 0.0030778379 -0.010523505 -0.017035946 -0.014026743 -0.022027045 -0.019267708 -0.0047447653 -0.003671047 0.010425076 -0.010299942 0.022540713 0.0062933117 -0.023714188 -0.018814212 -0.011362487 0.0009181291 0.019007105 0.011869669 -0.01891751 0.01482794 -0.009919295 -0.005431047 -0.013027308 0.00081182126 -0.00491409 -0.011118352 0.006387818 -0.0083589675 -0.017649982 0.0022897988 0.015535719 0.0064935386 -0.011869273 0.0039692163 0.00930526 -0.018685808 0.009579278 0.017001843 0.023707105 0.008219317 -0.009320224 0.0067336173 -0.006289491 0.011860693 0.005027488 -0.011204547 0.014994967 -0.0027336478 -0.0163804 0.012052926 -0.0008090705 -0.00626466 0.0040146443 -0.024975345 -0.0043970556 -0.012201399 -0.010246262 0.004482773 -0.016954262 0.021776292 0.01820288 -0.019382453 0.010887257 -0.00960801 0.01161494 0.012679368 0.01682497 -0.005917445 -0.010589242 0.013142767 0.009890101 0.0029285222 0.018078199 -0.004500574 -0.022793848 -0.008777186 0.009729102 -0.019845102 0.007606778 -0.000744462 0.010418579 -0.014626416 -0.024619484 0.015620348 0.0035994172 -0.019186804 -0.01127095 0.016462108 0.007857037 0.01010704 3.504753e-06 0.010901555 -0.019846994 -0.0059922338 0.023116011 0.0040862323 -0.0019905777 0.014750272 -0.0028371871 0.0023795634 -0.004355362 -0.009009234 -0.005714172 -0.00062110723 -0.010986271 0.00054804387 0.0030857145 -0.011073503 -0.008871594 0.0118820965 -0.021058712 0.023168122 0.0040901126 -0.0013196886 0.0231937 0.00065157714 -0.0038092495 -0.016500397 -0.008310846 0.016243858 -0.008970133 -0.007901832 0.01771926 -0.0053518414 0.0054552318 0.017087135 -0.0013072997 -0.009039918 -0.013218197 0.01309146 0.012009114 0.022704963 0.008921891 0.0053902566 -0.015452567 -0.02499233 -0.013889021 -0.012183932 -0.021651307 -0.017663462 0.0021990598 -0.011645222 0.014474073 -0.01876325 -0.012518383 -0.00631392 0.011942292 0.023342142 -0.015351987 -0.0027942688 -0.022251977 0.0144844325 0.017077237 0.014681471 0.011459964 0.0022397966 -0.0053290576 0.011016401 -0.00956552 -0.021170309 0.009159833 -0.0032736838 0.024483314 0.022219798 0.011082381 -0.001077047 -0.012030321 -0.018626798 0.022933533 0.0077883364 0.024332738 0.018882353 -0.0036283701 0.0018386663 -0.0020294487 0.021681607 0.013173289 -0.019704899 -0.0030734332 -0.004731843 0.017634097 0.017669776 0.0020137818 -0.00048547686 -0.022203196 0.0022221 0.019037822 -0.0002798468 0.0042918175 -0.0034119964 -0.016375432 -0.009120199 -0.013448662 -0.012715417 0.016593236 0.020283619 -0.015791008 0.023016764 0.018209044 0.002035612 0.020212743 0.018243983 0.007904986 -0.012974152 0.02202693 0.020577738 -0.007270089 -0.008559898 -0.021933485 -0.008761716 0.010404891 8.317232e-05 -0.0045971125 -0.018336335 -0.02316334 -0.0055937856 -0.013861144 0.008992336 -0.0015666307 -0.011449918 -0.002901727 -0.007520247 -0.005319542 -0.016740536 -0.023856733 -0.0126675395 0.013652814 0.010347107 -0.018311119 -0.013754055 0.00048762263 -0.018643936 -0.008790079 0.007296914 0.015869636 0.014091045 -0.00047599376 0.021297187 0.012893394 -0.024942655 -0.01757784 0.015421188 0.012528801 0.022223538 0.017799634 0.0042981985 -0.004646096 -0.018697217 0.012087497 -0.015806494 0.019311378 -0.0023026466 -0.0074706287 -0.0043199807 0.0061751427 -0.02045089 -0.01845615 0.008181015 0.012647885 -0.024387136 0.01680391 -0.010705662 -0.023210404 -0.0041133496 0.009058309 0.007187432 -0.005819756 0.01214718 0.007331756 -0.010044915 -0.011046166 -0.021933872 -0.010152242 -0.012499148 -0.015093706 0.0018817157 -0.016768668 -0.01575918 -0.022624208 -0.024219742 -0.0053293793 -0.00071840885 -0.019152133 -0.023536423 0.0020017386 0.017811155 0.02045284 -0.0081029385 0.0061942847 0.023982495 -0.016410587 0.013147578 -0.002254355 0.011161098 0.023733744 -0.007306388 0.014228496 0.010769951 0.020650798 -0.018701673 0.009351737 -0.012318737 0.022424523 0.022301614 0.003431633 -0.015009693 0.007834516 0.015645219 -0.020208178 0.024515187 0.011099348 -0.024841422 0.0024989785 -0.019200554 0.013477064 -0.00565812 -0.002347067 -0.015349678 -0.023998199 -0.00056037604 -0.00036778153 -0.021052366 -0.014852536 0.016520584 0.010157615 0.017297065 -0.007244834 0.024961902 -0.011222652 -0.007189074 0.00064261555 -0.016271085 -0.01391494 -0.01534462 -0.0038787485 0.01630959 -0.003288752 -0.016935876 0.0057237386 -0.0038315505 -0.0031795742 8.34465e-07 0.003104344 0.006007496 -0.011626178 -0.0069250646 0.02376674 -0.014861301 0.009686443 -0.014952672 0.018603513 0.006748337 0.010597137 -0.02098228 -0.015474689 -0.012471226 0.020777225 -0.021730518 0.009867022 -0.012396184 -0.016000912 -0.018194316 -0.016791278 -0.019684887 -0.005458683 -0.023874626 0.0073801964 0.008379981 -0.012978772 0.022049291 -0.011199492 0.008255253 -0.017159313 0.0012751013 0.0006481916 0.014826191 -0.01362846 0.010577768 -0.0013275951 0.011794996 -0.0102342395 0.023811895 0.014774958 0.0053141746 -0.021526456 0.015084589 -0.019208718 -0.021835243 -0.022655854 0.006567502 -0.016615896 -0.0017976583 -0.004309869 -0.0065155895 -0.017337406 -0.020942828 -0.00850217 0.0042619198 0.01537993 0.014128262 0.003994036 -0.012828904 0.0111553995 0.0066704988 0.016748605 -0.021252131 -0.0065000146 -0.004359299 -0.011336431 0.020161366 -0.0043234825 0.022375507 -0.006388128 -0.017169291 -0.01661929 0.0049324036 0.020044222 0.0009668708 -0.014570317 0.015398321 -0.013017393 0.014065958 -0.018338332 -0.013662708 -0.005346766 0.018977275 -0.0055465074 -0.01559633 -0.021704707 -0.013663828 0.013034093 0.021743057 -0.013107982 0.014111615 0.019071734 -0.007402009 0.014999456 -0.0020285042 0.013432011 0.022710726 0.016416678 0.021973407 0.012901134 0.003751448 -0.013095182 0.013960445 -0.005267301 0.005124268 -0.016183436 0.020887543 0.014613899 0.013033101 -0.018958662 -0.018854795 -0.00090566877 -0.009230882 0.02307016 0.0048573613 0.0012251318 -0.022965092 -0.023207197 0.012387449 0.003112036 0.014767435 -0.007684341 0.009609154 0.011998138 0.012523255 -0.009403855 0.00024203658 0.024985328 0.016781732 -0.0123614045 0.016078476 -0.010662362 -0.013534427 0.00045823754 0.022165138 0.0044815275 0.015014261 0.024228383 0.005975485 0.009776068 -0.022682711 -0.016408807 0.01679236 0.02238295 -0.008084193 0.024534402 -0.0183657 -0.014442483 0.018118713 0.0067650317 0.007411507 0.021021083 -0.001447171 0.007353708 0.0054905685 0.00914869 -0.0068068057 0.0032000304 -0.013881919 0.012135553 -0.013861275 -0.013101793 -0.013500953 0.002225384 0.006231025 0.0029034317 -0.01735856 -0.005486214 -0.0014347642 0.012832182 0.018380657 0.011381186 -0.020574752 0.0012569815 0.024477456 0.013475341 0.0029957592 -0.013926715 -0.0228221 0.023188148 -0.0048358473 -0.0037758888 0.020875832 0.0007925302 0.021209856 -0.0064698877 0.0015541315 0.015815109 0.01817487 0.0035201998 0.005118105 -0.022976244 -0.02471668 0.02121756 -0.018907318 -0.002266595 0.0049961717 -0.019257268 0.005947396 0.004687345 -0.012789902 -0.0112238 0.0034384876 0.015176765 -0.0027392388 -0.017679805 0.013745395 0.0055022896 -0.004783538 0.02441026 -0.00014016032 0.018829897 0.024324311 0.008576128 0.021165792 0.019582683 -0.0143016875 0.010305673 -0.0014824569 0.009832993 0.012203122 0.021439074 0.0029717505 -0.0049655857 -0.009205076 -0.019121155 0.021519696 0.015883312 0.0029440434 0.0060112686 0.014010123 -0.020904675 -0.022412384 -0.005795327 0.015669296 -0.0038399815 0.018967167 0.00092468265 -0.023267213 -0.02376011 0.017224971 -0.0034062832 0.0062051746 -0.02387594 -0.005214459 0.0058996263 0.0032888919 0.0038104118 -0.016676923 -0.021734133 -0.005578032 -0.017017795 -0.020445308 0.0014493227 0.018231764 -0.016769582 0.016207978 -0.01046159 -0.009609646 -0.021801999 0.020986859 0.015884796 -0.0034311058 0.02221683 0.004756838 -0.008701679 0.0023758293 0.00048852264 0.015594304 0.017461045 -0.0010537446 -0.011793998 -0.014758456 -0.01237365 0.01060985 0.0006436199 -0.008405722 0.016587287 0.013315481 0.0130377505 -0.018214649 -0.012728033 0.011305052 -0.005784941 -0.016554415 0.009938291 -0.017077222 -0.008796987 0.015541789 -0.0048293085 -0.014826867 -0.023946065 -0.017991021 0.022098577 0.0108626755 -0.012689329 0.024325082 -0.018093958 0.020335052 0.017489463 -0.013780377 -0.012001312 -0.009144408 0.017679403 -0.018822609 -0.0010594666 -0.0021915943 0.009910447 -0.0019791543 -0.010290853 0.010182584 0.0019597888 -0.021481875 -0.0034066022 0.009436363 0.003644693 -0.010368464 -0.024100026 -0.0120719345 -0.011605796 0.016661135 0.02409562 0.0069253654 0.01358839 0.024659572 -0.012861005 0.01929599 -0.014541683 -0.022866169 0.011055151 -0.012938148 -0.0036865235 -0.024526704 -0.007139239 -0.014399001 0.008542028 0.016360331 -0.001377526 -0.0092726 -0.01479908 0.021930713 -0.0062434557 -0.000444448 -0.02061284 0.016976196 -0.017703697 -0.020736625 0.002931276 -0.018428633 -0.011715427 0.0007613659 0.024056984 -0.008196545 0.0006192744 -0.009996551 -0.0029444546 -0.017479423 0.0117018735 0.019964943 0.01407513 0.0068523497 0.016706977 -0.015968392 -0.021033758 -0.023647264 -0.0104030995 0.0021609724 -0.014927775 0.012452907 0.0020720393 -0.014284692 0.013716794 0.018862188 -0.022974689 -0.020184232 0.0062548607 -0.02486073 0.020787043 0.010017223 -0.012307892 0.0035887123 0.019472102 -0.0020387291 0.01663213 -0.008525274 -0.0012818754 -0.0043905587 0.003939688 -0.0037912875 -0.0011852205 0.00019659102 -0.00014717579 -0.020133024 -0.02092712 -0.005461541 -0.019390939 -0.01582028 0.021849826 -0.00067830086 0.011211112 0.021847729 0.01684106 -0.008985407 0.0008087456 0.0121261 -0.019442031 -0.010530985 -0.022462064 0.012358636 -0.018687312 0.021659706 0.009289208 -0.014437842 -0.0069514215 0.012132916 -0.023082873 0.006752908 -0.004658911 0.02186801 -0.009540776 -0.014598459 0.008727503 -0.0011164636 0.0037058236 0.020654736 -0.012315563 -0.019900251 -0.012525693 -0.003718403 -0.005607009 -0.016465595 -0.010806218 0.007826301 -0.001271522 -0.0022113174 0.00057964626 -0.01034937 0.0035298914 -0.013198442 0.010431669 -0.0060625165 -0.0051997066 0.020921126 0.006696564 0.022407671 -0.010905707 0.020312374 -0.020520423 0.010557315 -0.0034564584 0.0171611 -0.0063564717 -0.0033156367 -0.024099559 -0.018398304 -0.018795652 0.0022834658 0.006702474 -0.011904973 0.0056957873 -0.0061496287 -0.005106926 0.019419998 0.00073329214 0.020965938 0.0028198392 -0.0010471195 0.013346041 0.023356637 0.023131022 -0.0072407126 -0.011533213 0.0037122907 -0.018812258 0.0034614175 -0.010558969 -0.011076811 -0.016924566 0.012171424 -0.0072840424 -0.019188462 -0.001323396 -0.016077116 0.004333529 -0.011936626 0.0026133896 -0.021052754 0.008756614 -0.014617753 0.015823102 0.018968135 -0.004914075 -0.015771179 -0.0028944553 0.02388907 0.01511032 0.008203548 -0.016255567 -0.012563288 -0.0141453445 -0.024167204 0.024215398 -0.0018192948 -0.024949262 0.019982738 -0.008606485 -0.021724368 -0.0008475125 0.011383775 -0.011784488 -0.009626523 0.011398548 -0.00022488534 0.007932416 0.021126637 0.0046482715 0.018198598 -0.006332621 0.021923348 -0.0050520836 -0.0030600787 0.011272028 -0.009992728 -0.003912717 0.01935714 -0.0146290185 0.002123788 -0.0042142454 0.005361784 -0.020676097 -0.0044485065 0.0060604154 -0.021753972 -0.0006610334 -0.0023212403 -0.0030578168 0.017983958 0.005900526 -0.016592195 0.014411605 0.0055897594 0.015526488 -0.00035371186 0.0014513255 0.0106090335 0.023319105 0.0017172009 0.02139989 0.0018866658 0.010966155 -0.021040613 -0.01114097 -0.0065682353 -0.024646202 -0.024604324 -0.009550738 0.014449072 -0.0031320632 -0.020568687 -0.010493952 0.024313658 0.007752407 0.00038633347 0.003293711 -0.0028180243 0.014920986 0.020749658 -0.012022567 0.013010654 0.0017110736 0.018661713 -0.010728026 0.011854643 -0.010197476 -0.0072133453 0.0053011714 0.004232758 0.021962477 0.011728025 -0.012084159 0.020909086 -0.024603335 -0.01758982 0.013353747 -0.0032064586 0.003811428 -0.018847436 0.019462109 0.004265517 -0.024393981 -0.00026676952 -0.012392846 -0.019960174 0.010362774 -0.01150947 0.02231797 -0.0030091554 0.018805865 -0.0069770664 -0.024083177 0.019505864 -0.011609906 0.012464142 -0.01108282 0.01590806 0.006373018 0.00907293 0.006933111 0.0070023476 0.023261994 0.013448524 0.02193687 -0.018416507 0.015597018 -0.007623562 0.020983277 -0.0030007034 -0.022794807 0.024750968 0.02198247 0.022807335 -0.023532206 0.0031714828 -0.016710153 0.004903859 0.02248537 -0.0056761354 0.0032173365 0.019789893 0.022596737 0.022733483 0.0053779096 0.014796481 0.011059898 -0.020584095 0.024246946 -0.022798885 0.016029248 -0.024081035 0.012837402 0.008702916 0.011558205 0.0034287244 -0.005064541 0.0019895197 -0.0070160986 -0.00054862205 -0.010262445 -0.016344322 -0.0037230195 0.016412977 -0.019275872 -0.009889481 0.019901251 -0.005172491 -0.0011162133 -0.012611354 0.005625686 0.012065393 0.011214435 0.017930716 -0.020911103 0.0022952824 0.016547699 4.3439864e-05 -0.023527114 0.02393498 -0.0037285269 -0.02185213 -0.014787856 -0.022322422 0.009413227 -0.023664052 0.020287741 -0.019097814 -0.013383657 0.017795032 0.021346612 -0.00391995 -0.012730706 0.021529827 0.006458685 -0.012141568 -0.011131364 0.010139519 0.019583404 0.024206663 0.018124161 0.0137140695 -0.020097872 0.020078495 -0.004363689 -0.0007229775 0.015936771 0.010466665 -0.011403307 0.010072998 0.0018650711 -0.0058754804 0.021913785 -0.011325947 0.0002967179 -0.007353863 0.0062876553 0.015461177 0.024268541 -0.004661742 -0.014910477 0.022029176 0.02362295 0.01521495 -0.01678749 0.0074483277 0.0040016803 -0.00761773 0.000529629 0.009724269 -0.01771277 -0.009995768 -0.022760382 0.01994468 -0.019887466 -0.007581544 -0.009643433 -0.019963855 0.0166389 0.016910797 0.021153653 0.012121799 0.014796078 0.015756106 -0.011663506 -0.016046563 -0.0020819902 0.0067076953 -0.00075771514 -0.01433337 -0.0048536747 -0.023346458 0.020248422 -0.012218595 0.0053235204 0.023857493 0.023946976 -0.0036719143 0.00034857096 0.0073545338 -0.010908357 0.007584122 -0.012277148 0.020715032 -0.004238963 -0.02212806 0.022546614 -0.016203169 0.012639999 0.0011020631 -0.0071753534 -0.015256259 0.012909678 -0.0030586512 0.013304442 0.008661431 -0.02024489 0.0041772276 0.014358947 -0.017642722 0.01505316 0.01040827 -0.019579781 -0.0018124521 0.014417323 -0.023014301 -0.004256639 -0.010212714 0.0104223965 0.009675247 0.0021170347 0.0060499283 -0.011547113 -0.010717779 -0.011873007 0.01769341 0.005505759 -0.020562379 0.021714121 0.011690611 0.017025108 0.018801112 -0.012453506 -0.014471722 -0.0206632 -0.0028113604 -0.0013496786 -0.004562491 -0.019764883 0.016193667 0.010015127 0.017898245 0.020466894 -0.0026275546 0.017898932 -0.023576766 0.020602806 0.023321757 -0.009463838 -0.023373095 -0.019172637 0.001568529 0.021022707 0.015588093 0.007438013 0.004911855 -0.0026023358 -0.02305579 -0.0084783975 0.0100083565 0.007147351 -0.0036116422 -0.02161382 -0.0066948743 0.008663967 -0.022223288 -0.018675951 0.0077821435 -0.01499379 -0.019392028 -0.005433354 -0.020224655 -0.00044592025 -0.020498862 -0.017562998 0.0076258034 -0.013457144 -0.0006678581 0.0046305717 -0.021080205 0.01715674 0.016344119 0.021608412 -0.0068202824 0.024124978 0.007365492 -0.005295059 -0.007189527 0.010682142 -0.022313932 -0.010939735 0.01661244 -0.01359216 0.00072723033 -0.014584407 0.005816877 -0.01653258 -0.004868552 0.0072606327 0.009556181 -0.0066749426 0.016953561 0.005481768 0.022395646 0.008033163 0.0027487576 -0.021755248 -0.018597474 -0.011516196 0.023731185 0.013858455 0.014235655 -0.0017826259 0.016297463 0.020536104 0.009886733 0.007650265 0.012262744 0.006730133 0.004556322 -0.01103842 0.010041398 -0.00031294822 -0.021601865 -0.0017181963 0.009387928 -0.014498899 -0.007904196 0.0244032 0.0060145794 0.0053642183 0.010943994 -0.019027391 -0.016467378 0.011060635 0.02423652 -0.0030907632 -0.016892014 0.0042354167 0.010832992 -0.012893341 0.012413517 0.008423889 0.024417771 -0.018905325 0.0056066187 -0.014856911 -0.023746787 0.0012650669 0.0077512683 -0.024887815 -0.0064439597 0.016742548 0.016322082 -0.010646624 -0.010629907 -0.0072876276 0.009004861 -0.022158531 -0.002640742 0.011465618 0.0065246224 0.007841313 0.00044184923 -0.008458055 -0.014832047 -0.0054465565 0.01050292 0.0059770793 -0.022904 -0.024535626 0.011191967 0.00708867 0.009072897 0.0010450423 0.023066355 -0.018688187 0.0003154069 0.006958771 0.01420956 -0.011424514 0.023729697 0.017391747 0.011581659 0.0066301017 -0.02193108 -0.010688958 0.0095336465 0.024540959 0.0007086277 -0.013220668 0.0042312564 -0.015501675 -0.00075334014 0.011450189 0.023309484 0.014410687 -0.023634473 0.003163755 0.010090929 0.019657359 -0.0025137842 0.015059069 -0.009448024 -0.013175341 -0.0049862894 0.006830737 0.016435608 -0.00066948833 0.0020756274 0.016158706 0.008517531 -0.018082594 0.012971488 0.018418966 -0.0006838262 0.023390224 -0.0040961714 0.0048235776 -0.0040881545 0.01839139 -0.010071573 -0.007928863 0.013586635 0.005505675 0.0034729303 0.010157794 -0.0013102025 0.021628449 0.0072125257 0.008954376 -0.00029158295 -0.00055290165 0.014455539 0.018937409 -0.0023875297 -0.021270594 -0.01720886 0.015203074 -0.020631505 -0.016886026 -0.0071430057 -0.0030798644 0.007018483 -0.005166981 -0.023020957 0.016202753 -0.008098862 -0.022309095 -0.017692227 -0.01130307 -0.006537673 0.0072870823 -0.0011189372 0.010508659 -0.006503582 -0.0046054483 0.00068764685 -3.6013127e-05 -0.007147214 0.020727668 -0.001356718 0.018033752 0.018640464 2.759695e-06 -0.018178826 0.015340942 -0.01816605 -0.02168945 0.019777969 0.020800153 0.009261089 0.020560784 0.019501051 0.0017874271 0.009851766 0.023876896 -0.021632781 -0.02338408 -0.008389956 0.0016582549 0.015838606 -0.0059816926 0.0006422669 -0.006417221 -0.003604582 -0.000120276214 -0.012726337 0.009344128 -0.00039315224 -0.015002507 -0.011968863 0.01530123 -0.016192308 0.006824401 -0.015829397 -0.021533255 -0.0030970573 -0.0021602393 -0.015445897 -0.02355291 -0.00010694862 -0.001784116 0.008847505 0.016334465 0.0049768686 -0.012647936 0.020351214 0.015762215 0.015961474 -0.0015628368 0.010796887 -0.012632347 -0.011055308 0.023843294 0.022152994 0.013623512 0.0243211 -0.017840853 -0.009719861 0.020141466 0.007021803 -0.021372864 0.024310691 -0.01581414 -0.015230092 0.020366902 0.023686696 -0.0031072707 0.019662607 0.017715497 -0.020201743 0.016132383 -0.011397514 0.0102158105 -0.0059723496 0.004098493 -0.010055459 0.01277706 0.016987642 -0.0028548152 0.016649751 0.015329531 -0.024154145 -0.024970254 0.023911461 -0.0007442296 0.018753543 0.012207803 -0.0043599755 0.011437595 0.020133898 -0.013698563 0.012453586 -0.0062421593 0.010319108 0.00512926 0.020854114 -0.02409603 -0.0109700775 -0.008558581 0.02435014 0.0051104547 -0.016311307 -0.0055356296 -0.0072686346 0.011535305 0.020571774 -0.0038982301 0.0037920536 -0.0037466586 -0.011078382 0.0028281272 0.005163354 -0.014927703 0.014948437 0.010815486 0.024974262 0.0035948872 -0.0108191995 0.011334267 -0.018081829 0.014302308 0.008885843 -0.022245685 0.019047717 -0.0040353835 0.010717362 -0.00070209504 -0.012694913 0.012034756 0.017254934 0.011069739 0.024239048 0.0035680742 -0.01918234 -0.0015648901 0.016919747 -0.009800011 0.008399027 0.005274594 0.021222854 0.0006840229 0.006189275 -0.012996006 0.006638509 -0.010407365 -0.0043455064 0.016282013 -0.02239104 0.016188363 0.021640662 0.008005157 0.012203447 -0.017335633 -0.019456143 -0.010230389 -0.0061567784 -0.016766353 -0.006623736 -0.018334065 0.012727633 0.020633468 0.023601506 0.022602627 0.010115752 0.021544218 0.01136815 0.008610904 -0.008624399 0.02177153 -0.023764655 -0.018270839 -0.02495174 0.015800864 0.021922756 0.0047178566 0.0066152513 0.022183677 0.011357466 0.01747079 0.00062941015 0.018218404 -0.018204624 -0.005053088 -0.0154031245 -0.0004050702 -0.018219313 -0.0046433955 -0.012033734 0.020788757 0.0050127446 -0.013919309 -0.003995046 -0.009064406 0.0048843473 0.0070823403 0.020325778 0.0066887946 -0.0036615878 0.0042351307 -0.016367776 0.0003472537 0.013429669 0.018659277 0.0035024376 -0.019200316 0.02495665 0.020302001 -0.01655179 0.002827132 -0.004107091 0.015388099 0.013191938 -0.008243195 0.009024463 0.019343838 -0.017759237 -0.020076243 -0.0064337137 0.01139558 0.014076096 0.0066022994 -0.016985208 -0.0064762505 0.0026589395 0.005065638 -0.018976614 -0.012700925 -0.008017803 0.002039367 -0.021851117 0.008449527 -0.0075427443 0.011625168 0.002506718 0.013313609 0.009787626 -0.0009474218 -0.015819838 0.02448379 0.0036537976 0.022496575 0.014460153 -0.007163501 0.021004757 -0.022188311 -0.0001085043 0.005603382 -0.013052985 0.008774078 -0.013139135 -0.015967334 -0.0030853332 0.017504012 -0.014549187 0.0018233955 0.007966763 0.011379383 -0.017480388 -0.019223586 0.01874784 0.024113405 0.013535002 -0.015989577 -0.00709838 -0.0002719313 0.018193139 -0.0069068223 0.020412182 0.024339912 0.0046523693 0.019221826 -0.02368409 0.007252175 -0.019603018 -0.0012368113 0.021368584 -0.010418216 -0.008650086 -0.01650369 -0.009799066 0.0037058683 0.008539212 0.017023865 -0.010932374 0.00406892 0.022080163 -0.002297294 0.021144047 -0.00919345 -0.0050373347 -0.016153837 -0.023549011 0.01885419 -0.012842429 0.002820799 -0.021262435 0.01682103 -0.022243816 0.017782936 -0.012922189 -0.017872566 -0.008791471 -0.0013426334 0.012731991 0.0047019604 0.019473845 0.010233903 0.0125381565 0.024707157 0.022799466 -0.0020261854 -0.01653931 0.00041954816 -0.009046704 -0.022549322 0.022828234 -0.013533798 0.020239478 -0.01901871 0.017349843 -0.023596546 0.008573187 0.00092189613 -0.024366966 0.011799586 -0.012128941 -0.016934428 0.020598415 0.0016192794 0.012496027 -0.003244269 -0.019178627 0.019247193 0.015853781 0.015163118 0.019254735 0.023522383 -0.012926924 -0.0009413302 -0.011197257 0.011621448 0.006484255 0.011906049 -0.012978119 0.016727462 0.0078893695 -0.012201905 -0.00068117084 0.008047426 -0.010309425 0.0008302033 0.019799177 0.014142895 -0.009983229 -0.006172273 0.013156596 -0.00033460857 0.014625338 0.021069182 0.020015318 0.007805905 0.02453771 -0.00063953403 -0.0146788005 -0.0022164911 -0.01527859 0.0079073375 0.0011941552 0.013517362 0.023722475 0.0022565573 -0.01684377 0.006430641 0.005649123 0.01967979 -0.017884148 0.016744563 0.015821079 -0.017726744 0.022438407 -0.02304016 -0.018439045 0.008630327 0.010500789 -0.0028035224 -0.019484296 -0.024807114 -0.018537445 0.00066938106 -0.012547967 0.017630223 -0.0018579782 -0.020058546 -0.017523153 0.013629097 0.024602521 -0.017231194 -0.02352871 0.008691147 0.018664554 0.0022028505 -0.015308413 -0.01216431 0.0033260942 0.019439999 0.019362027 -0.0020244687 -0.014136136 0.005456859 0.022509633 0.003278935 0.017091144 0.018755192 -0.023085896 -0.0105870785 -0.0063293516 0.008913949 -0.016153226 -0.020933146 0.008878705 -0.017081326 0.017056396 -0.0003653854 0.017440025 0.0062198937 -0.022231353 -0.018386573 -0.0021146298 0.021441285 -0.016701872 -0.017321263 0.010428327 -0.014391315 0.014616641 -0.0051377746 0.002006039 -0.0028518022 -0.022867132 -0.02083067 0.02201202 0.0072507234 0.013423726 0.018303636 -0.013869104 0.0027177127 0.01517602 0.008477196 0.0020259828 -0.014369088 0.0047438475 0.011415467 -0.004603675 0.008044669 0.024924982 0.024042351 0.01150052 0.011863661 -0.022156006 0.017683718 0.022542397 -0.01840116 -0.024770847 -0.020107051 0.015664777 -0.0014860093 0.004615566 0.0132395355 -0.015457374 0.0089763375 -0.017064849 -0.007104227 -0.020763952 -0.00824163 -0.00067692995 -0.0018594622 -0.015028345 -0.00073406997 0.0059276107 0.002620569 0.016580207 -0.0028720975 -0.018934876 -0.015454245 -0.011673954 0.002063355 0.003600192 0.014571765 0.019298304 0.021887014 0.020183206 0.0049549043 -0.008801663 0.0030359 -0.0032687068 -0.0145905195 0.015501449 0.012748486 -0.0048753233 0.01623782 -0.012606365 0.020771429 -0.019918239 -0.0021032782 -0.0061806142 -0.011078939 -0.012670631 -0.0066616833 -0.015158209 -0.014503536 0.017019575 0.014724714 0.020041222 0.023568258 -0.0038128258 -0.0019091159 -0.009367091 0.023154398 -0.022291062 0.024286702 -0.0030099095 0.014373908 0.019761423 0.014729279 -0.005333343 -0.010210383 0.024089906 0.013325485 -0.006783453 -0.011824623 0.0022554696 -0.020187428 0.024068145 -0.0059217694 0.00703111 0.006556523 0.02464646 -0.019735461 -0.0033935637 0.014892426 0.01280655 -0.009031705 -0.017241789 -0.006721932 0.016501142 0.0141681405 -0.00061668456 0.01679553 -0.0024882616 0.016584197 0.01344344 -0.010695196 -0.009655803 0.017732887 -0.016225597 0.0017234475 -0.0037955642 0.014798817 -0.006155446 -0.009942803 0.012379182 0.024279198 -0.011692024 -0.017532352 -0.010706228 -0.011311725 -0.02071766 0.004031274 -0.021023972 0.009289569 0.016128985 -0.023654446 -0.0007693499 0.011287105 0.012572074 -0.015011928 0.016691223 0.013700432 0.021724997 -0.0135701215 0.017653158 -0.0006683082 -0.024500227 -0.021527221 -0.021227239 -0.0032918602 0.0031748624 0.012927285 1.3870001e-05 -0.024989435 -0.014622173 0.011438317 0.00022416712 0.021875149 -0.0092090815 -0.0029482485 -0.014058366 -0.019299058 -0.023079569 -0.02031285 -0.016811147 -0.01941645 0.023189573 -5.942881e-05 0.013074065 -0.017913524 -0.013687911 0.008109626 0.0016656787 0.0045950892 0.007425189 -0.002218163 -0.020005396 0.015187374 0.008129156 -0.016549474 -0.0060730786 -0.0014946879 -0.017782247 -0.023828045 0.018636454 -0.006025991 0.0111566065 0.0011147499 0.017733878 0.021165578 0.010317305 -0.021779789 -0.0017718971 0.009736547 -0.009411133 0.017637644 -0.004333651 0.009868461 0.002273658 -0.016762394 -0.020980665 -0.020991609 0.00073473755 0.009795434 -0.02326718 -0.00093650224 -0.017213617 -0.002323094 -0.016780538 -0.009062481 0.008282325 -0.018491998 0.0022671015 0.016450038 -0.011642066 -0.014659354 -0.0073124855 0.0042800815 0.0010281176 0.021057246 0.0071524233 0.01626964 0.018321246 0.009401706 0.0037563534 0.022210678 0.009300301 0.011834192 -0.015937675 -0.009461045 -0.010594529 -0.0036183118 -0.009281004 0.011681467 0.021258002 -0.01642873 0.02031189 0.015835509 -0.009845922 0.013936919 -0.0075089633 -0.018641556 0.01954027 0.0046206624 -0.0006127179 0.011664516 -0.009887329 0.00594064 -0.023690391 -0.009385777 -0.0011051148 -0.0058612823 0.023623345 -0.02176795 -0.018989608 0.002070302 -0.017396737 -0.008529583 -0.017654646 0.0029962272 -0.0017331422 -0.023558086 -0.0040980726 -0.0063791457 -0.004235995 0.0154351415 -0.02069289 0.01966903 0.02247825 -0.003002295 -0.014475214 -0.014640949 -0.008769631 -0.010905298 0.017858759 0.024762778 0.009034211 -0.020989543 0.006594059 0.0112786805 -0.013526598 0.024335701 0.014906964 0.004567367 -0.0008729726 0.01280146 -0.01947468 -0.018503904 0.019250346 0.020892164 -0.019620774 -0.024763016 0.010875225 -0.008946774 -0.0091998195 0.01902218 -0.0069763153 0.00020997525 0.0010359556 0.015864482 -0.004756126 0.012035439 -0.009825694 0.01611583 0.008139965 -0.0005260527 0.01314188 0.02111547 0.008252549 -0.010746262 0.0215876 0.008974182 -0.0048636855 0.01570106 -0.0160176 0.017833186 0.012490243 -0.021455435 0.020693695 -0.014485425 0.013347313 0.0062235235 0.018497914 0.006983453 0.013656921 -0.0017465055 0.011280519 -0.0120206205 0.017339204 0.020375237 0.00850707 0.01699448 -0.014017669 -0.013961524 0.009593472 0.014082337 0.0033800304 0.014793537 0.019247934 -0.00070666074 0.00940946 0.015209908 -0.006867513 0.018480022 -0.008887035 -0.018162463 0.008883784 0.011471838 0.011941916 0.0065564695 0.013463694 0.0031633526 0.013167146 -0.013529438 -0.024847066 0.013956475 0.01833607 -0.01618353 -0.017437218 -0.0105896685 -0.018853022 0.006602559 0.013197714 -0.009048578 0.008782402 -0.0028339594 -0.021611586 0.013048211 -0.018398521 -0.015337578 -0.019138733 0.018340273 -0.0138043435 -0.015410915 -0.015526614 -0.023954613 -0.0060112625 0.017825186 -0.008157658 0.013464821 -0.0011787415 0.015092492 0.0051379204 0.020401305 0.021618633 0.016925273 -0.00010970831 -0.022001399 0.002516985 -0.008279666 -0.008240885 -0.023558019 0.00406127 -0.017768322 -0.020198986 -0.021872047 0.0022836507 -0.009485811 0.012045053 0.021266786 -0.0023019344 0.018514344 -0.008331475 -0.0221874 -0.0089764 -0.011799961 0.018233184 -0.013148874 0.00694924 -0.01897181 0.0035610558 -0.001948315 -0.015887415 -0.0013277084 0.020847935 -0.004916027 0.006052506 -0.004474062 0.02362678 -0.011146411 -0.010939756 0.0063417736 -0.008185825 0.022770947 -0.01641344 -0.021665154 -0.024507651 0.0123553425 0.011466331 -0.0015008092 -0.008318814 -0.001719138 -0.0025220574 0.01264705 -0.01788278 0.013190982 0.017683867 0.0027667105 0.014620671 0.023751939 -0.006147489 0.009932384 0.021356812 0.004130432 -0.0064270794 -0.00319421 0.02100805 0.022734193 -0.01198827 -0.02442137 0.013720259 0.00072472397 -0.007883775 0.012247989 -0.022871314 0.0038110823 -0.023045754 0.011249706 -0.002911842 0.0028885335 0.0026048243 0.013817588 -0.016744642 -0.016223311 0.0125159 0.020931786 0.007960498 0.020036984 0.0053107142 -0.01148127 0.021817142 -0.021322895 0.012448794 0.007932878 0.0004829377 -0.015654061 -0.015173224 0.007334638 -0.016271535 0.011667362 -0.007953847 0.022735177 0.022537002 -0.0045363097 -0.018762356 -0.012918401 0.018030573 -0.016647464 -0.008730001 -0.0028722198 0.015650583 0.017755559 0.0154734105 0.009010172 0.0035509616 0.018860642 0.009199718 -0.017624626 -0.017609963 -0.020828506 -0.01965054 -0.013624164 0.023047758 0.021446427 0.012235087 0.00034107864 0.019347796 -0.021051819 0.023296107 0.022940299 -0.008032373 -0.016400961 -0.0117081525 0.014344975 0.016640458 -0.008940789 0.019219622 -0.00050572754 -0.0024330379 -0.00031363667 0.017547444 0.018330771 0.0047097295 0.0114319 0.019204421 -0.003861156 -0.0041167648 -0.0014136136 0.023771772 -0.011095551 -0.013939557 -0.017216532 0.0058609694 -0.0067994087 0.012750096 -0.0026471883 -0.0068173916 0.016279195 -0.017609684 -0.022911444 -4.732013e-05 -0.0027130307 -0.0033122033 -0.0030088604 -0.008738595 0.021204567 -0.020212308 0.015738279 0.008975744 -0.011844808 -0.0045372755 -0.0066047045 -0.00020785035 0.008492559 0.007941115 0.0034164607 0.018862618 0.021618484 0.007344791 -0.004424289 -0.0054549635 0.013701535 0.020407716 0.009815193 -0.009496108 0.008883423 -0.0066187056 -0.0026382655 -0.019625867 2.3099781e-05 -0.0002059728 -0.023344079 -0.008196986 -0.016722966 0.013801694 -0.0023125173 -0.023308903 -0.012503332 0.0062383176 -0.016041214 -0.012022207 0.015815744 0.012677878 0.015470258 -0.011931377 0.014302025 0.015623025 -0.016065171 -0.005110374 -0.0063682767 0.0113414405 0.024605656 -0.018718882 -0.016638637 0.02452725 0.012130111 -0.0016028046 -0.014261896 0.009452212 0.013477543 -0.016811898 -0.023480235 -0.015365231 -0.005658466 -0.007104227 0.0034205378 0.010983399 -0.023380881 0.022076866 -0.004906032 0.0057522715 0.02146527 0.0016223252 0.004976827 0.013350314 0.011458832 -0.003427899 -0.011696979 -0.022273466 0.011350161 0.008168206 0.02178365 0.0017436892 0.024003012 0.0073668393 -0.009108978 0.0017850846 -0.01928976 0.024618024 -0.0121304095 -0.013747674 0.0062532932 -0.002069837 -0.017195418 0.021690935 -0.009718138 -0.0046569705 0.01338467 -0.017922355 0.0066184434 0.0025240423 -0.0006393105 -0.023080543 0.015632112 -0.008296552 0.0150126545 0.010984096 0.001623547 0.01691193 0.005705628 -0.018151749 -0.024317566 -0.017190149 0.004544237 -0.021627933 0.013093221 0.0012460828 -0.0033421577 -0.017989246 -0.02063171 0.020416126 -0.011358979 0.015414715 -0.0028854758 0.007807842 0.013011033 0.02496011 0.0141034275 0.01092647 0.019749505 0.0020254075 0.006993112 -0.017421845 0.008271823 0.021314306 -0.020089218 -0.01261765 -0.020656258 -0.006008634 0.014969653 0.018015185 -0.0051181316 0.018661339 0.022420956 0.0111877145 -0.0067640245 0.014630756 0.009121388 -0.022549579 -0.0025836676 -0.015738398 0.010840672 -0.0059331357 0.010495067 -0.010225505 -0.016432796 -0.0016411036 -0.005792141 0.019812731 0.0071066082 -0.0043243705 -0.009555164 0.017747918 -0.009330672 -0.013896257 0.014014783 0.0021677704 0.010600111 0.0044408054 -0.01634042 -0.019132078 0.022997394 0.015052733 0.0038186403 0.0021308751 0.015805447 0.001001221 0.0051354617 0.013157874 -0.009017768 0.0028928996 -0.007838356 -0.024058525 -0.0044186534 -0.013465563 0.0237896 0.0012415469 0.020538086 -0.003271854 -0.004334715 0.017317852 -0.00030358732 -0.00096237066 -0.003456408 -0.0018250168 -0.014964911 0.002056876 0.014128262 0.013040307 0.022773603 -0.0057418495 0.0002846211 -0.0028657855 -0.018854847 0.006151125 -0.016945852 -0.016018802 -0.010082123 0.0005278319 -0.014874804 -0.0013216764 0.022400672 0.008529437 -0.019279322 0.019659508 0.0014679105 0.007022071 -0.008670571 -0.023340313 -0.0002678722 0.018805547 -0.017465323 0.015418357 -0.02378509 -0.005218348 -0.0023829849 0.010221997 0.013674003 -0.018113408 0.012890631 0.009697086 -0.003978688 0.022404594 -0.024565497 0.0021512837 0.0060144276 0.021738915 0.021860693 -0.018154496 -0.010926709 0.010896466 0.006626606 -0.018876562 -0.0032156557 -0.011812744 -0.020309133 -0.013222205 -0.008835795 -0.018880054 -0.014836597 -0.02319928 0.010069243 -0.0010115415 -0.0063251466 0.0033104331 -0.019804422 0.022001913 -0.01946283 0.00041365923 -0.0045267018 -0.0159192 -0.010673928 -0.010441611 -0.023371622 0.009964532 0.0009814292 0.017343922 0.024294311 0.018512664 -0.009133968 0.0026391894 -0.021496434 0.016111357 -0.013021833 -0.021903697 -0.0133058345 -0.01182847 0.013033154 -0.024924148 0.023084918 -0.01975272 0.014532444 0.00013748408 0.013542244 0.009362275 -0.0043608965 0.017461542 -0.024003832 0.007980875 -0.014810699 0.006323436 -0.0059710084 -0.017937824 0.020014895 0.022852948 0.020562975 -0.018905217 -0.0021561503 -0.0036977709 0.017267337 -0.004750988 -0.00207178 0.015222192 -5.6135654e-05 0.008741811 0.01614885 0.021233393 -0.01571321 0.012811295 -0.00474858 -0.009728524 0.019582054 0.0037272514 0.0038562447 -0.012437249 -0.009004868 0.00050082506 -0.0003783047 0.019878676 0.013781115 -0.021930447 0.009830788 -0.01110583 -0.006680158 -0.0020127655 -0.014940617 -0.0062750964 0.01113894 -0.017233878 -0.02204215 -0.0010326386 -0.0065306276 -0.014559257 -0.006737292 0.005324474 0.004544172 -0.023026217 0.017419914 -0.004036251 -0.02282991 0.018060435 0.0037840873 0.012194109 -0.0030775398 -0.021609426 0.0102020325 0.011075705 -0.022908974 -0.014248106 0.0044573816 0.016072595 -0.0045406553 -0.0036698699 -0.002062449 0.02190031 -0.020866713 0.003128326 -0.023360997 0.011410412 -0.009355739 -0.010209885 -0.009508061 0.00018968583 -0.021585984 0.020214487 0.009229833 -0.0074563115 -0.012416652 0.0111807315 0.016376188 -0.011688349 0.020793695 -0.021734124 -0.01953499 0.018532122 0.023790274 0.02280943 -0.023318117 0.01744838 -0.022371355 0.018539926 0.0017356843 -0.007958978 0.015026629 0.00676111 0.010705799 0.0014105767 -0.024602026 -0.002795875 0.022492474 0.01494025 0.0050978363 -0.018689085 0.000283283 0.000746575 0.01611498 0.015116367 -0.0051914635 0.01470373 -0.014721415 -0.008339673 0.004063493 0.010327265 0.0027757734 0.0067143114 0.0018764526 -0.005934504 -0.020948565 -0.0186358 -0.007955513 -0.010687137 -0.011503589 0.0082116965 -0.0006899804 -0.014072982 -0.00039630235 -0.0017241389 0.01976256 0.021514917 -0.003983167 -0.021582587 0.021742374 -0.010706323 0.011716992 -0.020637793 -0.022829011 0.005610374 0.00086639525 -0.016914546 0.0033799799 -0.0034854205 -0.0045014024 -0.019176686 0.012117726 -0.024242679 -0.0040176003 0.009692914 0.021047546 0.0056689414 -0.022889365 -0.0076400074 0.020609388 0.020505935 0.02090775 -0.0014526695 -0.018743346 0.02014772 -0.0020750165 -0.017717434 0.0010151595 -0.007866541 0.022694219 0.011255989 -0.024133304 -0.01930345 0.002318594 -0.02180065 0.00040527285 0.003998214 0.0043232143 -0.012986669 0.0071603744 0.012544689 -0.017814076 -0.0076528373 -0.022417253 0.008479747 0.001054439 -0.01602136 0.024483373 -0.01928007 -0.00030731558 -0.024755213 -0.010570186 -0.0068445653 0.020306742 0.004981962 0.01752846 0.018662652 -0.013132325 -0.00072765053 -0.012724019 -0.022243394 0.0024751157 0.020076504 -0.012754184 0.006197342 0.01232526 -0.01450975 -0.009201429 -0.022945434 0.00731425 0.022270003 -0.021568967 0.0013578058 -0.01349673 -0.0020283104 -0.003105685 0.01945131 -0.00015559197 0.006306088 0.011489096 -0.020732922 0.008702869 0.019749451 0.009548917 -0.0043304265 -0.014686415 -0.0076551707 -0.018114379 -0.007974818 -0.002079174 0.005094153 -0.007093367 0.00789158 -0.011727306 -0.02333416 0.017445792 -0.0062298537 -0.023013148 -0.014997694 -0.020360315 -0.0050049485 -0.02069593 -0.007970447 -0.0040429565 -0.008081726 0.01440979 0.004486594 0.013017681 -0.018554924 0.01153625 -0.009957007 -0.00082588196 -0.0034956278 0.016044525 -0.022448821 -0.015245462 -0.0103068175 0.016067265 -0.008019063 -0.010010722 0.0016250045 -0.01204631 0.004986429 0.023369012 -0.013557002 -0.022518827 0.02090602 0.016459612 0.007948297 0.015259954 -0.020652264 0.011623201 -0.024733592 0.02119945 0.009992278 0.015385634 -0.019007668 -0.003442362 0.0030037642 0.002919212 0.0061007887 0.011721051 -0.003110659 0.015280426 -0.022148082 -0.0038449855 -0.0041859034 -0.020841775 -0.001646176 0.020280916 0.01923168 -0.0063004466 -0.018482924 -0.0030341179 -0.015531647 0.0008305639 0.0020367324 -0.008337671 -0.0013541311 -0.0059197964 0.0118812835 0.021434361 -0.0042989138 0.02420466 -0.018208984 0.0056199613 0.019041387 0.009549511 -0.001745075 0.0026072115 0.0022999109 -0.021592775 0.022035146 0.002802825 0.0008604348 -0.0030636967 0.021147195 0.008902407 0.0051117153 0.0133125065 -0.016449416 0.017726406 0.022162242 0.011760837 0.003191641 -0.005969852 -0.014653826 -0.0015240283 -0.0060498896 -0.010051298 -0.0027740807 -0.0006624311 -0.012084943 -0.0248415 0.0051938742 -0.0023559213 0.018244965 0.011492497 0.0030093342 0.013784123 0.014524999 -0.009755588 0.0005686313 0.00018545985 -0.0011629582 0.006801897 0.01120874 -0.019903807 0.0009890735 -0.013038474 -0.009206804 0.023542402 -0.008115709 -0.011861441 0.0046325894 0.019903628 -0.012455568 0.016986728 0.002299723 -0.024911782 0.016704267 0.009275961 -0.021461887 0.01700038 -0.015214652 -0.01708889 0.00419645 0.021353712 0.011234951 0.0207886 0.008214152 0.011346951 0.0054386496 -0.0206538 0.021550748 0.011165566 0.022240533 0.009513238 0.011132255 0.0009554863 0.013918355 0.009168044 -0.0024593235 0.00048039257 -0.01409398 0.010336885 0.007679224 -0.0037117512 -0.0049581886 0.0046839416 -0.0033332915 -0.003962034 0.020025989 -0.0021185966 0.01559867 -0.016074425 -0.024339316 -0.024690116 0.015493274 -0.009136743 -0.0010629237 0.0042042467 0.002836746 -0.014161817 0.023648987 -0.011178645 -0.015201166 0.017759511 -0.012922955 -0.0031249255 -0.017969882 -0.011676607 0.0041737347 -0.001213798 -0.019023279 -0.015220708 -0.021185404 0.017375914 -0.01209558 -0.017549558 -0.017544333 -0.007588062 0.013818807 0.0153928045 0.023939325 -0.020702148 -0.00828777 -0.012491561 -0.016041715 0.010082758 -0.008709568 -0.018066501 -0.011886728 -0.006542045 0.012141183 -0.01177831 -0.023710847 -0.014997954 0.0064612213 0.006135151 0.022466758 0.021854242 -0.0060326606 0.016728744 -0.0024341315 0.02352463 0.02331805 -0.0065176073 0.00071820617 -0.0011130512 0.022545084 -0.006455934 0.021639904 -0.015680397 -0.009405965 -0.0152671365 0.0054498077 0.017665291 0.020772893 0.024272293 -0.023343954 0.01498 0.0033681632 -0.00908266 0.017567128 0.01488364 -0.0158878 0.0023973377 0.00012743771 -0.008965966 -0.0024263323 -0.022153739 0.012586224 -0.010418549 0.0057900846 0.013887018 0.02213318 0.019601649 0.012379209 -0.002021736 0.007613799 0.0037174702 -0.018105721 -0.021493012 0.012420985 0.009679499 -0.010812769 0.017339898 -0.021849433 0.01645585 -0.0018892527 0.006721011 0.0037943663 0.0023125082 -0.019114828 0.00012409985 0.0037418546 -0.018514931 -0.013473446 -0.00072850584 -0.009472501 0.011822417 -0.009140012 0.0004208267 -0.021738274 0.0069051 0.021188447 -0.0015986055 0.012370161 0.017868731 -0.01721397 0.021915525 -0.020422012 -0.017629141 -0.02079286 -0.024738757 -0.017922034 -0.0018416255 -0.018216997 0.0071554543 0.00072122813 -0.013478178 0.0051322253 -0.0030576438 0.024911165 0.023385657 -0.012038538 -0.01792374 0.004319686 0.00059423747 -0.007731253 -0.00581069 0.016877115 0.017134292 0.0037193268 -0.015403772 0.0028205991 -0.024288347 -0.01239751 -0.019044895 -0.0063693225 -0.0033265592 -0.008518276 -0.022716919 0.00833593 -0.004227299 0.0016079694 -0.023526669 0.012362832 0.01393292 0.009374184 -0.022895614 0.0135213975 0.005055991 0.004829347 0.008286506 -0.014907968 -0.013339025 0.0013429851 -0.0054688724 -0.005541596 -0.014472559 -0.024323512 -0.016210187 0.006979275 0.009091744 0.0058947117 3.1968953e-05 0.016920358 0.006714103 0.009345925 0.019549457 -0.022986025 0.011666492 -0.0106972875 -0.0053447187 0.017733121 -0.006474537 0.002773285 -0.021418152 4.153848e-05 0.010979942 -0.023978397 -0.016893167 -0.014776436 0.006095886 -0.012634969 -0.016007721 0.012848446 0.023162281 0.01688083 0.016399661 0.020488897 0.008543792 0.0020016849 -0.008627564 0.01568288 0.020942373 0.006965894 -0.009136108 0.0027685554 -0.006020808 -0.0046381773 0.0006669879 0.012685776 0.0061261207 -0.011263609 0.0076702624 -0.0026520938 0.004918909 -0.012760657 -0.015954627 -0.010731677 -0.015055671 0.021919955 0.013408867 -0.02146639 0.014242688 0.009258491 0.013611439 0.006950906 0.016946612 0.012820408 -0.0035061599 -0.024552157 0.008452571 -0.009587637 -0.011990231 0.013852462 0.0065021547 0.020311931 0.010718527 0.0037812323 0.007846454 0.0059636235 0.021036083 0.016425138 -0.02416713 0.022983849 0.003167811 0.013361079 0.011158985 -0.0070114764 0.012242034 -0.014708239 -0.0061935424 0.0025637061 0.0006986201 0.022779232 -0.013146797 -0.0104094865 -0.019546792 -0.022382662 -0.012383935 0.0010984689 0.0012165218 0.0021298022 0.008664051 0.0057786764 -0.019885615 -0.00054152013 0.007800481 -0.014389345 0.02065262 -0.019962728 -0.016448606 0.007833818 0.016758388 0.020282706 -0.015203389 0.021822358 0.0027828694 -0.018958494 -0.0031745047 0.0023950785 0.008530033 0.013962648 -0.0232359 -0.0068074255 0.022807373 -0.012050492 -0.0035173923 -0.01064829 0.0058740466 0.014109087 -0.005793312 -0.006064919 0.013730652 -0.023731101 -0.012975476 -0.014341453 -0.015017864 0.008297256 -0.0024723203 0.009616516 -0.004060787 0.014289111 0.008269886 -0.023811966 0.0051607373 0.004154086 -0.019214466 0.0063749375 0.009149054 -0.01796106 -0.012314767 0.008654535 -0.0016209871 -0.0031626194 0.023438428 -0.0040729344 -0.022955755 0.018681621 0.010361177 0.004210153 -0.019661868 -0.022350518 0.02459845 -0.013985517 -0.012703366 -0.019262135 -0.004541171 -0.011671069 0.014009071 -0.013369799 -0.0012946964 0.013503256 -0.010672063 -0.00046920776 0.022967113 -0.016394708 -0.014083219 -0.009371462 -0.001957059 0.021561325 -0.012444064 -0.010051024 -0.002170554 -0.015450112 0.00014244915 0.0013812333 -0.0049355566 -0.02064843 0.006547421 -0.019136792 -0.00061514677 0.0030736865 -0.0058773695 0.008874255 0.013124025 0.024994774 -0.023955097 0.021861961 0.024536956 -0.009937304 0.016222838 -0.020628342 -0.013833475 -0.005165404 -0.0072914152 0.01975323 -0.008120805 0.012997664 0.011222768 0.013474706 -0.015039655 0.0115162525 -0.012101847 0.023267467 0.0034407468 -0.00018182397 -0.01895468 0.0037539215 -0.0073203566 0.01766534 0.020115713 -0.020261964 0.010473293 -0.021736596 -0.0038591207 0.019076897 0.005605069 0.017327959 0.023824591 -0.013908363 -0.011936083 0.014460313 0.0021280528 -0.021344975 -0.016882295 -0.02243498 -0.0032905221 -0.0032871307 0.014048317 -0.011928079 -0.013362405 -0.0018522978 -0.019477293 -0.010677913 0.008694044 -0.024019748 0.0019231886 0.013758445 -0.009249511 0.0133058755 0.0090233805 -0.013167269 -0.009689748 0.0018330485 -0.00066534284 0.008589029 0.0051405164 -0.01692926 0.011260382 0.0061460766 -0.019345133 0.005920291 -0.005362374 -0.024406526 0.01049228 -0.017374465 -0.0018474609 -0.020703578 0.012111249 0.008509758 0.021791598 0.021941647 0.019640425 -0.023283392 0.014387548 0.0038998455 0.018913513 0.009173435 0.009200031 -0.021192435 0.0070592104 -0.00908533 0.008142096 0.011975164 0.0098975925 -0.0085286945 0.0044655143 0.019201411 0.023390725 -0.02304172 0.012826196 0.008990735 0.0035869211 0.018395955 0.0136594 -0.020432508 -0.005534691 -0.019629493 -0.024419088 -0.015526968 -0.022599751 -0.013771909 0.021861061 -0.01284036 -0.02442878 0.023843903 0.004711244 0.01532453 -0.02403229 -0.00838306 -0.013049982 -0.0030728073 -0.02401021 -0.009436551 -0.0050346316 -0.010080027 -0.018867776 0.0040749046 -0.022815136 0.024031077 -0.00054421724 -0.008328623 -0.00815877 0.01060834 -0.023415152 -0.0035486014 -0.022582317 -0.01624837 0.010869202 0.00908599 -0.018418197 -0.015497262 0.009561101 -0.0096715065 -0.015968552 0.006814185 -0.009544462 0.019585406 0.015620393 -0.015901426 -0.0025341571 -4.9594044e-05 1.7663837e-05 0.019329816 -0.00544906 0.018838575 -0.023846079 -0.015639931 0.023959985 0.004876727 0.020951444 0.013010258 0.005310872 0.0009114206 0.0045258137 -0.016571239 -0.0142214745 0.013277573 0.0070107193 -0.014722404 -0.016175453 0.020758022 0.009910936 0.010307217 -0.012426183 0.005765322 -0.0031817646 0.003724426 -0.008555168 -0.011870128 0.016419375 0.0067933947 0.017385198 0.022824405 0.020194797 0.019765025 0.017826144 0.0062831226 -0.005505529 -0.021121932 0.0036188245 -0.010344249 -0.009115419 -0.009611547 0.02094221 -0.017226402 0.01704892 -0.00062992575 0.01786727 0.0007483691 -0.013043267 0.016475115 -0.011003504 -0.017605105 0.016967332 -0.023427216 -0.00016000272 -0.023331309 0.016716424 -0.015729994 -0.013234275 -0.0077890693 -0.0029375346 0.0046366244 -0.019511392 -0.019168818 0.019817507 0.002119261 0.016182542 0.0015379966 0.019902771 0.010541248 -0.010317382 0.024555102 -0.019244341 -0.01277512 0.007831195 0.020632574 -0.017183168 0.009382031 0.002812773 -0.009950394 -0.008504591 0.019375388 -0.0013293654 0.0066884877 0.010817793 0.023233155 -0.02252229 0.007922438 0.0038841963 -0.015866522 0.011184049 0.0027274967 0.021520024 -0.01742369 -0.003785643 0.0007223487 0.006828201 0.023324162 -0.0030041994 -0.0064179897 0.0037746162 0.021474589 -0.0019512445 0.0030865043 -0.0038134337 -0.022080675 0.013730201 -0.02457504 -0.022381395 0.011450857 0.0152620645 0.010877848 0.0025894733 -0.011957997 -0.013486869 0.024021426 0.008192676 -0.02248708 0.007288802 -0.012778932 -0.01439541 -0.007960436 -0.00052962604 0.016413866 -0.0029313534 -0.0008549005 0.017126394 -0.01932542 0.0064061466 -0.00159491 -0.007315043 -0.015153331 0.002604148 -0.020713765 -0.02067152 0.010365784 0.0019286275 -0.0032538117 0.018533582 0.00861564 0.0024445446 0.01991492 0.023157218 0.012039247 0.004174355 0.020998154 -0.00015315712 0.010117385 0.0018459797 0.003360927 0.0036417306 0.012774363 -0.006472689 0.0019104511 -0.015301788 0.0070313364 -0.015510201 -0.0030177087 -0.020287156 -0.008038918 -0.017504836 0.0053836643 -0.014819059 -0.011378554 0.0063215108 -0.0057648956 -0.019879747 0.015594608 -0.008403257 0.0017623544 -0.007712996 0.011101544 0.015528244 0.016176641 -0.013416124 0.0183244 -0.023606354 0.014256231 -0.016926577 0.010330594 -0.015014243 0.00090037286 0.011598202 0.006069085 -0.010492477 -0.00904429 0.023836127 -0.017722076 0.016465088 0.009014609 0.009592834 -0.015535426 -0.008068169 0.010999343 -0.013570554 0.004013038 0.0100399945 0.0068972944 0.0005675137 0.012707314 -0.02442799 0.0019552528 0.0063355896 -0.019579945 0.01535258 -0.021601027 0.015093586 0.0063533904 -0.024613747 -0.006362432 0.0078467075 0.02326071 0.02111854 0.004410577 -0.0074214726 0.0056556314 -0.022921318 0.02165327 -0.0045140893 -0.01926851 -0.0048291744 0.0036656142 -0.003531602 -0.009460578 0.0010166437 -0.0026447773 0.0013604969 0.010832826 0.018582722 0.015584824 -0.021489939 0.00884215 0.01864913 -0.0017439425 -0.023510007 -0.016119355 -0.019152109 -0.019670486 -0.0068832636 0.015628427 0.013948816 -0.004599828 -0.019223118 0.004940069 0.02019318 -0.0055024773 -0.019633977 -0.01777943 -0.015746092 0.013885433 -0.013182881 -0.021950293 0.007803959 -0.022769744 0.020405475 0.0030680716 0.0040561794 -0.0057957354 0.005375338 0.019545017 0.01668473 -0.011161876 0.011306924 -0.021613253 0.019270847 -0.018636256 -0.0014876694 0.003855136 0.016634105 -0.0076983958 0.016910085 0.021482704 0.02160397 0.020885853 0.01881567 0.02294195 0.001409328 -0.0061474205 -0.011022639 0.020651553 0.008655044 0.0042916625 -0.022027979 0.013978684 0.0076823803 0.016959045 -0.0024469525 -0.018744165 0.002044052 -0.0031979561 0.016877634 -0.015306187 0.0017479688 0.016423045 -0.020706603 -0.011419925 -0.017398043 -0.01569133 -0.0021398843 0.011645272 0.01240952 -0.0077428105 0.014408017 0.0019342334 0.00049982965 -0.021764446 -0.0033782185 -0.008718601 -0.009714643 -0.009787375 0.019778414 0.008515492 0.00031525493 0.015006485 0.0013309241 0.018147537 -0.01863493 0.021986146 -0.022419114 -0.012310392 -0.009226361 -0.015825031 -0.011700249 -0.002366379 0.013197041 0.00927786 0.013425565 -0.024517149 0.01780345 0.012375361 -0.005531478 0.016611803 0.007417682 0.0054929256 -0.023372075 0.012229696 -0.0129943965 -0.02429567 -0.01685518 0.021661071 -0.013169202 -0.0042656153 -0.017827889 -0.013085231 -0.00558646 -0.009737126 0.013409033 -0.014144457 -0.009654057 0.0059080543 0.010506502 0.02346524 -0.0076755914 -0.014252365 -0.021490473 -0.0011259795 0.009281081 -0.023477674 -0.013956371 -0.022781864 -0.019756759 -5.0356986e-05 0.008886862 -0.021148521 -0.018362937 -0.023249725 0.0046793907 -5.3143503e-05 0.023210216 -0.008334139 -0.010131714 0.009179503 0.018393544 -0.011077073 0.0072764517 -0.024986243 0.017084355 -0.009685951 -0.016845673 -0.01194782 -0.011614898 0.014358736 -0.008818576 -0.01672988 -0.02319741 0.007989684 0.0044394047 -0.015772963 0.011339716 0.0035907924 -0.021321386 -0.003224677 0.017654577 -0.013408077 0.022713378 -0.004297614 -0.018937191 -0.0024378807 0.021380255 -0.014686602 0.0031286448 -0.022719769 0.018562792 -0.021201432 0.022194428 -0.0024625869 -0.0064151525 0.0076358737 -0.014458639 -0.008024874 0.009570709 2.515316e-05 0.011430278 0.02398446 0.008809584 0.0050185653 0.019352898 -0.017577043 0.0016973794 -0.02470223 -0.023307366 0.00674378 0.013571138 -0.013708494 -0.0068571656 0.008693141 0.00095010997 -0.021477405 -0.017270003 -0.024356276 0.004458332 0.012349293 0.0035069943 -0.014986599 0.023536725 0.017145598 -0.007818562 -0.02309694 -0.0015599072 0.017923092 0.01870807 0.0015316636 0.012147257 0.02072068 0.014561168 -0.009921679 -0.0066626193 0.0102325 -0.008505562 0.0050407383 0.0048299492 -0.0066636503 -0.01962067 -0.019584153 -0.011178309 -0.013655725 -0.0128389625 -0.013915551 0.01358966 -0.005594406 -0.0024503828 -0.013611457 0.01593152 0.015111545 0.01840194 0.019605696 0.008193696 0.0032245666 -0.0039352626 -0.019864565 -0.022598336 0.01935391 0.0053232047 -0.006736222 -0.010542303 -0.0024129362 -0.014958233 0.017231176 -0.016892264 -0.021278126 0.0035739094 0.0048593255 0.007560182 -0.0056681186 0.0029337674 0.011874047 0.010464457 0.009799391 0.0017554433 0.0012005627 0.020047903 -0.003379947 0.010230849 0.007878512 0.0036888332 0.017302213 0.021586476 -0.018992001 -0.010935119 0.0079496 0.0127372295 -0.02210916 0.0010585546 -0.0207772 -0.0086455885 0.021202696 -0.02314959 -0.013996628 -0.0020955682 -0.00505448 -0.012674666 0.01514738 0.013816274 0.024298612 0.019791072 0.0033651383 0.01414598 0.0013531834 -0.018901084 0.018201638 -0.0018418491 0.02161403 0.021174585 -0.0019979447 -0.02460131 0.020699283 0.01998333 0.014943066 0.0040808856 0.0067840964 -0.017866477 -0.019836685 -0.019672612 -0.015105921 -0.0041354834 0.0070189238 0.016834369 0.0027109773 0.004429016 0.010702035 -0.0046651275 -0.021423584 0.018154932 0.02180327 -0.0040676356 -0.010827503 0.014614823 -0.014919586 0.0029731244 -0.0029818267 -0.0023876221 -0.018495506 -0.013863224 0.00908919 0.011583573 -0.011466292 0.0034287155 -0.0059394925 0.006513891 -0.010959387 0.01715456 0.009115142 0.0035811483 -0.0023616941 0.015365243 0.015579054 0.018853337 0.001832813 0.0024179758 0.013188526 0.00047598482 0.012240213 -0.016844783 0.014584318 0.024121491 0.018153269 0.010224596 -0.010634214 0.018182188 0.0012491941 0.013098526 -0.015901724 0.020767746 -0.007776752 -0.022201046 0.02093095 0.012900642 -0.0009793043 -0.01468601 0.015032467 0.009731129 0.014931181 0.0035187067 -0.0016198963 -0.0031540245 -0.014393198 -0.023939377 0.007959566 0.00020519794 -0.0075219185 -0.01569964 0.009313959 0.016733998 -0.013471276 -0.02194812 0.0031273158 0.016906558 0.0017005712 -0.013688156 0.021140734 0.00062329473 0.015069574 -0.0041566016 -0.01028991 -0.0071340264 -0.016943906 -0.0012010605 0.011846423 -0.023085762 -0.019369965 -0.022428527 0.00072719157 0.017958252 -0.022576421 -0.0014601827 -0.014087239 -0.0040765167 -0.019723464 0.0026250244 0.020391485 0.018193528 -0.01368669 0.02450705 -0.005817923 0.005129379 -0.019385248 0.0144222 0.0023945482 0.011203147 -0.016464641 -0.01081532 0.011711237 -0.018359331 -0.0012450427 -0.0052414984 0.005970499 0.0011283279 -0.008309257 0.010666072 0.003481129 0.02051198 0.010042283 -0.0020984083 0.001697889 0.009745166 0.019048134 -0.018769598 0.0017983139 -0.015071118 -0.001926899 -0.021897981 0.00087292196 -0.005276814 0.015111053 0.018803982 -0.024748221 -0.01396707 -0.021142468 -0.0017206103 -0.016806677 0.018258205 -0.00863685 -0.006263247 -0.008366418 -0.0028458715 0.0013129413 -0.016361311 0.021823911 0.0035390407 -0.005258134 0.008124805 -0.006181383 0.010139323 -0.0024407625 0.019591574 0.022189856 -0.019908145 0.009921009 0.017754985 -0.014486492 0.014651418 -0.0077352375 0.0092868805 0.014951214 -0.022604397 -0.002140063 0.013077128 -0.018752048 0.006754494 -0.022171844 0.020689545 0.011967621 0.017343957 -0.013843859 0.009476671 0.006977332 -0.00054633914 -0.01225881 -0.008473545 0.0046015205 0.014239299 -0.008501554 -0.017050857 -0.02460654 -0.016887728 0.014076221 -0.018036723 -0.02314173 -0.01839201 -0.0077979863 -0.018628303 0.022387296 -0.02467697 0.015376458 -0.022437474 0.0022095502 0.018567925 0.010057986 0.0071061193 -0.018438837 0.0012907416 0.019814787 -0.015144795 -0.004655376 0.020062154 -0.013629776 0.009589738 -0.0137524605 0.015815113 -0.021609012 -0.015074897 0.0005333215 0.008131367 -0.01434753 -0.024700036 -0.016752085 -0.0059179277 0.012514758 -0.004061973 -0.017371556 -0.017253796 0.010908482 -0.005407834 0.024822531 -0.02327383 0.014736006 -0.0035339773 0.004278055 0.01616554 0.011576048 -0.017462129 0.00043862165 -0.020641753 0.017689753 -0.013175497 0.013055063 0.0008406103 0.0055374177 -0.0036021562 -0.017871592 0.01996386 0.018030753 -0.022591447 0.015800763 0.020406801 -0.015183437 -0.004656249 0.019714758 0.023090258 0.012198475 0.01215711 0.018273918 0.0017041505 0.00090083777 0.0056598815 0.0025396347 0.00045068862 0.016475448 0.019393047 0.017608687 0.010963455 -0.018557126 -0.00968653 -0.02175211 0.0004889965 0.01311273 -0.02475552 0.021323904 0.001443097 0.016990436 -0.0011781037 0.013993529 -0.02439542 -0.015372566 -0.0019215554 0.0038083554 -0.009311891 0.010716805 0.00055398647 -0.008876929 -0.016538993 -0.019959558 -0.0023345978 0.009190199 0.012821257 0.007010353 -0.021298707 0.0025211514 -0.01622866 -0.02232784 0.002592543 -0.0045473785 0.001275459 -0.0055949925 -0.0035569966 -0.012916136 0.00096282066 -0.008209243 -0.010874248 -0.021438679 -0.007894295 0.009748975 -0.019289324 0.00358831 -0.01974084 0.01697774 0.0018833727 -0.015667353 -0.021555204 -0.0027843893 0.024981612 0.021224422 -0.0040347963 0.0052173766 -0.0032954365 0.007759762 0.013612444 -0.009453395 0.0054233223 0.018548062 -0.00046086908 -0.017311528 -0.00022527575 -0.009772095 -0.023946855 0.010499755 0.0051426264 -0.015991066 -0.013918317 -0.011155066 0.004952434 0.022429591 -0.014305922 -0.004093194 0.011632946 0.019354999 0.0010245591 0.024380064 -0.0069404873 -0.014596233 -0.0020821423 0.00050946773 -0.016961554 0.011655673 0.011186311 -0.019536171 0.010054014 0.024126554 -0.009655572 -0.013554022 0.023832396 -0.021629823 0.022334436 -0.01397838 0.0065879137 0.02031433 -0.007637301 -0.017899582 -0.0012943506 0.003236422 -0.021795988 0.023191301 0.010727057 0.0065606623 0.013991079 0.014431166 0.011043066 0.02198549 0.011412221 -0.022806859 -0.0022556128 -0.008453152 0.017699784 -0.0048623714 -0.008527756 -0.0077077984 0.0003326297 0.00033394695 -0.00052163005 -0.0080895815 0.0025914938 0.010945416 0.011404797 0.006203079 -0.019016081 -0.007938079 -0.023987597 0.016217796 -0.012465703 0.018474951 0.018279899 0.01813962 -0.003602162 -0.0008765698 -0.007258871 0.00040178598 -0.018825987 -0.006115866 0.007460985 -0.010452941 -0.00908086 0.0047039986 -0.019093761 -0.0006786347 -0.0047343015 -0.008018172 0.0013250023 0.00738996 -0.019154875 0.024331575 0.010076413 0.002227816 0.0020533025 0.023251697 -0.009195927 -0.024542084 -0.017487368 0.023936141 0.019489063 -0.0030953467 -0.018827826 0.020813012 0.021934925 -0.008374045 -0.0016566962 -0.011138207 -0.016175104 0.020211307 0.019566387 -0.0057275565 0.0016780496 0.0045050057 0.003280437 0.022101257 -0.0068787336 -0.0057380944 -0.0062298565 0.023533383 0.007737172 -0.002082318 0.0064771683 0.02146723 0.023295183 0.007990378 0.013300252 0.014893243 -0.023173455 0.018378466 0.02339772 0.009926448 0.016186822 0.008512512 0.02400801 -0.018259848 -0.019196564 0.023896767 0.019708714 0.002495405 0.0028520972 -0.01844339 -0.021011924 -0.012276575 0.00855375 0.016817687 0.020553423 -0.009837717 0.017367676 0.0124280695 -0.0034558864 -0.0199744 0.023931658 -0.009124956 -0.016634075 0.0103226155 -0.010578275 0.01592674 0.020898033 -0.011881835 -0.01067192 -0.012220541 -0.009271867 -0.017853057 -0.017532745 0.021784578 -0.008994335 0.015303186 -0.024608454 -0.012388909 0.015662655 0.010156065 -0.009980738 -0.0040310263 0.0085114185 -0.022154877 0.012981961 0.017301261 -0.0037453682 0.016695846 0.024661561 0.021143666 0.0062570362 -0.023723532 0.0228787 -0.01699223 -0.0033201934 0.00042873324 -0.003616929 -0.0049751583 -0.0025764138 0.012515432 -0.00069732073 0.008898339 0.013439015 -0.015740817 -0.007640657 0.010413656 0.02180825 0.02171334 -0.01409204 -0.009047383 0.009604022 -0.005972627 -0.011206555 0.016977726 -0.022181412 -0.019857505 -0.021179674 0.00829612 0.0239243 -0.00051191746 -0.011823627 0.006401047 0.01753203 -0.0040872903 0.014990586 0.020584658 -0.024501557 -0.005556804 -0.020944018 -0.023739113 -0.008241296 0.0088116 0.023323132 0.0061798217 -0.010910523 -0.0055661947 0.005082104 0.0047659664 -0.023703588 0.018823935 0.0110225445 -0.005627945 0.0056486726 -0.013692132 -0.0043728175 0.0072546005 -0.0075091305 0.023147527 0.005508655 0.01031656 -0.02383759 -0.008534423 -0.003175944 0.024317488 -0.007890391 -0.022786984 -0.01892215 0.016249258 0.00045071542 0.01295875 -0.0046065035 0.024242872 0.022196172 0.02191386 -0.017978698 -0.01727788 -0.006837383 -0.0038752318 0.008350307 -0.01675843 -0.012980089 0.0028514892 0.017737573 -0.023791144 -0.016713584 -0.0033560724 0.021832854 0.010047654 0.0024288537 -0.00029906034 0.006924522 0.020189488 0.003461367 0.023885865 0.0020848482 -0.0099733025 -0.018591393 0.010122853 -0.0035247921 0.017474437 -0.0044959635 -0.004167822 0.009883466 -0.00846372 0.006812626 -0.016520867 0.019366259 0.00992693 -0.010149079 -0.004624918 -0.005163014 0.01443738 0.018462462 -0.011113617 -0.004299453 -0.007668126 0.018968856 -0.012693179 0.010001215 0.011631573 0.020166734 0.022390401 -0.000450024 0.0022035867 0.007560319 0.011023394 -0.021767495 0.02042422 0.0156121645 -0.0025090277 -0.007308689 0.01993764 0.013234663 -0.016650314 -0.0006561041 -0.013777221 0.0013445526 0.019477054 -0.00896377 -0.01874491 0.0070807487 -0.013761896 -0.022035856 -5.1730873e-05 0.010554916 0.01834835 -0.020853987 0.02132739 0.0021242201 0.012736675 -0.012247542 -0.006436235 -0.00017385483 -0.012904218 0.006010759 -0.0043553147 -0.023389203 0.010196445 -0.010950461 0.006131515 0.0043946267 -0.012622699 0.023855358 -0.00372082 -0.0181559 0.014444092 0.013824689 0.0014220119 0.0010129989 -0.017862251 0.0033633292 0.008289433 0.010044182 0.016576363 -0.008736786 -0.013942781 -0.023491193 -0.014348561 0.010372499 0.0031220973 -0.0072472068 0.0033513128 0.0039828033 0.008810219 0.0005764514 -0.013087875 0.0054115593 -0.0057433783 0.024957368 0.017278938 0.0035363256 -0.016552273 -0.0021985979 0.01661156 0.021335144 -0.004394758 -0.012817618 -0.019319082 -0.020351926 -0.02097247 -0.01852966 -0.012836772 -0.0037220747 -0.008637369 0.0064572603 -0.022911359 0.01905102 0.020794434 -0.011391103 0.004139751 0.017850602 0.007283527 -0.0077793 0.000130108 -0.0152178705 -0.0011111349 0.0031323999 0.0029563548 0.004779571 -0.00839668 0.017954057 0.015529975 -0.01687556 -0.017285014 6.4006446e-05 0.018694116 -0.009009323 -0.0072485628 0.003375125 -0.0176931 0.0039387196 0.021630405 -0.014558765 -0.021094833 0.010741755 -0.015487504 0.0066948174 -5.941391e-05 -0.007961524 -0.017730549 0.007489112 0.0051247957 -0.0029039949 -0.023879174 -0.0013836861 -0.0065465304 0.020851372 -0.020610005 -0.013775021 -0.015931293 0.009558014 -0.022540046 0.011802316 0.013217202 -0.0058273734 0.0016577423 -0.0021289082 -0.021747947 -3.336668e-05 -0.020630354 -0.010836753 -0.01604402 0.023728186 -0.015230588 0.011927158 -0.014389467 0.0035728158 0.013504875 -0.020880107 0.015527752 -0.014789608 -0.020696923 -0.0152655095 0.010806787 0.011402241 0.015162542 0.021696283 -0.00578081 0.0045230063 0.003588015 -0.022651136 -0.0042192102 -0.024930371 0.01670572 0.005984968 0.009668494 0.019757146 0.011229909 -0.012550992 -0.019914974 -0.018430049 0.0017995894 -0.011098954 0.023733525 -0.018166805 0.016638959 -0.021311706 0.019634793 0.004142341 0.02402461 0.0022090941 -0.007348597 0.008601275 -0.0027701647 0.024481803 -0.02137648 0.024242813 -0.019649303 -0.016888479 -0.010046953 0.020997588 0.019031757 0.017474595 -0.016770367 -0.019716168 0.013666096 -0.013464019 0.02193184 -0.012721497 -0.0009959966 0.0031453639 -0.02357099 -0.0058466676 0.017012805 -0.015499598 -0.014009992 -0.011115936 0.024895055 -0.005827916 -0.0149023505 0.011853918 0.010010011 -0.0020567656 -0.0053554894 0.021499177 -0.023661733 -0.006691405 0.0005591184 -0.016346687 -0.00044950546 -0.017706666 0.003770727 0.016944367 -0.020509219 0.012343145 -0.019432424 0.021260494 0.012589819 -0.02187643 -0.0017858684 -0.006157297 -0.015668532 -0.02151732 -0.003897673 0.009006748 -0.00030855538 -0.0088406205 -0.013006682 0.0006504506 -0.0036145062 -0.01454292 -0.01848786 -0.014200953 -0.011304415 -0.011318642 0.010470805 0.017361978 0.012969518 0.0005209208 0.00943552 -0.0010595918 -0.004537094 -0.0006950438 0.0029744923 -0.002281791 0.022508195 -0.0024254888 -0.009253231 0.013220454 0.01570341 -0.024101729 0.00017019213 0.0048338147 -0.018401742 -0.010810107 -0.02035606 -0.006192663 0.018056164 0.004262972 -0.019380707 0.007465428 -0.018675933 0.0045779916 0.018318579 -0.007151538 -0.02326176 -0.012480429 -0.017678306 0.019364884 0.0042594257 0.020132417 -0.0021068961 -0.018373547 0.010854438 0.020608513 -0.0076448857 0.019388387 0.0033643276 0.020344874 -0.023654968 -0.010893869 0.0047291517 0.017314712 -0.023207799 -0.014201978 0.0077444883 0.015151751 0.010143864 -0.0061084568 -0.020609194 -0.01279147 -0.013910368 -0.0011158943 0.01613876 0.012543792 -0.0035072267 0.02143152 0.013888217 0.02064979 0.0043740305 -0.024390522 0.01825354 -0.0018338173 0.0016188473 -0.021253163 0.020632727 -0.018271679 -0.0049066218 0.019362707 -0.005246952 0.005019236 -0.016454754 0.012837151 0.0029730946 -1.9222498e-06 -0.022187922 0.0033616931 0.020084118 -0.02212047 -0.0047729644 -0.005975947 0.012985838 0.018835748 -0.0011756032 -0.0069117546 -0.022417257 -0.008799932 -0.02089189 0.0039893957 0.017203232 -0.021638218 -0.017736478 0.0078024985 -0.021255825 0.002683586 0.024847105 -0.00944027 0.020570764 0.015601623 -0.0068472414 -0.024484003 0.0069896667 -0.021113051 0.013866017 0.002118984 0.024073197 0.0024979056 -0.006221518 -0.0077342927 0.0029581964 0.018003235 0.0047342004 0.0040549724 0.017631222 -0.0042855055 -0.00829607 0.022041485 0.020831982 -0.01342752 0.0056625665 -0.019637078 -0.0021304549 0.023396913 -0.010222614 -0.0026376755 0.016064709 8.817613e-05 0.0029122175 0.020755706 0.012869007 0.0036441267 0.00031051933 -0.020241434 -0.010977725 -0.001725316 -0.010094467 0.0049001514 -0.02201097 -0.017613584 0.021634584 -0.024227723 -0.021922374 0.011822099 0.021555174 0.023268292 -0.012789133 0.019373596 -0.018630296 0.018809104 0.015447122 -0.00038124024 -0.02423652 0.021281067 -0.013015106 0.020639775 -0.0061662826 -0.0140563315 0.011594856 0.02019777 -0.0093755545 0.017862976 -0.0044053677 0.014891803 0.018944805 -0.004965642 0.024969805 -0.0020946234 -0.024138957 0.01167357 0.014632982 -0.023550032 -0.005563283 -0.023857797 -0.017720213 0.023195127 0.011280787 -0.008697716 -0.024108225 -0.0024980248 0.012325808 -0.022288699 0.0046762824 -0.0022628338 -0.0069885673 -0.018544316 -0.020674381 0.0004990012 -2.6583673e-06 -0.0009211809 0.010841317 -0.01224986 -0.018547788 0.021289015 -0.016115496 -0.005333546 -0.018775288 -0.023978705 -0.00216192 0.02149503 0.01265713 -0.0015055597 0.022129828 0.005627519 -0.019524232 -0.000880307 -0.008045263 -0.0036716133 0.022484764 0.003932062 -0.016425094 -0.013150833 2.655685e-05 -0.012218094 0.017947806 0.0011474848 -0.0076485486 0.02179381 -0.023577897 0.0055238428 0.0023801983 0.018095378 0.010125211 0.023358075 0.01605377 0.024821168 0.0035300762 -0.021448106 -0.024310881 0.018709484 0.014290196 0.021467654 -0.010365876 -0.01556271 0.0062908083 0.013221768 -0.015914291 0.008282999 0.018622039 -0.012912569 -0.02119611 0.012364626 -0.008163348 0.0068098875 -0.014265192 0.0076642605 -0.007994658 -0.0049809935 -0.021189068 -0.01952949 0.012078828 -0.014162597 0.0057681142 0.0011830091 -0.02114672 -0.023879064 0.021713674 0.012085236 0.0009405822 0.023391018 -0.010436776 -0.00615384 0.0035517723 0.02238597 -7.658303e-05 0.014928457 0.0038632513 0.011128366 -0.016450632 -0.021103105 -0.014649621 0.00421364 0.0031077475 0.024568066 -0.004551062 -0.0070888638 0.021528935 -0.016018659 -0.0070644408 0.0018935412 0.018168503 -0.008060924 0.009619147 0.010304335 -0.010908616 0.022138178 -0.010401988 0.01669173 0.019500757 0.022734767 0.011811122 -0.011083967 -0.0011451989 -0.0071029663 0.0038398982 -0.022342945 -0.0143914465 -0.009905323 0.013405323 0.01660556 -0.021321615 0.00084979535 0.023772825 -0.007345474 0.0066687404 -0.021155467 -0.0134442365 0.01440861 -0.0040293457 -0.013944703 0.024619913 -0.01896435 -0.019247303 0.0068508717 -0.010120553 0.022993324 -0.013261295 -0.015896795 -0.018740369 -0.003908104 0.017552659 0.005951202 -0.021271465 -0.0094691245 -0.0014812023 -0.021311654 -0.008814171 -0.0013953716 -0.0050427853 -0.0030379952 0.0013431282 -0.013806081 -0.00825581 0.009267789 -0.0039896755 0.020457504 -0.0197876 0.0016176313 0.010854683 -0.0076047094 -0.0072728842 0.007634008 0.022458741 -0.013452572 -0.02220549 0.007457471 -0.022035554 -0.009794265 -0.007911697 0.021343017 -0.008079949 0.016649557 0.008952222 0.017176056 -0.001832068 -0.018497258 0.0025915087 0.0026842237 -0.016714847 -0.0029350668 0.010835001 0.008037916 0.023060137 0.024497584 -0.014595384 -0.018864198 -0.008391932 -0.0037426264 0.011276508 -0.0034732462 0.022866124 -0.014437526 -0.00040748715 -0.021351397 0.011050838 -0.007781097 -0.024424372 0.012633169 -0.006196961 0.010618818 -0.00786458 0.019059762 0.023715293 -0.014838392 0.002297941 0.010146803 -0.019661782 0.020054925 -0.021777902 -0.013997269 -0.02492641 -0.009404031 0.00017479957 0.021613104 -0.016679516 -0.0242969 -0.014848068 -0.0018634588 -0.023612445 0.019032685 0.016397675 0.007311371 -0.015325117 0.009846846 0.0049381107 -0.023960287 0.0069747004 0.010600341 -0.022057587 0.0022467494 0.023686534 0.016345099 0.022770036 -0.00023775994 0.023985628 0.006209576 0.0025809647 -0.0029141516 0.0037531764 0.001216811 0.0026209801 -0.0070670308 0.020659387 0.020419339 0.0009498626 0.013195026 0.008510107 -0.024223512 -0.0067081363 0.019553153 -0.01613949 0.017755633 -0.019023238 -0.012670827 -0.016912816 -0.0067694844 0.009385601 0.018524317 0.015328014 0.01098632 -0.015554992 0.010735506 -0.008288941 0.024588093 -0.0047525764 -0.02090638 -0.023169432 -0.021794895 -0.012651399 0.019956073 -0.014512986 0.002270049 0.0074872435 0.020626066 -0.008124301 0.011938632 -0.0028682917 0.02045229 0.00016491115 -0.017233018 0.020358657 -0.0030483156 -0.0042007896 -0.024151573 0.0070133987 -0.007329613 0.012945182 0.020579422 0.016627494 0.0024997622 -0.012928322 -0.017491642 0.014272249 -0.014816755 -0.022699026 0.01475615 0.0020380288 -0.018270835 0.015288499 -0.017049512 0.0004987389 -0.02309062 -0.004239008 0.021282524 0.0047564777 0.022511235 -0.007035485 0.018556505 -0.0053683193 -0.019241167 -0.014916524 0.006349844 0.016466392 0.019521946 0.019942254 0.00915122 -0.021718754 -0.007198611 -0.0013247192 0.018171022 0.0004043311 0.003820175 -0.012001268 0.005361998 -0.011861748 -0.012825662 0.009147826 0.009067992 -0.018842781 0.024564559 -0.020133993 0.020556504 -0.016656736 -0.013876418 0.0050511183 -0.016113682 0.006231636 0.024069687 -0.018852249 0.012864346 0.015350187 0.023022408 -0.002068165 0.004751608 -0.015353182 -0.0006632924 0.023266036 -0.011856553 0.0053685964 -0.01105004 0.021116724 -0.0049353032 -0.0077367513 0.00095098617 -0.024021894 0.0017579884 0.0066129747 -0.013510439 0.022326857 -0.0021464825 -0.015798813 -0.0068267286 0.013382412 -0.011828179 -0.0087467525 0.013130668 0.017913958 -0.007782364 -0.01662376 0.023477728 0.0039267214 0.02277766 0.001718998 0.023874396 -0.007648376 0.011448291 -0.009998444 0.016871948 0.022020865 0.013814456 0.021045947 -0.018008336 0.013890046 0.0076894313 0.00088846387 0.0011464506 -0.011786175 0.013492289 -0.00036945342 -0.015723497 0.019618664 -0.011187009 0.010322156 0.0058867666 0.011924199 -0.0064557167 0.01606755 -0.008707777 0.011873585 0.010691032 -0.014160159 0.0057791504 0.005304891 0.008510426 -0.008322927 -0.01937974 0.020494098 -0.016829303 -0.004093233 0.019014392 -0.020486662 0.02295489 0.0029719174 -0.0026036024 -0.0025984794 -0.013676703 0.013197318 -0.010833341 0.0041632177 0.00638234 0.018063867 -0.022915056 -0.021423617 0.013506288 -0.017407728 0.00070705416 -0.010169434 0.016998118 0.0041152327 -0.006094107 -0.015872797 -0.013700182 0.0006354481 0.01665224 0.0038907558 0.00752697 -0.0050435215 -0.020742623 -0.019122073 -0.015878832 -0.011713904 0.012578142 -0.009911731 0.0006475836 -0.024510926 0.014890096 -0.011960733 -0.017650334 0.02205429 0.015033245 0.0075056823 -0.0010994793 -0.007221866 0.007781294 -0.004352871 0.0013014674 -0.0046633813 0.02181289 -0.0011357844 0.021513522 -0.015265605 -0.014482165 -0.002703461 -0.01367864 -0.009512958 -0.018026764 -0.012872863 0.021818444 -0.011749873 0.011269823 0.009801045 0.011007744 -0.021785034 -0.0155788455 -0.014735505 -0.024256486 0.021918043 0.021944422 0.017046386 -0.023140116 0.0015584618 -0.00028622747 -0.0222556 0.024183288 0.007263443 -0.006127736 -0.016381273 -0.0201992 0.013893566 -0.0042113694 -0.009351293 -0.02378409 0.02376443 -0.0003122896 0.0033885092 0.01158579 -0.012798232 -0.008822552 -0.013786579 0.006785709 -0.0061313002 -0.017609606 0.010608906 -0.014266483 -0.014211941 -0.020078951 -0.019471413 0.010896689 -0.019062746 0.0080282455 -0.008438739 -0.008408695 -0.008879391 -0.024633965 -0.010832074 -0.018048516 -0.0015755475 -0.01743032 -0.01418618 -0.019866023 0.015766118 0.014319795 -0.005632171 -0.0022621693 0.0038681717 0.00459733 -0.0073583424 0.018420706 -0.0020782263 0.006006542 -0.008840814 0.004450518 0.019566366 -0.020719184 0.0092128515 -0.019828603 0.012896347 -0.017758602 -0.0048014373 -0.002111417 0.020007988 0.0072030844 0.0036103488 0.0114928065 0.015104616 -0.0004658699 -0.006100917 0.005094868 0.0031009018 -0.0027531 0.019524543 -2.397895e-05 0.003296703 0.01334112 -0.011872101 0.019831616 0.024517367 -0.0193872 0.016596347 -0.024693632 0.0064387443 -0.017988889 0.015250421 0.021684876 -0.0066981795 -0.0044271233 0.0024152906 0.0069803866 0.0049384506 0.020658135 -0.013719752 0.015210572 -0.020288361 -0.0023314299 0.017250353 -0.009744388 0.020522038 -0.015522382 0.024655221 0.014823961 -0.00017306209 -0.012320465 0.014644372 0.014246047 0.005482429 0.007399565 -0.019326288 -0.017363956 -0.005321905 0.024167022 0.011307425 -0.023848921 0.006535986 -0.013757676 0.0118974475 -0.012872055 0.022146342 0.00067068636 -0.022813717 -0.0052532107 -0.004260689 -0.0055987122 0.0051482976 -0.008686868 0.019116968 0.011888794 -0.008160663 -0.0005018145 0.015180483 0.018132 -0.015432173 0.017989501 0.008089796 -0.023373423 -0.0038059503 0.018733907 0.011106244 0.005640149 0.005322358 0.00033797027 0.02091304 0.016720263 0.0035434873 -0.021848232 0.023351008 -0.006781012 -0.011086038 -0.024944687 0.0040326896 0.012461609 -0.011658439 0.0037860274 -0.021277472 0.018145476 -0.015146354 -0.019609291 -0.0092763575 0.018279178 -0.01385879 -0.019904733 0.002712676 -0.011101059 0.01916987 0.002604595 -0.010083628 0.009919184 -0.01063847 -0.002952516 -0.019870399 -0.0106269745 -0.009384167 -0.01680846 0.019143704 -0.018632103 -0.020666191 -0.016841335 0.019541252 0.0029499053 -0.0040747463 0.018475253 -0.0070263385 -0.009038672 0.016592277 0.00027976037 -0.01266022 0.022932231 0.014260939 -0.00728955 0.009979377 0.010254866 -0.008016712 0.019950425 -0.0010913312 -0.024306258 -0.023498211 0.0013068498 -0.005303389 -0.0071356418 0.011338333 -0.010901165 -0.019715255 -0.022347108 -0.0012083441 -0.017107068 -0.011493963 -0.013695109 -0.009092802 -0.024073744 -0.012564689 0.0019214094 0.008872253 0.018404324 -0.016033694 -0.004479337 -0.008195445 -0.024201566 -0.00132308 -0.010285422 0.002702716 -0.020813754 -0.019271744 0.0022516877 0.0021644563 -0.002029571 -0.016395284 -0.016646583 0.01262815 0.0035734654 -0.012972939 -0.0015927494 -0.012023059 -0.009330428 0.024423772 -0.0053627226 -0.017224867 0.011084593 0.009829992 0.009227118 0.020014465 -0.0044923364 -0.008136344 -0.013409746 -0.009972939 0.016485486 0.0006540209 0.0045105848 0.020735964 -0.021883462 -0.004547396 -0.0073098154 -0.020383982 0.013013855 0.003998345 0.021373117 0.020954126 -0.019418214 -0.0039244085 0.0066153975 0.0031079412 -0.0005887211 0.018684579 0.007144344 -0.0038045496 0.015080861 -0.00014269352 0.0074151903 -0.0022098601 -0.007782349 -0.021792084 0.0139218485 0.007860071 -0.0030519783 0.008538184 0.015239012 0.00019727052 0.005040196 -0.01655229 -0.007287774 -0.018801356 0.0037208826 -0.007700819 -0.023953516 -0.013670909 -0.013147703 0.005928901 0.014767289 0.008021739 0.013244984 -0.024988908 0.015333149 0.0067608478 -0.021030812 -0.018622601 0.023637999 -0.009674248 -0.0023994953 -0.019894484 0.023242114 -0.022558153 -0.021527236 -0.02458775 -0.00618158 0.02077205 -0.023500282 -0.00084663334 -0.0058259997 0.008480847 -0.013262743 -0.009200743 0.023984252 0.024477249 0.008857426 0.018704617 0.014882869 -0.002357465 0.02420868 -0.015055427 0.0033898472 -0.024175096 -0.0039610206 -0.0050588846 0.011654818 -0.018905101 -0.009255177 0.005595434 0.02077264 -0.008559072 0.011573843 -0.00110448 -0.017517095 -0.009771434 0.0061638504 0.020397816 0.006716028 -0.005627653 -0.003982976 0.02050682 0.013632635 0.01777868 -0.021327108 -0.0075262873 -0.0174968 0.012688783 0.022066554 0.012044737 0.010985133 0.00051190256 0.020172356 -0.004400462 0.012754303 -0.02341804 -0.00035367013 -0.010199944 0.02091817 0.0138770705 0.00256117 -0.016893566 0.011801029 -0.0055341125 0.01963075 -0.01197497 -0.022754982 0.012485144 0.0028125613 0.019621057 0.011581373 -0.0029229969 0.007915002 0.010138911 -0.002734682 -0.00014919938 -0.00020370782 -0.0074104043 -0.013847294 -0.007647133 0.013926158 -0.0010541975 -0.007725868 -0.016527385 -0.022151325 -0.008687469 0.02141043 0.00071273744 0.011195895 -0.0064713093 -0.024901751 -0.019908806 0.013615456 0.012475225 -0.014559022 0.016229898 0.0172404 0.014795202 0.022572145 -0.021749778 0.021221925 -0.020993168 -0.021617575 -0.023771202 -0.012895146 -0.02369966 0.011028114 -0.014358148 0.0033033818 -0.019192113 0.0202804 0.011910632 0.022095596 -0.013664297 -0.018902848 0.013885582 -0.021328295 0.015980938 0.010410822 -0.014432597 0.010716343 0.022162203 -0.008452929 0.012734989 -0.003847468 0.018305285 -0.016283501 0.015562147 -0.011828795 0.0074725985 0.017750183 0.024319274 -0.018145336 0.0107035665 -0.009595088 -0.018670497 -0.020406097 0.0045528444 0.016407222 -0.005399966 0.0003734559 -0.01239678 0.004376778 -0.015880132 -0.023934249 0.024112696 0.017430171 0.020210996 0.010424355 0.0234258 0.018603507 0.015271959 -0.023493255 0.023116881 0.010472781 0.007963732 0.014538682 0.015896795 -0.004833147 0.005732274 0.01289776 0.023710448 0.024536235 0.017835436 -0.007708937 0.016487358 0.010073423 0.021526566 -0.022682613 0.005299312 0.01230658 0.014716527 -0.017598948 -0.013327382 -0.00094334484 -0.003639853 -0.011525926 -0.007581827 -0.024756104 0.018519117 0.017864574 -0.011883372 0.016479878 -0.0062128394 0.013270304 0.0076319906 0.021110559 0.008697948 0.01680625 0.01081315 0.014192226 -0.015069315 0.0032704324 0.017311579 -0.00351564 -0.006062621 -0.019153172 0.022947496 0.019942094 -0.020941323 0.019698111 -0.0056209536 0.0147531545 0.0108228745 -0.017796362 0.0027722807 0.0017417104 0.009803215 0.0016132534 0.013008237 -0.0093558375 0.017757399 -0.007213253 0.02136592 0.013350385 0.012924737 -0.006896183 -0.016974274 0.018259918 -0.009089979 -0.016866183 -0.018715927 -0.015853444 -0.024920234 0.003074518 0.02217154 0.009948889 0.02364544 -0.023399273 0.023882717 0.012159238 0.01687865 0.0037750693 0.011734456 0.02138781 -0.012172818 -0.014396883 -0.0040693223 0.0060540824 0.019122837 0.010732132 -0.017158037 -0.00015408992 0.02193053 0.022419125 0.011971367 -0.016122371 -0.004231313 0.015455089 0.00988718 0.024771525 0.023141956 0.018679429 0.0028309585 0.02259777 -0.010021323 0.0014158785 0.021264473 0.020473687 -0.024916176 -0.014394808 0.004618266 0.0033914447 -0.004897347 0.0088452725 0.0064757317 0.00024638773 -0.0037496537 -0.007917332 0.012871987 0.0069095194 0.0065397653 -0.010177231 0.016026294 -0.016146569 -0.0045683715 -0.014396185 0.005370715 0.014563069 0.01483264 -0.01646316 -0.015220991 0.022501657 0.009473699 0.007663369 -0.019354347 0.0032383054 -0.009581566 0.013674984 -0.003751722 -0.0027894527 0.0018921345 0.005003047 0.018013967 0.0004782766 0.013059429 -0.020084409 -0.016269336 -0.024151612 0.01681495 0.015870575 0.0058959783 0.016442163 -0.013915682 0.0009901911 0.021938413 -0.005481321 0.01783174 0.023276672 0.021903848 -0.021157501 -0.024110472 0.002503705 0.008494454 -0.010955903 -0.006346786 0.02381706 -0.018305345 -0.009998235 0.0084282905 -0.01360313 -0.008488098 -0.0019618631 0.0027714223 0.020037645 0.024696374 -0.021527708 -0.0011429758 -0.0057991953 -0.013685951 0.018780679 -0.015241802 0.004917413 -0.022172058 0.01977039 -0.0026777356 0.0012128443 -0.0020552517 -0.009855754 0.019588366 0.017999843 -0.008991117 0.020969287 -0.0061625424 -0.0106018875 -0.004548106 0.014371407 -0.021415612 0.012932953 -0.006916508 0.020786745 0.0038175972 0.0239344 0.009713763 0.023797914 0.021501226 -0.0026159973 0.020623831 0.015526566 -0.0014177383 0.0225275 0.01707202 0.00878754 0.018716777 -0.0068060667 0.0017880679 -0.010937727 0.01301257 -0.009889412 -0.0059508323 -0.0156106325 0.021664564 -0.010692686 -0.020391196 0.012846842 0.017329648 -0.013123238 -0.0019936592 -0.02143828 -0.015631756 0.014659554 0.012298348 0.0012764514 0.008592099 0.0069512906 0.012130818 -0.020486085 0.004436499 -0.004058203 -0.00082613825 0.0071875188 0.0060997843 -0.0057821157 -0.010526416 0.0156107545 0.019541008 0.014991554 -0.019210031 -0.018396942 -0.024790687 0.009701246 -0.02059604 -0.007917873 0.019086719 0.010139415 -0.015756413 -0.0054760934 -0.0016535074 -0.020293398 0.004985222 -0.009573812 -0.0033608496 0.016993573 0.0013336033 -0.013347134 -0.016126528 -0.017938582 0.019869763 1.3962388e-05 -0.02476033 0.0040648463 -0.024232684 0.0039027573 0.012144796 -0.006842819 -0.0057213367 -0.0023341686 -0.008478448 -0.00080262125 -0.012820566 0.002091822 -0.017509991 0.024535174 -0.020354468 0.00020422936 -0.01185245 0.01977384 0.00997031 0.0016222656 -0.024037188 0.00035485625 0.021158217 -0.0072221905 0.018838797 0.009863165 0.010234776 -0.0052006813 -0.0010525942 0.005147925 -0.015895266 -4.809797e-05 0.017080545 -0.004695794 2.0191073e-05 0.01544208 -0.022249898 -0.0016315639 0.0009129375 0.009356121 0.015986217 1.5351177e-05 -0.01940609 0.021605983 0.003734085 -0.0025599122 0.0003827721 0.0031784505 0.016241757 0.0036924332 -0.02185504 0.008448931 -0.018146116 -0.017488016 -0.024313232 0.010337803 0.02129346 -0.017091027 -0.013799689 0.016954659 -0.018429799 0.008344588 0.006790182 -0.016840333 0.009989589 -0.020628652 0.0075527816 -0.020709146 -0.0054980665 -0.0046729804 -0.001197812 0.0053618043 -0.024881158 -0.008792129 -0.018686537 -4.3034556e-06 -0.0032651366 -0.02428752 0.0055342554 -0.008254603 -0.02058424 -0.022446195 0.009954027 -0.011504886 -0.013796568 -0.0051524015 0.022012178 0.022085 0.02115181 -0.009187671 0.013337406 0.020180184 0.014378056 -0.019740729 -0.00931429 -0.0031807304 0.0051497193 -0.006945503 0.024872262 0.023630006 -0.0077816634 0.014124605 -0.024417577 -0.004639921 -0.012969154 -0.005837166 0.015150401 0.02499701 -0.02477938 -0.01622125 -0.0018533648 -0.022932043 0.013986084 -0.013141954 -0.013021422 -0.017858652 -0.0053256336 0.023103345 -0.005047578 0.01366922 -0.004084331 0.016480831 -0.01621441 -0.007783562 -0.019819153 -0.0026975393 0.00650346 -0.023392437 -0.0029072852 0.010901913 -0.007273325 -0.0122381365 -0.0031971068 3.9583447e-05 -0.017933054 0.008894518 -0.019997943 -0.00559153 0.00013116897 -0.0049458267 -0.0217239 -0.0059547513 -0.007233131 -0.022863377 0.0011323303 -0.0105061 -0.019879786 0.0007247895 0.023544345 0.013614467 -0.022428894 -0.016254274 -0.007958042 0.0055599394 0.0012571663 0.02005457 -0.019875476 0.021614423 -0.019219622 0.012893761 -0.013403085 -0.01874723 0.021935409 -0.015039626 -0.019224439 -0.0023199976 -0.009667707 0.021509051 -0.008125052 -0.0077701034 0.024192138 -0.023671124 0.0155955255 -4.3565036e-05 -0.02142779 -0.015103737 0.010409805 0.005956087 -0.00022550822 -0.020090958 0.0049147694 0.01988816 -0.0042052837 -0.014829392 -0.021260167 0.0041844607 0.018471027 0.014621109 0.010587364 0.01207107 -0.008811769 -0.0017585636 -0.013440612 -0.014465466 0.005605805 -0.023910254 0.021044988 -0.014920244 -0.011053753 0.01741291 -0.0222022 -0.00010669827 0.017749408 0.0019105524 -0.014979944 -0.022882218 0.0006787747 -0.0079012485 -0.0074506584 0.008143899 0.009441665 0.0058523687 0.020483145 0.014350486 0.011286179 -0.0069285305 -0.017356578 0.020297328 0.00961681 -0.014283302 0.011397347 0.0067896903 0.023980185 0.023332743 0.0015112698 -0.001326573 -0.011504779 0.00014844238 -0.022968432 -0.019823615 -0.02182636 0.024574101 0.0119381165 -0.0012866379 -0.008215055 -0.010698321 0.02438367 -0.0143469 0.016968368 -0.022524465 0.01960564 -0.0116852075 0.013044426 0.017327655 -0.0015357614 0.018230313 0.013532055 -0.0038020224 0.01321868 0.0084448755 0.01376425 0.00510892 0.0068975748 0.017036749 0.0024959983 0.023719007 -0.016551772 0.0058122366 -0.00019434691 0.017802104 -0.019499777 -0.018280119 0.024678826 0.020549724 -0.017317956 -0.010296109 -0.012755972 0.014669764 -0.021004334 -0.008582654 0.0148292035 -0.000630784 0.0038593055 -0.024899334 -0.012630934 0.01569891 -0.0017381937 -0.013726077 0.009915671 0.014480883 0.00848336 0.019976968 0.012315544 -0.017968887 -0.019147769 0.009034002 -0.016594922 0.007843423 -0.008571756 -0.016413445 0.007440084 -0.018098993 0.018259734 -0.009858841 0.022505043 -0.0171302 0.009420708 0.00072956685 -0.00092259346 -0.021827443 -0.01627611 -0.005633545 0.012704695 -0.016799375 -0.024670029 -0.011019868 0.00086814165 0.011989492 -0.019407962 0.019579971 -0.00065268576 -0.020015595 0.020318968 -0.022628536 0.006308529 0.022156937 -0.014864576 0.01854583 -0.013261527 -0.020920126 0.004221165 -0.015711922 0.012345028 -0.012972913 -0.01790744 0.0064661326 0.024834234 -0.024366153 0.011555052 0.016632194 -0.021730337 -0.009088138 0.005113703 0.00078362826 0.02477621 0.018719995 0.011789018 -0.0134290755 0.0030126602 -0.009890646 0.021787364 0.022295833 0.007920614 0.01393027 0.01755705 0.00984512 -0.008678868 -0.015595696 0.0030490041 0.022146715 -0.014059029 -0.0027258159 -0.020625418 -0.022321632 -0.024603656 0.0047213524 0.0013679535 -0.008068916 -0.0094911875 0.012587232 -0.013662318 0.010652957 0.0034807175 -0.013340729 -0.010889396 0.013405166 -0.013867497 0.023480454 0.021861775 -0.00091803074 -0.0039814147 -0.012929732 0.012858319 0.022097677 0.020926997 -0.023143698 0.019211644 -0.0023708462 -0.020641258 0.008742693 -0.016614188 0.022631029 0.00925324 -0.020226402 -0.007536909 -0.010071123 -0.022396026 0.0035637468 -0.024374843 -0.009227464 -0.018193727 -0.006710312 -0.007882798 0.021013686 0.023075685 0.017601479 0.02421164 -0.01891259 -0.015576971 0.0031939538 0.015349219 0.010363228 0.021828318 -0.0069437684 -0.0013918251 0.01782153 -0.019293547 -0.02306428 -0.01143527 -0.017918801 -0.021280503 0.024959391 -0.010887585 0.008589677 0.0104306135 0.014013389 0.0028871417 -0.0114328535 0.022360597 -0.01651423 -0.004408926 -0.0179563 0.0016910344 -0.0028470517 0.022886649 0.013557768 -0.012463114 -0.016663922 -0.00312998 -0.00038585367 0.02320156 0.0038672804 0.008316678 0.023025999 0.009838126 -0.003808099 0.010912716 -0.012017915 -0.00654532 0.023405746 -0.010805956 -0.020394389 0.012559235 -0.024866005 0.015311721 0.005114323 0.014434463 -0.004541028 0.006443611 -3.2484531e-06 0.021597842 -0.014096225 0.010791475 -0.009174398 -0.014555699 -0.0070598545 0.0077982605 0.0033712268 -0.012991316 -0.02254923 0.016912669 0.021599328 -0.009277517 -0.021036942 0.0068337442 0.00276967 0.015692828 0.006075889 0.02115867 -0.0077051073 0.023061056 -0.024544338 -0.011334068 0.021892002 0.018990574 -0.02183868 -0.01191431 -0.020504368 -0.016418472 0.0135998875 0.005232349 0.0110013485 0.0043099076 0.0037882954 0.015611157 0.0052229613 0.023938209 -0.014527241 0.019521529 0.023100395 -0.007333231 -0.0054495963 -0.009843093 0.0034102083 0.007846201 0.017493982 0.023032082 -0.0038502037 -0.0015796811 -0.002832553 -0.012940657 0.023141524 -0.009361553 -0.022889415 -0.000847131 -0.0017041296 -0.0013431639 -0.0036111593 0.0054077837 0.011474616 -0.0036581575 -0.011112228 0.0096614985 0.0207604 -0.024407813 -0.0014331818 -0.017109497 -0.010866964 0.0049598366 -0.019667128 0.0069289478 -0.021503298 -0.00050751865 0.004723689 -0.018049145 -0.013619727 0.0013333171 -0.004192391 -0.0022241145 0.02249373 -0.02086931 0.017962292 -0.0067625255 -0.0009935558 0.008160177 0.010227558 -0.015529925 -0.0161903 -0.024773378 -0.011593128 -0.016244045 0.008706021 0.016508022 -0.0020898879 -2.9686094e-05 0.015942855 -0.01871563 -0.010592038 -0.0002935499 0.021826202 0.008578593 -0.024653202 0.008295861 -0.018170748 0.014843389 -0.012347812 -0.005923763 -0.023504913 0.0039542527 -0.00074897707 -0.0172119 0.018271519 -0.020238135 -0.023838481 -0.0201978 -0.021092018 0.023180056 -0.007376534 -0.0073123635 -0.02069588 0.017259559 -0.011245451 0.013483378 0.020826017 -0.02417028 -0.019824306 0.013184023 0.023181586 0.001864767 -0.013798612 0.016092395 0.022027403 0.014529121 -0.011296609 -0.020590497 0.022026822 -0.0073141097 -0.0094767185 0.00872424 0.021116791 -0.009486556 -0.007829237 0.0030935972 -0.023365265 -0.0027688176 -0.005506334 -0.008372316 0.00605385 -0.019416202 -0.012495637 -0.02450166 0.015147132 0.016568575 -0.015843654 -0.00057304505 0.0025382638 0.020778809 0.018727446 -0.008253432 -0.002064842 -0.018752078 0.005690539 0.016565314 -0.0040749223 0.012299481 -0.0151177915 -0.014003632 0.009837145 -0.015629074 0.020964263 -0.015326238 -0.007169235 0.007528007 0.023871029 0.014939553 -0.02281805 0.024231026 0.017562304 0.003515783 -0.022712274 0.0063037756 0.016090238 0.011890987 0.0149061475 0.023195444 -0.015816852 -0.009225163 0.015863884 -0.013439086 -0.014142242 -0.0033941716 -0.0042417976 -0.020535996 -0.00996039 0.018622622 0.008837933 0.008899924 0.014181274 0.023924349 -0.006422886 -0.01144994 -0.02164772 0.019087879 -0.008005643 0.02013951 -0.021722326 -0.008582408 0.024281502 0.023622682 0.01889051 -0.020192904 0.0074486705 0.021206552 0.013085604 -0.0048473626 0.0046635303 0.012578803 -0.0064113885 -0.020189239 1.3038516e-05 -0.015466523 -0.014920646 0.0051908195 0.0041216942 -0.021533845 0.0171395 -0.0100649325 -0.0009802788 0.0069708945 0.024597133 -0.002869907 -0.0049395533 0.015387041 0.013837797 0.014850554 -0.022032937 -0.023517856 0.020429472 0.02377111 0.00033055843 0.0021428973 -0.0024575682 0.02431342 0.009013456 0.018335342 -0.0014422626 -0.014240342 -0.018890098 -0.0032109113 0.023846427 -0.0060305297 -0.0044611576 -0.0033835978 -0.024388222 0.009830892 0.022266036 0.021339461 0.016233994 -0.018822173 -0.0062012197 0.023722768 -0.013736469 -0.020334547 -0.0030078024 -0.018426126 -0.012640378 -0.011542633 -0.019366613 0.0010463626 0.0013364673 0.020062903 0.019681767 0.0059666187 0.020976102 0.012354112 0.023907099 -0.014908376 0.00038243533 -0.010077754 -0.022619486 0.007958958 0.012505144 0.0065703215 -0.020189276 0.016116068 0.0103020845 -0.0061324327 0.008037451 -0.019582445 0.018268919 -0.023264412 0.016885225 -0.016208032 -0.017843166 0.0063905627 0.00025562942 0.004402116 -0.0023389428 -0.015693313 -0.011456773 0.017093552 0.0060214223 0.00998643 0.023784224 0.00045355558 0.0063127787 -0.0049108802 -0.0048550996 -0.009586203 0.0058781775 -0.021602616 -0.002132091 -0.0158926 0.0035368502 -0.019033853 -0.011029879 0.011059821 0.009705687 0.0070454213 -0.0036545158 0.021111578 -0.012733183 0.0041465494 -0.009590844 0.024619265 0.022352705 0.00080178084 -0.022916226 -0.0031924278 0.023470933 -0.020079717 0.0013328672 0.0067644715 0.019488294 -0.0014993459 -0.024968032 -0.01840862 -0.004883823 -0.017338037 0.013907752 -0.02021276 0.0038761764 -0.01942736 -0.022809794 -0.011132992 -0.021092752 -0.014115778 0.007831454 0.0063331574 -0.0054129036 0.010255101 0.014611182 -0.011358812 -0.021088103 0.022528013 0.014815554 0.01793517 -0.0073063374 0.011223668 -0.00078569056 0.0018763393 0.0029462338 0.0072998763 -0.008626587 -0.0042369603 0.0016820937 -0.019101784 -0.012267656 0.0033599257 0.01811856 -0.019152014 -0.0038388134 -0.013673687 0.02494139 0.007308641 -0.017395232 0.012324924 -0.01729775 -0.009625107 0.016855156 0.0025025995 -0.0066545308 0.018253786 0.007134959 0.02223809 -0.018296493 -0.0012165428 0.002912137 -0.021001875 0.0029312074 -0.019963821 -0.016568353 0.016777216 0.019190852 0.0029063136 0.015901206 0.0058630616 0.002353126 0.0061528324 0.0014294804 -0.024655286 0.0029470772 0.005259341 0.014191869 -0.01031763 0.019338667 0.013058985 0.0020941317 -0.002726093 -0.010891536 0.011404178 -0.0003370017 -0.0028319121 0.01032362 0.0019689351 -0.013415778 -0.02266868 -0.015018827 0.0009604275 0.022854665 -0.014083445 -0.021886943 0.022998625 -0.0074178427 0.015302166 -0.0034768046 -0.021107126 -0.023446677 -0.0100421375 0.013288355 0.0046567917 0.0008881301 -0.0065544248 0.0037610412 -0.02203214 -0.0030054094 0.009966532 0.018104455 0.0028628677 -0.0016271472 0.018379081 -0.014014259 -0.0033087344 0.011518747 -0.023413131 -0.0054494827 0.018440416 0.0023168833 0.015007028 -0.00027832092 -0.004284358 -0.017974645 -0.022122169 0.0029885115 -0.0108216945 0.022139436 -0.014075465 0.015375346 -0.0108050555 -0.013715121 -0.008796937 0.0230858 0.010017368 0.0059399395 0.0013501227 0.008069018 0.01106816 -0.020885555 -0.004432395 -0.018228311 -0.021434663 0.012068177 -0.018469576 -0.0102057485 -0.014644766 -0.020775283 0.0076529323 -0.005072016 -0.014268619 0.005834541 0.01911945 -0.01155093 0.008471436 0.022738669 0.00878253 -0.002305448 0.015188962 -0.0069853365 0.0022700548 2.3564697e-05 0.02418601 0.01199419 0.018310724 0.008143487 -0.022001926 0.009063604 -0.0050788163 -0.008551913 -0.011250925 0.012902558 0.024676818 -0.019172434 -0.0018079489 0.004694283 0.022830216 4.2778254e-05 0.010706926 0.0039520026 0.0132248495 0.017004741 -0.014954421 -0.0017463714 0.0112387305 -0.014338848 -0.011198542 0.008793107 0.017828459 -0.023633486 0.01602603 -0.0013791829 6.239712e-05 0.0018778712 0.016781872 -0.0076952847 0.022675702 0.024613965 0.02165747 0.005513549 -0.00759992 -0.006367564 -0.009394342 -0.020509114 0.003773278 -0.0071286294 -0.00832926 0.016110724 0.0010241747 -0.001968974 0.01968359 -0.0020135015 0.0057828934 -0.0001790911 -0.014702663 0.0037039965 0.0017874896 -0.0067991973 -0.007855383 0.0069289627 -0.00385226 0.010808396 0.01513159 -0.018551612 0.015719516 -0.0066082957 0.014019594 0.016741732 0.017801821 -0.008702514 0.015308178 0.016948257 0.015547377 0.019618407 0.0010285259 -0.011350042 -0.015816784 0.0080670295 -0.019912008 -0.022840664 0.0012982518 -0.0052228156 0.014655754 -0.0004939109 0.022061625 -0.0042156726 0.008120856 0.0011296362 -0.002067253 -0.0021118254 -0.008284777 -0.013374537 0.019655902 -0.007478997 -0.0030764937 0.023607168 -0.023225427 0.015150157 -0.0003741801 0.0139235025 0.0145635875 -0.022387896 0.0025044351 -0.004596296 0.020105869 0.005282679 0.012348533 -0.024054011 -0.0017143727 -0.011988792 -0.016922582 -0.02309568 -0.017961437 -0.002069685 0.0131277265 0.015367451 0.018534005 -0.016596604 -0.00069158076 0.008964181 -0.002850169 0.008762318 -0.019492483 -0.0023699075 -0.00840874 -0.008655923 0.018450057 -0.0017632752 0.010434818 0.0064201416 -0.00022949875 -0.019780835 0.012007478 -0.006212351 