0.015182664 0.0065133893 -0.012836999 -0.015277819 -0.0070718145 0.001956795 -0.003245786 0.014073734 0.010956214 -0.0017365537 -0.013223242 0.007725433 -0.017252529 -0.0006969188 0.0053992616 -0.011490729 -0.017361153 -0.0014577168 -0.0047245026 -0.008926794 -0.0029563182 -0.005812822 0.015691822 -0.009252642 0.010807004 0.015096399 0.007182028 0.0048986077 -0.011554716 -0.0155249415 0.007520046 -0.010235955 -0.0033521312 0.016456718 0.016006697 -0.015887035 0.01425425 -0.0008381499 0.008862707 -0.014017593 0.008528123 -0.005398808 0.0073009753 -0.010094741 0.007313071 0.008713391 -0.015306018 -0.008939524 -0.016798316 -0.008717818 -0.013194834 0.0043107676 0.010038502 0.0034073147 -0.006622802 0.0032902234 0.008306551 -0.01773785 0.014194038 0.003366379 0.0077563017 0.004535605 -0.013200412 0.009067325 0.0029858246 -0.017657358 -0.014617416 -0.006679231 -0.006661439 0.001683595 -0.0087051885 -0.015481599 0.0086855935 0.0015580825 0.017457165 -0.008625105 -0.008222206 -0.0031790906 0.0042851334 -0.016155986 0.014053109 0.0056020664 -0.009693816 -0.007606362 -0.01737795 0.012676889 -0.002160081 0.0037308508 -0.017350461 -0.012969603 0.005183744 -0.0027263763 0.007985055 -0.004533457 -0.002719924 -0.01650552 -0.016546128 -0.011505377 0.008272131 -0.011142616 -0.015397903 0.0031544673 -0.0059203017 -0.00676219 0.005910682 0.014619547 0.006774577 0.015145402 0.011070665 0.015848376 0.016831899 0.0024077892 -0.017844303 -0.016211268 0.01711573 0.0018106189 -0.010790763 -0.0025981644 -0.014500584 -0.008190751 0.0147326235 0.010464302 -0.006980077 -0.006528348 0.017247025 -0.003426354 0.016621947 -0.004079485 -0.0010866225 0.00058850436 -0.011928299 -0.016656881 0.0013760243 -0.008097787 -0.002439265 0.004450068 0.00082339137 0.011692154 0.01305424 -0.016739657 -0.013381252 0.017144334 -0.012956737 -0.010983172 0.0039172983 -0.006720556 -0.005820741 0.002521281 -0.017089913 -0.0143425 -0.0124019 -0.0031140002 0.00092490873 -0.014403434 -0.01130985 0.015931508 -0.013114106 -0.006822533 -0.007373736 0.0043423073 0.007725369 0.009244556 -0.009338394 -0.00634017 0.0012482044 -0.0022131163 -0.01275923 -0.008159404 -0.0147954235 0.01667615 -0.009257381 0.010807983 0.0076469462 0.0076347506 -0.008507995 -0.008188708 -0.011698754 -0.005407223 0.0038490128 -0.0058677243 -0.007337598 0.006381269 0.003310193 0.005149999 -0.0030470449 0.015662158 0.014111696 -0.0068195723 -0.014743942 -0.0040401816 -0.010956001 0.008113841 -0.0010485607 -0.006204254 0.0020805448 0.008956175 -0.009488964 0.0094847195 -0.0056868647 0.0028076428 -0.011039434 0.0010910758 0.009009513 -0.0011417207 -0.0056984383 0.0025141495 -0.0020407885 -0.016774375 -0.01741872 -0.015796853 -0.012256789 0.012498092 -0.011871437 0.011896726 -0.005782264 -0.0060093915 0.0010769857 -0.015116222 0.016193593 -0.00026701178 -0.0033526656 -0.0024725497 -0.0022965395 0.016964322 0.005835152 0.010876841 -0.005596751 0.00445622 3.7312508e-05 -0.016923878 -0.014057575 0.017783679 -0.0064710295 -0.012115536 -0.01556964 0.0037428313 -0.017141756 0.011109395 0.0026604363 0.0018084603 0.015843267 0.0037203007 -0.009793917 0.01025806 -0.016970798 0.012183573 -0.009745371 0.008894761 0.006930558 -0.017082704 0.00023983845 -0.0044276267 0.010146535 0.013184329 0.017281855 -0.013057796 -0.013917474 -0.010967902 -0.012537661 -0.0031666523 -0.007336025 0.0049476605 0.009872088 -0.00041795842 -0.014842106 -0.0081442045 -0.01564148 0.0065072267 0.014429585 -0.008296567 0.002352274 0.011190818 0.014699134 0.004852404 -0.00034141116 -0.0104043875 0.013968575 0.0010301578 -0.009127009 -0.016503617 -0.01620341 0.0049538338 0.01682135 0.0024039194 0.015019352 0.015922828 0.016068017 0.00397093 0.004495985 0.009157926 0.014585149 0.005727483 -0.0031385082 -0.01656997 0.0039703804 -0.00496386 0.010488153 0.012233762 -0.0113142375 0.017274853 -0.00697838 0.010791549 -0.015551061 -0.004651672 -0.0030660396 -0.01695404 0.0014932604 -0.011547862 0.0031418675 -0.016859412 0.0030300491 -0.01516871 -0.012182424 -0.013580333 -0.0011457695 -0.0074146353 -0.005126553 -0.0047958195 -0.008334292 -0.014632066 0.009662803 0.01754565 0.0007562489 -0.0046179956 0.01729056 0.0024960511 0.0011949816 0.0044669807 0.007586999 -0.016133826 -0.0175907 -0.01648016 0.006091804 -0.013718653 0.007883394 0.016551962 0.0030656054 -0.015502815 -0.014238167 0.016016595 0.0014048858 0.005393933 0.0075195692 0.008985241 -0.011217859 0.0045583146 -0.014325615 -0.0014539596 0.015292441 0.011262605 -0.00951628 0.0070005553 -0.012647534 0.002155866 -0.0033545985 -0.003327404 0.0010043532 0.0062258374 0.0028893757 -0.014543556 -0.017613066 0.01713135 -0.009843192 0.015424116 -0.016611729 -0.007574069 -0.015297088 -0.011800385 0.010348695 -5.9930346e-05 0.002248051 -0.005061699 0.010693742 -0.01731804 0.015427013 0.012826537 -0.001725959 -0.016872324 -0.009961663 -0.017350987 -0.013498453 0.016245402 -0.017040502 -0.01507066 -0.012347286 0.0021032565 0.00065575546 0.0020752188 -0.00030979942 -0.010372224 -0.0044181347 -0.014931329 0.0067866617 -0.0022006696 -0.008719826 0.009905982 0.009430971 0.003733288 0.012965556 0.011082145 0.01032106 -0.014032205 -0.00784584 0.005707379 0.016955813 -0.008750895 -0.009830773 0.012635014 -0.0042706793 0.0026927101 -0.017775033 0.0012206925 -0.016740879 0.013824168 0.016985863 -0.008985852 -0.017069532 0.0013064934 0.0064959847 0.016313223 -0.014997179 9.164853e-05 0.01220971 0.01568875 -0.009612535 0.01575059 0.013747616 -0.009099137 0.0026670143 -0.0010311519 -0.010637324 0.014057573 -0.0016317645 0.008745218 0.0090742735 -0.007161992 -0.017573383 0.01596669 0.01714513 0.009844018 -0.003898495 0.013095643 0.013521485 -6.56162e-05 -0.004674475 -0.003937217 -0.0138506 0.0066710757 -0.015030921 -0.00037391912 0.012812219 -0.0024898031 0.0036165398 0.002639907 -0.017405841 0.009214267 -0.003627358 -0.01081534 0.0018584729 -0.015552664 -0.006207581 -0.014444935 0.016211275 0.011935679 0.004539671 0.0020440158 0.0036385679 -0.011593755 0.016087208 0.00034180924 -0.0020430791 0.011095254 0.00078525505 0.0118431775 -0.00039639857 -0.0021363774 -0.0017327688 -0.0038517844 0.012893226 0.0016911989 0.010008535 0.00024059202 0.007218536 0.015083331 -0.01741314 0.013015364 0.008866692 -0.01639684 0.00081360555 -0.014334858 -0.0015390473 -0.011145073 -0.01629571 -0.0023347544 0.013620686 -0.015811792 -0.011828206 -0.017775884 0.01717582 0.014371251 0.0015957357 0.0147188185 0.0047533535 -0.01700762 -0.0033042922 0.008034664 -0.007196648 0.012711856 0.010925309 -0.005533557 -0.011352497 0.00018711602 0.005756357 0.016853027 0.006315704 -0.012931626 0.008079825 0.0066677015 -0.006243423 -0.0051263273 0.014820878 0.0028877046 0.015465479 0.010773968 0.017494231 0.0065401946 -0.0036577478 -0.016928216 0.010046763 0.016772956 -0.00806827 -0.0143803535 0.014866333 -0.011427384 -0.0007281538 0.013134931 -0.010358689 0.015917992 -0.0019499256 -0.01667989 0.0063881516 0.011797522 -0.017425682 -0.010716162 0.010153881 0.010414769 0.006104295 -0.012590707 -0.005087033 0.009636981 0.014175173 -0.0051605552 0.016726518 -0.01305114 -0.0074245785 -1.0281802e-05 -0.0024170366 0.006957855 -0.015635604 -0.01270364 0.0036734366 -0.0038980418 0.009498727 -0.0019486079 0.011420323 -0.011877528 -0.009743455 0.0016786499 -0.0061159115 0.007957453 0.014863287 -0.0002455243 0.00046964205 0.017033264 0.007345149 -0.01435407 -0.0140232835 0.0033677882 0.012534308 0.005904809 -0.010715532 -0.008423446 0.0030874738 -0.005423497 -0.013431201 0.015860002 0.008684706 0.01683358 -0.0036273962 0.014965065 0.013018919 -0.01653593 -0.0012988236 0.0002278856 -0.009083693 0.008950889 -0.017307512 -0.008379328 -0.017014109 0.007174654 -0.0003651849 -0.015842669 -0.0034353351 0.0059724646 -0.0015166339 0.015733562 -0.00448023 0.010571201 0.0071538626 -0.011917783 0.015604626 -0.0010583997 -0.0020078975 0.014770949 0.01729298 -0.0061494135 -0.0064411038 0.006109996 0.011966621 0.0070301 -0.0050688135 -0.0077753877 -0.008825841 0.0015167509 -0.0043266993 0.017109808 0.015593176 0.010697259 -0.014676746 -0.009922585 -0.014307104 0.016440343 -5.2522337e-05 0.015005015 0.01617313 -0.002985916 -0.013259026 0.015325193 -0.0074403267 0.012666558 -0.0042391145 0.008085815 0.016991403 0.0027116155 -0.015852828 0.0018123687 0.0053365487 -0.013717641 0.009324009 0.0022202411 -0.017429208 -0.008588455 -0.0017757076 -0.01747147 0.0041002464 0.0071090674 0.007836206 0.00785013 -0.00085207185 -0.010690941 0.011203428 -0.011930858 0.013893256 0.0046498864 -0.010404244 0.0010821947 0.0047612446 0.010155154 0.009034425 0.0022320622 0.009699096 0.01217528 -0.005293052 -0.01248622 0.012525255 0.007751348 0.0075669354 0.0043521463 0.009770077 -0.0052350997 -0.0038509222 -0.0001545293 0.009706123 0.0034676727 -0.011232939 -0.0129248 0.013914771 -0.0034044876 0.0034015032 0.0097151 0.0027708604 -0.011257754 -0.009681905 -0.009378451 -0.017299099 0.005488302 -0.014759661 0.017145544 -0.0030571925 -0.011859756 0.0033525082 -0.0031664437 0.016586393 -0.009151755 -0.014103358 -0.013842822 -0.00813354 -0.010818256 -0.01196099 0.0038749322 -0.0023780551 0.006127511 -0.0025744056 0.006983619 0.012626423 -0.015484417 0.008629951 0.015174134 0.013115664 0.014237986 -0.0028575065 0.011412461 -0.0032769763 -0.006251442 0.014350913 0.0012275386 0.00053325295 -0.00041550613 0.01606814 -0.011207313 0.013289652 -0.017323982 -0.006806721 -0.01599039 -0.01212797 0.013364729 0.016215723 -0.014064212 0.0003750069 -0.016959215 0.0028025978 -0.0027341056 0.004778198 0.012668121 -0.014990337 0.006931212 -0.01563083 -0.008312351 -0.010596353 5.6858575e-05 0.017140439 -0.0042456686 -0.0026802444 -0.0084433025 -0.014788124 -0.00028747748 0.0058383285 -0.00022302994 0.007218268 -0.007392492 -0.010479084 -0.009392247 0.0036231473 0.0015839104 0.014370578 0.010559936 0.016228437 0.013143153 0.010995369 0.0049884086 0.0018296711 0.0089298105 0.009815821 -0.0069910823 0.012158261 0.011440961 0.013493726 -0.0048015844 -0.016547602 0.0059439456 0.011439797 -0.0023732549 0.0062502306 -0.013222927 -0.006448367 -0.0005968554 -0.0122411465 -0.008456799 -0.016930116 -0.016932022 0.0067580347 0.015277254 -0.010464611 0.007828338 -0.017241219 0.005384633 0.0142342495 -0.009958974 0.017745433 0.005139181 -0.016577838 0.003956346 -0.008591769 0.0023964837 0.010024339 -0.0029593792 0.005645169 -0.012424214 -0.007012293 0.0039905077 0.005987521 -0.011103622 -0.0046447115 -0.007340363 -0.013973739 -0.006862217 0.011323444 -0.006103224 0.0027765974 0.008278719 -0.008325439 0.017408129 0.008901099 -0.010897586 0.013721039 -0.015832745 -0.00017314724 0.0010937261 0.015189667 0.004581954 0.0052531045 0.005437038 0.010198123 0.009987227 0.014019765 -0.010366711 -0.0122985905 -0.0027529215 0.0118370745 0.009838669 -0.0008413835 0.013975481 -0.014771284 -0.005425313 0.0012820214 0.0040364354 0.017304817 -0.0038370832 -0.017797634 0.0028035494 -0.0044684624 0.0073749 0.009668832 0.005845136 -0.00439841 0.005341134 -9.2991766e-05 -0.0040605324 0.014256288 0.003399766 -0.00633981 -0.013719755 0.0009496489 -0.0039025205 -0.006095661 -0.008141741 0.0037271362 -0.009085249 0.011133188 -0.0041491627 0.0051995665 0.009253392 0.0133366035 -0.009065258 0.0010322928 -0.003823389 -0.010903391 -0.003784978 0.0028356912 -0.007533372 -0.015261949 -0.0041913753 0.00033918026 0.008502967 0.007166141 0.0028135204 -0.012628871 0.0015827311 -0.008576149 0.014724918 0.0066520893 -0.017269248 0.008237375 0.014897886 -0.014624903 0.0043102633 -0.016383601 0.016229173 -0.014756518 0.015678871 0.013966742 -0.0037428334 -0.010132609 -0.008753385 0.006299021 0.012466488 -0.004659097 0.014169919 -0.013882916 -0.014388817 0.0005716937 0.0043687588 -0.009344516 0.012939886 0.0059904014 0.01096438 0.0015050642 -0.0045191348 -0.016372463 -0.010790351 0.012126086 -0.006502935 -0.0063340133 -0.010297199 0.014433797 0.005258782 0.013922237 -0.012695963 0.01520727 -0.0018464328 -0.0045057666 -0.017650992 -0.011345197 -0.0030971235 0.0016897918 -0.0058256155 0.005036184 0.009705163 0.0025327143 -0.01533694 -0.014017959 0.0057879393 0.016219102 0.0043712305 0.013782317 0.00011989475 0.005557867 -0.0065830695 0.009855901 0.009260274 -0.0032295415 0.0064471727 -0.001072013 0.007498648 0.013017808 0.0020286038 -0.016786689 0.0021539885 -0.010602143 0.0046558576 0.010480221 0.007732298 0.0012744708 0.0026305213 -0.007868118 0.014910556 -0.0018327428 -0.0026161799 -0.00050193927 -0.008982665 0.013207164 -0.013615128 0.0101772975 -0.0036931124 -0.002572279 -0.01703548 -0.014488604 -0.005482133 0.0063786763 0.0097278 -0.015619272 0.0034005772 0.0033845776 0.010230491 0.010255648 -0.015382412 -0.0077781915 0.012110696 0.0018661385 -0.017536402 -0.014423088 -0.0058893394 0.011156536 0.00068729057 -0.003928353 0.00074548385 -0.005296788 -0.008943443 -0.003103084 0.0001529434 -0.009319374 0.0004605928 -0.0043799304 0.011198815 0.0020464405 0.016135825 -0.01170891 0.0016444006 0.0075869374 0.013297465 0.015110128 0.0051513636 -0.014795574 -0.0145726465 -0.005746073 0.014409864 0.008684333 -0.012334946 -0.007968907 -0.0059994846 0.0038224056 0.017337553 -0.0068935775 -0.009947426 -0.016130177 0.007328749 -0.007039641 0.008331358 0.01237471 0.0065676956 -0.005718457 0.017088547 -0.015774958 0.0020745653 0.017194021 0.009260802 0.011676723 -0.0025971597 0.015959553 -0.017772425 -0.0012745006 0.0133275455 0.005166514 0.002864227 -0.017738506 0.0023616767 0.007880022 0.0049658017 0.0004522375 -0.005613706 -0.013420401 -0.0022658089 0.010761036 0.012410279 0.0050087213 -0.013064376 0.016936509 -0.0075656497 0.016821053 0.014861636 -0.010562525 -0.0100204265 0.0028898292 0.010374542 0.014924072 -0.010434813 -0.012282179 -0.017765393 0.01410528 0.004915031 -0.012159165 -0.013841917 -0.013596163 0.0055527436 -0.011794887 0.0030042552 0.0131303435 0.012358692 -0.008687009 0.011926586 -0.013320462 -0.0032593333 0.0033774143 -0.017349968 -0.0053940015 -0.009973699 0.016471576 -0.009231562 -0.016646411 0.0060695987 -0.0059442567 0.012803223 0.0052260207 -0.008691471 0.0007498435 -0.006252249 0.016075386 -0.0144135915 0.006850522 0.0063007073 0.012401673 -0.011514658 -0.0047757374 0.0017476423 0.005778015 0.0020954013 0.013422096 -0.01210037 -0.002692708 0.009339861 0.011057584 -0.0055292975 0.012410955 -0.002959688 -0.012666422 -0.003684357 0.0059686922 -0.001838665 0.012853968 0.00809668 -0.0034080576 -0.0147129195 -0.0031114477 0.0009187737 0.003017696 -0.008258894 -0.0169423 -0.01558193 -0.005340268 -0.00015849089 0.008632356 0.013039945 -0.014518274 -0.011837215 0.006746022 0.01591349 0.0014002026 -0.008919406 -0.01065829 0.01570551 -0.0060223495 0.007891676 0.009942198 -0.007428672 -0.0028215179 -0.003731432 0.008031447 -0.01090411 -0.0119201355 -0.00730492 -4.502918e-05 -0.00024397246 -0.0046445816 0.0127519565 0.013102758 -0.015783956 0.0014425304 -0.011066718 0.0024431902 0.0023934075 -0.009848561 -0.0010141709 0.0024110272 -0.008379198 -0.015132351 0.0031665778 -0.008510566 -0.011819071 0.013189963 -0.0130253 0.0065871077 0.008100212 -0.0033859145 -0.016751423 0.015223527 -0.0036684745 0.0014452849 -0.0037922072 0.0026904622 0.008834416 -0.0070062857 0.011283839 7.2943316e-05 -0.011431697 -0.011068915 0.017104423 -0.008570018 -0.0035441732 0.016276551 0.0019614932 -0.00471209 -0.0065655755 -0.0014298431 -0.0016458674 -0.008632343 -0.017424414 0.00044656228 0.003360395 -0.013883121 -0.007598769 0.005470555 0.005931984 0.015332091 0.010182813 -0.008207107 -0.009210793 0.012127387 -0.0044676214 0.00055884256 -0.012768606 -0.004439633 -0.013817594 0.010043773 0.006641997 0.0008869597 -0.008609059 0.009539566 0.0009853521 -0.009087844 -0.004949668 -0.008404698 0.0017705454 -0.007182475 0.013606434 0.014817445 -0.013611553 -0.016035995 -0.006981558 -0.009610871 -0.003425875 -0.0024146992 -0.0048174607 0.011462878 -0.014155148 0.010372913 -0.005748072 0.0020699375 0.013564113 0.013597665 0.012115038 0.0054199826 7.2689996e-05 0.010119179 -0.0026422995 0.0075523816 0.007437574 -0.006944333 -0.012753787 0.008321136 -0.011799911 -0.0028572446 -0.008558205 0.0011280861 -0.00060749485 -0.0013321362 0.013792698 -0.0009804986 -0.0019525099 -0.0010174641 0.0042426055 -0.0066905725 0.0064433943 0.015991699 -0.007976343 -0.0003778956 0.011635083 0.0029592046 0.002283984 -0.015480675 -0.0057872557 0.00899367 0.009746301 0.008168195 0.004380101 -0.008351535 -0.015075416 -0.009822203 0.0032215673 0.01202117 0.016684886 0.01355362 0.012501196 -0.006591944 -0.0139123 -0.009079855 -0.011978043 -0.011278854 0.005890759 -0.014989104 0.017714782 -0.011987427 0.010549012 0.011801748 -0.016093755 0.013865542 -0.015955485 0.003593181 0.0043818443 -0.0075871116 -0.016053924 -0.009930566 0.003849579 -0.004306495 -0.0124716405 0.0037785303 -0.015155722 -0.004065761 0.016919864 -0.006736247 -0.011861125 -0.012121159 -0.0046946644 0.010950391 -0.009700931 0.0054227244 0.016070614 0.016342312 0.016484236 0.008555487 0.0074103735 -0.01405931 0.0063165175 0.00052052527 -0.0019786104 0.00987109 -0.0123877255 0.016178936 -0.006827642 0.01650333 -0.0044908887 0.013863464 0.011796052 0.00022935869 0.0064966 0.008758167 -3.940293e-06 0.012338839 -0.0148420045 -0.007877599 -0.01030228 -0.0074493163 -0.013874898 0.0064931153 -0.0069665425 0.003056852 0.00077032193 -0.0007673396 -0.008533342 0.015740328 0.014964128 -0.0154885845 0.006011748 0.009457961 -0.007981739 -0.0011166909 0.0021119183 -0.0008189806 0.009434445 -0.011114327 0.0054082638 -0.014085432 0.010877927 0.016967196 0.0027032986 0.0009286511 -0.0023122644 0.0012830943 0.01600331 -0.0013448746 -0.00026395917 -0.006648845 0.015588197 0.009209346 -0.00092988356 0.01597745 0.0065488224 -0.007036435 -0.0029894137 0.013611101 0.010040356 -0.009164485 0.0045 0.009869097 -0.012336434 0.0037900615 0.006105257 -0.013985428 -0.002689683 -0.0021188452 0.014814464 -0.011664955 0.014569149 -0.0008944997 0.008445789 0.003608821 -0.009382593 -0.01383594 0.013120469 -0.004235504 0.0056458716 -0.017775185 -0.014392809 0.017187838 0.0020478135 -0.008463964 -0.010965476 -0.00086374587 0.003085094 0.0031545376 -0.010089396 0.0037785452 0.011164206 -0.0178154 -0.01632285 0.005079453 0.0008630838 0.004350662 0.008599237 0.002515246 -0.0010793742 -0.017293617 0.002974968 -0.0029857862 -0.008867643 0.0027667882 0.0062769908 -0.014729641 0.0052493727 -0.0067835497 -0.016820868 0.013417619 -0.0030036676 0.0052468525 -0.014904966 0.014229117 -0.011754703 -0.001093922 0.001737948 -0.017168406 -0.011035632 0.0010300769 0.014278747 0.017573878 0.009264825 -0.00074560515 -0.0051618647 0.016896216 -0.0016831097 -0.010898191 0.009260442 0.016867932 -0.0055648857 0.012376605 -0.0018830172 0.016305078 -0.0058303564 0.0030775773 -0.012630964 0.011840906 0.010992945 0.0003035324 -0.010154341 0.001981729 -0.015382912 -0.001064258 0.009774451 0.016349902 0.007952491 0.00046275984 -0.012341638 0.01451378 -0.008586386 0.010608967 -0.0036217934 -0.0019006198 -0.009677832 0.016671091 0.0019130942 0.011059483 -0.006999774 0.01256725 -0.005583127 -0.008039865 0.0033977693 0.008497586 0.002699305 -0.015097353 0.0034472498 -0.0022913453 -0.013803864 0.016764589 0.014742607 0.0142912045 -0.010445459 0.011730088 0.015761426 -0.0004745126 -0.0107601825 -0.00011885379 0.002302053 -0.01322201 0.006070674 0.013434666 -0.016601454 -0.0073064314 0.010887666 0.0034304583 0.002951869 -0.016461343 0.01185179 -0.0021987814 -0.0019417193 -0.0022500819 0.012381856 0.011482333 -0.0017574239 -0.0001153648 0.0024263668 0.008813409 -0.007996519 -0.005087014 -0.0077673392 0.005377476 -0.0063016075 -0.002430901 -0.0016628249 -0.011771356 -0.01506265 -0.007192474 0.007484353 -0.015289399 -0.0035157695 -0.0035709422 -0.016052624 0.01127704 0.008195337 -0.002460088 0.016849473 0.017408654 0.008094526 -0.011583899 0.0018733209 -0.01764112 0.012023414 -0.0066352105 0.00091152964 -0.00167465 -0.016265567 0.016685575 0.00871014 -0.014106195 -0.01050686 -0.013239236 0.0135455225 0.0044543575 0.0048430883 -0.015220933 -0.006574629 -0.0093525145 0.012333161 -0.0064929877 0.015627317 0.009143634 0.008984509 -0.002880401 -0.005806551 0.009726822 -0.017521244 -0.016254678 0.0054264944 0.017844325 -0.0025863606 0.013603473 0.0062379795 0.016626153 0.0018940569 -0.011106134 0.0064925 0.0075552403 0.0025562518 -0.015086609 -0.0024747637 0.0089694625 0.0049617635 0.0016431448 0.017405936 0.0033692676 -0.012146262 -0.0013384458 0.004313852 -0.013622929 -0.0058387374 0.005403555 0.0020437539 0.011353168 -0.004582405 -0.00030592512 0.0035561388 -0.009296141 -0.017000852 -0.007071391 -0.0021016493 -0.0138085345 -0.009903974 -0.011246939 0.0052279322 0.01267505 -0.003703854 -0.0032110002 -0.016501157 0.017842421 0.00081398874 0.00067278533 -0.0056183957 0.017815616 -0.007290936 0.014964747 -0.009209959 0.003175297 0.016741602 -0.011903749 0.013803289 0.00548205 -0.0029142352 0.007567783 0.007816738 -0.011042613 0.007921364 0.0015415464 0.013986358 -0.014759456 0.013908836 -0.014676751 -0.0062583494 -0.017005458 -0.011036755 -0.011103886 0.002623209 0.012205071 0.017068647 0.013363724 -0.008690322 0.013063708 -0.010149407 -0.014192135 0.0032395169 -0.01361344 -0.011032086 -0.008584713 0.0056817983 0.016984109 0.003772046 -0.0014347413 0.012273957 -0.005480607 -0.011297667 -0.01762355 -0.013280439 0.008397648 -0.002681892 -0.0038963621 0.0030712145 0.012737022 0.015382584 0.012334658 0.014461378 -0.000539305 0.013600186 0.014671371 0.0075771683 -0.015871635 0.008669308 -0.009689306 0.006799004 0.0024518862 -0.001663619 -0.013919399 0.015765993 -0.0011196136 -0.0051102554 0.005009477 -0.008752868 -0.0006507252 0.014277961 -0.0069660805 0.0037144404 -0.01637247 -0.0035181984 -0.010982314 -0.004186871 0.005414075 -0.008978438 0.013041169 0.012900266 -0.0085912375 -0.017306691 0.009869883 0.01569273 0.006858228 0.015873201 0.010600848 0.015588599 -0.0043398677 -0.0071232133 0.012878944 -0.008836853 -0.0010314372 -0.00019633771 0.009446685 -0.009144466 0.0033569338 0.0144515345 -0.0004312311 0.01209317 -0.013583912 0.014900898 -0.015479418 -0.012086618 -0.011851724 -0.0018931457 0.003963164 0.01338004 -0.007006765 -0.00922511 0.0058520525 -0.01732919 0.008547243 0.0045599537 0.0040300298 -0.0040617716 -0.01140238 -0.010253856 -0.010764859 0.0046390723 -0.015949912 -0.0063472753 -0.0006203013 0.015135119 -0.004776957 0.017162597 0.014940945 -0.016892923 -0.0009517244 -0.0015562774 -0.010829051 -0.0016469125 -0.014135877 0.01266646 0.014954808 0.015998628 -0.002854194 -0.010701957 -0.0050858515 0.0030113992 0.016906707 0.0021601894 -0.017497286 -0.0049273777 0.0052244966 -0.012937627 0.014305634 -0.0026076736 0.013475734 0.009658269 -0.013086511 -0.008751897 -0.0038717454 0.0033797773 -0.0069723837 -0.01123955 0.0074312156 -0.0148492865 -0.009035128 -0.007549342 -0.010084084 0.0033463347 0.0010362545 0.0124163525 0.014533935 -0.0043467605 -0.005993943 0.0018625197 -0.0011648387 -0.0015432346 0.007160053 -0.0029873892 0.0016994008 -0.0026401305 0.01248702 0.0049288445 -0.0114399055 -0.0032249286 -0.0084750615 -0.0068387305 0.0046076863 0.017107725 -0.016650654 -0.01520678 0.0081353085 0.009456797 0.001995191 -0.009357596 0.0025947287 -0.006322016 0.0018322937 0.0025519496 0.0070273792 -0.010815125 0.0127743 0.006012376 -0.0084647965 0.004080534 0.0078122406 0.006897586 0.015976805 0.00034173473 0.011153918 0.0028156235 -0.0042107576 -0.01611193 -0.006718159 0.0042845523 -0.0008404064 -0.008669336 0.0065324055 -0.0048017376 -0.006921762 0.01747441 0.01641319 -0.011549882 -0.0016426359 -0.013245496 -0.006282268 -0.002488462 -0.0058274185 -0.008041361 -0.005140541 0.002797376 0.013666552 -0.01426746 -0.011397199 0.0026666247 0.009134076 0.01415853 -0.008467141 -0.017727744 -0.008772597 -0.016184598 0.0079414 0.0052507673 0.0028247836 -0.0124208275 -0.0056997584 -0.009515307 0.01457333 -0.0034931984 -0.016238287 -0.0154928975 0.0010347835 -0.005544982 0.0048110997 0.0035126593 -0.0063100504 -0.0128461085 0.0025869035 0.0002497967 -0.01371377 -0.0057617407 -0.006978691 -0.01191086 0.012906305 0.012411442 -0.017404944 -0.011598083 -0.017048437 -0.004340968 -0.017124113 0.009117642 0.0060354453 -0.0010468726 0.015389763 -0.0014260369 0.0147669 -0.008439126 0.009398922 0.010496313 -0.007859786 0.013822295 0.009359798 -0.0021576115 0.006334697 0.0009086047 0.0071345805 0.0012163627 -0.005893088 -0.001133872 0.0008375943 0.012678262 -0.002736841 -0.015862837 0.0042237174 0.010583433 -0.008717949 0.011250368 0.0021238008 -0.013847051 0.014557571 -0.002926963 -0.005528823 -0.005022807 0.0042284816 -0.00546105 0.0013613659 -0.012016869 -0.0013385948 0.009973252 -0.013470204 0.017389119 0.0059122276 -0.0042337864 0.012908102 0.015628211 0.011812594 -0.013228798 0.007152019 0.0037906128 0.011003154 -0.01525172 -0.0010304239 0.017207373 -0.013093221 0.016046548 -0.006809035 0.0026635337 0.008471836 0.00084779947 0.0003825916 0.008051758 -0.013906573 -0.0014271609 0.00560543 -0.006530832 0.004072877 -0.017675988 -0.0115144495 -0.015547572 -0.0010134791 -0.012336774 0.009674173 -0.0067741983 -0.0011232495 -0.014122289 0.008608867 0.013866578 0.009809926 -0.006188135 -0.007264527 0.017384747 -0.0040756445 -0.00017288541 0.013926117 -0.0077525787 0.009242412 0.017372914 -0.017618531 0.0023299202 -0.008534489 -0.00956426 0.013808243 -0.009712022 0.01251315 0.01638754 -0.008984743 0.011138065 -0.016044188 0.008961467 -0.013654439 -0.0070230453 -0.005093234 -0.004236443 -0.0044238567 0.006560967 -0.0031764167 0.0024404505 -0.0076061343 -0.011263332 0.007869478 -0.017733935 0.009927522 0.014328998 -0.012781697 -0.0132633215 0.012450514 -0.0012278068 -0.005418735 -0.014418043 -0.0029271224 0.00726507 0.0008704216 0.007447552 0.017258892 0.00628759 -0.011957486 -0.002949272 -0.010958772 -0.0014142437 -0.0034035894 -0.014727597 -0.008476166 -0.016085066 -0.009892796 -0.008803076 0.01508951 -0.012167071 0.017124666 -0.0063042496 0.017684449 -0.00035860922 -0.0087974565 -0.012624348 -0.01577657 0.008415457 0.017128726 0.0039208042 0.015706405 -0.012712319 -0.0027000778 0.010774968 -0.01316454 0.0142278 0.0031087422 0.0004656528 0.004585 0.005117923 -0.0006983706 -0.010335839 0.008972034 -0.0027796968 -0.004113223 0.0017691043 0.01274385 -0.0074916696 0.0006051468 0.006464139 -0.012663405 -0.006154955 0.017286047 0.0030236396 0.001131541 -0.013198183 -0.01566039 0.0023052224 -0.013421558 0.0008844414 -0.0034963342 -0.013918279 -0.0108159315 0.015265171 -0.015672676 0.0066136424 0.0049035 0.0038331493 -0.012035513 -0.0039882003 0.00981335 0.009331906 -0.015324438 -0.013758914 -0.0054534185 -0.004666682 0.0011155584 0.01561514 0.010114617 -0.011107681 -0.00053981587 -0.005082612 0.009040337 -0.010416885 0.004862862 0.0054699867 0.007317056 -0.009654527 0.015793636 -0.0003110043 0.008214112 -0.017103279 -0.0016023156 -0.008316338 0.004762064 -0.0012755288 -0.008358162 0.0076299226 0.013751054 0.016320817 0.008383221 -0.017053192 0.012806601 0.0093893325 0.009964458 0.0068195616 0.0133484695 0.006218621 -0.014902967 -0.015221713 -0.013718755 0.005033953 0.0017362365 0.008290166 0.017076952 -0.00053114555 0.0014754684 -0.011505534 -0.008934888 -0.009702409 -0.002933647 0.003401399 -0.0057520824 0.0046459055 0.004289353 -0.007381337 0.013831482 0.015086415 0.0060644792 -0.0038222524 -0.0030668443 0.0073172497 -0.017663065 -0.003496215 -0.004460303 0.008729812 0.0005877891 0.004298811 -0.0016886252 -0.004282096 0.008358215 0.002900475 0.005361059 -0.006249728 -0.0042836326 -0.010098492 0.0006573201 -0.0030953267 -0.015840301 0.004183148 -0.0013628666 -0.015118353 0.016728451 0.011343335 -0.0033265736 -0.014628826 -0.0011826797 0.012117033 0.00937764 0.01617944 0.007869691 -0.017833395 -0.008368078 0.010840152 0.0074274456 -0.016413558 0.0133841615 0.0046359813 0.006503476 0.015397485 0.015361942 -0.015174981 -0.004065314 -0.007839303 0.011452527 0.0013255563 -0.0122983055 0.0060731666 -0.011155493 -0.016421545 -0.010904438 -0.011351855 -0.011537578 0.017406685 -0.013353137 0.002831685 -0.0061078435 0.0018291943 0.0024286723 0.01782625 0.006166401 0.0015268667 0.0072766375 0.0030765557 -0.016833045 0.004182984 0.011166771 -0.008044961 -0.0050072204 0.007242378 -0.010605106 0.014814035 0.0135672465 -0.0014595815 0.009622896 0.0018020081 -0.010151542 -0.0056297528 0.017108968 -0.012854627 -0.002864974 -0.015550599 0.0007673928 -0.009384426 0.007303749 -0.011686558 -0.011266326 -0.0079878 0.00729424 -0.0069921 -0.0016268876 -0.013460386 -0.010414822 -0.011237626 -0.006746271 0.006339005 0.006288184 0.013880162 0.002095046 -0.016455539 -0.011688906 0.0019243254 -0.0007667095 0.009965482 -0.0032078603 -0.013906639 0.0066257166 -0.017683871 0.014750571 0.012267945 0.014170997 0.0037072303 0.016486939 -0.01080377 0.017121619 0.00091365195 -0.015100942 -0.0027198622 -0.005577669 -0.004114434 -0.0121278595 0.00996406 -0.016726933 0.010803583 -0.008878153 -0.0085829925 -0.011113008 0.012680231 -0.008608586 0.016300386 -0.0065155798 0.0054747616 0.010688836 0.002424981 -0.011415322 0.008391276 0.016468694 -0.007888262 0.017356426 -0.011064728 -0.0068922644 0.005143349 -0.00023717328 0.014089851 0.0126265315 -0.011649526 0.008209402 0.00037083245 -0.0042866343 0.012488389 0.0064403075 0.0059333425 -0.015140664 0.007983832 0.016888067 -0.0028088754 -0.00061668246 -0.002846158 0.013866189 -0.01413355 0.0067640226 0.0066138403 0.01173108 -0.0075361924 0.0050089383 0.008136171 -0.004219068 0.013884709 -0.006816954 -0.0075374995 -0.012944867 -0.012577975 0.010607303 0.0014250684 -0.011449454 0.01643797 0.012532254 0.013781289 0.0022305655 0.010005671 0.011411009 5.2022086e-05 -0.002885544 0.012132022 -0.0055136704 -0.00419641 0.014448537 -0.008322853 -0.0012098573 0.012676063 -0.007040335 -0.0018746832 0.0003996747 -0.013233039 -0.0022193321 0.0050446033 0.0038782977 0.0017480468 -0.015065396 0.009128898 0.013711398 -0.012229417 0.01580153 -0.011784177 -0.0072092884 -0.014127625 -0.0023993659 0.0014818418 0.011911548 -0.0149665605 0.007475949 0.0014919427 -0.011381699 0.008768295 0.0055219703 -0.014619719 0.006470857 0.013081419 -0.016717652 -0.0025725898 -0.0064016306 -0.00496353 0.013026353 -0.0038702404 0.014673163 -0.006494729 -0.015329215 -0.00968828 -0.0071949046 0.0038412216 -0.0026501718 -0.009592712 0.017169742 0.009651195 0.009873797 0.013149617 -0.0021027625 -0.013790963 -0.0106278965 -0.014179816 -0.012898014 -0.013461331 -0.010994754 0.012628717 -0.00972786 -0.016053267 0.0109799 0.013651033 -0.00482437 -0.014734188 -0.012246328 0.0036097746 0.015723804 0.017547766 -0.009202119 -0.012160874 -0.014349387 0.006710023 0.009757204 -0.015839938 -0.0028466627 -0.0024507132 0.012722618 -0.009239665 0.014232485 -0.012706604 -0.011625773 0.014215206 0.0016126676 -0.0046986598 0.014538152 0.0021136808 -0.01675008 0.007440944 -0.0041261893 0.011420781 -0.0041294377 -0.0064734374 -0.013797899 -0.011857923 -0.0059294426 0.012751297 0.010865774 0.0026976063 0.008466212 0.017767696 -0.0022286475 -0.012344855 0.014630542 -0.01587785 -0.012610462 -0.003165671 -0.00091204053 0.008357187 0.014813805 -0.0011402518 -0.016803322 -0.0031215125 0.008503685 0.015960652 0.0067194724 -0.009658903 0.0005736777 0.010763616 0.007572283 -0.016502732 -0.010941851 -0.003054802 -0.0066105085 0.008138416 -0.0146234045 0.0022845375 0.01032483 -0.007944602 0.011526613 -0.0009393756 0.0043309205 -0.017201468 -0.016799426 -0.0028845945 -0.017444018 0.002190488 0.00926577 -0.012938547 -0.0073238974 0.008659927 0.010438879 -0.0062096333 -0.0076447837 0.01448467 0.013710527 -0.0044594603 -0.016195623 0.0077842497 0.011737988 0.0012330839 0.007592061 0.011041606 0.011591676 0.00786746 -0.015143178 -0.0077875196 0.014054639 0.015947228 0.0032299715 0.008413341 0.01684796 -0.0117370365 -0.0058423434 0.01659289 0.0012130099 -0.017066656 0.012508763 -0.009566984 -0.0018740745 -0.009909434 0.01563687 0.011954049 0.008312045 -0.017029058 -0.008747061 0.013374237 -0.0022654661 -0.013852768 0.00781491 0.0072106933 0.0038306331 0.0023475823 0.008114066 -0.0038809055 0.017267732 -0.013229605 -0.0057815765 0.0014686798 0.011321849 0.0068737017 -0.008261809 0.013572012 -0.014521996 -0.0021345192 -0.005355614 0.009802116 -0.017288987 -0.009226838 -0.0020074993 -0.014406899 -0.0072344546 0.006894791 -0.01099527 0.010691743 -0.012795511 0.00844419 -0.0172794 -0.013984089 0.007831502 -0.000479298 0.006246482 -0.0013090883 -0.00017742175 -0.009567625 -0.0056899893 0.011700716 -0.015012386 0.010025054 -0.01295636 0.013372666 -0.0139641445 -0.013237279 0.013372567 -0.0049927044 -0.004028178 0.003887894 0.01098936 0.0016301317 0.017425558 0.01672012 0.01126461 -0.0030306303 0.016406147 -0.0148345195 0.014109187 0.008867111 -0.013687307 0.0012614515 -0.004889882 -0.011070644 -0.002979468 -0.002665405 0.014111783 0.0032150939 -0.012184614 -0.0048330575 0.0049764984 -0.017232385 0.016771402 -0.008858098 0.011019748 0.011127664 -0.001726389 0.010089574 -0.0069563114 0.011487798 -0.009381399 -0.0005333232 0.009497177 -0.010471511 -0.004048622 0.008954915 -0.0022247606 -0.00046990174 0.0010388601 0.0038773653 -0.009094316 -0.016637277 -0.0130690895 0.004757924 0.015003333 -0.008606586 0.01018776 0.008246345 -0.0133344475 0.0099090105 0.0038551413 -0.010542687 0.0110396175 -0.013070828 -0.009860631 0.017343435 0.01132715 -0.0038251346 -0.016184235 0.013740887 0.0042852955 0.011269755 -0.0160333 0.015136 -0.0012946066 0.01106388 0.006241839 0.009919572 0.014976256 0.014929284 -0.017645366 0.005190839 -0.016968094 -0.016512295 0.017438158 0.003165854 -0.0029368722 0.017333526 -0.001957804 0.0032963648 -0.0023451895 0.012237641 0.011678374 0.011861465 -0.007852865 -0.007711726 -0.002309084 -0.014442798 -0.005447601 0.012631481 0.0079650525 -0.005261502 -0.014531592 0.013042645 -0.006106113 -0.012140379 0.01732312 -0.01721524 0.0052295416 -0.0024848029 0.0050369757 -0.016070332 -0.0055062477 0.0017453646 -0.016146606 -0.010021827 0.012216396 -0.004025089 -0.002282577 0.011402554 -0.0033294007 -0.0026285478 0.008067517 0.0039750915 -0.010551389 -0.0022086778 -0.003892871 -0.00639937 0.010748843 -0.014278132 0.0037056976 -0.006521093 0.0029915594 0.0009088666 0.010149634 0.0018276488 -0.0067113405 0.012953663 -0.0036297932 -0.008249009 0.0053741788 -0.015424495 -0.017455837 0.007939171 -0.0035603645 -0.002382321 -0.006512987 -0.0026515254 -0.010598217 -3.08007e-05 0.014571101 0.0031354898 -0.014474471 0.0041158157 0.00886455 0.0031884464 0.006786315 0.0051638125 0.008327821 -0.014484176 -0.008610979 0.0026205247 -0.0067924266 -0.003529917 0.011936542 -0.013239678 -0.004713902 -0.007254488 -0.0069613354 0.0147623895 0.0049432456 0.01190008 0.0030979281 0.013267007 0.004690773 0.012654952 -0.0033900654 0.015200394 0.00748069 0.016258921 0.003392075 -0.014361046 0.016911441 0.0025090852 -0.014960432 0.0051421463 -0.0014733375 -0.0068678176 0.015696391 -0.013315419 -0.00051845826 -0.0012420565 0.0141797755 -0.0055615883 0.00084852113 0.0023726758 -0.009765996 0.014903529 -0.015486298 -0.00014693823 0.002651832 -0.0015275351 -0.01637334 0.010949495 0.013039645 0.014814169 -0.014090125 -0.002838171 0.012101157 0.007910902 0.017426092 0.0014580872 0.0056129997 0.0166328 -0.0001017281 -0.0079335 0.010971027 0.011689977 0.0055185645 0.014158237 0.008557235 -0.006124816 -0.007075595 0.0008646442 0.0095182555 -0.016673533 0.00765822 -0.0014484738 0.008156449 0.0037302035 0.0026207909 0.008653852 -0.008017581 0.009425155 -0.012764276 -5.6794714e-05 0.0007510356 -0.01378542 0.016407803 0.005181928 0.014134178 0.01323079 0.014525729 -0.0005024544 0.013001741 0.013454947 -0.010003284 0.01646032 -0.014675688 -0.00045089427 0.004350965 -0.016162615 -0.001640007 0.00542834 0.007671105 0.017520903 -0.004105864 0.016095571 0.014918173 0.008330931 -0.017579084 0.010854198 -0.016830005 -0.010900015 -0.0072432356 0.015868723 -0.00015538718 0.014145298 -0.013266641 -0.0022121754 -0.014655012 -0.0030192798 0.01041833 0.0027492621 0.014502984 0.014372818 -0.010459027 -0.0051781624 0.012480313 0.0064707976 -0.0039586425 0.014649634 -0.0060335314 0.007572749 -0.0026620755 -0.008119424 0.003082318 -0.0053634923 0.01560577 -0.0057288795 0.00091687916 -0.009035311 -0.008937436 -0.01753315 -0.00019173112 -0.013298265 -0.015619979 0.016057208 -0.007378534 -0.008899753 0.016702976 -0.011242475 -0.010417905 0.015552805 0.006364299 -0.015392669 0.013230569 -0.0035169765 -0.002010333 -0.00083426706 0.009017547 -0.017480487 0.006591099 -0.008186886 -0.008461672 -0.0011354558 0.0004530528 0.006555909 0.006586388 -0.00071849785 -0.013317217 -0.009912035 -0.011908875 -0.017039968 0.012691047 0.0062387395 -0.011243848 0.017344741 0.017798375 0.01379665 0.012995403 -0.013149912 -0.0156190125 0.010019771 0.013942255 -0.003954138 0.015055386 0.013415161 -0.0032031687 0.014642473 -5.1194005e-05 0.016621208 0.014835382 -0.005621861 -0.008046689 -0.007432685 -0.0058904462 0.00015319884 0.0073566204 -0.013675277 0.0008927073 0.008468747 0.01309568 -0.0044373935 -0.014045384 -0.0063636284 0.011128973 2.6008913e-05 0.00821451 0.011882682 0.013386739 0.00565967 0.00034637965 0.003031454 -0.016688865 -0.0033377411 -0.005820866 0.0029127812 -0.017593764 -0.007969899 0.009864111 0.01673463 -0.01449493 -0.009435009 0.017810086 -0.017153561 0.003361206 -0.00075691944 0.0015468725 -0.006926292 0.005531469 -0.007330548 -0.0088458005 -0.00031367372 -0.01630263 -0.008325959 -0.011939903 -0.013746385 0.013179247 -0.008428112 0.008324598 -0.0003369685 0.005617587 0.00988469 -0.011360927 -0.009323663 -0.0040464234 -0.013012695 -0.006227017 0.015320155 -0.0170284 -0.016190788 0.013418871 -0.013608646 -0.006879383 -0.012863021 0.008241024 0.0062234616 -0.016001662 -0.01656258 -0.014388294 -0.012193602 -0.017370857 0.0061238497 0.014893954 0.0021851766 0.008174881 0.009254147 -0.017529331 0.01296751 0.012378088 -0.014225171 -0.0049721836 -0.017111123 0.0065119546 0.0039749593 0.015815085 -0.007954255 0.016219888 0.009688322 0.003044152 -0.010857702 0.00044885706 0.00796703 -0.005760932 0.005512287 -0.0013674477 -0.013081674 0.01729072 -0.0167682 -0.0017528109 -0.0069278823 -0.004687831 -0.016804442 0.009946877 0.012210495 0.008920485 0.006484909 0.016317971 0.009917984 -0.015354292 0.017227065 0.015910067 0.0020852494 0.00228911 0.005862315 -0.0028152468 -0.0019497745 0.013445382 0.008893356 -0.01609681 0.013468702 -0.0014711024 0.016095093 -0.016227543 -0.015530359 0.009838652 -0.007649703 0.007831161 -0.0062513887 -0.01329507 0.004124373 -0.013494388 0.0013724588 -0.010621031 0.0074356543 -0.0068380944 -0.011257698 -0.01609748 0.008327821 -0.015779538 -0.0121155875 0.0036343592 -0.009769176 0.007531992 -0.013141213 -0.016214237 -0.0059537697 0.004485299 -0.00299739 0.01750729 0.015023075 0.0053719073 -0.0004530464 -0.009056881 -0.009707768 -0.010902299 0.015945071 0.014283524 0.017073853 -0.009902522 0.0135953985 -0.013604069 0.005899449 -0.01596964 0.017813288 -0.013663967 -0.009625112 -0.0071692746 -0.0054184734 -0.0044882 -0.0076284306 0.0035049852 0.008488047 0.015520797 0.004368116 0.01257858 -0.011680086 0.01416273 -0.01227056 -0.0037190043 -0.015689164 -0.015045856 -0.004112363 0.0008189125 0.010749262 0.01713099 -0.014662403 -0.012529437 0.013061652 0.0052923774 0.0031958797 -0.008045519 0.015448886 0.009046465 -0.014676054 0.004627609 -0.017732799 -0.005215015 0.0052586542 0.016982073 -0.011088861 -0.0041998564 -0.0139506105 0.010161068 -0.012542125 -0.008441872 0.008526623 -0.00516582 -0.015659556 -0.0057195597 0.0071436106 -0.004007629 -0.01760937 -0.010953552 -0.0150733385 -0.006314161 -0.0019494956 -0.0035130787 -0.00038072682 0.0026613518 0.0070299488 0.014077194 0.0052611446 -0.0069352626 0.015233415 0.00985327 0.01645606 -0.0027040287 0.014787896 0.012447375 0.0077654086 -0.0043042153 0.0063067465 -0.015618691 -0.0019912445 -0.0033367726 -0.0073613934 -0.015906122 -0.010682064 0.007418156 0.009152845 -0.006356493 0.014837692 -0.004640275 -0.016593685 0.01692912 0.0027621475 -0.004260453 0.0042146193 0.016129447 0.0036029818 -0.01694765 0.0021901089 0.013129893 0.0045867013 -0.012003256 -0.0060858773 0.0024393862 -0.0073119467 0.0033847138 -0.012055455 -0.011286402 -0.008404117 0.0127785485 0.0014816438 -0.001870132 0.011406358 0.015592446 0.009040288 0.008466768 0.014353029 -0.0069032973 -0.0033741 -0.017380306 -0.016956381 -0.008960607 -0.011680533 -0.006979323 0.0017861831 -0.013743182 0.017352536 -0.006423363 0.0067719333 -0.011718533 0.0020856475 -0.012731072 -0.015619719 -0.01617705 -0.008331016 -0.0017463246 -0.009137292 0.0012614727 -0.00942031 -0.0077507393 -0.016131658 0.01247722 0.0062373583 -0.0054765646 -0.0038162556 -0.005235104 -0.010858843 -0.012398754 0.00755715 0.0025771686 0.0025525903 -0.0025709316 0.011261038 0.004878389 0.0048014545 -0.0047424077 0.007079495 0.01693523 -0.0034327444 0.009279847 0.012665455 -0.013295738 0.013042246 -0.0044297474 0.0075721275 -0.0023426905 0.0065577137 -0.010371243 0.0148014305 0.014145963 -0.01739856 0.01713751 0.0023795515 0.016646635 0.0111545455 0.008205503 -0.010126549 0.008376967 0.017395258 0.0012478275 0.007884782 0.008497233 0.001034956 -0.00673666 0.0045039016 -0.013510402 -0.0046508657 0.015223868 -0.011956641 0.003919295 0.015387717 0.0067081987 -0.0124307135 0.0023773313 -0.011260534 0.017648334 -0.0037031006 -0.012612865 -0.00054232776 0.015430478 -0.005541708 -0.010379321 -0.0068994486 0.010401795 -0.0056800186 0.008291079 0.0076037818 0.017725721 0.009401743 -0.012781734 -0.0055158692 -0.012839269 -0.01678609 0.008308268 -0.0032336968 0.00742973 0.013082939 -0.012194802 -0.01073818 0.013943764 -0.007972939 0.015554118 0.0061013657 0.0074594854 -0.008264929 -0.0044936836 -0.00047523424 -0.0067751026 -0.0040833973 -0.003975941 0.002043818 -0.012223306 -0.016318962 0.009439284 0.0068818186 -0.0031853192 -0.0018654807 -0.0039551537 -0.0026004124 -0.006881567 0.009339546 0.007943865 -0.0025745162 0.011353994 -0.012471304 -0.008628765 -0.015105246 0.005078097 0.01101598 0.012153364 0.016859315 0.01180179 0.0043240427 0.017585069 0.007347565 -0.013310435 -0.003387713 0.0058580874 0.011692608 0.016962612 -0.005299564 0.010823614 -0.0111068 0.0014377343 -0.008626545 -0.010663269 0.011231459 0.0063445144 0.013405534 -0.006654167 0.007918978 -0.009842369 0.015102879 0.01775795 0.0057202326 -0.016867109 -0.0070246398 0.0034524524 -0.0127843665 0.0019539446 -0.0060886103 0.016048355 -0.0043335473 -0.015532258 0.0075550145 0.0027064832 0.010176665 -0.0025125828 -0.006641214 0.014950775 0.0040102242 -0.017360657 0.003355282 -0.0033760902 -0.015084099 0.014680995 -0.01248633 -0.017242528 -0.011418735 -0.0021537095 -0.0160228 -0.0026410776 0.010872475 0.0005015476 0.0095240325 0.0029212239 0.010565222 0.0049170386 0.013385479 -0.0047198515 0.001611716 0.011855413 0.005153488 0.0075641936 -0.01255802 -0.015152253 0.00387546 0.016391149 -0.012599428 -0.014364881 0.0041204393 0.014933829 -0.004581458 0.0142234145 0.00013945784 0.0011921909 0.016247747 0.00081493816 0.00094314775 -0.010212517 -0.009540329 -0.0034237378 0.010850143 0.012215904 -0.010318723 0.013215655 0.0013621513 0.0038487893 -0.0003565465 0.0066035306 0.0040572374 -0.00416463 0.012069089 -0.012018602 0.016096141 -0.004824679 0.011997459 -0.010513431 0.00024457063 0.010988063 0.014961921 0.010029715 0.003725252 -0.006030564 0.0071123843 -0.0012094826 0.017385345 0.0030068692 -0.008925459 -0.006185366 0.0011211187 -0.0104955975 -0.00088027975 -0.0016162609 0.015380937 -0.004820262 0.015021721 0.014021989 0.0048172222 0.014155574 -0.007807911 -0.0063095926 -0.00040880698 -0.016811734 0.010480536 0.016731143 -0.000976669 -0.0134684555 0.007853344 -0.010413398 -0.001655253 -0.004460967 -0.007555566 -0.0035922977 -0.0020658034 0.0083333645 -0.013588342 -0.011484768 -0.008833287 0.006365572 -0.014886137 0.012337649 0.010477152 0.017527787 -0.0073949657 0.006133855 -0.0022927248 0.0074254787 0.012096901 0.01697836 -0.0036400452 -0.0032133185 0.0066277324 0.015604429 0.012034121 -0.01244693 -0.016348958 -0.0034194272 -0.012498326 -0.0008856995 0.016117433 -0.012742769 0.0012681463 -0.009975527 -0.016448818 0.0022924566 0.015746826 0.0043374985 0.007934024 -0.013098998 0.011540288 -0.017236585 -0.0103664445 -0.0011579416 0.016146675 0.015430392 -0.01224702 -0.012888564 -0.0029725668 0.0063262414 0.015255058 0.012288388 0.015662793 -0.010826433 0.0023861912 -0.01595485 0.011913341 0.0021394365 0.017686969 -0.0004462898 -0.011179669 0.013621073 -0.010891596 -0.011442116 -0.010163352 -0.010744596 -0.013426848 -0.014577515 0.01649627 0.004219204 -0.016354028 -0.017483199 -0.0040257215 -0.0126353465 -0.008246158 -0.007954923 -0.00063939823 -0.014313002 -0.0017280686 -0.006776793 -0.008928444 0.012854213 -0.0022943958 0.015724322 -0.0058795516 -0.014791685 0.0064841765 -0.010632307 0.004613945 0.003306357 0.0074712955 -0.005992579 -0.015988223 -0.010381099 -0.00960908 0.009582309 -0.012073947 -0.00076338014 -0.012300839 0.0047442787 0.01607655 0.00020003958 0.009378046 0.016437776 -0.014557916 -0.0085873455 -0.00277641 -0.009533389 0.0008820828 0.01390226 0.015070588 0.01767103 0.01629797 0.006489684 -0.0057737064 0.011237846 -0.016955193 0.008720186 0.016774913 0.012871426 -0.015411476 -0.016628886 0.014977539 0.012320357 -0.0056667225 0.017768811 0.009326867 0.014708326 0.013509634 -0.007654067 -0.008282519 -0.0025396731 0.0024274546 -0.0044047195 -0.0050167637 -0.00763342 1.4390265e-05 0.0076898956 -0.011201857 -0.003561384 0.011492457 0.017613402 -0.009581564 0.009428097 0.0043029534 -0.0068534785 0.01477233 0.015360237 -2.1840847e-06 -0.0053887647 0.010408964 0.016321268 0.0012604084 -0.0021833396 -0.009511499 -0.010087584 -0.0029077425 0.011263016 -0.002669937 0.012028054 0.014111888 0.0017396213 -0.005424187 0.004439731 -0.0037272745 0.003956035 -0.0022591078 0.0008429119 0.011004302 0.010760723 0.005380799 0.0034446653 0.0070854835 -0.0061317557 -0.0143562965 0.0058592306 0.0062162625 0.00533029 -0.0023911363 0.010107081 -0.012771505 0.0069817966 -0.006918499 -0.012978923 0.007535047 0.006290332 0.0085602235 -0.01638799 -0.0035668379 -0.013360107 0.00056071155 -0.016697204 0.005100538 -0.008817903 -0.012210912 0.008694902 0.016421016 0.007567921 -0.00467941 0.0024000003 -0.009373959 -0.008710257 0.0019538724 -0.0077121155 -0.0047113597 0.0088062715 -0.005278707 0.0035101539 -0.016061006 -0.01208232 -0.0085636405 -0.0022000012 -0.010366524 -0.016038425 0.0057914536 0.013755275 -0.013300405 0.008633903 0.012723817 -0.016609617 -0.004787728 -0.004191141 -0.017689787 -0.014768062 0.007308077 -0.0030508405 -0.010934415 -0.015918462 -0.01289342 0.0072693275 0.015487467 0.0005739438 -0.0020320502 -0.00992513 0.0026156649 -0.0068159364 -0.016563784 0.01634776 0.016622715 0.004156783 -0.0039317673 0.0060978895 0.0108998595 -0.0019613677 -0.007063338 0.005556041 -0.016560104 0.017566988 0.016019966 -0.016545465 0.0003994831 -0.0035157185 -0.014598952 -0.0024292725 -0.0050933063 0.017650954 -0.006415506 -0.0037945383 0.008780956 -0.0051760334 -0.014963368 -0.0012476381 0.006949825 0.0054482906 -0.007703794 -0.014864852 0.017110506 0.008101746 -0.016270738 0.0030332955 -0.0053390865 0.013232921 0.012105551 -0.008281095 -0.01202931 0.010462103 0.01508587 -0.004977348 -0.0042433934 0.016390566 0.0057056164 -0.011061618 -0.011006671 0.0035087275 0.0053245258 -0.0052703875 -0.009122847 0.017356563 0.01575234 -0.0012785111 -0.0043938267 0.012068261 -0.013980688 -0.0032585242 0.0049785315 -0.0034223157 -0.015496356 0.0063690143 -0.014570375 0.0031687277 -0.01580998 -0.015080953 -0.005021255 0.007891055 0.015603547 -0.008627815 -0.0005352412 0.008000872 0.016601719 -0.007830772 -0.0062475954 -0.007475466 -0.0016179043 -0.013777997 0.011716111 0.011305696 0.0048733996 0.0023543027 -0.0012697387 0.008574426 0.010158941 -0.004041472 0.016026413 -0.011098145 0.01417992 -0.0084287785 -0.0052881627 -0.0054074912 -0.001871158 0.015285688 0.0095188115 -0.009373361 -0.0020574694 -0.008941423 -0.005013792 -0.0059625637 -0.004598062 -0.0067674373 0.011096523 -0.0076611494 0.016898949 0.008311596 0.011117559 -0.013938996 0.0057254075 -0.0133878635 0.016749103 0.01717902 -0.006428095 0.0006638489 -0.012689981 0.017500874 -0.004086335 -0.0070894426 -0.014605964 -0.005464782 0.006606558 0.0021026477 0.003373159 -0.0032278576 -0.012247752 -0.0039002728 0.012355926 -0.016567916 0.00020305814 0.014781145 0.010718701 0.013142599 -0.004362694 0.014576264 0.013852346 0.01631423 0.0131295305 -0.01593922 -0.013952713 0.011548143 -0.014841442 -0.008129391 0.0017135591 -0.009710431 0.009311257 -0.0060045486 0.011035579 0.0029723283 -0.00418348 -0.011851573 -0.003063381 0.014809303 -0.01281201 0.01773658 0.007465733 -0.0038628303 0.016494825 0.016570335 -0.0177399 0.0022909024 -0.0058407104 -0.0021506974 0.016973555 0.008032067 0.009738958 -0.0015536313 0.014915654 -0.0075921398 -0.0017576687 0.017754521 -0.0038595798 0.0047093015 -0.007427067 0.010197042 -0.013318122 0.015942533 0.012127722 -0.0143500315 0.008760127 0.01687934 0.014278287 -0.0015759575 -0.0038802433 0.0043155723 -0.0026670569 0.008204415 -0.0038262906 0.0056723934 -0.012526583 -0.0040311944 0.017623374 0.0063346243 0.011770856 -0.0075514065 -0.011158393 -0.011560792 -0.013920395 -0.0064215916 0.010570693 -0.0019079065 -0.006928689 0.008099807 -0.0026335525 0.0051069856 -0.008123164 -0.012422443 0.015546312 -0.0003691316 -0.009871822 -0.011042361 0.0080237985 0.0030938813 0.0020690071 -0.0050929063 -0.005357074 0.00037722717 -0.0103850365 -0.014187405 0.012926947 -0.014987914 -0.016460672 -0.01278786 -0.005707017 0.017269857 -0.007926933 0.01729324 0.016364971 0.007837421 -0.010345257 0.0061774193 0.0020613566 -0.01144051 -0.015341319 -0.014081977 0.013444552 0.004020755 -0.00036807574 -0.0152438115 -0.0013558887 -0.0042898147 0.016047431 -0.004848023 -0.0061247246 0.0086802095 0.0017589672 -0.011996623 0.0024353373 -0.01283816 -0.017750625 0.0042616026 0.011276425 0.010210052 0.0023833364 0.007975161 -0.006229918 -0.0028441316 -0.0010204273 0.0045135855 0.014899293 -0.006141497 0.014393829 -0.003372299 0.008029133 -0.004478836 5.8831916e-05 -0.012794825 0.007847946 -0.004251172 -0.012431441 0.0039309436 0.01561897 0.0024835723 -0.013671678 0.016431345 0.008168919 0.0044400822 0.012550306 -0.00061895594 -0.01709228 -0.015396057 -0.010337372 0.0135291675 0.012457243 0.0043461686 -0.017423857 -0.00018992383 -0.0063536637 -0.007595537 -0.008375128 -0.016119191 0.015830316 0.002864227 0.003493207 -0.00953239 -0.002876118 0.0064893817 0.0061734365 -0.015792254 0.011376975 -0.0013460986 -0.0050386214 -0.012642699 0.001084547 0.010008737 -0.002038841 -0.011016863 0.009006837 -0.000864029 -0.014271871 0.013222263 0.012350562 0.0036718124 0.0039050388 0.015628686 -0.010425206 0.0047849016 0.003578512 0.00031532775 0.012366376 -0.014928691 0.011730944 -0.014854707 -0.0018070745 0.017841456 -0.013346258 0.00072132907 -0.017821614 0.0059844726 -0.011527798 0.0033991444 -0.012161415 -0.01383257 0.012105544 0.008961482 -0.009616954 0.0057198917 -0.0050548785 -0.014482167 -0.016083771 0.009694076 0.011488166 0.008493032 0.015634496 0.00071553676 -0.01379226 0.011658228 -0.0071091633 0.0018021828 0.015984854 0.009785846 -0.009965895 -0.0067528873 -0.01248185 0.013901139 0.008291155 0.008036014 0.00691713 -0.011179132 0.013420967 0.008318573 -0.013060043 0.00045347217 -0.010790478 -0.01258129 0.011778532 -0.0010323483 0.004085645 -0.00390294 0.006083018 -0.011593298 -0.00021320583 0.009302182 -0.015512578 -0.010132059 0.0030753785 -0.012260582 -0.016366223 -0.0124591235 -0.006660615 -0.011531245 -0.013928282 0.011618685 -0.009692669 0.014782849 0.012723772 -0.0042074346 0.0062128818 0.015528841 0.00060723297 0.015991218 0.016613116 0.012367076 0.0070299767 0.0076223277 -0.010369165 0.014931424 0.013613058 -0.01586479 -0.0035892578 0.014677123 -0.0012502372 -0.011272601 0.013190006 0.00524413 0.010202593 -0.004814097 0.015280307 0.017089762 0.008000051 -0.0044852793 -0.0130292885 0.0041774046 -0.012870012 -0.009174143 0.014349725 -0.013229494 0.0044814902 -0.0036592507 -0.0037490535 -0.012767932 0.008348152 -0.012184603 -0.007740466 -0.000775631 0.012965 0.008066301 -0.004996413 0.004606073 0.012059996 -0.016474023 -0.0025406652 -0.0088801 -0.01274288 -0.008393316 -0.015446657 -0.0069285952 -0.0140676955 0.009711002 -0.0014706127 0.011219112 -0.0024029613 -0.008231264 0.014527151 0.0060948585 -0.0036330246 -0.01348341 -0.010494609 0.01287027 -0.010564534 -0.009510785 -0.009340374 -0.0122979395 -0.0028741085 0.0042440426 0.0038532596 0.0057998453 -0.007360416 0.0064116525 -0.01576149 0.002409339 -0.0008610679 0.011319446 0.0118761705 0.017264033 -0.012510877 0.00068562373 -0.016338829 0.009739518 0.013195002 -0.01739603 -0.007669649 0.017457595 0.007899451 0.0059434627 0.013223583 0.0108785825 -0.0036733877 0.01072413 0.0012477211 0.011237754 0.011836419 0.008993367 -0.013036466 0.015803128 -0.0073053096 0.01650272 0.01414625 0.008610415 0.014691124 0.0069303177 0.015848314 0.0010684389 0.008978723 -0.006875277 0.005500221 0.011142899 0.0042313933 0.008763835 -0.005541476 0.0010756744 -0.012213362 0.008382832 0.01685446 2.0020776e-05 -0.0014845197 -0.014162005 -0.0067753517 -0.0055530267 -0.01736173 -0.016982717 0.00094934664 0.008758513 0.012051574 -0.0154907815 -0.008596395 -0.011092803 0.0023616957 -0.013308821 -0.010445487 0.007215762 -0.0060073035 -0.005064841 -0.008482633 -0.0008953172 -0.0006995393 0.00021406371 -0.005835176 0.006746969 -0.0076117073 -0.0053742467 -0.0022875434 0.016688123 -0.008357789 -0.0069498764 -0.007930179 0.0058131646 -0.0035088065 -0.008038006 0.01239054 0.008640885 0.0005517666 0.0021795079 -0.014176067 -0.0038347926 -0.0043085665 0.0075948136 0.008481037 -0.016952671 -0.012321886 -0.007969963 0.009639302 0.007878078 -0.0073083453 -0.00234308 -0.008698455 -0.0021948367 0.012167844 0.0056792116 -0.011366979 0.013185646 0.0017331882 0.013638529 -0.013791556 0.017658055 -0.00018458707 0.0012210183 0.0038242044 0.014738958 0.0058933008 0.004671542 0.011988683 0.0014411467 0.0075629656 0.015949715 -0.0035693925 -0.015127302 -0.005882676 -0.008847248 -0.0131648015 -0.0137138795 -0.0010139112 -0.007398014 -0.0007271895 -0.013738854 0.003619241 0.009000097 0.017395867 0.002545987 7.7328514e-05 0.015757386 -0.0021354258 -0.008269459 -0.005764423 0.014886538 -0.0016861963 0.015437137 -0.0013622345 0.008884034 -0.011723253 0.0065981513 -0.003205423 -0.014208094 0.002370362 -0.0005430643 0.007382238 -0.010667946 0.017495075 -0.009143606 -0.001958862 0.0106674945 -0.007651823 -0.017089775 -0.004993543 -0.005176606 -0.008767775 -0.015361731 -0.00076310127 0.017200718 0.00427244 0.0071820556 -0.017785404 -0.0060011833 -0.016709443 -0.004033374 0.014388057 -0.01604645 -0.015703276 -0.0013647826 0.008303553 -0.00034933857 0.00887262 -0.010840031 -0.011790873 0.004723032 0.009237377 -0.005365089 0.0029351735 -0.0141027365 0.002355399 -0.002229563 -0.0031018534 0.016597623 -0.00894995 -0.008272871 0.0049372828 -0.008270836 -0.0077909958 -0.0031778493 0.014796051 -0.012813917 0.008364826 -0.0056509334 -0.01592041 -0.01511534 0.00022743856 0.0011196968 -0.010781044 -0.00913173 0.01322727 0.016665366 -0.0033561802 -0.017119465 -0.009289825 -0.016616952 0.011092217 0.0046176594 -0.013661851 -0.015770819 -0.004740536 -0.004563323 -0.0005214598 0.006736111 -0.008060291 -0.0045685875 0.0053466945 -0.012124498 0.00690423 0.01209439 0.0041652196 0.0074370466 0.012728036 -0.0046143597 -0.008543766 0.013907427 -0.011070499 -0.006346362 0.010010558 -0.014869171 0.016555121 0.0015975238 0.003691448 0.013428767 -0.01300038 -0.0020601815 0.0081424825 0.002286447 0.0026427465 0.015747769 -0.00093173987 -0.0032789113 0.013940589 0.008094835 0.01530155 0.012977873 -0.0052754753 -0.010074499 0.0150395725 -0.00021728448 -0.014893343 0.0099575715 0.0142726675 -0.010295013 -0.00089351623 0.012818952 0.00095250143 -0.0056570577 0.0017344868 0.0061715716 0.0027490281 0.0027194514 -0.003296965 0.008518179 0.0026835056 -4.6140383e-05 0.0062319385 0.015455363 -0.017687231 0.0004239849 -0.015423143 0.00525921 -0.0036708885 -0.012526189 -0.008612985 0.014023949 0.006288795 0.0010225752 0.0008481252 -0.015009653 -0.0077523254 -0.013244749 0.01366622 0.015465254 0.013614319 -0.004811834 -0.012197565 -0.002057991 -0.013704811 -0.0041860044 -0.0038699168 -0.0019568398 -0.0010727304 0.007415146 -0.0100749135 0.0045599043 -0.0009276782 -0.0038570594 0.008598662 -0.0033919024 0.016765995 0.0016738347 0.01730005 -0.010562052 -0.017429024 -0.009226378 -0.0085465675 0.013400336 0.00942163 -0.015250143 0.016886357 0.004694958 0.014460437 -0.008405775 -0.0037280812 0.017422639 0.007955069 0.00770581 0.015214429 0.015652843 0.002973844 0.00976429 0.016329799 -0.006601568 0.014876572 0.0127194915 0.0029366103 -0.013421492 -0.0001820028 -0.0024285275 -0.013289537 -0.0122086685 -0.01611247 -0.017089427 -0.016118217 -0.013644532 -0.0026324072 0.007861579 0.012362218 -0.0038351035 0.010458719 0.0066019404 0.004068309 0.008269004 -0.010467526 0.0061768615 -0.01727295 0.0075717657 0.0057795155 0.011414544 -0.010471526 0.0032137313 0.016157234 -0.004445191 -0.017657075 0.009847495 0.009456298 -0.0074383193 -0.012377878 0.0072258823 0.013120831 -0.0076197665 -0.008580208 0.0073667066 -0.014365942 0.0072836643 -0.0048912894 0.012726972 0.01677569 0.00014239125 0.0066240774 0.011556173 -0.013214601 -0.006027322 0.009784207 -0.0066683954 0.015503699 0.012588214 -0.0077088755 0.01630688 -0.009534826 -0.00029022142 0.00093233376 -0.0076717334 0.012890077 -0.017537855 0.015628347 -0.017456345 0.013084915 -0.011767975 0.016281554 0.0083694225 -0.012234071 0.0071940063 0.005604795 -0.0005273883 -0.007654482 0.017465344 -0.0015567116 -0.006035677 0.016414408 -0.007757945 0.0017490941 0.008192214 0.009652874 -0.016176453 0.00056565023 -0.01749616 -0.00061035156 0.01646706 -0.0018848586 0.01694756 0.01044071 0.0165008 -0.013814179 -0.012240074 0.0018167263 -0.010344434 -0.009413611 0.0050792294 0.017351456 -0.016301816 -0.012966869 -0.0051021897 -0.0074743144 -0.009656087 -0.006735372 -0.015950179 -0.011351827 0.0026127037 0.00727919 0.013689102 0.0011372034 0.014758505 -0.010003746 0.015145956 -0.004094814 0.0040732985 -0.007585909 -0.00081311807 0.015061377 -0.0014501683 0.016001506 0.0053983377 -0.01259178 0.015661387 -0.013512761 -0.011290715 -0.013945048 -0.0134020075 0.004243964 0.0043496876 -0.011300841 0.012068811 0.0015380256 -0.016676579 -0.005315142 -0.0012450304 -0.00790495 0.0124022905 -0.0062619196 0.017817 0.0140225785 0.008791847 -0.007703637 -0.013492812 -0.0015700844 -0.0027494112 0.0009823698 0.0029253068 -0.012284732 -0.0024173602 -0.016259085 -0.016439695 0.0048359185 -0.004860361 -0.012910684 -0.00074696116 -2.5182962e-06 0.008865323 -0.006353334 0.0156788 0.004845413 0.013840678 -0.004950409 -0.0049162703 0.0141280815 -0.017116774 -0.0038138502 1.7072474e-05 0.017653327 -0.0034877127 0.00085261895 0.0068403506 0.012072326 -0.0047502965 0.010313401 -0.008335855 0.009301463 0.00566963 0.0064508575 -0.008227772 -0.013577811 0.007819538 0.016542539 0.015662206 0.0057400786 -0.0172447 -0.0037249797 0.006748753 0.0025000765 -0.016587324 -0.00818034 -0.0005406163 0.014799462 -0.004867047 0.009074867 0.01756109 0.014184625 -0.009800358 -0.0006074629 -0.0013158557 -0.0055793547 -0.015914463 0.002485269 -0.011573912 0.0075573944 -0.012214527 -0.012895872 0.009646803 0.0071097678 0.008855392 0.009722772 0.006772199 -0.017392436 0.0067669093 0.01489432 0.015467272 0.012842713 -0.017594332 0.008524476 -0.00026990048 -0.00031975764 0.0014121342 0.00863741 0.01462912 -0.011366142 0.016275205 0.009157134 0.016156148 -0.011224609 0.016844427 -0.003135049 0.0027751562 0.0047166115 0.012780464 0.0017581455 0.01207773 -0.0077920198 -0.011035856 0.0075961887 0.00045847255 0.016989032 -0.014940912 0.011244283 0.0018211625 -0.009932491 0.012517947 0.012914162 -0.0015232223 -0.0024287999 0.00019341709 0.0008036218 -0.015052153 0.0068073766 0.012098423 -0.014557624 0.00050005957 0.012749938 -0.015854966 0.0042034453 -0.01665165 0.0037259164 0.010090331 -0.014534176 0.007689517 -0.0014077319 0.014609844 0.014234723 0.014710225 -0.003446628 0.00032161392 0.00029778908 -0.01606123 -0.016743232 -0.0148553895 0.012963715 0.016691541 -0.01583051 -0.00012450773 -0.013143895 -0.0054857223 -0.010358091 -0.010156264 -0.014404813 -0.015754998 -0.002045953 0.0034136113 0.010456865 0.0115728555 0.015529716 -0.01727877 0.0025640195 0.003563979 0.0083456915 -0.006777755 -0.0076341485 0.008104887 -0.008703256 0.016927067 0.015493351 -0.006903304 0.0058046286 0.016046772 0.007980868 0.015134169 -0.0022721249 0.016350279 0.006589894 -0.012826977 0.011048017 -0.0023365065 0.013559995 0.016646609 -0.004401339 0.013866489 -0.00979569 0.0072935736 0.01574765 0.009974565 -0.00348942 -0.0004356823 0.005671774 -0.013166811 0.0034082725 0.010164538 0.0026660883 0.0037799883 -0.015083592 0.0035252701 0.011966114 0.013810141 -0.0020216662 -0.0003190211 0.0133449 -0.00206654 0.010162264 0.0006929828 -0.016864497 0.008592757 -0.011612418 -0.009339375 -0.0033359742 0.002541095 -0.013897899 0.010825415 0.00909069 0.014970782 0.0048198467 0.015071118 -0.008130187 0.015552966 0.010089098 -0.008671612 0.0024131155 0.006452835 -0.016788077 0.01347305 0.009803515 -0.017120322 -0.009315545 0.008067472 0.0029317313 0.0009032744 -0.003907983 -0.004259591 -0.0027692872 -0.0077453577 0.016263675 -0.0019539213 -0.009068671 0.013870088 0.0046403473 0.002409271 -0.005995223 0.0019900566 0.0018427139 0.0023334282 0.0028689953 -0.008911732 0.0039758235 -0.016238084 -0.015395318 0.008217201 0.013217197 -0.003985318 0.012232523 0.014634521 -0.0072295796 -0.0020683324 0.010979823 0.0155035565 0.0052069747 -0.017632473 -0.008467862 0.009458098 0.011990181 0.0029958233 -0.0041340613 0.007202266 -0.011326784 -0.005454994 0.004570182 0.0049378406 -0.002626847 0.00092395506 0.0074538784 -0.01589451 0.016184323 0.010192963 0.008263692 -0.01062992 -0.009380603 -0.017587319 0.016366614 0.006627764 -0.012787441 -0.012288437 0.0017988214 0.0075189285 -0.0006447669 -0.015702104 0.004880933 0.013586554 0.008283123 0.011676854 0.0070102154 -0.0014507176 -0.0141261825 -0.016863924 -0.002741203 0.014738617 0.016832596 0.0003782809 -0.0005495846 -0.007421596 0.004357519 -0.012517583 0.01698986 -0.008825739 -0.013260533 0.016859332 0.011878611 -0.010072319 0.016320432 0.014486031 0.01221422 -0.012871424 0.00045890256 0.01478268 0.0022864002 -0.005613144 -0.016550237 -0.010119034 -0.0062810164 0.0055002957 0.011369946 -0.013324451 0.010418752 -0.0038245004 -0.008701399 -0.004026258 -0.0061824345 0.011464392 0.003592847 -0.0076231128 0.005923746 -0.010822663 -0.0036987322 0.015950419 0.0059401994 -0.010033446 -0.01585199 0.009134665 0.010158439 0.014614749 -0.008136015 -0.01604727 -0.0023535746 0.015273214 0.016533306 0.014893912 -0.007763407 -0.00031799293 0.00050370395 -0.0052421778 -0.007340538 -0.008436048 0.010258309 -0.0038875705 6.0058068e-05 0.0032270786 0.0074047195 0.00062038645 0.014206357 0.0005013453 0.0051840674 0.004393801 0.012747446 -0.014968988 0.0116916755 0.0116848955 0.011637541 0.012342462 0.0005705442 -0.00020065479 0.015177355 0.010860375 0.0106746415 0.010148717 0.012061358 -0.002575734 0.010703552 -0.012003509 0.015372269 0.00987117 -0.008978612 0.01407869 0.005221957 -0.010459698 -0.015796257 0.015132092 0.007846979 0.0073175286 0.0050184326 0.014850485 0.0050239544 0.00550943 -0.016970733 0.0060724746 -0.006306344 0.017237201 -0.005187088 0.010156883 0.012091707 0.016486466 -0.00017631907 -0.01258987 0.015115805 -0.0053024953 0.017096797 -0.008827666 -0.011656372 0.010007748 -0.0074293083 -0.0014389264 -0.014774868 0.00017158475 0.011023016 -0.016795238 -0.0004941949 -0.013548394 -0.010766662 0.007180836 0.010797686 -0.007589381 0.013022338 0.008539773 -0.005516604 -0.010516731 0.015454427 0.009970067 -0.01409969 0.0048752706 0.0043210452 0.000762965 0.006001002 0.015044462 0.014607285 -0.0027966544 0.01057841 -0.00068451255 -0.01301767 -0.0010314563 0.005513119 0.0062826877 0.009860014 0.005146414 -0.0008270762 -0.0042068237 0.016295785 -0.00472376 -0.0043928027 0.011591767 0.012216643 -0.0011158288 -0.014963736 0.002504896 -0.0092905825 -0.015348976 0.016406126 0.0063534533 -0.013863091 0.013539074 0.0082474295 -0.012613761 0.009803219 0.00687801 -0.0058147674 0.01344558 0.003946656 0.014496491 -0.014690798 -0.014931248 -0.011521404 0.013661245 -0.0021696538 0.011432693 0.005991851 0.014402035 -0.0014717345 0.00191964 0.001979281 0.01306193 0.007874391 -0.01266335 -0.010625953 0.009173423 -0.014145387 6.562898e-05 -0.0009976221 0.01369645 -0.0072139674 -0.0063406127 0.016010888 -0.00091164245 -0.0021174892 0.0070318496 0.0018797135 0.016227346 -0.007053067 0.01617593 0.0033685928 0.00537152 0.0029978391 0.009678122 0.016815469 0.006493375 0.01101816 -0.014254619 -0.0025310987 0.015707457 0.014610755 0.0022027194 0.0063447403 0.0042864 0.0026337847 0.00031157903 -0.0064692413 0.0066211717 0.006848431 0.002632814 0.01412251 -0.00131272 0.007120582 0.0010123637 0.01404594 0.01291194 -0.00036038246 -0.005962134 -0.006072651 0.008212924 0.0015844278 -0.012233307 0.0026609453 0.009849412 0.016084934 -0.011033574 0.0013229741 -0.00033485677 -0.012933312 0.00094815454 0.013032505 -0.0062806564 -0.010836423 -0.0003366449 0.010462345 0.01690946 0.017175416 0.006817222 0.004323879 -0.0027678588 0.016738528 0.007658169 0.009258545 0.01323734 -0.002352887 0.015838606 -0.016576631 -0.011453229 -0.007700812 0.0073354756 0.008620078 -0.002110426 -0.017628353 -0.0068741636 -0.0039096223 0.0012214546 -0.00284229 -0.017630696 -0.012694213 0.015792605 0.016002035 -0.0150120035 -0.0075907283 -0.016390257 -0.01643592 -0.00396591 0.008423952 0.0038385543 0.016312424 0.014993243 -0.011147679 0.010632794 0.011462974 0.014408749 -0.0038987827 0.006676255 -0.012831108 -0.010233362 -0.0052804206 0.014067227 0.009017969 0.01662936 -0.013323099 -0.0017817596 -0.0036625608 -0.001306006 -0.011112099 -0.008855099 0.0014402483 0.0041473107 -0.013908717 0.011890989 0.008917022 -0.010597485 0.01725973 0.0044688755 0.005048269 0.010526453 -0.011423586 0.00033630859 0.0044945395 -0.0013124177 -0.015959315 0.017071892 -0.017180884 -0.014329228 0.0047856336 0.002134321 0.005518575 0.0012192237 0.013152596 -0.017102042 -0.00651631 0.007601645 -0.004057859 -0.011524329 -0.0097759245 -0.009742392 -0.0040310537 0.008181755 0.012549577 0.010165113 -0.0066861003 0.010374919 -0.0030308708 -0.013142453 0.005742944 -0.00016705267 -0.008784264 0.005735715 -0.008346279 0.011489684 0.014197114 0.009613736 0.015720442 -0.006884954 0.008241135 0.013574196 0.0051778536 0.0077996044 -0.008009622 -0.0061616516 -0.008302653 -0.0039646947 -0.006531609 -0.003704267 -0.0044463533 0.010443973 -0.0048604757 0.010667974 0.017081076 -0.00022658707 0.016855627 -0.010381523 0.0016223129 0.0024652206 0.011268067 -0.017414507 -0.00031778216 -0.01573446 0.0037530172 0.017010821 0.008677492 0.006861789 -0.009356893 -0.012756163 0.012237573 -0.017176216 0.006087235 -0.016895425 -0.011453029 -0.0012528833 0.009941657 0.010304386 0.0003394293 -0.00064626767 -0.009952573 -0.0055084145 -0.0056325304 -0.015765883 -0.0017577113 -0.015664427 -0.010916981 -0.0041773873 0.010282583 -0.0034471285 -0.0143281 -0.0065284567 0.00253853 0.006329441 -0.0033452874 0.017337738 0.004505509 0.017707456 0.01512938 -0.009442264 -0.006425779 0.011791987 0.011264549 -0.0048210006 -0.0052797114 0.014559727 0.010006217 -0.010661856 0.015843002 0.0022175037 0.016045995 -0.00687989 0.0022123628 0.011688691 -0.016461242 -0.0092803715 0.0084839575 0.009744647 -0.0036385104 -0.010222927 0.013814199 -0.0068878047 0.0012823109 -0.0044162935 0.002054274 0.008763812 0.009446419 0.0034788912 0.0125448285 -0.010518598 0.013066054 -0.012752312 0.0035737946 0.014665006 -0.016275171 -0.011719998 -0.008026196 -0.0011311792 0.016637743 -0.009303666 -0.003617883 0.0127318185 -0.0148339085 -0.017385308 -0.017071871 -0.010675816 -0.0007977294 0.0064802812 -0.01594912 -0.0033133691 -0.010948735 -0.0122293895 0.015456734 -0.0057434593 0.017638009 -0.0009438481 0.00085820263 -0.010322339 -0.00901334 0.012186502 0.017032823 0.011288616 0.00063051074 -0.00692199 -0.007240907 0.016218517 -0.012344567 -0.015193748 0.0076326304 0.004048465 -0.013189546 0.013326603 0.00052428886 -0.01556636 0.0065837824 -0.012253913 0.0032827004 -0.016986681 0.0102321105 -0.006465574 -0.0008413601 -0.012515603 0.009389767 0.004790406 0.011414827 0.0117915 0.002015695 -0.014615096 0.0155598745 0.0011205886 -0.014091609 0.015190291 -0.0048566293 -0.017249748 -0.011757038 -0.0034074488 -0.0007430592 -0.016589634 -0.0012211332 0.0056577222 0.011780563 0.015728306 0.0002618794 0.001749341 0.000106807274 -0.015815 0.010105691 -0.01196962 0.00857003 0.012277829 -0.016046263 0.009984127 -0.012195722 0.007415012 -0.009727653 -0.004184991 -0.015326824 -0.005331723 -0.015209648 -0.0033211475 0.013741479 -0.0026751205 0.005484758 -0.010777188 -0.0057180678 -0.002946479 0.010482137 0.0046285437 -0.008628762 0.0046937615 0.00851 -0.00025239162 -0.0043595755 -0.005311108 -0.015719686 -0.0018946083 -0.015768288 0.017309416 -0.0071060723 0.00018307354 -0.016809467 0.00035324696 -0.010860792 0.016849443 0.011551457 0.014738124 -0.01126587 0.014546932 -0.0033647376 -0.016858354 0.013855669 -0.006532878 -0.011459977 0.005381929 0.0059176623 0.01066252 0.014827484 0.004769562 0.0066199796 0.009037614 -0.009050091 -0.0038656488 -0.012899877 -0.016918296 -0.016235013 0.0030477985 -0.013966465 0.0015560368 0.015240887 -0.014641617 0.0067212563 0.016884323 -0.014993725 0.017630449 -0.0011669248 -0.005073326 0.008617734 0.010056062 -0.009109598 -0.0065843677 0.017138591 -0.014634518 -0.017780941 -0.010798482 0.00750969 0.00042621154 0.0048803287 0.017434001 -0.014035719 0.01445152 -0.0169397 -0.0011335037 0.016039789 -0.0017073198 0.009207249 -0.009170515 0.009479523 -0.011707594 0.008344489 0.0024206277 -0.014354602 -0.0072611445 0.0060844743 0.0011926442 -0.0030583784 0.014971008 0.0019171026 -0.0037157899 0.01685023 -7.2781535e-05 0.0032224827 0.005236477 -0.010718176 -0.0039303093 -0.0025292188 -0.00093168876 0.008713657 0.011687173 0.010528765 -0.01095159 0.014484357 0.009527352 -0.017156858 -0.0056686127 -0.009580079 0.010010053 -7.366922e-05 0.008879732 0.00020819904 -0.0071044867 -0.0024085045 0.000991915 -0.0107325 0.016044095 -0.004232471 -0.011642585 -0.0028596225 0.016311817 0.005734225 -0.014778365 0.013516863 0.01503087 -0.006073443 0.012994678 0.0060812216 -0.0069389986 0.0037805568 -0.010213575 -0.016844643 0.008950417 -0.004991129 -0.0017657621 0.005347544 0.011681298 -0.0044707106 -0.0067820274 0.011024467 -0.015796745 -0.017680343 -0.01478944 0.0059082787 0.0042278576 -0.016794246 -0.014660868 0.015437283 0.01613463 -0.0019159914 0.012454385 0.01738032 0.015536379 0.014643404 -0.01711078 0.00649207 0.014518924 -0.0015881105 0.014145316 -0.0018991935 0.010915299 0.008619275 0.012470674 0.008472464 0.011225399 0.015607515 -0.00045544974 -0.0043915557 -0.0070065157 -0.016506586 0.011070112 0.011242684 -0.006463866 0.008855848 0.015939021 0.016594721 0.00015211105 -0.00070174044 -0.008765004 -0.017564867 -0.0071048164 0.016983684 -0.011458681 0.011434308 0.011249894 0.006073435 0.017841896 -0.0070519536 0.016253797 0.0017424929 0.011179275 0.011015067 0.0010543701 -0.0035227134 -0.00514641 -0.013211536 0.012071488 0.009678641 -0.017090254 -0.004980645 0.00087240554 -0.013910241 0.0023795986 0.014990841 -0.0037784749 -0.0077627753 0.00033139758 -0.00072178885 0.0032638484 0.010253692 0.016847989 0.008328549 -9.848816e-05 0.009738097 -0.012985596 -0.0026511701 0.0019227586 -0.0011342658 0.0037367325 -0.0013117791 -0.002470206 0.002751921 -0.0048453854 -0.0037827152 -0.00975006 -0.006836568 -0.0064195143 -0.0108493725 -0.008464639 0.01181306 0.001313333 0.005285979 -0.005556422 -0.004916528 0.008792728 0.015041076 0.0142707275 -0.013719408 -0.009406103 -0.010475225 -0.015859967 0.0035969894 0.015012173 -0.0059944545 -0.001862345 -0.0032230085 0.0069901585 -0.011792926 -0.013837074 0.015068019 -0.00903824 0.009902159 -0.012924139 0.011448605 -0.00567363 -0.012560583 0.016801517 -0.012858977 0.017756924 0.012024165 -0.005150793 -0.007971287 -0.010794063 0.009958091 0.011947234 0.00546234 0.005615154 0.00097331835 0.0062230635 0.0017278558 0.002799871 -0.013513242 -0.014418835 0.005939914 -0.002877623 -0.008813143 0.0054509 -0.008832206 -0.017179152 -0.0023654425 0.01704479 -0.014174779 0.014458058 -0.010027519 -0.0144189475 -0.005342488 -0.010819794 0.016563937 0.008652061 -0.011723766 -0.011313288 0.00033477801 0.0023455664 -0.0037913665 -0.011430596 -0.0057397233 0.012876839 -0.006621646 -0.0059284274 0.008678413 -0.0118757365 0.0042863768 0.01110259 0.015350151 -0.0017141935 -0.0097354865 0.01459423 -0.0027250075 0.007342011 -0.016649228 -0.004350956 0.0064309477 -0.003933528 0.006934413 -0.015765954 -0.017022114 -0.012751586 -0.012860077 -0.01671549 0.0044363206 0.008669177 -0.0054684537 0.0011040866 0.017291129 0.00805739 -0.014534849 0.0002750499 -0.0085833585 -0.0172962 0.0029628726 -0.008304511 0.008630928 -0.011999752 -0.016709052 -0.014755603 0.0030517282 0.0041921567 -0.0006258445 0.0038475567 -0.00066790415 -0.0070854877 -0.0034755152 0.0006222853 0.00072755135 -0.0066353935 -0.0044448227 -0.008949923 -0.010862398 -0.0006966868 0.00957264 -0.015180033 0.0041001868 0.00690109 -0.0057148277 0.0046099573 -0.014845257 0.015679104 0.014582309 0.004292584 0.0009410978 -0.0017424546 0.003317567 -0.011745522 0.015192606 -0.0024870508 0.009835735 0.006513717 0.0028447318 0.003734278 -0.016046412 0.01404522 -0.006025887 0.013093883 -0.006073252 0.0009291683 0.005182724 -0.004196925 0.006526215 0.0003844351 0.015541982 -0.0074403053 0.016829684 0.006432261 -0.005522943 0.013391125 -0.009353038 -0.002734806 0.006758982 -0.015593649 0.0017658409 -0.009332526 -0.0065121567 0.0078344755 -0.0076786815 0.010138953 0.009988745 -0.0030136683 0.00039517242 -0.01775803 -0.003367914 0.013554665 -0.0046659606 -0.017424995 0.0030100986 -0.0126661705 -0.017076366 -0.008801891 -0.0012703028 0.0071686255 0.01436726 0.007050519 0.012798077 0.010440404 -0.01494195 0.017171675 -0.016533501 0.016976994 0.0079478435 0.0045754104 -0.010885377 -0.012546118 -0.0135789225 0.0022444534 -0.0116669545 0.014041375 0.017747505 0.017569661 0.008638412 0.007180438 -0.0033039558 0.006517315 -0.003441402 0.016739253 0.0136768995 -0.017693821 0.013494539 0.013138938 0.008633454 -0.0017248563 0.010994957 -0.013952864 -0.004309103 -0.01367052 -0.0058198576 0.015538482 -0.014914013 -0.006530847 -0.0018680501 0.0011280201 0.01635909 0.010261653 0.01635683 0.016594797 0.01724736 -0.0072364383 -0.0042599677 0.013762189 -0.003174799 0.014302995 -0.0073155337 0.010496015 0.0066896915 -0.014522474 0.007551713 -0.016621795 0.0079997955 -0.014990237 -0.007437451 0.0062995213 0.007703545 -0.0029684561 0.0019694269 -0.0036894446 -0.002297525 -0.015513693 0.013944857 -0.0032133015 -0.0037280046 -0.004888262 0.013710727 0.01772302 0.008141375 0.0107308505 -0.0045640087 -0.011017602 0.00498754 0.017448027 0.0060609155 0.005267744 0.0053246343 -0.016284019 -0.008755987 -0.017203132 -0.0064047 -0.007975232 0.010575968 -0.013378329 -0.008630408 0.009102892 -0.0044216067 0.008606735 -0.017528404 0.003867422 -0.00266886 -0.00074658653 -0.015808675 -0.008321971 0.0061808615 -0.00036802463 -0.011081343 -0.00083751767 0.014195594 -0.010234403 0.0076772873 -0.017697228 0.012896289 -0.015086536 -0.0013585837 -0.010122102 0.0049067885 -0.0038247493 -0.013045822 -0.0072578364 -0.012363867 0.0021188047 0.0113915065 0.0072334134 -0.014819075 -0.009608901 -0.003054238 -0.002759608 -0.016784502 -0.0007731936 -0.013386706 -0.0059345686 -0.0077705663 -0.014603349 -0.0023569807 -0.016705317 -0.014524784 -0.017108137 0.0028461092 0.013080103 -0.0062603676 0.015382067 0.0030956313 0.004365917 -0.012019018 -0.007622153 0.013111634 -0.013774209 0.016588537 0.015914226 -0.0039475434 0.0008581004 -0.004404217 -0.0151120005 -0.01278385 0.009284252 0.003271533 -0.0014332491 0.014210593 -0.013427924 0.004878491 -0.0027159965 0.010344659 0.01399337 0.015035869 0.009989417 0.012451352 0.010444682 0.015146096 -0.016289748 -0.0006806255 0.01400781 -0.01090913 0.012946125 0.0070607327 7.826516e-05 0.009511871 -0.009649439 -0.0029015457 0.012204205 -0.012209022 -0.005909324 0.010891906 0.012730582 -0.0038493043 -0.0050947713 -0.016205017 -0.011173504 0.015402852 -0.0033749386 -0.0025993842 0.011538659 -0.0057792473 0.011241856 -0.014492114 -0.011375905 0.0069513046 -0.0073674815 0.017053256 -0.015767563 0.00051668286 0.012384911 -0.0061871433 -0.010473673 0.0061688363 -0.014048669 -0.0031937042 -0.0021570262 -0.0049356096 -0.0063806563 0.013735723 -0.0036234623 0.012937333 0.0017533494 -0.0022556272 0.001860938 0.008121152 0.010869158 0.001898193 0.010033256 -0.0048971265 -0.0131400805 0.0037061106 -0.017400585 0.015484463 0.010680738 -0.0033540514 -0.012624522 0.014808578 0.015486293 -0.008149831 -0.016331486 -0.01134606 0.00025187648 0.008970103 -0.00427714 -0.0067702834 0.012094292 -0.006788131 -0.00079669274 0.0020971065 -0.0012862044 0.014298344 0.016850257 0.0032919648 -0.010897601 -0.015403716 0.017202584 -0.015674494 0.00902312 -0.00789759 0.009582524 -0.013504542 -0.008912477 -0.00836656 0.015322776 0.009389486 -0.008616859 -0.0074646156 -0.0070582484 0.009198604 0.013768957 -0.009465461 -0.007016672 -0.013083712 0.010772887 -0.0062990147 -0.009489643 -0.010890336 -0.0007283922 0.0061684763 -0.016093722 -0.015367622 0.009666744 -0.017129175 0.009294367 -0.013573268 -0.011420167 0.0057721715 -0.008315861 -0.005527637 0.0073501235 -0.009767226 -0.0114633385 -0.013924399 -0.015553735 0.012016235 -0.009021414 -0.009052107 0.013658258 -0.012208698 -0.013342625 -0.011676154 0.0074192863 0.00026716507 -0.00066233746 0.007761008 -0.016297087 -0.0039935326 0.004731683 0.004070069 0.016563816 0.013440784 0.006145703 0.012825211 0.012959528 7.094869e-05 0.017555311 -0.0048394054 -0.0020008385 0.008288279 -0.0004656315 0.0046175825 0.013859104 0.0011432895 0.011975342 -0.0043733143 0.007854332 -0.012124686 -0.005543458 -0.014503235 0.00849951 0.0067311977 0.0063670236 0.011555017 -0.014103354 -0.011399608 0.012486529 -0.0016772024 0.011181775 0.010161183 0.011101247 0.009304697 0.014247228 -0.014073594 0.008310718 0.0010782395 -0.0069467514 -0.004718368 0.010536011 -0.0018622705 0.01161692 0.003306568 -0.008309101 -0.0028547668 -0.0038760817 -0.01327715 0.012289314 0.0031133892 -0.009071255 -0.007300841 0.017797766 -0.013104299 -0.016983721 -0.0032047736 -0.0013253306 0.012598087 0.0011766149 -0.012623639 0.0165991 -0.0019728797 -0.017209869 0.010291064 -0.014489223 -0.0014553198 0.0024402398 0.015061752 0.013325007 -0.015404293 0.004286266 -0.008937362 -0.0064400267 0.012679107 0.0022654918 -0.012627558 -0.0050227838 -0.014646215 -0.012576644 0.010541614 0.0087256115 -0.014915414 0.0070003998 -0.005380588 -0.00077628455 0.012744008 -0.009196514 -0.014744836 -0.0008764544 -0.017399764 0.0037923884 0.0014696441 0.012081181 0.0100172125 -0.0009689246 0.017111361 0.013812662 0.014018121 0.0007728573 0.0042095804 0.0066594486 0.015312534 0.010426081 0.0058865123 -0.013281633 0.00906933 -4.1855234e-05 -0.0020750314 -0.0014329447 0.0076239156 -0.007717552 0.009002571 0.009763567 -0.005858032 -0.0037805163 0.015003199 0.00185773 0.0137459515 0.01697973 -0.0067028194 0.010568739 0.013538564 -0.00268725 -0.0074366825 0.006914035 0.010715496 0.015214135 -0.012150731 0.0039029592 0.0028275424 0.00234394 0.0058366107 -0.010812355 -0.015236117 -0.01600371 -0.0060566156 0.0060928976 -0.01259389 -0.007190613 -0.009603109 -0.00037689935 -0.009842356 0.0084134005 0.0066660517 0.0036761358 0.0066422247 -0.0026191836 -0.0013010034 -0.00037053015 0.011455 -0.013573575 -0.006177387 0.005637408 0.006544301 0.015796926 -0.005711111 0.0031483537 0.013861904 -0.00537622 -0.017234309 -0.00894174 0.0028376325 -0.0018837793 0.013375764 0.017756745 -0.0021794972 0.006319896 -0.0032643166 -0.014393049 -0.016258469 -0.016371433 0.010907752 -0.01599429 -0.008081903 0.013684214 0.011377295 0.014712704 -0.009818327 -0.0014040087 0.010011588 -0.004559728 -0.011071142 -0.008454347 -0.014061454 0.00228329 -0.010499899 0.0075065326 -0.01660412 -0.015083652 0.0050076395 0.0022926417 0.0057301437 0.012987171 -0.007236347 0.006657765 0.0077758096 -0.015408759 -0.004057052 0.0010195374 -0.0024809944 0.017402185 -0.0157703 0.0015875293 0.012018253 -0.0010427195 -0.009449859 0.0055243885 -0.0077924794 -0.013835903 0.0126976315 0.011899284 -0.0136023 0.004030326 0.002720435 -0.007197106 -0.0017932015 -0.014095405 -0.010464805 0.012427045 0.01230006 0.002339774 -0.0129460525 3.589477e-05 -0.008938057 0.013111505 -0.01473015 0.017603366 0.009935658 0.0014615038 -0.008469793 0.0061589056 -0.008824249 0.0072344905 0.00039331618 0.011667116 0.017185364 0.010084934 0.017438436 0.008571674 -0.007971547 0.014023356 -0.012366044 0.013278553 0.014764544 0.011921174 -0.017804004 0.00082304224 -0.011616216 -0.015471789 -0.0041967994 -0.002353219 -0.012792186 0.0076456117 -0.002420896 -0.011941774 -0.015571959 0.010537212 0.014926577 -0.005832547 -0.0030636194 -0.009865246 -0.0021117032 0.010068608 -0.01666542 0.017413674 0.010487768 -0.017091064 -0.0017553526 -0.0101593165 0.017810432 -0.0098505 0.014171916 -0.007540718 0.013244499 0.012946845 0.010935584 -0.006589958 -0.008363247 -0.0145908985 0.01712666 0.014537041 -0.014226388 0.011698131 0.0020894324 -0.0031670162 -0.013927499 -0.013177098 0.012318442 -0.0060356217 0.009452999 -0.01486708 -0.012445127 0.001553261 0.0065981005 0.015766991 -0.016591366 0.0072800564 0.0082017165 -0.011082656 -0.015444924 0.009130163 0.0059642815 0.0111341225 0.01048122 -0.017836181 -0.0065126144 -0.0023151978 0.01728549 -0.0050513046 -0.017689025 -0.0019501853 -0.0048247855 -0.0036536371 -0.0014794235 0.004335574 0.004543975 -0.0003142421 0.013859513 -0.0068211793 0.009615294 0.00020944008 -0.0033801412 -0.009507893 0.0074734394 0.011811675 -0.00068251364 0.003607073 0.013584915 0.013873179 -0.014137669 0.015529576 -0.014430183 -0.017851558 -0.0048711174 0.005132267 0.015505187 0.012068851 0.00014796216 0.005307743 -0.004471034 0.007418154 0.0062367152 0.011676978 -0.012074942 -0.013098539 -0.0100324815 0.009890544 -0.0061146277 0.0011310492 -0.011746011 0.012327114 -0.0037383034 -0.0076655494 0.0046977787 0.01166517 -0.0029908037 -0.012141022 0.017614042 -0.014648606 0.0015520517 0.0038263523 0.008034873 -0.0110983765 0.012655405 -0.017476227 0.01633872 0.015222999 0.010475774 0.006719762 0.00490817 -0.0017093038 0.01643897 0.011100944 -0.0064571504 0.006103452 -0.011121063 -0.008911502 -0.015938472 -0.012633328 0.014817413 -0.004306602 0.014292468 -0.014622254 -0.009953595 0.0028198215 0.004325986 0.0007887717 -0.014163661 0.011618854 -4.9999784e-05 -0.017702624 -0.015812084 -0.012644202 0.009841344 0.016740093 0.004684738 0.011196477 -0.0020427853 0.0155716585 0.017357446 0.012949849 -0.013770998 -0.0073967623 0.0029330617 -0.012114038 0.010195947 0.0074620377 0.013397776 -0.014552183 -0.008137812 0.0007189066 0.0053156596 -0.0047187447 0.00899839 -0.008526194 -0.0015770347 0.004601549 -0.01036415 0.013666626 -0.013994539 -0.0016530816 -0.016106851 -0.008336668 0.0056987363 0.011978031 -0.013776533 0.007583393 0.0067558866 -0.003108376 0.009424845 -0.012530128 0.015942175 0.008086446 0.0126222735 -0.0018562846 0.01780662 -0.010114234 0.005662914 0.0007112921 0.004671593 -0.013785062 -0.010977701 -0.0013321575 0.017724195 0.0030617693 0.005919178 0.001896573 -0.014857785 0.002353315 -0.017357994 0.007421168 -0.01205299 0.009080317 -0.004386751 0.007896057 0.0076279473 0.01438571 0.008369644 0.007795062 -0.008187631 0.0018880048 0.0011566047 0.015940407 -0.0067570703 0.015438341 -0.004038866 0.012127505 0.005210272 0.0041876286 -0.0045162356 0.016018596 -0.011341262 0.011974091 -0.01645033 0.01078527 -0.009926266 -0.0136071965 -0.0010300492 -0.012522704 0.014889707 0.017248478 -0.0069175386 0.010046381 -0.0019603267 -0.00033304736 0.0064439606 -0.00878863 0.0043142675 0.011291858 -0.01702621 0.0075747226 -0.012783894 0.013166634 0.0020196736 -0.017753264 -0.0045983857 -0.0013390419 -0.0070861583 -0.0111651085 0.01690266 0.0033222758 0.0036632442 -0.015172203 -0.017794257 -0.011688465 -0.016066981 -0.0065141176 0.010530097 0.015447583 0.01639674 -0.014046634 0.006550074 -0.002063264 -0.0017746879 0.005534266 0.008519366 -0.00638085 -0.0048839855 -0.015290768 0.010535485 0.000716748 -0.015579854 -0.014249099 -0.01449793 0.0030862328 0.0042064874 -0.001120825 -0.009452599 0.0031304276 0.008653099 -0.0071085673 -0.0033945995 -0.00038514394 -0.009695753 -0.012068839 0.0065318965 0.004380265 -0.0017244285 -0.009411144 0.006956122 0.014360337 0.011277823 -0.0036370181 0.013986958 0.004336006 -0.0027472037 -0.01645064 -0.0030686262 0.017597724 -0.00907532 0.016673706 -0.016623879 -0.0012292756 0.0017134931 0.0026305192 -0.013365831 0.01133723 -0.004205059 -0.014234264 0.011801814 -0.0034691843 -0.012618089 0.009066775 -0.017506732 0.00506757 -0.002677811 0.01244859 -0.0063787447 0.015362012 -0.004734746 -0.008055236 -0.012144581 0.0024012243 -0.0025703758 -0.0040088426 -0.017328097 -0.010886906 -0.00088325783 -0.0067144763 -0.016957296 -0.003857487 0.0036107027 -0.0051127994 0.0018099697 -0.005951162 -0.00676666 0.008562041 0.0007760184 -0.011298789 -0.017843822 -0.012916853 -0.009686175 -0.011170975 -0.015866643 -0.0025246188 -0.0026036906 -0.0018609018 -0.01695992 -0.007869493 0.0044435095 0.017360236 -0.009264706 0.012391196 -0.0040288805 -0.017596757 -0.003851763 -0.010899657 -0.0062316214 0.009513206 0.012393183 -0.0138507215 -0.010742814 -0.0036815044 0.0035160547 -0.0077445274 -0.0047471016 0.015012514 0.005139719 0.009533102 0.00058789126 -0.0016503824 -0.005657456 0.012090673 -0.012904308 -0.0005446545 0.0042698085 0.013149739 -0.015500274 0.0034291577 -0.011815814 0.012463114 0.016330084 -0.008425715 -0.004895596 0.0019438204 0.009661596 -0.017012905 -0.00042051717 0.011720902 0.0074645393 -0.008977631 -0.009745124 -0.008308196 -0.016260246 0.0065503973 -0.015137313 0.016500156 -0.016030887 -0.0005298257 0.0009929347 0.008967664 -0.00023260927 -0.0074970745 -0.004506697 0.009170043 -0.0008055355 0.0037426865 0.0055957567 0.0029958892 -0.012281167 -0.010719062 0.0013531767 0.014798258 -0.0016126953 0.0081616985 0.011901956 -0.0035326823 -0.01283837 -0.013193319 -0.0048619276 -0.013817196 -0.0105612045 -0.003623656 0.017735342 0.00031849105 -0.0033729675 0.017476289 0.0017828218 0.007551726 0.0074265474 0.003414563 0.006560813 0.012166175 -0.005960373 -0.015864514 -0.009745849 0.0076497965 -0.005230625 0.0105802035 -0.012470555 -0.011032367 0.0051119775 0.015220536 -0.0052388697 0.0057566636 -0.011388111 0.003339163 0.009698336 0.008492711 0.009180804 0.006398955 -0.0133245485 0.0123810265 0.0042084605 0.011290259 0.0075827544 0.0013580557 0.015845275 -0.0090466235 -0.006401488 0.009858898 -0.0010501061 -0.012922926 0.017266542 -0.007892954 0.0003882817 0.007862175 0.017696079 0.0065310984 0.003344883 -0.00074735715 -0.015057933 0.015348358 -0.007921025 -0.013807725 0.0029918596 -0.0074295555 0.003884818 -0.009568877 0.008122015 -0.016284456 0.0016329971 -0.014091773 0.012388068 -0.004112078 -0.015410964 -0.016559599 -0.009383405 0.005887683 -0.00919998 0.010411406 -0.009979768 0.0022893357 -3.9660506e-05 -0.0043312907 0.01479895 0.007438379 0.0030009577 -0.012478065 0.01149614 0.0092220735 0.01448391 -0.0015729645 -0.0014544768 -0.006029687 -0.0042633503 -2.2975462e-05 -0.01645509 0.013571484 -0.0006110583 -0.011868852 -0.010232304 0.009538081 -0.016063742 0.011482646 -0.010580706 0.009555006 -0.0025659418 0.016002087 0.009169999 0.00067295774 -0.010807128 0.00045898772 0.00058004475 0.0045778006 -0.0072270995 0.0036735835 0.007704501 0.0010587254 0.0029839429 -0.006032148 -0.008541524 0.0022196388 -0.0051627033 -0.010003891 -0.01007869 0.006915753 -0.00046437554 0.0143058775 0.003704595 -0.0077976203 0.009764757 -0.017615909 0.0128652165 0.01570648 -0.004941647 -0.008924193 -0.013395027 -0.0005059242 0.009006624 0.015333236 0.0038312292 0.014443215 -0.001345147 -0.008988349 -0.0034541532 0.0030105158 -0.0028698638 -0.0004824379 -0.010313113 0.002453357 -0.0011495693 0.0145488195 0.013316364 0.006444218 0.0023217842 0.0014756386 0.0055638957 0.011020046 0.017485136 -0.0014245553 -0.01517715 0.011178822 -0.01267935 -0.008275848 -0.004786685 0.0076378994 0.010682947 0.008363043 0.0003375773 0.006197787 0.0031903621 -0.008789048 -0.0027446025 0.0042495965 -0.012250867 -0.014364262 0.015815893 -0.0023772696 0.01010786 -0.0092667965 0.0011708481 -0.0016083505 0.004081154 -0.010537559 -0.0053973007 -0.0051358854 -0.015711244 0.001706645 0.009637427 -0.012018655 -0.01726352 -0.017237455 0.016285906 -0.004134225 -0.00061327434 -0.008200599 0.0052934014 0.007166286 -0.0154909305 0.005580151 0.014619012 -0.01164555 0.016466182 0.008597985 -0.0060361284 0.017602762 -0.016956417 0.016760584 0.010494901 -0.010599795 0.004735236 0.014128264 -0.0047199815 -0.016455565 0.015048434 0.005057742 0.0076971822 -0.0036797228 0.000666231 0.008453082 -0.015105263 0.0017137357 0.0020910972 -0.0018586048 -0.004892409 -0.01483641 0.015042879 0.016762536 -0.014601174 -0.014111279 -0.0038579192 -0.00810613 0.00044290937 0.01150143 0.009231049 -0.017148089 -0.014006743 -0.002111071 0.01581352 0.009083495 0.013419406 0.008757579 0.0033232912 -0.016404668 0.004561731 -0.0119806705 -0.0034219306 0.0001556405 0.016101746 -1.5303493e-05 -0.0017235429 -0.0062908405 -0.0041083377 0.017059077 0.0049476414 0.0043364167 0.0073110657 0.0051625776 0.013569219 0.005723038 0.0026170039 0.0020091897 0.011137803 -0.0034301921 0.0066393423 -0.016833583 -0.008802546 0.0060455417 0.007091033 -0.00043383456 -0.0106385 -0.011795308 0.0015754658 -0.008346662 -0.010407037 -0.017759059 -0.0038741084 0.015085902 -5.7011846e-05 -0.009998335 -0.01428459 -0.005527929 0.0057855058 -0.016941557 -0.001742229 0.008115818 -0.013533676 -0.0027464437 0.0058526294 -0.010755446 0.014771675 0.0153188035 0.010824379 -0.0028635564 0.0065067946 0.0034882152 0.01021508 0.005762354 -0.0023560994 -0.0021767297 0.002458449 0.008086352 -0.009982456 0.006074512 -0.0076979315 0.0026459184 0.01691929 0.014349182 -0.012113112 -0.008092772 0.013645656 -0.0039021566 0.01677246 -0.0063580065 -0.0064295065 -0.0019330723 -0.008153933 -0.008527828 0.0043443935 0.012584378 -0.0054416596 0.007760523 0.005129631 0.016573105 -0.0004661722 -0.0029399546 0.005774309 0.0033140439 0.0032359469 0.0026359197 0.007050072 -0.0010865927 -0.014114757 0.0040119784 0.0014703317 0.015796136 -0.0057764845 0.009782529 0.009076557 -0.011428625 0.013468843 0.00017946107 -0.0052066552 0.002567023 0.006143117 -0.011746869 -0.016281588 0.010029238 -0.016205097 -0.0021063813 -0.007411706 0.01636279 0.014961459 0.015314721 0.0036169824 -0.011398957 -0.00948014 0.005704901 -0.00651231 -0.007481252 0.004985288 0.012708927 -0.01490808 -0.0036984386 -0.0023456388 -0.010455717 0.0019373086 -0.009063727 0.01776343 0.012969752 -0.011262228 0.012358587 0.0057323067 -0.0037700238 0.0077200644 0.003738229 0.013148622 0.011241707 -0.012272548 0.01287547 -0.00999945 0.016123006 -0.01665222 0.01017446 0.005049005 -0.012352529 0.008152968 0.01587469 0.014868123 -0.017797146 -0.0058952486 -0.0067102467 -0.0034404206 -0.017245676 -0.014843573 -0.017603273 0.007725612 -0.006125661 0.013038451 0.0012235472 -0.009909053 -0.0023021528 0.009274579 -0.001896009 -0.014043217 0.002313301 -0.012740525 -0.010355795 -0.010240849 -0.0145968245 0.0028695401 0.0020781353 -0.0025091916 -0.017009452 -0.0019243084 0.0030622887 -0.01027666 0.01645504 -0.0029388347 -0.006835761 -0.015724903 -0.014887195 0.009547468 0.00058293133 0.0053575574 0.011867321 0.0126395915 0.0016295889 0.01631081 -0.010856193 0.0006508317 0.008535554 -0.014567052 -0.012389517 -0.010974661 0.009155787 0.015338496 0.01746605 -0.014633663 -0.00064214855 -0.010664421 -0.016592473 0.00012303464 -0.01701144 0.017006006 0.007641258 0.008461922 0.005660666 -0.007444101 -0.0044118594 -0.0046486515 0.010144187 0.009351215 0.013818656 -0.0008253881 -0.004559877 -0.003647598 0.002296501 0.01529256 0.011451121 -0.016131222 0.0006066263 -0.010214223 0.004825292 0.0047928523 0.008623068 0.016281608 0.009098609 -0.007988381 -0.01677583 0.0018626836 -0.009539362 0.01749902 -0.0057927673 0.0033014226 -0.009363245 -0.016331747 -0.015691815 -0.017617926 0.005864942 0.0027966374 0.01069208 -0.0012348018 -0.009366257 -0.013041514 -0.0065936684 0.0035164976 -0.011525657 0.013975891 -0.013495456 -0.008970156 0.005056592 -0.00020974876 0.0020987904 -0.011296358 0.00867383 -0.0032496902 -0.017278744 -0.008318808 -0.0141809145 0.0121456925 -0.00958567 0.014370159 0.0036719444 0.008555251 0.017093472 0.015500325 -0.0024068952 -0.0029252577 0.011598055 -0.008072238 -0.0011915927 0.003793838 0.013156702 -0.0013924284 0.01579275 -0.014727327 0.01114826 0.0022285986 -0.013098815 0.010720562 0.012167041 0.0014459832 0.016537838 0.0038007628 0.00083961023 0.0056162756 -0.01037769 0.008960659 -0.009836851 0.010143193 0.004808967 0.0063021784 0.007975206 -0.009547194 0.008477201 -0.009658426 0.0035438412 0.009782443 -0.0068676816 -0.00025601048 0.00717436 -0.00922583 -0.013047681 -0.0176441 0.012563757 -0.016238093 0.0028875896 -0.0066704666 -0.004971564 -0.0060357666 -0.013525636 -0.0014726308 -0.009282317 0.0113388775 0.0014918043 0.0028996745 -0.0045799613 -0.012622925 -0.0125445025 -0.002926139 0.003961742 -0.005738599 -0.014647442 -0.0026581523 -0.007928053 0.0026479557 -0.0030954247 0.014418677 -0.0040537887 0.003423874 -0.006365972 -0.0023421135 0.010162954 0.014706902 0.004934247 -0.006032614 0.0071560466 0.013986731 0.0011515596 0.0066894847 -0.0030732306 -0.012087227 0.014785431 0.005653818 0.00033145718 -0.00033476524 0.015659649 0.015802234 -0.011675457 -0.0047651576 0.016813919 0.014660012 -0.007948953 -0.0034018331 -0.0005590256 -0.005374502 0.005231683 -0.013288801 -0.00084125577 0.010815253 0.01287609 0.0011571817 -0.004821652 0.014209833 0.008037454 0.016269559 -0.010749285 -0.008619739 0.0058771437 -0.009033923 -0.012286727 0.014261836 0.0111289965 0.017617656 -0.014353614 -0.016327148 -0.0029956806 0.017668154 0.0012713203 -0.012040598 -0.0051316516 0.001234425 -0.0039872252 0.009169838 0.010905664 0.0026820132 -0.011726416 -0.0014111422 0.014655429 0.016036645 -0.0143043725 0.00034972813 -0.00648056 -0.017384646 -0.0071172696 -0.014875445 0.0008762969 -0.0112467455 -0.013267634 0.00781441 -0.0018552628 0.0029621318 0.0026116052 -0.00810801 0.006286334 0.014592948 0.007353534 0.009838688 -0.0061004506 -0.0025218278 -0.008662475 -0.0048439014 0.003870977 -0.004459554 0.013532709 0.016681012 4.705361e-05 -0.002391894 0.00810039 -0.016150802 0.015878161 0.0009875384 -0.0024810478 -0.0027965733 -0.0066662007 -0.004883481 0.0017395383 -0.00700996 0.016415302 -0.0056513166 0.013624651 0.016240563 -0.0057509947 -0.014734067 -0.010138523 -0.016358834 0.008156607 -0.01159629 0.0065991944 -0.010514332 0.0154855065 -0.013851139 -0.010176746 0.0025021073 0.0036175784 0.016665114 -0.013799736 -0.0011515362 -0.012697165 0.012791853 0.016068025 -0.008781208 0.0090425955 0.0063781273 0.010760257 -0.0028399571 0.014045688 -0.0051693195 -0.0099974 -0.01326874 0.00068472757 -0.0055847233 0.017425403 -0.014878612 -0.007679533 0.007916212 -0.009874642 0.0077959173 -0.012097408 -0.008002586 0.0071707754 -0.016609216 -0.011752832 0.0072602206 -0.010127922 -0.006115577 -0.011279846 -0.0120294355 0.006535471 -0.0069181984 -0.0045506107 -0.004602311 -0.008660068 0.009022313 -0.016765391 0.0029181882 0.008632484 -0.016830483 0.011695126 0.017404675 0.014637937 -0.0052228635 -0.014171244 0.01756264 -0.00048096693 0.0036893021 0.017690565 -0.008945934 0.006415323 0.00203671 0.012075967 -0.012467728 -0.015373701 -0.017170005 0.0065514343 -0.002348555 -0.012142991 0.012555089 0.0017198942 -0.0056704157 0.011930117 0.004359299 0.010190939 -0.006769555 -0.0148408655 0.017128348 0.01166868 0.004197796 0.017500777 -0.008636168 0.0062005054 -0.015470431 0.011335621 -0.011583197 0.010687171 -0.008479385 0.0030655244 0.0026960885 -0.0155354 -0.005480488 0.013375512 -0.0059373914 0.004065699 0.016382195 0.004067123 -0.003243623 -0.0037004736 0.0173991 -0.007329394 0.0135432 0.012618585 -0.0006065603 -0.0032702216 -0.005030592 -0.0040833354 -0.017063849 -0.01537111 0.000768934 -0.009851903 0.005366543 -0.00905149 -0.0039439946 0.004439284 -0.015047323 0.010125495 0.0020583891 0.011921409 -0.00075308344 0.012985728 0.005914071 -0.0048927814 -0.011885078 -0.00057056337 -0.0013749663 0.0033823403 -0.005069539 0.0109212855 -0.016992895 0.004696514 -0.008166154 -0.008368258 0.015582465 0.0026647726 -0.012601868 -0.015511669 0.016937593 -0.0059901094 0.003162648 -0.008522128 0.007567557 0.016688127 -0.0034229693 -0.008788714 -0.012571467 -0.016025597 -0.010962418 -0.00039269245 -0.005111358 -0.0008686313 0.0012062597 -0.017524948 -0.00013184547 -4.638306e-05 0.006681828 -0.012716543 -0.006821311 -0.003943454 -0.013310621 -0.01669672 0.0011171742 0.010601578 0.0047890204 -0.016961807 -0.0029718324 0.0074345237 -0.0062692445 -0.002832002 -0.016592931 0.008902586 0.0063905655 -0.014624835 0.008032774 -0.015170337 -0.016933108 0.009394461 0.017059568 -0.014967255 -0.005762235 -0.0034767028 0.00066937937 -0.011949261 -0.012574984 -0.015103277 -0.008363603 -0.0015383364 -0.010478135 0.017592251 0.005560918 0.017376155 0.0061634677 -0.0158464 -0.017530303 -0.005789808 -0.006620218 0.0031260552 0.002454149 -0.0068912446 -5.1939063e-05 0.0037794414 0.0060892617 -0.015150977 0.0016265747 -0.016159836 0.007916992 -0.0034088686 -0.0036092084 0.017681837 -0.009311606 0.00957105 -0.0165431 0.014567287 -0.015419511 -0.0070627634 -0.004837013 -0.009650467 -0.009024005 0.015435905 -0.0046697836 -0.010302848 0.01158017 0.00292642 -0.017243495 0.0054991334 -0.0047004055 0.016464943 -0.010481796 -0.007910688 0.006182081 -0.00067093974 -0.002607797 -0.0069916444 -0.017438892 0.017387431 0.005617025 0.0009748787 -0.013548177 -0.0074901646 0.0014481609 -0.0072680525 -0.015818648 -0.010587276 0.0015713148 0.016926829 -0.00028008863 0.008220441 -0.0027133697 0.009724507 -0.005099529 -0.0062052566 -0.015790772 0.016723532 0.004791507 0.004211673 -0.0070934896 0.001022143 -0.0026209292 -0.008951096 0.0075387424 0.008626608 -0.003868216 -0.008146286 -0.008049968 -0.0034628767 0.001879822 -0.012861238 -0.009207275 0.014363919 0.00275713 -0.0137900505 -0.014169985 -0.01043288 0.0042638164 -0.006820085 0.012158183 -0.012247833 0.0062699555 -0.012298674 -0.010140713 -0.010433155 0.017580329 -0.006396017 0.01700509 0.0032207244 0.0022693172 -0.011895408 0.002527914 0.014901962 -0.00528749 0.010240659 0.0011623928 -0.004183322 0.011579167 0.015824571 0.0091347955 -0.0037909385 0.013241966 0.017433846 -0.002064603 -0.012651037 0.0014819355 -0.0033122047 -0.0066234367 -0.0054225563 0.0066039353 -0.0032082712 0.0038363743 -0.011631302 -0.009134332 0.009446066 0.0032113388 0.008667131 0.017581653 0.005491278 -0.00070432684 -0.0126732355 -0.00567429 0.003650574 -0.009066052 0.0051464015 0.003449802 0.017040152 -0.006850871 -0.004616976 -0.01596815 -0.007446451 -0.01507869 -0.0053185546 0.0024446824 0.007861738 -0.00609856 -0.0034800428 0.015829047 0.008452857 0.0160494 -0.0094 0.003283522 -0.017201096 0.011416172 -0.001423359 0.0019325508 -0.014561918 0.01571035 -0.009968749 0.005437349 -0.013601438 0.0021894276 -0.013923744 0.0039854073 -0.015502105 0.013708675 -0.0093826335 0.011950742 0.005207026 0.015641846 0.014490513 0.0035998654 -0.0015872207 -0.002456414 0.001045755 -0.0026853087 -0.010926226 -0.015721628 0.01148744 -0.0062149595 0.00804409 -0.003600012 0.013495231 -0.015285197 -0.00853639 -0.015596904 -0.016442562 0.005800126 -0.0060389983 0.0036266895 -0.0058597433 -0.014502997 0.002042168 0.014627148 -0.01702952 0.006253877 0.0036361304 -0.01663408 -0.0018477356 -0.0075567495 0.0094263945 -0.0129466895 0.004223894 0.0045529543 -0.0073638987 -7.42014e-05 -0.00931032 -0.011663316 0.00076240517 0.0039050602 -0.009762055 -0.00025868203 0.013383308 0.0076912837 0.0056670164 0.0161517 0.004163374 -0.005802621 -0.011324189 -0.017670324 -0.015531884 -0.0019331299 -0.0040229326 -0.005765796 0.010412615 0.017251814 0.0009433393 -0.0012741409 