0.0013489773 0.032059044 -0.03624074 -0.031341713 0.021844026 0.022641838 0.010126407 -0.004286041 -0.041493632 0.036890358 0.010814786 -0.0036873668 -0.038877234 0.0051192297 -0.001824071 0.017985906 0.039215587 0.029887464 0.004375433 0.011342829 -0.02761358 -0.02177414 0.014369046 0.0052244714 -0.02538681 -0.030078217 -0.00076687837 0.03808535 -0.02780368 0.007509475 0.028378313 0.001557827 -0.021177446 0.0077331713 -0.025542464 0.035492145 0.003156086 0.00027799606 -0.018847104 -0.033650663 -0.031640254 0.03811969 0.037625697 0.039222166 0.028538814 0.030528586 -0.018136322 -0.01067175 -0.02181249 0.012134826 0.01320903 -0.039886102 -0.019623106 0.030370831 0.010161838 -0.030186957 0.005305375 -0.011556993 0.017985135 -0.028799936 0.0013024311 -0.019605076 0.012305449 0.033518888 0.03415595 -0.033498198 0.033413023 0.00560693 0.022580054 0.013764679 0.011224648 -0.016374495 0.033422813 0.03884802 -0.002756382 0.033171143 -0.017211681 -0.0007175108 0.021935409 0.0002318571 0.037101194 -0.0073743663 0.01793687 0.015147215 -0.007063379 0.01646549 0.005025591 -0.037063196 0.01023831 -0.01998286 0.009515747 -0.019245457 -0.002635176 -0.022656118 -0.039355036 -0.019544056 -0.00602293 0.018809443 0.009528155 -0.022282666 -0.008103892 0.020462658 0.0086035235 -0.03602934 -0.024647038 0.022193154 0.029976418 0.004143879 0.0107740015 0.006811455 -0.026075304 -0.036437046 0.008478051 -0.020854628 -0.01843664 0.039103728 0.009207144 -0.021507174 -0.038049843 0.03230516 0.0030760567 0.034549594 -0.0025253496 -0.0084939655 -0.033329617 0.035348237 0.03797486 0.0005755971 -0.012236337 0.015576905 -0.024153223 -0.019881373 0.012968342 0.009099221 -0.023752343 0.016280845 -0.035888296 -0.009773523 0.029855847 -0.021665802 0.008910403 0.019903865 0.03225654 0.02313236 0.008736934 0.013091247 0.032141488 0.033746786 -0.018407311 -0.007427012 -0.033532307 0.022974407 0.025450554 0.020816356 0.010919785 0.028970744 0.039803486 0.041637447 -0.01970705 0.035039432 -0.021812832 0.026721995 0.010975137 0.022900056 -0.004578526 0.0022378266 0.00014199317 -0.0010316968 0.035885792 0.018112317 0.020538202 0.029296517 -0.031991564 -0.03161254 0.01976892 -0.031097269 -0.012728959 0.0069396547 0.02362667 0.0053248703 -0.019529343 0.013139099 -0.028107628 0.027482565 -0.029075235 -0.007121995 -0.03991006 -0.0063344887 0.024374431 0.0034146658 -0.00887306 0.015800431 0.020533875 0.035919875 0.040661465 -0.038090877 -0.031201795 0.03568287 -0.0031895887 0.0032720964 0.012998998 -0.022118773 -0.0077500297 0.020909443 -0.027507689 -0.013059452 0.00091428065 0.014240146 -0.026600596 0.03167937 -0.026045963 0.006152764 0.00599356 0.031930655 0.019242417 0.030205091 -0.005195047 -0.0410491 -0.041025788 0.030454934 0.023095977 -0.013698633 -0.032843214 0.0055816127 0.035469875 0.030338686 0.012247002 -0.006417682 -0.019795448 0.01294446 0.038791344 -0.013824454 0.0230087 -0.0109257605 -0.038427547 0.017894914 0.03673021 -0.023511684 0.005499512 -0.023987576 -0.030447077 0.03563304 -0.008496623 0.0300735 -0.028604537 0.037543923 -0.004710158 0.021826338 0.005487626 0.015881842 0.008910483 -0.027366972 -0.014447814 0.023688063 -0.005821149 -0.00075587136 8.8507935e-05 0.009612173 -0.0182347 0.021051213 0.007968958 0.02754891 0.03154438 -0.04012703 0.015501156 0.014561018 -0.035907432 0.039468564 -0.025979897 0.013222158 0.0031241179 -0.012205253 -0.031198641 0.01854748 -0.03261688 0.026594963 0.017364597 -0.008517614 -0.0032585512 0.01481629 0.012091483 0.0198071 -0.023708936 0.027195495 -0.020055583 0.031193048 0.019267526 -0.021453237 0.016917095 -0.027512457 -0.017444437 -0.03079009 -0.028134694 -0.016622242 -0.03129889 0.016523078 -0.030068811 -0.012609105 0.010761073 -0.028165277 -0.0022729984 0.006172836 -0.004724875 -0.0062130643 -0.026361343 -0.00494806 -0.030072814 0.008559531 -0.03181736 -0.030304074 -0.0050780675 0.00959685 0.010691112 0.018867344 0.03155168 0.0023059845 -0.011516686 0.0052164597 -0.0022127728 -0.041297704 -0.034838505 -0.028990164 -0.013559168 0.018018633 -0.02016528 -0.039923772 -0.01445288 0.0124578085 0.026632994 -0.0063686175 0.0013777068 -0.007403299 0.010975987 -0.007904962 0.0036782078 0.0010867417 0.025878266 -0.034857996 -0.012925014 0.0035616956 -0.0093741175 -0.020902485 -0.007444789 0.0049462966 -0.0031780154 0.03585905 -0.023563474 -0.037644655 -0.014347236 0.0021844655 0.037110746 -0.027146354 0.026513021 -0.020940822 0.029104382 0.01898402 0.012167782 -0.024984276 -0.03959728 -0.018851047 0.034306675 -0.020339778 0.027746182 -0.005525152 -0.028568577 -0.0039010397 -0.03212894 0.034952044 -0.02419813 -0.039233085 -0.025756236 -0.009136985 0.017158296 0.032272182 -0.031125963 0.020550668 -0.031087592 0.03942798 -0.028262323 -0.006756331 0.030332759 0.008881023 0.0014061084 0.03536042 0.004061833 -0.0044718785 0.012492796 -0.04102617 -0.029162616 0.0021996847 0.03627871 0.011943574 0.005348007 -0.024199858 -0.026430136 -0.021986168 -0.032230295 -0.03998159 -0.0037272028 -0.019220755 -0.037944913 -0.018169027 0.012103558 -0.005802711 0.029558878 -0.022945508 0.036464423 0.027707022 0.031190246 -0.01436923 -0.03463731 -0.032232568 -0.033867117 -0.013566266 0.0011332333 -0.03163275 0.016823336 0.02767843 0.029242938 0.041376166 -0.010477702 0.025166422 -0.041232422 -0.028103411 0.0016141683 -0.004144003 -0.0029700648 0.03864942 -0.029922202 0.019699484 -0.03629747 -0.034288518 0.0075944914 -0.016979933 -0.028293863 -0.017616194 -0.015033102 -0.034945514 0.0028326116 0.00024420023 0.020805806 -0.034750998 0.0014368346 0.029017344 -0.03328453 0.015634691 -0.019858688 -0.037237793 0.0031575412 -0.020264622 -0.012853265 0.006329894 -0.012172411 0.03808058 -0.0169117 -0.03177802 -0.03461757 -0.038324114 0.002794539 -0.011592394 0.023814669 0.039829813 0.018379435 0.021176731 0.025437763 -0.034356177 0.008219495 0.029620454 0.0010527323 -0.0057149827 -0.03979307 -0.033252694 -0.028077021 -0.03738621 0.029369872 -0.036361348 -0.0041241003 0.010570179 0.015524855 0.010227403 0.029912934 0.03317122 -0.016964843 0.018848684 0.021289831 -0.028107088 -0.024395978 -0.029497068 -0.011998152 0.035753272 0.011713853 -0.038265806 -0.03776167 -0.012950828 0.032479566 0.016316876 0.017176356 0.018613305 -0.029559698 0.007851368 -0.00861237 0.032743927 0.011091625 0.009774422 0.00030996403 -0.006073232 -0.038490713 0.0002061228 0.013384084 -0.008689354 0.010802394 0.0012422006 -0.013128847 -0.0207186 0.005662918 -0.000318413 0.020114865 0.024684757 -0.008349831 -0.034096688 -0.010357514 0.038493898 0.007028426 0.027190562 -0.026885455 -0.030434217 -0.009142826 -0.015083875 -0.0074983686 0.03918464 0.015203188 -0.0040045334 -0.037012693 0.012473077 0.015936485 -0.032779545 0.015382161 0.03564134 0.03041247 -0.023593223 0.018413594 -0.04144077 0.019553721 0.021284312 0.04015356 0.025931329 0.017385721 0.00035356483 -0.02440109 -0.014330849 -0.021944743 0.010454914 0.014446433 0.006365478 0.026968723 -0.0148184 0.035028055 0.022333533 -0.02409191 0.01833263 0.030175274 -0.0386013 -0.0051453263 -0.008195962 0.030694094 0.036680445 -0.011169682 0.010906319 0.016204596 0.038557425 -0.0118531985 -0.0037168763 -0.02373315 0.031050673 -0.002772545 -0.032698225 -0.034710076 -0.016614929 0.014144699 0.006518528 -0.020383343 -0.024569463 0.030644637 -0.0051362067 0.011061068 0.030141141 -0.015846502 0.009574205 -0.020888027 -0.012411302 0.008882548 -0.012894343 0.025290718 0.011438678 -0.03937311 -0.014652163 0.01329422 0.028190851 0.03821781 0.012587398 -0.02830964 0.035028696 -0.01063481 0.011083792 -0.019240668 0.041398145 -0.004225388 0.011710545 0.041011743 -0.023145339 -0.039955743 0.015944254 -0.023497587 0.020631403 -0.026706398 -0.032312587 0.0009644429 0.037421014 -0.013979644 0.014142886 -0.018214867 0.022759005 0.011419838 -0.019847795 0.02072784 0.0034276496 -0.026012894 -0.03850908 -0.040909067 0.039852064 -0.037890878 0.033079192 -0.037914034 -0.023063775 -0.031978827 0.03650725 -0.0147892935 0.012849053 0.029362004 0.010487676 0.025443872 -0.006583532 -0.010203069 -0.0043225936 0.025969159 -0.03943227 0.005940254 -0.018318336 0.016410505 0.0014541398 -0.01078787 0.039335825 -0.039086737 -0.025849089 0.012022893 0.024193075 -0.0062105707 -0.0003998081 0.01696767 0.012765244 -0.03514315 -0.02140377 0.03224876 -0.037902813 0.0021827072 0.022491788 0.020150285 -0.029814973 -0.031580325 0.041455172 0.000948449 0.008999224 -0.036392923 -0.017130217 -0.008691803 -0.0039516343 -0.020227756 -0.020786043 -0.020614024 -0.026141658 0.023142477 -0.0006278306 -0.0021445602 0.020470431 0.011770582 -0.0380315 0.027717631 -0.0040584505 -0.011563729 0.019312343 0.008258015 -0.038498815 -0.03184829 0.041279323 0.024637958 0.032980762 -0.0037255338 0.038690623 0.038714126 -0.030252889 0.0050394586 0.012800197 -0.032149963 0.0054717213 0.027109515 -0.012195687 -0.031130861 0.03932417 0.012124181 0.02136159 -0.007992735 -0.011293083 -0.011062905 -0.03715852 0.038715065 0.040742584 0.003169348 0.014328942 0.021188617 0.02450709 -0.019410636 0.010071447 0.0042569092 -0.012435615 -0.021611255 -0.01443035 -0.022190835 0.025684502 0.0024337869 -0.01929402 -0.031291153 0.028214365 0.034227833 0.03415647 0.032250673 -0.021124613 0.009854446 -0.019671112 0.009803052 0.019144233 0.03702701 0.008912062 -0.014391547 0.01876266 -0.010707185 0.011137709 -0.013063973 0.034888178 0.021821316 -0.014271637 0.03940205 0.031396434 -0.035928365 -0.021601185 -0.041521665 -0.0413932 0.0073433868 0.03621898 0.021777373 0.020428821 0.025753498 0.008462122 0.0035282176 0.006090224 0.023654815 0.038076602 0.004790093 -0.034192156 0.00668561 -0.0016849637 0.012931233 -0.031113073 -0.026248321 -0.029507041 -0.023689449 0.009262836 -0.02227074 -0.02540287 0.002555117 -0.03429013 0.008501664 0.002765894 -0.014431025 -0.041456968 0.0043411804 -0.036921583 0.008502668 0.03712518 0.017181482 -0.0111091435 0.017157745 0.031164622 -0.0097977575 -0.023504293 -0.040207416 -0.020817563 0.037143193 -0.004790922 0.03244067 -0.025470614 -0.028883204 -0.0013205012 0.007190034 -0.040046345 0.0095514655 -0.03370082 -0.028274372 -0.036924552 -0.020731494 0.027255481 -0.013621887 -0.026853766 -0.021725308 0.033035517 -0.041262805 -0.001963233 0.011239673 0.029153973 0.03139954 0.029311111 0.038205206 -0.000205641 -0.020127725 0.03593516 0.041255265 0.01649197 0.0145252 0.012794033 -0.01647757 0.019988816 0.014848888 0.020160383 -0.009109234 -0.016924497 0.0052935584 0.034869745 0.008501351 0.02347171 -0.029160794 -0.01074782 -0.024958542 0.036163874 -0.029367154 -0.027937781 -0.018894827 -0.021131676 0.007280469 0.030217629 -0.011230206 0.0055071614 0.036514886 -0.020221025 -0.01658694 0.041256487 -0.0064952723 -0.028144255 0.034587614 -0.011893123 0.030587038 -0.017976329 0.004560466 -0.022002738 0.009423728 0.018296024 -0.002892559 -0.014277935 -0.006777525 -0.009092878 0.03378397 -0.01275163 0.024078345 0.0032669804 -0.013329024 0.008434078 -0.030936982 0.037157133 0.011320641 -0.02551279 0.026814705 0.012423898 -0.008182581 0.04163482 -0.03660746 0.02024605 0.012330949 0.007149175 -0.014506286 -0.01369521 -0.031244805 -0.03204573 0.021136975 -0.039261304 0.03789417 -0.040116202 -0.02250801 0.0025670181 0.028867012 -0.02993769 -0.01872177 -0.03829415 -0.0358373 -0.034008663 0.028875317 -0.036825813 -0.004878591 -0.012315924 0.029745808 -0.027037999 0.018761238 -0.020211827 0.028560128 0.03909982 -0.0374251 0.034382932 0.03876346 0.0282832 0.024027795 0.030225646 0.016457349 0.013451949 0.003929218 0.021659564 0.016493827 -0.02380776 -0.039208855 -0.01442121 -0.0055181435 -0.00814723 0.009780109 0.038934246 -0.035294943 0.029148286 -0.020268789 -0.019706583 0.030083265 0.033987947 0.018792316 -0.036816217 0.02034844 0.0076356432 0.0390595 0.038493693 0.008603891 0.02101848 -0.040978074 -0.03560075 -0.015823683 0.03949108 -0.01949596 -0.009119904 -0.0401341 0.013767412 0.013195763 -0.010255854 -0.015374696 -0.034778498 -0.016617209 -0.023484683 0.02290317 0.015553525 -0.036697015 -0.014363661 -0.031385135 0.002822563 -0.013820937 -0.040860042 0.01696765 0.03361496 -0.02846944 8.3615385e-05 0.0025689057 0.024009824 -0.04161802 -0.031679846 0.0044203056 -0.025833264 -0.039510913 -0.021492576 -0.017353144 -0.022305142 -0.02904748 0.038306445 0.036862344 0.028270524 -0.02177538 -0.040921092 -0.0029883634 0.029757505 0.00614056 -0.02472896 -0.034291364 -0.016572595 0.022420889 0.0073169074 -0.00034413737 -0.0028635166 -0.023612365 0.015173957 -0.024617603 0.016087394 0.020743167 0.0051566465 -0.037806265 0.03798949 -0.016104763 0.019228598 -0.039952453 0.036403276 0.0028440207 0.008588682 -0.032142684 0.024934595 -0.024449363 0.0042220904 -0.020345923 0.02732717 -0.015207186 -0.040573638 0.012080645 -0.03675174 -0.0062947324 0.04157704 0.016556805 -0.03460016 -0.03645978 -0.023867166 0.03533607 0.009094914 -0.017597422 0.0047539724 -0.0069145067 0.03648613 0.018854704 0.008581202 0.007512833 0.022450587 -0.032744713 -0.008699268 0.014077361 -0.013117324 -0.033955675 -0.020840636 0.019786274 -0.007770519 0.016332677 0.034712277 0.0057454854 0.03174722 0.008130327 0.00997975 -0.03079931 0.02696596 -0.010830904 0.04095047 -0.013305466 0.009984827 -0.016536098 -0.0129069 -0.009403771 0.028259661 -0.02127344 -0.028145295 0.013057913 -0.0069465935 0.040076703 -0.00861764 -0.026343664 0.01650834 0.025706396 -0.007051359 -0.027101722 -0.015403251 -0.035871174 -0.008082494 -0.035915613 0.034490973 -0.004470145 0.0032037646 -0.033813845 0.01665388 0.01742303 -0.026945814 0.0096551385 0.007833069 0.029507559 -0.006389916 0.03817975 -0.0063305004 0.0010737529 -0.01999635 -0.03708157 0.02418847 -0.0040497286 -0.020379182 0.012093753 -0.037606888 -0.016783282 0.03503543 -0.012356485 -0.00027437013 0.0097098155 0.030469215 0.022413757 0.012744179 0.026865583 -0.013912405 0.015163432 0.014869481 -0.03928189 -0.037180215 0.00811339 -0.014288421 -0.032561135 -0.014299691 -0.022280565 -0.014062683 -0.030571476 0.0036002449 0.03711421 -0.026883822 0.010720795 0.029658318 -0.041235954 -0.011474694 -0.021780025 -0.00065100694 -0.00064995885 -0.01210241 0.040167164 -0.025816774 0.017965928 0.028232377 -0.03420421 0.016306266 -0.011332929 0.037728183 0.017066833 0.019671842 0.025330782 -0.022379264 0.0070751905 0.02558127 0.0035676113 0.021885073 -0.031124394 -0.016704232 -0.03087095 0.012191787 0.010602619 -0.018393746 -0.016381687 0.007702723 -0.034431364 -0.029720038 -0.008006146 -0.014128397 0.038893238 0.020766934 -0.013815707 -0.03215999 0.023809856 -0.035559885 -0.0075177005 0.02910774 -0.0077846153 -0.03214736 -0.030710012 0.019991618 0.019552803 0.033861615 0.02752924 0.017245417 -0.017065238 -0.041369405 -0.034488 0.014862965 -0.023321515 -0.0066836528 -0.009297445 0.02683722 -0.0002902349 -0.03406857 -0.004263103 -0.019325193 -0.014267097 -0.0026640694 0.022185177 0.00035585463 0.0077926917 0.01796323 -0.014684836 0.0182837 0.01950792 0.026054215 -0.03541213 0.021721616 0.03381824 0.0031179339 -0.018556794 0.022944495 0.022091653 0.008401474 -0.0013522059 -0.00016106665 0.030141464 0.03703934 0.017532974 0.01910843 0.039653182 -0.0012011628 -0.034365177 0.03939408 -0.03579798 0.030770984 0.035191827 -0.004078448 -0.031029757 0.039396342 0.018421646 0.023246434 -0.006552915 -0.03177802 -0.017005876 0.02178741 0.0010997802 0.002378906 -0.028221106 0.03672194 0.023763802 0.019369101 0.01247406 0.011420956 -0.0105918255 0.039406978 -0.017370995 -0.008111304 0.021772157 -0.0047281682 -0.032024197 -0.020329257 0.033820536 -0.04116702 0.0040249876 -0.017029544 -0.002515778 -0.02067927 0.040349245 0.026769495 -3.8807593e-05 -0.025502708 -0.04139342 0.011216765 -0.0374006 0.026697114 -0.007517313 -0.025311848 -0.014159039 -0.033953145 0.0073687932 0.027427297 -0.016939025 0.018627768 0.0042452766 -0.036575764 0.0030708364 -0.019331455 -0.03396745 0.032030687 -0.0220104 -0.03742621 0.028729405 0.00082972646 -0.024115458 0.020791402 -0.03679056 -0.026204556 -0.009043789 -0.01394923 -0.002953137 -0.0051101698 0.013965538 0.0410293 0.009716357 -0.041365452 0.01280888 0.018836673 0.015474126 -0.014008766 0.011243771 0.0055215857 -0.007270853 0.009297794 0.032567307 -0.017288914 -0.012807752 0.032542728 0.017727062 0.011238173 -0.02374973 -0.0155738 -0.017408565 0.00059366226 0.013477112 -0.028943446 0.037105374 0.007675504 0.028209284 -0.031984054 0.024450034 -0.018996254 -0.010333921 -0.0045591793 -0.017097479 0.018389389 0.006216079 0.03721133 -0.004986167 0.0002450049 -0.0395323 -0.021455046 -0.009506608 -0.035743903 0.005160719 0.036481977 -0.030405616 -0.0049875528 0.040209856 -0.030250173 -0.029771864 -0.025182541 -0.021437552 -0.03189167 0.018285459 0.04119453 0.013519704 -0.03507553 0.012164335 -0.01227059 0.036901455 0.037551343 0.026926553 0.033593662 0.026992068 0.026704967 0.02360925 0.026722109 0.027456712 0.02130754 0.0059532328 0.004418587 0.03361193 -0.024571037 -0.00058711076 -0.008008922 -0.002764856 0.035365146 0.026055247 0.0018103123 -0.016032025 0.021887884 -0.010277982 -0.031223025 -0.030442571 0.033900715 -0.0029955856 0.009645641 -0.007753263 0.019592654 -0.040155023 0.029368203 -0.03179672 0.020262256 -0.006744693 -0.035525255 -0.012580454 -0.028171733 0.028437182 0.04088324 -0.029967397 0.0032923173 0.032138597 0.018598791 -0.011277726 0.024961334 0.035744783 -0.0025677185 0.031774327 -0.027975526 -0.015550768 -0.0024326246 -0.039351873 -0.005201216 0.028151855 -0.018341493 -0.014306998 0.011136398 0.03433471 0.02647007 -0.014111713 -0.038968213 0.029202228 0.021882948 -0.035422802 0.026129898 -0.0042282147 -0.024755549 -0.034649 0.010944064 0.021483293 -0.01744917 0.02136678 0.012588884 -0.01624765 0.03969209 -0.015565952 0.026939735 -0.027428623 -0.040530443 -0.009580101 0.021329936 -0.016706204 0.032755 0.0399688 -0.033123113 -0.017444026 -0.025099382 0.0028328102 0.0353647 0.025801357 -0.03292886 -0.011976277 0.0051646284 -0.031124394 -0.03920118 -0.04123325 -0.00493825 0.0022392473 -0.028010841 -0.0307139 0.027258556 0.0044652624 -0.0038157455 0.009597684 -0.009062311 -0.002827103 -0.017453238 -0.02516753 -0.03167464 -0.018962696 0.031066865 -0.0016053816 0.0005644908 -0.025594046 -0.03337364 0.032707848 0.028605327 -0.016214997 0.014229114 -0.01954653 0.039613154 0.016395014 0.03367059 -0.011885732 0.0035902709 0.033215806 0.023870995 -0.016776046 0.027586779 0.041489564 0.023574263 0.031925015 0.019769683 -0.004728049 0.006055236 0.014158691 -0.03741941 0.015364945 -0.020010248 0.035950642 0.036139145 0.031235933 -0.0030438106 0.011297837 0.0011162113 -0.0037427247 0.028246254 -0.006570424 -0.026514238 -0.035182476 -0.0017861178 -0.013170615 -0.021277007 0.029526666 0.034272283 0.01532359 -0.033665173 0.0025118887 0.005362799 -0.032059394 -0.029059967 0.01649489 0.03606113 -0.012079081 0.021992818 0.03560449 0.015300294 -0.014755294 -0.008654202 0.03625467 0.021839585 -0.014346406 -0.020680398 -0.02455401 -0.02138197 -0.018041825 -0.012401989 0.029360821 -0.01878357 0.0361994 -0.017094847 -0.0361854 0.012384415 0.012026727 -0.0015959244 0.0025692633 0.004519403 0.00027064484 -0.02971993 0.040609967 -0.00090779364 0.028032064 0.03723775 -0.020753875 0.009877577 -0.038126558 -0.036780156 0.0059399507 -0.0068921745 0.00058051944 0.009715309 0.040068306 -0.024816385 -0.022984799 -0.012096192 -0.03951174 0.007892857 0.020828515 -0.022720387 -0.006080474 -0.026089754 0.012790045 -0.030538693 -0.0135841025 0.02010121 0.015011704 0.035902753 0.005080089 -0.025687918 -0.027666306 0.018285807 -0.02633838 -0.019042429 -0.03485968 0.040016606 -0.029581135 0.021762978 0.038705077 -0.0072332374 0.019652855 -0.040624063 0.035629727 -0.010754591 -0.013667489 -0.030107483 0.011637981 -0.015557468 -0.028781172 -0.005725091 0.013047865 -0.010449777 0.038596585 0.015909731 0.008252805 -0.018332567 0.003908962 -0.016786134 -0.018404778 -0.027564034 0.023656255 0.010400127 -0.037207216 -0.026508164 0.007890686 -0.03668092 -0.030431312 -0.012574112 0.0010634612 0.01872246 -0.026587075 0.005783677 0.02280884 0.0401462 -0.04062447 0.003153652 -0.007923886 -0.027872806 0.037116244 -0.03696301 0.018839251 0.01918525 0.028128272 0.033753347 0.006868492 -0.0132709695 0.025111806 0.01770258 -0.023247194 0.025338273 0.014610156 0.008088177 0.035493016 0.011628151 0.03483019 -0.039376717 -0.031457193 -0.01732485 -0.03255936 -0.0014896393 0.029529234 0.004149005 -0.025287997 0.028814545 0.037260756 0.0133161 0.00732482 -0.0052109314 -0.032638595 -0.0009895812 0.010666391 0.040102564 -0.016981244 0.023076912 0.025721878 0.014026215 0.006867732 0.011705911 -0.018527817 -0.035931885 0.026955858 -0.029545268 -0.029133692 -0.011931762 0.012611593 -0.0368323 -0.03166929 0.027040174 0.004796361 -0.041337818 0.022376403 -0.03497772 0.025548782 -0.0145118935 0.020358682 0.008024683 -0.034795247 -0.0034149587 0.008638209 0.0026575476 -0.006710395 -0.022662282 0.027237963 0.009193247 0.028382227 0.0013939639 -0.018720975 -0.01418371 0.014039597 0.02616711 -0.004547636 -0.0036886535 -0.022281647 -0.036383085 -0.023117533 0.0242495 0.03060238 -0.0071206195 -0.004186998 -0.016622877 0.021613305 0.010007034 0.032220982 -0.0019252449 -0.007980312 0.028911006 0.038175866 -0.02243724 0.008516362 -0.007662639 0.032182094 0.025226053 0.022919064 -0.0276432 -0.0036842625 0.01894699 0.022721734 -0.004751449 -0.0062871426 0.022269547 0.0044128946 0.013614878 0.011577606 0.024881458 0.010554647 -0.017699834 -0.0069704456 0.034784853 -0.009040773 0.02170082 -0.0371761 0.033768624 -0.015540173 0.010526523 0.005752539 -0.022535538 -0.014119412 0.039973952 -0.024887409 -0.0136217475 -0.03439602 -0.03378941 0.005330965 0.0005957435 0.018827146 -0.0034151226 -0.0052172444 0.02724143 0.029490303 0.04126922 -0.014719064 -0.022545379 -0.023321807 -0.031324904 0.015603408 0.00474002 -0.00625443 0.01941914 -0.0048257364 0.007935679 0.007613977 -0.025802996 -0.0045202575 -0.007733395 -0.030051753 -0.02288284 -0.012678564 0.009782086 0.005832608 0.018598076 0.0233718 -0.010541648 -0.022551596 -0.04024198 -0.03459634 0.035024356 -0.029537907 0.030437445 0.018412873 0.030118302 0.013536712 0.013783297 0.039031804 0.037835494 0.04033571 0.004260729 -0.036235675 0.014133955 -0.010682399 -0.0045187725 0.03681218 0.037339535 0.009288222 0.026610747 0.03317038 -0.031969097 0.0387917 0.005755524 0.022131518 0.016899725 0.025307816 0.03966824 -0.0058415583 -0.01682437 -0.034937546 0.019680938 -0.035345398 0.016859874 -0.003342117 0.021014368 -0.023601636 0.04112993 0.017467037 -0.036534723 -0.011377385 0.04142797 -0.02187111 -0.027589789 -0.018504983 0.012819385 0.019166764 -0.022618707 0.029054746 -0.010485401 0.0031328998 0.024954578 -0.01961888 -0.03364587 -0.028622713 -0.022840291 0.007890657 0.0054894886 0.036947563 -0.024638256 -0.037861586 -0.019558644 -0.025284808 0.03775009 0.02485614 0.005228753 0.008555865 0.011114548 0.022228014 -0.019691965 -0.029249769 -0.013728514 0.013501808 -0.013763934 0.012792687 -0.025938671 0.024777532 -0.02866379 0.0015615176 -0.038819026 -0.014570922 -0.0030983388 0.0005197724 0.024366021 -0.0031414877 0.0235818 0.031857356 0.0023702732 0.013456136 -0.021053985 0.008624956 -0.010692224 0.032508638 -0.031393297 0.0016460419 0.032048192 -0.026887428 0.040616304 -0.017521322 -0.03719613 -0.010303776 -0.019961428 -0.015605053 -0.021180462 -0.022810623 -0.013939818 0.032174394 -0.017578423 0.007560005 -0.02995953 0.029177641 0.032402597 0.022999093 -0.036339294 -0.029149171 -0.009649347 0.037899237 0.003937642 -0.025408473 0.0026049367 0.016066998 -0.01642054 -0.023236617 -0.035616048 0.013107747 0.02775621 0.032118 -0.04105532 0.026859652 -0.010982728 0.014229829 -0.020889824 -0.021627208 0.04165849 0.025882091 -0.011343837 0.016470274 0.038961142 0.006437923 -0.027097544 0.0034956287 -0.002451698 0.026696485 0.0345402 0.0036143016 0.030057615 -0.011112477 -0.025706327 -0.029810574 0.034538206 0.028395882 -0.025925647 -0.020379316 0.012896484 -0.022216465 0.03891895 0.013396254 0.014679208 0.039959833 -0.013210595 0.009469679 0.025721997 -0.021140065 -0.008912961 -0.035579875 -0.018952083 -0.035116892 -0.019666096 -0.011007419 0.016879007 -0.0086854845 0.003019502 0.03301915 -0.021897625 -0.021218624 -0.03726823 0.038647797 0.009339606 -0.0024022958 -0.020240357 0.014737423 0.019913908 0.0022756557 -0.014498204 -0.022421092 -0.005283743 -0.040720813 -0.03886126 0.02074114 -0.004678428 -0.0031896185 0.019640421 0.03618136 0.013721332 -0.006400953 -0.028054556 0.022969153 -0.0076539367 -0.032835774 -0.036215268 -0.040925782 -0.00072686875 -0.031618506 0.00068507594 -0.005221819 0.035092123 -0.041191407 -0.039833717 0.010089507 -0.02582091 0.023666402 -0.0006401837 -0.033806965 0.0004943212 0.021381583 -0.020361608 -1.12702455e-05 0.0053307167 -0.019076493 -0.016720008 0.033425957 -0.03516297 -0.0005819748 -0.00062318647 -0.04114858 0.005360837 0.018435013 -0.037326835 0.019240743 -0.02032071 -0.008306608 0.016681612 -0.040708315 -0.031347454 -0.015983477 0.016608458 -0.029038798 0.0060754917 0.03348121 -0.0024713576 0.04076778 -0.009121945 -0.032751124 -0.010473664 -0.007199387 -0.016632691 -0.0028251759 -0.029615566 -0.035241377 -0.017427465 0.028359529 0.019723326 0.013246815 0.003431683 -0.022229698 -0.010506402 -0.032632127 -0.015067185 0.032528564 -0.021572888 0.0062431796 -0.00067504746 0.021923533 0.018100068 0.034202315 0.015732974 -0.0093960315 0.0055738837 0.03632129 -0.037483923 0.0019445221 -0.028345954 -0.0055032424 0.029022103 -0.030239245 -0.0052550486 0.008725777 0.03003661 0.022348836 -0.0311836 -0.033252537 -0.008786604 0.03727936 -0.013322493 -0.012325674 0.031396866 -0.01443019 -0.037687458 -0.02249304 0.032709103 0.00844129 -0.026878297 -0.026162937 -0.036614306 0.012287214 -0.029604524 -0.031305682 -0.007256806 -0.04008676 0.023363844 -0.024497902 -0.03959503 0.0065162233 -0.01843378 -0.037543096 0.0089069605 0.011931117 0.010669848 0.0041323304 -0.030323997 0.01433074 0.039921433 0.035888653 -0.02194803 -0.038459163 -0.02879954 -0.009597431 0.0021498553 0.0063039116 0.024559384 0.003426522 0.021305319 -0.033079617 -0.040674847 0.03499032 -0.03487006 0.032205068 -0.033867117 -0.028729912 0.040045343 0.022732746 0.014695495 0.011159277 0.00012487173 -0.039561234 0.004087056 -0.037660584 0.034884434 0.038904168 -0.010659909 0.03655171 -0.024334874 -0.004664655 0.037932776 -0.022906443 -0.018024554 0.019572642 0.0135384705 0.029106742 0.018890586 -0.029309362 -0.032632004 0.00064729655 0.011103342 0.036291316 0.00857237 0.021277428 0.006304751 -0.030405706 0.03242801 -0.014719541 0.00030443072 -0.0072675496 -0.010101403 0.0377111 -0.0141333295 0.020055026 -0.011772047 -0.038950812 -0.015142411 -0.028035164 -0.010020907 0.020445025 0.038767606 0.022613242 0.028258111 -0.01738052 0.013236712 -0.025831863 -0.010269503 0.0330692 -0.040205374 0.011417165 -0.004064168 -0.03395824 0.01636134 0.025032407 -0.0099616 0.03590576 -0.010296891 0.0053237677 -0.007557129 0.019800982 0.018432459 -0.028765228 0.032033935 -0.0037994932 0.026779678 0.011941344 0.020860534 -0.00012668471 -0.0119763715 0.029639151 -0.036537256 0.015212402 -0.0067945076 -0.028922817 0.04019123 -0.031881675 -0.030145422 -0.0077108396 -0.009465277 0.03652355 0.031986564 -0.02601431 -0.0143356025 0.019350942 0.025225088 -0.017702296 -0.023436403 0.039349288 0.016964078 0.0012914191 0.032145463 0.0024375718 -0.00015257797 0.0037455312 -0.01615977 -0.029927239 -0.0019700676 0.0024580806 -0.034213535 0.022310486 -0.014600734 -0.008390094 0.01338475 -0.036721878 0.032219306 -0.018657302 -0.0066278875 -0.035251953 0.022464376 0.017192438 -0.004774645 -0.014144178 -0.021175921 -0.02313311 0.03391031 0.0013201535 -0.008398324 -0.029398035 -0.037107848 -0.03105864 -0.030401185 0.028756276 -0.035157673 -0.034379866 -0.014753039 -0.02769138 -0.041042954 -0.012893185 0.029448569 0.022229861 -8.34167e-05 -0.006599739 -0.022716552 -0.014315392 -0.0070891483 -0.04034499 0.022369212 0.023140943 0.003946434 -0.0072170794 0.028869178 0.0005926689 0.032980718 -0.036536526 -0.009603461 -0.03235803 -0.02410686 -0.025579637 0.01270857 0.01941654 -0.007331153 0.023908272 0.02723217 0.013130775 0.0108915325 0.0185045 0.02662924 0.0057736486 -0.040460564 0.039872747 0.016248923 0.001930674 -0.029239913 0.020873975 -0.03323868 -0.037104808 0.01955176 0.020963356 0.028432276 0.013588091 -0.01196979 -0.029291993 -0.033038802 0.010627106 0.02402544 0.034638114 0.036146816 0.036574304 0.039700337 -0.0030570677 0.004916176 -0.04156979 -0.028266361 0.03925117 0.041321322 -0.015850138 0.034800105 -0.010509561 0.0152693 -0.016208779 -0.020990267 0.009207468 0.016552523 0.018045973 0.0051043928 0.023931673 0.011015157 -0.02307418 0.0074318005 -0.030181196 -0.006585305 -0.03678378 0.027896162 0.029966336 -0.033153944 -0.006344865 -0.020292303 -0.022136047 0.031470817 -0.001931568 -0.0034070562 0.0054775923 -0.03627005 0.040799648 0.03940083 -0.035005666 -0.0005411258 -0.005556206 0.0022478204 0.023364222 -0.03519153 0.029063806 0.02989398 0.03401428 0.01937379 0.0015513152 0.0057326606 0.031683393 -0.017898843 -0.0048201336 0.013592914 -0.009101182 -0.028903034 0.01419799 0.03556497 -0.0021001748 -0.0037364166 0.03087638 0.023468396 -0.03691366 -0.026618183 0.030773556 -0.02805457 0.012351414 -0.023157265 0.032204133 -0.02742744 0.01694335 0.015353392 0.03611058 -0.003072252 0.031400777 -0.0045006624 0.0032153777 0.010601486 -0.039823577 0.011440153 -0.037515 0.017243128 -0.009203057 -0.031711906 -0.017105728 -0.022974169 0.014815843 0.036126956 0.005103146 0.018199667 0.008751944 0.011310965 -0.030052116 -0.019612974 -0.036291905 0.040580794 -0.009038563 -0.028658336 0.022915646 0.029196497 -0.034871057 0.008987874 -0.039955072 -0.037268326 0.017647743 -0.036097392 -0.025883138 0.01114594 -0.02790532 0.032653987 0.019185033 -0.013457964 -0.0030014068 -0.01582562 0.00025931498 0.024185061 0.004479493 -0.01783077 -0.02316386 0.022571942 0.0034857343 0.029611751 -0.006489679 -0.01634576 0.009290378 0.029757366 -0.035732195 0.0030946832 -0.021864375 0.023044556 0.015130913 0.026621982 0.037880026 0.0069558723 0.026465103 0.0023049514 0.021201223 -0.018842012 0.022230333 0.0056081614 0.0014178803 0.008367529 -0.01457877 0.024116036 0.021680593 -0.028167194 0.00067245465 -0.0036748797 0.0025301825 -0.032588944 0.036382273 -0.0052791936 0.035663866 0.003852601 0.026080906 0.0042307675 0.03846962 -0.020441324 -0.0060759685 0.027030334 0.011842197 0.039133128 -0.033963338 -0.023456013 -0.0027812968 0.027130013 -0.036767032 -0.023669815 -0.037728556 0.023630839 -0.006252259 0.025086671 -0.02182202 0.0253612 -0.015755013 0.016722402 0.023670152 0.00013443331 -0.011171098 0.004594058 0.022232842 0.03326715 -0.04076154 0.029956874 0.023608714 0.017375275 -0.02581065 -0.036965042 0.008132855 -0.005123019 0.03610526 -0.04148605 0.028870013 0.03708985 0.011431819 -0.012163053 0.020586759 0.02134573 0.021962881 0.037606873 -0.0057874373 0.019103494 0.011474326 -0.033756968 -0.038557418 0.040890247 0.032512303 -0.008233463 0.02367651 0.041023523 0.037124243 0.027940687 -0.028121725 0.027366772 -0.007597094 -0.03414371 0.009727031 0.0398912 0.029613655 -0.008678883 -0.034795754 -0.020908576 0.04107909 -0.015863251 -0.024125328 0.0056358925 0.0066750497 0.027642112 0.0060737235 -0.025080314 0.015950292 -0.019354682 -0.0040920377 -0.0008624693 0.009344096 0.039680064 -0.021422034 0.012238285 -0.029816374 -0.007262285 -0.030959612 -0.03317824 -0.000784571 0.032138087 0.018480977 0.007647693 -0.01915517 -0.031469174 -0.0010852069 -0.007384862 0.03929288 -0.0121175945 0.01699326 -0.034693927 -0.010784244 -0.02448256 -0.01766554 -0.013235927 -0.00023842356 0.041151613 0.03983345 0.031541944 0.025913876 0.031080615 -0.031067267 -0.016836023 -0.03879006 -0.012946889 0.014334654 -0.02283842 0.03756852 -0.012755737 0.029908758 0.010537635 0.032516956 -0.021823715 -0.039676107 -0.013290614 0.018837523 0.03923015 -0.036091194 0.03957523 0.035042476 0.0007085651 -0.034380153 0.011463767 -0.012437677 0.023314726 0.03473733 0.03115296 0.03500849 -0.0026843797 0.030544173 0.037325025 0.02136892 -0.00230443 -0.0040516406 0.010386532 -0.038160827 -0.0280147 -0.008079296 -0.03523601 -0.014662659 0.018440908 0.038472965 -0.01800963 0.012093708 -0.032521993 -0.012883097 -0.028799918 0.017924353 0.025668874 0.020747975 -0.030833915 0.031236809 -0.022745645 -0.015511915 -0.0077892346 0.0017057359 -0.0010467321 0.00577796 0.02457824 -0.005391856 -0.013877402 -0.023488974 0.021445578 -0.03794585 0.020931643 -0.004081463 -0.039716166 -0.03448154 0.03562978 0.008631806 0.015549506 -0.016435763 0.03262175 -0.03963038 -0.037677705 -0.005562698 -0.027282398 -0.032863654 -0.024694677 0.039121427 -0.015863176 0.012598708 0.023733258 0.017213013 0.03281746 0.016024884 0.011223808 0.027007591 -0.021503862 0.037799954 0.03163138 -0.019817477 0.028057959 -0.026944017 -0.020118367 -0.022479456 0.0375475 -0.0023945074 0.015809357 -0.0021817288 0.02692385 0.018093025 -0.018815141 -0.024795195 -0.034836933 0.0103359725 0.0047581596 0.009986674 0.0008959224 -0.0027147483 -0.03921438 -0.017517438 -0.028470498 0.02173705 0.0060401014 -0.0055648237 -0.020826941 -0.03241203 0.03202959 -0.029662749 -0.035215806 -0.012258997 -0.00018865368 -0.01905629 -0.03546918 0.021996861 -0.010365809 -0.041311674 0.024829298 0.03152412 0.040247872 0.03102623 -0.024508473 0.041406997 0.02177715 0.017769005 0.026729062 0.0037698548 -0.034501113 0.03977009 0.034154918 -0.0052336007 0.011198496 -0.023088437 0.03897127 -0.022736674 0.014026801 -0.039108187 0.041536435 -0.034262978 0.010438031 0.014893338 0.039097603 0.004980152 0.015345062 0.013832003 -0.009560476 -0.041258447 0.018832847 -0.00482361 -0.015754834 -0.02712832 -0.008642703 -0.0071855336 0.00071763 -0.015115416 0.025738493 0.004002407 -0.010144582 0.033284172 0.01843745 -0.019821212 -0.017834445 0.038944982 0.014288083 0.010203376 0.02889761 0.025185257 0.027157133 0.0019892356 -0.03547623 -0.037692398 -0.00835457 0.007664805 -0.032431584 -0.02523554 0.04100895 -0.002098342 0.014787152 0.036847427 0.019902166 -0.021990642 -0.021965396 0.023092981 -0.019481849 -0.01604127 -0.00614809 0.005623927 -0.02571192 -0.018956184 0.031324595 -0.03721361 0.00015769403 0.021996856 -0.005329713 -0.008945326 -0.034335822 0.033743303 -0.017442208 -0.011765495 0.026603138 -0.034733437 0.010413781 0.019577509 -0.0074252486 -0.0072366595 -0.0032478175 0.007621601 0.031304523 0.031170648 -0.02691938 0.04128202 0.015085315 0.039831713 -0.018255591 0.016195595 0.031156372 -0.033698812 0.027163154 0.021050638 0.021082815 -0.018465709 -0.030051365 0.022903388 0.01134707 0.020138254 0.039625175 -0.03230627 0.037584662 0.03540724 -0.017305389 -0.02930226 0.011401525 0.038992226 -0.020421749 0.032306235 -0.019646686 -0.018049806 -0.023653021 0.038495094 0.024876397 -0.0064733825 -0.01858074 -0.018672835 -0.020674905 0.019709226 -0.004240066 0.00066017115 0.035299182 -0.016312685 0.031350695 0.0070679635 0.0024962574 -0.024554562 0.022598123 0.041090593 0.018881347 -0.04021075 -0.030410852 -0.026931455 0.033244982 0.029111072 -0.02121295 -0.0022010158 0.02135258 -0.0031484615 0.035080746 -0.003916636 0.001857852 -0.0029141407 0.0014922023 0.007117793 -0.021509042 0.022952229 -0.01724365 0.0047739795 0.034641873 -0.013684998 -0.02490007 0.0329432 0.0021735232 -0.035013925 0.029043507 -0.036985777 -0.023257907 -0.035119273 0.020788407 -0.0145930005 -0.0002545814 0.018606937 0.022526598 -0.0013484806 -0.032602992 0.008694987 0.04111746 -0.015287787 -0.04103401 -0.002009546 0.027629137 -0.029426044 0.0070682317 -0.0025224686 -0.022921031 -0.024607724 0.010823186 0.0183409 0.011549562 -0.002302155 0.036129244 -0.026936507 -0.026602512 -0.024133772 0.015776148 0.029117968 0.0057774237 -0.023918455 -0.0056052357 -0.01830843 -0.0032603643 0.03335829 -0.00463443 -0.014384086 -0.0030811082 -0.0133429915 -0.020696621 0.022174668 -0.02377006 0.020446166 -0.013972372 -0.032011267 -0.035255976 0.01743493 0.033323184 -0.024325754 -0.0023078918 0.028736532 -0.028577741 0.016884869 -0.040607013 -0.00068721676 0.019738242 0.030150454 -0.020682245 0.03347093 0.02429244 0.04104867 0.038409524 0.040606767 0.030432671 -0.015386517 0.0028946847 -0.0064444295 0.021275114 -0.009602289 0.007773891 0.0038242936 -0.011920139 0.025763106 -0.00782763 -0.0036068808 -0.022709534 -0.01968148 -0.03461727 0.03221591 -0.022864303 0.038631868 -0.024311975 -0.00783819 -0.0113260895 -0.03767341 -0.037925728 0.014076109 0.039576985 0.034812436 -0.021539196 0.013183599 0.040743716 -0.0060670376 0.0139423665 -0.01786384 0.015884127 -0.02024214 -0.029108003 -0.013128197 0.023672845 -0.031329565 -0.02241318 -0.0113592055 -0.019288486 -0.026880732 0.0032640747 -0.025819402 -0.039164137 -0.035668932 0.029886534 0.024494346 -0.01952983 0.026767131 0.02225556 -0.021369051 -0.0013928562 0.00329718 -0.013112362 0.0077569736 0.018319428 0.02102465 -0.010886028 -0.0010753821 0.011761457 -0.020961523 -0.009677242 -0.013926661 0.03778943 0.0035300702 0.041611314 0.039264016 0.0046545668 -0.006155496 0.03130869 0.0067316047 -0.012778933 -0.03759704 0.03234678 -0.0028586786 0.031192835 -0.011695172 0.037799444 0.020792227 0.033690505 -0.026234388 0.036517397 -0.037495714 0.034824606 0.026961705 -0.04054692 0.005349969 -0.028532967 -0.038115095 -0.03370375 0.026191976 -0.028922817 0.028747901 0.023902263 -0.022063002 0.02234475 0.03119886 0.02297312 -0.037571948 -0.024062067 -0.0056298426 0.031501707 0.039191857 -0.014386281 0.038263425 0.02124497 0.018621266 0.028170254 0.026999533 -0.015556678 0.023979798 -0.012910898 0.010801315 -0.006806334 -0.008966103 0.03254781 0.008336927 -0.009422208 -0.03993097 0.035574906 -0.028249234 -0.037905928 0.037211098 0.005210872 -0.03433567 0.0017472705 0.026116883 0.0010960102 -0.027664527 0.023130849 0.017874926 0.03734438 0.00024680299 0.020559248 0.01373825 0.03790484 -0.0029140215 -0.021509117 0.020396516 0.0072739525 0.021182379 -0.03214703 0.004843136 0.0053725494 0.0007341405 -0.029552177 0.0021445453 0.04067394 0.0030728679 -0.009648423 -0.032822683 -0.022029668 -0.019420072 0.0030418187 0.014120842 0.020757359 0.040826768 -0.022230744 0.033864193 -0.026487708 -0.04053501 0.033525273 -0.015046771 -0.037144806 -0.030129185 0.0065979464 -0.02809675 -0.038739648 -0.0009795179 0.029765308 0.0054879687 -0.0324912 -0.041036077 -0.0042069457 0.019562975 0.01039962 -0.029259216 -0.010687202 0.025395215 0.010491272 -0.0062453253 -0.026987862 0.014920275 -0.019105231 0.039172463 -0.029186612 0.01970024 -0.017952424 0.0041881306 0.017790183 -0.03535261 0.021012252 -0.015067935 0.01671198 0.007057061 0.012874937 0.027680334 -0.022694882 -0.014848406 0.0051133386 -0.009506037 -0.0026605926 -0.00013879439 0.034260012 0.026796639 0.0054686717 0.0077162683 0.01804477 -0.03153906 0.038125318 -0.029083302 0.03728285 0.027138278 0.018220088 -0.026370754 0.0002094855 -0.032994136 -0.023809483 -0.0045728786 -0.0035992812 -0.027963012 0.013993765 -0.022387132 0.027297443 -0.0046317875 0.0003546377 0.027330976 0.01816715 0.034275375 -0.0044366866 0.013485387 -0.018284788 0.014118051 0.0012763094 0.021824688 -0.03813079 0.030930664 0.04107078 -0.010462165 -0.030458972 -0.009749308 0.0071190647 0.018854946 -0.03711025 0.010338957 -0.017369172 -0.0386579 0.031431355 -0.03890878 0.012665456 0.036386635 -0.0069467826 0.008128375 -0.035150908 -0.031774756 -0.024588611 0.03181138 0.003940101 0.02014878 0.022019178 -0.00022451083 -0.015962532 0.007634138 0.0039146096 -0.009276356 -0.001829361 0.01445436 -0.021182463 0.0026307157 0.038823746 -0.033963956 -0.031860914 -0.013489967 0.035990454 0.029166486 -0.02268986 -0.0022444478 0.0074647716 -0.03902785 -0.0014914324 0.033560213 -0.020792171 -0.0052875928 -0.03661513 -0.03878835 0.041404 -0.0005720407 0.037505977 0.030703094 0.026987325 -0.039089676 -0.02788229 0.00038208565 -0.025053313 -0.00846239 -0.034905102 -0.035625137 -0.023490708 -0.020523354 -0.034537844 0.0072588427 -0.029858759 0.0020495853 -0.008364007 -0.010365322 -0.028159693 0.022204202 0.040893555 -0.013261895 0.015012021 0.015351231 -0.02267772 0.03516078 0.03242862 0.011537473 -0.026068881 -0.014899641 -0.03519479 0.029988414 0.034876868 0.017616874 -0.019591322 0.026085626 -0.038095083 -0.027285641 -0.03212599 0.026166301 0.03425911 -0.024295177 -0.00837723 0.03879115 -0.017973315 -0.041367814 -0.037230328 -0.002209887 -0.03491108 0.0098280115 0.013603131 0.016529089 -0.019664507 -0.038888156 -0.033373296 0.034203403 -0.014970611 -0.029632315 -0.033558078 0.030206751 -0.014649188 0.0012901127 0.040983 -0.029668104 0.016486123 -0.00654909 -0.034844972 0.0021255515 0.03308163 -0.03641678 0.03299978 0.0030850421 0.034039006 -0.03617191 -0.027134076 0.012911484 -0.039993666 -0.028332915 -0.027814131 -0.02153124 -0.015906423 -0.006752511 -0.009633854 0.01966704 0.04058069 -0.0021253228 -0.031231042 -0.029790904 0.009120519 0.01205354 0.009301156 0.03791536 0.014270316 0.031801023 -0.0074927164 -0.0114553375 -0.01251477 -0.008911764 0.025919875 0.019569725 0.036819495 0.0049194596 0.014317146 -0.01349923 0.03211938 0.0251638 -0.009535368 -0.009545406 -0.0068970127 0.040888004 0.010482456 0.00923509 0.026495527 0.0358071 0.01667304 -0.040264085 0.001827856 0.037868716 -0.031150725 0.0016984742 -0.026743224 0.03256547 0.008016512 -0.01914626 0.0026870072 0.009206638 -0.027602315 -0.04046343 0.012468642 0.03445816 0.007932385 -0.014553508 0.018954799 -0.007482176 0.032123365 0.013716018 -0.040420618 -0.013923427 -0.030419692 -0.0009182791 -0.021398922 0.021335851 0.022785923 0.011522452 -0.02897951 0.02579714 -0.01121981 -0.02125753 -0.013758441 -0.025612837 -0.010621886 -0.038652368 -0.037222326 -0.021253562 -0.01789182 -0.018596157 0.010103464 0.012632485 0.031429946 0.016426265 -0.0126844 0.023817008 -0.017076 -0.020727566 -0.036127593 -0.01331232 0.0238801 -0.00469933 0.041607253 0.038256235 0.002295668 -0.03649304 -0.026028808 0.0076469285 -0.0050904057 -0.015307218 -0.01682238 0.039715648 -0.008543825 -0.005628909 -0.02943043 0.004035031 0.0002415081 0.039268754 -0.0057498068 0.0074986666 0.041316792 0.040500984 0.00027961534 0.021388188 -0.006127581 -0.036112145 0.024336439 -0.035900306 0.016825711 -0.019031039 0.027777385 0.033878904 -0.031992823 0.002885779 0.013521215 -0.012714595 -0.017579854 0.040422052 -0.025926992 -0.03561969 -0.004879783 -0.033443063 0.03249986 0.036407214 -0.018225249 0.0022237152 -0.024861302 0.036189817 -0.021045458 0.03612482 0.0009992471 -0.007545784 -0.02282567 -0.0005785227 -0.024415776 0.014869824 0.007971595 0.005759135 0.014462094 -0.022677496 0.037502922 -0.008078625 0.0020598471 -0.031246593 -0.0018082261 -0.027942032 -0.0055578453 0.024550494 0.024067467 -0.038618386 -0.034216926 -0.007956862 0.0029119751 0.0014641434 -0.00020371377 -0.03361007 -0.022358786 -0.010040587 -0.04023772 0.039420873 0.023588698 -0.0053734584 0.041283675 -0.0069039166 -0.0033522646 -0.038185135 0.0083665205 -0.03626108 -0.028959136 0.01516744 -0.040755488 -0.012757694 -0.025239721 -0.010145819 -0.04043924 -0.0018776258 0.022567522 -0.0051584644 0.022598729 0.02849774 0.024071798 -0.03884047 0.03819415 -0.032094233 -0.021153834 0.0016534578 0.0022605956 0.032380223 -0.0116490275 0.014272228 -0.020403614 0.011289368 0.0052225143 -0.014918447 0.007747541 -0.0014598718 0.012101566 -0.029593691 0.029511264 0.022859927 0.0031954597 0.021485528 0.034069236 -0.01571862 0.022145748 -0.030629998 -0.031753413 -0.021254685 0.018305074 0.026917592 0.039104432 0.022394687 0.035168868 -0.013458992 0.01831749 0.024659798 0.033788793 0.040188037 0.021014974 -0.006251519 -0.027435785 0.018086538 -0.017774716 0.0040570945 0.017614808 -0.0045697046 -0.0050495416 -0.01579611 0.007368937 -0.016464498 -0.01866058 -0.015563319 -0.003364896 -0.024533689 0.0031300932 0.005756597 0.03219266 0.014598697 -0.025874868 -0.004506772 0.027044898 0.029896533 -0.022290185 0.024843093 -0.037579685 -0.02335788 0.025330495 -0.008799086 -0.027120873 -0.037289746 -0.014470871 -0.033870757 -0.010646611 -0.017900875 -0.0070274323 0.009212132 0.017262911 -0.03649591 -0.02454191 -0.008434882 -0.008256972 -0.025023222 0.013133964 0.04105507 -0.008097023 0.024183571 0.0184203 0.0023672185 0.009522801 -0.011967788 -0.02761071 -0.024363577 0.0027345866 -0.0164135 -0.015871381 0.0347885 0.017718818 -0.026056578 0.008405576 0.0014511049 -0.006248812 0.03219251 0.0058364077 0.041247975 -0.029993366 -0.02922386 -0.0069863847 -0.012245799 -0.03034988 0.0039125187 -0.0409879 -0.016772484 0.0037379812 0.028531682 -0.030392608 0.018322458 0.0053875796 -0.0020990025 0.009013658 -0.031877737 0.0018059313 0.019222602 -0.029951464 -0.007178416 -0.020934537 -0.04017529 -0.03956452 0.019346338 0.013280159 -0.0138836205 0.0068763597 -0.0077583543 0.020782202 -0.017843619 0.012232512 0.03020536 0.005090232 0.03337547 -0.0148874475 0.021016255 0.027494684 -0.010924528 -0.015841603 0.008753101 0.04086573 -0.033386704 -0.030067947 0.008571541 -0.011583622 -0.03355209 -0.023559958 0.024818718 0.027285492 -0.03677222 -0.016098415 0.037905987 0.03166406 0.0219684 0.026427358 -0.039286163 0.03403298 -0.035451613 -0.013202961 -0.018661704 0.030307155 0.037701122 -0.020981532 0.015446877 0.027022686 -0.041659914 0.022423 -0.00012260675 -0.008447657 -0.0028878401 0.01817746 0.03578344 -0.009136657 -0.01754347 0.020717343 -0.0043841256 -0.037407115 -0.0028677832 -0.015789237 -0.019458568 -0.03689479 0.018878441 0.02038394 -0.02439037 0.00961197 -0.011054899 -0.0311137 0.00051118433 0.019746875 0.024409324 0.030634275 0.008342495 -0.024287533 0.02455191 -0.0020228326 0.010508592 -0.028046837 -0.027794357 -0.013425237 0.034466803 0.011192 0.041087225 -0.024658307 0.02794606 0.036235407 0.015326808 -0.033321824 -0.03277182 -0.02243416 -0.009245331 0.0019034942 0.0038154076 -0.031318903 -0.0124769565 0.00015892088 0.012383869 -0.03194835 0.014504528 0.0132699115 0.007580643 0.03475794 -0.0135121 -0.028585812 -0.024329618 -0.013872708 -0.022238925 -0.03561522 -0.019458469 0.007859781 0.015703931 -0.03483538 -0.0027566801 -0.017852675 -0.011580433 -0.0029230565 -0.029992571 0.029048031 -0.025821602 -0.036017388 -0.018455729 0.026542073 -0.004555469 0.014859036 -0.033207446 0.040402494 -0.027272737 -0.0092218965 0.03356833 -0.026340619 0.0017334273 0.032472085 -0.019381117 0.0056848824 -0.023890361 0.013532296 -0.029532224 -0.008796821 -0.0073250136 -0.0137972385 0.026133567 0.02808783 0.023870539 0.032161325 -0.0010211518 0.01595152 -0.038603425 0.036513336 0.008636057 -0.038211145 -0.027701065 -0.022101607 -0.0024016898 -0.006399547 -0.028209161 -0.02932337 0.014485086 0.041365027 0.032233715 -0.014717922 0.0009701997 0.009712627 0.017447647 0.030580318 -0.038444385 -0.03597186 -0.027545463 0.03324377 0.01542904 -0.02380912 0.005837401 -0.033483855 0.012073706 -0.002127553 -0.011260922 -0.030995145 0.033584785 -0.028408647 -0.03399507 0.02808257 -0.03926967 -0.03910295 -0.03722219 0.037076764 0.034872457 -0.007776618 0.024764132 -0.010938908 -0.026482057 -0.039044686 -0.0027570575 0.039572664 0.03805634 0.016849384 -0.023468401 -0.0077625117 0.026115026 0.040139955 -0.033366606 0.007697041 0.005319854 0.029443707 0.03947894 0.035729777 0.015602043 0.022230089 -0.035456643 -0.034524452 -0.030648649 -0.031478386 0.0023444742 -0.03796903 0.033055894 -0.0034773648 0.010207936 0.026818529 -0.013337508 -0.015791526 0.010307169 0.027002653 0.03336046 -0.008678272 0.03783357 0.038643774 -0.0027092895 0.03210558 0.007183229 0.025280153 -0.016086807 -0.027803719 0.035746977 -0.040642947 -0.004865413 0.014768735 -0.021059494 0.0323793 -0.023275053 0.039962813 -0.027157387 0.0041105202 -0.009092967 -0.008320197 0.0135015845 0.023606753 0.024463888 0.019705137 -0.04020726 -0.038404882 0.019928515 -0.008078098 -0.018326696 -0.030014098 -0.039440483 0.025185546 0.013546959 -0.01685901 0.011131724 -0.0015370151 -0.03183154 0.02676252 0.024197325 -0.021850329 0.0068620197 0.035537492 -0.011863714 -0.027498048 0.04124398 0.0043235123 -0.026941976 0.022579715 0.020269528 0.0050245873 -0.024318706 -0.009246543 -0.041335598 -0.027074417 0.036923286 -0.01814304 0.005033349 -0.024472024 -0.027698606 0.03369751 -0.007073318 0.02513656 -0.031396627 -0.023650443 0.028718358 -0.038200878 0.03387045 0.024177304 0.028854644 0.040537857 0.020357843 -0.032480087 -0.040396623 0.008663292 0.036604505 -0.02489331 0.021942675 0.00763088 0.006082247 -0.0031597118 -0.018591976 0.04090675 0.036390603 0.0034796745 -0.016247218 -0.013320565 -0.018032735 0.018138453 0.009050022 0.02131724 -0.04071942 -0.004014035 0.020451512 0.040886603 0.019551208 -0.021228751 -0.022872835 0.024345651 0.01635012 -0.040924713 -0.0074935853 0.01514038 -0.0048355265 -0.038305283 -0.015403187 -0.02300964 0.020673946 0.016593974 0.030234158 -0.035335958 -0.019968754 0.022337517 0.00830775 0.01629234 -0.008787359 -0.0043247393 0.037521116 -0.027837366 0.03754043 0.025817826 0.014876172 0.02337597 -0.025527379 0.016639119 -0.028742284 0.03968166 -0.012398645 0.026718315 -0.0027620893 0.019749444 -0.027868867 0.030676376 0.03259021 0.038275756 -0.035073917 -0.024324467 -0.03018484 0.029336235 -0.006709735 0.014413352 -0.0053030653 -0.02532278 0.02802525 0.024144804 0.031804755 0.03257376 -0.016995978 -0.025636047 -0.028747734 0.024109196 0.03269039 -0.022690412 0.0022125642 0.011139726 0.027601108 0.029122707 0.033776 0.002287244 -0.007130767 -0.027503219 0.015193607 -0.008108562 0.017985772 -0.020112649 -0.028948065 -0.0183426 0.024686819 -0.01850693 -0.016497334 -0.026128864 -0.0038800887 -0.0026696324 0.017376002 -0.030961018 -0.026267206 -0.0056963367 0.029784262 0.0173429 0.009613167 0.039619666 -0.014073983 -0.03851181 0.017832315 -0.0024373136 0.028722143 0.005185157 0.03921202 0.02318829 -0.03838281 0.026520353 0.037878614 0.039025124 -0.02054888 0.03965289 -0.039470922 0.040375933 0.041363265 0.002721846 0.011085009 -0.023435414 0.026394194 -0.01799964 0.029365843 -0.026873704 0.016909882 -0.0103821065 0.028003406 0.0071079037 0.030800134 -0.040023856 -0.018297046 0.008142373 -0.024173856 0.013764575 0.022450015 -0.012301346 -0.0029956996 -0.0104521215 -0.023155024 0.0072995326 -0.01402922 -0.015480012 -0.025366038 -0.01306737 -0.03159778 -0.0042668534 0.03928291 -0.038337782 0.023374623 0.01296193 -0.018457731 -0.01184997 -0.026203385 -0.037086677 -0.018019676 -0.013589422 -0.035674747 0.020405661 -0.030215979 0.033706374 0.03859006 0.03421914 0.01642183 0.008866539 0.01230758 0.007825425 0.03378433 0.031659506 -0.027833208 -0.02064166 -0.0004405578 -0.031175485 0.017942112 0.030064002 0.037460648 -0.027516391 0.018439373 -0.020100143 -0.019074008 0.037997257 0.022516023 -0.03690965 -0.0006530732 0.03061854 -0.028020605 0.026505595 0.012221898 -0.033734478 0.021819687 -0.02714403 -0.040785383 -0.009595091 0.031663027 0.028469052 0.020926079 0.011276439 0.02240862 0.0326201 -0.01155819 -0.020709347 0.012154902 0.036756422 0.0340591 0.036171477 -0.024909556 0.036122672 -0.027303904 -0.032027364 0.0018282782 0.011248122 -0.040695928 0.024760177 -0.030540701 0.002403453 -0.01937839 0.010943796 0.00022115807 -0.030942187 0.03033951 0.03942516 -0.00090545916 -0.035809573 0.04155445 -0.021888753 -0.026918676 -0.040664848 -0.022480419 0.035472475 -0.031557783 -0.007616888 0.0047105355 -0.029457694 -0.023253333 -0.008248329 -0.026927194 0.014498338 0.017893549 0.0048493594 0.034933172 -0.014084071 -0.03845307 -0.033805877 -0.0035360209 0.01339375 0.041637104 0.007499357 0.017423611 0.025360435 -0.022743896 0.009843986 0.017364135 0.03675052 -0.0064091883 -0.0022969495 0.015920158 0.002388671 0.0036684375 0.020580184 0.017043006 -0.003996889 -0.011530196 -0.035137333 0.03795172 -0.019230038 0.028530534 0.008538122 -0.010469775 0.012996515 -0.014818664 0.019451812 0.017674282 0.017681103 0.03331962 0.009908035 0.041605886 0.032510094 0.015837228 -0.019144088 0.03009377 -0.013338691 -0.012333175 0.015915062 0.024093565 -0.02256566 -0.002937749 0.0016426544 0.0005547355 0.03502345 0.009397755 -0.00086937845 0.036339473 0.033842828 -0.03883378 0.015316298 0.03977271 0.013457736 0.02079235 -0.015773859 -0.01992712 -0.007150521 0.036615632 0.0049104295 -0.026931178 -0.011176294 -0.031040069 0.033125415 -0.002438436 -0.017669033 -0.022586733 -0.0200605 -0.037211806 0.0059322617 -0.016619321 0.009902343 -0.017108098 -0.015464177 -0.04007508 0.015892517 -0.010562062 -0.028901484 -0.009181013 -0.03130346 0.007843604 0.012390435 0.031118438 -0.032389767 0.028070625 -0.033616662 -0.030537724 0.03184059 0.01759017 -0.02590321 -0.028821802 0.011557942 0.012309576 0.017947188 0.03411673 -0.0063527077 -0.0009986858 0.027578786 -0.0357896 0.011490191 0.006871611 0.00085247064 -0.005285283 -0.01997321 0.0208951 -0.028502902 -0.02989019 0.030976271 0.0049882187 -0.028832685 0.003436625 0.028879877 -0.0010838658 0.03639249 0.002935961 0.011085401 0.010078475 0.014520611 -0.040886503 0.017745923 0.023233905 -0.012063161 -0.03331187 0.028898036 -0.0127137555 0.034685284 0.036948733 0.026699077 0.0051544607 0.007917265 -0.0075364364 0.012740786 -0.021285048 0.014031043 -0.03421643 -0.04099381 0.011510199 -0.0033717752 -0.026347196 0.036918297 -0.0068272403 -0.022493452 -0.030465161 -0.019121056 0.020965949 0.025866112 -0.006883686 -0.034830622 0.023421358 0.031981077 -0.009379804 0.007436221 0.007497465 -0.0376622 -0.013115203 0.036863424 0.0028519433 0.041664194 0.0017414689 0.035618886 0.0048892945 -0.0013477405 -0.021248668 0.008430541 0.012524903 0.0079106 0.010336792 -0.0049260906 -0.016876325 0.010105154 0.008489361 0.023088723 0.036744677 0.007334317 0.0043899072 -0.03577168 -0.032687113 -0.021826014 -0.032323014 -0.03290558 -0.032411437 0.011868253 -0.031047057 -0.005914077 0.00887386 0.034011286 -0.006349688 0.021322837 -0.03168253 -0.032554112 0.022072013 -0.0135109825 0.00974911 -0.028534438 0.037992373 0.029031988 -0.01599972 -0.021136165 -0.010558049 0.0025948188 0.0343951 -0.020181274 0.037975892 0.036850423 0.03523226 -0.028844416 0.022659501 0.008713514 -0.018913448 0.033290844 -0.03500077 -0.012705212 0.034440883 -0.014504537 0.0006876191 0.03283874 -0.017915871 0.025900995 0.03483612 0.017092457 0.02063556 0.026272938 0.0018117726 0.026394716 -0.02685677 0.027695443 0.040815815 -0.009657815 -0.019539755 -0.016282927 0.011257907 0.026674211 -0.032556843 0.008250753 -0.004152601 -0.029118171 -0.0078006387 -0.022111192 -0.03408759 -0.040590025 0.036092 -0.03405101 -0.01943121 -0.03421729 -0.017930236 0.040242687 -0.03444017 0.026017278 0.017722994 -0.033817224 -0.0351798 0.030718144 0.008574849 -0.036248863 -0.026238319 0.0053996695 0.03578791 0.0236186 0.028498938 -0.033159878 0.040335245 -0.040817104 0.025578236 -0.004558037 0.019855365 -0.035449505 0.019102817 -0.013990383 0.01856937 0.0018715214 -0.024850696 0.023653125 0.018196633 0.030529916 -0.03172573 0.01203389 0.036016688 -0.028128361 -0.022200804 -0.024875667 -0.023700278 0.0031754076 0.0069241575 0.0030335735 0.01520888 0.011333957 0.024894297 0.011549543 -0.039719954 -2.9156606e-06 -0.02663529 -0.017865038 -0.023950946 0.020055002 -0.015582329 0.01887261 -0.037916224 -0.03981471 0.03984041 -0.009719461 0.02309022 0.038431495 0.0061442703 -0.0039525926 -0.024901956 -0.008923858 0.026801031 -0.031074759 -0.014907966 -0.0010420631 0.028833535 0.00029809773 -0.012350401 0.0390263 0.03945955 -0.007461821 -0.024207195 -0.014725506 -0.037546154 -0.02982839 -0.004673367 -0.0010051032 0.0076794825 0.003976385 -0.010945266 -0.004642139 0.030357882 -0.021366697 0.015809616 -0.015240367 0.04033577 -0.037863936 -0.024421483 0.03563965 0.011362712 -0.0076896152 -0.034682777 -0.0030790768 -0.013063088 0.04014402 0.0033964566 -0.038150173 -0.0003311982 0.00996838 0.02497765 0.028942779 0.03027252 -0.039083116 -0.038475417 0.027272955 0.0148266805 0.005705501 -0.00038686395 0.03332425 0.020808365 0.016658625 0.037366234 -0.033658754 -0.019423604 -0.03663164 -0.005126223 0.038493708 0.034324147 -0.0011835496 -0.015428434 -0.02723389 0.017751595 0.020730421 0.030387878 -0.0065819323 0.029608112 -0.033537846 0.03217871 0.008522551 -0.017702978 -0.0382909 0.014044608 0.012933984 -0.037722647 -0.029961854 -0.009123887 0.035223722 0.02773871 -0.025456946 0.019383337 -0.027279248 0.034360062 -0.02194051 -0.03234604 -0.014368683 0.0196188 0.027064284 -0.040387712 0.008542916 0.03607306 0.0016367784 -0.0030894876 -0.021383762 0.014475053 -0.0008865347 0.03886334 0.001983588 0.007531514 -0.035659656 0.037881896 -0.0363172 0.038387038 0.03855997 -0.009163733 -0.038652204 0.037907645 -0.018481612 0.009610514 0.014902557 0.010507072 0.023673069 0.031237474 -0.0020604283 -0.014914459 -0.03590278 -0.0015695691 0.029871067 -0.030683165 -0.0018434625 -0.015746485 0.020521795 -0.026891366 -0.01199464 -0.016908145 -0.041244026 0.025368249 0.0021999131 -0.005400598 -0.04120484 -0.03964307 0.022310883 -0.03216272 -0.021916717 -0.0026916019 0.00069553655 -0.023532227 0.02145001 0.005412703 0.019391691 -0.024836352 -0.014058049 -0.009858127 -0.021785906 -0.030016676 0.019277986 0.011242176 0.030496523 0.0159711 -0.022189375 -0.015951723 0.018360212 0.018509518 -0.032390736 -0.00780275 0.0154150035 -0.022238344 -0.008260071 0.0316078 -0.0077470145 -0.03458196 0.006912604 -0.0074109486 0.037357252 -0.003962174 0.011240011 0.029434115 -0.03779825 0.03265385 0.009642239 0.036044102 -0.019535353 -0.008701484 -0.036580365 -0.020687094 0.029187238 -0.026739663 0.00042658052 0.02648434 -0.014641916 0.01492106 0.019280206 -0.006703516 0.018928211 -0.03881843 -0.022801146 -0.038032435 -0.007397031 -0.032702044 -0.024582978 -0.01293775 0.04014283 -0.031238427 -0.03399474 0.023519104 -0.040717613 -0.03245024 -0.008458113 -0.03226527 0.040513225 -0.0042383126 0.022467937 0.02492491 0.01557087 0.01043204 -0.005917599 0.021295166 0.032561567 0.012492533 -0.020100337 0.023213312 -0.015106778 0.00807721 0.040844407 0.03163764 0.017538762 0.0034587434 -0.008140738 -0.014824569 -0.002170245 0.041561276 0.027543982 -0.012525624 0.0042615533 0.0034903537 0.02725479 -0.037549846 0.009228772 0.039880257 -0.0013491809 -0.02982749 -0.03986556 0.035454746 -0.02010434 -0.010778299 0.033970322 0.01148289 -0.031205406 -0.035504933 -0.022401497 -0.025838133 0.011146024 -0.010066554 -0.037439074 0.008846666 -0.030257007 -0.026308428 -0.041176967 0.00067453587 0.009680346 -0.015789121 -0.0012741238 0.035630718 -0.004908989 0.028953105 -0.012724107 0.025378183 0.007847145 -0.009402524 -0.02878454 0.0137233045 -0.010692462 0.0050452948 -0.0037266116 0.03454859 -0.018487742 -0.006235893 -0.030650403 0.041444805 0.016199753 -0.0029121242 0.030088305 -0.0021034977 0.0059223077 -0.012096341 0.010772809 0.01818429 0.02572388 -0.0017615011 0.0060597262 -0.0322942 0.04034318 -0.005398338 0.036827393 -0.040457543 -0.031244477 0.041358933 -0.018544933 0.031278875 0.007270818 -0.034091037 0.018858131 0.00011258324 0.004584144 0.021298042 -0.026565647 -0.030245095 -0.020110568 -0.037936367 0.0065020723 -0.0058926344 0.0008708189 0.0132766515 0.0341933 0.030483803 0.02414914 0.012688613 -0.02351683 -0.0058947555 -0.012480448 0.012438035 0.04108665 -0.014688268 0.0075163892 0.02335102 0.011765381 -0.013753618 0.036100116 -0.02403225 0.028168276 -0.012389427 0.008222411 -0.035568904 -0.02813228 0.032383904 -0.0016461264 0.0021072875 -0.010146136 0.02880986 0.018397465 -0.015153885 0.033711758 0.013563588 0.0102737695 0.0011487554 -0.040069893 0.0043851687 -0.01450327 0.03959304 -0.0015905648 0.004521971 0.025840074 -0.014545198 -0.03950748 -0.020863354 -0.03981946 -0.027958598 -0.00803417 -0.015595536 -0.016582256 -0.034575157 -0.028918028 -0.03408712 -0.0137106385 -0.014430861 0.04012716 -0.006193161 0.03928069 -0.02517512 0.031280085 -0.011800995 -0.0014422536 -0.040980756 -0.027777523 -0.00458093 0.032581367 0.0025522858 0.032778285 0.006514445 -0.03723187 0.022956729 -0.030027917 -0.02661114 0.001651014 0.036263324 -0.024281424 0.008246183 0.018608084 -0.024606347 -0.036933742 -0.0358812 -0.0011915863 0.017726064 0.018229818 0.022106707 0.032356642 0.03665687 -0.02324169 -0.03022243 -0.04056313 0.028531432 -0.028208535 -0.012527904 -0.01198264 -0.02367655 -0.030258104 -0.0051683537 0.0048618317 -0.029380884 -0.034067057 0.022121355 -0.0016352981 -0.0077257855 -0.038497366 -0.0046553216 -0.018159132 -0.029619282 0.037674244 0.02685292 -0.0024590343 0.029293895 -0.012607098 -0.035186805 -0.02994762 0.033694074 0.011457702 -0.032674503 0.0052570603 -0.03291945 -0.02575106 -0.017231261 -0.040585175 0.022301119 0.0011938761 -0.037263837 0.03632098 -0.033583514 0.024610197 -0.03450653 -0.018500712 0.022628983 0.03439004 0.036301605 -0.03418541 0.038179636 -0.033695545 -0.008503929 0.0309252 -0.015984824 -0.038089074 -0.03703501 0.040811908 0.032694846 0.017177474 -0.025779119 -0.012919923 -0.017409494 -0.035683133 -0.020575386 -0.016396573 -0.02968286 -0.022350242 -0.029667934 0.021121215 0.016535893 0.016263232 0.035337757 -0.012934397 -0.028068136 -0.007842293 -0.004380569 -0.0057064346 0.0083415015 -0.021714564 -0.036473792 -0.036589496 -0.005265062 -0.030021176 -0.008947159 0.031122854 0.027403116 0.01928012 0.0044944286 0.0039391173 0.020152962 -0.041275002 -0.014416471 -0.03538447 0.035145517 -0.020406744 -0.023970803 0.03705011 0.03062351 -0.03596921 -0.016802898 0.0067344857 -0.007081171 0.0076521635 -0.008772468 0.035647616 0.026526477 0.0022442043 0.019775525 0.02519553 0.034363084 -0.013985783 0.0049006594 0.032716658 0.00594151 -0.027282959 -0.029134205 -0.04125693 -0.031252336 -0.041368198 0.040642288 0.029793765 -0.027528778 -0.00045382977 -0.031012839 0.032149598 0.024395248 0.040488124 0.007143597 -0.016334917 -0.023557683 -0.017553087 -0.010842523 -0.001429081 0.020407876 0.008666858 -0.03899884 -0.033491116 0.018936088 -0.00067578757 0.032753542 -0.004428099 0.02897053 0.027480047 0.028426375 -0.0035490196 0.035550304 -0.00027425587 -0.03493341 -0.011515027 -0.03471522 -0.0050945533 -0.041384287 -0.02585214 0.024646353 0.0082132965 -0.020021927 -0.0044863475 -0.038212866 0.03215271 -0.028139269 -0.03297266 0.022157084 -0.0059507145 0.010079211 0.037483163 -0.0040778024 0.02422474 -0.011233484 0.02627742 -0.029139083 0.012922004 0.030141529 -0.0336297 -0.0010301869 -0.009825652 0.030159459 -0.03749185 0.021544358 -0.02275318 0.006441216 0.019950178 0.010867825 -0.03223644 -0.0022538553 -0.039213523 -0.0080279065 -0.025453806 -0.030638214 0.027326426 0.0207459 0.0076117916 0.027206015 0.008700147 -0.040611133 0.0021975886 0.027062556 -0.030925771 0.010808369 0.039363384 0.039100673 0.0113414135 0.036829054 0.040791564 0.021007985 0.03196488 -0.00038165352 -0.017888844 0.022478934 -0.03173609 0.03514461 -0.021395952 -0.017620822 0.012821659 -0.019087058 -0.030407673 -0.001012519 -0.032790877 0.028753808 -0.032595735 0.012262131 0.00349093 0.019668814 -0.041080207 0.0073218346 0.037477773 -0.015523161 -0.023099711 -0.007956306 -0.030197686 -0.02028133 -0.006059359 0.020788407 0.019818377 0.035514764 -0.012548089 -0.014709413 0.023959175 -0.01724201 0.0032532117 -0.009658173 -0.008582607 0.0011284997 -0.02303267 -0.037554905 -0.018722316 -0.030314624 -0.0370387 0.0036021422 0.018669298 -0.024461221 -0.018904507 -0.011358013 0.011081845 0.021187317 0.04058694 0.008451551 0.0012924324 0.011335492 -0.037633143 -0.018624097 0.011398266 0.024090912 0.017740369 0.0123934 -0.021206286 0.016064331 0.034240585 -0.018541377 -0.0196807 0.0023944876 0.03572932 0.020840159 0.03460079 0.012041315 -0.017497515 0.04004596 -0.036736146 0.002269864 0.027237838 0.00081598264 0.018598925 0.03485022 0.034633752 -0.010301953 -0.018761775 0.024132853 -0.03993535 -0.03676118 0.03792493 0.024311965 0.0063004447 0.037839916 0.003478229 0.022838926 0.02084068 -0.010435383 0.037803143 0.03803213 0.0030744027 -0.0069247438 0.021128377 0.030318752 -0.006759455 -0.013080254 -0.026935603 -0.008290733 -0.020972854 -0.02293865 0.01983833 0.02113399 -0.009347524 0.0409607 0.013846542 0.034091257 -0.00938805 -0.039791867 -0.0035805255 -0.02963842 -0.003824845 0.013352474 -0.021770269 0.009794593 -0.025682613 -0.041467696 0.0060536815 -0.017748069 -0.013669903 -0.03774279 -0.034273557 -0.03375292 0.03771387 -0.022843286 -0.001967902 -0.011682725 -0.02634137 -0.027080651 -0.0059370846 -0.030824583 0.039029937 0.014707461 0.014867365 0.009656514 0.0019517243 0.0375892 0.023647334 -0.025039822 0.03985336 -0.019701352 -0.01217262 -0.02831032 0.025007054 -0.035058156 0.0015909275 0.036453694 -0.011623567 -0.0011025816 -0.0013292581 -0.006162922 -0.011203593 -0.03660665 0.028312664 0.021494687 -0.007446359 0.013573289 0.02669081 0.0011862864 0.01873061 0.00042274594 -0.020623794 -0.012192106 -0.012260303 -0.0054759285 0.034329083 0.027632698 -0.04112334 -0.041105367 0.025239497 -0.028043723 -0.0022607248 0.014530053 0.023211166 -0.03001616 0.028452715 0.007579352 0.028249219 -0.013903911 -0.02757152 -0.0032804708 -0.003860275 -0.035132986 -0.018913424 0.005392338 0.025680106 0.019667864 0.025731942 0.024438411 -0.036222182 -0.013822447 0.022820896 0.0022749803 0.024038117 -0.040203746 0.033394605 -0.020682057 0.010012458 -0.018293768 0.039182343 -0.008577928 0.016582172 0.033181828 -0.018244049 0.037173606 -0.040180363 0.03792485 0.00998884 0.027003786 -0.04157197 0.02029666 0.0030955821 -0.005168324 -0.0073175533 0.0023708295 -0.011537801 -0.021959405 0.025452718 -0.03995174 -0.03820204 -0.030703139 0.033558097 0.00053774816 0.006777793 -0.036024284 -0.005136182 0.0060228705 -0.027392894 0.004281491 -0.03402024 -0.034482732 -0.03764809 0.022068799 -0.02266623 0.03531646 -0.017691717 0.014153829 -0.010651574 0.022580087 -0.022687852 -0.02312184 0.041643932 -0.024348304 -0.023391813 -0.006192784 -0.00023585558 0.010661061 -0.017797535 -0.030125534 0.03368398 0.006193335 -0.017515471 0.030514956 0.030996189 0.04124724 0.021841556 -0.00097314024 0.037532922 0.018274933 0.025752043 -0.009684841 -0.030091912 -0.0060094846 -0.008316448 0.020142337 0.0035957943 0.01559864 -0.021075537 0.03925557 0.009979755 -0.0012673438 -0.020811424 -0.022877943 -0.036635406 -0.015673598 -0.035256803 0.0133984145 0.007881045 -0.018813234 -0.019583195 -0.007025515 0.023213273 0.02850449 -0.011892423 -0.019595986 0.03862024 -0.0020701936 -0.028334137 0.017679533 0.024591934 0.014462069 -0.030119848 -0.003740261 -0.021922633 -0.0213231 0.017984768 0.0306403 0.026840981 0.017121335 0.017791342 0.030972382 -0.0040358505 -0.0015446544 -0.012593905 -0.0047955317 -0.025673341 0.021793839 0.026952019 0.034517393 0.025706302 -0.0028251212 0.036611717 -0.01492552 -0.0031239092 -0.032940783 -0.0050211353 0.038348015 0.027616259 0.0045562587 0.007324025 -0.035523824 -0.016844511 0.012533124 0.0260262 0.034097023 0.0237346 -0.019568708 -0.014904603 -0.037031464 0.010738939 0.012270073 -0.036087733 -0.026450124 0.003408149 -0.011450808 0.0050728275 0.028025052 0.011864534 -0.018743476 0.034081593 -0.034796722 0.013937697 -0.019098839 -0.027934527 0.039019093 -0.035063576 0.014716233 0.032291405 -0.026036149 0.009972314 -0.016732022 0.01864117 0.019834068 0.014859195 0.03781448 0.02407008 -0.01597856 -0.006856258 -0.015055652 0.030810645 0.038034122 0.0053023896 0.028661158 -0.02369611 0.014118677 0.002848511 0.037146367 -0.04161261 0.009800583 -0.027869921 0.0037538111 0.015267879 -0.012983337 -0.010209074 -0.037832897 0.012563145 0.040412873 -0.013836106 0.02504184 0.009040858 -0.0095869405 0.0030054748 0.035344675 -0.028601667 0.03937551 0.018894222 -0.032851495 -0.018557534 -0.037588693 0.006314422 -0.029972535 -0.0118281 -0.034816395 0.03604208 0.018829416 -0.022167921 -0.010655622 0.011819437 -0.030050233 0.012922779 -0.0072487295 -0.018661499 -0.02665778 0.0037079852 -0.026561197 0.00628003 0.014114256 0.027996626 0.0010391276 0.0113901 -0.038231835 0.015183613 0.034257513 0.03136538 -0.026204374 0.015520021 0.032435533 0.0321367 -0.0032509118 -0.025297835 -0.0017417918 0.03147806 0.020691356 0.009803897 -0.013131529 0.032093626 -0.026344776 -0.016717639 0.0033796132 -0.025536781 -0.013087864 -0.038473304 -0.036257815 -0.014735794 0.039619457 0.02250812 -0.01792176 0.034036443 0.006809523 0.03864206 0.0413873 -0.041208785 -0.038761415 -0.021560535 0.036836307 0.021169841 -0.011013622 0.00937594 0.02875438 0.011325553 0.037114725 -0.0035741776 -0.0016322236 -0.020604214 -0.04011443 0.007989074 0.030990114 -0.026275571 -0.006899953 0.012783349 0.022936076 0.009521837 -0.020816475 0.024163034 -0.019131785 0.0056747496 0.015778314 -0.04062095 0.027140811 0.02061605 0.021804791 0.0135013815 -0.023799678 0.012330438 0.03906995 -0.007246569 0.014043009 0.016475221 -0.0041071973 0.04064543 -0.020539045 -0.023677986 -0.016083058 0.03602187 0.022033181 0.0046035848 -0.039115228 0.0009266287 -0.02490826 -0.016509896 -0.028483465 0.031304326 -0.023882305 -0.019811243 0.03431893 0.008298889 -0.022550534 0.026826125 -0.03848046 0.021574816 0.037157632 -0.03287066 -0.041342467 0.015027365 -0.021555003 0.019947981 0.028804313 -0.012931745 0.007444839 -0.03551693 0.031507906 0.039212357 -0.038310044 0.020625805 -0.01147905 0.0065845847 0.036565207 -0.013650507 0.025422087 0.0375681 0.01475966 -0.0034684043 -0.03187814 0.017318424 -0.036853015 0.038990326 -0.008260369 0.04137989 0.006743625 0.00017160675 -0.003898417 -0.039474793 -0.0026818614 0.03775444 0.009412289 0.039024144 -0.010720099 0.007695511 0.017735254 0.014876261 0.019071858 0.011508728 -0.013666695 -0.037436783 -0.020713042 -0.039087918 -0.01675658 -0.016720306 0.018599486 -0.026880449 -0.019894501 -0.02258126 -0.037703246 0.0019667796 0.035930194 -0.036842644 -0.0086521655 -0.0016413282 0.036323868 -0.010296057 0.0064153224 -0.010695979 -0.001469031 0.021073988 0.010525659 0.013959855 -0.03596152 0.037521597 0.0028190862 -0.028612714 -0.0046228124 0.018196952 -0.0025495589 0.00037660202 0.026561191 -0.0062065674 0.0032674274 -0.0016839157 0.0019588321 -0.024165979 0.026551312 0.01226992 0.034625914 -0.030415088 -0.006744678 0.029087078 0.035213318 -0.024207544 0.0031920623 0.0020812303 0.022206321 -0.02634674 0.0089597255 -0.026634943 -0.0113027645 -0.0031468621 -0.03289435 0.007657066 0.038042612 -0.010009557 0.008671801 0.004456242 0.0011372964 -0.0010917287 0.016140357 0.03481037 0.02967542 0.024354976 -0.017836332 0.01665857 0.023111176 -0.03538526 0.018434634 0.028459078 0.022713404 -0.029690932 -0.007973051 -0.0055021495 0.0052070967 0.0035239707 -0.04129195 -0.028492128 -0.01639764 0.039911382 0.037830375 -0.034411963 0.0005817811 0.018992689 0.007024641 -0.033713035 -0.016110744 0.022350058 -0.019153815 0.039024945 0.017630842 -0.003627663 -0.03197096 -0.0029699206 -0.018694833 -0.032815248 0.008673355 0.029443732 -0.022324404 0.022071749 -0.0341331 -0.0045314683 0.014033347 0.00058765215 -0.032228526 -0.016692117 0.03319347 -0.01791592 -0.026059201 -0.0012555222 -0.040646225 0.004366532 0.00850983 0.020454984 -0.03428287 -0.035130084 -0.0036618214 -0.001815791 -0.039357346 -0.024239954 0.003440132 -0.01742749 0.032875128 -0.0017879854 -0.034816556 -0.026674703 0.021447122 0.009594163 -0.033604037 0.006830901 -0.01145733 -0.0341637 0.01156283 0.04044422 -0.030902823 -0.02934366 0.022612443 0.021663135 -0.030183494 -0.019705277 -0.027119195 -0.007983416 -0.0010759037 -0.017346745 -0.010917033 0.011473775 0.007073959 0.021940898 -0.013114314 0.03991042 -0.014719849 0.035550453 -0.012744646 -0.014448772 -0.017990848 0.023402726 -0.04047554 -0.019153565 -0.017320037 -0.0037772954 -0.00190488 -0.005396704 0.021255553 0.010796691 0.0022764504 0.02215222 -0.011859308 0.0067493618 -0.04074438 -0.040493324 -0.0028676193 0.027908087 -0.028271586 0.035832103 -0.000923271 -0.040109813 0.029999852 0.010629838 -0.032327943 -0.002136603 -0.02683424 -0.03262476 0.0055457256 -0.03558817 -0.040573545 -0.034011424 -0.03460267 -0.014416754 -0.022527855 0.013380731 -0.0038727573 -0.028070416 -0.038146146 -0.014641598 -0.036108654 0.027418017 0.0040083826 0.026183313 0.0073414696 0.012550826 -0.026294842 -0.03688135 0.01936081 -0.037022945 -0.04054437 0.037140813 0.011773646 -0.01013729 0.025172945 -0.012891715 -0.035634443 0.039180577 0.01475428 -0.0084830625 0.016544044 -0.03937193 0.022467867 -0.019466873 -0.010611614 -0.04055522 0.041024443 0.039762832 0.003892377 0.010730654 -0.017236337 -0.024882823 0.0037694126 -0.036334105 -0.006028305 0.0004994273 -0.0153901875 0.030070007 -0.008397674 0.010622631 0.014170295 0.013420736 -0.035835728 -0.004226297 -0.002846559 0.030987289 0.00888527 0.01276214 -0.015079692 0.018689906 -0.0027979664 0.005588745 -0.03571008 0.0046715885 -0.0021796029 0.023946514 0.014008935 0.024229815 -0.005210375 0.031471066 0.04119108 0.017652392 -0.037214007 -0.019891467 0.004734124 -0.004447043 -0.007906705 0.0012180855 -0.028212365 -0.022758216 -0.02498442 -0.011550715 -0.020901706 0.0031893603 -0.0038527302 0.0015105903 0.033828795 0.015727755 -0.021128431 -0.0037141244 -0.02700026 -0.037104692 0.040775966 0.018591424 -0.02936232 0.031807795 -0.015495077 0.018206477 -0.018197343 -0.023903232 0.018982073 -0.0053622923 -0.03669081 0.023923337 -0.008878699 -0.0067034564 -0.040533148 0.00472417 -0.03421109 0.022717755 -0.04125079 -0.017837118 -0.008208161 -0.009229372 -0.03713175 0.019824421 -0.024343213 0.0110140145 0.013932089 0.030261084 0.03125907 -0.03564334 0.03160902 0.016053677 -0.037157044 0.015908798 -0.035358645 0.029481467 -0.0008929273 -0.03447166 0.033313558 0.0031066786 0.031487234 0.033693805 -0.04045783 -0.038918257 -0.038610205 0.007817602 0.00871191 -0.017582586 0.010923132 0.013871829 0.027734574 -0.025124704 0.0077387393 0.016220268 0.020271033 0.0010751933 -0.0061368546 -0.025041938 -0.008460557 0.02597944 0.041653212 -0.011974355 -0.0076389015 0.018446516 -0.0076407744 -0.04086442 -0.007046461 -0.016842004 -0.009890109 -0.035259955 0.013039976 -0.011477714 0.007982622 0.035241447 -0.034018874 0.013639654 0.004806037 0.015703067 -0.039511394 0.0058970107 0.0057165427 -0.006970545 -0.0039079143 -0.010199031 0.019494832 -0.02024298 0.008093581 0.011165882 -0.024385419 0.011663457 -0.03559488 -0.0074736727 -0.027072212 0.01952435 -0.037998013 0.008236116 0.011490127 -0.010805851 -0.023126882 -0.023470413 -0.018499356 0.0068662716 0.026678106 -0.01671733 0.037123255 -0.03219823 -0.02814008 0.010133928 0.00941437 -0.0049862815 -0.0029537778 0.032587375 -0.027258774 0.036293816 -0.018818488 0.009956549 -0.04151515 0.00987119 -0.024248203 -0.02710263 0.00071981054 0.03919595 0.014378196 -0.009755349 0.015482004 0.0215523 -0.013080344 -0.019354086 -0.014216925 0.034903795 -0.036279157 -0.025514012 -0.030523207 0.025689915 -0.037899952 -0.03664757 0.035058465 -0.015826613 0.0133018745 -0.015489186 0.0077135167 0.025698166 -0.013086438 -0.015034651 0.032961365 -0.026565999 0.020111462 0.022669554 -0.023914149 0.011703849 0.012397906 0.023074444 0.014996211 0.009684464 -0.006631901 -0.025837278 0.0124655515 -0.005207832 -0.031891122 -0.015551766 0.007083406 -0.021692842 0.006659513 0.033739686 0.012064224 -0.038110938 0.04145999 0.04076553 0.02525973 0.03249885 0.03487531 -0.026235625 0.01898851 0.041239247 -0.0141387535 -0.039954282 0.021638881 -0.009153441 0.005250931 0.014945651 -0.023503274 -0.013116321 -0.0202701 0.014890796 -0.012321195 0.023696478 0.039200705 0.00699393 -0.0038245819 0.0019629102 0.01031886 0.04037821 -0.010176962 0.021822825 -0.011795819 -0.02535845 0.0068050027 -0.016619742 -0.011437218 0.018556893 -0.0022827736 -0.026211288 -0.009016052 -0.017424515 -0.01897592 -0.037123375 0.019302335 -0.019601867 0.008413723 -0.016284078 0.010528415 -0.023781475 0.011388819 0.0143326325 -0.04000157 0.0015837252 -0.031300925 0.0027292073 -0.04158151 -0.018666208 0.0353765 0.029875264 -0.024805408 0.006744027 0.02389216 -0.0398325 0.017719736 0.012892738 0.024991464 -0.0103665395 0.024575045 -0.041566994 -0.020636097 -0.017746767 0.027750388 -0.008647203 0.02365069 -0.0056096166 -0.01880243 0.0145222 0.023627758 -0.035081577 0.01779477 0.0106505705 -0.00044463575 -0.011236842 -0.015450965 -0.04011492 -0.033210084 -0.00860486 -0.015048018 -0.030248921 -0.032678135 -0.013556531 0.008463885 0.033681728 0.004318307 0.010166934 -0.023002153 0.030502051 -0.012470722 0.028751364 0.0019974213 -0.0006586611 -0.004369363 0.016364917 0.0051056696 -0.021147585 -0.0068715615 -0.021851882 0.037846997 0.012012407 -0.014387881 -0.018028256 -0.040704545 -0.037381973 -0.014107844 -0.006820177 -0.016798045 -0.011368802 -0.011320487 -0.026466232 0.030417075 -0.00027626753 0.014289102 -0.026557922 -0.01927559 -0.035123482 -0.018780401 -0.018609684 0.012281438 -0.019471109 -0.030512765 0.0033699125 0.016215479 -0.006004458 0.029513389 0.0042787543 -0.024493944 -0.03159789 0.006267324 0.030270522 -0.01716876 -0.029096832 -0.037781782 -0.0013305446 0.012091165 -0.011496967 0.0048158867 0.015385017 -0.029423108 -0.013503894 -0.02155166 0.009444952 0.02516379 0.0025369427 0.033028957 0.015092373 0.002429108 0.021719372 -0.012642309 -0.012093241 -0.01750498 -0.026675588 -0.040395163 -0.033507295 -0.031827755 0.019093022 0.023821857 -0.013403828 0.022770073 0.02614595 0.025359944 0.016601935 -0.007205884 0.024463391 0.007996291 -0.011864632 -0.018965265 -0.029254302 -0.011357675 -0.015690655 -0.007692362 -0.025897592 -0.013917765 0.03720496 -0.005757203 0.031123709 -0.027253559 0.013374935 0.038154077 -0.019584721 -0.01800346 0.025363877 -0.03812051 0.038837 0.0076380125 -0.017377134 0.03053911 -0.036943756 -0.028008526 -0.025373664 -0.0061472706 -0.01771537 0.041468736 -0.0112401005 -0.01694031 0.006959985 -0.041661352 0.012535751 -0.017008131 0.025898531 -0.014045308 -0.027317395 0.025807625 0.01950655 -0.002640158 0.01831707 -0.031844523 -0.026567146 0.01653808 0.015767133 0.02886298 0.04000237 0.002560725 0.00054188573 -0.04083882 0.021790411 0.037984245 0.0038751066 -0.037008837 0.027162865 -0.024948284 -0.012014359 -0.022666585 -0.040301062 0.0363896 0.019607436 0.019655582 -0.0004328241 -0.014174442 0.007997106 0.026531383 0.035851948 0.03096602 -0.008383195 0.012954111 0.0065466417 0.039609432 0.010593261 -0.030178955 -0.021947782 -0.036678128 0.030475652 -0.017122036 0.0040336847 0.027806466 0.02523767 -0.041660465 -0.010431811 -0.0039164377 -0.034132935 0.007928982 0.012367333 0.017270993 -0.019293305 -0.020286247 0.0037004552 -0.025942069 -0.029109672 0.029119527 -0.00550739 -0.028687757 0.011279106 0.0048400266 0.0044617457 -0.0031068872 0.041402146 -0.0029822588 -0.014398595 -0.030377 0.019024845 -0.031915393 0.010923743 0.025225338 -0.012634198 -0.016282838 0.03151407 0.017898634 -0.0043705953 0.014684305 -0.041183293 -0.009629339 -0.014694616 -0.0065886728 -0.007165869 -0.016162679 -0.038201757 -0.015855527 0.01488784 0.031136837 -0.029086187 -0.013360992 0.006353597 -0.040650737 0.028538223 -0.040454015 -0.027153656 0.015707498 0.037621714 0.014897585 0.0031451683 -0.026026612 -0.040624898 -0.029001564 0.013623968 0.03870272 -0.002718871 -0.005183707 -0.017463928 -0.020597037 0.012061611 0.023677777 0.008004189 -0.018428495 -0.035653085 -0.012603199 0.008322999 -0.03994414 -0.019173976 0.040403016 0.038389675 0.039823245 -0.01117458 0.000649338 -0.0062300367 0.016224131 0.006085585 -0.0013385465 0.0018236488 -0.02428409 -0.011564076 0.011668201 0.010273457 -0.025005257 -0.024489915 0.007914683 -0.025648788 -0.0096129775 0.0016734948 -0.02953088 0.018761313 0.008630311 -0.0048293173 -0.023218155 0.029775864 -0.015818587 -0.036644578 -0.029396823 -0.026255852 0.023864552 -0.0019277434 0.0303153 0.033173233 0.03588731 -0.02628628 0.031934276 0.0066654235 -0.037725538 0.03827861 -0.00032215318 0.030462554 -0.0072711557 0.03480735 0.03301917 0.02522397 0.019642478 0.030597374 0.03169958 0.010978237 -0.035258885 0.038647734 -0.0061276807 -0.0257902 0.021646276 -0.0073350817 -0.0144984275 0.0025195233 -0.037300378 -0.022924632 0.038133286 -0.037313655 -0.008940543 -0.017285204 0.032603204 -0.031560227 -0.016425744 -0.03014791 -0.01680189 0.022835523 0.039539255 0.009493113 -0.00091825426 0.00076538825 0.032011315 -0.033466697 0.012724519 0.0012693405 0.007103394 0.01589278 -0.030220147 -0.002224217 -0.036860473 -0.033333745 -0.02771612 0.01228262 -0.013864845 -0.026121825 0.022812536 -0.007473737 -0.013636346 -0.028275725 0.017109012 -0.0037256281 0.006035681 0.022451233 0.0003110717 0.01273421 -0.02889216 0.03162302 -0.021957275 0.016003331 -0.014577866 0.018114552 -0.020182159 0.038776275 0.031053405 2.4383267e-05 -0.040803235 -0.035082992 0.00572068 0.0134829385 0.035841532 -0.0014047524 -0.005986303 0.0060550375 -0.03741994 -0.00091699266 -0.007768075 0.013195708 -0.003237476 0.013177559 -0.032683425 0.020108938 -0.03272382 -0.021275118 0.0053691864 0.038829625 0.03346782 -0.013408547 0.03900134 0.014081314 0.0033798218 0.009500435 -0.032999646 -0.037553415 0.030494 -0.0104812635 -0.010273209 0.034075923 0.036866352 -0.008973619 -0.025696006 -0.019779956 -0.037648834 0.02070266 0.029505905 0.0041626147 -0.040674724 0.040247716 0.018461004 -0.026236098 0.007981127 0.019077381 0.0011847665 0.021812662 0.009803763 0.02219539 -0.023874313 0.013542935 -0.035395257 -0.029679507 -0.015868425 0.016730404 -0.01063942 -0.039504565 0.037010998 -0.017104616 0.017953118 0.0029030144 0.021095013 0.036366235 -0.036282565 -0.03766736 -0.00027673942 -0.03731726 0.009822841 -0.036599856 0.039339166 0.034544118 -0.03322589 -0.04120281 -0.006398797 0.024711248 -0.010164132 0.010823603 0.02760468 0.028227251 0.031636145 0.0003183633 0.025418054 0.025735006 -0.0039538248 -0.039390888 -0.008675074 -0.008359666 -0.0123962015 0.014519483 0.031904362 0.009805138 -0.0031793863 0.029213116 -0.022448387 -0.013480286 -0.0406239 -0.008010219 0.033255707 0.00887316 -0.033537738 0.024174646 0.03751747 -0.009891262 -0.0027008355 0.016164076 0.01564318 0.023165127 -0.014205853 -0.009988448 0.023690637 0.027511459 -0.014603829 0.0027392756 0.036262862 0.0284996 0.019604078 0.0364885 0.0044372333 0.03810644 0.02380824 -0.02119672 0.032356333 -0.008890058 0.020357868 0.005009691 0.00019099316 0.0008153717 0.036218233 -0.037982687 0.015082628 0.005050376 -0.030588716 -0.0031503737 -0.02724119 -0.012145619 -0.006901135 -0.022307768 -0.00844278 -0.015629575 -0.012690634 0.0054422272 0.021396667 -0.028931335 0.007985577 0.0042123846 -0.005218034 0.013714021 -0.036707398 -0.037549697 -0.0035003424 0.0044699265 -0.012635897 -0.029466828 0.04108156 -0.0003617853 0.030424282 0.03688445 -0.037060864 -0.0351623 -0.0067631355 0.024639979 -0.0029191475 -0.014825746 0.010842672 0.029082533 -0.01614446 -0.013757691 -0.038123887 0.019020956 0.025130913 -0.003224209 -0.002712354 -0.033500433 0.012745058 -0.034124285 0.011927138 -0.041646026 -0.028825026 -0.012462771 0.020499727 0.023923784 0.040046394 -0.027565151 -0.032578584 -0.007405515 -0.02084224 0.00763838 -0.030509125 0.015611917 0.0054674945 -0.034026247 -0.037129916 -0.03592017 -0.023768913 0.025918445 0.009328127 0.0112962425 0.01833525 -0.040127553 0.03222608 -0.02286397 -0.034584083 0.04102996 -0.035289302 0.01189442 -0.027139341 -0.040094838 -0.009899532 0.0008069029 -0.0036005825 -0.032682583 -0.036711216 0.025549939 0.024806798 -0.02381008 0.031648964 0.0322788 0.037533578 -0.01124243 -0.000716274 -0.022334587 0.03933222 0.0030033886 0.02796033 -0.024706122 -0.02991499 0.020237744 0.00657854 0.024918586 -0.025120646 -0.012012154 -0.034934506 -0.026535016 0.020390969 0.0017476281 -0.014872819 -0.0348489 -0.038372513 -0.00919878 -0.021117315 -0.011129583 -0.017187607 0.019947708 0.008702706 0.021705603 -0.020530999 -0.017125323 -0.040222626 -0.022860518 -0.012962724 0.0009313524 0.0030715219 -0.013680106 0.019452076 0.02077381 0.018915743 -0.00474 -0.021633944 -0.008266951 0.035347115 0.006187211 0.024191475 -0.003667777 -0.039750125 -0.012811771 -0.012420222 -0.009285575 0.03720642 -0.04053759 -0.009870539 -0.014794777 -0.03162485 0.015832704 -0.00086128217 -0.011652729 -0.013733953 0.013982892 0.032963526 -0.023952078 -0.02245444 0.007515873 0.041146077 -0.012867838 0.021076676 -0.025317308 -0.028433844 -0.030147603 0.0062463186 0.014091745 -0.036918253 0.034779053 -0.020138284 0.003603076 -0.024776941 0.017648857 -0.0011565834 0.02725113 -0.026153049 -0.022224572 -0.027017083 0.039839216 -0.027609905 -0.0014928132 -0.031302653 0.010299514 -0.021165049 -0.036571078 -0.01392367 0.024755448 -0.028594768 -0.024938107 -0.033447023 0.0049208403 -0.0010804038 0.0123365475 -0.030729637 0.028202336 -0.035002105 -0.0017441362 0.033747956 -0.008537645 0.0065308614 -0.020411095 -0.023850879 -0.014690658 0.013237035 -0.0016651452 -0.028868195 0.026336353 -0.0039339117 0.007627835 0.018415522 0.022770435 -0.01763936 0.00089754665 -0.030765917 -0.020111894 0.03218744 -0.007430847 -0.030636262 -0.019987654 -0.017256593 0.02833676 0.02465503 -0.03095828 -0.041003667 -0.019242208 -0.031576242 -0.0059393696 0.040092718 0.010237093 -0.03442308 0.016006168 -0.031313308 -0.021300718 0.0031236063 0.035868295 -0.023684055 -0.019844085 0.0060140193 0.023895457 0.038629405 0.030915698 -0.0046633533 -0.01655893 0.03349337 -0.0061590523 -0.015379271 -0.016852543 -0.035329666 0.007046213 -0.019959971 -0.013963014 -0.011358932 0.0033465824 0.038810052 0.003448839 0.034620207 -0.028640196 -0.00571914 0.039088424 -0.037743337 -0.036445983 -0.030025324 -0.036802 -0.014047772 -0.008814475 -0.031414673 -0.0356019 -0.039936 0.02456991 -0.00064232945 -0.021806797 -0.03305746 -0.025671413 -0.0055220826 -0.024586698 0.024774825 -0.0059105307 0.041059803 0.0409905 -0.03902204 -0.034903906 0.007754217 -0.040165216 -0.009030412 0.0029334675 0.024164533 0.021587968 0.030626386 0.014994199 -0.02699861 -0.031865105 0.038822573 -0.0048009804 -0.022022769 0.031539183 -0.024429899 0.0028738778 0.0037348173 0.022981241 -0.034087475 0.02321845 -0.01896603 -0.022904178 -0.0075051486 -0.03039751 -0.0060171485 0.025827413 -0.0054944856 0.0074599683 -0.012790899 0.017980933 0.027667776 0.006297976 0.034838073 0.036607187 -0.014618769 0.0027176044 -0.018717742 -0.0258717 0.03430706 0.02132095 -0.012584275 -0.0027781974 0.03546248 0.0015321722 -0.0044006063 0.022871014 -0.021158045 0.017653352 -0.021981403 -0.033192605 0.0068350188 -0.007329638 0.017765623 0.014631729 -0.020849675 0.03829308 0.014869347 0.01697514 0.0011627178 -0.015034552 -0.021701297 -0.011202822 -0.026921457 0.0044253618 0.012181248 -0.038475245 0.023156404 -0.0027618757 -0.037242405 0.032445576 -0.031664044 0.014886702 -0.03912136 -0.021344736 -0.0077266893 0.030504908 0.00087826455 0.01879409 0.0028001915 0.029693207 0.0094394535 -0.035587665 0.02477616 -0.0077738464 0.027750086 0.0134377135 -0.010109018 0.038438253 0.022176098 0.01845698 -0.011089629 -0.008683762 0.025086254 0.0096175475 0.040621184 -0.0068813018 -0.0058983467 0.039040543 0.009454241 0.012980556 -0.029578865 -0.0037807426 0.016020771 -0.014484024 -0.022697762 -0.04120212 0.012622382 0.0034266661 0.0031735501 -0.008242777 0.0012655755 -0.038487583 0.0143902 0.036593616 -0.028139016 -0.024371248 -0.00680698 -0.011477565 0.0034240435 -0.012197962 -0.02601787 -0.015972119 0.041052192 0.008999194 0.034334794 -0.02602394 0.030050129 0.006007269 -0.033848897 -0.03730783 0.007124116 0.031763785 0.012557706 -0.010720472 0.030347612 0.022106534 0.008306573 0.03293717 0.026817814 -0.0112276375 -0.01300545 0.014727792 0.03464366 -0.005499413 0.038548302 0.003825749 0.0010005435 0.011041006 0.039930537 0.017502736 0.03445853 0.020445323 -0.021660343 -0.012738168 -0.03806185 -0.015258938 0.029035252 -0.019942358 -0.024526265 -0.017012294 0.02957677 0.031945214 0.0014867833 -0.03846171 0.007253374 -0.0006495714 -0.021080121 -0.012593493 0.014961909 0.002189701 0.025536846 0.034345444 0.0017406147 -0.03373269 0.034226246 0.03409119 0.00408417 0.039628886 -0.038627815 -0.0074227504 -0.01426059 0.031259924 -0.014738138 0.0096324235 -0.034258373 -0.028526029 -0.04080617 -0.036969822 0.010900682 -0.0025113623 0.03428594 0.034292053 0.032353826 -0.030792966 0.008204445 0.019038286 0.037091803 0.013830304 0.006939471 0.027886942 -0.029320892 -0.0025572479 -0.01659289 0.029018855 -0.012425691 0.0016540488 -0.021948963 -0.038445897 0.01808629 -0.011355559 -0.009198999 -0.011036694 -0.0047765723 0.014317429 -0.032834426 0.0049983812 -0.02889815 -0.031754903 -0.0026234786 -0.016230673 0.012944366 0.02044876 0.010782829 -0.018771514 0.023727834 0.009899001 -0.0074361167 0.01151756 -0.017129293 0.005146603 0.023927163 -0.0214928 -0.011637321 -0.0128771365 -0.029425194 0.027982607 0.032664232 -0.035003852 0.007536228 0.004225865 -0.025545314 -0.03351938 0.04095603 -0.022874227 -0.03823408 0.00010855993 -0.0036799412 0.03013744 0.012203659 -0.040830888 -0.030067116 0.018220887 0.025517955 -0.024719378 -0.037533835 -0.03535868 0.0036176394 0.014070427 -0.03657548 -0.014534886 -0.021562304 -0.025898363 -0.00917623 0.027282339 0.00022041798 0.015692364 -0.021526601 -0.034620102 0.033454277 -0.025117438 -0.041032463 -0.03036971 0.015222883 0.022554344 0.010600343 -0.021732073 -0.032885697 -0.025671318 -0.010098582 0.022206198 0.024754202 0.012381813 -0.03201024 0.025826558 0.014033447 -0.00055317086 0.025850764 0.03842826 0.015890395 -0.03338113 -0.039327122 -0.009947389 -0.0022161058 -0.032957837 0.0030110877 0.03826299 0.036591124 0.02755475 -0.009718533 0.02265583 -0.021242425 0.0034576904 0.032822277 -0.0015868694 0.025919776 0.0147733595 0.020875623 0.008162707 -0.020230358 -0.023972314 0.007864317 0.029638227 0.010178199 0.032299332 0.040565517 0.03444114 0.023181414 0.025026431 0.0039901785 0.029829502 -0.017028835 -0.03788218 -0.031402342 -0.028874582 -0.0059147133 0.041384965 0.022395432 0.009082913 0.03438519 0.02689758 -0.027885666 -0.027211761 0.004994571 -0.0058324686 0.003618012 -0.015550281 0.010518253 0.008607979 0.033341046 -0.034093402 0.0024454347 -0.021739116 0.028341856 -0.008564547 -0.012630498 0.033784024 -0.030128505 -0.03362327 0.028877338 -0.032416563 0.02950117 -0.025707494 0.024105351 8.124113e-05 -0.012678385 -0.03809329 -0.0022267948 0.0018153191 -0.010800749 0.0057082972 0.010463561 -0.018545624 0.030083448 0.00581114 -0.01869611 -0.013469855 -0.014352332 -0.029348737 0.030286357 -0.011556844 -0.029143846 0.03856167 -0.02701497 0.024252519 0.01829305 0.028295904 0.024345797 0.039858606 -0.017200813 -0.0040729344 0.0029585562 -0.010464132 0.011020949 0.026255395 0.020766791 -0.03249588 0.009058054 0.016368669 -0.015560955 0.011784474 0.002444456 0.030972367 0.0045101596 0.004564231 -0.033802666 0.018161958 0.009877503 -0.014749095 0.0006875694 -0.040876687 -0.00051932037 0.034029007 -0.002383083 -0.018964928 -0.036237907 0.0017257135 0.013733229 0.016910251 0.011272987 0.00010547042 -0.024809316 -0.010933399 -0.008558015 -0.018976685 0.020197313 -0.03980423 0.032125443 -0.0029212188 -0.0062452853 0.027157992 0.011907807 -0.02236127 -0.016712543 -0.0038227886 0.02043209 -0.00035511455 0.009646317 -0.029550826 0.025227001 -0.038987815 -0.012793427 0.020220608 0.03769511 -0.03189379 0.025563097 0.015267298 -0.026134443 -0.014535735 0.016246121 -0.007407884 0.020827666 0.004987245 -0.012029385 0.006440749 0.006737287 0.024467787 -0.007613545 0.020006066 -0.010544872 -0.009521167 -0.0088879615 0.017702188 0.021611314 -0.0137051 0.026325192 -0.036633473 -0.016913634 0.018557956 -0.02933912 0.036742464 0.041240588 -0.029761827 -0.008254553 0.013914665 0.0043507866 -0.038981646 -0.003590539 0.015824374 0.013399487 -0.008090502 -0.027542602 -0.015020589 0.040143162 -0.0054768473 0.03697523 0.026941475 -0.039510693 -0.018742343 0.02129988 0.007043898 -0.023158094 -0.011793276 -0.007201582 0.02328909 0.0058964044 0.007462263 -0.04157655 0.025257414 -0.020093128 -0.04099124 0.012975961 -0.008401151 0.03473504 -0.008309971 -0.020790875 -0.02413955 0.009049311 -0.026397124 0.025021385 -0.00023779273 -0.03188179 -7.430713e-05 0.01027675 0.011739026 0.0093896445 -0.006417816 0.015425712 -0.015481929 -0.018289885 0.0063882126 -0.005675122 -0.02904595 0.012231937 -0.023200145 -0.03325382 0.03881958 0.026130151 0.032190546 0.040853336 0.02387331 -0.026089039 -0.00018526614 0.0043151183 -0.03732082 0.003486405 -0.021430448 -0.018420145 0.032910854 -0.014521728 0.0043737045 0.037708428 -0.030051168 0.0121120615 -0.011735871 -0.020930797 0.0027870387 0.022118222 -0.007992427 -0.0060838265 -0.0035875044 0.029169898 -0.021683514 0.02565001 -0.005450552 -0.009868538 0.022311747 0.037247106 -0.001821503 0.04017314 0.022935018 0.009312014 0.0058570905 -0.0061557293 -0.039102398 0.036386624 -0.036251113 -0.0128430035 -0.024997449 0.03202077 -0.005337174 -0.031530917 -0.018542578 0.029421037 -0.027198201 -0.012336145 0.0374159 -0.038744204 -0.025804272 0.014756208 -0.035251588 -0.038997203 -0.03259988 0.030674215 0.008103117 0.013007209 0.030003866 0.017092973 -0.037775695 0.03809978 -0.002383709 0.02721402 -0.019601574 0.005622705 -0.022856941 0.014435291 0.040236663 0.01594856 0.011243354 0.04152298 -0.037006985 0.0008166681 -0.025605842 0.017244488 0.008329481 0.0130876005 -0.0048817894 0.007871742 -0.029121771 -0.013507913 0.026643988 -0.033306684 0.013923834 -0.028958788 -0.01260074 0.03013393 -0.024019405 -0.009058471 -0.028324923 -0.04057859 0.038337078 -0.020656224 0.014184535 0.030480837 -0.025001785 -0.0028439313 0.037648015 0.010388131 0.022500183 0.01192836 0.028812855 0.02884086 -0.030528829 -0.032560557 0.014123912 0.013900976 -0.0060127727 -0.027731404 -0.021794166 -0.022017201 0.010832882 -0.03557147 0.00018440187 0.012029703 0.026329082 -0.01052784 -0.03106914 0.0340804 0.016226336 0.030290281 -0.03807127 -0.020192072 -0.03828293 0.016948735 0.0045984983 0.00990444 -0.019483294 0.032818936 -0.004235064 0.0034791182 0.03898561 0.0358651 -0.020002302 -0.02745682 0.00822635 -0.028204095 0.011215518 -0.0067619383 -0.0011231552 -0.011294763 -0.0076669008 -0.00083605945 -0.027485078 0.0004904568 -0.02336289 -0.023462594 -0.02905809 -0.0035408637 -0.035757884 -0.037353963 0.04166354 0.027361453 -0.02296479 -0.009822036 0.02314077 -0.017981973 0.009545445 0.03789977 -0.009365976 0.005400921 -0.0381806 0.03805878 0.02159976 -0.024431646 0.0014138024 -0.025300121 0.0153039945 0.0063259057 -0.029391786 -0.034774467 0.0068772985 -0.022714427 -0.03442062 0.039917193 0.021104287 0.006403362 0.041513003 -0.03145688 -0.012379527 0.041521594 -0.0063839657 -0.03708514 -0.015742248 0.027184054 -0.024433583 0.02861563 -0.013767248 0.016719908 0.008998871 0.03743787 0.008348918 -0.005171965 0.006320914 0.009918809 0.014314011 0.02627877 0.018553143 -0.030204326 0.005881205 0.033464096 -0.007267366 -0.001567786 0.0055153174 -0.03114671 -0.0343813 0.019357746 0.024119806 -0.009552693 -0.0052829287 -0.039857488 0.038376547 0.032612443 -0.03835789 0.006660372 -0.027057236 0.021915402 -0.029851194 0.029331457 0.01584509 0.006667505 -0.03812348 0.028341636 0.039809234 0.026963454 -0.027287384 -0.036753397 0.014876152 -0.012989989 0.040611118 -0.0025679967 0.027458113 -0.039643764 -0.0041768355 -0.026532244 0.0401197 0.03034096 -0.025233358 0.033611365 0.036763854 -0.005801191 0.033295617 0.011976635 0.019685071 0.010217041 0.0056145987 0.041041445 -0.02802368 0.023418978 0.02887482 -0.025690204 0.01827271 0.0024748496 -0.036621656 -0.0059080026 0.015847173 -0.020906603 -0.02291437 0.006567538 -0.041372053 0.03843382 -0.015951142 -0.031605296 -0.032291573 -0.016915366 -0.036523845 -0.011981264 -0.028793812 -0.006974891 -0.00030854344 0.00086055696 0.038696907 0.019466322 0.019038603 0.0042814366 0.03019715 -0.001243189 -0.02006903 -0.017776182 0.015755882 -0.018456176 0.024905708 0.00770099 0.008111969 -0.015997529 0.012151177 0.0022767584 -0.0063760034 0.0025175116 0.015951663 -0.037764587 -0.035118595 0.02967311 -0.019006431 0.012970607 0.04006798 -0.016561773 0.0049287975 -0.028711965 0.0052859387 0.0041065514 -0.041665904 -0.040013924 0.03144608 -0.0033581953 0.0044938326 0.0093202945 0.029453045 -0.031819295 0.0007362714 -0.0041227043 0.00065579516 0.026083305 0.021466892 -0.01643486 0.02444697 -0.011769111 0.018160135 0.0011253258 -0.03678619 0.027200516 -0.036383446 -0.040323474 -0.00596944 -0.00582849 -0.008839121 -0.033787124 0.015990507 0.0019822966 0.026774367 -0.022614118 -0.015958592 -0.025414875 -0.032206275 -0.012713502 -0.013337861 0.023760423 0.010225604 0.0052003614 0.032190718 0.006994163 0.0036251347 0.00971661 0.025050879 -0.0034186244 -0.015862426 0.01953131 -0.035377767 0.015303707 -0.011560446 0.026787609 0.02260673 -0.032497164 -0.016506921 -0.015367354 -0.038875367 -0.032111835 0.035877302 -0.0027605891 0.020322775 0.0061977506 -0.01581256 -0.008600026 0.0038326583 -0.035777297 0.040279597 0.017636076 -0.020233667 -0.024856295 0.008165489 -0.037511863 0.012523159 -0.021789765 -0.026234519 -0.040817853 0.018216982 0.03229494 -0.0026222616 -0.039558142 0.020920139 0.022103002 0.02327772 0.0349466 0.002626742 -0.040174834 -0.036124032 0.00955151 0.028371131 0.003906389 -0.03818094 -0.03266135 0.03389667 -0.038866267 -0.03774429 0.010686299 -0.0333119 0.03651779 0.020059492 -0.031906467 0.013016632 -0.0037347577 0.03348608 -0.030623537 -0.023851167 -0.039001785 0.008622542 0.032522485 -0.027580943 -0.021190897 0.009310718 -0.02278715 -0.012310053 0.036899336 0.018496972 0.025329169 0.017632008 -0.007979885 -0.02260011 -0.020866266 0.031405464 -0.036920648 0.013769671 0.03534029 0.029723551 -0.022636086 0.02041122 -0.032225616 0.0221124 -0.022242378 -0.012926291 -0.009491459 0.032346472 -0.028988516 0.014103189 -0.011469449 -0.019426223 -0.024362197 0.00046005845 -0.030262243 -0.04094243 0.03889603 0.036218118 0.027892377 0.024984142 0.010934016 0.022091951 0.013221955 -0.011958192 0.01303191 0.011278386 -0.0008761188 -0.039947987 0.0013530552 0.016405623 -0.0024634998 -0.021577379 0.009824569 -0.004940371 0.01651304 0.029786846 0.0078118294 0.013375869 0.01625979 0.023078796 -0.0025649122 0.0075053624 0.027762037 0.0071317605 0.0065505607 -0.032453995 -0.03723745 0.026413586 -0.015204877 -0.020119157 -0.018280735 0.03626603 -0.030891042 0.03524981 -0.02993237 -0.027991425 0.00276575 -0.013905267 -0.020850744 0.007719308 -0.013271451 -0.038948014 -0.0134789795 -0.0100996 0.014578557 -0.005134349 0.038679615 -0.027822375 -0.0046119792 0.0011234184 0.03254762 -0.01828595 0.03654114 0.029460728 -0.014524664 0.036786437 0.024827963 0.0057130456 -0.03374835 -0.004784907 0.031321015 -0.019661661 0.0045036725 0.038718842 0.026730984 0.036225747 0.031911023 0.022881141 -0.03401498 0.040349122 0.028541222 -0.030941924 0.029654857 0.012896603 -0.027827214 0.040670857 -0.035289653 0.008904333 0.03839495 0.021774199 0.01872496 -0.030766701 0.016602512 0.037416838 0.03559064 -0.020541256 -0.016751543 -0.01141721 0.012172948 -0.004549126 0.013443083 -0.033929504 -0.011722416 0.019744521 -0.015981367 0.00828523 -0.009579793 -0.0034168712 -0.03658162 -0.021405112 -0.0053426526 -0.013163125 0.011411032 0.0031351498 -0.040880676 -0.032086432 -0.018742075 -0.019360706 -0.009380023 0.035103615 0.0141821755 0.0012433182 0.015113955 -0.004247303 -0.029929042 0.032938898 0.04111707 0.018982252 -0.030905705 0.02035287 0.009049341 0.02850838 -0.008196643 -0.009166589 -0.03894154 -0.032943085 -0.00012164315 -0.013139452 -0.008979554 0.015406689 -0.003238082 0.01301159 -0.0009780377 -0.035760507 -0.03437383 -0.0031336348 0.036042076 0.012725234 0.0068221986 -0.016917333 -0.022979543 -0.031270035 -0.0024686158 -0.022748575 0.012049755 -0.0054658456 0.03045185 0.021116283 -0.0065291724 0.024667751 0.019494614 0.0049976856 -0.03653136 0.036204867 0.031979576 0.013133894 -0.0067534796 0.03259495 0.036355507 -0.029894825 0.03711806 -0.011935791 -0.034314524 -0.021541297 -0.011006544 0.03202578 0.014465233 0.02533034 0.009459987 -0.035562407 -0.0256004 -0.029205602 0.029073995 0.020342847 -0.017985513 0.008746048 0.0111961765 0.0061404756 -0.009630641 0.010006791 -0.038293645 0.011311373 0.027188694 0.021866819 0.03413291 0.039916527 -0.0034417908 -0.016028574 -0.028563973 -0.038493857 -0.0023272983 -0.0054840595 -0.021365538 -0.0035389564 -0.03561017 0.026651477 0.014736856 0.03069835 -0.032545175 0.0016827534 0.0036604404 0.0061310977 0.017199054 0.019987177 -0.031764504 -0.0064370236 -0.027448704 -0.0059526367 -0.02447873 -0.02467142 -0.041154366 -0.033197157 -0.029686227 -0.02999965 -0.0060252002 0.02496021 0.021126395 0.022883445 0.024707666 0.023431893 0.032473788 -0.01389208 -0.018644124 -0.006350865 -0.002082169 0.039966814 0.022144347 0.008342078 -0.023798212 -0.03253419 -0.04148449 0.0051418645 0.038515314 -0.038488835 -0.04012253 -0.007855902 0.015162295 0.03761342 -0.016585832 0.0058240443 