-0.0074551725 0.013178916 -0.015272752 -0.006590939 -0.007576949 -0.002033636 -0.016966917 -0.0052966075 -0.010658482 0.007964349 -0.007788322 -0.0008600014 -0.011567885 0.006303172 -0.007555055 0.012401373 -0.007311008 0.013410224 -0.008229095 -0.0076677226 -0.00034752063 0.0022964096 0.01262906 0.012581757 -0.0017197516 -0.014166094 0.0145910755 -0.0052548354 0.0011404434 0.007905428 0.011604701 0.0014522822 -0.0005206274 0.014755803 -0.0057668732 -0.008288706 0.003882898 -0.0025088766 0.0011063772 -0.0074142776 0.015363298 -0.00038080133 0.0023497343 -0.008377855 0.004855865 0.015182581 -0.008004836 0.0006428723 -0.0134300385 0.0053113424 0.0034241762 -0.009927991 0.010396525 0.010078723 0.00502124 -0.007009713 -0.01219212 0.015958292 -0.011066953 -0.013309073 0.0032908663 -0.009960475 -0.0059161233 -0.003314108 -0.007024878 -0.00041762635 0.014157464 -0.0033746406 0.0087410305 -0.010699452 -0.014358219 -0.01072918 0.016956836 -0.00767327 0.011414761 0.01436118 -0.012087946 0.00016339976 0.0039565247 0.0025110906 -0.011808854 -0.009737677 -0.017809886 0.012036098 -0.0070196097 0.008678754 -0.0037128034 0.0054391986 0.010441419 -0.015316593 0.0073906635 0.0026853278 0.009863656 0.0010217109 -0.016636271 0.0011196882 0.008615686 -0.010671559 0.013331156 0.0011049956 0.00416241 0.0132401 -0.002030707 0.017806657 0.011416187 -0.0014611654 -0.00023929989 -0.016578916 0.014425499 -0.009504929 0.012174788 0.015796155 0.0048371023 -0.011099032 0.007158535 0.0042472975 0.0007107173 -0.01642478 -0.016381405 0.0032847526 -0.01072912 -0.006108687 0.0011376654 -0.0075701736 -0.008232196 0.0025866607 -0.009601142 -0.00945354 0.007401092 -0.010572476 -0.01424378 0.007368846 0.00032583732 -0.013562171 0.008630919 0.0017243391 0.0024955508 0.0027999135 0.00057471014 -0.011802516 0.0046147406 -0.01220416 -0.011661892 0.009494592 0.0006156032 -0.0055835997 0.00591114 -0.015346588 0.011422024 0.002295409 -0.006121474 0.009212379 -0.003226129 -0.013345072 0.012768531 0.017824203 -0.011697868 -0.016171327 0.016371546 0.013439138 -0.009515333 0.0007034328 0.014352497 -0.0023340967 0.016919196 0.016726667 -0.0028192871 -0.0083214305 0.013004889 0.0096791815 0.0118649695 0.014598811 -0.0037729167 -0.005965744 -0.0029685711 0.014752508 0.006440559 0.0063251154 0.011597932 0.0024109462 0.017160445 -0.016661776 0.009439622 0.017438617 -0.015626062 -0.0060145813 -0.005794849 0.015446553 0.0028466966 0.0035401713 0.000544944 0.0022541967 -0.009175658 -0.009547313 -0.009939501 -0.011480869 -0.0013736062 0.008727293 -0.0034361717 -0.0040581166 0.014857508 -0.00062800734 -0.000201849 0.011479327 -0.008761949 0.002823719 -0.0152768055 -0.0128896665 0.009760325 -0.013174477 -0.009496785 0.008558536 -0.011528379 0.014493994 0.017341372 -0.016211543 0.0142227635 -0.0034329807 -0.008047615 -0.0078591965 0.0016219851 -0.0028047839 0.017799895 -0.0014657634 0.009058165 -0.00031219423 0.009054093 -0.011188593 0.013352604 -0.003179493 0.012478893 0.012986356 0.012188482 0.00024017267 0.0037820917 -7.126162e-05 -0.0047248476 0.015003757 0.003746631 0.005980243 0.0003384884 -0.009007639 0.011962163 0.010712569 0.0017197473 0.013498105 0.0023604739 0.0059607285 0.011696271 -0.0062812185 0.0039336532 0.007578818 0.0033768204 -0.013854151 -0.0018672199 0.014908396 -0.010107933 -0.0014761793 -0.005223992 -0.0067077857 -0.009364957 -0.015519296 -0.011476523 0.009602445 0.007058806 -0.0143932 -0.01253725 -0.007615392 -0.00710825 -0.010341 -0.006612414 0.0063680178 0.014681973 -0.01580821 5.77122e-05 0.011606968 0.004080981 0.0023595968 -0.000837754 -0.009056794 -0.016772494 0.013939511 0.0112294005 -0.0057559228 0.003942837 -0.01712873 -0.0041017705 0.008167795 -0.011093353 0.010440003 0.0048638415 -0.0076812147 0.016414044 -0.002039569 0.0077275 0.00012819895 -0.008778093 0.005985437 -0.014314752 -0.010409754 0.014694702 -0.0056520086 -0.009887785 0.012140941 -0.0031565216 0.0090545695 -0.010289798 -0.015853696 0.003701025 0.0057270913 -0.0010657503 0.010809867 0.00027000904 -0.017713362 -0.010501537 0.012782085 0.013644589 -0.0015989479 -0.009038592 0.016374463 -0.009572483 0.0053732633 -0.0086259935 -0.007944131 -0.0062573277 -0.015971465 -0.011484455 -0.011560617 0.0108731305 0.0030658992 -0.0074343174 0.00894729 -0.0029260751 0.01565139 -0.0001992413 0.014924357 0.006128122 -0.009479651 -0.014356705 -0.01782834 -0.0007587608 -0.01494479 -0.01482665 0.016487477 0.013531683 0.009931224 -0.015202371 -0.0016621266 -0.017083976 0.0144531075 0.012334745 -0.016953543 0.013811467 0.0039085983 0.0063526933 -0.005216556 0.0046875626 0.014609071 -0.0067324005 0.013351775 0.011686132 0.008072168 -0.009338675 -0.01122479 0.014552413 -0.008226219 0.0040773773 0.012014077 -0.0026226493 -0.01081355 -0.006259369 -0.004049214 0.011173702 0.010854364 -0.011386614 0.0051388144 0.0025915122 -0.008712475 -0.003850803 0.0045413845 0.01746107 -0.009232486 -0.0010600686 0.012433938 -0.002705338 0.016612884 -0.0002801014 -0.003983577 -0.0062943147 -0.0011301829 0.016275937 -0.017388105 -0.0064695436 0.011379079 0.010176387 -0.010144358 0.017338095 -0.016905388 -0.0013827576 -0.005640711 0.012481028 -0.015509812 -0.0046426463 0.007429483 0.014349376 -0.014000529 0.01372302 0.0023317104 0.00741766 -0.010008519 -0.0056848573 0.009288299 -0.013639551 -0.0058183055 0.012659503 -0.003029334 -0.012591398 0.007847465 -0.0025916335 0.010111734 0.010105419 0.00019675281 0.012144645 -0.015689531 0.0079905605 -0.008409927 0.0024268096 -0.012899471 0.016043752 -0.015881488 0.0061679506 0.015266398 0.01021236 0.0017592439 -0.007620352 0.012995697 0.012049261 0.014362772 0.0011310875 0.011860637 -0.010109651 -0.005571651 0.0035163655 0.009574708 -0.0057312893 0.012440135 -0.01729771 -0.01063841 -0.012693133 -0.0008324577 -0.011586518 0.015146689 0.0026363903 0.007462238 -0.00016174359 0.010574582 0.012292554 0.0018776592 0.007987461 -0.005938277 0.014350036 -0.008095627 -0.010427605 -0.00019816842 -0.0019634154 0.011936237 0.01099055 0.0040319287 0.008866089 -0.0013177566 0.010469716 0.002997801 -0.0134761045 0.0027693405 -0.011058925 -0.00843664 -3.6816513e-05 -0.012540019 0.008292092 -0.0036460545 -0.00044453997 -0.0030060285 0.016527424 0.009276214 -0.008566755 -3.4551536e-05 0.0053181057 0.005829786 -0.0050515556 -0.009536233 0.0007369455 0.011331589 0.00638836 0.0059964703 -0.016789401 0.013135353 -0.015162812 -0.011815191 0.0045221173 0.013750047 -0.007856527 0.01055658 -0.011664665 0.00473606 -0.0060188603 -0.016317308 -0.016760657 0.007452269 0.0103404075 -0.0152626 0.011848048 0.017544532 0.005651753 0.015443805 0.015514888 0.0018952724 0.010771445 -0.012975985 0.016681544 -0.009878203 0.012291083 -0.012555774 -0.011076084 -0.0073118024 -0.014672987 0.011539002 -0.0024266797 -0.016743567 0.0073951995 0.014514909 0.0071641677 0.007842356 0.0010292147 0.011622185 -0.004074131 0.014675017 0.008253011 -0.007749447 -0.012096635 0.0050989455 -0.011639534 0.0017362727 -0.011543454 -0.014746349 -0.008773724 -0.016170343 0.0034704083 0.014393358 -0.010959615 0.0009208024 0.007820096 -5.3874086e-05 -0.017471328 -0.008013864 0.01549852 -0.014255969 -0.016018046 -0.011925679 -0.0052774125 -0.0073458217 0.012612458 0.0017190704 -0.01730634 0.0044627767 -0.009859741 0.0020860776 0.0045746504 -0.009410486 -0.0040684985 -0.01233602 0.00013981547 0.009404738 -0.013826754 -0.0041720807 0.016384467 -0.0019198274 -0.008516699 -0.012468548 -0.010771454 -0.0045477985 0.016029557 -0.010984583 -0.0024815544 0.0029362356 -0.0018875366 0.0050077694 -0.0109610455 0.012243501 -0.0049454486 0.0011474469 0.0022338056 0.006176291 0.016930092 0.00856629 0.007140441 0.009653526 0.016441956 -0.01300873 -0.0021924165 -0.016555592 0.003299311 -0.013857644 7.93125e-05 0.010658297 -0.000771546 0.01105477 0.0059238696 0.007298604 0.009204954 -0.012108399 -0.00031477853 0.0033874896 -0.007706319 -0.0041103237 -0.014561607 0.002691931 -0.013531545 -0.010471059 -0.017777136 0.0042743003 -0.017648388 -0.0022053698 -0.014987942 0.011584657 -0.0038156915 -0.0028589177 -0.011633403 -0.011816751 0.015730862 0.0013558717 0.008659412 -0.015667303 0.0065719807 -0.00711225 -0.0052785324 0.0071447603 -0.0053599733 0.013692801 0.006526447 -0.014389912 -0.0021216231 -0.00261155 0.013495157 -0.005996785 -0.014228132 -0.0016496566 -0.0055389707 0.0020227754 0.006223421 0.010036016 0.004344521 0.008753698 -0.011978356 -0.003619388 0.009950856 0.0026754292 -0.010108656 -0.00011002166 0.009841258 -0.014049195 0.0158625 0.016784035 -0.008473116 0.0058483845 0.012456792 -0.0046333503 -0.012118182 -0.0066822856 0.01222139 0.00032052185 0.0070350342 -0.006515616 -0.0042403066 -0.013329522 0.0077981567 0.005098092 0.0142137585 -0.0028399571 0.013220873 -0.007293325 0.009325168 0.005731749 0.0062164306 -0.015837528 -0.009496487 -0.006481475 -0.005543466 -0.0016974425 -0.0032554185 0.005963528 0.007349172 -0.001225644 0.017239105 -0.007530362 0.016264314 -0.0037270146 0.0013945444 -0.015282938 -0.0011563983 -0.010404939 0.0035725045 -0.012285371 0.013292468 -0.009270138 -0.0067094928 -0.016655806 -0.0068406104 0.014933559 0.01690569 0.0060095 0.0014763518 0.006551932 -0.010231772 -0.005345579 0.016658572 0.009404177 0.013163407 -0.006810755 0.0026261276 -0.008669868 -0.003944665 -0.005073703 0.0031739944 0.011170494 0.0043875277 -0.0022519934 -0.014275366 -0.0025203356 -0.008342869 0.008073699 -0.01426461 0.001801046 0.016450789 0.015044319 -0.014023756 0.013127883 0.0033010012 0.0022417307 0.0011246311 -0.008487227 -0.008836287 -0.004386074 0.014758833 0.0069744675 0.011116928 -0.0024712896 -0.0048374366 0.0030164102 0.00022212311 0.014709659 -0.0063899118 0.017420415 0.013519333 -0.0137387905 -0.0055615776 0.006163876 0.016814675 0.013426379 -0.016608557 -0.010417522 -0.01238691 -0.014666454 0.012124763 -0.016556099 -0.017745888 0.006708273 0.0039108633 0.0060558068 -0.010290912 0.0023018995 0.0012609172 -0.015482765 -0.0053800857 -0.010699773 -0.0048007476 0.005640875 0.005216503 -0.0020314008 -0.009804104 0.0068013864 0.0047589373 -0.0021262765 -0.0020641813 0.0046777963 0.0065016537 0.014367537 -0.0021239477 0.009853091 -0.0065026754 -0.014410047 -0.013230812 -0.0076106386 0.016418133 0.012700577 0.013394074 -0.012459044 0.0064650564 -0.013199317 0.01008541 -0.0078074764 -0.010977725 0.0021327096 0.016441219 -0.011647225 0.00040645048 0.011087041 -0.0080210315 -0.0027677077 -0.002239719 -0.0078037744 -0.016382318 0.010614185 -0.0017759716 0.0076662665 0.0037286305 -0.010722959 0.0023374537 0.010505618 -0.00867253 0.013145334 -0.0025121507 0.0009784698 0.0028459623 0.011197669 0.00061868347 0.015879318 0.012400645 -0.012958038 -0.00017353255 0.0026531157 0.013298256 0.017525297 -0.010535119 -0.00902504 -0.006646759 -0.0114561 0.009047279 -0.0142277125 0.0153750675 -0.0019923237 -0.0041814195 -0.015814953 -0.010803225 0.014088632 -0.009381378 0.015372984 -0.016356925 -0.017325666 -0.0079833865 -0.0007773766 -0.011858585 0.0049649626 0.0099530015 -0.007848549 0.0057399296 0.01630233 -0.0045698374 0.012688042 0.015693558 -0.010082364 0.00064596324 0.00927483 0.017640902 -0.010414001 -0.0116114495 0.0015914504 -0.008077856 -0.00047630075 0.0042758333 0.0057785492 -0.0037091866 0.011316787 -0.008969865 -0.003723396 0.015577351 0.015164229 -0.008686385 -0.0062240385 -0.0004671876 -0.009731034 -0.015288205 0.017011566 -0.0010009323 0.00015992565 0.015287023 0.0037096825 0.0113617275 -0.0073661935 -0.010391369 -0.005766439 0.0003571638 0.016630506 -0.01589407 0.012809685 -0.0027964436 -0.0054483884 -0.010936308 -0.013583948 0.0067508905 -0.00979765 -0.0009661807 0.006057461 0.006812424 0.00092623493 -0.017649243 -0.0016186152 0.005936572 0.008139183 -0.016030593 -0.017072115 -0.0172435 0.0022569129 -0.0047498667 -0.015742688 0.006418733 -0.006157735 0.0023291581 -0.00992539 -0.00303628 0.01745087 -0.014651929 -0.013015641 -0.004755472 0.004411159 -0.0097155 0.01298027 -0.004744447 0.0013240981 0.009096446 0.01588038 0.014697229 -0.00580369 0.016181648 0.014418419 0.010335418 0.002233667 0.017371053 0.002569733 -0.00029304624 0.00046047143 0.0034937519 0.006215713 -0.01668073 0.01191319 -0.002231496 -0.011071731 0.010998729 0.009322118 0.007764327 0.0073328638 0.007527471 0.0081325155 -0.005568528 0.015832461 -0.009727542 -0.011456827 0.0101081645 0.01156731 -0.012772099 0.0050993287 -0.0178008 -0.006099499 0.0030429428 -0.012564159 -0.014876496 0.011955324 0.010655916 -0.0039454466 -0.0146261975 -0.014789574 -0.014002498 0.013959644 -0.013061175 -0.01258236 0.008050523 0.001531799 0.00012973377 0.003969887 -0.017647661 0.014621976 -0.0022664284 -0.0051003676 -0.013182527 -0.015229611 -0.01378789 0.012582239 -0.001359433 -0.002619867 -0.0053436207 -0.0011459228 -0.0058404594 -0.0114589725 -0.010206929 0.009031728 -0.017283835 -0.0069535337 -0.011678434 0.0122651635 0.017540125 -0.006833047 -0.007825705 -0.009392679 0.008363879 0.00054366037 0.0045809876 0.0147404615 -0.010515703 -0.017667426 0.013298755 0.013279835 0.009730259 -0.008557546 -0.009518713 -0.009436433 -0.00043916918 -0.015835717 -0.010690293 -0.010712815 0.0023383244 0.00404339 -0.0117096715 0.011758549 -0.01751829 0.007471815 -0.0062939827 0.002355578 -0.009829849 -0.0070421444 0.0031108581 0.014077905 0.014637183 -0.013931282 -0.0011059217 -0.014613576 0.014429934 -0.013441329 -0.004623594 0.011882478 -0.0017354043 -0.016605869 0.004719426 0.012361559 -0.009794123 -0.00025172107 0.01426551 -0.012824626 -0.00066961354 -0.016333668 0.0018081453 0.0056736027 0.0068462454 0.005499772 0.0037432953 -0.0072737955 -0.0006810619 -0.009440574 -0.0053917277 -0.009432597 0.016547283 0.016614875 -0.0017998858 0.0029888877 -0.002989916 0.0032768166 -0.009322597 0.00681706 0.008957987 -0.014757358 -0.0022915327 0.008484951 0.0025871247 0.0019603819 -0.003263346 0.001892356 0.012803713 0.001909073 0.008847948 -0.010695735 0.0064533716 0.0023312017 -0.008124556 0.015639165 0.0049975365 0.014361646 0.008785203 -0.017579649 0.012172273 0.016205525 0.009305379 -0.017070016 0.017468428 -0.009201065 -0.017116526 0.0022507184 0.0022799864 -0.01459364 0.003084102 0.009816287 0.0029435414 -0.0065519004 -0.013839923 0.0022632033 -0.013006096 0.0008687952 0.013376315 -0.009222914 -0.0047407555 0.0049189716 0.0026399323 -0.012661458 -0.015220515 0.009870347 -0.0070246654 0.0004149803 0.015280413 -0.011546931 -0.013102937 -0.01745754 -0.013822878 0.016120885 -0.017305652 0.011591224 -0.0058332067 -0.008292852 0.0029451295 0.0054285997 -0.005066729 0.013102147 0.00955534 0.0040990137 -0.0076429527 0.010916964 0.003921196 0.0033852502 0.016719185 -0.0054230075 0.0054040556 0.005088359 -0.0005875571 -0.0029175773 0.0121339625 -0.0016676742 -0.00608788 -0.01719024 0.01040454 -0.0002933677 0.0015753445 -0.012511856 0.016573517 0.013391908 0.002342767 -0.0024485227 0.016934153 0.00919715 -0.012058443 0.012333115 -0.009508014 -0.0030387556 -0.009989119 0.00031495947 -0.015614979 -0.0098314285 0.0013557035 0.0055825757 0.017023617 0.0045306473 0.0002196708 -0.006494965 0.0059706974 0.014067118 0.0038742786 0.013780288 -0.009629156 0.013360931 0.006487519 -0.016023839 -0.005126698 0.0005166637 -0.017671704 0.011367385 0.00054333254 0.009753659 0.016310204 -0.015541386 -0.013598801 0.011379091 0.01584141 0.0124432575 0.014594871 0.016056038 -0.013129656 -0.007956265 0.0085382555 0.0012076072 -0.01687864 0.010241581 -0.005104723 0.0176042 0.0042086714 0.01108371 -0.007588955 0.007734665 0.013054392 0.009498852 -0.009050108 -0.0008113917 -0.0100314515 -0.013450468 -0.011414701 0.0065398454 0.016034788 -0.0036768722 0.0030015537 0.006955015 0.0024287552 -0.015406398 -0.013807606 -0.013348261 0.009986058 -0.015411504 -0.0017297886 -0.0011565026 -0.0028775209 -0.009414444 -0.014182579 0.014499439 0.007564575 -0.017723015 -3.4692035e-05 -0.0121747 0.005916232 -0.015353446 -0.0025468236 -0.0026234495 -0.006651921 -0.014940237 0.007150476 -0.014533354 -0.0065794974 7.619816e-05 0.017606478 -0.0037405323 -0.010826331 0.013090083 0.008087199 0.009772929 0.016510962 0.00432387 0.0023583558 0.013224313 -0.011995112 -0.015280875 0.002818016 -9.257028e-05 0.001418582 -0.0049767243 -0.008782025 -0.0015346834 -0.0032648062 -0.009541616 -0.010499497 0.0096837375 -0.016138991 -0.010127781 -0.0152806565 0.003868578 -0.0023996874 0.015820954 -0.01126352 0.00093162066 -0.015682656 0.004939531 -0.010900843 0.003127841 0.014112676 -0.016935557 0.008258905 -0.016415175 0.0027114346 0.0036776918 0.0061529684 0.005014479 -0.012612031 -0.017470082 -0.00034819118 0.014473784 0.01068925 0.012485986 0.015878463 0.013909374 -0.015265797 0.011110025 0.016164321 0.002446509 -0.00059164 -0.001275118 -0.014375608 -0.0091166375 0.008354264 -0.010719794 0.0131328115 -0.00021020643 -0.008118153 -0.016777346 -0.0006733133 -0.0035582208 0.0011017047 -0.0039242166 0.011696552 -0.009623136 0.0038163876 0.013237736 -0.0064346557 -0.000263212 -0.0106158685 0.015824428 0.0076968037 -0.0094129 -0.002499591 -0.013667269 -0.01539679 -0.013564439 -7.474849e-05 -0.0056466716 -0.012173195 0.0033371514 -0.015521874 0.0005888556 -0.017187305 -0.008815934 -0.0039394884 -0.01371259 -0.003945847 0.0017125416 0.008133491 0.0123125445 -0.010180238 -0.004940191 0.008325837 0.015747823 -0.017012706 -0.007434339 -0.014511757 -0.0014547749 0.007925613 -0.012264882 0.012365533 0.011660242 -0.0057804417 -0.002048533 0.015102045 0.004435861 -0.01195011 -0.017170591 0.008825226 -0.01626509 0.013508869 -0.01767901 -0.008823931 0.017283525 0.011905933 0.016889146 -0.015106389 0.0031883123 0.0046298867 0.0012269467 -0.01567518 0.008083044 0.014580915 0.0060128784 0.008176061 0.0072912 -0.011168958 -0.004413848 0.0006542696 0.0030600834 -0.0077133393 -0.009104584 0.00027976293 0.017255206 -0.0045230007 0.0010533802 -0.000724007 -0.011330184 -0.004960037 -0.004707192 -0.007037265 0.0010767579 0.016764065 0.013978482 0.007433728 -0.0002329307 0.01465172 -0.0009921747 -0.0020989138 -0.004035341 -0.0049143243 0.007921467 -0.006389333 0.0039011752 0.011899284 0.016444981 0.0144513175 0.0073239785 -0.017035503 0.014282731 0.010322046 0.013902058 -0.004850462 -0.016469654 -0.0014265308 -0.0031981939 -0.008185287 0.0034628066 -0.0072836154 0.014775924 0.015070481 -0.009520128 0.00016888978 -0.0079855565 0.011825053 -0.0049578976 0.0029376575 -0.013294241 0.0028083625 -0.007685059 0.0017555399 -0.00077286153 0.011145005 -0.0015984179 -0.012941391 0.017117525 -0.0074899816 -0.0037840393 -0.010811353 -0.015966818 -0.008274856 0.011896093 -0.0059590195 -0.009502603 -0.009862468 -0.0041129463 0.015894016 -0.011307459 0.015883554 -0.011783005 0.010765095 0.014297371 -0.00908798 0.0156825 -0.008371053 -0.008380203 -0.011451515 -0.01387008 -0.0055524646 -0.005697766 -0.011928665 0.00084742054 2.4769988e-05 -0.009127393 0.004017628 -0.011680533 0.012653456 -0.011167587 0.009082273 0.0048084217 -0.00266936 0.0070900028 -0.006818003 -0.015243982 -0.0009873041 0.0022592163 -0.0038980737 0.015579237 0.0044066994 0.0030433813 -0.01714888 -0.015725961 0.012411476 0.017731883 -0.0074077826 -0.014750682 -0.008008191 9.465005e-05 -0.0071892273 -0.012743416 -0.0024957636 -0.017633617 0.0026662522 0.017757107 0.012097191 0.005886634 0.010608146 0.014620177 0.0022734448 0.0075124465 -0.008627449 -0.010862458 0.012373386 -0.0012111962 0.016699119 0.0031524366 0.00045540504 -0.0030413421 0.0034996315 -0.005552309 -0.010062916 0.013410566 0.00845122 0.014124988 0.0032154196 -0.0016481089 -0.014727814 -0.00096703647 -0.0112337945 0.007642906 -0.00091750926 0.012136701 0.011844848 -0.0100244265 -0.00498191 0.0035247996 -0.017309438 0.009264389 -0.013603405 0.0031666502 -0.01465274 -0.0068737697 0.015015767 0.01414374 -0.0049317693 -0.014406239 0.012454036 -0.0052876645 -0.011202023 -0.015712393 0.0038178246 0.004872863 -0.011174602 0.013968838 -0.012888325 -0.009471229 -0.003633723 -0.012101525 0.009160253 -0.016321545 -0.0026071009 0.006187697 -0.0038529467 0.011928772 -0.01375754 -0.0018215394 0.0026250782 0.0066419374 -0.005780599 0.016381914 0.0137788765 -0.013538538 0.015957722 0.01177566 -0.014546312 0.00386954 -0.01702471 0.0017967097 0.00038720242 -0.016131533 0.006140049 -0.016828343 0.010886406 0.0038128647 0.006337798 -0.016504804 -0.000848436 -0.012676548 -0.010612588 0.001871769 7.205138e-05 -0.00029733352 -0.015458108 -0.013942225 -0.009098503 0.0004606822 -0.01453021 0.0105632255 0.014059723 0.016648808 0.0035086381 0.003808571 0.006947077 -0.017829342 0.015258209 0.004470966 -0.014178173 0.0033552584 -0.015431382 -0.005166254 0.00818187 -0.00509145 -0.012808285 -0.0061430787 0.004245965 0.017765714 -0.01388834 -0.0008708644 -0.00388657 0.0003463392 0.008675267 -0.012414897 -0.0010901988 0.0007893507 -0.014375866 -0.0010481797 0.015795887 0.0034918722 -0.009005109 0.012413664 0.015633225 0.013887704 -0.00780968 -0.0040093916 0.008798001 0.011443171 -0.0064390134 -0.003389086 -0.00817099 0.016919523 0.0056755417 -0.006188582 0.015656127 0.007932161 -0.004673132 0.012440812 -0.014423771 -0.0043187356 -0.009479868 0.0110018365 -0.013042565 0.010540283 -0.014952543 -0.01646708 -0.003524704 -0.010187075 -0.011148966 -0.014848944 -0.004933098 0.005102183 0.010388679 0.0056454497 0.0059353244 -0.014003364 0.013764672 0.0052816872 -0.011250363 0.008858805 0.00525885 -0.015817842 -0.00224 0.0046444666 0.0110750925 0.012564475 0.0076807314 0.0034796044 -0.000832298 -0.006617964 0.0018711921 0.0066379225 0.0020527479 -0.011984498 -0.011189338 -0.015438247 -0.014325843 0.0018408257 -0.0016889104 -0.0023805713 -0.010113593 0.017379833 -0.00857686 0.014251412 0.00013005733 -0.017258132 -0.008297741 -0.016001588 0.004841726 0.011251669 0.0021904686 0.007723351 0.017193088 0.0064540957 0.01450832 -0.0056674187 -0.0070213275 0.0006021006 0.008632926 -0.011492926 -0.0098168915 0.008865661 0.0051259464 -0.015608452 -0.0073619126 0.0016523984 0.00082904106 2.0948904e-05 -0.016768277 0.0069320505 0.005671765 -0.00894891 0.0067972397 -0.01099526 0.008088221 0.0005272244 0.009089423 -0.0043773204 -0.006932225 0.009064979 0.014748124 0.01475403 -0.0076668733 -0.0047725867 -0.008303468 0.012299986 -0.005488032 0.014401901 -0.0025864309 0.012981017 0.0042226827 -0.015831998 -0.008479766 -0.006075917 0.01579847 -0.0011677636 0.013069581 -0.006415308 0.009637701 -0.016388735 0.0129966 -0.013263571 0.014984121 0.009110664 -0.0057088565 0.017453006 -0.013184042 0.009697578 0.0017115773 0.003363718 -0.017748542 -0.0027861362 -0.012200913 0.017092075 0.0073805456 0.007348889 -0.016961992 -0.008586625 0.0077418326 -0.011801818 -0.009682019 -0.0010999846 -0.013270141 -0.0014803985 -0.0039047643 0.0056573283 -0.00460791 -0.0003167327 0.016669078 0.007422024 0.017659869 0.007978018 -0.01552992 0.009919401 0.008603169 0.012434575 -0.016082464 -0.015593452 -0.008688046 0.01515373 -0.0060679 0.002091378 0.0074219196 0.009159515 0.009414073 -0.00774566 0.011410913 0.010291915 -0.015147682 0.016625687 -0.0071660643 0.0010407057 0.0006055279 -0.01501285 0.0010156505 -0.0006393578 -0.009045797 0.016291648 0.0084645925 0.0074750804 -0.0053544026 0.008746284 0.015000312 -0.0076339804 0.009966876 0.004541646 -0.00052143424 -0.01604989 -0.014504095 0.011230097 0.013583724 0.005288582 0.014248174 -0.005154367 0.01268253 0.016879119 -0.012772614 0.01538023 0.005120486 -0.005234921 0.0063716816 -0.012158711 -0.013345921 -0.00853754 0.013524997 -0.017737268 -0.013604576 0.0143632665 0.0036977935 -0.0018505966 0.005263022 -1.1695283e-05 0.0038960683 0.0076507526 0.011458034 0.017014036 0.005200329 -0.0033824658 0.00930013 0.0026504144 0.005368233 -0.009490678 -0.014719479 -0.00044718388 -0.017336113 -0.003010718 0.014275102 -0.011950142 0.017824404 0.00040300193 0.008696595 -0.0019440098 -0.010447315 -0.014105097 -0.0048823655 -0.008219581 -0.0066742473 0.010151957 8.461731e-06 -0.012376038 0.0060591614 -0.008085694 0.0050194925 0.011537474 0.0158341 0.007637584 -0.011281506 -0.0048375707 -0.005718838 -0.0069258474 0.0135890655 0.006803692 0.0067342483 0.00544339 0.0009787701 -0.010190134 -0.0015581293 0.014766234 -0.009043549 0.0068330364 0.001378632 0.012102862 -0.015788136 -0.002933117 0.01110402 -0.00866476 0.0042143213 -0.01022433 -0.014055649 -0.016130429 -0.0021346298 -0.0007462204 0.015416406 0.0054628556 0.013877375 -0.003337954 0.010991381 -0.01069176 -0.0009636624 -0.007207658 0.01721878 0.015822148 -0.008072523 -0.01415429 0.009350407 0.014372383 0.016026104 -0.0003876814 0.01688151 0.0061137103 0.006789265 0.012534947 0.009060877 -0.01543221 0.0067830854 -0.010360631 -0.016067669 -0.011694713 -0.0037742835 0.011500389 0.0068175816 0.0020230052 0.0047279745 0.014203566 -0.0031798356 0.013668595 0.002962979 0.0002641316 0.0060150283 0.002133691 0.016948175 0.014804389 0.0016911095 -0.014188428 -0.0046026474 0.007299817 0.0035876315 -0.0012013849 0.015550412 -0.0002933379 0.013749513 -0.0044963616 0.015364603 -0.0051677315 -0.006532946 0.015744586 -0.00897464 0.016064342 0.0015339213 0.016131718 0.0121775335 -0.0061040716 -0.0037258908 0.009172378 -0.0013853568 -0.0031498587 -0.0013777359 -0.012769593 0.0073934095 0.0017485918 0.010919529 0.0050546997 0.00854413 -0.0021520534 -0.012782189 0.0031733664 0.0028655785 -0.013401698 -0.0044293213 0.016285053 0.009402126 -0.008650109 0.0035551023 -0.011210385 -0.017848996 -0.0073704617 -0.016058043 -0.015271436 0.01666109 0.012294627 0.008299862 0.017424757 0.005003065 0.0044399053 -0.002708216 -0.012708079 -0.01512491 0.0052820747 0.016013172 0.00063785276 -0.014238541 -0.0040381895 0.012334661 0.002810489 0.012089274 0.0061688 0.014676999 -0.001485565 -0.0036774727 -0.0029252428 0.008654225 -0.0033916577 -0.009162305 -0.015357527 -0.015509017 0.014649015 0.00024143502 -0.0012104064 -0.014445612 1.234242e-05 -0.0032452857 -0.013490461 -0.003125259 -0.0043784636 0.0007235919 0.013697399 0.00049701333 -0.00054027996 0.011000913 0.0069310414 0.0047833025 -0.0031874054 0.013634024 -0.0016724617 0.0008951958 0.014064966 -0.012315078 0.0006296273 -0.014019398 -0.00919391 0.00027977783 -0.01661422 -0.014385407 0.017751489 -0.0067804204 -0.011897739 -0.00081348635 0.0022781536 -0.010096286 -0.009910727 -0.0069181114 0.0029571548 -0.01743353 0.0008350249 0.017440286 0.008081441 -0.0094191525 0.0032103339 0.005063502 -0.008474395 0.006717099 0.0004240445 -0.00786722 -0.013437589 0.011233798 0.008958344 -0.008522234 0.0029300007 -0.008383085 -0.00695414 0.009574327 0.010807757 0.004118954 -0.014578454 -0.0076533454 -0.01155805 -0.0005701121 -0.004360182 -0.016240204 -0.01503662 0.006538683 -0.0026015916 -0.0138673745 0.010354537 -0.0069710957 -0.0010191522 0.008602869 0.016326277 -0.007906829 0.006194304 0.013266328 0.0039493656 -0.005552088 -0.0003340372 -0.011874915 -0.0092064785 -0.015991539 -0.000625042 -0.012616596 -0.016539134 -0.011324983 0.014140447 0.013372769 -0.009468537 0.010689947 -0.011186321 -0.00015160868 0.006591482 -0.017272124 -0.014970822 -0.00964873 0.007164981 0.014724064 -0.0065696347 -0.016750285 -0.0067045754 -0.0041535115 0.008515848 -0.00593297 -0.0063550686 0.004821207 0.012361216 -0.0023442763 -0.017397871 0.009047513 0.016680976 -0.017512346 0.0027633375 0.0029032999 0.00019797684 0.0038306927 -0.0065395986 -0.008292213 -0.0045024543 0.0016172316 0.010034379 0.0070986473 0.0022461608 -0.012765649 0.000270686 0.0044874763 -0.012006799 -0.009887824 0.0071491026 -0.013379519 -0.003046849 0.0063398867 0.012961831 -0.007848359 0.009187277 -0.015784001 0.0037743216 0.008884532 0.002267229 0.00088393054 0.0077657467 -0.017550554 0.013873382 0.012280354 0.009296468 -5.6505207e-05 0.0032256865 -0.0052188807 -0.008610753 -0.007979858 -0.007689753 0.012426447 0.01508869 -0.016556773 -0.011573168 0.014337851 0.011336757 0.017569348 0.008912106 -0.0007227489 0.015193965 0.009543804 0.008041891 0.009313056 -0.013181166 0.007286083 -0.010177458 0.0122887455 -0.011855954 0.0153644215 0.005345202 0.016958917 0.00930573 -0.012637194 0.017329482 0.007948552 0.011696703 0.006061931 -0.01517559 0.017804423 0.009208856 0.017240673 -0.016920809 -0.014525206 -0.00091626606 -0.012039504 -0.014570724 -0.0012821066 -0.0040081018 0.0058514946 -0.01366907 0.00065560645 -0.0027072367 0.0037502008 0.00029709085 -0.012623536 0.01435003 -0.011858774 0.0030194607 0.013585289 0.010088359 -0.011056845 -0.016634673 -0.01317409 -0.0039800196 0.003378253 0.0021985197 -0.0071489727 -0.0007354532 -0.017451897 0.012157794 0.011166539 -0.00059743226 -0.006668819 -0.009813171 0.006084898 -0.010691641 -0.010823425 0.0034611952 -0.0077116704 0.013802323 0.017491197 -0.0008038836 0.008893248 -0.009263748 0.01714611 -0.0067473035 -0.010345227 -0.01744636 -0.012004889 -0.004360661 0.0013952958 -0.0036782857 -0.012687867 -0.012306405 0.0012735853 -4.4128727e-05 -0.0074035083 0.0030937942 -0.008676261 0.002199584 0.016009346 0.017402392 0.016981602 -0.011731447 0.0143555 -0.012484217 0.010720041 0.009836095 0.010880879 -0.0019377471 0.010649797 -0.016419841 -0.01571127 0.014020148 0.013130927 -0.009074646 -0.0053977524 0.014501285 -0.017263465 0.012731994 -0.012122291 -0.011496277 0.00822043 -0.010143338 0.017059067 -0.014401503 -0.0013920368 -0.0154279545 0.017640773 -0.0072348015 0.000484788 -0.0022522851 0.006767997 -0.01712202 0.011316479 0.016444424 -0.011871913 0.0033861655 0.0030125424 0.008512227 0.017436063 -0.013783913 -0.0062994557 -0.005519635 -0.004917758 -0.0071084206 -0.012364752 0.001646655 0.010610794 0.009244485 0.0018305801 0.00037680994 -0.011511708 0.004197653 0.0014536531 -0.015934994 -0.0064352946 0.017654128 0.0035582378 0.009840887 -0.0030838274 0.00010526819 -0.011453555 -0.007385718 -0.00049008644 0.0022840118 -0.014453118 0.01390692 -0.012748193 -0.01678721 -0.013453216 0.0015734711 0.008495037 -0.0072677457 0.009407878 -0.0075394046 -0.0010575546 -0.015954683 -0.007083661 -0.016042028 0.014864714 0.009807649 0.013601212 -0.011203204 0.00093710003 0.007639662 0.01721122 0.014696835 -0.011256638 -0.014953671 0.017416488 -0.003990425 -0.0027324643 -0.0016757634 -0.012557501 0.0011557001 0.015987957 -0.014768494 -0.0038151252 -0.009711106 -0.00089877634 0.015765194 -0.016182465 0.017046181 -0.00055200927 0.012458961 -0.0076953494 0.0035199248 0.011295568 0.0045199543 0.0025648454 -0.0061321007 0.004725169 0.0051767253 0.004750748 0.00048140544 -0.0018317169 0.0064462298 -0.017359674 0.005545212 -0.01613991 -0.013273687 -0.006434937 -0.0013865383 -0.014063291 -0.004486063 -0.0057695787 0.0036317154 0.012723621 0.013453675 0.010236332 -0.011702221 -0.0056949067 -0.00467287 0.00627304 -0.001932851 0.010237324 0.01492287 -0.016151406 0.00038338985 -0.01597195 -0.011797921 -0.013335032 -0.0016681893 0.0039122 0.0007554868 -0.017655108 -0.006172372 -0.007823768 -0.0014498682 -0.012639261 -0.0053108935 -0.00431474 0.0018179077 0.008759037 -0.013401754 0.017183125 0.0032387676 -0.015412239 0.015804786 0.001244196 -0.013176348 -0.0034227606 -0.017332388 0.010529018 8.79573e-05 -0.015593695 -0.00015240695 -0.0036662223 0.0031426998 0.016579857 0.0069068675 0.0019847688 -0.017701909 -0.005185119 0.007101517 0.01268907 -0.007726308 0.016025823 -0.01632449 -0.01679916 0.01688235 0.00027349166 0.00062082073 0.007017383 0.017194593 -0.0121294735 0.008490807 0.0029444823 -0.014935492 0.013735348 -0.0011187558 0.0026103365 -0.015639946 0.015593606 0.0023168155 0.0034668937 0.0016430276 0.012302817 -0.007521238 0.0066548293 0.004721346 -0.010778112 -0.010480962 0.01075433 -0.016614046 0.017513761 -0.009174192 -0.0015138261 0.0029439905 -0.008076306 0.00615068 -0.0054411804 0.016492153 0.015361206 -0.0065887296 -0.009067572 0.016294895 0.005439373 0.0005236907 -0.009367752 -0.016254667 -0.007844512 0.00018593244 0.01593763 -0.0014308798 -0.0116139995 -0.015978578 0.003802717 0.01732563 0.011184906 0.0095782755 -0.017524252 0.01297026 -0.0033951 -0.007361287 0.0009544535 0.011366238 0.0043171006 0.008646244 -0.008035502 0.017059727 0.0008099739 -0.012692771 -0.011063142 0.016371876 -0.012707127 -0.011226876 -0.006124384 -0.012388901 0.005999655 -0.01458263 0.01473214 0.0032353508 -0.013972219 0.0028046945 -0.012883921 0.0042566042 0.008908425 -0.0068708323 0.010730322 -0.0112147825 -0.001526079 0.0012015637 -0.00095982 -0.015944403 -0.0028889158 -0.0018885222 -0.010533957 -0.01118494 0.010669036 -0.010170507 -0.01233528 0.0023214691 -0.016065372 -0.009122098 0.0073329275 0.0061965394 -0.0027756947 -0.00285009 -0.0017905236 0.00841802 0.016148899 -0.00020689411 0.014997177 0.000986591 0.009800477 0.011627051 -0.005673562 -0.0016949348 0.005822929 0.007572562 -0.009146082 0.0034052688 0.0059370785 0.0026311236 0.0068069315 0.014613487 -0.0014461471 0.004261928 -0.010745666 0.014576016 -0.0029142692 -0.0065545463 0.00646402 0.010746482 -0.005616842 -0.0015515366 0.014772322 -0.016051194 -0.014708022 -0.015969628 -0.0019827997 -0.008656609 -0.009518053 0.002673115 -0.0013061103 -0.006877529 0.00854168 -0.00967558 0.002149167 -0.0052238875 0.010493445 -0.0006600257 -0.01632065 -0.016158879 -0.0061522787 -0.0033586922 0.0033895886 0.014796417 0.014353921 -0.0010448716 -0.012951002 -0.0012271809 -0.0065953713 -0.008275788 -0.0023036983 0.00028448447 -0.0036010041 -0.017497316 0.013271873 0.005186026 0.0036810574 -0.01579235 0.0075961803 -0.015602161 0.006038085 -0.011955658 -0.0003098654 0.016633373 0.010878817 -0.008198777 -0.011282826 -0.012586893 0.01002435 0.008570199 -0.0024816736 0.012844195 0.0073328977 -0.00649465 -0.015302254 0.0011120525 -0.016518291 0.009964151 0.010986296 -0.0037906512 -0.009982089 0.0063938033 -0.012291423 -0.0029721155 -0.016169988 -0.011466161 0.004164728 0.0020216492 -0.01032944 0.005596372 -0.013960328 -0.008513406 0.015077721 -0.015421264 0.005933768 0.008818163 -0.0072091585 0.0028017804 -0.011299643 0.0143887745 0.01565997 0.011533719 0.0041956627 0.0036481407 0.0007368923 -0.010418848 -0.014888568 0.006304552 0.00039144713 0.0073251557 0.014257111 0.01654212 -0.015133963 -0.0146192 -0.016867047 -0.014503026 0.0065602153 -0.006476892 -0.00590307 -0.0072164326 0.0032728272 0.013056885 -0.0058052414 -0.0121313315 0.010558991 -0.0013703854 -0.00517766 0.0024449592 0.004293506 -0.0126315635 0.009137231 -0.0028307098 -0.0063228225 0.016977593 0.0027703175 0.008985639 -0.007944305 -0.0055452823 0.012500238 0.0016324968 -0.016717035 0.0034085321 0.0114554195 -0.0008117706 -0.010349876 0.0010178728 0.004000434 0.0007216122 -0.01620259 0.011630285 -0.0021764147 -0.006317333 0.013271624 -0.007953132 -0.00033110168 -0.010006982 -0.0050242334 -0.009004316 -0.0081716655 -0.0048418217 -0.0016790396 -0.015104227 0.00236471 0.014392038 0.0019521522 -0.0103196185 -0.009912553 0.0016180554 -0.0031894 0.0046687787 0.0106405495 -0.006212852 0.0017562425 0.010990205 -0.0073944204 0.00577644 0.012670356 -0.0147028295 -0.007218551 -0.0007693129 4.3945656e-05 -0.017446045 0.0019815948 0.00905847 -0.008896624 0.015739484 -0.007940277 -0.0069987415 -0.012929457 -0.004086727 -0.011515373 0.017138176 -0.0073677218 0.003053427 -0.006708135 0.0060840826 -0.003993324 -0.0077493642 0.016420536 0.008188282 0.0031078162 0.00788861 0.014183435 0.00089026353 -0.017530644 -0.005997771 -0.0048419004 -0.0037241494 0.008947654 -2.7809825e-05 -0.009049013 0.0040425193 -0.013480717 -0.014838658 -0.012200022 -0.008006809 -0.011636119 -0.01750154 -0.0035435688 -0.01124779 -0.0027792242 -0.005522607 0.0049892645 -0.014870698 -0.01059796 -0.011916059 0.00084606884 0.0052324836 -0.0075413696 0.0079802 -0.0015525031 0.012861568 -0.010430695 -0.012752144 0.0065062153 0.013287715 0.016848013 0.008618715 0.0019594475 0.01334577 -0.008896884 0.01735703 0.0018759051 -0.017500207 -0.016438901 0.011104408 0.012615175 0.011728709 0.004712948 0.004918437 -0.0050921165 0.001884105 0.0066804313 -0.00096150173 0.012988691 0.012053322 -0.011205237 0.0021753206 0.005612695 0.011195681 -0.01234871 -0.0077380775 -0.0019282444 -0.016214464 0.009328125 0.014114904 0.009267017 0.0003783192 -0.006663559 0.017275885 -0.005802008 0.016984146 0.010914166 -0.01152214 0.013859351 0.0045135766 -0.0033203238 0.0020684984 -0.0052580643 -0.015830023 0.01305739 0.010628639 0.013183454 -0.0014240061 -0.005718851 -0.0043272125 0.0034671214 -0.017649822 -0.015401047 0.008212677 -0.0013328408 -0.012273276 -0.0022385377 -0.014680369 -0.0029182883 -0.010293116 -0.016314145 -0.009368262 -0.0010453357 -0.015677202 0.008772242 0.015917767 0.0015740821 0.01099102 -0.01609782 -0.0021781093 0.016265947 0.011633639 -0.0064141327 -0.0034514796 -0.016035296 -0.0051386356 -0.013005298 -0.004890412 -0.006614698 -0.017194537 -0.011124905 0.000406261 0.016437719 0.001327932 0.0059589236 -0.014137916 0.011169943 -0.003548569 -0.0066140234 0.00485754 0.0022382864 0.009006669 0.013342026 -0.0020793166 -0.00011030053 0.012896332 -0.016071884 0.014231906 0.008172257 -0.007158548 -0.014650192 -0.0076325303 -0.013867699 0.0030008215 0.013689953 0.01108715 0.0053520547 -0.009243101 -0.011041331 0.015255394 0.016488055 -0.0021803358 -0.0066434043 0.014211727 0.01705247 0.0011394918 0.0021226534 0.008674716 -0.0066529238 -0.010952388 -0.0071825366 0.0011304319 -0.0022083097 0.0034019458 0.013090239 -0.0020970404 0.001195533 0.007944087 0.015190857 0.016279235 -0.0076063043 -0.010494147 0.0030995375 -0.011407218 -0.014490573 0.009345943 0.002460084 0.0056359004 -0.017206324 -0.016733289 -0.008245895 -0.0023135054 -0.017758407 -0.013467632 -0.011353719 0.005418778 0.0044911355 0.011881733 0.0063188034 0.011381646 0.002941285 -0.0063267713 -0.01742403 0.015733723 0.0059320354 -0.0044039 -0.005958662 0.017309971 -0.0020500806 0.01036858 -0.016797386 -0.004789685 -0.00097570894 0.003407157 -0.0027883076 -0.014201157 -0.011637967 -0.004424153 0.0025729686 0.0012767166 0.0020700693 -0.011658682 0.0055232137 -0.0072306185 -0.014929993 0.0089251725 0.017809132 0.005016889 -0.016265824 -0.007425179 -0.017303461 -0.0017497413 -0.013524759 -0.0107440865 0.00926407 -0.0075983345 0.0034957253 0.015681928 0.0016216232 -0.003921296 -0.011257555 -0.00982785 -0.0057129967 0.007815055 0.009700164 -0.0015136856 -0.0012540519 0.011186424 -0.011007842 -0.010204777 -0.0050898558 -0.0050195353 0.016885573 0.009210227 -0.01530602 0.0023546794 -0.014906146 0.014594634 0.014811267 0.005375977 -0.01510452 0.014262019 -0.0035678449 -0.00075210846 -0.007423644 -0.0041068178 0.0012897615 -0.015629 0.014615164 0.012191394 0.0034524503 -0.0029427963 -0.014122421 0.011484847 -0.01496285 0.012284098 -0.0058730077 -0.012225132 -0.0063547646 0.011559246 0.014511205 -0.003482412 0.0070761936 0.008548677 0.00858811 -0.017697945 0.012745426 0.00511632 -0.015679738 -0.012281535 -0.011011448 -0.011674907 0.013130027 0.0034535998 0.013596955 -0.01334796 -0.0034847665 -0.015651053 0.017808352 -0.002778773 -0.010642323 -0.00507412 0.00039488293 0.0015503467 -0.011045961 -0.013440413 0.0074304813 -0.0038396206 0.007477341 0.006114534 0.000274109 -0.0034767773 0.011994522 -0.0035253745 0.013048043 0.01340212 0.0057545095 -0.014645556 -0.0020129767 -0.006454134 -0.002695999 0.011422435 -0.015297007 0.011927889 0.0024351478 0.002471745 -0.0022194898 -0.0054850667 0.007985869 0.003375805 0.0009539745 0.013062963 0.010729467 0.0036478874 0.00732 -0.00953846 0.010569552 -0.009463783 0.012235911 -0.0067125564 0.005789595 0.016461067 -0.009648836 -0.0016150327 0.009969145 -0.013645081 0.0076173996 -0.015258353 0.01772771 -0.005641484 -0.010875562 0.011057586 0.005115784 -0.010012666 -0.016984068 -4.1337953e-05 -0.006863194 -0.0107691055 -0.008750907 0.00036562554 -0.015243041 0.010046005 0.0067030364 0.007828194 -0.0026660818 0.008533646 0.008155051 -0.013323812 -0.0011547698 -0.004319161 0.016574716 -0.0004885133 0.013514498 -0.008492647 0.008206619 -0.0025172469 -0.016669758 0.0154672675 -0.0046527474 -0.014976945 0.014026297 -0.015372718 0.010268708 -0.017846331 -0.009133865 -0.007812805 -0.0066165286 0.010585289 0.013052705 -0.015104869 0.015804714 -0.011276955 0.0054974216 0.0073455726 0.011310746 0.012557488 0.0044913804 0.007946451 -0.008063434 -0.0011776431 0.00040550105 0.0041615795 -0.016404172 -0.017355558 -0.0006575457 -0.0034735077 -0.008108804 0.0017428739 -0.008062846 0.0018747556 0.014060983 -0.0058122533 -0.014090882 -0.0013788769 0.004221508 -0.0068723606 -0.0022594547 -0.0116035985 -0.004779684 -0.0063858866 0.009534066 0.0034040916 0.017296854 0.014262634 0.013628313 0.00129043 -0.012331752 0.008897101 0.0023509755 -0.008389486 -0.012379951 0.0039418214 -0.014134412 0.01667422 -0.014207728 -0.005754007 -0.0018804414 0.011093808 0.011538048 0.017301524 -0.016262842 -0.01226041 0.0010052708 0.0075275963 -0.0110095 0.010837374 0.00042896613 -0.009593127 -0.015772736 -0.0035184028 -0.004615354 0.015894568 0.013951396 0.015880186 0.013439994 -0.008188827 -1.5020371e-05 0.008437362 0.0024570653 -0.016018502 -0.010089766 -0.01367505 0.014930306 -0.013442095 -0.017816791 -0.0035691028 -0.013748678 -0.0048070895 0.00758431 0.012857917 0.014342698 0.016860094 0.0034778651 0.005562042 -0.012732262 -0.009007897 0.0100573 0.013118868 -0.013524373 0.0141045945 0.0049138563 0.004254301 -0.010168674 0.00926584 -0.00544008 -0.0060651666 -0.017789466 0.0080680875 -0.011257145 -0.0015455422 0.010259986 0.0074441545 -0.00017221486 0.008429742 0.0023537898 -0.015410085 -0.0072258585 -0.0050290036 0.015471708 0.011453254 0.012549865 0.010206411 -0.011194414 -0.013587229 0.0066669798 0.014568489 0.0056801485 -0.0150755625 -0.01145239 0.017116643 0.0016059898 -0.0067818337 -0.004326086 -0.0040024607 0.009249947 -0.014625071 -0.014737301 0.0038424414 0.013887213 0.017204631 0.014917649 0.009402389 0.017381364 0.0075703436 -0.0033380392 -0.002346024 0.0019171473 0.0132332025 -0.006188284 0.005861004 -0.013393234 0.010379281 0.010031852 0.0077084946 0.01348079 -0.001719377 -0.007094181 -0.015190755 -0.0072009973 -0.013434064 -0.012335018 0.003366794 0.017174032 -0.011136428 0.009035777 -0.0069341045 -0.014086903 -0.012886165 -0.014682168 -0.004241863 -0.009865885 -0.0011592124 0.00941975 0.0098967 0.008494946 0.010770094 0.0030277267 0.004742508 -0.0054194587 -0.009764201 0.01546358 0.007452539 0.0062895888 0.00017471825 0.01269995 0.0023986145 0.0029214749 0.016934607 -0.017611792 0.010450466 0.016268581 -0.00399514 0.013124328 0.01099502 0.017657116 0.0154538285 0.016289897 -0.0048882645 0.004008419 0.013747655 0.016533326 0.0043027913 0.014883787 -0.008235372 -0.017069694 -0.0028542792 0.0027307423 0.014491942 -0.0023466158 -0.015512963 0.005786947 0.0058507775 -0.007897463 0.003337473 -0.013239597 -0.0101014655 -0.015203656 -0.010625663 -0.008745043 0.013985185 0.0017959094 0.010221958 0.0048033767 0.002286511 -0.0055524944 0.00593588 0.005128516 -0.014782743 0.011196214 0.015881628 0.0072061103 0.0062427246 0.013515839 -0.006725601 -0.0011052915 0.014077403 -0.017478948 0.0010920593 -0.006053493 0.014924876 -0.001454198 -0.0029793128 0.007749526 0.010717274 -0.003285306 -0.0019889304 0.004945749 4.796684e-05 -0.01510025 0.009964505 -0.004975781 -0.012869096 0.0008334092 0.010284326 0.0056053507 0.007759893 0.0021407562 0.011656395 0.015147406 0.0031736621 0.0035953864 -0.012362621 0.0006428404 -0.007841785 0.0011127783 0.0065772557 0.00355186 -0.012555892 -0.00055502995 0.013986235 -0.015850332 -0.014616118 0.0055506593 -0.00023594713 0.00067624456 -0.008497177 0.014304783 -0.014938313 -0.0038244938 -0.011680646 0.006315272 -0.010676289 -0.016721878 0.010599603 -0.005008304 -0.0051430957 0.00082369155 -0.013269048 -0.01731614 -0.012689171 -0.0010254745 0.005100438 -0.0006628952 0.006333015 0.00020561261 0.014211277 0.012251935 0.0016312004 -0.014641281 0.017297942 -0.016915586 0.008639264 0.010822223 0.002834731 0.003278856 -0.0045111775 -0.009437523 0.013152233 0.0018549392 0.014794872 0.0017333628 -3.599695e-06 0.0050434237 -0.003906359 0.0024868464 0.011566867 -0.004038468 -0.0058146273 -0.013547251 -0.014981918 0.016632479 0.00740089 -0.016571073 0.0061469018 0.0028649336 0.0053303735 0.0036896023 0.0016568644 -0.0025255107 -0.010517673 0.007955385 -0.012598703 0.015271232 0.00014995252 0.01652408 0.016353752 -0.012509579 0.001102984 -0.004856231 -0.0142474845 0.008140418 0.0015547511 -0.017532635 0.004544271 -0.0062911557 -0.0011282606 -0.008739589 0.00056312553 0.0062099635 -0.004387796 0.0023780041 0.0072583645 -0.0023800924 0.0032476806 -0.010732493 -0.0075178854 -0.0036557212 -0.005565452 -0.00037838946 -0.002164794 -0.007395813 0.008703411 0.011301409 -0.00551459 -0.01402107 -0.006533538 -0.016104797 0.012596542 0.0044092475 0.009902028 0.004738544 0.0060153925 -0.010180678 0.009142172 -0.000115313705 0.0011538587 0.0056407945 0.0049940585 0.005862788 -0.0075775366 0.002825835 0.00041052702 0.0010133429 -0.0066032414 0.002726585 0.014427648 -0.012831631 0.013549309 -0.008388343 -0.001921509 -0.00012552313 0.016289897 -0.0049635665 -0.01656182 -0.015856974 0.001693253 0.008897539 0.009933445 -0.012486471 -0.016272498 -0.0035648986 -0.0039207875 -0.00272042 -0.010226774 -0.0129788015 0.014606359 0.006884837 -0.013193415 -0.0062966263 -0.0052713756 0.0036219573 0.014355533 0.0023083517 -0.0039141434 0.0068666195 0.0071948706 -0.006105966 0.016316585 0.0069282507 0.01254909 -0.014938745 -0.003237437 -0.0059320675 -0.0012575729 -0.007509366 -0.0022278237 -0.003384865 -0.0051974785 0.01089838 -0.0025187754 -0.0061175292 -0.00526325 0.0011386616 -0.01612509 -0.0045219003 -0.009506307 0.0064248317 -0.016600002 0.01772673 0.008681264 0.00871349 -0.007969603 0.017856969 0.0168502 0.009506712 0.016179923 -0.014710959 -0.009625587 0.0008997747 -0.008479732 -0.004423312 -0.017785512 0.0032181272 -0.002330795 -0.0065098917 -0.013329459 -0.0012873667 -0.014601914 -0.0062062806 0.0039048388 -0.0048752963 -0.00778184 0.011945429 -0.015383706 0.006762803 -0.015081907 -0.004115007 -0.0012360684 0.0060909116 0.017329317 0.003226242 -0.010128624 0.0074711745 0.014425082 0.009499568 0.0013969669 -0.0024820822 -0.01593607 0.0036136296 -0.00046204883 -0.0064832466 0.0058438187 -0.016275326 0.009813696 0.003335823 0.004995212 0.0025338212 -0.008799811 0.0054522436 0.01656417 0.0028003668 0.010457333 0.011378327 -0.01010263 -0.0075364606 -0.0022593674 0.010256315 -0.009582382 0.0033166602 -0.005252666 0.009634546 -0.0025261983 -0.005945157 -0.01625942 0.0019611334 0.0014487101 0.009555495 -0.010181438 0.0054379003 0.0021550911 -0.00248029 -0.00477221 0.011611852 0.0117005585 0.004162197 -0.013277439 -0.002427578 0.013504295 0.011989275 0.015101598 0.016063869 -0.015303423 0.016361505 -0.005376665 -0.008732445 -0.017559465 -0.0048234463 0.003520804 -0.011267505 -0.0003329835 -0.006514426 -0.012721485 0.010934523 0.006406452 -0.010441336 -0.011208628 -0.011087197 0.013951611 -0.017529136 0.0007433253 0.01221497 -0.00834209 -0.002749803 0.015369307 -0.0026060345 0.010403146 -0.0030176705 0.0066510844 -0.008261919 0.004176206 0.002073735 -0.017165093 0.007521855 -0.011186427 -0.006888111 -0.0022106448 -0.015110332 -0.0021113798 -0.011795587 -0.009238726 0.011388901 0.016389916 -0.0085858535 0.0074674617 0.007789003 0.005615556 0.00927831 0.012403325 0.016514253 -0.010987342 -0.0017522447 -0.014110934 0.013476722 0.0065198904 -0.009884715 -0.012450981 -0.011990601 -0.011184435 0.003532001 0.0014061077 -0.015279256 -0.010420716 0.0013786427 0.013958298 0.008053243 -0.0036872968 -0.01253006 -0.0014397652 -0.010000836 -0.012546421 -0.0071379654 0.0013108042 -0.0070661693 -0.008727519 0.0050684707 0.014224894 0.016323073 0.009392381 0.0143907 0.014061404 -0.013100388 0.009042814 -0.0058641797 -0.0017962457 -0.015002869 -0.00067897997 -0.002247093 -0.0010782566 -0.007582203 -0.016468642 0.00379189 0.00028098057 -0.015552421 -0.006570648 0.017607737 -0.0023023274 0.010967981 0.0005495548 -0.013587537 8.4195824e-05 0.015424397 -0.0018600078 0.003196493 0.002682207 -0.0003576662 0.0017735554 0.015369629 -0.017023599 -0.0034161063 -0.017708257 0.015961599 -0.0166654 -0.011754082 -0.016425336 -0.011236368 0.008514479 -0.006733586 0.0062860125 -0.015893785 -0.0028727928 0.008958995 0.0072149723 -0.013976145 0.008265849 -0.00014922449 0.0013752346 0.005299596 0.0023399019 -0.01639981 -0.0030766919 -0.0002037734 -0.0011578947 -0.0054482436 -0.009937581 0.013306567 -0.008572658 -0.007263729 -0.006665377 0.015444886 -0.015083352 0.008020798 0.011822957 -0.009802214 -0.0154995695 0.007291262 -0.007110449 0.01119808 -0.0046307044 0.008362994 -0.014269057 -0.00021166887 -0.0017285582 -0.012269748 -0.010227555 -0.0065956246 -0.014903137 0.0071041416 -0.0096024815 0.012181438 -0.013822831 -0.01459399 -0.015507573 0.017823357 -0.001139975 0.009714878 -0.0046366965 0.0038542387 -0.014125073 0.0029800641 0.006418669 0.015263956 -0.008794147 -0.010649045 -0.00791795 0.0032338863 0.016548365 -0.012394267 0.005316464 0.0030004575 -0.0039997613 0.015585099 0.0037637844 0.015638867 0.0018252349 0.017171707 0.017360387 0.010202199 -0.007712805 -0.005391138 0.016651211 -0.017101837 0.012970663 -0.011575972 0.0011142961 -0.0019834384 -0.011217039 -0.012029866 -0.0030549255 0.0010866076 0.0022346952 -0.008716646 0.017492674 0.009892705 -0.00516658 -0.017317766 -0.0053254752 -0.0108842 -0.015777271 0.0052711605 0.012951246 0.004671442 -0.007688114 0.014587367 0.009840225 0.017017066 0.010553967 0.00018520441 0.0065185367 0.00066261424 -0.00087383395 0.0061515826 0.0049919444 0.01687489 0.0062737106 0.010907044 0.0055575673 0.0055024754 -0.009819696 0.016735522 -0.015414469 0.016731096 -0.0062120007 -0.01738993 -7.935933e-05 -0.00342543 -0.010169413 -0.007444495 -0.003041095 -0.015021105 0.016745515 0.005773617 0.01058163 0.013789587 -0.013972353 0.003487802 -0.01462704 -0.0017285646 0.006254784 0.009847159 -0.012077053 0.013172964 -0.009261168 0.011910162 -0.0048002433 0.0059487377 -0.008106228 0.00060680084 0.0057884012 0.01630812 0.0022914857 0.0024011135 0.0071847676 0.016902536 0.0026755207 0.016986454 -0.016601358 -0.01488294 0.005000049 -0.017657567 -0.013364929 0.0031024772 0.010304762 0.017846307 -0.0005382534 0.0046451604 0.0041363644 0.008837488 0.00023343095 -0.016020868 -0.0010615694 0.0019821867 0.0146450475 0.01037666 -0.0012764229 -0.0019302284 0.013898957 -0.0056129503 -0.0026332354 -0.0115562705 0.008387198 0.0066908645 0.0014960362 0.009029729 0.0062952703 -0.009720098 0.009058374 0.0118018845 -0.015541712 0.010991437 0.009667161 -0.003467794 0.009929438 0.014265386 0.0037702685 0.014403187 -0.011627664 0.008049195 0.014057439 0.002688361 0.0102687655 -0.013988675 -0.006159182 0.0040543443 0.0130126225 0.0132603245 -0.0011744606 -0.015181286 0.0020570606 0.01740251 -0.01606535 0.0072399913 -0.009480059 -0.009238309 0.0023291835 -0.013558271 0.014600593 0.010794116 -0.017512975 0.007032876 0.008697542 -0.01556166 0.0062122922 -0.017372768 0.0019055265 0.012344774 -0.009299487 0.009846792 -0.012453084 -0.007045195 0.016443465 -0.008865318 0.01231568 0.005930526 -0.006382202 -0.0047494303 0.015731722 -0.0068735527 0.0053048646 -0.016324438 0.01777702 -0.0036319795 -0.00037521977 -0.015584899 0.0030171382 -0.0059322524 -0.0018109105 0.0012141594 -0.006753845 0.014489381 -0.009518469 0.016107194 0.0136728035 0.010735349 0.015956244 0.0017927524 -0.0030763426 -0.0016611688 -0.0033058163 0.013512887 -0.016731342 -0.007058785 0.0151006775 0.010793116 -0.016526876 0.0040607667 -0.0070125526 -0.0008538962 0.012038353 -0.0046335952 -0.0035788866 -0.015228761 0.0002940212 -0.00888033 -0.008627126 0.0021566218 -0.014370549 -0.0071681784 0.011943554 0.010041569 0.010225365 -0.0075869225 0.0017641039 0.013747556 -0.016450096 0.01133749 0.009314267 -0.0007245924 -0.016571596 -0.007411693 -0.010595111 -0.0053123324 0.014512301 0.012119604 0.007918495 -0.008472628 -0.011965809 0.00029564332 -0.00044152993 -0.0040726215 0.017428719 -0.010053661 -0.0007454945 -0.0011520408 0.017068652 0.0001865072 -0.009338155 0.011382427 0.002652409 0.016622666 -0.013748866 -0.009103869 0.007575246 0.0021233177 0.0023740851 0.0011025263 -0.009628873 -0.0115965055 0.0050070607 0.009061957 -0.010220173 0.013719611 0.0042818384 0.014456888 0.011119196 -0.01502544 -0.012294359 0.016131273 -0.007630387 0.0053071445 0.008121012 -0.015922647 0.014943992 -0.017360132 -0.0062669264 -0.0015174088 0.011385337 -0.004880588 -0.00068209006 0.011570266 0.009159233 -0.01729102 -0.0014723667 -0.0104820905 -0.0060060793 0.015702982 0.012480666 0.01533049 0.0029611099 0.009063664 -0.009826233 -0.005555121 -0.00030540358 0.017131098 0.006077175 -0.0006829501 0.017503519 0.0097186845 0.0016188367 -0.0019900608 -0.00037226084 -0.017640656 0.0047517186 -0.0073568886 -0.013350794 -0.00020342002 -0.0016121034 -0.003705376 0.011106981 -0.00016647365 0.0014379004 -0.0006208399 -0.0025764236 0.00012297077 0.004979664 0.0039715576 0.015341161 0.0014781953 -0.011024584 0.016422926 -0.01489246 -0.009662341 -0.01115277 -0.015363077 0.0007997539 0.0035810345 -0.00615739 -0.016802792 0.01587386 0.0055121207 0.0067379777 -0.008913768 -0.0005384045 0.008805005 -0.001933877 0.012344519 -0.016832432 0.0034035787 -0.010645901 -0.0032465842 -0.0033990296 0.0036884781 0.009299059 0.00063187315 -0.011427972 0.008245922 0.008941655 0.008223934 -0.003714204 0.011626276 -0.0021804764 -0.0002277302 -0.0040666186 0.0011044997 -0.0019261263 -0.010629824 0.00945176 0.014130514 0.0005296533 0.012464468 0.0076135867 -0.012497992 0.01582746 -0.011570294 -0.010729205 0.005916255 -0.0142045645 0.002109304 0.004488762 0.01024973 0.014370044 -0.0035505893 -0.008350362 0.0108180605 -0.0054148524 0.015824039 0.0029735821 0.008584717 0.009612778 -0.006329662 -0.004015995 -0.0003137695 -0.006171448 -0.0051960754 0.014405021 0.009184048 -0.017130408 0.012821349 0.005437089 -0.0050701904 -0.01253788 0.009985034 0.010841291 -0.01585757 0.017099366 -0.013545122 0.0059318948 0.0074156737 4.6291523e-05 -0.003065071 -0.007992166 0.008642635 -0.016006853 0.006568364 -0.0037427184 -0.012572604 -0.014304707 -0.01652198 -0.009450894 -0.013144191 -0.006472494 -0.0079313265 -0.01574548 -0.001178467 -0.016102102 0.017263377 -0.004893056 0.0075368886 0.012891304 -0.017249892 0.0046758996 -0.010120837 0.012198928 -0.0077513014 0.01271193 -0.013855992 0.016592635 -0.017419215 0.00077481783 -0.00452411 -0.013734656 0.013321398 0.01758413 -0.015070241 -0.010966067 0.0006868244 0.0013947743 0.012450685 -0.0027548843 -0.012850945 -0.013169232 -0.010715064 -0.015202755 -0.008996996 -0.0017515975 -0.00961076 -0.007234814 0.016336005 0.0042320727 -0.0040275245 0.0058014374 -0.006215764 -0.004659896 -0.008696501 -0.016596748 0.005670518 -0.0056401943 0.00017979955 0.011654456 -0.013654944 -0.011595952 -0.013451626 -0.0015934451 0.009699713 -0.003879128 0.0126388995 0.017788861 -0.0049277376 -0.013379781 0.005600776 -0.0015810282 0.006409554 0.012481679 -0.014228089 0.0018027596 0.011829836 -0.0063997214 0.007951332 -0.0072311996 0.010696412 -0.005498833 0.009126991 0.002261113 -0.002234491 0.014828244 0.011373023 -0.002651551 0.014393394 0.011309411 -0.0069927024 0.013609063 0.007642774 -0.005828349 0.013755288 -0.00895228 0.006045242 -0.013082514 -0.009994343 0.005716439 0.003319434 0.008911033 0.004216035 0.008750733 0.016059168 0.006063189 0.014960464 0.008879928 0.010836712 0.011968596 -0.012286583 0.00012449495 -0.010126359 0.010431725 -2.1415099e-06 0.0016497545 -0.0036858153 0.0063853585 0.00857501 0.009368669 -0.00062834367 0.00069105416 -0.011862451 -0.0019985843 0.013360435 0.010200018 -0.00028781808 0.016459659 -0.015531809 -0.017450195 -0.01130456 0.005654997 0.01473745 0.008928014 -0.0055637597 0.0040995525 -0.0057971138 0.008889541 0.002074957 0.008927544 0.0040014386 -0.0055096555 -0.0005742099 -0.008832648 0.00044633876 -0.0062911874 -0.016747754 -0.009243991 -0.006515086 -0.0058965515 -0.01047672 -0.01086872 -0.0010855007 -0.015571418 0.0013812653 0.0008333411 -0.013486126 0.002332136 -0.016682345 -0.005986014 0.015218695 0.006591137 0.009415761 -0.008988496 -0.0129944775 -0.0038674625 -0.0067832624 0.016379785 0.0021158692 0.011853089 -0.014861358 0.01719904 -8.9483605e-05 -0.012149279 0.01683784 0.01254972 0.005561714 0.017085677 0.00440274 0.0043743597 0.008992008 0.009433504 0.0053560096 0.013761983 -0.004676898 0.00936383 -0.012673558 0.0151908025 0.0015346749 -0.009088791 -0.014170794 -0.0001648026 0.0103436755 0.0075633954 0.013943281 -0.0015535292 -0.0076593887 0.008022929 0.0035995843 0.011352312 -0.011103439 -0.012723817 0.015000457 -0.0052518933 -0.016033605 -0.009925905 0.016633132 0.009851422 -0.017747123 0.0060656075 -0.008597617 -0.010762315 0.016915701 -0.015237642 0.0048628133 0.00095540716 -0.007597519 0.010218931 0.01490404 -0.01162419 -0.010332657 -0.000867799 0.00019093284 0.016087212 0.009857778 -0.0002667372 -0.011040124 0.0011865604 0.010478691 -0.0033740466 0.0062699364 0.0011496928 -0.009154543 0.015809206 0.0076392447 0.0052401363 0.016990414 0.0037288135 -0.014962512 0.015102225 0.012284891 -0.0130622005 0.012391568 -0.015370619 -0.0069338875 -0.0035825416 -0.006427105 -0.0018324001 -0.009017144 -0.01108248 -0.015855975 0.01750449 -0.017333874 -0.017598808 0.013184584 -0.0036365094 0.017027764 0.0046492624 -0.002275946 -0.010503216 0.017466266 0.0055244546 0.014079761 -0.0129344 0.0042351508 -0.008327519 -0.01536677 -0.00710613 -0.0070049893 0.0056309276 0.0010556516 -0.01021336 -0.007803651 -0.011943118 0.013333877 0.016249103 0.00077244214 -0.009588259 0.01630649 -0.010878483 0.0102585405 -0.0048599886 0.009879193 0.016431183 -0.00065091683 0.008376628 0.0030945563 0.012365904 -0.0019629535 0.014330501 0.016357908 0.009123754 -0.01656438 0.0041101025 0.00030873716 0.0033536747 0.006437089 0.009013157 0.009285938 0.008237058 -0.003473084 -0.0034759876 0.007479406 0.008236809 -0.006539015 0.014171229 -0.007716111 0.017287053 -0.012624388 -0.010061592 0.015799288 0.008796765 0.007381612 0.015925497 0.0064989203 -0.010137914 0.01372406 -0.014288869 -0.0036991602 -0.0024911868 0.006626489 -0.00182089 -0.0053660977 0.010840325 -0.0108543895 0.006206349 -0.00027175675 0.004483794 -0.0003484147 0.013218755 -0.0039906865 0.016638352 0.015939992 -0.01681823 -0.015204803 -0.0022550845 -0.015423235 -0.009361214 -0.017204022 -0.010840348 0.01069151 -0.002341875 0.004210828 0.01708198 -0.0028829384 0.010114524 -0.004606477 0.0045440095 0.015739359 0.0073613655 -0.016123017 -0.010559393 0.0067832195 -0.0065213935 -0.010140294 0.017214224 0.013855758 -0.0003403617 -0.016709227 -0.0084793335 0.016014777 -0.012205625 -0.017195558 -0.006269968 -0.012016182 -0.0029238379 0.012206759 0.0020891982 0.010076115 0.017527256 -0.010096035 0.007511535 -0.0019670343 -0.0024778887 0.016272062 -0.01782065 0.0024486866 0.0116146235 -0.016356647 -0.005731917 0.008513926 0.009591316 -0.0122533785 -0.017500633 -0.0021839228 -0.006818478 0.00297156 -0.00023403765 -0.015096937 0.006368618 0.006563404 -0.0072352677 -0.010872358 0.013414526 -0.0026236752 -0.007891417 0.0051746415 -0.016186798 -0.0018924859 -0.0042822533 -0.009066644 0.015940899 0.008265868 -0.016527647 0.01207846 0.016108586 -0.0015264325 0.007248649 -0.012785927 0.005659225 -0.012717954 0.0034275334 -0.017256893 -0.0052215736 -0.016797787 -0.006805948 0.012483957 -0.0061567174 0.0021971934 -0.00990504 -0.013815843 -0.0114344815 -0.008957876 -0.014908184 0.0024946865 0.006337458 0.010590709 -0.016446186 0.014710099 0.0025007129 -0.009311709 0.014107035 -0.002345032 0.0006458249 -0.01069753 0.01631033 0.011209544 -0.01330678 0.005524448 -0.009582897 -0.013840146 -0.014169131 0.016707836 -0.013580825 -0.0036024516 -0.009784418 0.0030895665 0.010758138 -0.0026139512 -0.009136352 -0.0117644975 -0.008690232 0.003282777 0.016065545 0.009781471 -0.017807618 0.01064859 -0.013854511 0.0051839994 -0.010601725 -0.01438563 -0.015960056 0.0018084752 0.016242895 0.01136366 0.0020312562 0.010542449 0.0028107252 0.0063476223 0.016652865 -0.0016406584 0.004808305 0.0051703136 0.0046442747 0.00095483876 -0.0047305375 -0.014905336 -0.0003905765 0.017581329 0.015824612 0.015401093 0.016079152 0.0146928225 -0.00022170162 -0.0063669216 -0.011797039 -0.011101032 -0.009279948 0.0063515073 -0.010627902 -0.013811035 0.0045939707 0.014821623 -0.01736629 -0.00948588 -0.009038928 0.0063661085 -0.015271905 0.0087797735 0.0044709723 -0.01182751 0.0002060341 -0.0136357425 -0.008069603 0.017375987 0.007198436 -0.0035780224 0.015718147 -0.007974691 0.007039888 -0.015460239 -0.010019991 0.011170579 0.011615587 -0.009041408 -0.0075531923 0.0077458387 -0.014033265 0.005786611 0.01288512 -0.014425415 -0.0038654828 -0.017465472 -0.012322129 -0.0058673304 0.0058601885 0.012799766 -0.013362319 -0.008293314 -0.0042222505 -0.005707788 -0.012791128 -0.011879579 0.0039119404 -0.010358393 0.014137799 0.006732645 0.009984268 -0.0040696757 0.014349796 -0.017578416 -0.012801562 0.008825837 -0.0049738823 0.006465101 -0.001065731 0.008985996 0.0169231 0.014038963 0.00030037976 0.017523102 0.01292227 0.013136072 0.0047660493 -0.011659746 -0.009447209 0.01740415 -0.0052768188 -0.016009955 0.0002025217 0.013808794 0.00030165486 0.0135618495 -0.013171245 0.0020634448 -0.002582795 -0.008242607 0.012050767 -0.009301665 0.0030074632 -0.0035920506 0.0122708725 0.016508674 0.01023336 -0.007619413 0.005511244 0.0003484956 -0.0057798647 -0.004140275 0.0013305673 0.01112395 -0.014510492 0.013769964 -0.012853987 -0.00818593 -0.00061462185 0.007850749 0.015860913 -0.0075981044 0.00022465843 -0.005448329 -0.00015739033 0.011850756 -0.01046112 -0.001934454 0.010897771 -0.0012134698 -0.00159819 0.01740936 -0.016919244 -0.017709102 -0.0156131135 -0.010418277 -0.011800862 -0.0131153 0.004540914 -0.0083180135 -0.007901605 0.0017338481 0.01567634 -0.010302156 0.0069085276 -0.002286464 -0.007034304 0.013947594 -0.013817863 -0.00044359907 0.010121297 -0.007801073 -0.005267914 0.00626715 0.011051772 0.0162848 -0.0133426385 0.0048707277 0.0027130821 0.0031686213 0.007064592 0.013985241 0.003252913 -0.007579819 -0.008889022 -0.012032173 0.0053972756 0.004592089 0.001567451 0.013608296 0.0032998475 -0.005580977 -0.0011834353 0.004018986 0.013399142 -0.004097864 0.015541648 -0.017765656 0.012499169 -0.008097732 -0.00028316252 -0.007554876 0.011399372 -0.013173904 -0.0024799812 -0.0017715162 -0.01409571 0.013868214 -0.009594614 -0.014112245 -0.0132562565 -0.01641143 0.006698311 0.00047833155 -0.005116961 -0.012258107 -0.012784279 0.010945878 -0.00648357 0.013382701 -0.003558721 0.010030112 -0.0055667507 0.008888692 0.010353285 0.014443571 0.012113925 0.00071960693 -0.016876368 -0.014511315 -0.0031877353 -0.0007869197 -0.0008148764 -0.015017025 -0.008154352 0.011949565 0.015386644 -0.016446456 -0.0019810286 -0.009746248 -0.002363882 -0.017488614 0.016654355 -0.0121708475 -0.01508491 -0.008657339 -0.004197749 -0.010817347 0.002068739 -0.015259959 -0.016963717 0.00044963192 0.012843254 0.00925473 -0.0072081815 0.0011604365 0.0010106437 0.002212235 0.017712023 0.0033707407 0.008699505 -0.015001838 0.017615352 0.012005728 0.014110977 0.015359528 -0.014472 -0.0031544673 -0.0015861158 -0.0009238018 0.011655352 -0.017374225 0.01204264 -0.013450272 -0.008154188 -0.0008871705 -0.0024191674 0.0063836705 0.0074883853 0.013937061 0.0016144387 0.0006577096 -0.0069104456 0.017521212 -0.0013037516 -0.0025291955 0.004277885 0.01324943 -0.0065701758 -0.01334716 -0.015690008 0.0053290175 0.012115528 -0.0132245915 -0.007805122 -0.01740608 0.013714606 0.008074427 -0.011537159 -0.0076260483 0.001180238 0.017637098 0.0055049215 -0.012505875 -0.01583334 0.0040283757 -0.0042774105 -0.007392479 0.0027136612 -0.016081616 -0.01607315 -0.0073864376 0.002410233 -0.010137105 -0.0138124935 -0.00801221 0.0036002975 -0.016976846 -0.007283092 0.009198321 0.011491827 -0.007463662 -0.013901498 0.0026969996 0.008811555 0.013064808 -0.01290543 -0.00455788 -0.013928057 0.010802429 -0.01765696 0.004444278 -0.008491968 -0.0035950798 -0.003768857 -0.0068501984 0.009626875 0.004418233 0.003307398 -0.014571314 0.01587751 0.006607386 -0.009060807 0.013895738 0.017160444 0.01564779 0.0034312373 0.014662011 0.009902699 0.0075257337 0.00432106 0.0039799153 0.016411027 0.004102594 0.00943315 -0.013906382 -0.006144015 0.011198643 0.010785116 0.0090328455 0.012876447 0.014625393 0.011355809 -0.007969146 0.010276729 -0.0065578907 0.006993388 0.009070614 -0.009609644 -0.0007011678 -0.011089707 -0.017598562 0.017221728 -0.00037084735 -0.0051526665 0.003991934 -0.012305976 -0.009651318 -0.008635471 -0.008386795 -0.008535175 -0.014896311 -0.012197531 0.010344121 -0.0143794045 0.0073430114 0.008092849 0.015774108 -0.0028083688 0.005427659 0.010610295 0.0036095744 0.010007056 0.008768614 0.009941874 0.016518954 0.005545736 0.0013767418 0.0022103935 -0.009586852 -0.014468969 -0.012986699 -0.0033141887 -0.013351114 0.016818542 0.0074269585 0.01376822 -0.007709497 -0.0034487355 -0.0072089694 -0.001916679 -0.009115356 0.01678484 -0.0013940207 0.004844702 0.0027422928 0.0011553466 -0.008471886 0.012482227 0.00021004678 0.0044032997 0.0003598503 -0.017512232 0.0146744065 0.009753096 -0.002066344 0.0074165063 0.012849676 -0.0051714163 0.016434854 0.0014043365 -0.013229107 -0.0020168233 -0.009567176 -0.004153654 0.0038111615 -0.0150850825 -0.015821302 -0.004519067 -0.0045437114 -0.017718792 -0.005724064 0.012597964 0.0045451736 0.0124376975 -0.002423889 -0.016954195 -0.011918292 0.0065615224 0.0010108565 -0.017255092 -0.009999548 -0.013242092 -0.011691565 -0.010379652 -0.0027577793 -0.016868316 -0.00041093785 -0.00055478944 0.012828982 0.012991344 0.001329899 0.0063553625 -0.0010049386 0.016378736 0.00088939926 0.013850817 -0.016221544 -0.009720489 -0.011835636 0.009153929 -0.017075663 0.015364064 -0.0074029313 -0.0049744593 0.0006012789 -0.010111552 -0.012512354 -0.0058181714 -0.006635577 0.0028275636 0.0012575601 0.012215985 0.0067060357 0.016115379 -0.012168278 -0.002768338 0.0144390045 0.016079573 0.014474825 -0.013004127 0.01648625 -0.00065843767 -0.0058360337 0.00078545517 0.013857512 0.016542135 0.00095871947 -0.010399778 0.016250145 -0.013495506 -0.014228852 -0.0030511406 0.0077823466 -0.0024572846 -0.014654403 0.0051774383 0.0026429424 -0.009968436 6.4883916e-06 -0.0064874697 -0.0039448547 -0.011581124 0.01113315 0.015063414 -0.007054966 -0.012222972 0.016864907 -0.001552601 -0.0054906374 0.014874387 -0.011436278 0.017622972 -0.0047781854 0.011080549 -0.0113747595 -0.0026486325 0.009738352 0.013019715 0.003779222 -0.0004179925 0.003979134 0.01753746 0.009463232 -0.010992134 -0.005451339 -0.014208202 -0.00225465 -0.0077749877 0.012083565 0.0031566685 0.010847214 0.0075050234 -0.008511993 0.0041965186 -0.016896764 0.006784823 0.01004627 0.007175552 0.00061077735 -0.0038123813 0.0092508495 0.00795576 0.010969009 -0.014334665 -0.0022556996 0.0052686613 -0.00053405337 0.01355689 -0.015882617 0.016507668 -0.0056907153 -0.00859237 0.017734528 0.00013743555 -0.0047095716 0.01354796 -0.007877073 0.009325909 -0.015156237 -0.013211755 -0.004061846 0.015229724 0.009104801 -0.013976608 0.017536111 0.007660234 0.017621567 0.009898225 0.015148372 0.0045689815 0.014117612 -0.009135745 0.0017398512 0.013158531 -0.0018260629 0.009985054 -0.004139236 -0.011978448 0.00950977 -0.016140234 -0.017854491 0.010515999 0.0068586194 -0.010913092 0.010101519 -0.0031173145 0.0070215296 0.006228226 -0.0067305504 -0.014526325 -0.008884671 0.00709882 -0.013708217 -0.00287132 -0.014306548 0.004173234 0.0023166114 -0.0068078195 0.010213448 -0.016559506 -0.013466114 0.0011158821 -0.010455788 0.008839009 0.01088297 -0.0077667898 -0.015607949 -0.013744135 0.00067615084 -0.015300871 -0.0117356675 0.002789555 0.001986523 -0.006269187 -0.0014620126 -0.012231959 0.013042061 -0.0004806774 -0.0011780731 0.013441615 0.013028401 0.014458649 -0.011289401 -0.0024346625 0.014277827 0.0006861772 -0.015285887 0.0034887984 0.0112124495 -0.015002437 0.014433706 -0.0075644897 -0.0035859498 0.013631623 0.0029066696 -0.009388513 -0.011930934 -0.0075867795 -0.003733137 0.012611275 0.00042215205 0.0047841966 0.007973316 0.012052296 0.016369738 -0.00067680015 -0.012542701 0.011159767 0.00076297356 0.013922245 0.016867934 0.0029210642 0.010821284 0.0020207423 -0.01676929 0.0016113116 0.013856737 -0.0073442613 -0.0030028396 -0.015760627 -0.0026479578 -0.0032506885 -0.0052283155 0.0039008474 -0.0039023887 0.011754854 0.005197655 -0.0104085235 0.015451911 -0.0046439855 0.016077582 -0.0047935187 -0.0020553237 -0.003337622 -0.009458706 -0.015547968 -0.013490845 0.0018180418 0.007926896 -0.0036669504 0.004342105 0.01455858 0.008413002 0.012118614 -0.010051038 -0.00616152 0.007985431 -0.01638741 -0.0051247566 -0.011702708 0.006077175 0.004485997 0.017081674 -0.016862527 0.0045879143 -0.014988483 -0.0070796036 0.011424627 0.015475842 -0.009681279 -0.013205705 -0.0012864259 -0.007132124 -0.000110447414 -0.012429725 0.016254414 0.0023470586 -0.016895873 0.01226322 -0.017212946 -0.008759861 -0.013773335 -0.009531249 -0.0055786246 0.005874083 0.011204512 -0.014853666 -0.014085125 0.0016458908 -0.011870773 0.0041415542 -0.012578699 -0.014448986 -0.008978171 -0.0019422153 0.0058745 -0.0070130955 0.010698238 0.0072899424 -0.0076652043 -0.014516557 -0.004618066 0.01284669 0.017046973 -0.011333045 -0.010523484 -0.0026194924 0.010730808 -0.008147117 -0.016261352 0.0022061702 -0.014853848 -0.015311797 -0.006007152 0.0075268364 0.005684491 0.008100203 -0.01577556 -0.0046469527 -0.007111584 0.003583042 0.01651215 0.0015943178 -7.736045e-05 0.0057002436 0.016557593 -0.00071488327 0.010207224 0.0172305 0.008281889 0.015611832 0.016924782 0.016944695 -0.0009883174 0.016884003 0.00244001 0.013641994 -0.002508321 -0.015975524 -0.017048875 0.013914743 -0.006168125 -0.0051864046 0.013354102 -0.016086737 -0.0009133348 -0.011063625 -0.00013005521 0.01642395 0.012732449 0.01598502 0.013104165 0.010484478 -0.010537689 -0.004478129 0.0009040088 -0.004157697 0.0073986207 -0.015378657 -0.00024090495 -0.017034227 -0.0075598424 0.015016003 0.009365846 0.014992382 0.0044211703 0.0143846255 0.0107179675 0.0019191569 0.0096938955 0.010269885 0.007164579 -0.0014388583 -0.006130985 0.01655101 -0.015371594 0.017054997 -0.004075353 -0.0047328686 -0.011610847 -0.0038541323 0.011256823 -0.009399983 -0.01451026 -0.008847629 0.013785297 0.004985228 -0.0031852 -0.014940844 0.010111326 0.009383185 -0.012993443 -0.007874396 0.0017805548 0.002026856 -0.0007860831 -0.016051335 0.0059284316 -0.0018155895 -0.0074499 -0.013827646 0.00982511 -0.0024339452 -0.010427354 0.0119873695 0.009452599 -0.013145733 0.013081936 0.008233788 0.0108982455 -0.014940225 -0.014511419 -0.011857521 -0.0067361 -0.002649616 -0.008125906 0.00855805 0.0061538243 -0.003891728 0.0021082887 0.013434979 0.012749405 0.004064386 0.008473475 0.017040402 0.011042659 -0.0078867525 -0.017651925 0.012435297 0.009354396 -0.01148983 -0.00010654118 0.015872026 -0.0024133092 -0.008478303 3.517313e-05 -0.0038131606 0.0059458213 -0.012504393 -0.013032194 0.0160748 0.0037462097 0.017447172 0.017131649 -0.014973205 0.0051662903 -0.01745421 -0.015917085 -0.008834377 -0.004243425 -0.004723981 -0.0047955513 -0.01602518 -0.007915947 -0.0008277127 0.0034099307 0.00868841 0.001549723 0.009301028 0.00063834875 0.0068184906 0.009085938 0.0031124034 0.0058051264 0.0048330193 -0.006212386 0.0037896868 0.008372848 -0.004639724 -0.013333459 0.012015418 -0.0011319412 0.0025341192 -0.009807179 -0.01141145 -0.012428891 -0.0002879671 -0.016498458 -0.013753736 -0.0038988506 0.008333704 0.013927944 0.0076732254 0.011742002 0.002307711 -0.010770355 0.0040914076 0.010457269 -0.008761341 0.014301682 -0.011230616 0.0062946468 -0.0008795347 -0.011764925 -0.014979627 -0.007984903 -0.009655955 -0.011733783 -0.009689182 -0.012510843 0.007404315 -0.014100565 0.0073908996 0.002413784 0.01526237 0.0058369576 0.012962187 -0.01142203 -0.00670197 -0.0026681724 -0.014401914 0.011060888 -0.011124467 -0.016068561 0.0075207315 0.005154674 -0.0038456514 -0.0061096787 0.017561862 0.017323501 0.0004715494 -0.014765017 -0.0095181 0.008432146 0.0031340613 -0.011745717 0.016342618 -0.005373246 -0.007514811 -0.004896611 -0.015700638 -0.0025939175 -0.0064376127 -0.0038074257 0.0064833295 -0.015305739 -0.0054069357 0.006173479 0.010866336 -0.001801923 0.008789991 0.00971557 -0.0027851292 0.016386384 -0.004637791 -0.010170218 -0.0018882774 -0.011549757 0.008187479 -0.011018085 -0.008895417 0.0039955913 -0.0076213097 0.015671417 0.006103209 -0.002948065 0.0145553425 0.0024195698 -0.0053843753 0.0074023907 -0.008085226 -0.01499496 -0.0060937237 0.003544748 0.01543041 0.010927145 0.00807937 0.0010743035 -0.008341888 0.008126328 0.01405697 -0.008020422 -0.015727047 0.00094499334 -0.008682428 -0.008952796 -0.002419393 -0.012737828 0.0036591932 -0.006283677 0.014699268 -0.009742531 0.013164457 -0.014546159 -0.0057280343 0.01596925 0.015721494 -0.011571851 0.01498868 -0.0061382186 0.0001416696 0.0036121907 -0.014237274 0.0051185596 -0.0053370427 0.017228557 -0.015572257 -0.012458117 0.014975142 -0.012756499 0.014858489 0.004508838 -0.0022327923 0.0005096091 -0.009555712 0.00079440646 -0.008933092 0.0031966781 -0.010398323 -0.005257473 0.014178847 0.0100413505 -0.0064381873 -0.017295778 0.009776524 -0.004175729 0.006829822 -0.011952961 -0.017827094 0.0020985305 0.0074933683 -0.007244334 -0.00363536 -0.014734101 -0.013298976 0.013134208 -0.015316117 -0.0053882985 -0.0096871285 -0.0082862275 0.017400008 0.010794866 0.009629697 -0.0073726224 -0.00706039 0.004364925 -0.017824167 0.009158101 -0.0016667013 -0.0050666034 0.0053624813 -0.003671131 0.015565877 0.0005662463 -0.011396547 -0.0016821751 0.012603943 -0.0033345947 -0.014722327 -0.013720436 -0.017690359 0.00654545 0.0039213705 0.00067502266 0.01767569 0.0008751495 0.0067867213 -0.0120221935 0.015411327 -0.016083486 0.014807163 -0.012040371 0.0034449336 0.0021952924 -0.015702033 0.009312292 0.01233625 -0.014829994 0.016459089 0.0057882136 -0.01040307 0.0049344664 -0.004437202 -0.014525868 -0.00927938 -0.004229101 0.0021589377 -0.010167173 0.013699534 0.0031240925 0.0070887273 -0.012801718 -0.004743372 -0.009205906 -0.009995356 -0.00032155216 0.009957369 -0.0028086754 -0.0096806865 -0.011964465 -0.014728006 0.013781184 -0.0018140185 0.0004211409 0.012934847 -0.014131602 -0.01768801 -0.010282072 0.0072088693 -0.014019671 -0.005806772 0.0034387284 -0.008516023 -0.0033508795 0.010946719 0.003132322 -0.0006650154 -0.01712284 -0.014730086 0.012747897 0.014834784 -0.0067773634 -0.015728174 0.016830837 0.010990099 0.016007096 0.01740222 -0.004221146 0.006162341 0.013646312 0.0040198267 0.009902856 0.012105302 0.002837558 0.0013193893 -0.011829128 -0.015813958 -0.005952893 0.009084653 -0.013117386 -0.010877955 -0.013530063 -0.011211294 -0.00025946967 -0.0017156325 0.017721359 0.017034546 -0.016446842 0.0063498896 -0.010470183 -0.00227234 0.004714074 -0.003645399 -0.01149657 -0.013448399 0.016846655 -0.0022672096 0.004400513 -3.8087368e-05 -0.004693155 -0.017599722 0.01307835 -0.0032382354 -0.013630804 -0.016519511 0.01630355 0.0050558257 0.016773183 0.010352169 0.0026507783 0.013088787 -0.0058466964 0.0034207809 -0.007157145 0.00076655834 -0.0023674583 -0.01609504 -0.0143410675 -0.0060267453 0.014613552 0.001525087 0.002930635 0.0020393326 0.008821358 0.0040671467 0.007307762 -0.015348286 0.0077389227 0.015766138 0.0018427564 -0.0070407353 0.0069903946 0.011084502 0.0007163436 -0.0036873862 0.0010306239 -0.012382782 0.014996124 -0.0053955745 -0.013311187 0.011601845 -0.012871507 -0.0139012765 0.0023767375 0.00852828 0.014996904 0.0114811305 -0.01570537 0.008299132 0.013670603 -0.014483918 0.015161466 0.008152081 0.0039601456 0.00034327593 -0.01080605 -0.014668989 0.008855099 0.0024996614 -0.0077553117 -0.00026244565 0.007239342 -0.013054697 0.010442975 -0.0007698579 -0.010294821 -0.009934569 -0.0057152854 -0.0074149882 -0.007919989 0.0059986715 -0.0032797116 -0.003348095 -0.009917524 0.0033120492 0.010937563 -0.01419777 -0.005346135 -0.0026350939 -0.014298225 -0.0099606775 0.009057929 0.013679948 0.0014968303 0.00782026 0.0076522236 -0.0023675328 0.0036235028 0.0017532132 -0.011038455 -0.0058656083 -0.017490504 0.013199409 -0.0069143884 0.012292933 0.0047146403 0.001039869 -0.013070999 0.011923746 -0.010612467 -0.0006027882 -0.003700016 0.005045972 0.0057812273 -0.00053878984 -0.0074080145 -0.015713355 -0.016446073 -0.014491344 -0.016388461 0.0064852475 -0.002817401 -9.782187e-05 0.017302355 -0.0053262864 0.0049007237 0.0014029699 0.0045901793 -0.009328634 -0.0132592 -0.0052797096 -0.008289921 -0.011136667 -0.0044245636 0.009943362 -0.010072347 -0.0006052277 0.00039688393 0.0046931594 -0.016081799 -0.0030433047 0.008677873 0.013625906 0.012369912 -0.012464485 0.0035623186 0.008564032 -0.013310156 0.0024520948 0.0015071802 0.014843818 -0.0016578202 0.015331912 0.013154993 -0.0045824097 -0.005201506 -0.0015397903 0.013408025 0.005584802 -0.0016276262 0.008224199 -0.013444912 -0.001769232 0.014046367 0.007659099 -0.017604172 0.005850396 0.004378434 -0.014749515 0.013979418 0.0008595416 0.0008837709 -0.008217156 -0.003219796 0.013917578 0.006794732 -0.005854364 0.0071314983 0.016770327 -0.007857129 -0.00767353 0.015408487 -0.011499444 0.00022234024 0.015300848 -0.0031326946 0.0034965598 -0.006987338 0.017048169 0.009283728 0.0074372785 -0.012429242 -0.016183265 0.0039078062 0.016871657 -0.004764742 -0.00018419964 0.01632673 0.00496568 0.006782404 -0.01171645 -0.008902523 -0.016134996 -0.0027168905 0.0024394118 0.014652355 -0.0017940126 -0.006713689 -0.012906237 0.012569975 0.012893388 0.015302242 -0.011568615 0.014846556 -0.008684191 0.00061790645 -0.015355362 -0.00519727 0.013306296 0.0029251194 -0.008136719 -0.0029852604 -0.011621429 -0.0025350475 -0.01748427 0.017850233 -0.0049990546 0.01518435 -0.014661813 0.017431255 -0.0001458909 -0.0023195469 -0.0040413653 0.01388811 0.013251184 -0.015922759 0.0021164524 0.014432706 0.0016671143 0.012789582 -0.015438828 -4.774758e-05 0.004370828 0.010342628 -0.01267172 0.011850128 -0.013680742 0.013754194 0.0059971665 -0.011694954 0.008632845 -0.0060906475 0.00021607749 -0.008613804 0.0032608085 -0.0108122835 -0.008027298 -0.0036027816 0.008788903 0.009210968 0.017307363 0.00395463 0.016411206 -0.0067073023 -0.0014954465 0.0004335727 0.009614021 -0.0058357697 -0.000711456 0.013361866 -0.01310525 0.007862545 -0.0131067345 0.0129213445 -0.009868884 0.011478631 0.007273966 -0.0034507345 -0.00866884 -0.0038111978 -0.01004799 0.0038305714 -0.010370478 -0.011021851 0.016451625 0.014281876 -0.008696248 -0.014449046 0.0048782635 -0.008467172 0.0012036775 0.0040469747 -0.008286282 0.010315534 0.013244698 0.005591052 -0.009900113 -0.006396326 0.017331619 0.0134719 0.017720172 -0.013768725 -0.0019273929 -0.009104991 -0.016412847 -0.017319104 0.013218897 -0.0013498622 -0.016317192 -0.009025602 -0.016348204 -0.005720313 -0.01681671 -0.012404134 -0.002781834 -0.0045484584 -0.016464347 -0.0033526486 -0.0021285885 -0.010380726 0.0003239683 -0.0053505157 -0.007321788 -0.003872235 0.011755416 -0.0037871175 -0.0011170678 0.009725196 0.0024218177 0.008593994 0.011421234 0.01006549 0.008798344 0.010842326 -0.0027385526 -0.0016192752 -0.016835365 -0.016625132 -0.003667059 -0.012962772 -0.0154398875 -0.000235383 -0.014866076 0.013868971 -0.0055307257 -0.002225312 0.006528727 -0.004078923 0.015139074 -0.011121625 -0.015068159 0.012609589 0.016237907 -0.011422592 -0.013645809 0.015498477 -0.0018296392 0.013165828 -0.0148280375 -0.0076294905 0.014613148 0.0007612876 0.0040450227 -0.015708124 -0.011521308 -0.013364662 0.0084086405 -0.0071181487 0.008593867 -0.0074266903 -0.005711475 -0.005666782 0.0070634848 0.008734655 0.013426565 -0.005749609 -0.007278413 0.017565614 -0.0022475594 0.0131899165 -0.0024813563 0.010850138 -0.002803475 -0.003835408 0.010879911 -0.0024841833 -0.015125735 0.01060401 -0.0128129935 -0.017746095 0.005149009 -0.006665588 -0.010561032 -0.0006949391 0.0034574228 -0.0136498045 0.0006087359 -0.010625665 -0.01072091 0.000358771 0.01729594 0.015692748 0.01427712 0.0046231747 0.0002721165 -0.003926369 0.003851133 0.010921125 -0.012692354 -0.008802465 0.016298989 -0.0049270033 0.011383144 -0.0027996814 -0.011734961 -0.009851861 -0.008811902 -0.00568233 0.008540084 -0.017279899 0.015970035 0.017628977 0.017350992 -0.002993586 -0.0054970193 -0.0023672816 -0.0005591533 -0.011849753 -0.010252818 -0.0004165407 0.009511944 -0.003404824 0.0026752525 -0.012569892 -0.0046453583 -0.016557172 -0.013931769 0.013342971 0.0099814115 0.009023654 -0.008835173 -0.015288086 0.00027871772 0.0030205017 -0.00084297574 0.014771179 0.0041242074 0.011941504 -0.016602611 0.0042011207 0.015693089 -0.008567719 0.010611501 0.012437676 -0.009076323 0.002501426 -0.0013477207 0.014353197 0.0045762383 -0.016548658 0.009893401 0.0027729871 -0.0007023961 0.01688671 -0.016947052 -0.006972941 -0.014508957 -0.002935416 -0.006699952 0.01204737 0.00040657393 0.0048505813 -0.010874597 -0.011132319 -0.014765767 -0.0033853438 -0.00442321 -0.007652149 -0.014346061 -0.009919625 -0.00908407 -0.01067611 -0.010257328 -0.012945165 -0.014012687 -0.010311678 0.015840868 0.0031614369 0.0009026677 -0.017354984 -0.0035202783 0.003941983 0.007228675 -0.014650735 -0.015172322 -0.007414601 -0.0021371075 -0.0048281043 -0.012368889 -0.015908044 0.008623472 0.00329533 0.008061892 -0.004893731 0.015317528 0.0025718191 0.0077954642 -0.005128569 -0.014084455 0.016254157 0.0064021586 -0.0016244693 0.012998188 0.0035831141 0.010173651 0.0019246937 -0.005047756 -0.0010818605 -0.009037701 0.006273815 -0.010955522 0.00654151 -0.011173612 0.006906069 0.00071060663 -0.015556664 -0.009593462 0.011068136 0.016754184 0.0007422077 -0.012549759 -0.0044681537 -0.008171255 -0.0054925387 0.0147366505 0.012930809 -0.0038460942 -0.01079226 -0.016444437 0.01311344 0.0032536092 -0.0037237685 -0.013404768 0.011046101 0.013798086 0.0042178845 0.0056094085 0.009114653 -0.014935238 -0.013338734 0.009523469 -0.007048884 -0.010867168 0.013670722 0.004236813 -0.0009576232 -0.0043579405 0.0048195254 -0.0076879673 0.013498296 0.0107597355 -0.012459834 -0.01164202 -0.016455576 -0.0055864626 -0.015035468 -0.01755806 0.009215909 -0.0064596813 0.0060060048 0.0142876385 -0.017657392 -0.011162835 -0.0064488696 -0.010804707 0.0015218003 -0.0021502697 0.0039223093 -0.0041135955 -0.0013542367 0.0011109476 -0.0058242553 0.013925317 0.0075264685 -0.004097464 -0.017490238 -0.003136105 0.017082628 -0.013677431 0.016784549 0.0043758303 0.0049663633 0.015645036 -0.0015458657 0.0008215394 -0.008282628 0.011987659 -0.009443998 -0.0077957367 -0.0015384981 0.013442668 -0.009230461 -0.0032307145 -0.01067918 -0.007132073 0.016715262 -0.016503938 -0.012613448 0.008542785 -0.0065280437 -0.0030037933 0.0015993204 -0.017361436 0.010991757 0.016088573 0.009704137 -0.010323912 -0.010492674 0.009235314 -0.004842737 -0.008341613 0.002281455 0.013040694 -0.008225571 -0.0053561865 -0.002534726 0.011336366 0.00892837 -0.012788901 0.014976342 0.017634325 0.016247159 -0.0023458537 0.009780824 0.008987757 0.009581145 -0.0005900988 -0.00945344 0.0034641284 -0.005234082 -0.008338871 -0.011813043 0.0070229983 -0.01196816 -0.0067642634 -0.013423391 -0.0076045655 -0.012493623 -0.0028053673 0.0050519495 0.012784878 0.014167701 0.014166452 0.016431551 0.014204986 0.0011570454 0.007583908 0.005774907 0.005274771 -0.008325848 -0.0021927804 -0.015405176 -0.0116608655 0.006835263 0.009897748 0.0063369107 -0.0051858216 0.00045568604 -0.0046161776 -0.0020951608 0.010642084 -0.01521693 0.006532399 -0.015998725 -0.01438943 0.011307406 0.014418926 -0.013512649 0.01327864 -0.004602456 -0.0019435948 0.0031353428 0.0014678517 0.007511761 0.010722484 0.015156938 0.01126782 0.014204139 -0.0112114195 -0.013261915 -0.007181945 -0.015354681 -0.017052066 -0.0022738534 -0.014556823 0.0041734027 0.014657317 0.0038711664 -0.012839567 -0.00588346 -0.009410301 0.014308434 0.003360493 0.008937059 0.007225784 0.017132754 -0.0076047503 -0.015051706 0.00065237714 0.0016731557 0.009153741 0.015357167 -0.008815661 -0.015059398 0.0064107226 0.016366787 0.012379932 0.010477152 -0.002127026 -0.014673287 -0.011839456 0.0026249355 -0.00029618188 0.010189006 0.016163558 0.0002510356 0.0057456517 -0.010243866 0.008033583 -0.017045226 0.009279852 0.016678626 0.011893724 -0.0029665488 0.010309341 -0.010361436 0.016139684 -0.0040998654 -0.0100737475 0.01342007 -0.0053416323 0.0032079157 -0.011286836 0.0034476947 0.004073748 -0.010447767 0.0034774544 0.013577126 0.0066554444 -0.002261675 -0.00013917472 -0.009643417 0.013721533 -0.00040977768 -0.015962822 0.017163603 0.0078098737 0.00821547 0.007063266 0.012464858 0.005355435 -0.017608903 0.010908085 -0.0029482737 0.016245116 -0.00033554222 0.0076374076 0.015955828 -0.010796454 -0.015045048 -0.017127259 0.003924017 -0.010800735 0.015332514 0.008384343 -0.0014845091 -0.011001085 0.009178198 0.013200695 -0.016580129 -0.009669027 -0.010022918 0.007220986 -0.004821488 0.0030072844 0.0018969477 0.016650375 0.01263627 -0.015202088 -0.0035519602 -0.00385102 0.0031708246 0.009509853 0.009997624 -0.00040087107 -0.007024384 -0.009260512 0.015177044 -0.015558143 -0.0008235255 0.0104497885 -0.00039198357 -0.005775522 0.013263207 0.011356931 -0.0014712769 -0.0024524608 0.0061584716 -0.0014706276 0.0031974935 0.0024485567 -0.011759791 -0.0168499 0.009049806 -0.013148568 0.016633306 0.00654032 -0.017623192 -0.0008177928 0.014925675 0.008112652 0.016751382 0.0057445723 -0.010345489 -0.013840269 -0.0161352 0.00025896943 -0.00067605084 0.006255763 0.011968973 0.009985927 -0.0019483439 -0.0032859745 0.0028618511 -0.008960543 0.0094735585 0.015441555 -0.00012869496 -0.0017229894 0.0100712525 -0.013779445 0.016956067 0.016242068 -0.006679476 0.003977759 -0.0071447836 0.01557016 0.008453286 0.010964658 -0.005525683 0.0024960744 0.012942319 0.00021428935 -0.0046561407 0.017392967 0.00032493047 -0.0024301389 0.0070567178 0.008644766 -0.0056453734 -0.0142408805 0.0011452351 -0.0073431646 -0.0044786762 -0.011805299 0.001989369 -0.016423974 -0.010998015 -0.00046112496 0.0039298153 -0.009432021 -0.00689064 0.0053517777 -0.010302898 -0.014768835 0.0049302983 0.015216507 -0.014769578 -0.004529272 -0.0068787104 0.0014615443 0.0115953395 -0.013562482 -0.0075536757 0.016618267 0.017321005 0.0009648417 0.01583677 0.0143808685 0.00878561 -0.0090489155 -0.009331657 -0.013348288 -0.011783798 0.0034934687 -0.014161591 -0.005657869 0.0057174545 0.017697746 0.01642017 -0.010742656 -0.011629697 -0.0046805847 -0.0068160747 -0.012870374 0.0027616855 -0.0014051881 0.005471198 -0.016016982 0.003683297 -0.009673347 -0.00014008157 0.016415212 0.0009287064 -0.009548995 -0.0022360259 -0.007103101 -0.000429179 0.0033973372 -0.012148217 0.015670594 0.0026900386 -0.010297775 0.013179244 -0.008402129 0.0075432 -0.012987499 -0.0063467836 0.0017012401 0.0010649669 -0.014961929 0.004512555 -0.0055947965 -0.006073863 0.009887559 0.005602256 0.005327238 -0.014796121 -0.0057876324 -0.0017004354 0.005377048 -0.0075664907 0.014712545 -0.0102264825 -0.0043341606 -0.0072498475 0.014904161 0.012502284 0.005314625 0.010814318 -0.0131820915 0.013862379 -0.017443456 0.0033572935 0.0020670765 0.0057018446 -0.016034478 0.001066259 0.0022790604 -0.0025947117 -0.016261484 0.004075368 0.014681832 -0.012753705 0.011817311 0.016513065 -0.014049561 -0.00044258367 -0.012497966 0.000968467 0.0035150286 0.016302848 0.013675984 -0.0023999363 0.0014709469 -0.007620682 -0.01369937 -0.013951498 -0.010640697 0.013082426 -0.013618406 -0.0018664195 0.012207547 -0.0003995406 0.009546704 -0.0073849456 -0.01603795 0.0072599375 -0.01048575 -0.00674608 -0.013998778 -0.005909722 -0.0038694784 -0.0060407864 0.010964946 -0.00023493172 0.0022379204 0.0023408725 -0.01405047 0.003669988 -0.017275928 -0.01598003 -0.015482756 0.010620539 -0.015049207 0.01766675 0.0108689545 0.0064472514 -0.007608723 0.0020802384 0.010477569 -0.007638061 0.010235346 -0.015451767 0.015080201 0.004294715 -0.010639278 -0.017077975 0.015242528 -0.014764429 -0.014343331 0.016921142 0.0040714103 -0.010718604 -0.016698308 -0.0067739063 0.0071656113 0.017737398 0.012273978 0.01376855 -0.017532852 -0.009022002 -0.008237339 -0.0025549554 -0.0074127256 -0.013278434 0.013817288 -0.004993965 0.003948131 -0.006193872 0.011695999 -0.00492973 0.009031694 0.014241281 0.008864041 -0.004704842 0.015445727 -0.006989205 -0.016660368 -0.0103353625 0.015254189 0.009487478 0.016321328 0.0012147491 0.0016752781 -0.0051123737 -0.014760737 0.013144544 0.006173958 0.000432089 -0.015460686 0.01317108 -0.00871295 0.0066193854 0.0033928924 -0.0088567715 -0.010160783 -0.013550619 -0.012667616 0.014980905 -0.010877561 0.01563781 0.005641009 0.007962781 -0.00806096 -0.0045763766 0.010679016 -0.0022143149 -0.0029796087 0.004920551 -0.0075048744 0.01454923 -0.0024494594 0.0067189573 -0.005168317 -0.006163429 -0.010718254 0.014253639 -0.0074594533 0.008616162 0.0005318012 -0.0023391035 -0.008750692 0.009323466 0.005806089 0.003349713 -0.005133416 -0.007771192 -0.011740727 0.008122285 0.008055175 -0.005421764 0.011763738 -0.013598342 -0.016098319 0.011404568 -0.0053100395 -0.005336738 -0.0064251875 -0.009196069 -0.00020979771 0.013280967 -0.0039636325 0.013152013 0.0014800281 0.008272776 0.0034878852 -0.0044665933 -0.016653726 0.002464056 -0.0076689 -0.0069999592 -0.0041887783 0.0095098615 -0.0032087693 -0.016596058 0.016194472 0.0011558938 -0.013684982 0.0069232075 0.005882493 0.002942545 -0.016535882 0.0084915655 -0.008853768 -0.00750285 0.009245617 0.013853172 0.013320787 0.0007845994 0.005439101 -0.013379108 0.009779296 0.009572168 -0.0056425696 -0.0034811222 -0.0032737725 0.0062124073 -0.00577152 0.01389627 0.0014938095 -0.010300818 -0.00050421274 0.0041391873 -0.0020375722 -0.0027542713 -0.015955035 0.01656886 -0.005133069 0.0072369687 -0.010506252 0.002661005 -0.017099679 0.008093104 0.009958926 0.0038258776 0.00094776927 0.011207396 -0.010307709 0.003938292 0.008827997 0.016676672 0.016438318 -0.011934311 -0.0053147143 0.006939886 0.012109549 -0.003248811 -0.013463818 -0.012609056 -0.009778528 -0.007822031 0.0043574297 -0.0031261402 -0.004591776 -0.0007411242 -0.0019438779 -0.010230578 0.001818906 -0.011695524 -0.0045595365 0.0011713633 -0.0063639926 -0.01106393 0.016843501 -0.0009279443 0.01667253 -0.0019458958 -0.0088410275 0.009713161 -0.003060686 -0.01212625 0.0010929492 0.012312006 0.0150919035 -0.0066673737 0.0049972087 -0.004683399 -0.013264904 -0.015137975 0.006814929 0.011579187 0.010007722 -0.00036829498 0.010948659 -0.0045736223 -0.009362156 0.009098939 -0.0052669584 0.014521981 0.0008150318 -0.0071276706 -0.004589464 0.007900286 -0.0045560664 0.0147692505 0.014809969 0.0049337703 -0.009501102 -0.008774121 0.0144066075 0.003977114 0.010885154 -0.014849308 -0.009630161 0.014404427 0.010179286 -0.014460848 -0.00669317 -0.014590375 -0.009974395 -0.016294286 -0.013303761 -0.0041868985 0.013118257 -0.013696508 -0.0007412902 -0.017164638 0.010643359 -0.01245693 0.008129552 -0.009099018 -0.00497362 0.0071361302 0.013067344 -0.0054104077 -0.016576156 0.0059202975 0.0067687742 0.017354622 -0.014468335 0.009007922 -0.011236983 0.00046840738 0.008637855 0.005321373 -0.014270274 0.014340976 0.0039138263 -0.011762056 0.006511993 0.014254836 0.017424205 -0.01568253 0.002645797 0.014429146 -0.010980958 0.009817705 -0.0024831765 0.008011844 -0.009152798 -0.011781207 -0.004830207 -0.0059531485 0.013352076 -0.0005468343 0.00032047715 -0.01563036 0.013316464 -0.00216261 0.0101399105 0.0065479623 0.012388585 -0.0005543275 0.005934726 -0.013437951 0.012162703 0.014587708 0.015825488 -0.0016237625 0.0018003946 -0.0023853653 0.006590954 0.015308815 0.00080572075 -0.0060173594 0.0109457085 0.012492536 -0.010642813 0.01407667 -0.0084026605 0.00859313 -0.0049690413 -0.014419812 0.0014111635 -0.013150347 -0.009605176 -0.0147428755 0.008497443 0.0058272462 -0.011017387 -0.003301942 0.014038738 -0.0040539186 0.010837594 -0.012438247 0.004452714 0.0019753897 -0.0013637905 0.00038054373 0.00748956 0.003132967 -0.008322484 -0.015200013 -0.0125002125 -0.0013642759 0.013467331 0.0073821866 -0.0050169784 0.0058347797 0.01255991 -0.01019182 -0.008875262 0.014080436 0.010957346 0.010239378 -0.012470056 0.011107368 0.01176044 0.016536368 0.010811257 0.009566612 -0.013140474 -0.0065962058 -0.008723868 -8.011929e-05 -0.0007973484 -0.016580429 -0.0078046178 -0.01762744 -0.006272959 0.011707585 -0.0018173074 -0.017046193 0.0058828252 0.006024142 -0.013132567 -0.01428846 0.0021032542 -0.0049311817 -0.0055692988 -0.014164202 0.015908368 0.007099433 -0.004379126 -0.00064719154 0.014341705 0.013046721 0.0009970602 0.017821664 -0.014086681 -0.0022523042 0.01300748 0.015600301 -0.015256308 -0.0051475083 0.009522196 -0.017353017 -0.012824197 0.011139672 -0.014456702 0.011371768 -0.012061258 -0.014193125 -0.010699581 -0.015921017 -0.009611358 0.011262749 0.0011690494 -0.0074460767 -0.0055018878 0.012518198 -0.008124012 -0.008202849 -0.002593364 0.010947929 -0.0061594015 -0.008781338 0.004004666 -0.01147117 -0.0053056288 0.010473946 0.014537456 -0.0064085214 0.013935681 0.014333202 0.0123281805 -0.0067056613 0.0076583647 -0.008609438 0.014564121 -0.012380673 -0.00885264 0.002636024 -0.009378157 -0.013940476 -0.014173583 -0.0004385412 -0.0014683413 0.006127049 0.012319071 -0.015021438 -0.011834121 0.005458268 -0.012252868 -0.013067906 0.007485358 -0.0071464907 -0.0028736743 0.006561967 0.008248299 -0.009975847 0.00785509 0.008521023 0.002561497 0.0042064213 -0.012315548 0.00079300365 -0.0042404407 -0.008194158 -0.001699733 -0.006523705 0.008405094 -0.010840659 0.012844529 0.008244975 -0.00909244 0.0024019056 -0.01456963 0.009689108 -0.0017737044 0.0077265995 -0.008889865 -0.014448551 -0.011080513 0.015180678 -0.0104005 0.0013427289 0.015942808 0.015399114 -0.0063115763 -0.008915231 0.015041457 0.008185236 0.009989558 0.00011592465 -0.017495045 -0.0034283954 0.015578268 0.003572526 -0.017388105 0.007734963 -0.014775641 -0.014249004 0.0029969024 -0.0042261165 -0.0123646455 -0.014055583 0.0007826878 0.010004959 -0.0069539486 -0.0016443603 -0.001326231 0.0068432223 0.010753111 -0.015408385 0.008955311 0.013038944 0.0110939955 -0.007195518 0.00662134 0.008994137 0.01032016 -0.0032937082 -0.006776527 -0.009695132 -0.01481862 -0.017358694 -0.008076876 -0.0046150046 0.0013205686 0.013331954 -0.009725305 0.0065221386 -0.015272873 0.016619263 0.015685093 0.0051659774 -0.01558782 0.010805492 0.0008423925 0.008789246 -0.0009714791 0.011411233 0.009556881 -0.001349577 0.009491697 -0.0034440544 -0.00066731236 0.0027147704 0.008112339 0.0072492855 -0.0051918863 0.0032094824 0.011932071 0.001394355 0.009875643 -0.017338717 -0.008659574 0.002662842 -0.00797004 -0.016210917 -0.0026593166 0.00025490567 -0.017344141 0.0038244512 0.005206977 0.011128132 0.0018697041 -0.009671668 -0.015724417 -0.0142828 0.017162194 -0.0049613547 -0.015561102 -0.004086086 -0.002525515 -0.007684776 0.016548954 -0.0053163515 0.005456782 0.016935853 -0.007998226 -0.009281251 0.000118538745 0.00042042564 -0.0044870125 -0.0024787784 -0.0032262548 -0.0012851912 0.0065628337 0.0041758697 0.016913971 -0.002723051 0.010665981 0.005580004 -0.0050241905 0.0042301374 -0.015084693 0.0023883411 -0.01155279 0.0071978085 0.015799 0.008269451 -0.0136219505 0.0058219456 -0.0010765025 0.008258539 0.014233087 0.013728219 0.008176921 -0.0024310416 0.017681818 -0.0033513373 -0.017122922 -0.011155923 0.0024564182 0.0035017284 -0.006668585 0.0051228213 -0.0068251537 -0.0052194046 0.0071191345 -0.0022588247 0.0011457908 -0.013687764 -0.005726742 -0.017642431 0.004496138 0.007631066 -0.0050961077 0.004524446 0.0053386115 0.014585749 -0.009863517 -0.0058368575 0.017060015 -0.003989458 -0.00012644913 -0.016272407 0.013345534 0.0037671756 0.00096226594 0.0004324892 0.0026092657 -0.014114545 -0.009830471 0.006031586 -0.008089885 -0.011097136 0.0066294377 -0.00651363 0.010530798 0.015144813 0.0033400336 0.0044407505 0.017592683 0.008360457 -0.011929227 0.0036862942 0.012375402 -0.0046287416 0.016571164 -0.012282298 -0.017490871 -0.005997703 0.0053030597 0.0033773142 -0.0049824505 -0.017129194 -0.011636268 0.010601249 0.0052830623 -0.013977941 0.009866717 0.00093793235 0.005399485 -0.008662316 -0.014574814 0.017017793 0.017309695 -0.0062382477 0.011568285 0.017661402 -0.014543783 0.010237839 0.012175184 0.011068059 0.009297729 0.00020262174 0.0152990315 0.014457242 0.0162768 0.011713133 0.010327622 0.0059085684 -0.014438191 0.007120135 -0.017342066 -0.008566293 -0.014260033 -0.012254867 0.0026221 0.0050784755 0.0026813128 -0.0027189448 -0.0054891007 -0.002916562 0.003509377 -0.013784448 0.005809946 -0.0036188792 0.014202369 -0.0022637122 -0.008448299 0.013809852 0.011891325 0.0013756114 -0.012923495 -0.0015805684 -0.0043839174 0.0021680552 -0.0024110952 0.0076274513 0.010055104 -0.017446473 -0.017537631 0.014605055 0.015510105 0.011801767 -0.0143615715 0.013445342 -0.008962361 -0.006142063 -0.009409709 -0.012080308 -7.172993e-05 0.009575827 -0.0027129098 -0.010841451 -0.0069803363 -0.015865052 0.008549455 0.0039999615 0.0044302433 0.00027758098 0.011367372 0.01500686 0.0016917076 -0.011211166 -0.00470601 0.005725661 0.014788397 0.014652483 -0.0056416797 -0.0006308939 0.01641715 -0.011326659 0.012062493 -0.012959806 -0.004587872 -0.0029049048 -0.0141420495 -0.006823721 0.011648934 0.014793818 0.0030467745 0.00057666644 0.005886466 0.0084671555 -0.013161285 0.017766545 -0.009414635 -0.00811523 0.0055042105 0.01626872 -0.004621902 -0.012143847 -0.016725725 -0.010010201 -0.010884526 0.013792066 0.0053312504 0.012271182 0.014854558 -0.006098743 -0.002586601 -0.013269232 -0.010683071 0.014378431 -0.01503546 -0.0037601423 -0.0055724536 -0.0051469016 0.00663021 0.011286462 -0.0154644875 0.011559108 -0.0054497807 -0.0047524446 0.0054735416 0.007313816 -0.009137031 0.004102918 -0.0045391237 0.012973613 0.0103496015 0.014166456 -0.008491527 0.014448498 0.011224475 0.015361212 0.001525134 0.0037604615 -0.007176972 0.010242401 0.014797671 0.017641116 0.0012660985 -0.0047755586 0.0016986622 0.014388519 0.002647464 -0.0067282747 -0.0019793427 -0.0007281708 -0.009804237 -0.011611858 -0.008026621 -0.008457276 0.013062722 -0.016740404 0.0012490813 0.011179003 0.014853482 -0.016102899 0.00680069 0.0017967885 0.017527437 0.00027006652 0.009678109 0.008867366 0.0048750686 2.6028072e-05 -0.0007141999 0.01109908 0.0033949572 -0.01709658 0.011408658 9.612952e-05 -0.017405568 -0.015811097 0.017183019 0.016191304 0.00047145574 0.009744751 -0.0020204613 -0.0010709189 -0.01451701 -0.014279411 -0.010572349 0.007595056 0.0081504695 -0.0030625442 0.015479987 -0.016107207 0.009109802 0.0019344368 -0.015651405 0.004180523 0.0052167564 -0.009934594 0.012896059 -0.00017447132 0.00362243 -0.000929345 -0.0032152194 -0.001601132 -0.011689383 -0.014880662 0.017072763 0.010193391 0.0042406917 -0.016300557 -0.010348101 -0.0045542717 0.011832099 -0.01052442 0.0056355363 0.011539603 -0.01119232 0.011677885 -0.009664378 0.010385584 0.006695458 0.01595975 0.0030755934 -0.0002568045 0.006322648 0.008718214 -0.004040052 0.004441604 -0.004106275 0.00066521554 -0.011084627 -0.008456137 -0.016759578 0.017242014 0.014473211 -0.0008760478 -0.0015113695 0.011408794 -0.013865233 -0.012093063 0.008826128 0.0023038813 -0.014846251 -0.0051590865 0.002766684 0.007617874 0.0018205622 0.015260042 -0.016592935 0.005149916 -0.0052379095 -0.007842007 0.009531405 0.014070856 0.0067554014 -0.008005559 -0.0139418505 -0.014793309 0.011137139 0.014967308 0.009981856 0.013834362 0.007713071 0.0036377185 -0.00962816 -0.013250605 0.0012561083 0.007779392 -0.010871781 0.016116966 -0.011106962 0.007589021 0.017748076 0.005590013 0.008005015 -0.009689723 0.012904094 -0.017706867 0.013455319 0.0020601451 -0.009696901 -0.014633799 -0.009834677 0.009367396 0.0018769504 -0.00864727 -0.0013050587 0.003957668 -0.007481348 -0.014996127 0.0073665148 0.016044416 -0.0005976515 -0.015172142 0.0054212855 0.002319768 -0.0022109747 -0.008168668 0.010301235 -0.007239506 -0.013512917 -0.013581415 -0.007342624 -0.0123617565 -0.0088389395 0.005326833 0.016382392 -0.0074949376 -0.009309335 0.014837556 0.013354955 -0.011753726 -0.0110922465 -0.006710998 -0.012118236 0.006715675 -0.0083456235 -0.016966999 0.014701757 -0.0047830045 0.0039907866 0.00040703162 0.005803362 -0.0037521806 0.01282071 -0.00052810996 0.006492979 -0.013375168 -0.009537289 -0.015853915 0.0042397724 -0.002220139 0.011812556 -0.012727749 -0.0051174974 0.014305469 -0.010317999 -0.0043385583 -0.0074653267 0.011787247 -0.0047428864 -0.015197516 -0.0094381515 -0.012959236 0.012711743 -0.015873786 0.005913258 -0.0051155817 -0.0049375296 -0.0012358555 0.003785238 0.016182657 0.015528605 -0.0005157739 -0.000938356 -0.01614564 0.004253456 -0.014803248 