-0.01622511 -0.04156086 -0.020736193 -0.02937387 -0.03513433 0.016691815 0.0010754913 0.03915534 0.028106257 0.041307703 0.006034921 0.037288025 0.03478236 0.019799903 -0.012532279 -0.030584097 0.012675777 0.027780637 0.0023295581 -0.02483442 0.033016816 0.028248107 -0.0169494 -0.016065424 -0.016491413 -0.00020541748 -0.028589806 -0.027779078 -0.0068288795 0.011693652 -0.027873274 -0.019758275 0.0023316345 -0.025128722 -0.03138296 0.03498636 0.036118653 0.0038012962 -0.016997319 0.023881882 -0.036540702 -0.034661055 -0.00838847 0.0067753694 -0.02586568 0.041437626 0.018106937 0.03882152 -0.013415545 -0.03858257 -0.019715037 0.0037314743 -0.0042660087 -0.037838265 -0.027064484 0.035793792 -0.027383264 -0.04037332 0.030856287 -0.025796186 0.023691725 0.015840873 -0.014782062 -0.011849612 0.0042017004 0.038128033 0.031660527 -0.033663955 0.0041067256 0.03966888 -0.010336295 -0.021491503 0.021375582 0.024627348 0.00016341607 -0.015209651 0.028049856 0.04030716 0.03685048 0.010485917 -0.0311273 -0.018170422 0.039917193 -0.021075021 -0.0073025227 0.012632927 0.040246196 0.016756868 0.026064262 -0.0067399493 0.04088032 0.022175979 0.041569185 0.015268272 0.005431816 -0.029731646 -0.012612249 0.040946975 -0.0028265119 0.021290373 -0.00024468204 -0.038601648 -0.025822168 0.037058905 -0.019496193 0.02122904 -0.023618331 -0.03637936 -0.024558872 0.0060096635 0.007882158 -0.011785155 0.015206213 -0.031835206 0.019167474 0.033903733 -0.038464557 0.0052137524 -0.039886713 -0.0019864093 0.0225896 0.04094235 -0.02740964 0.036685668 -0.03803856 -0.00045925876 0.01544337 0.033762984 0.032486897 0.023909375 -0.026444932 -0.012436658 -0.004997596 -0.01213718 0.01837663 0.0009660274 0.017248046 0.027310794 0.013771659 -0.025553396 0.017669365 0.011695629 -0.029466212 -0.029744482 -0.03652517 -0.015967783 0.012494659 -0.019244384 -0.026649222 -0.03685634 -0.007692675 0.0060411 -0.023029288 -0.009913921 0.008748497 0.023032432 -0.035017353 -0.022149887 0.016030168 -0.0049401177 -0.03187626 0.023066383 -0.039064266 0.010494421 -0.02312161 -0.02690759 -0.032853402 -0.039780777 0.007000342 0.008860057 0.009638488 -0.014878398 -0.010677586 0.004353439 -0.037883755 0.0067960126 0.027862187 -0.015831431 -0.0058927983 0.017949453 -0.0115674585 0.0010487437 -0.016461447 -0.02897511 0.018414453 0.015118539 0.01981691 -0.016444733 -0.009133096 0.027074665 -0.0110356165 0.015571162 0.0072987033 -0.018266147 0.0035666525 0.0019699535 -0.032732442 -0.010410642 0.036027752 -0.035762172 0.028365519 0.012318159 -0.028667092 -0.022333577 0.008820663 0.018030193 -0.035043743 -0.032143008 0.039736908 0.011517018 -0.007011786 -0.029718017 0.01806145 0.03359101 -0.0022032808 -0.010134543 0.00992925 0.030514315 0.007285471 0.036222603 0.04040925 0.012214939 -0.024971982 -0.004951954 -0.040252082 0.0029227934 0.026171273 -0.030066159 -0.007131507 0.023949176 0.0021686903 -0.031321418 0.029390153 0.0062668873 -0.00456883 0.001422604 0.03208382 -0.03194345 -0.032644298 -0.028632378 -0.011677995 0.022374492 -0.028442204 0.034331597 -0.026713848 0.032333758 0.03655022 -0.0016586384 -0.008508166 -0.0021007112 0.040275045 -0.0038825523 -0.021496445 0.039156593 -0.03988179 -0.038842507 -0.018877214 0.009990583 -0.008898616 -0.024488127 0.008599088 -0.014049297 -0.011133984 0.026399314 -0.028199494 -0.017448545 -0.013967594 0.032727912 0.00023501119 0.026435446 -0.02767801 0.014028281 -0.04139205 -0.028575983 0.0093554165 -0.02072924 0.0133996755 0.015039152 0.013683732 -0.009966498 0.0023900818 0.0012004127 0.0061972886 -0.0405583 -0.028522741 -0.035208315 0.021464964 0.029342493 0.0048213704 0.033646505 -0.021501716 -0.040902376 0.008973162 -0.012536392 -0.03427247 -0.01677238 -0.01718466 0.013624236 0.039409406 0.031137481 -0.002681921 0.0069324924 0.009386063 -0.015809204 -0.032414757 -0.036579352 0.03997712 -0.021563392 -0.021624556 0.023683628 -0.0102765765 0.016061213 0.0063132644 -0.029406762 0.00792256 0.0033943057 0.021232516 0.021074226 -0.021870505 0.0073937974 0.01684992 0.012325471 -0.03490033 0.040811803 0.01050822 -0.025446748 0.027111297 -0.011890119 -0.0049390844 0.014005343 0.0064030937 -0.009770876 -0.031675633 0.021827113 -0.0051937154 0.007232259 0.030449923 -0.02058661 -0.016775489 -0.0029252372 0.0045541823 0.013980916 0.027690902 -0.010982305 3.4501158e-05 0.023940083 -0.01045844 0.004965946 0.013622309 0.0134994835 -0.0028775036 -0.015043905 -0.025040984 -0.012690639 0.004866074 -0.008840919 -0.016908428 0.019070571 -0.004379943 0.011183754 -0.019088566 0.0010976146 0.026864186 -0.022385553 -0.019784546 -0.0087131765 -0.02895551 -0.009319544 0.027013287 -0.014327681 0.0357422 -0.037903897 0.035639167 -0.03646196 0.03205847 0.012142172 -0.026814044 0.040498447 0.030394416 -0.0050991676 0.0151571985 -0.022386234 -0.010825073 -0.017168012 0.032968484 0.033599056 0.026337683 0.039938703 -0.037103485 -0.02776081 0.032196097 0.039051734 -0.010314003 0.0407307 -0.040406555 -0.021811297 0.023811337 -0.023943946 -0.031766932 -0.0085643185 0.011840319 0.018350318 0.040257193 -0.039903842 0.012704338 0.008348212 0.031087866 0.0032193612 0.036396425 -0.0156325 0.039253183 0.03105252 0.017863061 0.0032631557 0.038574006 0.00398698 0.020970866 -0.038371816 -0.015001819 -0.004206419 -0.029666042 -0.022595912 0.005391091 0.017498787 -0.0367916 -0.0036226115 -0.016462743 0.034479838 0.018502753 -0.02886511 0.006739284 -0.004396727 0.032222327 0.029668769 -0.005343686 0.014807369 -0.03526461 0.007941554 -0.011296943 -0.017990177 0.036399998 -0.0093098935 0.032780632 0.019877996 -0.013875405 0.0046384037 0.017194554 -0.013875554 -0.010656893 0.03848446 0.022648346 0.017348802 -0.0108098 -0.01282163 0.007187113 -0.02106063 -0.012230734 0.028194454 0.002977138 -0.020437688 0.041040614 -0.028788343 0.0052945665 -0.019336328 0.034820583 -0.036130026 -0.037295707 0.026719242 0.02666451 -0.019175997 -0.011356458 -0.014945587 -0.009826298 0.0010252794 0.036417507 -0.022810008 -0.030145666 0.026596984 0.00017755231 -0.027269363 0.013256913 -0.0050521195 -0.0035612136 0.002805988 0.031079497 0.01085872 -0.015342559 -0.008326024 -0.011728322 -0.0050039343 0.033985645 -0.021628603 -0.020718675 0.022106921 0.016669061 -0.0232935 0.020019969 0.00517866 0.03497661 0.04093746 0.005737181 -0.0086569935 -0.0019910485 -0.0321929 -0.0043007284 -0.024752563 -0.0031332276 -0.040363953 -0.0024768114 0.0024775218 -0.024532935 -0.0006600122 0.0016063701 -0.02768228 0.012001033 -0.013149142 -0.0032585561 -0.0038580745 0.009581084 -0.038696136 0.007714674 0.023460254 -0.038020115 -0.013264468 -0.010320818 -0.01127178 -0.017077198 0.0044393046 0.0070592663 -0.0011374106 0.018543875 0.003317967 -0.013671106 -0.020152375 -0.004665231 -0.0022485903 -0.025143912 -0.0014798045 -0.004618764 0.025415238 0.016856313 0.013700312 -0.03792113 0.03496255 -0.0032954118 0.0015490453 -0.03893231 -0.03404653 -0.02716428 -0.017908927 -0.00397335 0.0017266324 -0.04139059 0.030388063 0.012725592 0.040079594 -0.010264263 0.017529622 -0.0036000959 0.032925956 0.016353294 0.017385483 0.0126442965 0.04079893 -0.031147044 0.03617662 0.02882137 -0.031160047 -0.027794754 -0.010559171 0.035645425 -0.013389374 0.013884033 -0.03941124 -0.028942397 0.0020615808 0.041466407 0.003693243 -0.018470924 0.027841797 -0.0012631466 0.02217721 -0.009833297 -0.0033843964 -0.03293569 0.013474788 0.030028641 0.034630463 -0.013306494 0.030050308 0.039008077 -0.009018093 -0.026384171 0.034454763 -0.026440477 0.024631456 0.0020828843 -0.003290708 -0.013184538 -0.030789679 0.011204581 0.0028059632 -0.0345669 0.0038404465 -0.010799329 -0.01797032 -0.012922203 0.02794548 -0.017804723 0.03511651 0.0152138425 0.026901051 -0.0067516817 0.037517086 0.0053551197 -0.003165096 -0.020263841 0.008243045 -0.013053402 0.0020346195 0.034874152 -0.028840303 0.002921636 -0.011414225 -0.0125656575 0.0030616473 0.01602089 0.0018608074 -0.03285481 0.018709248 0.0378645 0.029653113 -0.004523476 -0.0093387915 0.016506514 -0.030698117 -0.030629849 -0.01707999 -0.008510704 -0.031913787 0.03369094 -0.0053190887 0.04016031 -0.01023229 -0.024552774 0.021441668 0.02350524 0.03446014 0.038877945 -0.011282857 0.022805657 0.040225297 0.026882675 -0.0405137 -0.024497187 0.031283498 -0.023028597 -0.017037272 0.035494044 0.021192675 -0.02663514 -0.030976936 -0.018825006 0.021534767 0.0033663562 -0.034614034 -0.013458843 -0.027909508 0.04109068 0.02031603 -0.01451173 0.009840663 -0.02479814 -0.011557817 -0.018877944 0.01321065 -0.0029045641 0.0037617884 -0.020810133 0.0059030256 -0.008253421 0.035477392 0.024374694 0.016659936 -0.030870413 -0.0035695187 -0.01861982 0.009770727 -0.040372383 0.019159209 0.038613714 -0.015291339 0.005039136 -0.031899586 0.0048659444 -0.0250455 0.03702454 -0.028080558 0.026454454 0.024533227 -0.006225114 -0.037998434 -0.029679522 0.03183555 0.036546435 0.004974857 -0.03791956 -0.006617124 -0.023730244 -0.003697614 0.005093848 -0.040083975 -0.0044307164 0.008356333 -0.0030121803 0.016839176 0.03814614 0.00216948 0.01016138 0.028643345 -0.031297095 0.01144284 -0.03312468 0.00045260292 -0.024194425 0.005416587 -0.01199695 -0.0150954425 0.031279188 0.00478217 -0.040199153 -0.02703113 -0.018370649 -0.0015597641 -0.02356055 -0.030636227 0.0028653345 0.03207407 -0.037692513 -0.039355822 0.0011434357 -0.036606215 -0.005161648 -0.018208038 0.014715096 -0.033365034 -0.0064722896 0.012865007 -0.005854716 0.0015438696 -0.009600073 0.011358674 0.036992535 0.012413397 -0.022851408 0.023867365 0.0357467 0.0037477415 -0.022908425 -0.0138960285 -0.02732338 0.03888796 -0.03908346 0.035620283 -0.021189447 -0.019544428 0.035442673 -0.003414189 -0.005337745 0.0040940447 0.010770461 0.021180123 -0.030258467 -0.01398099 0.017921086 0.022966167 -0.00904887 -0.016863655 -0.0039220406 0.0055506183 -0.011458015 0.010058209 -0.032107037 -0.013398951 0.029996246 0.036561858 -0.0098528415 0.024770018 -0.03247655 0.02160056 -0.020682162 0.0038665384 -0.0074577234 -0.019632092 0.041435957 0.0140217 -0.025297865 -0.039217442 0.040344235 -0.027881503 0.03104125 -0.02776359 -0.024139157 0.024172112 0.02200093 -0.03241723 -0.005137225 -0.025404092 0.03323933 -0.031126713 0.038312495 -0.034226835 -0.024214998 0.018632969 0.04158897 0.026588699 0.0005767147 -0.029820403 -0.03400965 0.029370066 0.039980583 -0.029366087 0.037925582 -0.0065744175 -0.031887487 -0.011471748 -0.019008115 -0.00021169583 -0.004834369 -0.013321589 -0.025614312 0.03678543 -0.01906326 0.014485653 -0.017833134 0.039781343 -0.01705659 0.034371626 -0.025437504 -0.022808265 0.0032355837 0.014642274 -0.01470993 -0.012710775 0.029410884 -0.010255069 -0.025049826 0.012721419 -0.040482946 0.032834195 0.013963282 0.022453561 0.035494313 -0.028160563 -0.04040461 -0.016519954 0.020785347 0.040829703 0.006267935 0.02332544 -0.007759303 0.012945741 0.025225282 -0.0141731305 -0.034961954 0.020556455 -0.015723383 0.01959598 0.008845176 -0.014354358 -0.03230987 0.0137985 0.027620941 0.032045126 -0.041239887 0.024275567 0.013398409 -0.017381024 -0.016329473 -0.041130126 -0.007126103 0.005537197 -0.017133456 0.019252997 0.0078100464 0.0022246342 0.0026577017 0.041042626 0.022852352 -0.010359487 -0.01986381 -0.022198096 -0.03489519 -0.03965886 -0.009617205 0.03316095 0.0035865407 -0.03876736 -0.030299809 -0.001195262 -0.020174026 -0.030375302 0.036159642 -0.010832901 -0.03129579 -0.017574027 -0.027238816 0.035127472 -0.032070205 0.0015181999 -0.021239555 -0.006840269 0.019734895 0.014372131 -0.029768249 -0.022590727 -0.029466178 0.037519142 -0.02046236 0.018181961 0.01326939 0.0015877088 -0.008376852 0.02041269 -0.024983814 0.02727808 -0.017939493 0.0064261905 -0.008438866 -0.021846384 0.008195604 -0.00441135 0.005599921 0.014567107 0.0036593925 -0.012709519 -0.017212763 -0.00992175 -0.037366204 -0.013829008 -0.02202709 -0.0100353565 -0.018373266 0.018750932 -0.017264873 -0.030419698 -0.020419702 0.031192398 -0.034617897 0.03621725 0.012359371 -0.020119518 -0.0335468 0.0006967684 0.018943226 0.0087655485 -0.036911897 -0.0063165776 0.0051618717 -0.02207329 -0.0024064432 -0.009264971 0.010660122 0.03293503 -0.021513045 0.016957417 -0.023206657 -0.037844665 -0.0034112683 0.040331587 -0.0059101284 0.004963686 0.0110332575 0.014665833 0.038197942 -0.007997697 0.027338063 -0.026909104 -0.023154235 -0.029544204 -0.03613503 0.01874446 0.026778996 -0.00251322 0.008319676 0.017087182 0.008964738 0.0043639047 -0.033676803 0.032766875 0.029697489 0.02613858 -0.014775257 -0.029608846 0.028804809 -0.005446737 -0.021612927 -0.028461715 0.027605157 -0.010621076 0.009442374 -0.028693547 0.010390764 -0.029496482 -0.027756076 0.013795103 0.018728968 0.009117748 0.012404144 -0.013480788 -0.02425462 0.037560746 -0.019930944 0.03351093 -0.030935537 -0.025825705 -0.011270722 -0.032780953 -0.027902525 -0.034927394 -0.0374408 0.0043078414 0.02102862 0.019691354 0.026630118 0.019249385 -0.026370104 0.009499967 0.016898837 0.028719172 -0.038304698 -0.004021903 -0.0307609 -0.018832188 -0.01732415 -0.04123324 0.010189906 0.015233269 0.018898174 0.024819326 0.021034956 0.0016320249 -0.009296507 0.0055075986 -0.022145689 -0.025209751 -0.018315222 -0.027835637 -0.03748561 -0.025799101 -0.018348604 0.019282833 -0.033295497 -0.04031056 0.007886331 -0.00462011 -0.0063522956 -0.02477648 -0.020656776 0.028578803 -0.011748776 -0.021897009 -0.005840426 -0.03559982 0.009543657 -0.0034830174 0.02079676 -0.0235605 0.022017997 -0.021586394 0.012693415 -0.024094805 -0.0384996 0.015702587 -0.026805487 0.034843888 -0.036603488 0.022921216 -0.012169018 0.0131238755 -0.019603208 -0.03021054 0.01801015 -0.018685734 0.026714291 0.021366801 0.007164076 0.021555122 0.012207354 0.03951823 0.028915977 0.00029350322 0.04022428 -0.0013030618 -0.037843 0.0104525 -0.040464547 0.019604659 -0.035892323 -0.019030526 0.013617854 0.008868719 -0.021900749 0.013306737 -0.03708414 0.029858535 0.004619693 -0.0009464572 0.028403118 0.018694466 -0.019125879 0.02558737 0.03433214 0.025026064 -0.0096911 0.024440205 -0.015802816 0.020570537 0.011024689 -0.036625616 -0.009141306 0.03568631 0.012069508 0.011782095 -0.02192707 -0.02069822 -0.037218884 -0.008703843 0.028791076 -0.023576424 0.0013308972 -0.0035937827 -0.014789283 -0.027367067 0.029909834 0.023973769 -0.011248201 -0.040253296 -0.00857693 -0.014207384 -0.012585849 -0.006651511 -0.024427366 -0.004573246 0.033180904 0.007939354 0.03198582 0.00047861537 0.0061391494 -0.016224712 0.02690733 -0.04069598 -0.025796195 0.000203078 -0.011337733 -0.030758267 -0.008110553 0.003953482 -0.00990822 -0.020151436 -0.017179638 -0.036055367 0.0105193015 5.9386097e-05 -0.012414391 0.021542644 0.009812787 0.026587274 -0.021000251 -0.0039293766 -0.03927245 0.015514791 -0.0041464074 -0.030033272 -0.03366004 -0.018525666 0.021545788 0.031393703 -0.008729692 -0.014671594 -0.04098175 -0.030062934 -0.030978551 0.026458612 -0.035506167 0.03276209 -0.03731992 -0.014559567 -0.029804638 -0.023620253 0.02004598 0.02450886 -0.039012745 -0.03354273 -0.00520361 -0.017097821 0.0102677895 -0.031536676 0.01505442 -0.007368704 0.020065174 0.025732568 -0.0046128286 -0.018120885 -0.031805154 -0.029982558 -0.006377896 0.006136616 -0.02884557 0.032643896 -0.014003312 0.007457654 0.03522288 0.006216432 0.037440978 0.04124587 0.02636918 -0.040681746 0.00421986 0.005038957 -0.040986955 -0.030144721 0.010526638 -0.007665649 0.038136773 0.024117704 -0.012721464 0.038064446 0.02658227 -0.01804102 -0.0082399845 0.03863357 0.032269716 0.025969764 -0.019483265 -0.026802331 0.041595515 0.02930906 0.0027073524 0.0030598543 0.025212944 0.0318202 0.016625112 0.018986097 0.008794814 -0.00060494244 -0.01132303 0.008520966 -0.0024363399 0.03788712 -0.036319535 -0.03075771 -0.041007504 -0.04164074 -0.020904288 -0.029165234 0.024443915 -0.0053265095 -0.007120073 -0.040373992 0.011143034 0.037824687 -0.024273526 0.0023840717 -0.03183844 0.04018725 0.02673243 -0.028131202 0.01704686 -0.026144754 0.038002253 -0.007906268 -0.0024627051 -0.03238749 0.03398716 -0.009250577 -0.014699544 -0.010004183 0.033400442 0.015740868 -0.013517043 0.02989172 -0.041333117 0.040855333 0.029126585 0.0043981276 -0.033530306 0.040051498 0.039331682 -0.002738446 0.017086854 0.024843019 -0.0045106015 -0.014596875 -0.013614307 -0.028379422 -0.01022553 0.0202241 -0.012101501 0.039939985 -0.034899324 -0.0055986643 -0.024895996 -0.008519253 -0.041400157 0.016803121 0.02839373 -0.0044058017 -0.02178288 0.03489446 0.015439272 -0.04127942 -0.041005522 -0.0297733 0.0041504353 0.011797945 0.014321854 0.03931437 0.028507855 -0.031775743 0.009250487 -0.0039937347 -0.0029915522 0.0062604547 0.022774598 -0.019011851 -0.011722545 -0.011552955 -0.009406954 0.04082338 -0.009110868 0.039724868 -0.003120964 -0.017150398 0.00057830417 -0.030217286 -0.037417084 0.03276167 0.021227678 0.00088157755 -0.0036466867 0.03010348 -0.005897239 0.025655037 -0.0045463643 -0.02032276 -0.020226752 -0.041042536 -0.008575559 0.017975828 0.023898214 -0.007798195 0.016039541 -0.004670526 0.03816466 -0.008768196 0.015218189 -0.011360581 0.028559372 -0.004434278 0.011238879 -0.008241415 -0.030748969 0.0012928199 0.0342198 0.013799643 0.030197069 0.021317612 -0.039292 -0.003821691 0.00030238926 -0.0146098435 -0.036931455 -0.023092195 0.0013284385 0.03127739 0.03038857 0.0014297813 0.038600024 -0.032572597 0.002243042 -0.039739937 -0.040928956 -0.03128826 -0.012915011 0.037986845 -0.02282691 0.004829114 0.037501812 0.0027071636 0.011612644 -0.01100876 0.03634894 -0.01954773 -0.0140219135 0.03633964 -0.025839727 -0.037411205 0.031283043 -0.04110553 0.017724296 0.006685123 -0.0018559297 -0.02853857 0.025889229 -0.036739346 0.0047736466 0.03531907 0.017849773 -0.029882416 -0.026788086 -0.02903249 -0.009431407 -0.0073874197 -0.018354487 0.016071072 -0.016109904 -0.027033374 0.029976021 -0.019618964 -0.007753998 -0.040931374 -0.025917307 0.004405772 0.011048193 -0.01883581 -0.009276023 -0.01655754 -0.019724622 -0.014957061 0.03320404 -0.018028155 -0.030875102 0.007984067 -0.04115983 -0.03457912 0.02675986 -0.020582875 0.035935633 0.015601 0.0036197256 0.020896371 -0.039092463 0.0134200305 -0.019026365 0.021764264 -0.04068964 -0.00052179897 -0.018364107 0.015974905 0.019599497 -0.0055993497 -0.029580384 0.0169135 -0.035155293 -0.029576033 0.00089238584 -0.02638201 0.0028688312 -0.011664808 -0.033493653 0.0103978915 -0.030067712 0.036220662 -0.035493337 -0.029494818 0.008082485 0.030946648 0.007494445 0.020514544 0.029984822 0.03411428 0.0008745442 0.024545446 -0.031288784 0.022494635 -0.006058857 0.02953796 -0.03839245 0.035357706 0.010920957 0.0065926514 -0.02240786 -0.009807274 -0.010325601 0.026386967 0.014919585 0.0026211094 -0.019167617 -0.0037276796 0.018234279 -0.026233068 -0.034203093 -0.020928454 0.014991989 0.008443142 -0.009295782 -0.040525332 -0.011586716 0.034088023 0.012341614 0.04055996 0.029828787 0.03810869 -0.02519074 0.020794397 0.0033020626 0.02770403 -0.005740042 0.033380494 0.029520478 -0.01286377 -0.027911168 0.032195088 0.00027134022 0.00085517764 -0.016042352 0.005421589 0.0019511979 0.0065672398 0.01367869 -0.031573847 -0.03961448 0.038383782 0.0046958677 0.02105093 -0.03215491 0.037402328 0.010961443 0.016634708 0.014141008 -0.039167367 -0.03280825 -0.029686397 -0.02172716 0.03272917 0.028738167 0.0020988386 0.0046082735 -0.0067581735 -0.019034088 -0.015793413 0.02129077 -0.024016157 -0.039945435 -0.01763471 0.014470622 -0.0026532314 0.030186048 0.028775956 -0.03064194 0.028951582 0.028107902 -0.00057382387 -0.02916578 -0.031132048 0.0068317405 0.032380875 0.014396489 -0.040797807 0.03507738 0.019371554 -0.022697479 0.02984127 -0.010264805 -0.015622204 0.0059852004 0.02222856 0.0048407866 0.009384319 -0.024117928 0.03244741 0.0022121966 0.036562234 0.024841523 0.0047797216 0.0092905965 -0.024733242 -0.02665407 0.008030131 0.003400728 -0.041519687 -0.023256313 0.0053789467 -0.032244943 0.034707233 0.00480863 -0.018257698 0.030750176 -0.039427698 0.011895701 0.0313006 -0.03247465 -0.0047372384 -0.023647537 -0.011176179 0.0012211751 -0.015758669 0.015353426 0.0074812276 0.00455987 0.037139267 -0.04092344 -0.022813678 0.02309762 -0.02092196 0.0072091026 0.006655976 -0.0041543245 -0.028980538 0.038066216 -0.031321548 -0.0075213313 -0.018262576 0.000341326 -0.0011858394 -0.02522422 0.03855726 -0.0026442509 -0.019300863 0.0140798595 0.011911651 0.026791032 -0.0362024 0.0330083 -0.01337265 0.025266573 -0.016161516 0.018749153 0.019274518 0.020756215 -0.036472045 -0.020161813 0.007196526 0.015093952 -0.017634075 -0.0132164415 0.02908568 -0.018008739 0.017763004 -0.013769622 -0.030904537 -0.0019635658 -0.03190635 0.02405214 0.00096602243 -0.0029342424 -0.019732993 -0.022295233 0.033988178 -0.025065225 0.023034122 -0.0031481883 0.024088036 0.025748402 0.03145148 0.039659675 -0.031365436 -0.0054175756 0.026066175 0.032775164 0.00594307 0.025198445 0.013774241 -0.0057797534 -0.032102905 -0.039271057 -0.005539085 -0.02632244 -0.014370854 0.011803001 0.03688831 -0.028044224 -0.012727216 -0.040710624 0.04038557 -0.027217766 -0.036646552 0.025083166 0.01710482 -0.031824104 0.035212807 0.028130677 0.018241689 -0.032847703 -0.040848456 -0.032566216 0.004232099 0.003817489 -0.022768155 0.033476274 0.027811155 0.031898983 0.019537002 -0.029484 -0.021758508 0.030323382 -0.006602084 -0.00024273495 0.038062714 -0.000801156 -0.012014861 -0.014611463 0.03816436 0.015122866 0.006125301 -0.013138533 -0.0066070408 -0.004285609 0.0032816282 0.02391333 0.013259849 0.0005289217 0.040727466 -0.028025892 0.02531918 -0.0033058128 -0.032386255 0.003940826 -0.013314759 -0.0048020585 -0.041604213 0.015387317 0.022957634 0.00064069533 0.020817947 0.021003217 0.030184131 -0.0010837814 -0.021117728 0.004510413 -0.034271367 -0.032726564 -0.028522065 0.015681162 -0.0025153458 0.02158913 -0.00087502104 -0.03938164 -0.016236579 -0.0068014464 0.016385918 -0.040549826 0.032550454 -0.016810333 -0.018672958 -0.013059671 -0.040616374 -0.018711373 -0.00097156566 -0.00010032952 -0.036029525 0.0054326258 0.036743067 -0.018530732 0.007980446 -0.03803473 0.01792257 -0.028508484 0.011792983 -0.03978872 -0.03755445 0.029652625 0.027638268 -0.026052823 -0.016458776 -0.007297377 0.023301175 0.00015059611 0.009500201 -0.028675348 0.002033646 0.034648135 -0.0086144805 0.02117331 0.029665222 0.002872954 -0.008244744 0.004315342 -0.021556145 -0.010782759 0.008504694 -0.032572202 0.011365647 -0.00022473435 0.00037332377 0.026818883 -0.03745594 0.007538289 -0.008835177 0.01603593 0.026352048 -0.003498609 0.0023298762 0.039504334 -0.01569976 0.003423497 0.01479354 -0.031388797 -0.0076246513 -0.01949228 0.029630437 0.038871553 0.009386848 0.014082517 -0.0026040922 -0.024791494 -0.040414415 0.02718116 0.029470086 -0.032206267 0.03454071 0.010856579 0.012328124 0.021123286 -0.026203116 0.038093947 0.04133182 -0.010467291 -0.004389788 -0.040159523 -0.0099724885 0.0040243915 -0.03106676 -0.039573994 -0.0067501767 -0.013506934 -0.018959468 -0.03698452 0.027191699 0.03763356 0.03967254 -0.019331511 -0.024272492 0.031202992 0.007820269 0.04081188 0.015692025 -0.0031131457 -0.037573665 0.0019352138 -0.0023697566 0.03671614 -0.038819365 0.0031010907 -0.022580132 0.01872541 -0.038812395 -0.005571167 0.025925007 -0.0031227868 -0.019412518 -0.013523376 -0.01859733 0.006263008 -0.013123706 -0.033128764 -0.023087641 -0.023924198 0.015815085 0.0015332302 0.03337848 -0.02359577 -0.009947201 -0.027169716 -0.031608813 -0.0039092703 0.020747673 0.041322224 -0.034817062 0.0071673347 0.014913197 0.031609908 -0.0044662706 0.010632312 0.026870858 0.037988625 -0.023570707 0.020492535 0.011655147 -0.039678674 -0.032913163 -0.022608276 0.007904649 -0.036199413 -0.033694252 -0.029916178 0.013051942 -0.0060331128 0.010978436 0.03622834 -0.014042586 0.011735862 -0.0066442094 -0.028224632 0.029286912 -0.029553086 -0.019226527 -0.000762562 -0.008902878 -0.015320798 0.024437329 0.026082769 0.0010195922 -0.011447018 0.025476083 0.008925334 0.0061506433 -0.011147435 -0.020524448 -0.015109226 0.006509026 0.03215196 0.014436414 -0.021257311 0.0072770817 0.017495206 0.00838696 -0.029398408 -0.0072997063 0.020717502 0.0027501187 -0.02675445 0.017363032 -0.02699856 -0.038171932 -0.020269334 -0.020293629 0.022008657 0.015327483 0.009292126 -0.03086928 0.028047567 0.040520307 0.018642515 -0.036452606 0.034431275 -0.0002712558 -0.0035645664 0.022077158 0.033406377 -0.018374458 -0.014247134 -0.006935676 -0.0013368279 -0.04035544 -0.023016697 0.01786755 -0.041359693 0.027031636 0.03138703 -0.01369983 0.012901614 0.020977065 0.030185139 0.015259251 0.028277215 0.034442447 -0.034796603 0.020059904 -0.026774988 0.032776147 -0.033877384 0.0315016 0.019366872 0.022089666 -0.0010888726 0.034917526 -0.028191835 0.0059279753 0.007247041 -0.010677318 -0.02427806 0.019764852 -0.0108939065 -0.014757494 0.0108428355 0.01488629 -0.023426533 -0.014324784 -0.037230458 0.0012690028 0.030052647 0.02835327 -0.032630026 -0.0046830727 0.01591213 -0.040303897 0.024111167 0.03442478 -0.011629537 0.015359363 0.027905991 -0.017316645 -0.025820449 -0.0038329512 -0.03523636 -0.032405376 0.0033379048 0.006400938 0.005546083 0.027822813 -0.0069603226 -0.018827558 0.0009868344 -0.032685753 0.020365 -0.03851719 0.020355752 0.027891215 -0.032332327 -0.026610296 0.0153284175 0.028881764 0.027406445 0.02060759 0.002971381 0.01889896 -0.009997383 -0.020819714 0.010924116 0.0033572863 0.04027426 0.033165365 0.031524695 0.024719372 -0.011376744 0.0060390085 -0.029091612 -0.034252774 0.01830342 0.01723667 0.0018288096 -0.03650768 -0.035147123 0.012673463 -0.025664922 -0.014619365 0.0388396 -0.01380762 -0.024420496 -0.023524862 -0.03232762 0.040719997 0.018978214 0.032017022 0.008251324 0.01797334 -0.024076339 0.022898015 0.013896893 0.01395914 0.0053886278 0.010557666 -0.033608124 0.0006174843 -0.013024609 -0.0023494016 0.028709387 0.028007057 -0.028901866 -0.023389887 0.012359252 -0.02774944 -0.02523244 0.02727751 -0.030682161 0.030557763 -0.03820394 0.0064086965 0.023954844 0.017724808 0.031239446 -0.03921248 -0.027163297 -0.041070804 -0.029694658 -0.010138622 0.00059039396 0.018782204 -0.03371843 -0.038555138 -0.026741695 -0.00035300356 0.0016316524 0.0269277 -0.0012698572 -0.028217336 -0.014560044 -0.0014994543 -0.03880643 0.011554083 -0.0053692413 0.0065333447 -0.0015875499 -0.02123946 -0.010713682 -0.0017367651 0.025569748 -0.0068163774 0.030102616 -0.029293185 -0.04029014 0.03158205 0.038965754 0.0002598862 0.020913363 0.024339145 -0.032705005 -0.027597835 -0.017505866 -0.03391713 -0.019418811 0.0044927597 0.007253374 0.023917165 0.015230969 -0.037442908 0.03848405 0.00988101 -0.005424008 0.0060265465 0.029288625 0.007622838 0.0062460355 0.037454747 0.004413451 0.015970796 0.021518867 0.024523139 -0.025416166 -0.040520802 -0.025483128 -0.03560023 0.036274828 0.005757456 -0.00018764536 -0.0393788 -0.03885574 0.0071953787 -0.028665703 0.040548667 -0.010771598 0.0077706627 0.029733166 -0.031720176 0.0030029565 -0.008817425 -0.016247984 -0.035284393 0.0021847985 0.006828095 -0.00915423 -0.014929429 -0.0025760583 0.021065231 -0.0153425485 -0.019937431 -0.0039619906 0.027895913 -0.023090234 -0.035804883 -0.01243189 0.03054687 -0.007946308 0.03797492 0.038881756 0.016834205 -0.03214247 -0.018252745 -0.0370225 -0.028136566 -0.024233636 0.0293859 -0.005733808 -0.012397787 -0.018495899 0.0361375 0.013150966 -0.02100582 0.03970062 -0.007935236 -0.026435401 -0.008824672 0.029549927 0.019142702 -0.031475212 0.035559066 0.016361997 -0.0060278527 0.01724585 0.023440272 0.03422088 0.032503404 0.038401835 0.004234215 0.012318383 0.03771934 -0.00882417 -0.029048618 0.0054591745 -0.014266889 0.007369265 -0.027916372 -0.009581457 0.0001253585 -0.035233676 0.029917832 -0.03145139 -0.015256271 -0.008145298 0.015797552 -0.00064312917 0.028390562 -0.03578215 0.030760437 -0.017168403 -0.034717098 0.014729674 -0.014032861 -0.034211777 0.012451485 -0.016381517 -0.001903529 -0.039816618 0.008875435 -0.020790141 0.027538002 -0.03038774 0.017842885 -0.023878481 -0.028629716 -0.009045204 0.04125468 0.031359024 0.039622985 -0.037795387 0.0154310465 -0.031030655 0.029379636 0.02752703 0.0047426773 -0.011106065 -0.020526886 0.030935805 -0.020429742 -0.040896382 -0.008760801 -0.0044439933 -0.009589548 0.020532053 -0.039592754 -0.020400196 -0.04096181 -0.014065425 0.03579089 -0.010957058 0.038308486 -0.017728454 -0.013503085 0.019441575 0.0058778673 0.037110217 -0.036786895 -0.03998541 0.027091336 -0.0058586053 0.032827985 0.018737655 -0.0002480497 0.031639617 0.025208673 -0.0042243153 -0.040630266 -0.0093472805 -0.0018273145 -0.027823508 -0.00585182 0.018028742 0.023847034 0.034715086 0.009583682 0.002710412 5.7617824e-05 0.03941938 0.02155703 0.040120896 -0.04125112 -0.0032831728 0.006263281 -0.03335617 -0.016144853 0.03257772 -0.027250221 -0.03533329 0.023962175 -0.014741352 0.027870905 -0.03675106 0.008869827 -0.026539987 -0.030870229 0.016837925 -0.026903605 0.006281212 -0.013305476 -0.03874734 -0.011125962 0.01189592 -0.03421522 0.005297701 0.039431497 0.0001171728 -0.02252712 0.03845256 0.013035293 -0.037392613 -0.018454721 0.012585893 -0.028375998 -0.0018966844 0.033124156 -0.010859787 -0.012788316 -0.031328302 0.0243649 0.0052695125 -0.029460197 0.0037700634 -0.029752305 -0.014745384 0.026562497 -0.010764882 0.028640699 0.021082234 0.0014147013 -0.011250874 0.038060643 0.0016264915 -0.0048003346 -0.023267135 -0.024886608 -0.016184693 0.024961954 0.03760864 0.030207803 -0.021480873 -0.03875826 0.030296242 -0.011719595 0.005390212 0.011416122 0.0065665594 -0.010013929 -0.018383866 0.008258304 -0.020104548 0.0095336195 0.0010419588 0.0171665 0.013992399 0.03909032 0.028438946 -0.023855206 -0.0016604017 0.027738597 0.030515825 -0.0012989144 -0.014533117 -0.014716601 0.0021860301 -0.038179502 0.009047414 0.036421962 -0.040131748 0.00049183273 -0.0044054836 0.033348605 -0.039506875 -0.020566698 -0.0122003555 0.0049235076 0.017383015 -0.009761667 0.031491466 0.018211097 0.03565394 0.0127850175 -0.02367635 0.0047136745 -0.013045317 0.028198153 -0.022299051 0.010769079 -0.035326257 0.02168887 -0.0019377868 0.012253995 -0.01753622 -0.017617732 -0.030158084 0.037935313 -0.0069823614 0.00048610568 -0.018824618 -0.031909715 0.0043643564 0.04121264 -0.02766551 0.015166263 -0.037160724 -0.018831125 -0.028054273 -0.023878526 -0.035928525 -0.0330269 0.02556783 0.00040482482 -0.032365125 -0.010395716 -0.018293321 -0.040843226 -0.029059574 -0.015827209 0.008640702 0.0016923349 -0.015957221 -0.04061089 -0.0012419125 0.015897736 -0.031287625 0.024635782 0.0020697117 0.014585823 0.016566303 0.006142552 -0.009696211 -0.016813284 0.037416037 -0.027800461 0.0016559015 -0.01413995 -0.022881523 -0.0019304454 0.015682027 0.012672648 -0.0321173 0.033534758 0.009208739 0.004213234 0.012596185 0.039480843 0.0361045 0.013606718 0.041501924 0.017587274 0.041614063 0.006450872 -0.024249565 0.024912074 0.026343375 -0.013701862 0.021011552 0.020359999 -0.015499413 0.015921935 0.036034465 0.028226838 -0.036746483 0.012910957 -0.03614483 -0.02143315 -0.004362489 -0.039281875 0.02443954 -0.009852126 -0.022460958 -0.033425387 -0.021848252 -0.0036003194 0.03284438 -0.029989382 0.001267319 0.016884819 -0.0038138877 -0.016015306 -0.012113243 0.004885932 0.018907603 0.037996083 0.031963833 -0.010411128 -0.002429853 0.023024902 0.0024126968 0.01535666 0.022846257 -0.011858225 -0.0074974746 -0.040916905 -0.0055841757 0.038411327 -0.0027446996 0.015302708 -0.041524187 -0.009406075 -0.002661253 0.03183062 -0.031179076 -0.016495546 -0.010878245 0.040533435 0.023135155 0.027813694 -0.008812527 -0.033572562 -0.020518979 -0.026836585 0.00968197 0.00370422 0.00733083 0.035094827 -0.031449556 0.036160927 0.034684714 -0.040343627 -0.027927112 0.012655745 -0.022534182 0.023189988 0.022450984 -0.004665961 -0.02454419 0.034654334 0.012097876 0.036056288 -0.010592143 0.007778555 0.036565095 -0.022104647 -0.0071869246 0.011148101 0.001992638 -0.03969681 0.0316434 -0.037834264 -0.003563444 -0.026296427 -0.017473176 -0.019208407 -0.0044041974 0.021364858 0.004669751 0.014779493 0.0026936382 0.0209432 -0.005378361 -0.02448537 -0.01996629 -0.033857763 0.019517567 -0.030507153 0.009469435 0.014429053 -0.01437149 -0.026725551 0.0031055561 0.037926316 0.010457462 -0.0002291898 0.017618727 0.01873972 -0.018241953 -0.0192254 0.0045958213 -0.00903748 -0.02097343 -0.009576435 0.015274286 -0.024082065 -0.006860142 0.006761884 -0.03537176 -0.0036007117 0.018829565 -0.020412555 0.02849342 0.041516326 -0.03947606 -0.035594083 0.023671683 0.026658168 -0.0047937683 0.023763847 -0.033168282 -0.018081179 -0.022556052 -0.035715453 -0.03852543 0.015511265 -0.03838135 0.038451504 -0.023224821 -0.013675968 0.008719087 -0.022506785 -0.0045609726 0.004181887 -0.036465302 -0.039302897 0.014243419 0.01424334 0.008641347 -0.032287415 0.01930727 0.013268635 0.010740469 -0.0023202202 0.041426107 0.014450222 0.022134325 0.016775575 0.039407875 -0.009340754 0.035667967 0.04153877 -0.019327458 0.020982679 -0.038319554 0.036624193 -0.02800697 0.018227652 -0.03378781 0.0066593937 0.01634792 -0.017873367 -0.0026417375 -0.03501314 -0.010808513 0.028439611 0.029339712 -0.035724666 -0.0063982806 0.025958896 -0.015896007 -0.00032903254 0.03462717 0.03812149 -0.018518846 -0.040952176 -0.032589488 -0.039372213 0.03260971 -0.020539775 -0.015122916 -0.041030552 0.028252542 -0.0077857575 -0.029771045 0.018220734 -0.034796357 -0.005560403 -0.014961293 -0.009454727 -0.008484259 -0.008282433 0.036077112 -0.013243144 0.022460338 -0.013765251 0.03785442 -0.02924034 -0.02595852 0.03549447 -0.026795125 -0.03925071 0.003707096 0.0056258193 -0.027643701 -0.007679209 -0.024452653 0.0149433315 -0.018602457 -0.021120995 0.018413663 0.015624991 -0.029688349 0.018739428 0.011918148 -0.004030223 -0.0134161115 0.03224365 0.036588546 -0.031916734 -0.009469455 -0.00982302 0.020622209 -0.032788806 0.032192327 -0.019544696 -0.017838877 -0.013846636 -0.018450335 0.020949563 0.010425022 -0.027412087 0.023099314 -0.00811851 -0.034214716 -0.0022510043 -0.018133294 0.032617442 -0.02290383 0.023808952 0.029717743 0.036065146 0.018335313 0.0043217144 -0.033489328 -0.019009998 0.031301305 -0.019345269 -0.03867179 0.038878143 -0.024883445 -0.010909255 -0.035389885 -0.010391688 -0.016398381 -0.039028265 -0.036124915 -0.020311516 0.02618609 0.0039497167 -0.012431915 -0.022531083 0.022895148 -0.04009247 -0.019007485 0.014674952 0.023755878 0.023488179 -0.00051953894 -0.0010843178 -0.005697345 0.03006965 -0.0077874614 0.030224722 -0.027867865 0.0012530785 -0.0138641 0.01822418 0.0053218706 -0.0019631535 -0.04110408 0.008195281 0.01030087 0.011780253 0.016947296 0.004944782 0.022868976 -0.025855025 -0.025922721 -0.011397898 -0.02862157 -0.019974276 -0.013339689 -0.012530759 0.037519854 0.0279129 -0.017688721 -0.023960005 -0.004275456 0.02346928 -0.00039877993 0.0030973554 -0.010912727 -0.010684098 0.04135364 0.0036133628 -0.040523753 -0.014531965 0.012804444 0.041235324 0.007001817 0.024957553 0.004592841 0.015376678 -0.02041699 -0.033157777 -0.0047071627 -0.017033022 0.008685241 -0.041418053 -0.036485307 0.002345726 -0.038192056 -0.015426859 0.03038935 0.026950717 0.0019730828 0.021156356 0.037926264 0.030849248 -0.021891406 0.0053556664 -0.00022383034 -0.03403984 0.038508665 0.0017974526 -0.016850483 -0.00785096 0.013523723 0.0043380363 -0.038593303 0.0029157053 -0.025883347 0.022096839 -0.0124516785 -0.016389426 -0.0046557635 -0.040001404 -0.011632457 0.038896527 -0.032779723 0.026329106 -0.017599564 0.041553643 -0.016608864 -0.039979137 -0.023458596 0.01523455 0.039492078 -0.031088626 -0.037636902 0.040238276 -0.034837313 0.02627486 -0.019297978 -0.010604615 -0.040855974 0.039185874 -0.02115881 0.006653478 -0.0030235946 0.005534391 -0.009193048 0.03206983 -0.03698276 -0.016020074 0.019932177 0.022196328 0.025120273 -0.026361104 0.0022788893 -0.035795823 0.036262043 -0.0028641224 -0.02733047 0.03574854 -0.030584317 -0.040853426 0.014247343 -0.01393812 -0.014021392 -0.0026577911 -0.011553839 -0.00094652676 -0.01828978 -0.03247492 0.0009225359 -0.02957516 -1.3659399e-06 0.028949227 0.012032926 -0.037864715 0.023696681 -0.02897444 -0.009184967 -0.025218308 0.015011917 -0.005346184 -0.018544128 -0.03852558 0.033765264 0.033636462 0.039218005 -0.014210503 0.022494078 0.023682242 0.021754151 0.022402689 -0.038165387 -0.03645227 -0.014973412 -0.013276721 0.01730306 -0.011836003 -0.012300819 0.037142493 0.004553914 0.039962526 -0.010918528 0.041327074 -0.011476964 0.029272076 -0.037886173 0.012737155 0.01791372 -0.02870681 -0.039511137 -0.020559788 -0.0037625234 0.027971616 -0.0072906716 -0.00017146766 -0.011523208 0.03995962 -0.03350345 0.0042939438 0.004562368 -0.0127750635 0.037026092 -0.021985218 0.028128609 -0.014919162 -0.023986623 -0.010047605 -0.03615892 0.03220954 -0.036610406 -0.0061423033 0.034740724 0.014820924 0.028422644 -0.039062567 0.011229783 0.025371358 0.0165658 0.028930198 -0.024047147 0.02208057 0.00970464 0.011132091 0.037393317 -0.017548159 -0.029874196 0.0018295696 0.004970759 0.039248057 -0.024425393 0.031012237 0.012633985 -0.017908778 0.0072479597 -0.014007628 -0.040447008 0.015747353 0.000708585 0.0041112206 -0.039971363 -0.040504202 -0.026014706 0.021758279 -0.036961775 0.028102592 0.00096170604 -0.0006176631 0.0036613196 -0.028495505 -0.029137146 -0.039461322 0.024690595 0.019826388 0.015906285 0.0059825433 -0.004881566 0.0026218544 -0.029160108 -0.024041846 -0.035096407 0.016759848 0.026160758 -0.016728368 0.008027509 0.029872429 0.010696372 -0.030834153 -0.011606798 -0.014563968 0.03993025 -0.038872167 -0.007762055 0.037606217 -0.004128625 0.03744044 0.03731818 -0.018593099 0.020467605 0.013487841 -0.023248341 -0.015719678 -0.022221884 0.00663278 0.04145781 -0.012369623 -0.030237507 -0.0010441046 -0.01677972 0.030874744 0.0006504208 0.018446466 -0.015249203 -0.005197893 -0.033928733 0.006532818 -0.02986966 0.037134048 0.027813032 0.024497986 -0.022344392 0.033242434 -0.035889786 -0.035612926 -0.018953895 -0.039864115 -0.01755574 0.010628572 -0.017014872 -0.0067506186 -0.009519428 -0.0065374128 -0.023356443 -0.0134624 0.024622759 -0.027617034 0.03580472 -0.009729336 -0.0016005486 0.011098231 -0.022532623 -0.0011578997 -0.013978889 -0.037545666 -0.010318905 -0.025279354 -0.0071420274 0.011749154 -0.0053664846 -0.011548678 -0.015545055 -0.037066337 0.012585601 -0.039918423 0.01871249 0.019490834 -0.0108932955 0.032256134 -0.04140973 -0.040153485 -0.022524595 0.020743277 -0.031769972 0.030712372 0.040553845 0.016886836 0.026823312 -0.019114312 0.01055488 0.009227892 0.009601842 0.030396542 0.017028501 -0.006969492 0.016230743 -0.03722147 0.011092991 -0.021390423 0.023563758 0.028683823 -0.010813152 -0.0005195191 -0.011949713 0.039445706 0.011365861 0.028799867 -0.016148597 0.012400851 0.031183109 -0.032915495 -0.03856101 0.012864466 0.023854118 0.034990396 0.017785903 0.017484974 -0.009244378 0.009330511 -0.026775897 0.016060263 -0.033105772 0.019299299 -0.039928347 -0.014277732 -0.024595892 0.009659072 0.016357835 -0.008889845 -0.023456663 -0.013864836 0.017880028 0.0019932888 -0.0022817403 -0.026331495 0.009109433 -0.012020017 0.017854512 -0.034001574 -0.00030904016 -0.022455718 0.036921777 -0.015936559 -0.029149463 -0.0009197841 0.018490588 -0.02572827 -0.023558091 -0.030837398 -0.025834437 0.016075786 0.027005663 -0.026037281 -0.029000044 -0.019491777 0.028113436 -0.036080476 -0.015447736 -0.03581126 -0.012738715 0.021329205 -0.012196839 0.017756563 0.019025013 0.039922923 -0.039272007 -0.00049299997 -0.03336134 0.02691416 0.0036370358 -0.010179217 -0.03619961 -0.014115016 0.01941978 -0.013490558 0.017820518 -0.0046298355 -0.032953754 -0.014679482 0.02599976 -0.041596066 0.01762512 0.040715005 -0.03223048 -0.015177797 0.010186255 0.017487328 0.025495818 -0.034775406 0.0159327 -0.03772412 0.0003556659 0.011053026 -0.0049730344 -0.0021512508 -0.025640165 0.0004930943 -0.0018273195 -0.033758115 0.039776992 -0.015870621 0.032997634 0.034366876 0.031420253 -0.02328614 0.03733888 -0.035073332 0.0067486614 0.0028177153 0.026662972 -0.0032576572 -0.04104379 -0.011554763 0.03686194 -0.022849252 0.036688596 0.02369706 -0.022265634 0.0059099398 0.021147525 0.02821903 -0.022888094 0.012500083 -0.029935231 -0.017353963 -0.03486226 -0.036356553 0.016606104 0.015878797 -0.00014962256 -0.017797252 0.038237356 0.008701111 -0.0008446872 -0.017414501 0.01685236 0.019903457 0.0009634495 0.03319165 -0.032197025 -0.008549094 -0.034556564 -0.004391114 0.010263389 0.026389286 -0.0131542785 -0.022807091 -0.026369205 -0.022537172 -0.0018072873 0.025355294 0.01148735 0.015001143 0.012247583 -0.006883502 0.0035972546 -0.012727971 0.0049684 0.03168361 -0.028279405 0.03916172 -0.0053374767 -0.03497107 0.0251488 -0.007987539 0.0152993705 -0.004678612 0.014621278 0.024369389 0.020419389 0.015158042 -0.032128256 0.03967762 -0.019789338 -0.041542914 0.018565422 0.01019836 -0.03395156 0.022800183 0.020580536 0.014196312 0.03088758 -0.0047549857 0.016817093 0.035277925 -0.037827305 0.0016480138 -0.031754285 -0.025450006 0.0073676407 -0.033320766 -0.041040204 -0.001144747 -0.0018033832 -0.011762401 0.027595054 0.014867803 0.037193 0.01503856 0.028159052 -0.013090114 -0.009526446 -0.028340345 -0.030721024 -0.014784466 -0.001778543 0.022212949 0.011784917 0.016624948 0.024660006 -0.020376965 -0.039975878 -0.016150907 0.0070743314 0.014247145 -0.034944184 -0.036532544 0.0031200747 -0.017750498 0.035180308 -0.022235554 -0.0061718524 -0.0074540926 -0.04038494 -0.004554893 -0.0173545 -0.038573995 -0.011209941 -0.013762912 -0.036933936 0.0014721056 -0.019715901 0.03170776 0.0359904 -0.0042167655 -0.005242373 -0.00920642 -0.0023430884 -0.014107496 -0.03585656 -0.040789954 0.033538118 -0.034510165 0.010078764 0.0017576467 0.0016579032 -0.024836412 -0.0009121051 -0.024627974 0.016101485 -0.026807725 -0.0070976466 -0.023865145 0.030872166 0.00678512 0.039700937 0.0135435965 -0.03291382 0.01529856 -0.035515614 -0.02542539 -0.02639915 0.036717363 0.0178858 0.039444398 0.034393813 -0.028812518 0.022336286 -0.010775626 0.0071113957 -0.019728836 -0.009659141 0.013696348 0.039819058 0.036048315 0.015465453 -0.0049963347 0.038463693 0.017499562 -0.03021974 -0.023472544 0.022123512 0.03731185 -0.009194946 0.007499337 -0.013035755 -0.002426406 -0.008698195 0.019116119 -0.030427199 0.030616984 -0.01035147 0.019631699 0.03938357 0.016739493 -0.041494485 -0.021593913 -0.035308793 -0.036958024 0.032240044 0.0332715 -0.014383465 0.028306466 -0.0073539717 -0.020451665 0.03246812 0.00041318935 -0.0073180795 0.023203403 0.010174344 0.039981436 0.009541467 -0.018283468 -0.009867102 0.038943917 0.030518949 0.00077107054 -0.019255236 0.00036801398 0.00012240311 0.029511591 0.022573045 -0.019040694 0.026680391 -0.020930728 0.01219214 -0.003302614 -0.025463443 0.014179061 0.0020366113 -0.012846465 -0.002412205 -0.0023617349 -0.037116773 -0.012608444 -0.014651622 -0.027278956 -0.010819301 0.018823272 0.0035519353 0.009554332 0.02315495 -0.018566784 0.018699145 0.009336432 0.039656535 0.016603202 0.0014371276 0.018931782 0.00012399256 -0.020600399 -0.02479886 0.009428268 0.014125451 0.0039517633 0.019919192 -0.0014596483 0.015011172 0.021954607 -0.02183431 -0.032670654 -0.02179639 -0.032630797 -0.010703221 -0.007178257 0.007743518 0.03797045 0.0043450994 0.013976917 -0.040065207 0.024877202 -0.016667252 0.03050695 0.012636463 -0.033268474 -0.04043095 -0.0037046722 -0.020125803 0.0023646157 0.02390255 -0.0120642185 -0.034333315 0.020768687 0.00988477 0.03562252 0.009948945 0.03199635 -0.00221624 0.010620902 -0.008345157 -0.03629043 0.00948606 -0.03648753 -0.030688226 -0.025230637 0.027993452 0.032607436 0.032807663 0.038116194 -0.00023742518 0.034670748 -0.033598967 -0.025673792 0.014026394 0.0024920057 -0.029989105 -0.027652264 -0.015148222 -0.016967278 -0.01915054 -0.00931113 -0.0029123675 -0.032762688 0.009938508 0.013213153 -0.006019096 -0.02000839 -0.03863713 0.034290954 -0.018092453 -0.019888446 -0.039521426 -0.028591147 0.019298296 0.003081014 -0.041499283 -0.039181888 0.016746184 0.015512253 0.014661983 -0.015418495 -0.018369373 0.00270621 0.03640842 0.027069053 0.026372572 -0.023315763 -0.0074529005 -0.0070353 0.020568963 -0.03474493 0.008832827 0.0032541952 -0.0213617 0.017143413 0.020783251 0.02860871 -0.0081116855 0.026206633 -0.02601271 -0.036301505 0.00065008306 0.014557749 0.003714954 0.015754223 0.03704322 -0.029806376 0.0032644868 -0.009190574 -0.00166668 0.0051389886 0.018357769 -0.03259514 -0.013549602 -0.032880448 -0.021624729 -0.011700889 -0.032123428 0.0012520503 0.018185556 -0.011156848 0.0323431 -0.025996968 0.02487134 -0.03221692 0.006664063 0.03410737 0.02087379 -0.005455017 -0.011511356 -0.018550575 0.0026877474 -0.024062585 -0.005410294 0.034432054 -0.024680983 -0.009510359 -0.035491608 -0.0142606795 -0.027909702 0.036167707 0.01452983 0.01175794 0.00018645823 -0.03736362 0.031507708 0.03196241 0.025486847 -0.0047444752 0.010563916 0.002398461 0.007172828 0.027120437 -0.02256694 0.014218788 -0.008490309 -0.021119595 -0.015841752 0.0011448463 -0.0033580314 -0.027641704 0.026971892 0.027987063 0.001665925 0.007425507 -0.018979922 0.012828907 -0.03672519 0.04115206 -0.005640199 0.011430606 -0.023141906 0.03099372 0.02019028 0.0062896907 0.017911807 0.01509352 -0.0042600483 -0.021990102 -0.037626743 0.020509278 0.034454197 0.03154877 -0.00042541823 -0.003527706 0.028546795 -0.016927674 0.020895973 -0.012550762 0.006468296 0.021102106 -0.039936356 0.033340715 -0.022775706 -0.0065813265 -0.0321631 -0.014522746 0.026116014 -0.036710497 -0.0045247674 0.007059957 -0.040532194 0.031890597 -0.03834468 -0.030883586 0.007805447 0.027260711 -0.021044394 0.021146595 0.036929917 -0.013094306 -0.0012050222 -0.005746618 0.012241751 0.005933419 0.011925653 0.0056572706 0.029131627 0.025844803 -0.022454059 -0.030065458 0.014953549 -0.00690641 -0.0010897716 0.025462493 0.0387592 0.0007246087 0.027478099 0.018322673 -0.009061813 0.02336382 0.033475645 -0.026510403 0.015853804 -0.013110777 -0.034288652 -0.008504555 0.005994926 -0.007480984 0.037917197 0.0011781951 0.00666823 0.035907283 0.0026349227 -0.007638986 0.031853013 0.025428941 -0.012625824 -0.039924785 0.016843766 -0.030887693 0.029789573 0.018122723 -0.015558377 0.005358567 0.00089929503 -0.026108256 0.036071133 -0.017269712 -0.008208215 -0.038248073 -0.009522076 0.013318911 -3.4620366e-06 -0.023123672 -0.031008383 0.041399535 -0.0033794842 -0.011909833 0.030997213 0.012178267 0.0064517907 0.008592228 -0.018415239 0.015889293 -0.008373782 -0.039373428 -0.0037757903 0.017474737 0.028698122 -0.03589298 -0.011086628 -0.03902897 -0.0077806665 0.019706547 0.021886274 -0.015155157 0.032793492 0.04114958 -0.037250936 0.017452952 -0.027464211 -0.023988739 -0.0058955355 0.03232602 -0.021785095 -0.027608573 0.030450016 0.007888466 0.0017610043 -0.023151746 0.03911279 0.032793693 0.005927339 0.03890612 -0.04108347 -0.002473886 -0.00935106 -0.031511143 -0.032854326 0.0024278364 0.0024932525 -0.015264189 -0.032129332 0.04112055 0.038258098 -0.0017404755 -0.023386937 0.031736895 -0.009686818 0.021952625 0.003743271 0.008135389 0.03501415 0.029868945 -0.023382585 0.0054867817 -0.0072858534 -0.03489793 0.0042943163 -0.023955673 -0.032667994 -0.0044603944 -0.01140669 -0.0041542305 0.013419917 0.035368957 0.03375184 -0.038604777 -0.021983396 0.033182062 -0.0041934997 0.014851129 0.021113953 -0.033172436 0.012681505 0.025548887 -0.00074700516 0.0011175077 0.040369563 -0.03209413 0.027261805 -0.015572146 -0.032602634 0.0035421352 -0.003777216 0.04112155 0.002208069 -0.023479298 0.03783612 0.015604581 -0.038262513 -0.009661779 0.0018429657 0.028938558 0.011739299 0.0020089548 -0.041458145 0.002779002 -0.006292085 -0.014083063 0.011104917 -0.039569423 -0.011411598 -0.02740179 -0.026435405 0.022560727 0.041560244 -0.013267989 -0.04080961 -0.014062226 0.011564529 -0.031574287 -0.00043396652 0.01939103 -0.033160493 -0.030568939 0.0011538466 -0.005449315 -0.0032680184 -0.00066142285 0.0357172 0.03233738 -0.01127104 0.0081946105 -0.005869001 0.008089354 0.0059422106 -0.038716584 0.019478813 -0.03735724 0.024776971 0.02512086 -0.013738285 -0.028689807 -0.03105927 0.012778079 0.006182646 0.017603066 0.01902157 0.0038395177 -0.018118918 0.021391785 0.04007159 0.022323996 -0.0021355152 -0.023331787 0.010694524 -0.0035236776 0.032912537 0.006176661 0.01721546 -0.016042218 0.0108594 0.00083554786 0.011165614 -0.022033652 0.029619372 0.032452773 0.0118894335 -0.017869737 0.03715297 -0.008478711 0.011675766 -0.0049702227 0.0038078479 -0.023430085 -0.017088782 0.009396097 -0.02230984 0.005432149 0.0384327 0.02268618 0.019105252 -0.037393115 -0.012682612 -0.032299303 -0.010478467 -0.02213963 0.024187123 -0.0064072115 -0.019363469 0.03656068 -0.010891527 0.016332582 0.038595315 -0.041190438 -0.017040532 0.038300425 0.039376523 -0.02194291 -0.013292134 -0.03456697 0.0080921855 -0.021368435 0.0008568218 -0.019423734 -0.007138307 0.013382077 0.039652117 -0.007999465 0.0011260709 -0.0030405424 0.037602134 -0.0026707451 -0.021412795 0.0041702194 0.024070045 0.015313169 0.03573954 0.0006581992 -0.003915499 0.030809473 -0.013092449 -0.0157375 -0.026622927 0.021160653 -0.021659285 -0.032197803 -0.016809776 -0.0340445 -0.0040082736 0.041343145 0.009783572 0.021661183 0.0055928333 0.011707559 0.030194646 -0.026194355 0.021611035 -0.03567689 -0.032149732 0.013957581 0.012978634 0.041069977 0.008412282 -0.018652856 0.019603243 -0.00012295446 0.041309103 0.03614258 0.03244617 -0.0034935127 -0.03073132 -0.008010393 -0.035160325 0.040333923 0.027373817 0.024894908 0.031061199 0.007942965 0.016726524 0.032139283 0.031600654 -0.010362616 0.004577026 -0.023397192 -0.009088109 -0.03349507 0.015414923 0.029477324 -0.02996346 -0.016905725 0.024720088 0.012627224 -0.0034341863 0.016992614 -0.004557307 -0.022114879 -0.034755193 0.03401903 -0.025663506 0.009091477 -0.014855942 -0.010322407 0.014009878 0.009771859 -0.0204795 0.025900459 0.0083929505 -0.03468515 0.03817862 0.03896281 -0.03580787 -0.019563805 -0.02638812 -0.040253874 -0.012831634 -0.032399096 0.0051255776 -0.022594228 0.009116909 -0.0348031 -0.018906116 0.007984435 -0.0062400503 -0.021148916 0.00044471025 0.033437736 0.0011494111 -0.0111004915 0.0014442106 -0.041363135 -0.04153159 -0.036041856 -0.0019188623 0.031507716 -0.038498573 0.009663522 -0.016617462 -0.015120333 0.016223004 -0.027238524 -0.028331315 0.023976391 -0.037987232 -0.03495246 -0.034486305 -0.036116775 0.0024704586 0.019007009 0.03318432 0.012497704 0.01928386 -0.032462485 -0.006391471 -0.040031295 0.018258935 -0.026244998 6.698072e-05 0.024178918 0.023021951 0.027969202 -0.038569637 -0.0013520172 -0.02399078 0.0050103664 -0.03164659 -0.016561747 -0.016860873 0.026213616 0.0027170032 0.03532783 -0.02312198 0.015015255 0.034763347 -0.038541473 0.04119965 -0.02459084 0.037606165 -0.03719084 0.035184443 -0.020778194 -0.03930694 0.037369303 -0.032013036 0.01980561 0.036825463 -0.023004457 0.025785228 0.022257468 -0.037532695 0.023058292 -0.0032066852 -0.03454704 0.035988033 0.040413126 -0.02639478 0.008752118 0.009639978 -4.6625733e-05 -0.0080058975 0.031444587 -0.004684945 -0.036534723 -0.004498487 -0.039824963 0.041560777 0.03967249 0.01735064 -0.022472546 0.029820576 -0.01453647 0.04162845 -0.025432348 0.026216667 -0.016727075 0.028656974 -0.022136584 -0.035796642 -0.011307836 -0.01553762 -0.008710156 0.0044749035 0.035580784 -0.027051425 0.010105878 -0.0015526216 -0.010278727 0.017707577 -0.038542014 -0.025723577 0.0057826242 -0.005584111 0.02556352 -0.008852407 0.011973133 -0.0007372151 -0.0077145 -0.033882853 0.030687958 0.031427026 -0.03953413 -0.0019506912 -0.041603114 -0.028285136 -0.022158718 -0.017442252 0.0004684478 0.027813425 0.008017376 -0.03952473 -0.004627536 -0.02148158 0.0012797366 -0.021728074 0.037910953 -0.026579719 -0.004751399 -0.020113703 0.0014339288 0.038892724 -0.009869128 -0.012788197 -0.0081887245 0.015226821 0.0021364342 -0.012107606 -0.036031537 -0.02380619 0.0013323675 0.023958128 0.026039785 -0.036099236 -0.00056387484 0.00746198 -0.014262374 0.02200466 -0.007114753 0.03104074 0.034254223 0.002908518 -0.008163835 -0.015557691 -0.017759308 0.030970072 0.020392045 0.027031064 0.034839284 -0.037583247 -0.027376791 -0.0015419126 0.030316696 0.004703939 0.04128886 0.014907211 -0.005018314 -0.036551964 -0.016711405 0.008710742 0.040656224 -0.0070376894 -0.008400932 0.031728253 -0.017942365 0.0019853911 0.010361245 0.038103588 0.021698054 -0.0075119985 -0.037552804 -0.031873263 -0.04006652 0.0008593152 -0.041041464 -0.015227432 -0.018171623 -0.014256741 -0.0045242757 0.03684401 0.023689166 -0.01818122 -0.01901876 0.015033896 0.039589833 -0.040916976 -0.026295787 -0.0008479556 0.015831342 -0.035996586 -0.0130703105 0.00269791 -0.0051196963 -0.030683493 -0.03108502 -0.04005463 0.005303865 -0.03832225 0.005161961 -0.026367893 -0.034627557 -0.041100487 -0.0040985644 -0.027688146 0.02791304 -0.018419575 -0.030428212 0.025753018 0.009744118 0.036212206 -0.005085483 -0.03772512 -0.0128168315 -0.00077943504 -0.041332882 -0.0030270568 -0.021593794 -0.006877765 -0.0270687 0.040531617 0.024010098 0.038460664 -0.02138876 0.0017869473 -0.013473293 -0.029757675 -0.034129985 -0.035713017 0.028622061 -0.008541435 0.019259518 0.03597411 0.033364378 -0.041594353 -0.0025983702 -0.01668419 -0.019241234 0.031591993 -0.03716317 -0.024562707 0.034660976 0.033114195 0.021796927 -0.005231212 0.0006977221 0.040301904 0.035068817 0.027740067 0.0056084692 -0.0023719422 0.040217455 0.006171341 -0.03872877 -0.03634703 -0.0016697248 -0.025798654 0.031217124 -0.010057847 0.018032696 0.024075639 -0.019211397 -0.009395689 0.0012288194 -0.035223633 -0.032400385 0.039870016 0.0062321974 0.0006898145 0.027164504 0.024375176 -0.01566354 -0.0025856397 -0.03512823 -0.04153639 -0.02595903 -0.022958096 -0.02874529 0.04052235 0.020905059 -0.036740594 -8.807083e-05 0.00072801113 0.013959631 0.041027375 -0.00016285977 0.023961436 0.016368683 -0.041403152 0.024238959 0.0020906082 0.03172525 0.031996854 -0.011987573 0.040257003 -0.0029785386 0.0412789 -0.022417536 0.011383494 0.015464982 0.037439164 0.006411448 -0.0032324444 -0.01607205 -0.00624388 0.027689498 0.04160931 -0.039658867 0.024426844 0.037994854 0.0026867688 -0.034199446 -0.018756812 0.037204824 -0.007916233 -0.036145996 -0.010883709 0.024736306 0.024953838 0.032165345 0.029268276 -0.007782221 -0.025584336 -0.03732423 0.008505568 0.040543668 -0.014148584 0.02618885 0.035074726 0.014128497 0.0010977685 -0.005124286 0.011706397 -0.0015780132 -0.024915706 0.017775234 0.0135311885 0.018835705 -0.035783164 0.026403025 0.008807993 0.034174055 0.037092514 0.03716218 -0.018010303 0.016946172 -0.012740578 -0.01763558 0.024594462 0.04015956 0.01639089 -0.04045723 -0.028512955 0.014492279 -0.005903244 -0.012951682 0.0036002945 0.014428392 -0.030302307 0.0023702732 -0.030430242 0.022537034 0.0034436784 0.021617543 -0.012041966 -0.014570932 0.009791702 0.0020004264 -0.003554379 -0.01508004 -0.020183459 0.00989158 -0.02906116 -0.012260149 0.032423314 0.016861036 -0.0018249651 0.0060196174 -0.019796943 -0.040213376 0.008457517 -0.02838118 -0.03848183 0.014432485 -0.0034919083 -0.038777255 0.015263921 -0.008082559 -0.00020249686 -0.039115578 -0.026148777 0.004240851 0.009467463 0.021755785 0.012688145 -0.0017895749 -0.0013929656 -0.006268467 -0.006124392 0.028396249 -0.040899154 -0.024489358 -0.030127129 -0.025496474 0.02223447 -0.0036031704 -0.032949463 -0.0067518605 0.025040522 -0.035730507 0.016738545 -0.03749436 0.010140618 -0.015365288 -0.03717981 -0.0005265027 0.023913672 0.0063472493 -0.010999218 -0.037940737 0.0381943 0.03195324 -0.035851955 -0.027627617 -0.025475463 -0.04065969 0.03220704 0.019437488 -0.004991442 -0.025703084 0.036192812 0.02409803 -0.040048786 0.028142408 -0.030692711 -0.02765369 0.01922059 -0.032211296 -0.018114522 -0.026848238 -0.03257791 -0.021244412 0.0052692546 0.0026631556 0.0076045245 0.01875419 -0.039028868 -0.02264005 0.004463067 -0.021304201 -0.031466268 -0.021168273 -0.038491555 0.0064804605 0.014348681 0.030953586 0.031116378 -0.01821677 -0.027210599 0.016658947 -0.006323909 -0.014488712 -0.028348636 0.017024651 0.026733443 0.028752372 0.014000624 -0.032971725 0.034160715 -0.020243239 -0.025990829 0.0055219783 0.0093485415 -7.217626e-05 0.02296799 -0.037471097 0.037023798 0.027673438 -0.029641535 -0.028551232 -0.019742599 -0.031625703 0.024483543 0.030805439 0.007946397 -0.033990066 0.006563927 -0.040347528 0.016573668 -0.023357531 -0.004461676 0.020676892 0.038018428 -0.021567285 0.002213513 0.039192602 0.004167035 -0.009164746 -0.0043078116 -0.0010229002 -0.018991645 0.0352717 0.0015817931 -0.03410954 0.026674753 0.024591953 -0.028357472 -0.0361398 -0.0068546534 0.027220642 0.041639443 0.013032749 0.030530598 0.03775681 -0.014659464 -0.0040070913 0.009743294 0.032613844 0.034958955 0.029818833 -0.011497965 -0.017072823 0.030562883 0.031305045 0.029393643 -0.010286992 0.02571271 -0.02818 0.017239418 -0.036939915 -0.0123627735 -0.018518563 0.041554045 -0.031130856 0.011281982 0.02378897 -0.031186119 0.016051635 -0.006986504 0.040908687 -0.019001722 0.026427384 0.037816565 0.01602292 -0.028412417 -0.030455824 0.028123628 -0.027214354 0.017387267 0.019189995 -0.024493054 -0.014839138 0.022608519 -0.011123335 0.015352389 0.018714353 0.02808337 0.0091988845 -0.033640545 -0.035726227 -0.03774042 -0.0023984264 -0.0007841041 -0.033748426 -0.0035036206 -0.039561577 -0.031578347 0.035467785 -0.023046326 0.03197179 0.030850068 -0.03997135 -0.011030163 -0.02371957 -0.00912116 0.016005546 0.012943357 0.033323936 0.032025155 -0.013976222 -0.0027583987 0.025866788 0.031892862 -0.021790579 -0.010601198 0.023493305 -0.033372603 0.005473619 0.035320796 0.012655611 -0.02767018 0.034231342 -0.0316637 0.0067121834 0.0016341507 0.028836712 0.031695902 -0.0062266043 -0.018048286 0.004602924 0.032411046 0.027818924 0.031497877 0.016296333 0.025749063 -0.0074806316 -0.019569218 0.010207623 0.023118457 -0.018750435 -0.01668328 -0.021677103 0.03982813 -0.03843221 0.0060622892 0.02662858 0.010651356 -0.01435118 0.0068068705 -0.02757216 0.003396685 0.008697535 0.024234902 -0.005559981 -0.040611073 0.022343537 0.001511097 0.0215141 -0.023214202 -0.016717624 -0.032433193 0.005604734 -0.015489425 0.04075142 -0.00675271 0.021768918 0.0269971 0.02226448 0.003644844 0.00430729 -0.0028299093 -0.029586336 -0.041629247 0.002600064 0.02654095 -0.010671636 0.032253467 -0.0032978654 -0.0030826232 -0.0057859374 0.011373645 0.038833763 0.031361245 -0.011527171 -0.038229585 -0.011655177 -0.018271327 0.028744321 0.014495602 0.031351205 0.017355954 0.005055651 -0.019425547 0.037607532 0.019109076 0.026428085 0.009325793 0.001125599 0.01842243 0.026491031 0.017083 0.022327617 -0.041433007 -0.0211723 0.029091647 0.0125365555 0.011367708 0.0041144444 -0.004097919 -0.03789594 0.011691352 -0.020125574 0.019058377 0.02396749 0.005358666 0.002031704 0.017713225 0.041169055 0.014816071 0.029960629 0.008180505 -0.0010113667 -0.027658504 0.030773863 -0.028087303 0.017080095 0.014225066 -0.0015185376 -0.035545837 0.040515926 0.02271032 -0.02350757 0.041429486 0.02806378 0.004121532 0.0078044385 0.026779622 0.038109645 -0.0010480385 0.014386227 -0.035569668 0.023862377 0.036381163 0.011342844 -0.010457243 -0.028099995 0.036199372 0.030978408 0.0060402057 -0.029882044 -0.02119653 -0.039399486 0.039637547 0.015598834 -0.033464126 0.0049972786 0.025465041 0.0226498 0.016285425 0.0018157959 0.040791716 0.025606643 0.023558643 -0.026774913 -0.019182678 0.029090818 -0.024877941 -0.005983129 0.035583343 -0.03782792 0.028300345 -0.025809571 -0.0024464033 -0.038059812 0.020062312 0.030621132 -0.022431508 0.008761099 -0.0056529543 0.03920886 -0.023022056 0.007276505 0.012202035 -0.020026177 -0.0055116815 -0.038981047 -0.03790781 0.040413 -0.02924335 0.030337762 0.0070051504 0.020656154 0.03962452 0.03705425 -0.0010766785 -0.028357532 0.0134766055 -0.031894118 0.024696475 -0.03355898 0.012228414 0.021593397 0.03712374 0.006154701 -0.0016918927 0.02828901 0.017536577 -0.039398246 -0.018252512 -0.03443181 0.034276422 -0.029316824 -0.022169441 0.03896562 0.025048908 -0.033469602 0.011082962 -0.0006873409 0.009818962 -0.03165784 -0.011899522 0.016526993 0.0048263324 -0.02951493 0.0349943 -0.017830923 0.035760865 0.031191101 -0.011979854 -0.00917392 0.023121959 -0.021935403 -0.0026373318 0.0035862923 0.0066581666 0.012086039 -0.0378984 0.01986143 0.004037882 0.020986687 -0.037700802 0.01835384 -0.0025010407 -0.008009767 -0.017883828 -0.008293907 0.009932345 0.0067182034 0.013591434 -0.00037941337 -0.0025528423 -0.009684831 -0.010217275 0.028698277 0.03031457 0.007016654 -0.0101411 -0.030822292 0.01634789 0.006098171 0.016062682 0.003933092 0.019466966 -0.016931485 0.016500115 -0.018570498 0.024657693 0.03774972 -0.02858097 -0.017915249 -0.031998657 0.017525023 0.03486103 -0.03237415 0.005930464 -0.021163896 0.019220855 0.029757848 -0.03375586 0.040800877 0.017251503 -0.021490172 -0.010840267 0.024347987 0.026186448 -0.031275194 0.007970582 0.03942294 0.01460592 -0.040104985 0.041142434 0.005442997 0.03891624 0.007914633 -0.007987395 -0.011704743 -0.020348027 -0.017218977 0.013359964 -0.03196774 0.0036470394 0.002328227 0.03306035 0.0044282526 0.0060276887 -0.0005451441 -0.02864042 0.012379602 0.010658255 0.025447842 -0.0028225135 0.01035746 -0.024642607 0.0015743028 -0.02999871 -0.018332293 0.03240946 0.031929135 0.038489338 0.0002017071 -0.013319463 -0.030241504 0.020033842 -0.0044684215 0.021960562 -0.021603933 0.0071123145 0.010824367 0.040720902 0.028031122 0.0017177414 0.011021907 -0.0042478293 0.003932034 0.04130967 -0.026135376 0.0025993786 -0.029759627 0.0012131631 0.02409473 0.024167692 -0.027818348 -0.020561656 0.020110663 0.018039932 -0.0040887445 -0.014469644 0.0054993927 0.026028678 0.014822528 -0.02016133 -0.00042985877 0.020311192 -0.02303746 0.027360296 -0.020698559 0.019682935 -0.026312914 0.03641091 0.028268486 -0.0009480566 -0.035224125 -0.026076209 0.0036184292 -0.02347308 0.012449702 -0.018823754 -0.035006233 -0.0313256 0.0075083226 -0.023371493 -0.032995384 0.0147520555 0.0047634146 -0.03948536 0.019212952 0.023195555 0.0019999198 -0.020520087 -0.039994493 -0.012700027 0.026302814 0.029747015 0.034418534 -0.00738665 -0.0039410545 0.028965399 -0.029522186 0.03430107 -0.009061357 -0.022653222 -0.03229268 -0.020165678 0.024312994 -0.021482766 0.005046492 -0.022308737 -0.009065395 -0.03591367 0.03917302 0.023392668 0.031599544 0.015136967 -0.02100502 -0.026150923 0.011384646 0.031154906 0.029217944 -0.03552258 -0.0043722442 -0.025239995 0.0381733 0.017352253 0.022888338 0.0022153507 0.019982275 0.033362694 0.03612665 0.01933138 0.0033871036 -0.0067337207 0.025131991 -0.010895669 0.01991209 0.040563222 0.025192764 0.0030498407 -0.029903492 -0.01694577 0.028682452 0.022229895 -0.0072038076 -0.027094161 -0.012219141 0.0053970367 -0.02897644 0.022745471 -0.03664303 0.033504702 -0.026378583 0.015401175 0.0013753474 -0.010652116 -0.0010230591 -0.000802209 0.0008886854 0.018151324 -0.031060245 -0.03724327 0.0060403696 -0.02210182 0.011789913 -0.026599055 0.025099676 -0.003604859 -0.0107806325 -0.031116322 -0.0102955755 -0.011089052 -0.034914427 -0.02089493 -0.006557743 0.025199335 0.006027505 -0.005730465 0.0016656369 0.0001590997 -0.008531298 -0.0057191155 0.019812819 0.038602173 0.01874116 -0.034042932 0.03669634 0.024326663 0.020809984 -0.019282674 -0.017660206 0.026237886 -0.024490735 -0.030161068 -0.039680444 -0.019121896 -0.027972784 -0.010219703 0.029153978 0.017630085 -0.030947253 0.039668422 -0.037501372 -0.004578675 -0.018491661 0.0066561303 -0.030911168 0.040030997 -0.011420166 -0.01640605 -0.01723431 -0.035397127 0.03272028 -0.015077546 0.039760556 -0.02968891 -0.0067087165 -0.035996124 -0.03341901 0.0021077793 0.028921511 0.019659003 -0.040248524 0.01725335 0.031618506 -0.020668149 -0.008216227 -0.00027977428 -0.037441574 -0.027334532 0.010315841 -0.031796016 -0.039871223 -0.036301862 -0.012365754 -0.036870554 -0.030652827 -0.028566461 -0.012547473 0.028667033 -0.024671316 0.026515236 0.024719965 -0.036828574 -0.0010481279 -0.014112647 0.028560083 -0.002701218 -0.033990934 -0.041038122 0.028158015 0.019087642 -0.013751443 -0.008160314 0.03134605 -0.03521694 0.009251709 -0.017405069 0.0048155887 -0.013611689 0.028364128 -0.029808149 0.04056014 -0.0041727675 -0.02831006 -0.03917442 -0.0222602 -0.008244669 -0.025634732 0.015221889 0.03734853 0.029096201 -0.018883448 -0.03480751 0.013052355 0.012953162 0.021620557 -0.0019377868 0.01010108 0.038576733 -0.0067517413 -0.00857982 -0.0036062847 -0.029330611 -0.006381954 -0.016003683 0.0211204 -0.029025584 0.039668273 0.019574469 -0.032684065 0.017226622 -0.035273384 0.024772992 -0.040021177 0.006530007 0.038788088 0.010147522 -0.034444958 -0.026290476 -0.006392032 -0.034304492 0.0022973171 -0.0031919281 0.006533315 -0.010787755 0.037472658 -0.040536374 0.039296623 0.02439491 -0.012360275 0.007938887 0.010585169 -0.03217656 -0.040248126 -0.025739184 -0.019658864 0.041208364 0.013731415 0.027647268 0.026099455 0.030853694 -0.025169235 0.024220794 -0.040333435 -0.018871274 -0.0016590506 -0.0048950813 0.03794837 0.014148196 0.015253152 0.038307797 -0.007589092 0.026282465 0.005816266 -0.023618763 -0.0017416626 -0.018634763 -0.03145364 0.030602109 -0.01283285 -0.008962348 0.00879098 -0.03457369 0.018600827 -0.0073173745 0.025503194 0.032413557 -0.0058704517 -0.03276729 -0.013316965 0.011382262 -0.006303355 -0.029533044 -0.005177006 0.00082938874 -0.030248418 -0.027091604 0.0066686175 0.02589674 0.027684879 0.041234862 -0.029694315 0.01867336 0.01783663 -0.026008954 -0.008332282 -0.0018739104 -0.032416552 -0.02573306 0.007702912 0.03072491 -0.028734725 -0.030957729 -0.002949223 -0.010156324 -0.035555176 0.019492453 -0.009766127 -0.03951296 0.039076284 0.034581494 0.007349258 0.0056422404 -0.02273668 -0.023545533 -0.01985929 -0.025889203 0.03625322 0.025048053 -0.008212681 0.02128172 -0.013548727 -0.020972189 0.0082251085 -0.020579224 -0.005014266 0.035373315 0.0052066147 -0.025001347 -0.009335443 0.033926617 0.031723104 -0.01609712 -0.015457904 0.0043266667 -0.028845882 -0.01489377 -0.022600785 -0.041142337 0.041607372 -0.014436404 0.03142671 -0.018926319 0.00958766 0.027094027 -0.035054564 -0.021642094 -0.026649456 -0.03196224 -0.016164616 0.013799941 0.031657588 -0.024767872 0.004516994 0.031414382 0.008914998 0.017051166 0.03892755 0.023085743 -0.015856108 0.013647884 0.028375417 -0.0052169114 -0.0003208667 -0.031256676 -0.006566912 -0.0038927048 -0.017773759 -0.040441446 0.019451043 -0.010291299 -0.03351488 -0.041207816 0.0014911791 -0.00341103 -0.015430793 -0.03706064 -0.00024088225 -0.02864718 0.020125002 0.0011135738 -0.0007199546 0.037992876 0.029071357 -0.014673616 0.015000096 -0.006323546 -0.015691658 0.017894179 -0.02479158 -0.035126995 0.009609933 0.007803336 0.030317765 0.028217888 -0.0039079143 -0.031270437 0.029378286 0.016287163 -0.0039323373 0.0020837784 0.021244239 -0.023918565 0.03682001 -0.014435689 0.004707928 0.005794431 -0.0018823545 0.013357952 0.03600941 0.018951502 -0.030653706 0.017251423 0.03715018 -0.0077051274 -0.0034795355 -0.011497816 -0.023612943 -0.0045098714 -0.001390492 0.0018808445 0.03138442 0.0057015717 0.0010307183 -0.008341894 0.017341405 -0.02813684 -0.013076475 -0.020014506 -0.025509745 0.026162302 0.019219643 0.017009368 -0.01013059 -0.030335372 -0.022840237 0.016617319 -0.00498797 0.012262329 0.0063256426 -0.018299546 0.012583688 0.0022476565 0.019858932 0.0010751238 0.026711565 -0.025908982 0.005110319 -0.010430366 0.017666042 0.012336364 0.010862222 -0.0408974 0.020054337 0.04072317 -0.026310097 -0.0028539202 0.008542339 -0.0187774 0.010908867 -0.041148238 0.015165314 -0.016696861 -0.03272631 -0.02712141 -0.03271301 0.00012562673 -0.008068552 -0.01994889 -0.01785874 0.018375805 -0.026927184 -0.022744458 -0.010424256 0.0012153685 -0.024165358 0.03684425 0.038891353 -0.028870583 0.013103972 -0.021764219 0.03726324 -0.02551582 0.0060736737 -0.014650847 -0.041220054 -0.03729926 -0.01576003 -0.0048390133 0.0016232282 0.035621442 -0.032151923 0.011995152 -0.024036547 0.03053322 0.013749252 -0.02443864 0.0050145043 0.009993246 -0.027815338 0.030543845 -0.024538979 0.016118815 0.04056499 -0.01043501 -0.03551121 0.02712447 -0.036430962 0.02222903 -0.027005296 0.03220887 -0.035239246 -0.018145796 0.014671679 0.01192466 0.02023992 -0.0234631 -0.02666094 0.031075489 -0.03859072 -0.020929685 0.02966654 -0.019673225 -0.023292651 -0.018429022 0.030009767 0.00220717 -0.03011264 0.011047821 0.040116068 -0.0053167096 -0.0009583831 -0.030140564 -0.039066367 -0.035065543 0.024766207 0.018707147 -0.017795524 0.010114899 -0.00046630204 0.027441492 0.018285176 0.012033528 -0.0010662576 -0.002050534 0.03132146 -0.04003788 -0.017033821 0.024325421 0.041663375 -0.013654093 -0.035886165 -0.03697632 -0.0114881005 0.012867252 0.028944597 0.0074417545 -0.016500667 0.018357893 0.03324371 0.0016703408 0.019645493 0.019192666 -0.011029298 0.032569364 0.032125518 0.032263547 -0.005947585 0.034171425 0.03809137 -0.008094003 -0.014758026 -0.023409069 0.009597446 -0.02008998 0.016074982 0.036119312 -0.0253333 0.018856283 -0.018653443 -0.014591838 0.027993467 0.023379028 0.020608217 -0.027855074 0.007394284 -0.014241194 0.009786725 -0.00508752 -0.02165785 0.035473302 0.0027106307 0.0074067116 0.027293112 0.037450608 0.02049101 0.020634037 -0.029710924 -0.009023066 -0.014990142 -0.036487427 0.014023523 -0.015703272 0.017614733 -0.03754686 -0.0073140264 0.019922411 0.019076642 -0.028561786 0.036666997 0.013667315 0.03860946 -0.029837703 -0.0034288715 -0.0134063065 0.012557805 0.0051171235 -0.008644074 -0.03188417 0.016475484 0.019445553 -0.025463304 -0.013195942 -0.02230072 -0.0030326794 0.0038687936 0.015078893 0.020370483 -0.039737917 -0.03480021 0.009006521 -0.025895467 0.03488581 -0.009806013 0.012185097 -0.011701341 0.007598038 -0.03782373 0.03475712 -0.018826177 -0.022722503 -0.010988316 0.004315838 0.021199277 0.010849859 0.02751035 0.018579056 -0.025741622 -0.037162013 0.0025500655 0.015771925 -0.0068214983 0.029001907 0.006638696 -0.012030652 -0.035440397 -0.0099837985 0.027152374 -0.022998443 -0.013493529 0.03541436 -0.030476943 0.034875967 0.0036286365 -0.035253532 -0.034724444 -0.013497597 0.012568886 0.0012643188 -0.008321653 -0.020269629 -0.018653622 -0.0009284268 -0.032011762 -0.017319247 0.013258904 -0.015280327 0.0073504946 0.0056509823 -0.01212672 0.035096712 0.006841784 -0.0016820233 -0.013153389 0.024470966 0.04159264 -0.013227324 -0.0035679392 -0.025632635 -0.037387278 -0.030291434 -0.003423517 -0.023335239 -0.02436174 0.026225384 -0.039825276 0.038392752 0.03066529 -0.035421357 -0.03202243 -0.0016250014 -0.006574278 -0.0051065735 0.040393617 0.028529674 -0.00048590702 -0.039307963 -0.024347588 -0.007944639 -0.03731948 -0.0055179796 0.0019079298 -0.020583019 0.03421911 -0.01730081 -0.028340995 -0.022115674 0.038612437 -0.037622616 0.030425891 -0.01220656 -0.014844641 0.029310342 0.006019538 0.032177877 -0.034265157 -0.014574736 0.0276274 -0.008627812 0.026286598 -0.040204838 0.026316082 -0.0009819865 0.029754346 0.03248955 0.008767928 -0.009128596 0.0354021 0.024142962 -0.013176739 0.03960858 -0.024094757 0.004234031 -0.010006508 0.002544418 0.019469023 -0.033783406 -7.440647e-05 0.030304214 -0.029052105 0.021960303 0.011097695 0.017822068 -0.033246078 0.0223943 0.025867295 -0.0009708057 0.011283278 -0.0038778037 -0.021856338 -0.00093920034 0.019804578 -0.018374871 0.005332227 -0.007220477 -0.03408967 -0.01021188 -0.011200702 -0.008119459 -0.0026120495 -0.03042337 0.0075966073 -0.0076773316 0.016792145 0.007585933 -0.009926538 -0.011100198 -0.009639993 0.032479238 0.00496689 -0.03824544 -0.015020053 -0.0056502423 -0.0067088306 0.013898527 -0.01223675 0.015791789 -0.020317808 0.023060894 -0.0053372583 0.012038877 -0.018812409 -0.020739606 0.039811872 -0.031902455 -0.032922633 -0.03976328 0.03742197 -0.022686675 0.01577512 0.016914904 -0.039633404 -0.013128574 0.010621185 -0.041260343 -0.027717298 -0.02251712 -0.021056255 -0.036476955 -0.021783402 0.025896247 -0.025621857 0.026366403 -0.040432893 -0.0009635588 -0.022677874 -0.0059143207 -0.015504807 0.018803269 0.014395371 -0.03233996 -0.033806756 -0.02013519 0.031102896 -0.03880413 0.018926164 -0.03714291 -0.016765758 0.028558802 -0.027219277 0.016645398 0.0062193773 -0.0042351237 -0.008061832 0.041212514 0.009381513 -0.0065720035 -0.010030906 -0.014738366 0.034885682 -0.036446013 -0.0067627183 0.023706233 -0.014776489 0.018194204 0.035493072 0.0064302287 0.028826898 0.037539076 0.0062327883 -0.016673848 0.01171582 0.0059539676 -0.01834046 -0.030716851 -0.039914213 0.011595041 0.011657338 0.0009499441 -0.035140418 0.00065881014 0.00013418993 -0.034947243 0.0056787683 -0.008069903 -0.0036406915 0.0073506436 0.02561672 -0.0002273967 0.034894876 0.015758565 0.0052746236 -0.016429108 -0.029917737 0.0044095516 0.034932233 0.030402442 -0.004052013 -0.026104063 0.0050593615 0.024364363 -0.010142639 -0.023420986 -0.019112036 -0.009484222 -0.028194454 0.018708583 0.020736527 0.02498602 -0.02374753 -0.03435987 0.03655883 0.002176419 0.03871961 -0.0026475787 -0.03799455 0.03787172 0.031615123 -0.0301406 -0.004592722 0.0024086784 0.030708075 -0.038638007 -0.031333696 0.014359688 -0.030966487 0.01368238 0.024330398 0.018322036 -0.024089158 -0.0172141 -0.021336168 -0.0016019344 0.019123575 -0.0036127071 0.014401108 -0.011856243 0.028706815 0.002005329 0.02822633 -0.035559587 0.012889828 -0.0067601204 0.03859643 -0.01773958 -0.009461249 0.029213145 -0.033994135 0.017312646 0.024599712 0.003680706 -0.03443257 0.0049382797 -0.01721172 0.029735517 -0.028317403 -0.030508703 0.010422255 0.015069306 -0.024397403 0.022359442 -0.038375877 0.012291228 0.036708653 0.034191005 -0.0013233672 -0.013095806 -0.0370334 -0.028560739 -0.014768943 -0.009373496 0.027574092 -0.009724146 -0.03145724 0.0014182031 -0.014115935 -0.01554358 0.0049324585 0.033973947 -0.013427317 -0.03070375 -0.03292207 0.028885882 0.021689177 0.00560386 0.040368706 -0.032043096 0.0051946044 0.01212286 0.020830428 -0.03410287 -0.0155888945 -0.0024347655 -0.002449274 -0.0003712376 0.027881544 0.032369733 0.027496275 -0.0068037114 0.036718473 0.016387474 0.02966929 0.011919404 0.0057542725 -0.033503737 -0.033182304 -0.016844288 -0.037611865 0.0068002692 0.009252588 -0.03325022 0.005695577 -0.026304659 -0.0173206 -0.026343843 0.017001515 0.035637107 0.009705886 -0.009834826 -0.03397314 -0.019067314 -0.023172354 0.004418254 0.017714148 -0.010696079 0.0049132607 -0.034628153 0.036625847 -0.025228485 0.034447744 0.018326005 0.013661454 0.038924545 -0.016216129 -0.02635939 -0.016140273 0.026505977 0.0074152006 -0.0021982095 0.024208114 0.015268087 0.017386666 0.017808463 -0.019290432 -0.0028186045 -0.03487534 -0.038736023 0.01461792 0.03764244 0.0087669445 0.029482454 -0.010734996 0.026070636 0.015819132 0.022920262 -0.03889908 -0.041055337 -0.02656218 0.020203 0.011805838 -0.0044724895 0.020383876 -0.015278792 -0.033649474 -0.0055810264 -0.030153468 -0.028818553 0.035294365 0.017885204 0.041279018 -0.03843359 0.00086164975 0.025951177 0.015731743 -0.0011188388 0.036963195 0.034357615 0.027977347 0.040500887 0.017785555 0.038732123 -0.02230082 0.030584013 0.0054659694 -0.002378305 0.019597795 0.014684364 -0.035318695 -0.025292939 -0.0024985075 -0.02166675 0.00994883 -0.039640285 -0.038568735 0.022344809 0.012387465 -0.016263109 0.038096696 -0.038884446 -0.002060756 -0.012324835 0.03675028 -0.002848491 -0.003788352 0.014321948 0.020190205 0.026078945 -0.03832568 0.039923415 0.026166048 -0.012676632 -0.036925565 7.774433e-05 -0.013153523 -0.01953961 0.014045224 -0.030627495 -0.03730745 -0.009290248 -0.019977357 0.019421529 -0.022189856 -0.032084256 0.011668017 0.010426983 -0.015113061 0.020919263 -0.040805347 -0.026606485 -0.041205972 0.034625705 -0.027538722 -0.024153065 0.040113807 -0.024647683 -0.00666525 0.017693814 0.0022585592 0.0021605692 -0.03608144 0.031041643 -0.02280364 0.022060797 -0.012961204 0.005961567 0.012038559 0.009928594 -0.028125873 -0.017568454 0.035434976 -0.00016057989 0.0069903634 -0.013330495 0.0051632924 0.017084857 -0.0039088577 0.039019957 0.03119981 -0.012375037 -0.03286358 -0.008102095 0.009800723 0.018852836 -0.020472988 -0.034000367 0.014887175 0.031856738 -0.02596726 -0.022779634 -0.013035044 0.02939273 0.016127318 0.01601944 -0.034879595 -0.007527739 -0.014996241 0.019119492 0.02576363 0.0052002966 0.037101608 0.016131978 -0.036931958 -0.0021440736 -0.038950264 0.01700076 -0.019167006 0.015299167 0.008445328 -0.02943566 0.025460055 -0.00069955987 -0.033812016 0.021252345 0.03546087 0.01101107 0.03529079 -0.041400164 0.0021973602 0.041358173 -0.01666995 -0.019391224 -0.027405774 0.030000553 -0.039778695 -0.027182302 0.015618171 0.016887646 -0.039897125 0.03654259 -0.009684956 -0.03649176 0.010795112 0.012825951 0.038745485 0.015670538 -0.0034886054 0.012079219 -0.02137818 -0.027283724 0.0084198965 0.038777985 0.018933441 -0.021528041 0.010333598 0.004173304 0.0008056214 -0.035324093 0.035600185 0.023732122 0.02059878 0.01950064 -0.016957736 -0.024069726 -0.041240733 -0.017620247 0.031584766 -0.0031625878 -0.040673725 0.020560857 0.016458824 -0.006165728 -0.035497617 0.0414713 0.028502192 -0.03237868 0.024066165 -0.031382397 -0.0053998185 0.029036611 -0.0023774903 -0.014319207 0.0016560357 -0.007316192 -0.006217604 -0.007300546 0.018620268 0.03475395 0.027925318 -0.015622601 0.026457906 0.018719098 -0.0006779134 0.0059474856 0.019517612 0.012581199 -0.023370167 0.013452048 0.0028654288 0.029618904 -0.012699088 0.040695764 -0.0042740954 0.01584725 0.010062799 -0.016225766 -0.0063827336 0.007329797 0.010286003 3.3279262e-05 0.033875734 -0.032006323 0.03985408 -0.0112626655 -0.0014664978 -0.0026940755 0.0034042299 0.012175764 0.01958057 0.02781345 -0.023795297 -0.008232316 0.037756946 -0.010412961 0.023754802 -0.008439755 -0.014357771 -0.009741262 -0.024866035 -0.017569125 0.031329032 0.0013209333 0.039535202 0.01897332 0.022339847 0.02808316 0.014172316 -0.021583334 -0.04121853 -0.000104328 -0.023753956 -0.03458897 0.02008318 -0.018875858 -0.02419516 -0.017934924 -0.036486637 0.007473578 -0.04057313 0.023811182 0.0007314235 0.011856183 0.01563349 -0.019505179 0.032860503 0.0154388305 0.029436186 0.026943138 -0.008983752 0.028705642 -0.004093056 -0.041408323 -0.034252115 0.008804485 0.030308854 -0.007920653 -0.027627304 -0.027697116 0.039772503 0.009861758 -0.038368605 -0.03832727 -0.02127715 0.041303076 -0.00080732506 -0.022629973 -0.023174724 0.022433436 0.014435898 -0.028295692 0.035962444 0.0353699 0.012055492 0.003194208 0.003031393 0.034082443 0.021463832 -0.035155304 -0.005725702 0.02423211 0.014163977 0.025547326 0.0069321 0.040654786 0.008281967 0.021318432 -0.003986314 0.028155318 0.027825361 -0.024727102 -0.036547057 0.031622212 0.0049280524 -0.040661223 -0.036087595 0.015764516 0.0066145114 0.02515174 0.037861347 -0.026425254 -0.030828973 -0.037712675 0.0037542037 -0.019541353 0.023095822 0.030874442 0.014433618 -0.02552252 -0.0014662843 0.0015483052 -0.03657037 -0.03170345 -0.03679224 0.03063352 0.01760849 0.026543673 -0.010919745 0.008981019 -0.033825688 0.02430365 0.0006481161 0.03655538 0.020618036 0.031496745 0.005544474 -0.015440172 -0.009762883 0.0358781 -0.033351816 -0.008431624 -0.016123682 -0.0013530701 0.001801317 -0.013865705 0.023750579 -0.0326183 0.033435665 0.009928743 -0.010760456 -0.027231276 -0.0056889905 0.02887356 -0.023832014 0.0015210013 0.040413268 -0.033422165 -0.04099698 -3.650288e-05 -0.024836853 0.028054815 -0.01904726 0.0137230065 0.0049367 0.02304801 -0.040414788 -0.015007829 -0.029740434 -0.002902185 0.029084936 0.014955665 -0.0045154095 -0.018868562 0.02270857 -0.01806448 -0.0093885865 0.033324488 -0.028136274 -0.03752856 -0.0067773312 0.009378141 0.029366285 0.026932284 0.013978526 -0.0232605 -0.012133306 -0.020958101 -0.005950208 0.010894935 0.0065179868 0.016618446 0.018606892 -0.016516834 -0.035468273 -0.032286193 -0.015894001 0.030034473 0.035733417 0.0071924776 -0.028422743 -0.024212968 0.0005433808 -0.019087147 -0.022958543 0.012681698 -0.01257963 0.022489503 -0.0052573383 -0.037365597 0.0004093349 -0.03545191 -0.024706354 0.023389619 -0.028310865 -0.0018866261 0.0383444 -0.027107175 -0.041471265 -0.008985396 0.025654545 -0.03353277 0.0238552 -0.0214392 -0.03868135 0.010184224 0.007774209 -0.023209259 0.016205605 -0.02310814 0.024145082 -0.0031758249 0.020329341 0.027847132 -0.030788219 0.028507814 -0.0076125367 -0.018296262 0.030062785 0.040145487 0.024877891 0.040536623 -0.040695798 0.012610848 -0.013189351 0.025888955 0.014389634 -0.035633527 0.005099833 -0.041028615 0.022000954 0.008985053 -0.007327239 0.008802871 -0.0075316234 0.026166331 -0.02713665 -0.022752877 -0.03204369 0.012992109 0.028572902 0.032522526 -0.004840429 0.012083396 0.016479101 0.021529173 -0.024916952 0.035850123 0.038822025 -0.027425319 -0.030631995 0.01129364 0.01197882 0.03460502 0.026359957 -0.010304163 -0.039944157 -0.038240723 0.028941542 0.007879794 0.039797 -0.010103947 -0.02307569 0.038862564 -0.026798025 -0.0069716424 0.0037201694 -0.013442829 -0.03235317 0.02554749 0.03177845 -0.010548974 -0.021934291 -0.009988844 0.03466725 -0.039802782 0.040491596 0.013817048 -0.0024823002 -0.0353216 0.0045589805 -0.017821237 -0.038519926 -0.011008243 -0.015556773 -0.029044475 0.034858014 -0.03529383 -0.012404765 -0.0021704733 -0.03952254 0.016256284 -0.017119214 -0.017476987 -0.00608553 -0.03331735 -0.03422693 0.009143686 -0.010550648 0.022946373 0.020157885 0.018082172 0.015575305 0.022204887 -0.023960983 0.004052202 -0.032672327 0.030918613 0.029985309 0.025322448 0.021714687 -0.013364464 -0.037078887 -0.008931513 0.024811601 -0.03152991 0.011329284 -0.02532662 0.007654702 -0.0070006154 -0.027667081 0.039118886 0.014365127 -0.017591745 0.032920655 0.03394331 0.0379415 -0.014750138 0.04030378 -0.010219455 -0.012937605 -0.013867557 0.008500288 0.013239443 0.012505328 -0.022116577 -0.022118643 -0.02168808 -0.022879258 0.02458027 -0.019187938 -0.0041914834 -0.025312155 -0.016395178 0.0235877 0.036146145 0.024984833 -0.030806731 -0.040765524 0.025440812 -0.022344928 -0.013450488 -0.015671581 -0.016880479 -0.030564126 -0.012235379 0.030009892 -0.02426519 0.017911106 -0.036753953 0.028553601 0.021027576 0.0010598551 -0.024655845 0.035460696 0.034442633 0.023752239 -0.0045744083 -0.019200455 0.023784027 -0.026091244 0.010180707 0.031108335 0.032883015 -0.016278442 -0.020926997 -0.016227474 0.040250115 -0.013433263 0.020260941 -0.0032855421 0.00825718 -0.034389567 0.03549871 -0.039401002 0.03255713 0.031061053 0.014273922 0.030040434 0.02067108 -0.013581097 0.039810296 -0.036937132 0.037551157 -0.021983966 0.017987907 -0.03345446 0.01567943 -0.028531075 0.013725857 -0.009573787 0.011489168 -0.013259928 -0.0409483 0.037491243 -0.019233387 0.023045521 0.037873488 -0.016760495 -0.037484523 0.01597928 -0.025036678 -0.041344963 0.009987618 0.025885716 -0.02605502 0.013156096 -0.01521489 0.023322647 -0.0033629388 -0.026493883 -0.029131606 0.035431527 0.03735245 0.027816083 -0.018130522 -0.018188214 -0.012940591 -0.03800964 -0.03263218 -0.007472217 0.0030085593 0.02835543 -0.032962263 0.005991449 0.0046351254 -0.02771768 -0.034916744 0.013348038 0.0042514554 0.027755156 0.0030441682 -0.034963813 0.021712711 0.040648833 -0.039350897 -0.021902164 -0.005050441 0.010449013 0.037399977 -0.023499012 -0.013747524 0.013597588 -0.0401164 -0.010804082 0.026937515 0.033158407 0.020455083 -0.034350283 -0.012611727 -0.008455153 -0.04052738 -0.027644446 -0.007505094 0.0063998303 -0.012454918 -0.0021816343 -0.0044605136 0.013129175 0.030759078 -0.015826255 0.039673455 0.022245016 0.024379563 -0.037848808 -0.031372026 -0.026048526 -0.014528116 0.02646654 -0.017870527 0.03206893 0.038191028 0.016800728 -0.029817652 -0.039776005 0.009376342 0.0052705756 0.038906466 0.039777115 -0.021387294 -0.033518456 -0.0076265237 -0.01768829 -0.010202989 -0.04000212 0.02879028 0.033310186 0.018777844 0.021988183 -0.02070899 -0.037338063 -0.010011112 0.021862086 -0.006390398 0.002982989 0.010698965 -0.012041177 0.011077747 -0.011994457 -0.019842451 0.03466414 0.014350141 0.034423254 0.035987064 0.041453935 0.0101992395 -0.033804342 -0.032960482 0.0413936 0.018734857 -0.025172457 0.028224435 0.008221388 0.015785005 -0.012736505 -0.035614308 0.02023168 -0.0344337 -0.022761991 0.014350688 -0.026666647 0.026301837 -0.008828878 -0.03803712 -0.014674803 0.0051905317 -0.024550464 -0.040552415 0.041308567 -0.016082074 -0.03685875 0.041158535 0.023677519 -0.036312215 -0.024399241 -0.027575389 0.028950095 0.0037085365 0.017871704 -0.010049909 0.0068268925 0.020431489 0.0032590232 -0.03964555 0.016801527 -0.0043586046 0.032300916 0.022952413 0.0027896166 -0.038983755 0.0076957545 0.027174246 0.0041138283 -0.03943069 0.03535708 -0.004960954 0.025476724 -0.033798404 -0.011139169 0.012645161 0.012083272 0.014878234 0.0046340674 -0.0373877 -0.008070877 0.01492859 -0.020645147 -0.017131135 -0.022646498 -0.027180588 0.033310577 -0.014977997 -0.03953369 0.013032357 0.031542715 0.036742903 0.02879261 0.0076928935 -0.022925615 0.007657702 -0.021356016 -0.02881765 0.01890789 -0.03633448 -0.036088943 -0.037563633 -0.0077876 0.01007401 0.009594878 -0.026076686 0.041172754 -0.02610465 0.027995542 0.00090457004 -0.005819892 0.011124751 -0.001983737 0.003613343 0.027899098 -0.04072798 0.030618599 0.0021841675 0.027253624 -0.032361887 0.03886795 0.004080261 0.023176994 -0.03548956 -0.016498333 -0.026108256 -0.025383811 -0.013303871 -0.010286212 -0.035318695 -0.027969947 0.027793836 -0.03940349 0.004337435 0.030288484 0.035601195 -0.03892387 0.0068594664 -0.003845071 -0.033628926 0.0060171587 -0.01624248 0.015843784 -0.018952038 0.035991427 -0.0027667335 -0.041582435 0.038437407 0.034986496 -0.013596371 0.007467916 -0.02060992 -0.013602431 -0.005071829 0.013921599 -0.027190244 0.03327687 0.026776489 -0.019954413 0.006700819 -0.020658553 0.012812143 -0.008145323 -0.030222189 -0.026918065 0.002510036 0.031929396 -0.0055960617 -0.032392897 -0.04160697 -0.031366955 -0.0028139353 0.0046818107 -0.026206087 -0.031294912 0.032327633 -0.025036678 0.0030431102 0.015068769 -0.0064991466 -0.023385685 -0.018349355 0.025109401 -0.0024639717 0.015244663 -0.014296493 -0.0021245133 0.0065129353 0.030707493 0.0059052757 -0.015851345 0.016113957 -0.0052865 -0.010666515 -0.008828551 0.016468918 -0.035035565 -0.014011681 -0.026786735 -0.03828028 -0.001609708 -0.0330742 -0.017427057 -0.030774068 -0.014599994 -0.0016271373 0.03861983 0.012089233 -0.024487307 -0.0034095547 -0.0031636208 0.04076924 0.019517343 -0.0045245937 0.020331567 0.020288348 0.040578242 0.029834798 -0.016787812 0.021155518 0.033919863 -0.015582293 0.024924492 0.01903837 0.01758191 0.023768311 0.008316344 -0.01750271 -0.031027626 0.029972818 0.01614092 -0.027795684 0.01659925 -0.01828984 -0.036505785 -0.027620837 0.02197881 0.029833253 -0.011534393 -0.0060678227 0.02380317 -0.012210782 0.026713928 0.0033361714 -0.0030510626 -0.016975313 -0.03058817 0.036444537 -0.011236548 0.035080235 -0.0063479445 0.0253622 0.008531119 0.037351232 -0.013862476 -0.0057512177 -0.020113682 -0.031403832 0.012650008 -0.035260763 -0.012116472 0.0032495311 0.02150327 -0.0009985219 0.029519856 0.023533707 0.0020234685 0.011029149 0.017388364 0.01877971 0.039129212 -0.0026940405 0.018684473 0.0067252517 0.0069915107 0.025283536 -0.023604482 -0.0385229 0.015782695 0.013224995 -0.028383812 0.0055339686 -0.0065689436 -0.023633739 0.038289882 0.008813873 0.039949473 -0.0200869 0.02661468 0.023287883 0.030952599 0.027835524 -0.0014284998 -0.024392843 -0.005183677 -0.021078687 0.036564153 -0.038380723 -0.023280015 0.008482034 -0.028154682 0.016672164 0.01419352 0.026930949 0.0010949175 0.01771906 -0.007124479 0.00045275688 0.036043815 -0.006030237 -0.027475309 0.03892324 0.039212134 0.022025555 0.03994755 0.011964351 0.019504502 -0.0032140415 0.007284259 -0.004269277 -0.039219536 -0.017259147 -0.0058412105 -0.033231057 0.04027918 0.018114373 -0.013853128 -0.023310205 -0.02705887 0.0052152723 0.020194715 -0.009596502 0.015806302 -0.025160631 0.03408008 -0.013455292 0.00491039 -0.019428309 -0.0048247776 0.011210522 0.03517297 -0.018448561 -0.01796481 0.022366703 0.03144107 0.02998746 -0.037807714 -0.027629342 -0.0070976913 0.035078645 -0.03743176 -0.02437996 -0.030325433 0.012203088 -0.033930846 -0.0076758713 -0.026643991 -0.037976205 -0.0027467709 -0.011999006 -0.018794697 -0.033723276 0.036913358 0.035404887 0.0052812845 0.026987191 0.032850184 0.037036445 -0.03399029 -0.019878935 -0.036309194 0.025396839 -0.025433972 0.040256694 0.03402473 0.009839153 -0.026618218 -0.031211218 0.028189456 0.028521355 -0.013677473 -0.024828013 0.024155786 -0.03288653 -0.04100129 -0.03714865 0.0034516256 0.006077111 0.008198475 -0.027605902 -0.0032045047 0.0184962 -0.0400943 0.009644827 0.03757312 0.0136017455 0.00572445 0.01180405 -0.008837134 -0.035764597 0.008410996 0.03003632 -0.01387923 -0.013401504 0.03827034 0.03415206 -0.022343438 0.0014599711 -0.034546383 -0.020632233 -0.0032046388 0.0032407246 -0.02513289 -0.0019550323 0.033784337 -0.001632904 -0.020231526 0.028044244 0.011757906 0.0063735796 0.03774121 0.029246401 -0.032433346 -0.010286322 0.0006634593 0.01695275 -0.015344983 -0.007275994 0.006919851 0.004104212 -0.028903132 -0.02194658 -0.0069618523 -0.01997298 0.013412684 -0.011593625 0.018347016 -0.015402119 -0.036455285 0.031612113 0.019611275 -0.026312843 -0.024850598 -0.026416644 -0.015624663 0.026800707 1.1543433e-05 -0.013599968 -0.000645563 -0.021795522 0.013938884 -0.015075654 -0.0012323012 0.0021650097 -0.021371197 -0.010320738 -0.011462748 -0.012320767 -0.038164627 -0.016704243 0.036675975 -0.0024074614 0.018795138 0.03465499 -0.028946828 0.008477345 -0.030032953 0.016366806 0.0030747354 0.009060964 0.02088983 0.0083674295 -0.005190919 -0.01466386 0.027566284 -0.022688117 -0.026210308 0.022457903 0.04003579 -0.018837443 0.009503211 -0.011835268 -0.015920814 -0.01120688 0.036238365 -0.029491171 -0.03557598 -0.017373344 -0.01128992 -0.013658598 0.0277079 0.020482838 -0.036783762 0.0023186654 0.022408035 0.010942395 0.035112705 -0.031177428 -0.018806115 0.0010338724 0.039493777 -0.016585559 -0.029782578 0.038757723 0.0026353996 0.010639633 -0.009126395 -0.008523971 -0.015164549 -0.0016657114 0.03375745 -0.025432702 0.026803395 0.015075932 -0.024241999 -0.017816972 -0.005841787 0.011015977 0.0033441186 0.021159064 0.039727964 0.008560365 0.020602128 -0.014151802 0.040369414 0.028054908 0.007786195 0.024216127 -0.023786064 -0.0020991466 0.038821977 -0.032662373 -0.0041190884 0.017905539 -0.028370088 0.0036726992 0.017148605 0.011650085 0.013819337 0.032797433 0.01393049 0.036732726 0.008566822 -0.019437175 0.01622687 0.0051496476 -0.030077672 -0.0062620044 -0.027288523 0.00054701173 0.00042151412 -0.01342234 -0.011648655 0.015669372 -0.0034722686 0.024879973 0.0008877019 0.031839944 0.026613902 0.034093108 -0.019898698 -0.016108518 -0.022199502 0.008480271 -0.032486554 0.027767178 -0.0068874164 -0.02648889 -0.030511012 0.029497247 0.038902067 -0.030782923 -0.019885352 0.028375199 -0.009312764 -0.031629976 -0.002689486 -0.009309451 0.00042933226 0.0025708377 -0.0095714135 -0.02140217 0.015228411 0.009694055 0.016875675 -0.021368673 0.037307784 0.0014704864 -0.004185885 -0.011083474 -0.012659907 -0.04008804 -0.029546034 -0.03586874 0.04016135 -0.026553994 0.02290675 0.0042084605 0.028392991 0.007221639 -0.0057261735 0.011377896 -0.005281528 -0.017766347 -0.016014438 0.038144704 -0.014616808 -0.009764518 -0.016337972 -0.028969124 0.038492106 -0.0074997246 -0.019394424 -0.023365956 0.02981639 -0.022084987 0.010299683 0.017145917 -0.0053838594 0.027866617 0.013121009 0.0030134718 -0.013060495 0.027956462 0.009403731 -0.017491713 -0.004941126 -0.03541146 -0.03978592 0.03672404 0.038542256 -0.0052975467 -0.004345596 -0.020060565 0.014362912 0.0011703919 0.015932705 0.005133818 0.022805562 0.0062244087 -0.0053324504 0.037890803 -0.016913116 -0.04078091 -0.024385577 0.015508911 -0.035295602 -0.019318115 0.020961162 -0.0045212656 -0.03646053 0.019558555 -0.01888161 0.033698063 0.029579964 -0.009831956 0.011846463 0.020275876 0.036317706 -0.010704975 0.022036608 0.0029537976 -0.02780449 -0.028880592 -0.007605086 -0.020657223 0.0262773 0.006506294 -0.022206958 0.0024130843 -0.003692612 -0.021504652 0.014566651 -0.022275567 -0.04014322 0.03106018 0.033576973 -0.011322588 0.01949222 0.03406039 -0.019244552 0.0125434995 0.033648074 -0.010992989 0.032653566 -0.00033071637 -0.005733689 0.03220026 -0.00079724693 -0.009574195 -0.009504746 0.041091375 -0.0029244772 -0.031331014 0.013622632 0.030289516 -0.0348138 -0.02113316 -0.02221131 -0.037873678 -0.018154066 0.037787925 0.008305952 -0.020271063 -0.021992689 -0.023964405 -0.005570084 -0.032217905 0.0063649863 0.011161774 0.00051506364 0.039845303 0.004997432 -0.038157895 0.028496027 0.016468212 0.0016931196 -0.027034204 0.0032516073 -0.038238026 -0.036052063 0.03074884 -0.016826391 0.025273498 -0.02921175 -0.037484523 -0.0014615606 0.035623908 -0.015753707 0.040782046 0.013458843 -0.039548185 -0.035814505 0.011005784 -0.03443549 -0.02920111 -0.030044135 0.023248341 0.039126918 -0.034472313 0.00038282078 0.0012207031 -0.031646892 0.011350593 0.009843877 0.030591413 0.021888375 -0.010918096 0.012884608 -0.033720747 0.039190646 0.022016417 0.024966573 0.0075220717 -0.012132074 0.03402041 0.034850694 0.040390342 0.027606755 -0.011578446 -0.001024897 -0.023677563 -0.03256713 0.010988286 -0.013624594 0.0155150145 -0.041011956 -0.005500158 0.0075205863 0.038133927 -0.037143644 0.013161257 -0.040312253 -0.029904138 -0.028195119 -0.03997071 0.038748935 -0.023187488 0.012680665 -0.019608116 -0.038454965 0.0053975536 0.0052178055 0.006524722 0.020727202 -0.032751165 -0.0313573 -0.013316612 0.017118793 0.022630528 -0.00053331256 -0.007496327 -0.03168203 0.024277076 0.018198088 -0.032655668 0.035398543 -0.014942601 0.028039481 -0.03588144 0.0129540665 0.037130177 -0.019404486 0.011286205 0.008103426 -0.016701356 -0.019284304 -0.008896222 0.019366309 0.01748009 -0.02844355 -0.014916157 0.031381086 -0.00120308 0.025869926 -0.0176799 -0.0034192703 -0.03419833 0.0070252074 0.008335899 -0.023391536 0.039466225 -0.03224052 0.022502687 0.035121776 -0.0050382316 0.032783713 -0.017132089 0.0069239736 0.032352503 -0.021245494 0.017857349 -0.023484677 0.005776028 0.0322866 0.02173023 0.029897701 0.035342246 0.025692543 0.006558513 -0.013959209 0.022499979 -0.01558291 -0.017506342 0.02826055 0.00031014284 0.008437982 0.007168512 -0.025502011 0.03289929 -0.0059930733 -0.017128408 -0.0013154298 -0.03766893 -0.037532747 0.011940941 0.035499882 -0.017907282 -0.019933885 0.04156592 0.0185844 -0.011200964 0.013321599 0.026581904 0.033526506 0.01432704 0.003552889 -0.0008365264 0.024871256 0.026196009 0.026082262 0.038152423 -0.035725784 0.019980615 -0.011373743 0.02425709 0.019784665 0.04116963 -0.041126944 0.023343664 0.038353212 -0.011985049 0.01052095 0.036383927 0.011290605 0.018154025 0.03835673 -0.00046085817 -0.035430923 0.018071448 0.037556805 -0.038330466 0.007865241 -0.028158367 0.034834363 0.020049145 -0.017773625 0.017828008 0.00030877691 0.025858914 -0.010285134 -0.0030814908 0.00081283355 0.008657426 0.022118967 -0.0057458384 0.028243344 -0.015233904 0.021633422 -0.034795076 0.039838314 0.025430873 -0.0091139525 -0.010990739 0.028699374 0.018379137 -0.0016950121 -0.005542969 -0.04115401 -0.038462415 -0.0012692809 0.013222596 -0.037972104 -0.035223704 -0.022453746 0.004129877 0.023619225 0.00036120912 -0.016055306 -0.018317059 -0.02880994 0.02522166 0.03693424 0.031650074 0.007814905 0.008326739 -0.03524811 0.011053896 0.035439115 -0.011962473 0.01458326 0.035812914 -0.03237341 0.012634506 -0.02466252 0.030973902 -0.008768435 0.034273952 -0.024320891 -0.012041828 0.013813784 -0.036483046 0.023253014 0.021933433 -0.018266007 -0.030658966 -0.0028697948 0.021166032 0.01642791 -0.026190307 -0.03034338 0.0061102314 -0.00033098957 -0.0053947717 -0.026792904 -0.016735759 0.037513636 -0.033593487 0.006710142 -0.023510646 -0.025421128 0.018734079 0.02937834 -0.004273027 -0.024606442 0.007187928 -0.022218376 -0.032800294 0.026123937 -0.023465078 -0.01090699 -0.023498844 -0.029142972 -0.016800314 -0.029602453 0.005426546 0.021415234 -0.016534304 -0.0299865 -0.023089882 0.03143946 -0.03148485 -0.0074588857 0.027170261 0.0019675195 -0.031687587 -0.02188681 -0.00016102692 0.031928256 0.035165295 -0.032703977 0.017572295 -0.020923655 -0.011429891 0.012198791 0.028675422 -0.0012312483 -0.014321705 -0.0030054252 0.0120418575 0.02820566 0.031346045 -0.03780368 -0.031800702 0.033905964 -0.01038679 0.035691813 0.0128665175 0.02337645 0.038428344 -0.030585408 0.021621933 -0.02972835 -0.020097088 -0.03132052 -0.034059044 -0.039780542 -0.0014811109 -0.037988365 -0.03214313 -0.038150024 0.037652597 -0.027454343 -0.010987809 -0.005523806 -0.03999778 0.032482248 0.026006158 -0.030957833 -0.01268214 0.0011139463 0.033683196 -0.004140243 0.0061612874 -0.006533161 0.039358065 0.02267776 0.039096057 -0.012671108 0.027598407 -0.033391558 0.03626068 0.0033896319 0.008417329 0.024082065 -0.04098554 0.03427688 -0.00704666 -0.03685617 0.027450994 -0.037972823 0.008231282 -0.008006817 -0.037253425 -0.040234692 0.012975673 -0.037404396 0.023887193 -0.018341621 0.00023490688 0.037373856 0.033774715 0.00131993 0.018852418 -0.012699972 -0.020588856 0.027490154 -0.013618976 -0.0081803305 -0.03908349 0.006959086 0.008866062 0.032291632 0.01041845 -0.0025512825 -0.009999236 -0.030788248 -0.013241544 0.013164988 0.0056367815 0.009875139 0.017645981 -0.036539163 -0.023430422 -0.027676811 -0.039881986 0.0042013824 0.03814538 -0.005726482 0.026726037 0.032711532 0.041139375 0.020107156 -0.038734414 0.036986798 0.030928161 -0.03662279 0.009031291 -0.028673407 0.027965706 -0.033972993 0.0011796852 0.0033039849 0.018207103 -0.0007635355 -0.027694251 0.033143073 0.0032514036 -0.034310542 -0.024783548 0.039954722 0.02949836 0.0007740458 0.018547809 -0.029061422 -0.005764167 -0.040931173 -0.0077760518 0.018054798 0.02375265 0.023483112 -0.01929476 0.011755879 0.006924212 -0.0028537116 -0.03665626 -0.0066276393 -0.016430523 -0.0011377782 -0.036341485 0.013190473 0.03849391 0.014570519 0.0077768266 0.037894383 -0.041062813 -0.018398821 -0.010912275 0.011138111 0.03054814 -0.005085513 0.014089873 -0.03154373 0.0129999025 0.024515048 0.012086406 -0.03637157 -0.026299343 0.020872345 -0.008004442 -0.025077816 -0.037452694 -0.03585968 0.04123702 -0.03236219 -0.00558649 0.03306868 0.037124738 -0.0053393794 0.015621498 -0.011060109 0.008143912 -0.029216921 0.039274618 -0.030596074 0.02720442 -0.03022628 0.00042796633 0.015653422 -0.015152216 -0.0038126013 0.029009944 -0.022057494 -0.03498268 0.032223314 -0.032995787 -0.023939356 -0.0051962286 0.007901108 0.006300837 0.033094138 0.021821296 -0.019677773 -0.03146739 -0.016122848 0.03922575 -0.026449233 -0.027758509 0.029684782 -0.021581229 -0.01804429 -0.005190139 -0.027994623 -0.024710527 -0.039672546 0.031338714 0.022606235 0.023651278 0.009416024 -0.0026145875 0.00071275735 0.036895704 -0.034057483 -0.035004847 0.031324785 0.034573205 0.0109541565 0.013698295 -0.038814798 -0.0050666584 -0.029552098 -0.013345396 0.022079553 -0.0018959543 -0.032069683 0.0051090373 0.040768325 -0.011123449 -0.023757383 -0.030150548 -0.035470556 -0.005622904 0.037009932 -0.021892846 -0.018246448 -0.0368202 0.024341762 -0.018955495 0.0043795905 -0.030336808 -0.009970129 0.028228944 -0.0012921393 -0.018736219 0.016338676 0.005097444 0.023512632 -0.024769923 -0.035012685 0.004391124 0.039579432 -0.034611814 0.04075352 -0.0062242895 0.037142556 -0.03981238 0.02284081 0.0072207204 0.023844382 0.030521959 -0.041385956 0.032305554 -0.024730494 -0.030908769 0.02836692 -0.005910074 -0.034773648 0.038505923 -0.014956474 0.03326703 -0.017593395 0.03165681 0.029237097 0.02973112 0.032296546 0.014593358 0.007291749 0.005598034 0.0073944232 0.024670452 0.0020309936 0.036508158 0.024597099 -0.007337754 0.0057118535 0.03788109 -0.020069208 -0.02479895 -0.03416402 -0.0055392934 -0.02440845 0.032009672 0.0019098123 0.026096528 0.03832742 0.02051054 -0.009804651 -0.031127568 -0.008194238 -0.013514797 -0.023054238 0.006068851 0.013579468 -0.019619014 0.01554437 -0.036370054 0.016382303 0.007657106 -0.0413312 -0.038529884 -0.015275086 0.008626948 0.0321996 0.037663653 0.014572045 0.013978621 0.005951072 -0.00134556 -0.02304396 -0.03891943 -0.015090357 